tree
version=v3
num_class=1
num_tree_per_iteration=1
label_index=0
max_feature_idx=13
objective=lambdarank
feature_names=word_overlap transfer_data_size task_data_size ratio_data_size transfer_ttr task_ttr distance_ttr mwe_dist genetic syntactic featural phonological inventory geographical
feature_infos=[4.8239546007984611e-05:0.055996267571293466] [417:56332] [417:56332] [0.0074025420720017039:135.08872901678657] [0.083547845079983626:0.91472562179234107] [0.083547845079983626:0.91472562179234107] [0.0016173370414462552:98.973138062881944] [0.17482412697205627:2.1941517017186225] [0.28570000000000001:1] [0:0.72999999999999998] [0:0.69999999999999996] [0:0.6875] [0:0.68799999999999994] [0:1]
tree_sizes=1746 1745 1753 1741 1750 1746 1759 1762 1762 1769 1768 1773 1776 1777 1781 1773 1774 1769 1782 1785 1785 1792 1794 1796 1801 1792 1793 1789 1811 1802 1821 1804 1803 1815 1821 1808 1817 1815 1827 1820 1813 1828 1814 1830 1828 1832 1833 1812 1832 1828 1827 1821 1823 1829 1847 1840 1831 1854 1835 1829 1846 1851 1854 1843 1848 1856 1850 1859 1855 1835 1846 1861 1846 1855 1861 1842 1845 1845 1859 1859 1863 1861 1862 1857 1871 1854 1857 1859 1855 1853 1863 1860 1862 1867 1861 1875 1879 1861 1855 1860

Tree=0
num_leaves=16
num_cat=0
split_feature=7 1 1 4 7 5 7 12 9 4 11 11 7 0 12
split_gain=5.33508 3.85416 5.77436 3.88945 2.39714 1.88736 1.66532 2.28932 1.48257 1.24948 1.2096 0.646673 0.631925 0.427931 0.235731
threshold=0.72543605975148928 40411.000000000007 3507.0000000000005 0.11059101642519507 0.77934415838513471 0.12037689099129574 1.4132136939274704 0.66670000000000007 0.55500000000000016 0.75690037016871969 0.62860000000000016 0.33050000000000007 1.1169906944474473 0.0023340474833816213 0.60465000000000013
decision_type=2 2 2 2 2 2 2 2 2 2 2 2 2 2 2
left_child=9 2 6 -4 -5 -3 7 12 -8 -1 11 -6 -2 -14 -11
right_child=1 5 3 4 10 -7 8 -9 -10 14 -12 -13 13 -15 -16
leaf_value=-0.17011234167521924 -0.17577835512565537 0.053111413484773579 -0.15461411700207867 0.0040934481895642241 0.10233746300539376 -0.16734301346837055 -0.13336053767737582 0.12221078818957283 0.11501927425662578 -0.079290027190097909 -0.0088309999790111022 0.19150429470141322 0.030812081934825 -0.14159088718909077 0.056000611151234225
leaf_weight=1.9661791650578393 1.4746616017073386 0.54412373900413413 0.53502814844250668 1.2841535322368143 1.0495219677686689 1.3564631827175615 0.33376763015985467 0.39364479854702938 0.8583022989332677 0.21434590779244889 0.4044968970119952 3.6144698113203049 0.29861137829720963 0.27802059054374689 0.32266075164079666
leaf_count=49 44 5 14 8 5 19 9 6 8 5 6 14 6 6 6
internal_value=0 0.268322 0.504997 1.04325 1.26133 -1.04229 -0.514325 -0.986815 0.454754 -1.33189 1.57053 1.71439 -1.41071 -0.523113 0.0199943
internal_weight=0 12.4253 10.5247 6.88767 6.35264 1.90059 3.63701 2.44494 1.19207 2.50319 5.06849 4.66399 2.05129 0.576632 0.537007
internal_count=210 150 126 47 33 24 79 62 17 60 25 19 56 12 11
shrinkage=0.1


Tree=1
num_leaves=16
num_cat=0
split_feature=4 4 0 1 3 12 7 0 3 2 9 11 9 0 6
split_gain=23.0735 15.1179 5.34328 4.96372 6.93028 4.64525 7.7186 3.74988 3.76241 2.44908 2.42917 1.0846 0.564524 0.467487 0.877847
threshold=0.12037689099129574 0.11059101642519507 0.017762762034324375 712.50000000000011 3.0028299069995108 0.57045000000000001 1.5367063467749784 0.0019318600060226857 1.5079643719806766 9968.5000000000018 0.59500000000000008 0.42985000000000001 0.65500000000000014 0.0023021143723510116 0.70197355566445163
decision_type=2 2 2 2 2 2 2 2 2 2 2 2 2 2 2
left_child=1 2 -1 -2 5 6 13 8 10 -8 -7 12 -6 -5 -15
right_child=3 -3 -4 4 11 7 9 -9 -10 -11 -12 -13 -14 14 -16
leaf_value=-0.17450377884982349 -0.1790880495597191 0.17548125429113703 0.10543481023901818 -0.1435264416615416 0.0065204873920849567 -0.043492246451582277 0.13763223707509598 -0.15480368622573323 0.14817670463263383 -0.067152071364811328 0.093794093834214762 -0.15594638451837489 -0.13477980910555043 -0.17258148541568497 -0.025230231573742663
leaf_weight=2.0321142338216283 2.7767863795161274 9.3713212534785271 1.026144318282604 4.1585294045507961 0.72446363419294235 3.2670500613748992 1.9588209092617035 0.88550730794668275 3.152214914560318 0.83206349611282338 2.1285829842090607 4.5391678176820278 0.4637334831058979 0.65377356857061375 1.0595618039369581
leaf_count=23 28 14 5 38 5 16 5 8 7 6 7 30 5 5 8
internal_value=0 1.12479 -0.805754 -0.525586 -0.378107 -0.0746773 -0.603387 0.410842 0.613771 0.765786 0.106674 -1.33682 -0.486267 -1.25415 -0.814564
internal_weight=0 12.4296 3.05826 26.6003 23.8235 18.0961 8.66275 9.43336 8.54785 2.79088 5.39563 5.72736 1.1882 5.87186 1.71334
internal_count=210 42 28 168 140 100 62 38 30 11 23 40 10 51 13
shrinkage=0.1


Tree=2
num_leaves=16
num_cat=0
split_feature=1 1 1 1 3 0 7 1 6 0 0 7 13 9 9
split_gain=10.2733 11.2101 3.77125 4.78491 3.39475 2.21519 2.11692 2.14298 1.68832 1.67266 1.16702 0.91503 0.583996 0.509065 0.477145
threshold=23528.000000000004 40411.000000000007 712.50000000000011 9968.5000000000018 0.12356009070294785 0.01453861959453618 1.0052100924828462 3507.0000000000005 0.25882790187475391 0.00031030854326140697 0.017762762034324375 0.81245782953977452 0.35000000000000003 0.65500000000000014 0.56500000000000006
decision_type=2 2 2 2 2 2 2 2 2 2 2 2 2 2 2
left_child=2 -2 -1 4 9 -3 7 13 12 -4 -5 -9 -8 14 -6
right_child=1 5 3 10 6 -7 8 11 -10 -11 -12 -13 -14 -15 -16
leaf_value=-0.15930631826700986 0.14553608400751025 -0.14919206317486761 0.024279406020420096 -0.14915359018121291 -0.095383333079709823 0.04270623801096915 -0.08868978626727185 -0.051659067160103135 0.10599354566329976 -0.129754199407314 -0.0041060361210981736 0.096257929274492809 0.029331350486516822 -0.1567399807263018 -0.019747231318194409
leaf_weight=2.3139741197228458 7.552699923515318 1.9160232692956929 0.97669180482626261 3.2033040523529048 1.2558468058705314 0.87683457136154164 0.61530698835849751 0.54450736194849048 3.9133905023336411 2.5341248884797096 0.67086725682020176 1.8031209111213682 1.3159444481134412 0.45900223404169072 2.4832841753959656
leaf_count=28 14 23 5 37 11 5 6 5 9 26 5 5 6 5 20
internal_value=0 0.822364 -0.385154 -0.243813 -0.00101353 -0.889444 0.244938 -0.145641 0.68237 -0.869028 -1.24037 0.619502 -0.0827081 -0.573514 -0.451508
internal_weight=0 10.3456 22.0894 19.7754 15.9012 2.79286 12.3904 6.54576 5.84464 3.51082 3.87417 2.34763 1.93125 4.19813 3.73913
internal_count=210 42 168 140 98 28 67 46 21 31 42 10 12 36 31
shrinkage=0.1


Tree=3
num_leaves=16
num_cat=0
split_feature=1 1 1 1 13 7 9 0 12 7 12 6 12 0 6
split_gain=6.93732 6.02874 2.51592 3.20415 2.8181 2.05102 2.45705 1.92922 1.8806 1.87973 1.73228 1.43961 1.4028 0.485219 0.380595
threshold=23528.000000000004 40411.000000000007 712.50000000000011 9968.5000000000018 0.25000000000000006 1.0052100924828462 0.6100000000000001 0.01453861959453618 0.59665000000000012 0.87013273636861876 0.60890000000000011 0.29889613565758089 0.65540000000000009 0.017762762034324375 2.8165510747171871
decision_type=2 2 2 2 2 2 2 2 2 2 2 2 2 2 2
left_child=2 9 -1 4 14 8 -7 -3 -6 -2 -10 -12 -13 -5 -4
right_child=1 7 3 13 5 6 -8 -9 10 -11 11 12 -14 -15 -16
leaf_value=-0.14647570809373017 0.047872832366354881 -0.13478089944535704 -0.064717523021464315 -0.13424482298994456 -0.11587911640210685 0.11280386373757618 -0.054805697598881979 0.047759150989543975 0.098690383559032605 0.15234389565605391 -0.10865047508388015 -0.082982539955720386 0.082705062149729058 -0.031432238534858645 -0.14167317956846104
leaf_weight=1.8241818025708258 2.7372028976678831 1.552707437425852 2.3325419872999205 2.5278287082910533 1.4593167267739771 3.5000391900539398 1.1659734621644018 0.9232526421546936 1.611001171171665 4.6449101567268372 1.3291159197688105 0.79902516305446658 1.4175465703010557 0.56088744848966587 0.88706488162279107
leaf_count=28 6 23 24 37 19 8 9 5 6 8 6 7 7 5 12
internal_value=0 0.683176 -0.346895 -0.230969 -0.0339987 0.201494 0.709205 -0.667141 -0.156575 1.13607 0.127047 -0.263633 0.229783 -1.15575 -0.859203
internal_weight=0 9.85807 19.4145 17.5903 14.5016 11.282 4.66601 2.47596 6.61601 7.38211 5.15669 3.54569 2.21657 3.08872 3.21961
internal_count=210 42 168 140 98 62 17 28 45 14 26 20 14 42 36
shrinkage=0.1


Tree=4
num_leaves=16
num_cat=0
split_feature=1 1 4 7 13 9 5 12 0 11 4 7 12 6 2
split_gain=6.60424 5.77082 2.05096 2.69218 2.8649 1.72956 1.39024 1.73424 1.33233 0.723729 0.682634 0.509697 0.413619 0.358162 0.262844
threshold=23528.000000000004 40411.000000000007 0.20960867828457028 0.77934415838513471 0.25000000000000006 0.6100000000000001 0.31117054796477256 0.66670000000000007 0.01453861959453618 0.42985000000000001 0.75690037016871969 0.87013273636861876 0.61745000000000017 2.8165510747171871 19386.000000000004
decision_type=2 2 2 2 2 2 2 2 2 2 2 2 2 2 2
left_child=2 11 -1 10 13 6 12 -8 -3 -7 -4 -2 -6 14 -5
right_child=1 8 3 4 5 9 7 -9 -10 -11 -12 -13 -14 -15 -16
leaf_value=-0.11321647362516543 0.082510947823886835 -0.1204566031890662 -0.11174712593027412 -0.076920908811957706 0.12970693917250631 0.0089166897903077674 -0.096839556934964391 0.090552881419295059 0.036580271648751911 -0.12517054551370943 -0.026784756962718849 0.13964814111677978 0.048651029367125516 -0.13593658846017784 0.0025254135549100335
leaf_weight=2.8848618157208028 2.5386621654033643 1.5196983106434347 3.0628330633044234 1.5236045010387886 2.525584608316422 0.97381454706192005 0.91768430545926083 1.0693333856761453 0.83828234672546365 0.68616169691085815 1.3680499941110609 4.0551276206970215 0.83858441561460484 0.74475092813372612 0.57307355105876912
leaf_count=42 6 23 44 17 6 7 7 5 5 8 11 8 5 11 5
internal_value=0 0.69636 -0.36309 -0.207759 0.0833833 0.426667 0.703296 0.0400755 -0.646286 -0.465091 -0.855147 1.1765 1.09502 -0.76366 -0.552063
internal_weight=0 8.95177 17.1683 14.2835 9.85259 7.01116 5.35119 1.98702 2.35798 1.65998 4.43088 6.59379 3.36417 2.84143 2.09668
internal_count=210 42 168 126 71 38 23 12 28 15 55 14 11 33 22
shrinkage=0.1


Tree=5
num_leaves=16
num_cat=0
split_feature=1 1 1 1 13 7 9 0 5 12 0 12 1 7 7
split_gain=4.98984 5.03739 1.8279 1.85457 1.57261 1.14102 1.2402 0.972926 0.591029 0.506485 0.422239 0.52116 0.419827 1.13514 0.368014
threshold=23528.000000000004 40411.000000000007 712.50000000000011 9968.5000000000018 0.25000000000000006 0.81245782953977452 0.6100000000000001 0.01453861959453618 0.27489080593727977 0.60465000000000013 0.0019534492068226674 0.47785000000000005 3507.0000000000005 1.0681260453601504 0.87013273636861876
decision_type=2 2 2 2 2 2 2 2 2 2 2 2 2 2 2
left_child=2 14 -1 4 10 9 12 -3 -8 -6 -4 -12 13 -7 -2
right_child=1 7 3 -5 5 6 8 -9 -10 -11 11 -13 -14 -15 -16
leaf_value=-0.13498691717524533 0.08105350222258205 -0.11439286069999777 -0.10830552202460282 -0.094513872956951017 -0.087837571711623874 -0.057306379907610706 0.0076209172503954705 0.024811061505149778 -0.12792237825055655 0.0041519599092803136 -0.14128343872577642 -0.00046086134601872725 0.10798408859343352 0.089235641719947384 0.13336201026017114
leaf_weight=1.582796905189755 2.153810426592826 1.4054750688374045 1.3239082358777516 2.7802965901792041 1.1177806146442875 0.76203352957963966 1.0205804556608198 0.78113220632076252 0.46978336200118048 1.2884708046913145 0.33638472482562054 1.201380383223295 1.7772334367036817 1.725567355751991 3.5815810263156891
leaf_count=28 6 23 20 42 15 9 8 5 7 11 5 11 6 6 8
internal_value=0 0.644818 -0.332002 -0.215286 -0.0311996 0.192459 0.434229 -0.646644 -0.351042 -0.385801 -0.669069 -0.312657 0.708646 0.44345 1.13719
internal_weight=0 7.922 15.3862 13.8034 11.0231 8.16145 5.7552 2.18661 1.49036 2.40625 2.86167 1.53777 4.26483 2.4876 5.73539
internal_count=210 42 168 140 98 62 36 28 15 26 36 16 21 15 14
shrinkage=0.1


Tree=6
num_leaves=16
num_cat=0
split_feature=1 1 1 1 12 0 0 0 7 5 5 3 4 7 7
split_gain=3.91598 3.86219 1.53604 1.53659 1.06398 1.07413 1.05981 0.922653 1.16254 0.78093 0.559089 0.780158 0.424653 0.370547 0.331527
threshold=23528.000000000004 40411.000000000007 712.50000000000011 16812.500000000004 0.57045000000000001 0.0017845616800651017 0.0019534492068226674 0.0014144240358766949 0.92286749158100678 0.12037689099129574 0.20960867828457028 0.50650763257373077 0.31117054796477256 0.87013273636861876 1.4298204461258488
decision_type=2 2 2 2 2 2 2 2 2 2 2 2 2 2 2
left_child=2 13 -1 4 6 7 -4 8 -6 -3 11 -8 -10 -2 -12
right_child=1 9 3 -5 5 -7 10 -9 12 -11 14 -13 -14 -15 -16
leaf_value=-0.13117771597823399 0.073244569442306826 0.029032511747359102 -0.089467824008943708 -0.10900913551645444 -0.041832500153098695 -0.078192730336553815 -0.035663678745200232 0.11123003848448842 0.0082205324711768016 -0.10451655688201343 -0.1147282613825707 0.1003986624656612 0.10572870301082232 0.12907181463785508 -0.00092930914518036135
leaf_weight=1.3641026131808782 1.9313241839408866 0.66782832890748967 2.3238827213644964 1.6671095676720131 1.8467227891087534 0.90172955766320195 0.7813311889767649 1.3463088646531103 0.71156546473503102 1.2715037167072294 0.49450560286641099 0.91482230275869358 1.1995912268757818 3.0928870439529419 0.53078510612249374
leaf_count=28 6 5 39 28 20 11 8 5 5 23 9 5 5 8 5
internal_value=0 0.613422 -0.303327 -0.195166 -0.0601643 0.224227 -0.398702 0.401979 0.147497 -0.585276 0.0248205 0.377217 0.694243 1.07612 -0.558154
internal_weight=0 6.96354 14.0825 12.7184 11.0512 6.00592 5.04533 5.10419 3.75788 1.93933 2.72144 1.69615 1.91116 5.02421 1.02529
internal_count=210 42 168 140 112 46 66 35 30 28 27 13 10 14 14
shrinkage=0.1


Tree=7
num_leaves=16
num_cat=0
split_feature=1 1 1 3 3 12 7 0 8 8 6 6 7 12 11
split_gain=3.11265 3.02748 1.24134 0.979404 0.910437 0.917543 1.2092 0.651996 0.410855 0.483741 0.404162 0.400909 0.337516 0.334354 0.293245
threshold=23528.000000000004 40411.000000000007 712.50000000000011 4.4719535783365574 2.1248008091849599 0.65540000000000009 1.1169906944474473 0.01453861959453618 0.82855000000000012 0.91875000000000007 0.39827161433434644 0.13493491395925214 0.87013273636861876 0.58150000000000013 0.23325000000000004
decision_type=2 2 2 2 2 2 2 2 2 2 2 2 2 2 2
left_child=2 12 -1 4 5 6 -4 14 -8 -10 -7 -5 -2 -6 -3
right_child=1 7 3 11 13 10 8 -9 9 -11 -12 -13 -14 -15 -16
leaf_value=-0.12706581408568327 0.068548770051985342 -0.0065112416901103535 -0.086486351787254168 -0.021640688550484361 -0.026587665398270399 -0.023852719716608725 -0.088296930745233648 0.027650214213507631 0.060465412952329482 -0.025894152035279477 0.073179782753691899 -0.11962052819232463 0.12522403782614849 0.076431167643087883 -0.12624082130870323
leaf_weight=1.1557029336690927 1.7374064773321141 0.26846374198794343 2.9017733708024007 0.64204255118966003 0.39552202448248847 0.65703846514224995 0.41610393300652537 0.6557575687766074 1.3422719873487949 1.2551423422992229 1.2382242009043691 1.1946815662086008 2.65877965092659 1.5483603477478025 0.85942484438419342
leaf_count=28 6 5 51 8 5 5 7 5 9 14 7 25 8 9 18
internal_value=0 0.582426 -0.282367 -0.183829 -0.0576932 -0.210105 -0.404112 -0.516418 0.0395534 0.187341 0.395411 -0.853708 1.02826 0.554699 -0.977424
internal_weight=0 6.17983 12.7469 11.5912 9.75444 7.81055 5.91529 1.78365 3.01352 2.59741 1.89526 1.83672 4.39619 1.94388 1.12789
internal_count=210 42 168 140 107 93 81 28 30 23 12 33 14 14 23
shrinkage=0.1


Tree=8
num_leaves=16
num_cat=0
split_feature=1 1 1 1 13 5 7 0 5 1 9 7 4 10 0
split_gain=2.33162 2.40446 1.05943 0.848291 0.856773 0.816794 0.65753 0.594288 0.533676 0.468525 0.449065 0.382102 0.291071 0.376954 0.24144
threshold=23528.000000000004 40411.000000000007 712.50000000000011 9968.5000000000018 0.25000000000000006 0.40062566858062104 0.81245782953977452 0.017762762034324375 0.12037689099129574 1881.0000000000002 0.6100000000000001 0.87013273636861876 0.31117054796477256 0.55000000000000016 0.0017845616800651017
decision_type=2 2 2 2 2 2 2 2 2 2 2 2 2 2 2
left_child=2 11 -1 4 12 6 -6 -5 -3 -7 14 -2 13 -4 -8
right_child=1 8 3 7 5 9 10 -9 -10 -11 -12 -13 -14 -15 -16
leaf_value=-0.12433996141937952 0.058716321600367563 0.027722125900857642 -0.066379715445014462 -0.10250853328593941 -0.01867228553551413 -0.12698987766998246 0.11237153617371265 0.025849151393249788 -0.092945213637872726 -0.0093700062170881185 5.9964720509485032e-05 0.12230620358235858 -0.10031053133350774 0.038601521485558267 0.048889647536989406
leaf_weight=0.98726620711386448 1.608933433890342 0.57115323841571797 0.91325721144676031 1.6028252393007272 1.4399691112339494 0.48493844643235201 1.3555070273578174 0.46545345336198801 1.0229986775666473 1.1227783113718031 0.8553592786192894 2.2896832078695297 0.86325911059975613 0.54682736843824387 1.0736497007310388
leaf_count=28 6 5 13 37 19 9 6 5 23 11 9 8 18 5 8
internal_value=0 0.53755 -0.252123 -0.160864 -0.0233787 0.167196 0.376707 -0.736224 -0.497125 -0.448479 0.623721 0.960631 -0.542784 -0.270624 0.843135
internal_weight=0 5.49277 11.7111 10.7238 8.65555 6.3322 4.72449 2.06828 1.59415 1.60772 3.28452 3.89862 2.32334 1.46008 2.42916
internal_count=210 42 168 140 98 62 42 42 28 20 23 14 36 18 14
shrinkage=0.1


Tree=9
num_leaves=16
num_cat=0
split_feature=7 1 1 4 5 5 13 4 7 12 3 12 3 0 7
split_gain=1.79457 1.67846 2.1313 0.915881 0.80085 0.550064 0.677653 0.528494 0.442247 0.392611 0.422622 0.357974 0.376773 0.342407 0.330225
threshold=0.73341142093149581 23528.000000000004 40411.000000000007 0.20960867828457028 0.11059101642519507 0.40062566858062104 0.25000000000000006 0.75690037016871969 1.0185048488183044 0.60465000000000013 0.28489276573414313 0.65540000000000009 0.86730334103601014 0.010157526830908323 1.5367063467749784
decision_type=2 2 2 2 2 2 2 2 2 2 2 2 2 2 2
left_child=7 3 -3 13 -5 6 -6 -1 -4 -8 -11 12 -7 -2 -10
right_child=1 2 8 4 5 11 9 -9 14 10 -12 -13 -14 -15 -16
leaf_value=-0.092844182891702168 -0.10853557148751017 0.11175133236458686 0.053939285516001495 -0.13351200872234315 -0.034886854543502273 -0.12780751674722926 0.08733116562550193 -0.0041694568407614312 -0.11983080020778741 0.071115894580831868 -0.038783835338785162 0.018762910474710317 -0.005989317328346077 0.0052777552714323769 0.0020507913318744803
leaf_weight=2.2642450369894518 1.1181815974414329 3.113378643989563 0.36528538167476632 0.38754818961024273 1.0682484880089758 0.54142316430807091 1.8393467441201212 0.95583671703934658 0.60920196212828159 0.7113213315606115 0.68869245424866676 0.79741473123431184 0.47809256985783577 0.34617040678858746 0.35001818835735321
leaf_count=52 29 12 5 9 19 11 10 11 14 5 10 7 6 5 5
internal_value=0 0.172548 0.665507 -0.101721 0.0589652 0.14718 0.341815 -0.665223 -0.396979 0.569583 0.170542 -0.314264 -0.70682 -0.816303 -0.753564
internal_weight=0 12.4143 4.43788 7.97644 6.51209 6.12454 4.30761 3.22008 1.32451 3.23936 1.40001 1.81693 1.01952 1.46435 0.95922
internal_count=210 147 36 111 77 68 44 63 24 25 15 24 17 34 19
shrinkage=0.1


Tree=10
num_leaves=16
num_cat=0
split_feature=1 1 1 1 0 12 0 0 12 0 12 2 3 11 7
split_gain=1.39829 1.8063 0.822466 0.590679 0.514597 0.449648 0.742763 0.490519 0.441002 0.428388 0.424023 0.392852 0.375095 0.40862 0.284688
threshold=23528.000000000004 40411.000000000007 712.50000000000011 16812.500000000004 0.01453861959453618 0.55775000000000008 0.0020952882571277569 0.0022121630982437292 0.59990000000000021 0.006064571552548065 0.65540000000000009 1881.0000000000002 0.50650763257373077 0.50160000000000016 0.87013273636861876
decision_type=2 2 2 2 2 2 2 2 2 2 2 2 2 2 2
left_child=2 14 -1 5 -3 6 -4 8 11 -5 -10 -7 -8 -14 -2
right_child=1 4 3 9 -6 7 12 -9 10 -11 -12 -13 13 -15 -16
leaf_value=-0.12061517896127656 0.055348991823455741 -0.10010670442120811 -0.078216689062932054 -0.12283195843632484 0.027799659127612866 0.11105612239166983 -0.050336813593458089 -0.1063283049599455 -0.041434810815226292 0.010022360472952787 0.0358335779593172 -0.012497477403970565 0.085418418392653017 -0.043816082008593688 0.1179968016672889
leaf_weight=0.76079987362027068 1.2715862244367611 0.79788257367908932 1.6595331802964195 0.76105863042175748 0.51924414932727803 0.90605968981981244 0.58748432248830784 0.29746125824749459 1.1692957580089571 0.35635413229465485 1.8089000377804039 0.35943621769547462 0.8330668583512304 0.34638970904052258 1.6886319071054456
leaf_count=28 6 23 40 23 5 5 10 6 17 5 16 5 6 7 8
internal_value=0 0.477389 -0.207393 -0.123755 -0.496828 -0.0282653 -0.301749 0.178088 0.265102 -0.804634 0.0549655 0.759634 0.149466 0.474641 0.910859
internal_weight=0 4.27734 9.84584 9.08504 1.31713 7.96763 3.42647 4.54115 4.24369 1.11741 2.9782 1.2655 1.76694 1.17946 2.96022
internal_count=210 42 168 140 28 112 63 49 43 28 33 10 23 13 14
shrinkage=0.1


Tree=11
num_leaves=16
num_cat=0
split_feature=7 1 4 4 7 0 1 12 4 0 12 0 11 13 3
split_gain=1.22122 1.03815 0.931811 0.737519 0.664478 0.635768 0.611223 0.547688 0.448655 0.365858 0.365117 0.304677 0.304144 0.200286 0.185645
threshold=0.70769066213115761 3507.0000000000005 0.11059101642519507 0.12037689099129574 1.1169906944474473 0.01453861959453618 16812.500000000004 0.66670000000000007 0.75690037016871969 0.0014971413892899855 0.46725000000000005 0.0022121630982437292 0.55715000000000015 0.25000000000000006 1.1530000000000002
decision_type=2 2 2 2 2 2 2 2 2 2 2 2 2 2 2
left_child=8 4 5 -4 7 -3 9 14 -1 -5 -6 -12 -8 -13 -2
right_child=1 2 3 6 10 -7 12 -9 -10 -11 11 13 -14 -15 -16
leaf_value=-0.099568951804472089 -0.10988335518077881 -0.11951920474932456 0.098380686192508129 0.0016544760047310079 -0.097930882662602914 0.03659379220734995 0.010711267238464953 0.024718510496847621 -0.008370873447536422 0.097792039906970357 0.063736566642728407 0.018894442552541697 -0.11377820447200732 -0.085176187421707794 -0.03913321767903491
leaf_weight=1.4561052285134803 1.1775609944015726 0.53709004633128621 2.4975869655609131 0.70049786195158981 0.24636200256645716 0.50723417848348618 0.39187090285122383 0.58083262853324402 0.85688486695289601 0.91018467396497726 1.1827627718448641 0.56864575296640396 0.39313824847340578 0.27404442243278027 0.54138658754527558
leaf_count=46 34 19 13 9 7 5 7 7 11 6 10 7 12 5 12
internal_value=0 0.144783 0.42057 0.603581 -0.21341 -0.436942 0.207183 -0.592332 -0.657831 0.559811 0.170177 0.309992 -0.51634 -0.149495 -0.876004
internal_weight=0 10.5092 5.9376 4.89328 4.5716 1.04432 2.39569 2.29978 2.31299 1.61068 2.27181 2.02545 0.785009 0.84269 1.71895
internal_count=210 153 71 47 82 24 34 53 57 15 29 22 19 12 46
shrinkage=0.1


Tree=12
num_leaves=16
num_cat=0
split_feature=7 3 6 13 1 1 4 5 1 0 0 0 6 5 9
split_gain=1.50668 0.770109 0.815155 0.62785 0.626962 0.680251 0.519549 0.493014 0.524602 0.343259 0.32312 0.317924 0.294813 0.381548 0.266186
threshold=0.70769066213115761 0.15222061847191384 1.0841368711974175 0.45000000000000007 40411.000000000007 23528.000000000004 0.20960867828457028 0.27489080593727977 1281.0000000000002 0.0024189719878067802 0.0069631644804298322 0.0022121630982437292 0.43174577472163805 0.11059101642519507 0.59500000000000008
decision_type=2 2 2 2 2 2 2 2 2 2 2 2 2 2 2
left_child=3 12 4 -1 5 6 9 11 -9 -3 -6 -8 -2 -14 -5
right_child=1 2 -4 14 10 -7 7 8 -10 -11 -12 -13 13 -15 -16
leaf_value=-0.12947767894030654 -0.11720360726127606 -0.089902119805892855 -0.11617056004514181 -0.07028845747397075 -0.092290264101320213 0.09262582240177554 0.09056925557706462 -0.12719552317196137 0.026450914305419921 0.026518843387166743 0.027236489028133467 -0.014592869847862828 -0.1199160545185176 0.016079689691967949 0.018921860691976253
leaf_weight=1.0424369676038632 0.43983021751046081 0.56530349887907305 0.36678127571940405 0.67313210293650627 0.52743464149534691 2.1988519281148911 1.8022920880466706 0.26903703622519959 1.2770270779728887 0.45879562012851238 0.39596163667738438 0.34203456714749325 0.28033708222210385 0.78113990090787411 0.66479096096009016
leaf_count=31 13 22 9 13 19 13 14 6 17 7 5 5 11 12 13
internal_value=0 0.174868 0.295377 -0.712945 0.363572 0.466944 0.252719 0.427595 -0.0028574 -0.377456 -0.41036 0.737952 -0.483619 -0.198369 -0.259614
internal_weight=0 9.70483 8.20352 2.38036 7.83674 6.91334 4.71449 3.69039 1.54606 1.0241 0.923396 2.14433 1.50131 1.06148 1.33792
internal_count=210 153 117 57 108 84 71 42 23 29 24 19 36 23 26
shrinkage=0.1


Tree=13
num_leaves=16
num_cat=0
split_feature=7 1 1 4 13 5 12 13 3 12 0 12 7 12 3
split_gain=0.800624 0.699587 1.08423 0.443794 0.484563 0.363815 0.4275 0.290123 0.2855 0.28173 0.248687 0.209498 0.161307 0.146435 0.145803
threshold=0.75006419545601732 23528.000000000004 40411.000000000007 0.20960867828457028 0.25000000000000006 0.40062566858062104 0.65540000000000009 0.45000000000000007 3.5102040095923264 0.59990000000000021 0.0069631644804298322 0.65540000000000009 1.2299212042586489 0.47785000000000005 5.0217798918406826
decision_type=2 2 2 2 2 2 2 2 2 2 2 2 2 2 2
left_child=7 3 -3 -2 12 8 -7 -1 9 -6 -4 -11 -5 -14 -9
right_child=1 2 10 4 5 6 -8 14 -10 11 -12 -13 13 -15 -16
leaf_value=-0.095953231128842464 -0.068091420096788577 0.098968229210614364 -0.084819788113889238 -0.095117602174268165 0.097075670796232652 -0.11149052029028893 0.027251940720706913 -0.013358183948419648 -0.031359583865818351 -0.056990433780740979 0.022729740616162175 0.053659150793342714 -0.094268638017365319 0.0019348465314990562 -0.12007683056552598
leaf_weight=0.90223818086087804 0.9479048177599888 1.8669785857200625 0.47647423669695838 0.42091578990221001 1.1258198171854026 0.3525929208844899 0.60000009834766388 1.3123711729422209 0.36755040474236 0.24746725894510732 0.39178169704973698 0.55457319691777229 0.20516153238713741 0.69153382256627083 0.14186109416186821
leaf_count=33 33 12 19 15 7 11 7 27 6 6 5 5 7 11 6
internal_value=0 0.146856 0.560326 -0.0582648 0.0710085 0.278505 -0.241022 -0.514065 0.494108 0.648099 -0.362904 0.195185 -0.440485 -0.200763 -0.237686
internal_weight=0 8.24875 2.73523 5.51352 4.56561 3.248 0.952593 2.35647 2.29541 1.92786 0.868256 0.80204 1.31761 0.896695 1.45423
internal_count=210 144 36 108 75 42 18 66 24 18 24 11 33 18 33
shrinkage=0.1


Tree=14
num_leaves=16
num_cat=0
split_feature=1 1 1 1 12 0 11 0 0 7 0 7 3 11 11
split_gain=0.676364 0.448126 0.902846 0.35753 0.328393 0.379013 0.269139 0.242152 0.379139 0.264774 0.235455 0.233902 0.180157 0.234191 0.132715
threshold=712.50000000000011 23528.000000000004 40411.000000000007 16812.500000000004 0.55775000000000008 0.0020952882571277569 0.45225000000000004 0.0017845616800651017 0.0014144240358766949 0.92286749158100678 0.01453861959453618 0.87013273636861876 0.50650763257373077 0.50160000000000016 0.50160000000000016
decision_type=2 2 2 2 2 2 2 2 2 2 2 2 2 2 2
left_child=-1 3 11 4 5 -2 -5 8 9 -6 -4 -3 14 -14 -7
right_child=1 2 10 6 7 12 -8 -9 -10 -11 -12 -13 13 -15 -16
leaf_value=-0.11611548766207946 -0.070368491932454688 0.041834258902491393 -0.086317142033837224 0.0026971141005445835 -0.021185184240149781 -0.10500385776577148 -0.12040506546392489 -0.039576382683900971 0.10084367723664137 0.04913088162860179 0.015231923814873281 0.11366274502032117 0.074609243421592558 -0.043778422024798598 0.0047130254600342833
leaf_weight=0.47693358268588854 1.1249317359179243 0.8399636968970301 0.50892979465425003 0.28797465004026879 1.1177642662078153 0.18714733235537984 0.46337683033198118 0.56021634861826886 0.62799615412950505 1.0280212275683878 0.4141140915453434 0.98498579114675522 0.54945259727537632 0.24011263810098168 0.26831184327602386
leaf_count=28 40 6 23 7 21 5 21 13 5 10 5 8 6 7 5
internal_value=0 0.0601734 0.398377 -0.0837984 0.001616 -0.282975 -0.73223 0.203916 0.325033 0.125024 -0.407582 0.806025 0.0971536 0.386067 -0.403694
internal_weight=0 9.2033 2.74799 6.45531 5.70395 2.36996 0.751351 3.334 2.77378 2.14579 0.923044 1.82495 1.24502 0.789565 0.455459
internal_count=210 182 42 140 112 63 28 49 36 31 28 14 23 13 10
shrinkage=0.1


Tree=15
num_leaves=16
num_cat=0
split_feature=1 1 1 3 3 12 1 11 1 7 3 7 0 7 5
split_gain=0.571971 0.372535 0.815185 0.305538 0.22848 0.291373 0.213899 0.209893 0.20368 0.239267 0.226106 0.277353 0.283834 0.19593 0.193997
threshold=712.50000000000011 23528.000000000004 40411.000000000007 9.3991757682324941 0.15222061847191384 0.65540000000000009 16812.500000000004 0.48255000000000009 3507.0000000000005 0.77934415838513471 2.7795576249980916 1.4132136939274704 0.0015950285659673306 0.87013273636861876 0.12037689099129574
decision_type=2 2 2 2 2 2 2 2 2 2 2 2 2 2 2
left_child=-1 3 13 4 5 -2 8 -8 10 -10 11 12 -6 -3 -4
right_child=1 2 14 -5 6 -7 7 -9 9 -11 -12 -13 -14 -15 -16
leaf_value=-0.11506397307869427 -0.067358048532888112 0.043458220239036172 0.017088642734677726 -0.1040664441388069 0.024279129786750304 0.028500235813674973 0.016616029033204274 -0.11448443110886303 -0.0077608148329254088 0.081854016815780861 -0.072960929674423747 0.061253178656863742 -0.069791490077290741 0.11294074387408615 -0.080936900331696288
leaf_weight=0.4119475921615966 0.99133524857461253 0.77928427606821093 0.33696220070123661 0.31288409233093251 0.7757211159914742 0.46622669324278831 0.23039846681058401 0.2598535567522049 0.4662913531064985 0.8251851461827755 0.35852535814046849 0.75796423479914654 0.54685311205685139 0.84686174988746643 0.50365634635090828
leaf_count=28 32 6 5 16 14 5 5 13 12 8 9 8 18 8 23
internal_value=0 0.056042 0.383115 -0.0786232 -0.0256136 -0.366961 0.0922636 -0.528726 0.173871 0.494983 0.00384375 0.130235 -0.146168 0.796432 -0.416433
internal_weight=0 8.458 2.46676 5.99124 5.67835 1.45756 4.22079 0.490252 3.73054 1.29148 2.43906 2.08054 1.32257 1.62615 0.840619
internal_count=210 182 42 140 124 37 87 18 69 20 49 40 32 14 28
shrinkage=0.1


Tree=16
num_leaves=16
num_cat=0
split_feature=1 7 1 1 13 3 7 8 5 1 1 6 7 13 9
split_gain=0.47832 0.323105 0.342807 0.654089 0.243108 0.230754 0.192767 0.187187 0.17137 0.222965 0.214392 0.19158 0.167452 0.131887 0.144162
threshold=712.50000000000011 0.70769066213115761 23528.000000000004 40411.000000000007 0.25000000000000006 3.0028299069995108 1.0185048488183044 0.91875000000000007 0.40062566858062104 1881.0000000000002 16812.500000000004 0.36065978387856379 1.5367063467749784 0.45000000000000007 0.59500000000000008
decision_type=2 2 2 2 2 2 2 2 2 2 2 2 2 2 2
left_child=-1 5 4 7 -3 13 -5 -4 10 -10 -6 -11 -8 -2 -15
right_child=1 2 3 6 8 -7 12 -9 9 11 -12 -13 -14 14 -16
leaf_value=-0.11400953711214488 -0.092045970700852769 -0.037017944456892986 0.040764192210687625 0.053159941002054449 0.038134712948508363 -0.09682291696279624 -0.11352957973904419 0.11583398932835449 -0.1082657365589121 -0.05640410255359582 -0.11593779432921246 0.046151011020929812 0.0054532064123599816 -0.032492848953752679 0.059203573668917944
leaf_weight=0.35197056178003538 0.15605536568909861 1.3388813622295854 0.54111046344041847 0.18917430378496641 1.9237810624763376 0.46322951838374138 0.29377997014671564 0.86016432195901871 0.22168877162039269 0.30092824250459671 0.094763464294373892 0.4615004388615489 0.19800398126244545 0.37217172794044018 0.31790865864604712
leaf_count=28 8 44 6 5 29 21 14 7 9 6 7 8 5 8 5
internal_value=0 0.0518909 0.144175 0.477745 -0.0158069 -0.400859 -0.326253 0.868453 0.142207 -0.199937 0.309016 0.0567282 -0.656243 -0.0902439 0.0975018
internal_weight=0 7.73314 6.42378 2.08223 4.34154 1.30937 0.680958 1.40127 3.00266 0.984117 2.01854 0.762429 0.491784 0.846136 0.69008
internal_count=210 182 140 37 103 42 24 13 59 23 36 14 19 21 13
shrinkage=0.1


Tree=17
num_leaves=16
num_cat=0
split_feature=1 7 1 1 3 13 8 7 7 6 3 7 7 11 7
split_gain=0.417712 0.275247 0.295962 0.47914 0.20664 0.189746 0.185145 0.165284 0.149849 0.135131 0.29575 0.235571 0.157579 0.254955 0.114103
threshold=712.50000000000011 0.70769066213115761 23528.000000000004 40411.000000000007 3.0028299069995108 0.25000000000000006 0.91875000000000007 1.0185048488183044 1.5367063467749784 0.84167150597650198 0.2236361663355074 0.92286749158100678 0.85114578970930133 0.53875000000000017 0.76849195909565182
decision_type=2 2 2 2 2 2 2 2 2 2 2 2 2 2 2
left_child=-1 4 5 6 -2 -3 -4 -5 -9 10 -7 -11 14 -14 -12
right_child=1 2 3 7 -6 9 -8 8 -10 11 12 -13 13 -15 -16
leaf_value=-0.11368645151740751 -0.009186155897702275 -0.033303679451730385 0.03627909504530042 0.05470240773585841 -0.09747164219228957 -0.090143192008202033 0.11434933762803785 -0.10836364249810418 0.0095216973795849008 -0.0808259079684778 -0.0027928348494015553 0.085042918687519398 0.042648717046906384 -0.044162516625356321 0.091508178115516162
leaf_weight=0.30979727907106269 0.78015905059874036 1.2830374874174593 0.5169045105576513 0.18354382179677475 0.40158180519938474 0.3022091565653689 0.73670115321874619 0.2535084225237369 0.18764179758727553 0.10401285439729679 0.19265715032815919 0.48428996279835695 0.65201968885958173 0.70313740987330675 0.38417686522006983
leaf_count=28 21 44 6 5 21 11 7 14 5 5 5 5 10 18 5
internal_value=0 0.0491513 0.136249 0.465048 -0.391875 -0.0141777 0.821583 -0.250429 -0.582215 0.130767 0.0184883 0.557171 0.162386 -0.023942 0.600125
internal_weight=0 7.16558 5.98384 1.8783 1.18174 4.10554 1.25361 0.624694 0.44115 2.8225 2.2342 0.588303 1.93199 1.35516 0.576834
internal_count=210 182 140 37 42 103 13 24 19 59 49 10 38 28 10
shrinkage=0.1


Tree=18
num_leaves=16
num_cat=0
split_feature=1 1 1 3 7 11 13 8 5 7 2 9 9 11 1
split_gain=0.355251 0.273617 0.406415 0.202351 0.177563 0.160355 0.146636 0.135909 0.198731 0.120089 0.114058 0.111517 0.114002 0.219445 0.154377
threshold=712.50000000000011 23528.000000000004 40411.000000000007 9.3991757682324941 0.87013273636861876 0.28375000000000006 0.25000000000000006 0.91875000000000007 0.40062566858062104 1.511820891938447 55435.000000000007 0.55500000000000016 0.6100000000000001 0.45225000000000004 16812.500000000004
decision_type=2 2 2 2 2 2 2 2 2 2 2 2 2 2 2
left_child=-1 3 4 6 -3 -4 7 -2 -9 -7 11 -8 14 -14 -13
right_child=1 2 5 -5 -6 9 10 8 -10 -11 -12 12 13 -15 -16
leaf_value=-0.11264585832662209 -0.00027741432474022654 0.033011173708431339 0.047746480541506243 -0.10027342229728411 0.11101363457713725 -0.098163246126000414 -0.03978886435548229 -0.12310078804500291 -0.0080400426679639436 0.0070588782762068848 -0.078112142048404956 0.038355944100368758 0.021487492323979673 -0.083074172618692613 -0.11763706027145703
leaf_weight=0.26902575790882094 0.62161892000585772 0.56961955130100228 0.20925810746848569 0.22651705611497155 0.59842777252197277 0.28329340554773808 0.3748604375869044 0.30773206055164337 0.29306782595813274 0.17575833760201931 0.14887984935194243 1.7818863466382029 0.67314904090017069 0.28599081560969358 0.065783360041677841
leaf_count=28 19 6 7 16 8 16 12 17 8 5 5 31 14 13 5
internal_value=0 0.0458062 0.373895 -0.0802509 0.729743 -0.248044 -0.034356 -0.330581 -0.669746 -0.578766 0.0743679 0.114399 0.182817 -0.096901 0.328021
internal_weight=0 6.61584 1.83636 4.77949 1.16805 0.66831 4.55297 1.22242 0.6008 0.459052 3.33055 3.18167 2.80681 0.95914 1.84767
internal_count=210 182 42 140 14 28 124 44 25 21 80 75 63 27 36
shrinkage=0.1


Tree=19
num_leaves=16
num_cat=0
split_feature=1 3 1 4 5 7 3 3 6 5 6 6 6 13 7
split_gain=0.326604 0.275757 0.231237 0.213838 0.213848 0.268087 0.156878 0.141268 0.27499 0.157083 0.130441 0.226701 0.128207 0.128503 0.124884
threshold=23528.000000000004 1.9789599862835179 712.50000000000011 0.12037689099129574 0.27489080593727977 0.92286749158100678 9.3991757682324941 0.15222061847191384 0.43174577472163805 0.11059101642519507 1.0841368711974175 0.67979730752055512 0.53994627249538441 0.35000000000000003 0.58302064737282877
decision_type=2 2 2 2 2 2 2 2 2 2 2 2 2 2 2
left_child=2 -2 -1 4 5 -3 7 8 -4 -10 11 12 13 -9 -12
right_child=1 3 6 -5 -6 -7 -8 10 9 -11 14 -13 -14 -15 -16
leaf_value=-0.11118704537591446 0.099801902844186482 -0.083963878619278551 -0.12228960050432819 -0.071736064054492052 0.084649059068449869 0.05729486292225619 -0.094299700824905727 -0.026215826300227719 -0.072428124808090841 0.021990132812719894 0.0032057714053026509 0.085987187547435368 -0.077018630389104129 0.028104310285897091 -0.088287624543583756
leaf_weight=0.23084503784775723 0.50053030811250199 0.25481929909437878 0.27350342646241166 0.24557717703282836 0.43696380034089088 0.28419129364192486 0.20376992225646959 0.63991966843605197 0.25318705942481762 0.57951459567993879 0.35427007637917984 0.3926931358873843 0.18149948120117176 1.3633392467163503 0.25771015696227551
leaf_count=28 7 5 12 13 10 7 16 23 12 13 11 6 7 26 14
internal_value=0 0.372879 -0.135749 0.116728 0.326603 -0.0948574 -0.0856687 -0.045 -0.352926 -0.0671821 0.0617995 0.160342 0.0346072 0.107523 -0.353229
internal_weight=0 1.72208 4.73025 1.22155 0.975974 0.539011 4.49941 4.29564 1.10621 0.832702 3.18943 2.57745 2.18476 2.00326 0.61198
internal_count=210 42 168 35 22 12 140 124 37 25 87 62 56 49 25
shrinkage=0.1


Tree=20
num_leaves=16
num_cat=0
split_feature=1 12 0 4 4 11 3 3 0 11 6 12 2 12 1
split_gain=0.250088 0.18977 0.330402 0.177726 0.245963 0.165047 0.231786 0.181348 0.160861 0.136365 0.131689 0.123032 0.116959 0.207059 0.123199
threshold=712.50000000000011 0.55775000000000008 0.0017845616800651017 0.11059101642519507 0.12037689099129574 0.27405000000000007 1.7959420465057609 0.38580025628326381 0.0022121630982437292 0.10250000000000002 0.21119680270277233 0.52330000000000021 1881.0000000000002 0.60890000000000011 16812.500000000004
decision_type=2 2 2 2 2 2 2 2 2 2 2 2 2 2 2
left_child=-1 2 9 -3 -5 -4 7 -7 12 -2 -9 -8 13 -6 -14
right_child=1 3 5 4 8 6 11 10 -10 -11 -12 -13 14 -15 -16
leaf_value=-0.10963789571690474 0.014490905554220996 -0.11737338288371575 0.078049757064722725 0.089483156727302421 0.084804255015415386 -0.050192265746150967 -0.13234307564129141 -0.0063413612809600298 -0.090518296694170955 -0.077511772781526656 0.075406416070223567 -0.018631895978898288 0.0094826628638907239 -0.019316607926777286 -0.10500987850300184
leaf_weight=0.20103468513116227 0.19973002187907721 0.089146019425243472 0.30684367008507241 0.50268432125449214 0.54615806043148118 0.27127991896122672 0.17157745640724886 0.32029526866972446 0.1426549470052122 0.83301657717674971 0.51216293498873711 0.21361144166439769 1.2548967814072964 0.29370302613824606 0.10159271024167528
leaf_count=28 7 9 5 7 8 10 8 9 7 51 8 6 28 10 9
internal_value=0 0.03827 -0.146505 0.216594 0.26021 0.112682 -0.0249439 0.208139 0.123821 -0.597187 0.439533 -0.692831 0.190656 0.483927 0.00907877
internal_weight=0 5.75935 2.82852 2.93084 2.84169 1.79577 1.48893 1.10374 2.33901 1.03275 0.832458 0.385189 2.19635 0.839861 1.35649
internal_count=210 182 104 78 69 46 41 27 62 58 17 14 55 18 37
shrinkage=0.1


Tree=21
num_leaves=16
num_cat=0
split_feature=1 1 1 1 7 11 2 6 9 5 11 7 11 3 7
split_gain=0.212925 0.154317 0.427298 0.160353 0.113262 0.103712 0.0907071 0.10557 0.16087 0.104354 0.102234 0.0846097 0.0822953 0.0776338 0.177215
threshold=712.50000000000011 23528.000000000004 40411.000000000007 16812.500000000004 0.87013273636861876 0.28375000000000006 55435.000000000007 19.148570954801553 0.64500000000000013 0.11059101642519507 0.42985000000000001 1.511820891938447 0.45225000000000004 2.1248008091849599 1.0681260453601504
decision_type=2 2 2 2 2 2 2 2 2 2 2 2 2 2 2
left_child=-1 3 4 6 -3 -4 7 8 9 -2 -10 -7 -5 14 -11
right_child=1 2 5 12 -6 11 -8 -9 10 13 -12 -13 -14 -15 -16
leaf_value=-0.10823526177292347 -0.10266645291196899 0.038403211363976897 0.028991730401908663 -0.017660918501083197 0.10994643519118197 -0.10313506616497392 -0.074115304742581295 0.060509542088185181 -0.013670570373618938 -0.032337305199924962 -0.10043591825960359 -0.0033799795969226077 -0.11096662941677611 0.037917890046755609 0.032479410942767295
leaf_weight=0.17598847113549698 0.081682004034521291 0.43983743339776971 0.15695980656892061 0.17426161468029011 0.44532904401421541 0.24090195307508111 0.15791099984198798 0.29573961906135071 0.31695981416851271 0.84408384654670976 0.23759876657277343 0.13140440173447132 0.20659337565302849 0.7974163806065917 0.84319146722555172
leaf_count=28 5 6 7 7 8 16 8 5 8 31 15 5 21 21 19
internal_value=0 0.0354723 0.318958 -0.0658999 0.743968 -0.391845 -0.000178243 0.034068 -0.0200426 0.0854954 -0.508449 -0.679268 -0.682743 0.122057 0.000539125
internal_weight=0 5.36987 1.41443 3.95544 0.885166 0.529266 3.57458 3.41667 3.12093 2.56637 0.554559 0.372306 0.380855 2.48469 1.68728
internal_count=210 182 42 140 14 28 112 104 99 76 23 21 28 71 50
shrinkage=0.1


Tree=22
num_leaves=16
num_cat=0
split_feature=1 12 0 10 9 4 11 7 12 9 3 11 3 5 0
split_gain=0.181531 0.146814 0.202048 0.136487 0.171956 0.127602 0.122683 0.203432 0.27311 0.159531 0.0964027 0.0882399 0.0779107 0.209758 0.0634316
threshold=712.50000000000011 0.55775000000000008 0.0017845616800651017 0.65000000000000002 0.59500000000000008 0.27489080593727977 0.27405000000000007 1.4913410471034012 0.47785000000000005 0.49500000000000005 7.2553914454439381 0.10250000000000002 1.7959420465057609 0.23297425298406463 0.0024189719878067802
decision_type=2 2 2 2 2 2 2 2 2 2 2 2 2 2 2
left_child=-1 2 11 4 10 -6 -4 8 -8 -9 12 -2 -3 -14 -10
right_child=1 3 6 -5 5 -7 7 9 14 -11 -12 -13 13 -15 -16
leaf_value=-0.10719847759854223 0.0098500241781360603 -0.0026014868813993472 0.069592553525033019 -0.048325378959487561 0.098341889696340917 0.016653816072617716 -0.13972733799406226 -0.066537202183107755 -0.065337257370278845 0.078960319658788414 -0.070861983309229271 -0.068874593083772098 -0.058019480390354462 0.082834379667374489 0.010837050100004889
leaf_weight=0.15334825706668187 0.17888511251658237 0.8706724792718894 0.2613859362900256 0.2646353687159716 0.47272066865116347 0.32112157624214888 0.18969770008698084 0.095120894722640514 0.13626310834661126 0.36272200383245945 0.1406385633163153 0.69766130205243837 0.14366515027359128 0.40034975856542582 0.55281037511304021
leaf_count=28 7 25 5 13 9 8 8 5 6 6 10 51 7 6 16
internal_value=0 0.0323065 -0.142269 0.197581 0.274278 0.652978 0.0693611 -0.0531688 -0.334765 0.487319 0.0809887 -0.528085 0.159486 0.456373 -0.0422629
internal_weight=0 5.08835 2.47455 2.6138 2.34917 0.793842 1.598 1.33661 0.878771 0.457843 1.55533 0.876546 1.41469 0.544015 0.689073
internal_count=210 182 104 78 65 17 46 41 30 11 48 58 38 13 22
shrinkage=0.1


Tree=23
num_leaves=16
num_cat=0
split_feature=1 4 4 0 7 8 9 11 7 6 5 11 1 2 0
split_gain=0.167406 0.146089 0.364714 0.203286 0.0940488 0.0851158 0.0865694 0.170535 0.103305 0.141904 0.129269 0.142012 0.113789 0.110805 0.105179
threshold=712.50000000000011 0.11059101642519507 0.12037689099129574 0.017762762034324375 0.87013273636861876 0.51430000000000009 0.6100000000000001 0.45225000000000004 0.77934415838513471 2.2608035938016005 0.27489080593727977 0.60420000000000007 3507.0000000000005 2312.0000000000005 0.0017845616800651017
decision_type=2 2 2 2 2 2 2 2 2 2 2 2 2 2 2
left_child=-1 3 4 -2 -3 -4 8 -8 12 10 14 13 -7 -12 -10
right_child=1 2 5 -5 -6 6 7 -9 9 -11 11 -13 -14 -15 -16
leaf_value=-0.10895484025342524 -0.11712418002114636 0.037749308552059893 -0.093928315884084984 0.021025549403916127 0.1091107520223492 0.0057634700579125677 0.0015487570866707376 -0.084228926136057106 0.089525809714040602 -0.12008270510810044 -0.0093187489882585548 0.025259502006982133 -0.077581019718123895 -0.15836112628411048 0.021984781663442778
leaf_weight=0.13705500657670189 0.22797561530023799 0.37789760157465918 0.10345981363207137 0.1999207641929388 0.36120966076850886 0.47946736216545183 0.73589943069964625 0.33833255339413881 0.4205762045457957 0.067045453470200189 0.1129989055916667 0.46492689941078413 0.24882519571110609 0.089303146116435514 0.51033835299313068
leaf_count=28 23 6 6 5 8 16 25 25 10 6 5 12 17 5 13
internal_value=0 0.0315159 0.0868408 -0.525782 0.726244 -0.0454932 -0.0188268 -0.254672 0.0870241 0.224418 0.28421 -0.0517264 -0.227116 -0.751112 0.52499
internal_weight=0 4.73818 4.31028 0.427896 0.739107 3.57117 3.46771 1.07423 2.39348 1.66519 1.59814 0.667229 0.728293 0.202302 0.930915
internal_count=210 182 154 28 14 140 134 50 84 51 45 22 33 10 23
shrinkage=0.1


Tree=24
num_leaves=16
num_cat=0
split_feature=12 5 12 0 1 3 11 7 4 3 3 5 9 3 0
split_gain=0.163134 0.1975 0.144422 0.143489 0.144758 0.153507 0.22827 0.101436 0.0996085 0.0923686 0.0740777 0.07699 0.0717236 0.0640918 0.0724631
threshold=0.65540000000000009 0.75690037016871969 0.66670000000000007 0.00048636127031704348 23528.000000000004 1.9789599862835179 0.27405000000000007 0.40555771149099873 0.20960867828457028 5.6899379090362059 0.33304623924065585 0.11059101642519507 0.58500000000000008 3.5102040095923264 0.0022121630982437292
decision_type=2 2 2 2 2 2 2 2 2 2 2 2 2 2 2
left_child=1 3 9 -1 7 -6 -7 -5 -9 -2 11 -10 -13 14 -12
right_child=2 -3 -4 4 5 6 -8 8 10 -11 13 12 -14 -15 -16
leaf_value=-0.070334109534399919 0.034473876058631427 -0.11573995538215912 -0.0026783192772314732 -0.11276201296590793 0.092940704839689081 0.068841081408642882 -0.054898890292290538 -0.054192185076385228 -0.12356751519195108 0.12219933835449746 0.040025364519674159 0.037046807829214587 -0.056824862600938081 -0.03115369018414484 -0.016142940663519768
leaf_weight=0.30242425319738764 0.25804876722395409 0.16738995793275524 0.46836298704147333 0.095253533916548672 0.30774424038827408 0.29347915202379227 0.3030060906894505 0.37488833838142488 0.079093546606600174 0.22439952287822959 0.80018940754234769 0.15073588863015175 0.17693546740338206 0.26051782630383957 0.32215789053589106
leaf_count=27 7 9 18 15 7 6 15 28 7 5 25 6 11 13 11
internal_value=0 -0.0964908 0.368769 -0.0452607 0.0176405 0.35578 0.0598292 -0.117663 -0.0732184 0.752773 0.0249647 -0.350164 -0.136419 0.135308 0.239028
internal_weight=0 3.63382 0.950811 3.46643 3.164 0.904229 0.596485 2.25977 2.16452 0.482448 1.78963 0.406765 0.327671 1.38287 1.12235
internal_count=210 180 30 171 144 28 21 116 101 12 73 24 17 49 36
shrinkage=0.1


Tree=25
num_leaves=16
num_cat=0
split_feature=1 1 1 1 7 5 0 7 13 5 6 6 3 0 5
split_gain=0.129201 0.101858 0.215829 0.109616 0.0975461 0.0916477 0.0688282 0.0638075 0.126067 0.122703 0.0812191 0.189202 0.0781047 0.0710606 0.0566582
threshold=712.50000000000011 23528.000000000004 40411.000000000007 16812.500000000004 1.0185048488183044 0.27489080593727977 0.006064571552548065 1.0052100924828462 0.45000000000000007 0.11059101642519507 0.17812963298707843 0.29889613565758089 4.4719535783365574 0.0022121630982437292 0.20960867828457028
decision_type=2 2 2 2 2 2 2 2 2 2 2 2 2 2 2
left_child=-1 3 5 7 -4 -3 -5 8 -2 -9 -10 -12 -13 14 -11
right_child=1 2 4 6 -6 -7 -8 9 10 13 11 12 -14 -15 -16
leaf_value=-0.1065074189092049 -0.061691808458358366 0.032379879883316733 0.029290812367978054 -0.10939946368831509 -0.068616726114092225 0.10995768566384828 -0.0097353077972023982 -0.12343812033232604 0.050870702350558065 0.085926755214018172 -0.10755142299073242 0.018756107447129196 -0.081754045930882341 -0.0071984778501834297 0.024864274073874967
leaf_weight=0.11094283708371212 0.40004227450117519 0.33363358303904511 0.18120923894457519 0.157884997781366 0.23209657520055768 0.28015168383717537 0.12349055474624038 0.058439210057258495 0.27404191717505466 0.22699273005127885 0.16768606519326543 0.76777498610317696 0.085971018765121698 0.41922813281416887 0.45966656785458326
leaf_count=28 33 8 9 23 19 6 5 6 7 5 6 23 6 13 13
internal_value=0 0.0283478 0.301725 -0.061039 -0.256903 0.677889 -0.656587 -0.0024439 -0.126224 0.177807 0.0253021 -0.104392 0.0863488 0.252433 0.4505
internal_weight=0 4.16831 1.02709 3.14122 0.413306 0.613785 0.281376 2.85984 1.69552 1.16433 1.29547 1.02143 0.853746 1.10589 0.686659
internal_count=210 182 42 140 28 14 28 112 75 37 42 35 29 31 18
shrinkage=0.1


Tree=26
num_leaves=16
num_cat=0
split_feature=7 7 4 4 0 9 0 6 5 11 11 6 7 9 0
split_gain=0.133735 0.115136 0.117068 0.267657 0.10102 0.0891775 0.119423 0.11721 0.105215 0.127326 0.0747314 0.0739827 0.0975955 0.0941888 0.075524
threshold=0.75006419545601732 1.9968986327586207 0.11059101642519507 0.12037689099129574 0.01453861959453618 0.6100000000000001 0.00056289299620489088 2.2608035938016005 0.40062566858062104 0.60420000000000007 0.42985000000000001 0.21119680270277233 0.97867949090225059 0.52000000000000013 0.00061457871508770027
decision_type=2 2 2 2 2 2 2 2 2 2 2 2 2 2 2
left_child=-1 2 4 -4 -2 7 -7 8 11 -10 -8 12 -5 -14 -13
right_child=1 -3 3 5 -6 6 10 -9 9 -11 -12 14 13 -15 -16
leaf_value=-0.033054288036409432 -0.11007045505358498 -0.10426485964618962 0.089013928304089385 0.07272860382431047 0.0081128411848244049 0.06439582431934536 -0.013623087499089043 -0.096342331417313742 -0.10013311626269783 0.018796261507181167 -0.088041577094419579 -0.0853608389979712 0.037201146657596981 -0.076529720810910307 0.07604916205192902
leaf_weight=0.93746538879349794 0.13531539635732848 0.085567526053637155 0.46374960057437448 0.17346932087093614 0.15537196025252342 0.12318615289404976 0.32605024753138423 0.08367693424224841 0.12691655266098667 0.30965183628723025 0.23021981026977301 0.030661233467981216 0.13992085796780884 0.15184058388695121 0.53132216911762953
leaf_count=66 19 6 12 5 5 6 14 8 11 10 16 5 5 8 14
internal_value=0 0.101037 0.133862 0.198994 -0.469017 0.0550649 -0.246934 0.187666 0.253468 -0.157782 -0.444222 0.42825 0.13329 -0.219875 0.672428
internal_weight=0 3.06692 2.98135 2.69067 0.290687 2.22692 0.679456 1.54746 1.46378 0.436568 0.55627 1.02721 0.465231 0.291761 0.561983
internal_count=210 144 138 114 24 102 36 66 58 21 30 37 18 13 19
shrinkage=0.1


Tree=27
num_leaves=16
num_cat=0
split_feature=7 7 0 3 2 12 12 7 9 6 3 12 1 8 2
split_gain=0.176853 0.230675 0.23301 0.194377 0.229903 0.262279 0.24847 0.145174 0.143299 0.123347 0.114527 0.113773 0.113764 0.162196 0.0685856
threshold=0.75006419545601732 0.84678303066211835 0.0011562538189314384 50.437160399623806 1881.0000000000002 0.59665000000000012 0.51755000000000007 0.9413993008784961 0.50500000000000012 4.5685414722059283 0.15222061847191384 0.62060000000000015 40411.000000000007 0.91875000000000007 16812.500000000004
decision_type=2 2 2 2 2 2 2 2 2 2 2 2 2 2 2
left_child=9 2 -2 4 5 6 8 -8 -3 11 14 -1 13 -12 -6
right_child=1 3 -4 -5 10 -7 7 -9 -10 -11 12 -13 -14 -15 -16
leaf_value=-0.043790607570000126 -0.032130997101630303 0.013661947980524858 0.12912460379777502 0.10519226819545063 -0.12672304279178784 -0.14482123494664806 -0.055582023622991909 0.080895810999907558 -0.13633248712078155 0.0060442160732834468 0.098955491691345321 -0.15234743570448189 -0.036405960725741017 0.015470358410838769 -0.012014977292211832
leaf_weight=0.44445498613640655 0.12876167125068638 0.095592982834205809 0.29468190111219883 0.16721608862280837 0.059675839496776351 0.21169618354178965 0.11330907046794891 0.24969658651389184 0.19086583517491815 0.38337155384942889 0.36167038232088072 0.12333421129733324 0.20519649004563681 0.652664810186252 0.41194736491888762
leaf_count=42 10 5 5 7 6 11 5 7 10 18 9 6 14 31 24
internal_value=0 0.114336 0.800896 0.00743503 -0.060995 -0.481581 -0.166503 0.382954 -0.862785 -0.377806 0.153174 -0.673711 0.315005 0.452377 -0.265293
internal_weight=0 3.14298 0.423444 2.71953 2.55232 0.861161 0.649464 0.363006 0.286459 0.951161 1.69115 0.567789 1.21953 1.01434 0.471623
internal_count=210 144 15 129 122 38 27 12 15 66 84 48 54 40 30
shrinkage=0.1


Tree=28
num_leaves=16
num_cat=0
split_feature=1 4 4 0 7 12 1 6 3 0 0 0 3 3 4
split_gain=0.0985055 0.0878562 0.193487 0.116184 0.0627882 0.0593189 0.0755829 0.0549445 0.0521603 0.0721312 0.0865819 0.0638326 0.0682694 0.0667769 0.065942
threshold=712.50000000000011 0.11059101642519507 0.12037689099129574 0.017762762034324375 0.87013273636861876 0.65540000000000009 16812.500000000004 0.36065978387856379 0.33304623924065585 0.00048636127031704348 0.00065702873898089854 0.0017645008132497824 0.86730334103601014 2.7795576249980916 0.27489080593727977
decision_type=2 2 2 2 2 2 2 2 2 2 2 2 2 2 2
left_child=-1 3 4 -2 -3 8 7 -7 -4 -10 -11 12 -12 -14 -13
right_child=1 2 5 -5 -6 6 -8 -9 9 10 11 14 13 -15 -16
leaf_value=-0.10413501935394703 -0.11067822599686242 0.032856445873998906 -0.037578922760009403 0.013272118141649967 0.10693930593817394 -0.01618625731196954 -0.10947505570802091 0.053323711100683069 -0.12081826806745632 0.084624379237448977 -0.095434436946861434 0.034232435670418331 0.023764180998576055 -0.053410686408657981 -0.029792612120992691
leaf_weight=0.088535729562864027 0.15132375166285816 0.24374173581600225 0.53782624704763371 0.1511655431240797 0.21560011245310309 0.15736576542258252 0.039232059614732862 0.40999673586338758 0.048830915940925368 0.11859579337760796 0.12378307571634628 0.52360477764159441 0.24462116230279207 0.20698623964563009 0.23220448009669781
leaf_count=28 23 6 40 5 8 5 6 11 7 5 9 19 9 14 15
internal_value=0 0.0270778 0.0772361 -0.487355 0.676285 -0.0268742 0.247619 0.340442 -0.108637 -0.0127617 0.0275015 -0.0454397 -0.296411 -0.116076 0.145623
internal_weight=0 3.40488 3.10239 0.302489 0.459342 2.64305 0.606595 0.567363 2.03645 1.49863 1.4498 1.3312 0.57539 0.451607 0.755809
internal_count=210 182 154 28 14 140 22 16 118 78 71 66 32 23 34
shrinkage=0.1


Tree=29
num_leaves=16
num_cat=0
split_feature=1 3 1 12 10 7 1 13 7 1 0 7 7 9 13
split_gain=0.159135 0.205347 0.0878462 0.0846121 0.0924871 0.0868534 0.0781012 0.067844 0.0528641 0.0385057 0.0344968 0.0342797 0.0335292 0.0741794 0.0585871
threshold=23528.000000000004 9.3991757682324941 55435.000000000007 0.47205000000000003 0.65000000000000002 0.87013273636861876 712.50000000000011 0.25000000000000006 1.2299212042586489 16812.500000000004 0.0013491691819817748 1.9968986327586207 1.0052100924828462 0.6100000000000001 0.45000000000000007
decision_type=2 2 2 2 2 2 2 2 2 2 2 2 2 2 2
left_child=1 6 3 -2 5 -5 -1 8 -8 12 -4 -10 14 -14 -9
right_child=2 -3 10 4 -6 -7 7 9 11 -11 -12 -13 13 -15 -16
leaf_value=-0.10404359024445164 -0.035153279714875717 -0.12983638076633189 -0.10752926039248256 0.03266400755854524 -0.093769518525635032 0.11396995547754794 -0.06919430650710677 -0.063260393099919529 0.0026309145238867515 -0.05535840627979427 2.1134087711959696e-05 -0.082196465105598512 0.061725027633562149 -0.016513304686538274 0.010141072058702003
leaf_weight=0.077609100961127622 0.091211908496916169 0.14020302542485286 0.042936446378007531 0.2323352787643671 0.033035790082067251 0.30237418645992875 0.2230839733965696 0.1224392340518532 0.35583360213786364 0.089965613558888546 0.097649872768670321 0.055003156885504723 0.3274796251207589 0.19237024243921039 0.97194303199648835
leaf_count=28 6 16 8 6 5 11 23 14 16 11 6 5 8 9 38
internal_value=0 -0.121801 0.389367 0.54247 0.686097 0.786419 -0.0535164 -0.0207576 -0.300054 0.0831339 -0.328258 -0.0872584 0.11862 0.32773 0.0192893
internal_weight=0 2.55593 0.799543 0.658957 0.567745 0.534709 2.41573 2.33812 0.633921 1.7042 0.140586 0.410837 1.61423 0.51985 1.09438
internal_count=210 168 42 28 22 17 152 124 44 80 14 21 69 17 52
shrinkage=0.1


Tree=30
num_leaves=16
num_cat=0
split_feature=1 12 0 11 9 3 6 12 12 7 9 7 0 9 6
split_gain=0.075925 0.0626284 0.0582368 0.054938 0.135825 0.0773552 0.0667465 0.064719 0.0859998 0.0621955 0.0502962 0.0567597 0.0658964 0.0418427 0.0550278
threshold=712.50000000000011 0.65540000000000009 0.00048636127031704348 0.50160000000000016 0.63500000000000012 0.35998264076484449 0.017902894657257577 0.59140000000000015 0.53645000000000009 0.86416963647363942 0.63500000000000012 1.2984246054126982 0.0052374824378192747 0.59500000000000008 1.0841368711974175
decision_type=2 2 2 2 2 2 2 2 2 2 2 2 2 2 2
left_child=-1 2 -2 5 6 -4 -5 8 -8 -9 11 12 -7 14 -3
right_child=1 13 3 4 -6 10 7 9 -10 -11 -12 -13 -14 -15 -16
leaf_value=-0.10312155277587372 -0.056252767142837751 0.023777016985000714 -0.039381814146304449 0.059694631035028069 -0.093703035253956721 -0.029850354304518857 -0.020907969132290691 -0.016394883079552454 0.078474219768128226 -0.13202415897061229 0.05465959281833678 0.059267220703842861 0.054917200717561503 0.062111975322780504 -0.095776438739669401
leaf_weight=0.069785025320016181 0.20181470643729049 0.30782644217833866 0.22523662284947965 0.15306552033871401 0.19057813636027279 0.3650769800879059 0.30013460596092045 0.11875838786363602 0.12265636934898794 0.076473245164379491 0.37250340078026056 0.16519506042823195 0.12247177958488464 0.25355117674916983 0.044003256363794208
leaf_count=28 27 10 18 5 20 24 21 5 5 6 14 7 5 10 5
internal_value=0 0.0238341 -0.0482896 -0.00137562 -0.181079 0.136823 0.00575812 -0.140661 0.0792391 -0.616875 0.253399 0.0860794 -0.0855683 0.311428 0.0882449
internal_weight=0 3.01935 2.41396 2.21215 0.961666 1.25048 0.771088 0.618023 0.422791 0.195232 1.02525 0.652744 0.487549 0.605381 0.35183
internal_count=210 182 157 130 62 68 42 37 26 11 50 36 29 25 15
shrinkage=0.1


Tree=31
num_leaves=16
num_cat=0
split_feature=1 4 4 0 7 7 13 4 7 7 5 6 13 11 6
split_gain=0.0670018 0.0618594 0.141361 0.0827741 0.051788 0.0449999 0.045682 0.040274 0.0543998 0.0344894 0.0738932 0.0643606 0.0633931 0.0451617 0.0345277
threshold=712.50000000000011 0.11059101642519507 0.12037689099129574 0.017762762034324375 0.87013273636861876 0.40555771149099873 0.25000000000000006 0.31117054796477256 1.938930152843733 1.0052100924828462 0.40062566858062104 0.25882790187475391 0.45000000000000007 0.60420000000000007 19.148570954801553
decision_type=2 2 2 2 2 2 2 2 2 2 2 2 2 2 2
left_child=-1 3 4 -2 -3 -4 7 8 -7 12 11 -11 -8 -12 -14
right_child=1 2 5 -5 -6 6 9 -9 -10 10 13 -13 14 -15 -16
leaf_value=-0.10294012631773784 -0.10632075795148979 0.031291964203634476 -0.11150618374022375 0.0096778625591135356 0.10629790782742994 0.0093011339182793341 -0.066436331978476912 -0.0614768389157773 -0.091777588176211178 0.0064972300907558712 -0.10759483365454214 0.08490973380249231 -0.0030650558254136681 0.01751758158475827 0.045025965334969296
leaf_weight=0.06188130646478418 0.11755685310345176 0.21422739885747463 0.037446625297889446 0.12904257047921419 0.1614109305664897 0.34342050505802046 0.13536115293391027 0.19686111179180443 0.063014935236424208 0.19731824751943361 0.055172684136778123 0.22295158077031371 0.71851600613445044 0.060476943384855993 0.18844879977405071
leaf_count=28 23 6 5 5 8 19 21 22 6 9 5 6 36 5 6
internal_value=0 0.0224201 0.0679094 -0.4562 0.635218 -0.0281267 -0.00946928 -0.243521 -0.0637041 0.0799989 0.28616 0.480948 -0.0260005 -0.421695 0.0692728
internal_weight=0 2.84123 2.59463 0.246599 0.375638 2.21899 2.18154 0.603297 0.406435 1.57825 0.535919 0.42027 1.04233 0.11565 0.906965
internal_count=210 182 154 28 14 140 135 47 25 88 25 15 63 10 42
shrinkage=0.1


Tree=32
num_leaves=16
num_cat=0
split_feature=1 12 0 12 5 11 4 6 7 11 5 7 9 12 11
split_gain=0.057114 0.0509841 0.092356 0.0475378 0.0559964 0.0488544 0.0955191 0.0507946 0.0485993 0.0449947 0.0444083 0.043639 0.0525131 0.0509896 0.0355091
threshold=712.50000000000011 0.55775000000000008 0.0017845616800651017 0.59140000000000015 0.24805114738834774 0.55715000000000015 0.23297425298406463 2.8165510747171871 0.95572505416221876 0.27405000000000007 0.40062566858062104 1.4913410471034012 0.49500000000000005 0.47205000000000003 0.48255000000000009
decision_type=2 2 2 2 2 2 2 2 2 2 2 2 2 2 2
left_child=-1 2 -2 4 -3 7 10 14 -8 -4 -7 13 -13 -11 -5
right_child=1 3 9 5 -6 6 8 -9 -10 11 -12 12 -14 -15 -16
leaf_value=-0.10146256597383947 -0.046888002425758295 -0.038116531033637394 0.061408445175744841 -0.029684277628144792 0.073524216354900432 0.10279844789427801 0.018425870489080533 0.027579924059928946 -0.051507392475225316 -0.10263522890201532 0.020019251224348222 -0.05339233779224372 0.061411157347062366 -0.006272118257795405 -0.1231757824708843
leaf_weight=0.054376063286327159 0.48191864858381472 0.055826550815254339 0.13355719298124313 0.2149332226254044 0.23013196489773688 0.157902667298913 0.26951080188155174 0.13733027782291174 0.15741073526442051 0.063740656711161137 0.10992136644199492 0.052099193446338177 0.16937495302408934 0.3964048011694104 0.050093520781956606
leaf_count=28 58 7 5 13 9 5 15 6 8 7 5 5 6 23 10
internal_value=0 0.0205851 -0.121835 0.154153 0.51729 0.0595018 0.220093 -0.217789 -0.073593 0.0833318 0.688239 -0.0206643 0.34405 -0.196206 -0.473554
internal_weight=0 2.68016 1.2971 1.38306 0.285959 1.0971 0.694746 0.402357 0.426922 0.815177 0.267824 0.68162 0.221474 0.460145 0.265027
internal_count=210 182 104 78 16 62 33 29 23 46 10 41 11 30 23
shrinkage=0.1


Tree=33
num_leaves=16
num_cat=0
split_feature=7 4 4 5 0 12 11 5 9 3 7 5 0 3 6
split_gain=0.0519152 0.047505 0.100994 0.0587736 0.0576115 0.0404003 0.0648569 0.0269511 0.0268998 0.0548888 0.0307518 0.0561542 0.0876781 0.0477476 0.107318
threshold=0.40555771149099873 0.11059101642519507 0.12037689099129574 0.27489080593727977 0.01453861959453618 0.46725000000000005 0.28375000000000006 0.20960867828457028 0.64500000000000013 3.0028299069995108 1.0052100924828462 0.27489080593727977 0.0022121630982437292 1.1530000000000002 0.36065978387856379
decision_type=2 2 2 2 2 2 2 2 2 2 2 2 2 2 2
left_child=-1 4 3 -3 -2 6 7 -4 10 -10 13 12 -12 14 -7
right_child=1 2 5 -5 -6 8 -8 -9 9 -11 11 -13 -14 -15 -16
leaf_value=-0.082399412330061025 -0.10876351233671125 0.022666337796588828 0.036985134037094386 0.10769449924044856 0.0026963757144144594 -0.10900991411252947 -0.11421764099442228 -0.0683946302772315 0.0022992878149062854 -0.08541719221863249 0.084700417769204575 -0.025008169757410978 -0.005125404123372603 0.019117427644036976 0.0041114883938023058
leaf_weight=0.074273486388847551 0.082145081425551644 0.20208716206252608 0.076299008447676786 0.13600387703627348 0.10649227630347012 0.11757778818719068 0.080539754824712859 0.035590248415246606 0.25412785413209338 0.099179517012089477 0.2414500224404037 0.15948232705704868 0.19759058055933565 0.43956087960395962 0.2924914782634005
leaf_count=18 21 8 5 6 5 13 12 5 21 13 8 12 11 32 20
internal_value=0 0.0242801 0.0633253 0.568706 -0.458406 -0.0223689 -0.457899 0.0346545 0.0241538 -0.223243 0.0845113 0.258133 0.442742 -0.0377964 -0.283234
internal_weight=0 2.52062 2.33198 0.338091 0.188637 1.99389 0.192429 0.111889 1.80146 0.353307 1.44815 0.598523 0.439041 0.84963 0.410069
internal_count=210 192 166 14 26 152 22 10 130 34 96 31 19 65 33
shrinkage=0.1


Tree=34
num_leaves=16
num_cat=0
split_feature=7 3 1 1 7 13 7 7 8 6 6 0 5 12 5
split_gain=0.0573886 0.0862419 0.0656171 0.0708017 0.0859315 0.0505604 0.0392244 0.0451481 0.0319739 0.0278678 0.0526134 0.0449476 0.0388744 0.0712286 0.0358692
threshold=0.70769066213115761 4.4719535783365574 23528.000000000004 40411.000000000007 1.0185048488183044 0.25000000000000006 0.43201850116537577 0.58302064737282877 0.91875000000000007 0.038064807504490976 0.67979730752055512 0.0022121630982437292 0.20960867828457028 0.60465000000000013 0.24805114738834774
decision_type=2 2 2 2 2 2 2 2 2 2 2 2 2 2 2
left_child=1 6 5 8 -5 -2 -1 -8 -4 14 11 12 -11 -14 -7
right_child=2 -3 3 4 -6 9 7 -9 -10 10 -12 -13 13 -15 -16
leaf_value=-0.07833569555339219 -0.030335608100256175 -0.10522497379237328 0.03926909228116067 0.073726649899806471 -0.050907238817069239 0.076669745270824846 0.033740552276414419 -0.048176290716309272 0.10681904154797904 0.044730477607767764 0.034862225386268986 -0.10440769413911538 -0.11063679201586947 -0.00073513382765679782 -0.011049864703341824
leaf_weight=0.064039916323963886 0.46741910721175361 0.11775259429123253 0.14374537859112013 0.090554341441020356 0.14217406208626926 0.12196970998775192 0.21111626923084256 0.098752946476452039 0.13671897351741791 0.10748333501396699 0.29591035493649542 0.053949449444189675 0.074748813174664974 0.27940236462745816 0.075452070683240891
leaf_count=17 44 18 6 5 19 5 11 11 7 7 18 8 11 18 5
internal_value=0 -0.305932 0.0756033 0.383628 -0.0241234 -0.03147 -0.0708991 0.0763428 0.721979 0.0944917 0.0125173 -0.180384 -0.0794478 -0.239315 0.431444
internal_weight=0 0.491662 1.98953 0.513193 0.232728 1.47634 0.373909 0.309869 0.280464 1.00892 0.811494 0.515584 0.461635 0.354151 0.197422
internal_count=210 57 153 37 24 116 39 22 13 72 62 44 36 29 10
shrinkage=0.1


Tree=35
num_leaves=16
num_cat=0
split_feature=7 4 4 7 0 1 13 9 3 9 0 13 4 3 4
split_gain=0.0754308 0.0448914 0.06724 0.0613608 0.0597613 0.0384724 0.0340255 0.0317838 0.0464511 0.0423386 0.0316641 0.0455666 0.029024 0.0455701 0.0276423
threshold=0.29685745001717889 0.11059101642519507 0.12037689099129574 0.87013273636861876 0.017762762034324375 712.50000000000011 0.25000000000000006 0.64500000000000013 3.0028299069995108 0.55500000000000016 0.0022121630982437292 0.75000000000000011 0.31117054796477256 1.9789599862835179 0.23297425298406463
decision_type=2 2 2 2 2 2 2 2 2 2 2 2 2 2 2
left_child=-1 4 3 -3 -2 -4 12 9 -9 -8 11 -11 13 -7 -13
right_child=1 2 5 -5 -6 6 7 8 -10 10 -12 14 -14 -15 -16
leaf_value=-0.14748193751342092 -0.10440423929918106 0.012280683938660159 -0.099117610526332445 0.10575439241799672 0.0065676646598150411 0.01403999550422738 -0.029447317018873282 0.0076619634520381568 -0.083490451745112604 0.081243188199646543 -0.031948742972718741 0.046064123384624761 -0.056706026787637691 -0.08052820754989809 0.0041990783704404068
leaf_weight=0.034176792483777141 0.08862814150052177 0.16853055357933078 0.038848700933158287 0.12040004692971706 0.10725589096546172 0.26296071335673321 0.16338172694668152 0.17222895938903082 0.082775351125746965 0.15253041684627533 0.085651505971327424 0.25942712463438511 0.15620275540277362 0.063202403020113707 0.40226332447491592
leaf_count=6 23 6 24 8 5 17 16 14 13 8 7 11 22 8 22
internal_value=0 0.021686 0.0638469 0.51232 -0.436418 -0.00659598 0.0146465 0.0977997 -0.219265 0.173842 0.25887 0.31971 -0.212603 -0.04285 0.20613
internal_weight=0 2.32429 2.1284 0.288931 0.195884 1.83947 1.80062 1.31826 0.255004 1.06325 0.899872 0.814221 0.482366 0.326163 0.66169
internal_count=210 204 176 14 28 162 138 91 27 64 48 41 47 25 33
shrinkage=0.1


Tree=36
num_leaves=16
num_cat=0
split_feature=1 1 3 1 11 13 11 12 6 6 13 7 7 13 5
split_gain=0.0388175 0.0325821 0.0863161 0.0744205 0.0455812 0.0637652 0.0277835 0.0265501 0.0372024 0.0322609 0.041635 0.0313326 0.0447514 0.0431097 0.048505
threshold=712.50000000000011 23528.000000000004 1.9789599862835179 16812.500000000004 0.27405000000000007 0.45000000000000007 0.45225000000000004 0.65540000000000009 0.36065978387856379 0.045974323300631226 0.75000000000000011 1.0681260453601504 0.72543605975148928 0.45000000000000007 0.11059101642519507
decision_type=2 2 2 2 2 2 2 2 2 2 2 2 2 2 2
left_child=-1 3 -3 7 -4 -6 -5 9 -9 10 -2 12 -11 14 -13
right_child=1 2 4 6 5 -7 -8 8 -10 11 -12 13 -14 -15 -16
leaf_value=-0.098825553268571231 -0.02115511099894591 0.093893861000278606 0.039757703079829614 -0.026166446666248538 -0.067453939692256548 0.055815300691524551 -0.11205764573866042 -0.025200781681964296 0.045504238821193317 -0.0015163516352899888 0.067158978405213732 -0.11463815097431007 -0.058728704858258957 -0.065919158649687851 0.032717732506466812
leaf_weight=0.039045100857038384 0.093759551178664191 0.13113334961235512 0.1566964671947062 0.070930662564933189 0.14556832471862435 0.05896062048850581 0.08029235235881059 0.10416422691196192 0.26057863608002663 0.28334019659087062 0.1239594668149948 0.024059883318841457 0.26420263666659594 0.066543706692755222 0.31219987478107214
leaf_count=28 8 7 10 7 18 7 21 5 11 25 5 5 31 5 17
internal_value=0 0.0177296 0.244014 -0.048429 -0.00825968 -0.319185 -0.717707 0.0176002 0.253121 -0.0559441 0.29127 -0.135489 -0.291227 0.0762105 0.221742
internal_weight=0 2.17639 0.492359 1.68403 0.361225 0.204529 0.151223 1.53281 0.364743 1.16807 0.217719 0.950346 0.547543 0.402803 0.33626
internal_count=210 182 42 140 35 25 28 112 16 96 13 83 56 27 22
shrinkage=0.1


Tree=37
num_leaves=16
num_cat=0
split_feature=7 7 4 4 0 7 13 7 13 1 1 7 11 11 9
split_gain=0.0342469 0.0327648 0.0276472 0.0726837 0.0437047 0.038393 0.021649 0.0295255 0.0279217 0.0225593 0.0232685 0.0248884 0.0360056 0.0697377 0.0253613
threshold=0.40555771149099873 1.9968986327586207 0.11059101642519507 0.12037689099129574 0.01453861959453618 0.87013273636861876 0.25000000000000006 1.5367063467749784 1.0000000180025095e-35 712.50000000000011 16812.500000000004 1.0052100924828462 0.57455000000000012 0.45225000000000004 0.56500000000000006
decision_type=2 2 2 2 2 2 2 2 2 2 2 2 2 2 2
left_child=-1 2 4 5 -2 -4 7 8 -5 -8 11 14 13 -13 -11
right_child=1 -3 3 6 -6 -7 9 -9 -10 10 -12 12 -14 -15 -16
leaf_value=-0.076965407803372424 -0.10329814365744033 -0.084698384172408811 0.025056811440230278 0.011343006330116562 0.0075760474005932849 0.10523127295974344 -0.092233909692116756 0.025005748541713325 -0.056364447994672023 -0.040444281507327123 -0.04294287013166298 0.052874801351683799 0.081226028126462735 -0.065384087675168512 0.0099342310787114401
leaf_weight=0.056256546522491006 0.060117775457911526 0.042549412231892243 0.14641893468797196 0.085734386928379425 0.087005187757313251 0.10087986662983894 0.022817008080892157 0.10479631833732128 0.21032672456931323 0.1184063353575764 0.082794739166274542 0.1422042939811945 0.11144693940877914 0.076794283930212273 0.64026404335163534
leaf_count=18 21 6 6 6 5 8 16 6 31 14 16 6 5 6 40
internal_value=0 0.0213023 0.0398676 0.073171 -0.377297 0.577621 -0.00501343 -0.206107 -0.367575 0.0624579 0.0816318 0.120483 0.349537 0.11406 0.0207161
internal_weight=0 2.03256 1.99001 1.84288 0.147123 0.247299 1.59559 0.400857 0.296061 1.19473 1.17191 1.08912 0.330446 0.218999 0.75867
internal_count=210 192 186 160 26 14 146 43 37 103 87 71 17 12 54
shrinkage=0.1


Tree=38
num_leaves=16
num_cat=0
split_feature=1 6 12 11 12 12 7 7 6 9 0 0 3 5 9
split_gain=0.0301751 0.0245934 0.0262342 0.0546286 0.0411548 0.0420853 0.0575164 0.0572902 0.037727 0.0400374 0.0355916 0.0327054 0.0256705 0.0224335 0.0219708
threshold=712.50000000000011 0.0069350082379169833 0.65540000000000009 0.45225000000000004 0.47205000000000003 0.59140000000000015 0.79642496195322543 0.66052392229906276 0.3424822791700845 0.65500000000000014 0.00048636127031704348 0.0024189719878067802 0.35998264076484449 0.11059101642519507 0.59500000000000008
decision_type=2 2 2 2 2 2 2 2 2 2 2 2 2 2 2
left_child=-1 -2 3 10 -5 7 -7 -6 11 -10 -3 -9 -12 -14 -4
right_child=1 2 14 4 5 6 -8 8 9 -11 12 -13 13 -15 -16
leaf_value=-0.096576706807299073 0.050086039951393907 -0.089932698354550061 0.0031052077492974002 -0.10494228745528311 -0.081843547935990454 -0.015636035313133272 -0.12459422495186157 -0.056081160818282787 0.066770991726847959 -0.074033086053236705 -0.025910521516595439 0.028234328572466019 0.070506710461485197 0.016101859225061566 0.052217145166463953
leaf_weight=0.031838466995396053 0.099183907732367391 0.033437174395657854 0.2322378538083284 0.062227771384641528 0.074561350513249636 0.12761027971282601 0.07809744356200099 0.099145978223532452 0.15072337607853117 0.023319007712416351 0.12500943779014051 0.085832024924457073 0.08806902170181273 0.5436843961942941 0.14987580059096217
leaf_count=28 6 7 15 13 14 11 13 14 10 5 14 6 5 39 10
internal_value=0 0.0155845 -0.0101016 -0.0699872 -0.27309 -0.197523 -0.570023 -0.0207944 0.14486 0.479054 0.110322 -0.169578 0.154933 0.236861 0.223683
internal_weight=0 1.97301 1.87383 1.49172 0.701517 0.639289 0.205708 0.433582 0.35902 0.174042 0.7902 0.184978 0.756763 0.631753 0.382114
internal_count=210 182 176 151 86 73 24 49 35 15 65 20 58 44 25
shrinkage=0.1


Tree=39
num_leaves=16
num_cat=0
split_feature=1 4 4 0 5 1 6 6 6 0 12 3 3 7 6
split_gain=0.0259746 0.0210625 0.0667559 0.0436833 0.0336072 0.0229846 0.0272034 0.0392188 0.0210369 0.0402045 0.0305233 0.0290092 0.0310078 0.030711 0.0263543
threshold=712.50000000000011 0.11059101642519507 0.12037689099129574 0.017762762034324375 0.27489080593727977 16812.500000000004 0.31683867766621593 0.20289997273191004 0.045974323300631226 0.0017645008132497824 0.65540000000000009 2.7795576249980916 2.1248008091849599 1.630113991747034 0.67979730752055512
decision_type=2 2 2 2 2 2 2 2 2 2 2 2 2 2 2
left_child=-1 3 4 -2 -3 8 7 -7 9 -4 11 12 13 14 -10
right_child=1 2 5 -5 -6 6 -8 -9 10 -11 -12 -13 -14 -15 -16
leaf_value=-0.094939958753625209 -0.098099293665652856 0.025674093589864406 -0.019353582526717442 0.011097943359513168 0.10613617496173411 -0.087925056761729195 -0.098343807975582231 0.039095373689964102 -0.050634263375944649 0.072198660493631522 0.022314932452318591 -0.066080856101616139 0.04982199991224389 0.035238777892325941 -0.0062272193503324913
leaf_weight=0.028389407147187847 0.062829819507896789 0.13862389884889115 0.086101787164807222 0.08786918455734849 0.082984766457229853 0.039436538470908888 0.052078640088438981 0.063364352565258741 0.22180578042753016 0.10829794313758612 0.32156077260151505 0.094587796600535526 0.084306580480188131 0.10430145310238004 0.33623151248320937
leaf_count=28 23 8 8 5 6 7 16 5 26 5 16 13 5 7 32
internal_value=0 0.0143033 0.0454736 -0.344289 0.558044 -0.0296483 -0.394618 -0.0963228 0.012001 0.316492 -0.0389047 -0.139075 -0.0729795 -0.145685 -0.238779
internal_weight=0 1.88438 1.73368 0.150699 0.221609 1.51207 0.15488 0.102801 1.35719 0.1944 1.16279 0.841233 0.746645 0.662339 0.558037
internal_count=210 182 154 28 14 140 28 12 112 13 99 83 70 65 58
shrinkage=0.1


Tree=40
num_leaves=16
num_cat=0
split_feature=7 3 12 0 3 7 10 6 3 4 2 13 12 7 6
split_gain=0.0260423 0.0304507 0.0482072 0.0501742 0.0449927 0.0408783 0.0399061 0.038829 0.031077 0.0439929 0.0320696 0.030048 0.0287698 0.0266924 0.024405
threshold=0.70769066213115761 0.86730334103601014 0.51755000000000007 0.01453861959453618 0.55708245156956682 0.89721804953262829 0.65000000000000002 0.55325147207660186 0.15222061847191384 0.27489080593727977 16812.500000000004 0.45000000000000007 0.59990000000000021 1.4132136939274704 0.045974323300631226
decision_type=2 2 2 2 2 2 2 2 2 2 2 2 2 2 2
left_child=11 4 3 -3 5 -2 7 14 10 -10 -7 -1 -9 -12 -4
right_child=1 2 6 -5 -6 8 -8 12 9 -11 13 -13 -14 -15 -16
leaf_value=-0.071852794231472575 -0.06246148906870224 -0.068377825899705341 0.07193730661218653 0.025850008597641246 -0.079219728658093888 -0.12284556681189152 -0.065151469024202158 0.11281807227434948 0.068568116033557031 -0.019757024741518029 0.010793749366276998 -0.0062260816572963411 -0.0330429256835559 -0.10259195213153605 0.014782662256377428
leaf_weight=0.097215905145276463 0.08913913700962417 0.11188892519567162 0.094887476414442062 0.11417247354984283 0.082926495466381311 0.024595485185272992 0.038426507380791008 0.097327163210138706 0.15436106099514291 0.088850663974881172 0.18323624000186101 0.24710132548352703 0.01570450363215059 0.023415218573063609 0.35132592558511533
leaf_count=31 19 22 5 7 9 5 9 6 10 6 15 26 5 6 29
internal_value=0 0.0579743 0.185472 -0.20788 -0.10447 -0.00327883 0.334252 0.401985 0.113455 0.36301 -0.149012 -0.247554 0.925523 -0.0205373 0.269366
internal_weight=0 1.47026 0.823733 0.226061 0.646524 0.563598 0.597672 0.559245 0.474459 0.243212 0.231247 0.344317 0.113032 0.206651 0.446213
internal_count=210 153 83 29 70 61 54 45 42 16 26 57 11 21 34
shrinkage=0.1


Tree=41
num_leaves=16
num_cat=0
split_feature=4 0 5 5 11 3 9 11 6 7 13 11 0 5 5
split_gain=0.0333903 0.0419716 0.0468048 0.0412827 0.0430896 0.0367324 0.0366495 0.0323366 0.0432438 0.0284231 0.0340241 0.0412024 0.0309719 0.0253393 0.0251817
threshold=0.23297425298406463 0.00071154940648706277 0.31117054796477256 0.55510496036233836 0.60420000000000007 2.7795576249980916 0.6100000000000001 0.60420000000000007 0.047584941181940905 0.43201850116537577 0.25000000000000006 0.45225000000000004 0.000842311435763385 0.11059101642519507 0.11059101642519507
decision_type=2 2 2 2 2 2 2 2 2 2 2 2 2 2 2
left_child=1 -1 6 5 -5 9 7 8 -3 -2 13 -12 -13 -11 -10
right_child=3 2 -4 4 -6 -7 -8 -9 14 10 11 12 -14 -15 -16
leaf_value=-0.034618627668834459 -0.10721780618125987 0.057457701902688986 0.061952153701654335 -0.11741627371810402 -0.0060644709942594393 -0.061010604917651395 -0.058131398633701918 0.077997730576388397 0.026516952108578004 -0.11593380822472271 0.064251937688576552 0.040534136787317925 -0.028908862715522749 -0.010705324737643383 -0.05059539104308252
leaf_weight=0.14085479185450822 0.022306809289148081 0.099219906085636467 0.23005938954884184 0.071156922611407936 0.06792548339581117 0.099410872440785156 0.073611258703749613 0.074470866820774972 0.064454710111021996 0.025326229399070144 0.16387954819947481 0.1110906396061182 0.15224531292915344 0.23728469060733917 0.12347385368775576
leaf_count=30 13 9 21 7 7 22 10 7 5 8 8 8 14 25 16
internal_value=0 0.14971 0.254701 -0.126956 -0.630339 -0.0406864 0.0618595 0.192784 0.0404976 0.0388023 0.0747279 0.248851 0.00386291 -0.208536 -0.241478
internal_weight=0 0.806145 0.66529 0.950627 0.139082 0.811544 0.435231 0.361619 0.287148 0.712133 0.689826 0.427216 0.263336 0.262611 0.187929
internal_count=210 98 68 112 14 98 47 37 30 76 63 30 22 33 21
shrinkage=0.1


Tree=42
num_leaves=16
num_cat=0
split_feature=7 1 1 1 7 12 11 13 5 7 1 8 11 9 0
split_gain=0.0225807 0.0214355 0.0537538 0.0406172 0.0255868 0.0195782 0.0233921 0.0169586 0.0196775 0.01525 0.0149037 0.0142977 0.0127412 0.0125498 0.020033
threshold=0.40555771149099873 23528.000000000004 40411.000000000007 16812.500000000004 0.87013273636861876 0.57045000000000001 0.55715000000000015 0.25000000000000006 0.11059101642519507 0.9413993008784961 712.50000000000011 0.82855000000000012 0.45225000000000004 0.55500000000000016 0.0022121630982437292
decision_type=2 2 2 2 2 2 2 2 2 2 2 2 2 2 2
left_child=-1 3 4 7 -3 6 -4 8 -2 -10 -9 -11 -5 -12 -15
right_child=1 2 5 12 -6 -7 -8 10 9 11 13 -13 -14 14 -16
leaf_value=-0.07385425941959721 -0.11291073454775852 0.029137835487657478 0.017906757621021546 -0.030107493670344061 0.10482579676846196 -0.098107456368267981 -0.098978803136546237 -0.086572299737926045 -0.050409629518488375 -0.044763405205262639 -0.021190574614883762 0.01916865238946238 -0.10138155143970418 0.020504460195372332 -0.028509423453590588
leaf_weight=0.040379470883635922 0.021162472898140328 0.10836465191096056 0.093390939175151302 0.051162077579647192 0.07598197553306818 0.027063028770498928 0.020965344388969243 0.016365282062906772 0.07574764802120626 0.04693180788308382 0.11406382080167532 0.13737020292319355 0.049201007932424552 0.66681359731592238 0.09530736529268323
leaf_count=18 8 6 11 7 8 10 5 16 15 5 15 10 20 47 9
internal_value=0 0.01864 0.247555 -0.0398886 0.603341 -0.216228 -0.0352229 0.0123205 -0.201823 -0.126362 0.0797898 0.028886 -0.650482 0.09745 0.14375
internal_weight=0 1.59989 0.325766 1.27413 0.184347 0.141419 0.114356 1.17376 0.281212 0.26005 0.89255 0.184302 0.100363 0.876185 0.762121
internal_count=210 192 40 152 14 26 16 125 38 30 87 15 27 71 56
shrinkage=0.1


Tree=43
num_leaves=16
num_cat=0
split_feature=7 6 4 4 0 8 8 7 7 3 5 6 3 11 6
split_gain=0.0198971 0.0211808 0.0201246 0.0627756 0.0223502 0.0175675 0.0162096 0.0162551 0.0372158 0.0264828 0.0230285 0.0284025 0.0442973 0.0298685 0.0234827
threshold=0.70769066213115761 4.5685414722059283 0.11059101642519507 0.12037689099129574 0.01453861959453618 0.91875000000000007 0.82855000000000012 1.5367063467749784 1.4298204461258488 1.0001811085790837 0.11059101642519507 0.36065978387856379 2.5921967271997386 0.57455000000000012 0.17812963298707843
decision_type=2 2 2 2 2 2 2 2 2 2 2 2 2 2 2
left_child=1 -1 4 5 -2 -4 -5 8 10 -9 -8 12 14 -13 -12
right_child=2 -3 3 6 -6 -7 7 9 -10 -11 11 13 -14 -15 -16
leaf_value=-0.054358348414135817 -0.098117432115487069 -0.00032394640106715559 0.038078184048726989 -0.047747354289366134 -0.0015783045146445605 0.10521410380626428 -0.072523579599945029 0.070173056254434013 -0.092717415592841315 -0.019256433084413306 -0.01098741507154513 -0.0088243300390990591 0.022278913871831851 0.050747599570303309 -0.082226109626322819
leaf_weight=0.12626452976837765 0.037773453688714542 0.17050654347985983 0.088011042214929933 0.066378126502968149 0.065679676365107298 0.069957285188138485 0.038310948933940381 0.084163049468770623 0.042880885768681765 0.054592115804553032 0.091772107465658323 0.13865533855278045 0.18507863907143476 0.21416412619873881 0.093328210932668285
leaf_count=39 19 18 6 10 5 7 10 5 7 6 15 14 15 20 14
internal_value=0 -0.233135 0.0544465 0.0919107 -0.368273 0.678098 0.000167131 0.0337904 -0.0207473 0.349877 0.0303073 0.0703428 -0.123157 0.273363 -0.469062
internal_weight=0 0.296771 1.27075 1.16729 0.103453 0.157968 1.00932 0.942945 0.80419 0.138755 0.761309 0.722998 0.370179 0.352819 0.1851
internal_count=210 57 153 129 24 13 116 106 95 11 88 78 44 34 29
shrinkage=0.1


Tree=44
num_leaves=16
num_cat=0
split_feature=1 12 0 4 4 0 6 11 9 3 4 1 7 7 7
split_gain=0.017582 0.016316 0.0309088 0.0154805 0.0250327 0.0207605 0.0161763 0.0154759 0.029414 0.0149616 0.020958 0.025916 0.0123252 0.0195832 0.0166241
threshold=712.50000000000011 0.55775000000000008 0.00080055931032707377 0.12037689099129574 0.11059101642519507 0.0022121630982437292 0.077843776466583151 0.45225000000000004 0.63500000000000012 0.50650763257373077 0.20960867828457028 23528.000000000004 1.4913410471034012 1.0052100924828462 0.9413993008784961
decision_type=2 2 2 2 2 2 2 2 2 2 2 2 2 2 2
left_child=-1 2 -2 4 -3 6 -5 9 -9 -4 11 -11 13 14 -8
right_child=1 3 7 5 -6 -7 12 8 -10 10 -12 -13 -14 -15 -16
leaf_value=-0.089661414776689152 -0.068392685608463885 -0.098257613456414122 -0.022534972450296287 0.046057440043467526 0.070631394422595792 -0.065857798175758431 0.0071327151551449615 -0.0016970257845741806 -0.076215952809059698 -0.0614472323366963 0.059490225182007708 0.031334681534049745 -0.05225461576551798 0.048527905648309166 -0.047932546806576472
leaf_weight=0.021552556514507271 0.079276463715359347 0.0099081439548172039 0.086775816278532147 0.10744287818670271 0.076818020083010197 0.037502732826396816 0.32167146587744355 0.23776793183060363 0.068151365267112851 0.045618539908900857 0.10465114703401925 0.088527579442597926 0.036922808270901442 0.094439530279487358 0.066090038046240807
leaf_count=28 27 9 12 6 7 7 32 29 14 7 7 8 5 7 5
internal_value=0 0.0132217 -0.0953695 0.116024 0.513364 0.0641317 0.107389 -0.0214831 -0.18298 0.130265 0.259491 -0.00217297 0.0342903 0.0769281 -0.022526
internal_weight=0 1.46156 0.710769 0.750796 0.0867262 0.664069 0.626567 0.631492 0.305919 0.325573 0.238797 0.134146 0.519124 0.482201 0.387762
internal_count=210 182 104 78 16 62 55 77 43 34 22 15 49 44 37
shrinkage=0.1


Tree=45
num_leaves=16
num_cat=0
split_feature=3 7 3 7 9 4 4 0 7 1 11 5 6 3 0
split_gain=0.0162553 0.0150007 0.0187695 0.0151613 0.0247462 0.0142963 0.0461945 0.0190824 0.0181555 0.0150764 0.0228742 0.017694 0.0138332 0.0312313 0.0271405
threshold=0.019827912916779194 0.70769066213115761 3.0028299069995108 0.43201850116537577 0.59500000000000008 0.11059101642519507 0.12037689099129574 0.01453861959453618 0.87013273636861876 16812.500000000004 0.55715000000000015 0.11059101642519507 0.67979730752055512 0.2236361663355074 0.0017440365355375932
decision_type=2 2 2 2 2 2 2 2 2 2 2 2 2 2 2
left_child=-1 2 3 -2 -5 7 8 -3 -7 11 -11 -8 13 -13 -14
right_child=1 5 -4 4 -6 6 9 -9 -10 10 -12 12 14 -15 -16
leaf_value=-0.12048774322494681 -0.099168621282384073 -0.094638941422336365 -0.063950206077048599 -0.030152798021437624 0.043210995010240366 0.031514166590798982 -0.067101969595071587 0.00090694410052696579 0.10424687196848192 0.00508131145797985 -0.091985683541570218 -0.073493251265231929 0.055608939179545472 0.0077927819448660555 -0.016240939217861454
leaf_weight=0.011109710845630729 0.01557539723580692 0.031646051706047618 0.071927175507880747 0.10005404392722994 0.085068758577108383 0.079802053980529086 0.032128152844961733 0.061574639286845922 0.060217674821615219 0.057917295023798943 0.041798169957473874 0.052267240214860074 0.1440854137763381 0.49408091412624339 0.082776740193367004
leaf_count=9 12 19 21 11 9 5 10 5 8 7 12 15 10 49 8
internal_value=0 0.00948732 -0.201205 -0.0441257 0.0355978 0.0599488 0.0934196 -0.315285 0.62794 0.0107247 -0.356067 0.0561401 0.0863548 0.00016428 0.293926
internal_weight=0 1.41092 0.272625 0.200698 0.185123 1.13829 1.04507 0.0932207 0.14002 0.905054 0.0997155 0.805338 0.77321 0.546348 0.226862
internal_count=210 201 53 32 20 148 124 24 13 111 19 92 82 64 18
shrinkage=0.1


Tree=46
num_leaves=16
num_cat=0
split_feature=6 6 3 12 11 12 4 13 3 1 3 6 5 9 6
split_gain=0.0167188 0.0176717 0.0120939 0.0114579 0.0161589 0.0211787 0.0171811 0.0170075 0.015205 0.0236326 0.0222201 0.0228968 0.0139877 0.0137415 0.0203267
threshold=0.0069350082379169833 0.015315764686216614 0.019827912916779194 0.65540000000000009 0.45225000000000004 0.47205000000000003 0.31117054796477256 0.45000000000000007 0.86730334103601014 1281.0000000000002 2.3281785580709751 0.21119680270277233 0.49073970366204928 0.59500000000000008 1.0841368711974175
decision_type=2 2 2 2 2 2 2 2 2 2 2 2 2 2 2
left_child=-1 -2 -3 4 6 -6 -4 -8 9 12 11 -10 -7 14 -5
right_child=1 2 3 13 5 8 7 -9 10 -11 -12 -13 -14 -15 -16
leaf_value=0.049036277022615538 -0.082796395572946796 -0.11392150691387473 0.016747047894504593 0.014244245067548187 -0.094703212576938603 0.022330283718626175 -0.063236173935129231 0.013224958974515706 -0.021323729019701556 -0.064485609267329977 -0.029182646149744248 0.06499274635493861 -0.1053983629251682 0.047103377060683981 -0.088218596669165358
leaf_weight=0.066145567689091078 0.026845322252483927 0.0093819733592680477 0.4070903326210098 0.14629697072086856 0.033891076745931059 0.071355110907461494 0.061027787509374321 0.055589823983609683 0.049704058561474085 0.10772711457684636 0.10879145495709965 0.080511618056334541 0.00974456244148314 0.10256615024991332 0.022314452915452421
leaf_count=6 6 9 49 13 12 11 14 6 6 19 31 7 6 10 5
internal_value=0 -0.0250885 -0.00806353 0.000381758 -0.0497099 -0.186088 0.0705273 -0.267883 -0.125809 -0.337904 0.0417549 0.320453 0.06983 0.18241 0.00684059
internal_weight=0 1.29284 1.26599 1.25661 0.985433 0.461725 0.523708 0.116618 0.427834 0.188827 0.239007 0.130216 0.0810997 0.271178 0.168611
internal_count=210 204 198 189 161 92 69 20 80 36 44 13 17 28 18
shrinkage=0.1


Tree=47
num_leaves=16
num_cat=0
split_feature=7 12 0 6 6 9 9 6 12 12 6 1 3 1 2
split_gain=0.0135757 0.0124107 0.0215906 0.0150702 0.014749 0.0330851 0.020655 0.017645 0.0139785 0.0177972 0.014557 0.0465868 0.0157803 0.0133734 0.0121972
threshold=0.40555771149099873 0.55775000000000008 0.0017845616800651017 0.045974323300631226 0.25882790187475391 0.57500000000000007 0.52000000000000013 0.67979730752055512 0.59140000000000015 0.65540000000000009 0.36065978387856379 3507.0000000000005 1.0001811085790837 999.00000000000011 1881.0000000000002
decision_type=2 2 2 2 2 2 2 2 2 2 2 2 2 2 2
left_child=-1 2 13 -3 5 -4 -6 -8 -5 -10 11 -11 -12 -2 -15
right_child=1 3 4 8 6 -7 7 -9 9 10 12 -13 -14 14 -16
leaf_value=-0.06542344499515701 -0.11830349108086567 0.054950004182662208 0.022672616809131439 0.040330506249922536 -0.10940841260951173 -0.059843909618989957 0.077486231248571569 0.010224150608146666 -0.02041930209642644 -0.134540084792966 0.052475893504279773 0.026824057093492171 -0.017648607955429569 -0.05950307267147234 -0.0090336165158233939
leaf_weight=0.030967894053901657 0.016965969640295731 0.06969895726069808 0.11342275407514536 0.098380178562365472 0.010432910523377361 0.085007865505758673 0.062710744910873473 0.10315783752594145 0.242409141123062 0.024033786699874327 0.12626962247304618 0.070007912116125226 0.043024868122302003 0.072285959089640514 0.14185790822375566
leaf_count=18 9 5 12 15 6 12 6 9 40 5 9 8 8 17 31
internal_value=0 0.0158325 -0.0880263 0.109213 0.060226 -0.126775 0.270699 0.356543 0.0584161 -0.00867343 0.171308 -0.14415 0.346543 -0.328409 -0.2607
internal_weight=0 1.27967 0.605842 0.673824 0.374732 0.198431 0.176301 0.165869 0.604126 0.505745 0.263336 0.0940417 0.169294 0.23111 0.214144
internal_count=210 192 102 90 45 24 21 15 85 70 30 13 17 57 48
shrinkage=0.1


Tree=48
num_leaves=16
num_cat=0
split_feature=4 4 0 1 7 7 0 13 6 5 7 7 9 7 5
split_gain=0.0120062 0.0469077 0.0236731 0.0181142 0.017951 0.0166049 0.0142232 0.0134995 0.0132693 0.0128137 0.0121736 0.0247111 0.019241 0.0165881 0.0193652
threshold=0.12037689099129574 0.11059101642519507 0.017762762034324375 16812.500000000004 0.87013273636861876 0.40555771149099873 0.00048636127031704348 0.25000000000000006 0.31683867766621593 0.11059101642519507 1.0052100924828462 0.9413993008784961 0.6100000000000001 0.77934415838513471 0.24805114738834774
decision_type=2 2 2 2 2 2 2 2 2 2 2 2 2 2 2
left_child=1 2 -1 5 -3 -2 -5 9 -8 -7 11 13 -12 -9 -15
right_child=3 4 -4 6 -6 7 8 10 -10 -11 12 -13 -14 14 -16
leaf_value=-0.092617443430128621 -0.10644923983918984 0.029509704419880496 0.0084137725872116299 -0.11561824526541101 0.10411221454526523 -0.11363446511845432 0.0026516905202420235 -0.0054382392035983752 -0.086428141945907935 -0.013989460562444489 0.055664344969568118 -0.051221796752993168 -0.0063632361752997101 0.077378196113552677 0.0043275586719679878
leaf_weight=0.039331752166617766 0.014497678610495999 0.083646958693861947 0.056519374251365662 0.022203610569704324 0.052496097981929779 0.013775325496681036 0.054003463941626251 0.26316170729114674 0.02422254765406251 0.20429236645577475 0.11542270335485227 0.079781895969063044 0.088244655868038521 0.06480938708409667 0.082462427759310231
leaf_count=23 15 6 5 10 8 8 7 36 11 30 13 9 10 7 12
internal_value=0 0.205463 -0.330436 -0.0464185 0.582761 -0.00268946 -0.449813 0.0141905 -0.249317 -0.20284 0.0823971 -0.00297857 0.287891 0.0960097 0.364747
internal_weight=0 0.231994 0.0958511 1.02688 0.136143 0.926448 0.10043 0.91195 0.078226 0.218068 0.693883 0.490215 0.203667 0.410434 0.147272
internal_count=210 42 28 168 14 140 28 125 18 38 87 64 23 55 19
shrinkage=0.1


Tree=49
num_leaves=16
num_cat=0
split_feature=6 12 13 12 5 7 7 1 11 11 7 6 11 9 9
split_gain=0.0212964 0.0510139 0.027242 0.0222579 0.0206446 0.0180069 0.0322773 0.0162532 0.0151127 0.0224509 0.0149818 0.0148297 0.0182065 0.0133476 0.0122828
threshold=0.25882790187475391 0.66670000000000007 0.75000000000000011 0.4280500000000001 0.11059101642519507 0.70769066213115761 0.79642496195322543 3507.0000000000005 0.33050000000000007 0.60420000000000007 0.77934415838513471 0.2756828560457148 0.57455000000000012 0.68500000000000016 0.64500000000000013
decision_type=2 2 2 2 2 2 2 2 2 2 2 2 2 2 2
left_child=1 2 4 -2 -1 -5 7 -7 -6 -10 -4 -8 14 -14 -13
right_child=3 -3 10 5 8 6 11 -9 9 -11 -12 12 13 -15 -16
leaf_value=0.031086605008735686 -0.069355818140151668 -0.10297257542054424 -0.035533575467408977 -0.010762505700828406 -0.0049944399665375885 0.098791983467077904 0.057129304367226678 0.017682597648760932 -0.08759618474971255 -0.0034171145831650897 0.045492729927351677 -0.040384973749467742 0.038163780157793793 -0.082550119751375092 0.009648787775195386
leaf_weight=0.058273913338780403 0.033231208682991564 0.059411153895780451 0.028070021391613409 0.20412023618700917 0.095630842493847013 0.074621332518290714 0.059678580844774842 0.036933768773451447 0.086677244486054406 0.049935764604015283 0.12200618110364304 0.10367627345840448 0.13522063888376579 0.0098254368640482408 0.09314603841630742
leaf_count=6 14 6 5 43 9 6 5 5 25 10 17 26 16 5 12
internal_value=0 -0.15988 -0.0425868 0.106523 -0.221305 0.143594 0.243532 0.719382 -0.354836 -0.568264 0.303377 0.111335 0.0310418 0.299866 -0.167065
internal_weight=0 0.500005 0.440594 0.750454 0.290518 0.717222 0.513102 0.111555 0.232244 0.136613 0.150076 0.401547 0.341868 0.145046 0.196822
internal_count=210 78 72 132 50 118 75 11 44 35 22 64 59 21 38
shrinkage=0.1


Tree=50
num_leaves=16
num_cat=0
split_feature=1 1 7 6 1 7 13 12 7 0 1 0 7 0 12
split_gain=0.0227204 0.0405061 0.0215597 0.0267977 0.0200165 0.0168352 0.0162761 0.0238112 0.0151721 0.012276 0.0119043 0.0111457 0.0243818 0.0185584 0.0171021
threshold=40411.000000000007 23528.000000000004 1.0185048488183044 0.20289997273191004 16812.500000000004 0.40555771149099873 0.25000000000000006 0.47785000000000005 0.87013273636861876 0.0013491691819817748 999.00000000000011 0.0017845616800651017 0.8554492893857395 0.0014144240358766949 0.54150000000000009
decision_type=2 2 2 2 2 2 2 2 2 2 2 2 2 2 2
left_child=1 4 -2 -4 5 -1 10 -8 -3 -5 -7 13 -13 -9 -14
right_child=2 8 3 9 -6 6 7 11 -10 -11 -12 12 14 -15 -16
leaf_value=-0.10942168211716546 0.013604810095446987 0.031515996430636919 -0.13010910575446399 -0.07197453923430934 -0.054964153775479689 -0.092604404466422624 0.063478903743073564 0.0027643046806922656 0.10388135444641727 0.040069851992098858 -0.013130757100620297 0.022575313885108372 -0.010713816570534112 0.057472643915284893 -0.10916751671010537
leaf_weight=0.013428479636786284 0.046677590464241921 0.077782190404832349 0.039650141028687358 0.018738457816652957 0.067098497995175421 0.02101768646389246 0.076457415416371077 0.3776660481817089 0.046169717563316233 0.020450697164051235 0.18255360331386328 0.066720219620037824 0.034060345496982336 0.074185812845826163 0.036605440720450126
leaf_count=15 9 6 6 8 28 9 9 50 8 5 29 8 5 7 8
internal_value=0 0.0470599 -0.402579 -0.721478 -0.0231052 0.0169197 0.0340846 0.109754 0.584707 -0.135046 -0.21336 0.0416271 -0.207795 0.117464 -0.617136
internal_weight=0 1.07375 0.125517 0.0788393 0.949794 0.882695 0.869267 0.665695 0.123952 0.0391892 0.203571 0.589238 0.137386 0.451852 0.0706658
internal_count=210 182 28 19 168 140 125 87 14 13 38 78 21 57 13
shrinkage=0.1


Tree=51
num_leaves=16
num_cat=0
split_feature=1 4 4 0 7 3 7 7 3 7 13 12 7 7 12
split_gain=0.0133577 0.0116864 0.0306009 0.0162602 0.0143829 0.011135 0.0173047 0.024999 0.0169739 0.0165345 0.0197105 0.0162591 0.0157243 0.0117955 0.0136701
threshold=712.50000000000011 0.12037689099129574 0.11059101642519507 0.017762762034324375 0.87013273636861876 3.0028299069995108 1.0185048488183044 0.76849195909565182 2.1248008091849599 1.0681260453601504 0.45000000000000007 0.58150000000000013 1.2299212042586489 0.9413993008784961 0.61745000000000017
decision_type=2 2 2 2 2 2 2 2 2 2 2 2 2 2 2
left_child=-1 2 3 -2 -4 8 7 -7 9 10 -3 -10 -11 14 -12
right_child=1 5 4 -5 -6 6 -8 -9 11 12 13 -13 -14 -15 -16
leaf_value=-0.087168015826692424 -0.07970170854457348 -0.057553669871563552 0.030265596240258694 0.011139630148972532 0.10364400007655633 -0.060946537019958183 -0.089371773238963045 0.025977743998887162 -0.010132403736249787 0.070151983559250966 -0.017845683564198689 0.069862247532726726 0.0039424122762275705 -0.042843322119282767 0.032969707978342581
leaf_weight=0.017308501614024974 0.03140731042367384 0.093911458563525244 0.075023995712399483 0.052879888098686927 0.041481966618448496 0.05686201254138723 0.034825578099116683 0.079126113560050726 0.041613548761233687 0.043082303949631751 0.10935664421413094 0.065245735924690962 0.21426446258556095 0.061969619011506438 0.1026162588968873
leaf_count=28 23 29 6 5 8 19 13 8 5 5 14 5 27 7 8
internal_value=0 0.0136703 0.231873 -0.227099 0.56392 -0.0348565 -0.264759 -0.103687 0.0187874 -0.0441654 -0.180187 0.387104 0.150265 -0.0446554 0.0675409
internal_weight=0 1.10367 0.200793 0.0842872 0.116506 0.902874 0.170814 0.135988 0.73206 0.625201 0.367854 0.106859 0.257347 0.273943 0.211973
internal_count=210 182 42 28 14 140 40 27 100 90 58 10 32 29 22
shrinkage=0.1


Tree=52
num_leaves=16
num_cat=0
split_feature=1 12 0 1 3 11 12 1 4 3 3 7 13 12 3
split_gain=0.0116579 0.0107566 0.015415 0.0118531 0.0229296 0.0134959 0.00866655 0.0146294 0.0134793 0.00797257 0.0123596 0.0179426 0.0134552 0.0115832 0.00999852
threshold=712.50000000000011 0.65540000000000009 0.00061457871508770027 23528.000000000004 1.9789599862835179 0.27405000000000007 0.66670000000000007 16812.500000000004 0.55510496036233836 9.3991757682324941 2.1248008091849599 1.630113991747034 1.0000000180025095e-35 0.57045000000000001 5.0217798918406826
decision_type=2 2 2 2 2 2 2 2 2 2 2 2 2 2 2
left_child=-1 2 -2 9 -5 -6 8 -8 -3 10 11 -4 -13 14 -12
right_child=1 6 3 4 5 -7 7 -9 -10 -11 13 12 -14 -15 -16
leaf_value=-0.085304040173570558 -0.042473880476085364 0.08793266453087964 -0.023230493900840327 0.0827256066186913 0.03932087358559732 -0.029536338362155114 0.015686290389315804 -0.10067977438456198 0.009451247445211565 -0.066916234789251475 -0.063147442887704006 -0.034185664713310769 0.054771029851819725 0.039982964214767706 0.022971351190184092
leaf_weight=0.0157836776925252 0.09170631199958712 0.040389284491539001 0.32508692430565134 0.048149964073672891 0.05061771534383297 0.065038204251322895 0.1099387244321406 0.01198108308017254 0.047765451949089766 0.020522710459772497 0.025219140574336048 0.023949650465510786 0.058623262331821024 0.10324247623793779 0.028966200887225568
leaf_count=28 35 5 56 7 5 13 9 6 5 11 5 5 5 10 5
internal_value=0 0.0128084 -0.0377454 0.00961115 0.247401 0.00599558 0.215222 0.0425097 0.454086 -0.0569031 -0.0346672 -0.126571 0.289698 0.203319 -0.171104
internal_weight=0 1.0512 0.841123 0.749416 0.163806 0.115656 0.210075 0.12192 0.0881547 0.58561 0.565088 0.40766 0.0825729 0.157428 0.0541853
internal_count=210 182 157 122 25 18 25 15 10 97 86 66 10 20 10
shrinkage=0.1


Tree=53
num_leaves=16
num_cat=0
split_feature=1 12 10 0 2 7 1 3 6 13 6 11 7 2 9
split_gain=0.00993014 0.00892975 0.0123966 0.00956114 0.0202446 0.0102665 0.00920898 0.0172576 0.0124618 0.00872412 0.0140703 0.0131615 0.0202489 0.012279 0.00755095
threshold=712.50000000000011 0.65540000000000009 0.65000000000000002 0.000842311435763385 712.50000000000011 0.76849195909565182 23528.000000000004 1.9789599862835179 0.3424822791700845 0.35000000000000003 0.045974323300631226 0.45225000000000004 0.86416963647363942 2518.0000000000005 0.59500000000000008
decision_type=2 2 2 2 2 2 2 2 2 2 2 2 2 2 2
left_child=-1 2 3 4 -2 -6 9 -8 -9 -5 -11 13 -13 -12 -3
right_child=1 14 -4 6 5 -7 7 8 -10 10 11 12 -14 -15 -16
leaf_value=-0.082470776308730731 0.046601743202491067 0.0056202082150128788 -0.072102351198044257 -0.017981132110418695 -0.017456865096665285 -0.081212524060711 0.077471117894538769 -0.018478813043250105 0.057130242172406677 0.04752885582675935 -0.018457351223365281 -0.003174651036044421 -0.10120347894326945 0.05097403087591959 0.04616474332821513
leaf_weight=0.014395008300198351 0.029781602264847384 0.12869520555250347 0.025509095343295485 0.21627585263922808 0.05420306941960007 0.047295529046095915 0.044703308260068297 0.075366577133536353 0.030669784289784729 0.070189670193940401 0.044191549299284816 0.083882929815445081 0.02814033429604024 0.060128269018605351 0.07142884167842567
leaf_count=28 6 15 8 40 18 24 7 9 6 6 6 13 8 6 10
internal_value=0 0.0117488 -0.0349684 -0.0126697 -0.258937 -0.471652 0.0367987 0.253596 0.0339023 -0.0281962 0.0862434 -0.0399771 -0.277996 0.215618 0.200915
internal_weight=0 1.01046 0.810338 0.784828 0.13128 0.101499 0.653548 0.15074 0.106036 0.502809 0.286533 0.216343 0.112023 0.10432 0.200124
internal_count=210 182 157 149 48 42 101 22 15 79 39 33 21 12 25
shrinkage=0.1


Tree=54
num_leaves=16
num_cat=0
split_feature=4 4 0 5 1 7 0 12 7 13 5 0 11 5 6
split_gain=0.00901931 0.0268832 0.0161057 0.0121795 0.0114534 0.0111041 0.00910843 0.00799472 0.00890644 0.0142298 0.0136848 0.0127286 0.0115996 0.0100041 0.00890482
threshold=0.12037689099129574 0.11059101642519507 0.017762762034324375 0.27489080593727977 16812.500000000004 0.40555771149099873 0.00048636127031704348 0.65540000000000009 1.0052100924828462 0.45000000000000007 0.11059101642519507 0.0011562538189314384 0.57455000000000012 0.27489080593727977 0.36065978387856379
decision_type=2 2 2 2 2 2 2 2 2 2 2 2 2 2 2
left_child=1 2 -1 -3 5 -2 -6 8 9 -7 -10 -11 -13 -12 -9
right_child=4 3 -4 -5 6 7 -8 14 10 11 13 12 -14 -15 -16
leaf_value=-0.084476310219335049 -0.10302612139180534 0.029840890451711927 0.011268125419581601 0.10404888173232418 -0.11298885647952142 -0.047214283966906745 -0.024628508260565802 -0.013970492645375041 -0.11431318295921077 -0.043327231761085716 0.025890463578772345 0.046685164169787519 -0.01077926264305735 -0.018398250749991372 0.034533874424299442
leaf_weight=0.027997351717203856 0.010442196566145869 0.065311844227835536 0.047169529367238283 0.033441926352679729 0.014448772300966084 0.10163195568020456 0.060577334545087062 0.055051612231181934 0.0087483113165944815 0.05217010309570469 0.17464099737117067 0.062513260316336527 0.080184980353806182 0.072042253101244569 0.12113209831295536
leaf_count=23 15 8 5 6 10 34 18 8 6 11 22 8 12 11 13
internal_value=0 0.206701 -0.243937 0.549706 -0.0441867 -0.00637023 -0.416452 0.0083138 -0.0508889 -0.168794 0.0859736 -0.0105856 0.143948 0.129562 0.193779
internal_weight=0 0.173921 0.0751669 0.0987538 0.813584 0.738558 0.0750261 0.728116 0.551932 0.2965 0.255432 0.194868 0.142698 0.246683 0.176184
internal_count=210 42 28 14 168 140 28 125 104 65 39 31 20 33 21
