tree
version=v3
num_class=1
num_tree_per_iteration=1
label_index=0
max_feature_idx=2
objective=lambdarank
feature_names=transfer_data_size task_data_size ratio_data_size
feature_infos=[417:56332] [417:56332] [0.0074025420720017039:135.08872901678657]
tree_sizes=1729 1715 1726 1725 1731 1730 1743 1744 1751 1753 1757 1754 1756 1755 1770 1752 1757 1753 1763 1757 1770 1764 1765 1768 1768 1770 1770 1774 1767 1774 1778 1785 1785 1784 1781 1788 1776 1807 1781 1795 1790 1793 1796 1801 1781 1794 1790 1802 1795 1802 1804 1787 1802 1799 1797 1792 1805 1799 1803 1799 1790 1784 1801 1785 1788 1800 1789 1787 1808 1798 1790 1797 1809 1808 1822 1815 1800 1811 1814 1819 1811 1809 1812 1818 1809 1802 1822 1810 1805 1804 1822 1806 1836 1824 1814 1820 1842 1825 1828 1834

Tree=0
num_leaves=16
num_cat=0
split_feature=2 0 0 0 0 2 1 1 2 2 0 0 0 1 1
split_gain=7.08583 7.52747 2.33863 2.24597 2.38026 1.77277 1.73814 1.22274 1.15519 0.990822 0.775667 0.744914 1.73175 0.74083 0.721587
threshold=9.7056349680081286 1243.5000000000002 9968.5000000000018 3507.0000000000005 2518.0000000000005 1.1687909505581064 19386.000000000004 712.50000000000011 0.69522666972705494 0.2924971334008824 1881.0000000000002 2312.0000000000005 1434.5000000000002 2312.0000000000005 467.00000000000006
decision_type=2 2 2 2 2 2 2 2 2 2 2 2 2 2 2
left_child=1 5 3 4 7 -1 -4 -3 -8 11 -11 12 -9 -5 -2
right_child=14 2 6 13 -6 -7 8 9 -10 10 -12 -13 -14 -15 -16
leaf_value=-0.16987073125810548 -0.052237165285151203 -0.11755424217681179 -0.14772837068796635 0.1662168218972685 -0.16128753891814251 0.048197186547449138 -0.13923574647584722 0.099536391381617045 0.11065728864948875 0.15014186045780128 0.031702116736837122 0.10493006149981235 -0.19129208392336966 0.085784974482653237 -0.19217328235900005
leaf_weight=2.0395454680547114 0.46285402029752848 0.35724866017699053 0.8362739747390141 2.6426220089197159 0.55343051068484772 0.45617402531206602 0.24660747498273847 0.3905687555670741 0.7403634786605835 1.7244301587343218 0.8139320220798254 0.4701857678592205 0.43033498339354992 2.0208706259727478 1.8075040467083452
leaf_count=50 6 8 20 6 14 6 6 5 6 14 14 5 10 7 33
internal_value=0 0.270745 0.619946 0.820914 0.336167 -1.30012 -0.416572 0.593807 0.482183 0.758869 1.12164 0.0456417 -0.52922 1.31363 -1.63645
internal_weight=0 13.7226 11.2269 9.40362 4.74013 2.49572 1.82324 4.1867 0.986971 3.82945 2.53836 1.29109 0.820904 4.66349 2.27036
internal_count=210 171 115 83 70 56 32 56 12 48 28 20 15 13 39
shrinkage=0.1


Tree=1
num_leaves=16
num_cat=0
split_feature=0 2 2 0 0 0 2 2 1 2 2 0 1 1 0
split_gain=9.2671 7.17629 3.39266 2.8422 2.83884 2.6767 2.69029 2.28965 3.08138 1.76538 4.97936 2.69024 1.65115 1.54806 1.762
threshold=712.50000000000011 3.4202759520383696 1.841534988450505 999.00000000000011 1434.5000000000002 9968.5000000000018 4.7830764264055654 0.60429347073637107 55435.000000000007 0.13831947621798577 0.2326598738476468 2312.0000000000005 2312.0000000000005 1434.5000000000002 2312.0000000000005
decision_type=2 2 2 2 2 2 2 2 2 2 2 2 2 2 2
left_child=-1 2 3 -2 -5 6 -3 8 9 11 -11 -6 -4 -9 -15
right_child=1 5 12 4 7 -7 -8 13 -10 10 -12 -13 -14 14 -16
leaf_value=-0.18516632903006813 -0.15464735123822923 -0.0911553175186951 0.11623376004656437 0.070122603599636235 -0.15890145066412584 -0.13777271929721435 0.11210241879640442 0.037027124052971226 -0.12620457402384982 -0.1786804814905015 0.074344547865035485 0.14691166283026971 0.013603317902037504 -0.15465537320939954 -0.033112843219716581
leaf_weight=2.5360986031591883 0.9712051302194622 1.5798175521194928 5.770739533007144 7.5912463068962124 0.32252009771764134 3.7997640632092953 1.1078145466744898 1.7347386628389347 1.0799094401299951 1.0236807614564893 3.2375632636249065 2.6613066494464874 2.1522403210401535 1.7375003099441526 3.8043429777026176
leaf_count=28 13 5 16 24 7 52 6 5 8 5 9 6 5 5 16
internal_value=0 0.121739 0.315681 0.129487 0.199668 -0.837507 -0.0737455 -0.0443751 0.313781 0.548665 0.135602 1.13857 0.883547 -0.454134 -0.712193
internal_weight=0 38.5744 32.087 24.164 23.1928 6.4874 2.68763 15.6016 8.32498 7.24507 4.26124 2.98383 7.92298 7.27658 5.54184
internal_count=210 182 119 98 85 63 11 61 35 27 14 13 21 26 21
shrinkage=0.1


Tree=2
num_leaves=16
num_cat=0
split_feature=2 0 1 0 1 0 0 2 1 2 0 0 2 0 2
split_gain=5.15245 5.56551 3.68944 2.23532 1.85116 1.49176 3.20074 1.43313 1.2827 1.25508 0.964334 4.32644 2.29959 0.91219 0.848636
threshold=9.7056349680081286 1243.5000000000002 712.50000000000011 9968.5000000000018 467.00000000000006 3507.0000000000005 2518.0000000000005 2.1593712186214336 2312.0000000000005 2.8882715919603066 2312.0000000000005 1881.0000000000002 0.54303089582512243 1434.5000000000002 0.69522666972705494
decision_type=2 2 2 2 2 2 2 2 2 2 2 2 2 2 2
left_child=1 2 -1 4 -3 6 7 10 -7 14 11 12 13 -6 -5
right_child=-2 3 -4 9 5 8 -8 -9 -10 -11 -12 -13 -14 -15 -16
leaf_value=0.02783202542309467 -0.13446484523653232 -0.16670644114885699 -0.1398612786594047 -0.098888155847004736 0.033064888276022449 0.1348896880994489 -0.13532169027576635 -0.060476804565289199 0.028910751105534527 -0.1227708144508166 0.096078329630334677 -0.13137336515857076 0.10430557734435207 -0.070914607954682171 0.028048642854379725
leaf_weight=2.0580793172121039 2.6361349336802951 0.4163762703538002 3.6190753523260355 0.69027712196111612 3.5872594863176417 3.0381493419408789 1.0675985664129246 1.2289189994335163 1.8299381881952284 1.2223623692989347 3.7139806225895873 1.3403874859213836 5.404448390007019 1.1031604055315254 2.2222466617822647
leaf_count=6 39 5 50 6 7 6 13 6 7 16 11 11 11 6 10
internal_value=0 0.108925 -0.790692 0.299033 0.422062 0.461045 0.324462 0.43382 0.950517 -0.377277 0.518071 0.374285 0.598419 0.0860949 -0.0203577
internal_weight=0 32.5423 5.67715 26.8651 22.7302 22.3138 17.4458 16.3782 4.86809 4.13489 15.1492 11.4353 10.0949 4.69042 2.91252
internal_count=210 171 56 115 83 78 65 52 13 32 46 35 24 13 16
shrinkage=0.1


Tree=3
num_leaves=16
num_cat=0
split_feature=2 0 0 0 2 1 2 0 0 2 0 1 2 2 2
split_gain=4.13003 4.89494 1.43682 1.81046 1.4105 1.5237 1.97417 2.52991 1.31832 1.25767 1.18662 1.94657 0.948988 0.621302 1.92203
threshold=3.4202759520383696 712.50000000000011 1243.5000000000002 1434.5000000000002 0.042392460302908073 999.00000000000011 2.6638406447304273 16812.500000000004 9968.5000000000018 0.2924971334008824 999.00000000000011 1881.0000000000002 4.7830764264055654 1.841534988450505 1.1028432355046529
decision_type=2 2 2 2 2 2 2 2 2 2 2 2 2 2 2
left_child=1 -1 10 9 -5 -6 7 13 12 -4 11 -3 -2 14 -7
right_child=8 2 3 4 5 6 -8 -9 -10 -11 -12 -13 -14 -15 -16
leaf_value=-0.15212387105436914 -0.10207335071355515 0.1044714590738874 0.018778085706503429 -0.15088918242401639 -0.097530667716462238 0.045090920260559761 0.1267942719178288 -0.092689896760065935 -0.11649036180040409 0.11309900927243338 -0.082469382063993388 -0.12643829691038141 0.059192645726349628 0.095619014312936984 -0.09353326265461874
leaf_weight=1.6315756868571103 0.60704881325364002 1.1498756110668211 2.1282299458980587 0.48046616092324163 0.97414848953485389 7.1873033177107555 1.8886841610074032 1.7927823066711415 3.5274938307702541 4.2105066068470478 2.0220668092370033 0.53490616939961899 0.91478414088487614 1.5041595362126816 1.1618745923042295
leaf_count=28 5 5 5 5 5 36 5 11 52 9 14 9 6 6 9
internal_value=0 0.157026 0.266401 0.366275 0.176811 0.232633 0.319573 0.165773 -0.829287 0.814308 -0.308246 0.311593 -0.0513526 0.364581 0.257999
internal_weight=0 26.6666 25.035 21.3282 14.9894 14.509 13.5348 11.6461 5.04933 6.33874 3.70685 1.68478 1.52183 9.85334 8.34918
internal_count=210 147 119 91 77 72 67 62 63 14 28 14 11 51 45
shrinkage=0.1


Tree=4
num_leaves=16
num_cat=0
split_feature=2 0 2 2 0 1 0 2 1 2 2 0 2 2 2
split_gain=3.44695 3.88814 1.96657 3.42021 1.38215 1.57639 1.19681 1.09905 1.41283 2.0279 3.50822 1.15225 0.753118 0.74703 0.739046
threshold=3.0582515310586182 712.50000000000011 0.12356009070294785 0.048754534962898818 9968.5000000000018 467.00000000000006 1243.5000000000002 2.6638406447304273 19386.000000000004 0.32701234900062198 0.54303089582512243 1881.0000000000002 0.20908113783825596 1.841534988450505 0.34629786944422042
decision_type=2 2 2 2 2 2 2 2 2 2 2 2 2 2 2
left_child=1 -1 3 6 5 -2 -3 8 9 12 -11 -12 -4 -13 -10
right_child=4 2 7 -5 -6 -7 -8 -9 14 10 11 13 -14 -15 -16
leaf_value=-0.14327597403923983 -0.13866998497363753 -0.13447450323467028 0.044977039291010379 -0.11777476725613874 -0.10845424142269613 0.049704974750674945 0.079427572026949722 0.11678698818743374 -0.15867186101950981 -0.11697979113075828 0.07283678392672023 -0.045131269674717818 0.14859564997030342 0.04470632925473287 -0.008366651282029321
leaf_weight=1.4277225211262763 0.63263453543186132 0.29867994785309138 1.050877459347251 2.2971970289945602 3.5343035757541656 1.4917759448289869 2.1055678501725197 1.7796818986535061 0.49982722848653682 1.5354836620390404 5.9873835258185846 1.7674187980592253 2.1094265207648277 1.9433038458228107 0.94681346416473389
leaf_count=28 6 5 6 16 53 7 9 6 6 10 21 17 5 8 7
internal_value=0 0.167115 0.269446 -0.305175 -0.701377 -0.0639177 0.528545 0.422767 0.339054 0.433733 0.234647 0.457011 1.1414 0.0191664 -0.602984
internal_weight=0 23.7494 22.3217 4.70144 5.65871 2.12441 2.40425 17.6202 15.8405 14.3939 11.2336 9.69811 3.1603 3.71072 1.44664
internal_count=210 144 116 30 66 13 14 86 80 67 56 46 11 25 13
shrinkage=0.1


Tree=5
num_leaves=16
num_cat=0
split_feature=0 2 1 0 2 0 0 2 0 0 1 2 0 2 2
split_gain=2.5045 3.55487 1.3953 1.26759 1.91446 1.26292 1.38374 1.05544 0.489313 1.61253 1.01852 1.65079 1.46534 1.17718 0.454513
threshold=1243.5000000000002 3.0582515310586182 712.50000000000011 1434.5000000000002 0.042392460302908073 9968.5000000000018 3507.0000000000005 2.6638406447304273 1881.0000000000002 2312.0000000000005 2312.0000000000005 0.13831947621798577 3507.0000000000005 1.0001811085790837 1.841534988450505
decision_type=2 2 2 2 2 2 2 2 2 2 2 2 2 2 2
left_child=2 3 -1 -2 -5 6 -3 8 -6 -10 14 -12 -13 -14 -11
right_child=1 5 -4 4 7 -7 -8 -9 9 10 11 12 13 -15 -16
leaf_value=0.014030260614576169 0.079406854458389908 -0.11068576848318422 -0.11180598023539345 -0.15761532259034983 0.059951839644373839 -0.096747213798826517 0.06553598222296729 0.10273597016704671 -0.11339838804581877 0.0012500898353787235 0.070563786229987283 -0.14956444332991542 0.032340099608679125 -0.10502624534289513 0.10943977377726316
leaf_weight=1.2855390720069433 4.5517298728227678 0.68298736959695694 2.8012580759823322 0.59096864238381286 2.050098128616809 3.3411469087004662 1.2819459587335587 1.5900777131319035 1.0087023228406895 0.52145965397357796 2.1817941963672638 0.90377682447433461 2.2889989055693154 0.85758341103792191 1.5207062959671018
leaf_count=6 13 8 50 5 10 53 5 5 10 5 8 7 13 7 5
internal_value=0 0.126288 -0.722231 0.337648 0.18392 -0.593338 0.0428341 0.264407 0.157362 0.0597143 0.205235 0.00439731 -0.373338 -0.0509833 0.818139
internal_weight=0 23.372 4.0868 18.0659 13.5142 5.30608 1.96493 12.9232 11.3331 9.28302 8.27432 6.23215 4.05036 3.14658 2.04217
internal_count=210 154 56 88 75 66 13 70 65 55 45 35 27 20 10
shrinkage=0.1


Tree=6
num_leaves=16
num_cat=0
split_feature=2 0 2 1 1 2 0 2 1 2 2 2 2 0 0
split_gain=2.23532 2.80858 1.29897 0.736122 0.664986 0.640829 0.647315 1.00559 0.857547 0.845555 1.55993 0.834353 0.648389 0.555553 0.283833
threshold=3.4202759520383696 1243.5000000000002 0.69522666972705494 712.50000000000011 467.00000000000006 1.4445024855514694 2518.0000000000005 0.60429347073637107 16812.500000000004 0.12356009070294785 0.055293242441748512 0.90855223429951704 0.69522666972705494 1881.0000000000002 3507.0000000000005
decision_type=2 2 2 2 2 2 2 2 2 2 2 2 2 2 2
left_child=1 2 -1 4 -2 6 7 9 -8 10 -3 -9 -10 -11 -7
right_child=3 5 -4 -5 -6 14 8 11 12 13 -12 -13 -14 -15 -16
leaf_value=-0.11149394636958068 -0.074987970344833621 0.070260982341158074 0.0074312244704631538 -0.097094996249761076 0.040242442150796531 0.038120079249312662 0.052765122051918113 -0.1149474936724698 -0.091559930551440044 0.1225240683599278 -0.086574408907261813 0.019909250445278869 0.01744893082411508 0.03528949050892953 0.083797089750839937
leaf_weight=2.27321412041784 0.99199923127889567 1.7851428687572499 1.5410731583833692 2.6566283255815506 1.0114537477493286 2.8724178709089747 1.1630149111151697 0.70212337374687228 1.5083527751266959 1.9805748015642168 0.98362973704934109 1.3237287774682043 0.85491138696670532 1.1562314853072164 2.5843948572874069
leaf_count=46 10 8 10 44 9 17 7 5 14 5 8 6 6 6 9
internal_value=0 0.140688 -0.63445 -0.625804 -0.168133 0.315485 0.181158 0.339645 -0.175314 0.548193 0.145439 -0.268296 -0.521259 0.903693 0.597531
internal_weight=0 20.7288 3.81429 4.66008 2.00345 16.9145 11.4577 7.93143 3.52628 5.90558 2.76877 2.02585 2.36326 3.13681 5.45681
internal_count=210 147 56 63 19 91 65 38 27 27 16 11 20 11 26
shrinkage=0.1


Tree=7
num_leaves=16
num_cat=0
split_feature=0 2 0 2 0 0 0 2 1 2 2 2 0 0 1
split_gain=1.90964 2.11017 0.702321 1.33514 0.836219 2.47625 0.755901 0.833456 0.713964 0.618467 0.562771 0.53135 0.471713 0.882522 1.39531
threshold=712.50000000000011 9.7056349680081286 16812.500000000004 2.8882715919603066 3507.0000000000005 2518.0000000000005 1243.5000000000002 3.0582515310586182 19386.000000000004 0.90855223429951704 0.69522666972705494 55.872305298468255 1434.5000000000002 2312.0000000000005 9968.5000000000018
decision_type=2 2 2 2 2 2 2 2 2 2 2 2 2 2 2
left_child=-1 2 4 9 5 6 10 12 -6 -4 -2 -3 -8 14 -14
right_child=1 11 3 -5 8 -7 7 -9 -10 -11 -12 -13 13 -15 -16
leaf_value=-0.12959254398620865 -0.078515527723033357 -0.10953491435200531 -0.085669379532816878 -0.13880150392713356 0.083470744885902337 -0.12988379851193965 0.069696534605745389 -0.095106358712831671 -0.024318680226379633 0.046361947421023328 0.017992434461777795 0.010440849055154376 0.022962371136179771 0.06498128231612936 -0.14214056584913812
leaf_weight=1.085440862923863 1.0995206423103892 1.8151911757886403 0.4684805423021311 0.80775241553783395 3.3044744506478301 1.1323916837573058 3.8866568505763972 0.45951360464096153 0.75488140434026707 1.4618496522307394 1.341384310275316 0.46337547525763506 2.3532196208834653 2.8115808740258217 0.65416486933827389
leaf_count=28 20 33 5 12 15 14 13 6 6 7 8 6 15 12 10
internal_value=0 0.0616562 0.162961 -0.308528 0.235496 0.117671 0.244915 0.36491 0.634261 0.143187 -0.254802 -0.851363 0.427215 0.247041 -0.129507
internal_weight=0 22.8144 20.5359 2.73808 17.7978 13.7384 12.606 10.1651 4.05936 1.93033 2.4409 2.27857 9.70562 5.81897 3.00738
internal_count=210 182 143 24 119 98 84 56 21 12 28 39 50 37 25
shrinkage=0.1


Tree=8
num_leaves=16
num_cat=0
split_feature=2 0 0 0 2 0 2 2 2 1 2 2 0 0 1
split_gain=1.65097 1.90447 0.814167 0.782159 0.63585 0.794421 0.541689 0.780231 0.523171 0.805021 1.50169 0.398824 0.264192 0.676676 0.299624
threshold=3.0582515310586182 712.50000000000011 9968.5000000000018 3507.0000000000005 1.4445024855514694 1243.5000000000002 0.79340989049482946 0.54303089582512243 0.34629786944422042 19386.000000000004 0.048754534962898818 0.15222061847191384 1434.5000000000002 2312.0000000000005 2312.0000000000005
decision_type=2 2 2 2 2 2 2 2 2 2 2 2 2 2 2
left_child=1 -1 3 -2 5 -3 7 8 9 11 -11 -7 -6 -14 -15
right_child=2 4 -4 -5 12 6 -8 -9 -10 10 -12 -13 13 14 -16
leaf_value=-0.12530174576700687 -0.092452146613476616 -0.063566408232277119 -0.090918449923238387 0.048831873223967148 0.080468024384861656 0.024126647091918887 -0.023002550107384594 0.090480663555269736 -0.077449736941306108 0.045676287145877514 -0.10239387838413992 0.10136223432977112 -0.057198877472272584 0.077128290310525038 0.0092573917095012722
leaf_weight=0.93978849425912514 0.61158145591616508 1.3759766928851629 2.5966001991182566 1.0905659347772598 1.8088920712470997 1.3450142815709099 2.5161318778991699 1.6904634088277815 0.57076556980609883 1.7030159160494807 1.1457248628139494 1.3293544724583624 0.66798430308699641 1.9401557035744192 0.97848277539014805
leaf_count=28 8 24 53 5 6 9 17 7 5 9 13 5 6 10 5
internal_value=0 0.132895 -0.556828 -0.0193147 0.209187 0.0779985 0.173332 0.30371 0.136963 0.231155 -0.138755 0.625183 0.493093 0.335946 0.543744
internal_weight=0 18.0118 4.29875 1.70215 17.072 11.6764 10.3005 7.78434 6.09388 5.52311 2.84874 2.67437 5.39551 3.58662 2.91864
internal_count=210 144 66 13 116 89 65 48 41 36 22 14 27 21 15
shrinkage=0.1


Tree=9
num_leaves=16
num_cat=0
split_feature=2 0 2 2 2 2 0 2 0 1 2 1 2 0 2
split_gain=1.34575 1.39653 0.370159 1.01709 0.899894 1.37995 0.724014 0.387822 0.517248 0.565458 0.493891 0.473869 0.432408 0.327977 0.313777
threshold=9.7056349680081286 712.50000000000011 3.0582515310586182 6.5706741786437624 1.4445024855514694 1.1028432355046529 999.00000000000011 0.12356009070294785 1881.0000000000002 9968.5000000000018 0.60429347073637107 37655.000000000007 0.042392460302908073 1434.5000000000002 2.5462555066079298
decision_type=2 2 2 2 2 2 2 2 2 2 2 2 2 2 2
left_child=1 -1 4 -4 5 6 -3 11 10 -10 -9 13 -13 -8 -6
right_child=-2 2 3 -5 14 -7 7 8 9 -11 -12 12 -14 -15 -16
leaf_value=-0.12178027530152752 -0.084934597190651412 -0.10706185006498109 -0.079503974638722358 0.060178381270359509 0.067139448392843082 -0.10046801538022254 -0.021492437265142956 0.097819687770053718 -0.078827577406135982 0.026594293611998228 0.0096043795509360673 -0.023323026917352458 0.068544112188554829 -0.14117771443817376 0.018018961141785795
leaf_weight=0.8034130521118702 1.7167130466550578 0.47436589188874378 1.3541864417493337 0.84753656014800061 3.7357208617031565 1.1909033358097065 0.59376918897032593 1.7698631398379805 0.61316016316413913 2.9890899397432804 0.98948888108134259 1.1642818376421931 0.91502782329916943 0.37266205996274954 1.9949094727635379
leaf_count=28 39 12 18 9 18 8 6 9 7 21 7 9 5 5 9
internal_value=0 0.0736094 0.128202 -0.257343 0.17872 0.0122352 0.13479 0.195573 0.336063 0.0864982 0.661861 -0.0978676 0.171043 -0.676438 0.500399
internal_weight=0 19.8084 19.005 2.20172 16.8032 11.0726 9.88171 9.40734 6.3616 3.60225 2.75935 3.04574 2.07931 0.966431 5.73063
internal_count=210 171 143 27 116 89 81 69 44 28 16 25 14 11 27
shrinkage=0.1


Tree=10
num_leaves=16
num_cat=0
split_feature=2 0 0 0 0 2 0 1 0 1 2 0 2 1 1
split_gain=1.08969 1.16558 0.37847 0.863497 0.700159 0.493123 0.769802 0.986806 0.694417 0.586167 0.557088 0.580728 0.879478 0.346695 0.292119
threshold=9.7056349680081286 712.50000000000011 1881.0000000000002 1243.5000000000002 2312.0000000000005 0.13831947621798577 3507.0000000000005 2312.0000000000005 2518.0000000000005 1434.5000000000002 2.8882715919603066 19386.000000000004 0.85566247224278325 9968.5000000000018 16812.500000000004
decision_type=2 2 2 2 2 2 2 2 2 2 2 2 2 2 2
left_child=1 -1 3 13 -4 -6 8 -8 9 -7 11 12 -9 -3 -5
right_child=-2 2 4 14 5 6 7 10 -10 -11 -12 -13 -14 -15 -16
leaf_value=-0.11930032020185688 -0.078112547621194225 -0.0050423243880399933 -0.077794771598335324 0.065135235922238841 0.055417300608875064 0.038131854579080561 0.078968055454199534 0.018002664748097252 -0.12447693643046312 -0.093711187929568007 -0.093635693711252632 0.05421299202176965 -0.13429763758763155 -0.11108012019521263 0.007067743847043239
leaf_weight=0.7041496578604044 1.6410237364470948 1.7667474392801552 1.0449877716600884 3.91659065335989 1.8106032460927943 0.92761959880590461 1.781164690852165 1.1418192423880107 0.82797761633992173 0.52981892973184586 0.67502526566386212 1.4046203605830667 0.56766289472579945 0.37352574616670597 1.1124194301664827
leaf_count=28 39 18 14 20 9 5 9 8 11 5 13 8 5 10 8
internal_value=0 0.068973 0.118671 0.296502 -0.000355451 0.0837071 -0.0247271 0.175785 -0.513439 -0.0979671 -0.112791 0.065729 -0.325713 -0.235483 0.522907
internal_weight=0 18.5847 17.8806 7.16928 10.7113 9.66631 7.85571 5.57029 2.28542 1.45744 3.78913 3.1141 1.70948 2.14027 5.02901
internal_count=210 171 143 56 87 73 64 43 21 10 34 21 13 28 28
shrinkage=0.1


Tree=11
num_leaves=16
num_cat=0
split_feature=2 0 0 0 2 0 0 0 1 2 2 2 0 0 1
split_gain=0.930376 1.08805 0.518615 0.534835 0.413616 0.531076 0.405584 0.370972 1.39743 0.288904 0.285471 0.248197 0.344775 0.232407 0.69616
threshold=3.0582515310586182 712.50000000000011 9968.5000000000018 3507.0000000000005 2.6638406447304273 16812.500000000004 1243.5000000000002 1434.5000000000002 55435.000000000007 0.20908113783825596 1.0001811085790837 37.260147859972896 55435.000000000007 2312.0000000000005 9968.5000000000018
decision_type=2 2 2 2 2 2 2 2 2 2 2 2 2 2 2
left_child=1 -1 3 -2 5 6 9 -8 13 -3 -7 -4 -13 14 -9
right_child=2 4 11 -5 -6 10 7 8 -10 -11 -12 12 -14 -15 -16
leaf_value=-0.1179051063255626 -0.090239059570122154 -0.10911952839649082 -0.10156646547271025 0.040584676983767207 0.070269096359810088 -0.0096733415864428823 0.056657415572796736 0.024057284924711597 -0.14041911033043686 -0.0071836305880091759 -0.11306069694160457 0.015860414203342985 -0.13285917904999506 0.038164554621906967 -0.12527886966382837
leaf_weight=0.62962792254984645 0.4520758390426628 0.33478119596838846 1.4095502998679879 1.0121410712599754 1.2966350764036167 0.59423903375863918 2.7231823280453664 1.868260804563761 0.54642377421259869 1.6403106898069379 0.48508583754301071 0.50760115310549725 0.22497163899242881 4.7477618753910065 0.37478272989392264
leaf_count=28 8 10 38 5 6 6 12 14 6 18 5 9 6 31 8
internal_value=0 0.108076 -0.456749 0.00192949 0.16354 0.111036 0.170352 0.250233 0.13594 -0.244619 -0.561392 -0.770272 -0.298111 0.256321 -0.008948
internal_weight=0 15.2411 3.60634 1.46422 14.6115 13.3148 12.2355 10.2604 7.53723 1.97509 1.07932 2.14212 0.732573 6.99081 2.24304
internal_count=210 144 66 13 116 110 99 71 59 28 11 53 15 53 22
shrinkage=0.1


Tree=12
num_leaves=16
num_cat=0
split_feature=2 0 2 2 0 0 0 0 1 2 0 2 0 0 2
split_gain=0.937952 0.843971 0.310171 0.614612 0.291872 0.579858 0.279056 1.5498 0.495006 0.472611 0.663754 0.673068 0.441421 0.380853 0.298909
threshold=9.7056349680081286 712.50000000000011 0.025252220714467543 0.042392460302908073 16812.500000000004 37655.000000000007 3507.0000000000005 2518.0000000000005 16812.500000000004 2.5462555066079298 2312.0000000000005 0.20908113783825596 1881.0000000000002 1243.5000000000002 0.60429347073637107
decision_type=2 2 2 2 2 2 2 2 2 2 2 2 2 2 2
left_child=1 -1 -3 -4 6 -6 7 9 -8 10 11 -5 13 -13 -15
right_child=-2 2 3 4 5 -7 8 -9 -10 -11 -12 12 -14 14 -16
leaf_value=-0.11457764371031756 -0.083115894450412994 0.083137234451926306 -0.10556123116894754 -0.07111101757210464 -0.089009247137011582 0.022104241308772157 0.067469138951757421 -0.11415826207006255 -0.018194197673784433 -0.0445677913875391 0.076246054983149944 -0.006707466049279168 -0.059743130536410061 0.095042867661918662 0.030235650674357292
leaf_weight=0.55790539178997889 1.2616680078208435 0.56766425445676105 0.46333008259534736 0.84254247136413685 0.815154518932103 1.1081352978944776 2.2845651675015684 0.93453351780772287 0.95718694105744351 0.97232754901051521 2.1819744184613228 1.3996932469308374 0.53842050582170475 1.2010427862405779 1.746756352484226
leaf_count=28 39 5 6 15 16 8 13 14 8 10 10 17 7 5 9
internal_value=0 0.0632812 0.105405 0.0787238 0.113803 -0.249894 0.167367 0.0833664 0.421755 0.21224 0.29311 0.114334 0.256676 0.362454 0.566405
internal_weight=0 16.5712 16.0133 15.4457 14.9823 1.92329 13.059 9.81729 3.24175 8.88276 7.91043 5.72846 4.88591 4.34749 2.9478
internal_count=210 171 143 138 132 24 108 87 21 73 63 53 38 31 14
shrinkage=0.1


Tree=13
num_leaves=16
num_cat=0
split_feature=2 0 2 2 2 0 0 2 2 0 2 0 0 1 1
split_gain=0.833413 0.683994 0.249669 0.604122 0.410055 0.805941 0.439201 0.347025 0.524331 0.382018 0.338256 0.228834 0.1883 0.294981 0.172
threshold=9.7056349680081286 712.50000000000011 3.0582515310586182 7.2553914454439381 1.841534988450505 999.00000000000011 1881.0000000000002 0.13831947621798577 0.2326598738476468 2518.0000000000005 1.0001811085790837 1243.5000000000002 3507.0000000000005 37655.000000000007 999.00000000000011
decision_type=2 2 2 2 2 2 2 2 2 2 2 2 2 2 2
left_child=1 -1 4 14 5 -3 11 9 -9 -8 12 -7 -10 -14 -4
right_child=-2 2 3 -5 -6 6 7 8 10 -11 -12 -13 13 -15 -16
leaf_value=-0.11077811223995829 -0.081078875592532823 -0.12061337782023591 -0.096792525419821404 0.06657026178446325 0.04498123559343592 -0.022129389253003895 0.05515867484170163 -0.13825658746420744 -0.048699879014912933 -0.05486787774114308 -0.064950781342581462 0.042129972358613314 0.061973782590782948 -0.030641019756042678 -0.026280631274309914
leaf_weight=0.48522179387510078 1.1790928170084942 0.48942339792847528 0.63589188456535228 0.53491918556392171 3.347862370312213 0.64454114064574053 1.2333773504942653 0.38865549862384824 0.42661679163575206 0.42406412586569775 0.89321947842836369 3.9527565576136112 0.90602450072765317 0.55429507046937931 0.75868574157357216
leaf_count=28 39 13 9 6 18 12 8 5 6 5 13 24 5 7 12
internal_value=0 0.0609864 0.0983201 -0.237775 0.147223 0.045031 0.110012 -0.100691 -0.294622 0.270079 -0.142531 0.331208 0.0974565 0.268199 -0.584323
internal_weight=0 15.6756 15.1903 1.9295 13.2608 9.91297 9.42355 4.82625 3.16881 1.65744 2.78016 4.5973 1.88694 1.46032 1.39458
internal_count=210 171 143 27 116 98 85 49 36 13 31 36 18 12 21
shrinkage=0.1


Tree=14
num_leaves=16
num_cat=0
split_feature=2 0 2 1 2 0 2 1 0 2 1 2 1 2 2
split_gain=0.743023 0.607802 0.203715 0.48439 0.270624 0.320916 0.241461 0.467146 0.189308 0.186638 0.633616 0.170579 0.133977 0.126757 0.436701
threshold=9.7056349680081286 712.50000000000011 3.0582515310586182 712.50000000000011 2.6638406447304273 16812.500000000004 0.12356009070294785 37655.000000000007 1434.5000000000002 0.025252220714467543 55435.000000000007 55.872305298468255 37655.000000000007 0.32701234900062198 0.54303089582512243
decision_type=2 2 2 2 2 2 2 2 2 2 2 2 2 2 2
left_child=1 -1 4 -4 5 6 7 8 -3 -9 -11 -2 -7 -8 -15
right_child=11 2 3 -5 -6 12 13 9 -10 10 -12 -13 -14 14 -16
leaf_value=-0.11050237465027771 -0.10047600935346993 -0.038329705425003233 0.035308224341310271 -0.069554412238348087 0.059948696398979956 -0.089796693645290554 0.045675885361984414 0.067963822319257225 -0.1374897449063027 0.046544175321360237 -0.11440686765600482 -0.0066173841190910439 -0.013121755630751998 -0.060179161623736849 0.024738339063209335
leaf_weight=0.43586099240929138 0.85323859844356653 0.53066405188292032 0.8012649118900288 0.97839595004916191 1.1544307246804226 0.4124641492962845 1.8122392594814281 0.50903434492647637 0.30215034075081348 0.76330478489398923 0.35992142558097839 0.25047401897609234 0.50925260782241821 0.67773298360407341 5.6904379725456238
leaf_count=28 33 9 9 18 6 5 15 5 5 6 5 6 6 10 44
internal_value=0 0.0585034 0.0934752 -0.223416 0.137806 0.0917292 0.140741 -0.133614 -0.743056 0.177336 -0.0503023 -0.791759 -0.474334 0.223414 0.15701
internal_weight=0 14.9372 14.5013 1.77966 12.7216 11.5672 10.6455 2.46507 0.832814 1.63226 1.12323 1.10371 0.921717 8.18041 6.36817
internal_count=210 171 143 27 116 110 99 30 14 16 11 39 11 69 54
shrinkage=0.1


Tree=15
num_leaves=16
num_cat=0
split_feature=0 2 0 0 1 0 1 0 0 2 0 1 2 2 2
split_gain=0.621362 0.76455 0.585029 0.391707 0.382658 0.331826 0.46447 0.362453 0.90257 0.556856 0.383327 0.516929 0.477908 0.287865 0.162513
threshold=9968.5000000000018 2.8882715919603066 1243.5000000000002 19386.000000000004 467.00000000000006 1434.5000000000002 55435.000000000007 3507.0000000000005 2518.0000000000005 2.1593712186214336 2312.0000000000005 9968.5000000000018 1.2607297648120037 0.20908113783825596 55.872305298468255
decision_type=2 2 2 2 2 2 2 2 2 2 2 2 2 2 2
left_child=2 3 13 -2 -4 -6 7 8 9 10 11 12 -7 -1 -3
right_child=1 14 4 -5 5 6 -8 -9 -10 -11 -12 -13 -14 -15 -16
leaf_value=-0.10460064853267098 -0.054970595752777844 -0.10182908444549127 -0.080914179050617818 0.043929617629896493 0.055493951683844002 0.061501569914068015 -0.1028426464955335 0.052735828136905076 -0.10433086953275253 -0.090129395715084284 0.066042851876325734 -0.12071688914840289 -0.056585452247040938 -0.017095253124675285 -0.0099741855075031541
leaf_weight=0.49581977631896679 0.63313819468021515 1.3536220574751494 0.36002683266997237 1.0897429361939428 2.4985881447792035 1.0813068971037862 0.32906791195273388 2.1593528389930725 0.66911064647138108 0.40646422281861294 1.8092239424586296 0.29206692054867761 0.50174955651164044 1.5548908310011027 0.22456589527428136
leaf_count=26 8 48 6 8 13 8 5 12 12 5 10 8 5 30 6
internal_value=0 -0.384754 0.104469 0.0758497 0.20328 0.240676 0.132346 0.18755 0.0333955 0.209506 0.332051 0.0152147 0.240739 -0.382523 -0.887587
internal_weight=0 3.30107 12.1577 1.72288 10.107 9.74693 7.24834 6.91928 4.75992 4.09081 3.68435 1.87512 1.58306 2.05071 1.57819
internal_count=210 70 140 16 84 78 65 60 48 36 31 21 13 56 54
shrinkage=0.1


Tree=16
num_leaves=16
num_cat=0
split_feature=2 0 1 1 2 0 2 1 1 2 0 0 2 0 0
split_gain=0.489828 0.51883 0.318357 0.444104 0.21573 0.366579 0.318747 0.164537 0.321737 0.285981 0.166644 0.164429 0.319819 0.454532 0.262238
threshold=3.0582515310586182 712.50000000000011 712.50000000000011 467.00000000000006 1.4445024855514694 999.00000000000011 1.1028432355046529 2312.0000000000005 1434.5000000000002 2.5462555066079298 1881.0000000000002 1881.0000000000002 0.13831947621798577 3507.0000000000005 2518.0000000000005
decision_type=2 2 2 2 2 2 2 2 2 2 2 2 2 2 2
left_child=1 -1 3 -2 5 -3 11 8 9 10 -6 -7 14 -14 -13
right_child=2 4 -4 -5 7 6 -8 -9 -10 -11 -12 12 13 -15 -16
leaf_value=-0.11151848347872895 -0.060103981851426042 -0.10516560466003218 -0.072055762478779442 0.06205576241848744 0.069643867726143407 0.029720629515651853 -0.062952283930972547 -0.010751666929582199 0.10140654118517248 -0.036038350677229235 0.010440168236211203 0.060297874163136748 -0.091748898207344026 0.0061530647736814988 -0.038897592858194094
leaf_weight=0.34940359927713766 0.62149191275239102 0.30468381382524778 1.3882736535742877 0.57103090174496174 1.0629117488861095 3.1413868851959705 0.60147877410054196 0.76116684079170205 0.69105726853013028 0.59757574647665013 0.86019563302397717 1.0574149442836644 0.70530573464930091 1.447399780154228 0.35631393641233439
leaf_count=28 11 12 46 9 5 31 8 5 5 5 7 8 11 14 5
internal_value=0 0.085413 -0.395039 -0.0160867 0.121617 0.0230527 0.0678513 0.310514 0.409585 0.243863 0.431624 0.130384 -0.016557 -0.259232 0.352968
internal_weight=0 11.9363 2.5808 1.19252 11.5869 7.61398 7.3093 3.97291 3.21174 2.52068 1.92311 6.70782 3.56643 2.15271 1.41373
internal_count=210 144 66 20 116 89 77 27 22 17 12 69 38 25 13
shrinkage=0.1


Tree=17
num_leaves=16
num_cat=0
split_feature=2 0 1 1 2 2 0 0 0 0 0 0 2 0 0
split_gain=0.56725 0.533662 0.35049 0.375546 0.191657 0.187619 0.186163 0.180987 0.280209 0.405651 0.257452 0.242225 0.16942 0.129437 0.123264
threshold=3.0582515310586182 1243.5000000000002 712.50000000000011 467.00000000000006 0.20908113783825596 0.54303089582512243 9968.5000000000018 1881.0000000000002 3507.0000000000005 2518.0000000000005 2312.0000000000005 16812.500000000004 1.0001811085790837 3507.0000000000005 712.50000000000011
decision_type=2 2 2 2 2 2 2 2 2 2 2 2 2 2 2
left_child=1 4 3 13 -1 6 -3 12 9 10 -9 -10 -7 -2 -6
right_child=2 5 -4 -5 14 7 -8 8 11 -11 -12 -13 -14 -15 -16
leaf_value=-0.099464473663823674 -0.1084463988755807 0.0087923213919087334 -0.076212578587168789 0.057669939658428593 -0.10938191858676566 0.018690881076942695 -0.067665737826326122 -0.054476734049621306 0.077709053735038378 -0.1113267023797555 0.044901863638800894 0.0077151673911107117 0.075060634924940584 -0.015622936894624765 -0.011909112243661646
leaf_weight=0.42397570749744673 0.26596360653638951 3.5301976166665541 1.3997062537819145 0.55390395410358906 0.14538439828902472 0.88464417308568988 0.35002892464399327 0.39018576219677942 0.9421086385846138 0.3455708473920821 0.78541001304984093 1.0404612906277177 1.3420185223221777 0.34521615132689482 1.2055747695267198
leaf_count=26 5 35 46 9 12 6 6 6 6 7 6 9 7 6 18
internal_value=0 0.0957069 -0.42486 -0.0196765 -0.408073 0.188747 0.0189516 0.303721 0.162046 -0.160804 0.119176 0.40976 0.526652 -0.560164 -0.223987
internal_weight=0 11.3856 2.56479 1.16508 1.77493 9.61063 3.88023 5.7304 3.50374 1.52117 1.1756 1.98257 2.22666 0.61118 1.35096
internal_count=210 144 66 20 56 88 41 47 34 19 12 15 13 11 30
shrinkage=0.1


Tree=18
num_leaves=16
num_cat=0
split_feature=2 1 0 1 0 0 1 2 1 0 0 2 0 2 1
split_gain=0.700822 0.500534 0.459688 0.328703 0.264809 0.519265 0.372455 0.324143 0.447448 0.216171 0.190033 0.183501 0.156122 0.155529 0.146971
threshold=3.0582515310586182 712.50000000000011 1243.5000000000002 467.00000000000006 1881.0000000000002 2312.0000000000005 1434.5000000000002 1.841534988450505 9968.5000000000018 2518.0000000000005 3507.0000000000005 0.20908113783825596 3507.0000000000005 0.90855223429951704 2518.0000000000005
decision_type=2 2 2 2 2 2 2 2 2 2 2 2 2 2 2
left_child=2 3 11 12 6 13 -4 8 -7 -10 -11 -1 -2 -6 -8
right_child=1 -3 4 -5 5 7 14 -9 9 10 -12 -13 -14 -15 -16
leaf_value=-0.099384180765246091 -0.1121657392808019 -0.091636693749238607 0.07853533604346831 0.054992167094889771 -0.13449008475080401 -0.081906305675992497 -0.028160208259422084 0.050586168854703344 0.052854623429848403 -0.090452317781998595 0.0064078812904241819 -0.02000822865954055 -0.0093526253529927217 -0.033206065546063493 0.029826408901902107
leaf_weight=0.3740480244159689 0.25051091238856427 1.2819519499316809 1.4941418245434746 0.55097439885139465 0.29073647782206524 0.58064752630889449 0.60545705258846316 1.7889277189970014 0.96821687370538734 0.22911364212632168 1.7472263276576994 1.3156898892484603 0.35985935479402542 0.31682544201612478 1.5718743558973072
leaf_count=26 5 46 7 9 7 10 5 11 5 5 19 30 6 5 14
internal_value=0 -0.485569 0.105149 -0.0100323 0.189862 0.0590397 0.400865 0.159167 -0.0167701 0.141437 -0.0482095 -0.375792 -0.515496 -0.816735 0.137019
internal_weight=0 2.4433 11.2829 1.16134 9.59317 5.92169 3.67147 5.31413 3.5252 2.94456 1.97634 1.68974 0.61037 0.607562 2.17733
internal_count=210 66 144 20 88 62 26 50 39 29 24 56 11 12 19
shrinkage=0.1


Tree=19
num_leaves=16
num_cat=0
split_feature=0 2 1 0 2 0 2 1 0 2 2 2 2 0 0
split_gain=0.315983 0.273309 0.236281 0.300151 0.17704 0.263119 0.166 0.414935 0.164781 0.131988 0.503004 0.180024 0.234208 0.165494 0.159745
threshold=712.50000000000011 3.0582515310586182 712.50000000000011 3507.0000000000005 2.6638406447304273 16812.500000000004 0.12356009070294785 37655.000000000007 1434.5000000000002 0.60429347073637107 0.69522666972705494 1.1687909505581064 2.0175310133772899 1881.0000000000002 1243.5000000000002
decision_type=2 2 2 2 2 2 2 2 2 2 2 2 2 2 2
left_child=-1 4 3 -3 5 6 7 8 -2 13 -11 -12 -13 14 -8
right_child=1 2 -4 -5 -6 -7 9 -9 -10 10 11 12 -14 -15 -16
leaf_value=-0.10812933227895792 -0.038833169808781848 -0.069010662102414536 -0.063199816813143878 0.035954987799467403 0.050818092915740444 -0.05002497484898133 0.0028302927984388757 0.01849009320486902 -0.13819012617367937 -0.10059451561154308 0.050338608680594248 -0.021145030344119624 0.037990769296698479 0.011290832271364772 0.086576166449941871
leaf_weight=0.26476317737251598 0.43606025446205782 0.40828363224863934 1.0743358097970483 0.81868459470570076 0.92740381881594725 0.7950913906097421 0.31303330883383773 1.2887112423777578 0.27044436428695923 0.39405087567865837 1.1929757557809355 1.58691075257957 1.158773638308048 1.2597621623426674 0.83625274151563644
leaf_count=28 9 8 46 12 6 11 8 16 5 6 12 16 8 14 5
internal_value=0 0.0224349 -0.289566 0.0102682 0.0910817 0.0505008 0.100621 -0.152755 -0.768662 0.175607 0.0712736 0.179046 0.0381232 0.363253 0.637661
internal_weight=0 12.7608 2.3013 1.22697 10.4595 9.53207 8.73698 1.99522 0.706505 6.74176 4.33271 3.93866 2.74568 2.40905 1.14929
internal_count=210 182 66 20 116 110 99 30 14 69 42 36 24 27 13
shrinkage=0.1


Tree=20
num_leaves=16
num_cat=0
split_feature=2 0 2 2 0 0 2 1 2 0 0 1 1 1 1
split_gain=0.350475 0.298169 0.185015 0.146697 0.12693 0.16999 0.260467 0.176133 0.128592 0.283921 0.326658 0.273169 0.24669 0.645288 0.107459
threshold=9.7056349680081286 712.50000000000011 6.5706741786437624 4.7830764264055654 1243.5000000000002 1434.5000000000002 0.042392460302908073 999.00000000000011 2.6638406447304273 2518.0000000000005 3507.0000000000005 16812.500000000004 16812.500000000004 3507.0000000000005 467.00000000000006
decision_type=2 2 2 2 2 2 2 2 2 2 2 2 2 2 2
left_child=1 -1 3 4 -3 -6 -7 -8 9 12 -11 -12 13 -9 -2
right_child=14 2 -4 -5 5 6 7 8 -10 10 11 -13 -14 -15 -16
leaf_value=-0.10794123145237466 -0.020522967842372345 -0.023526352328482249 0.067143623585748755 -0.080591624868267694 0.035676138068639125 -0.099178750023588752 -0.043121356750912498 0.033704301181836954 0.044402280680367043 -0.091880055368080707 0.051066597663138362 -0.02630550504535787 0.073712093586196778 -0.11255490206786581 -0.092372681699008002
leaf_weight=0.23101960029452936 0.36145372688770366 1.304419559426601 0.48659783974289966 0.20065645873546681 1.9945689551532249 0.24231488816440092 0.65687687322497357 1.7677654549479491 0.98979089129716147 0.49536236561834845 0.67034520953893695 1.4291614368557928 0.80534424167126395 0.36371780931949599 0.49081194400787359
leaf_count=28 6 28 9 6 14 5 9 15 10 11 6 17 7 6 33
internal_value=0 0.0453308 0.0681097 0.0412262 0.0570834 0.0975862 0.0279237 0.0623453 0.112059 0.0526605 -0.188358 -0.016016 0.265615 0.0874653 -0.619006
internal_weight=0 11.6379 11.4069 10.9203 10.7197 9.41525 7.42068 7.17836 6.52149 5.5317 2.59487 2.09951 2.93683 2.13148 0.852266
internal_count=210 171 143 134 128 100 86 81 72 62 34 23 28 21 39
shrinkage=0.1


Tree=21
num_leaves=16
num_cat=0
split_feature=2 0 2 2 1 1 2 0 0 0 1 2 2 2 0
split_gain=0.307356 0.257191 0.106107 0.155769 0.151258 0.212 0.136427 0.385811 0.206901 0.17691 0.247396 0.210736 0.213976 0.510487 0.15433
threshold=9.7056349680081286 712.50000000000011 6.5706741786437624 2.8882715919603066 3507.0000000000005 467.00000000000006 2.0175310133772899 999.00000000000011 2312.0000000000005 1881.0000000000002 1881.0000000000002 0.2326598738476468 0.60429347073637107 1.0001811085790837 2312.0000000000005
decision_type=2 2 2 2 2 2 2 2 2 2 2 2 2 2 2
left_child=1 -1 3 6 5 -5 7 -3 -8 11 -11 -9 -13 -14 -12
right_child=-2 2 -4 4 -6 -7 8 9 -10 10 14 12 13 -15 -16
leaf_value=-0.10715776183971647 -0.06045530638014629 -0.10807171979163828 0.052367971332790302 -0.098823752328292158 -0.097578170397267905 0.016570942195476598 -0.0022413929072890477 -0.015552363161765724 0.065992964928707251 -0.08554387342367456 -0.064594590057148446 0.077010579001593527 -0.072219124867850579 0.055512412108096966 0.0075398930753510299
leaf_weight=0.20340530853718417 0.78561321366578429 0.3023063680157011 0.47870754543691951 0.20880521088838644 0.26065042149275541 0.67026700079441071 0.85118016973137822 0.96175654418766532 0.92982091754674911 0.36615716479718718 0.32701732125133309 0.94175484403967868 0.45357733964920033 1.0087375193834303 3.1882116310298443
leaf_count=28 39 13 9 5 7 9 7 15 5 6 8 9 6 6 38
internal_value=0 0.042587 0.0632855 0.0422359 -0.306757 -0.108387 0.0848653 0.026134 0.333822 0.0723047 -0.0731885 0.240084 0.398348 0.158929 0.00829313
internal_weight=0 11.1524 10.9489 10.4702 1.13972 0.879072 9.33052 7.54952 1.781 7.24721 3.88139 3.36583 2.40407 1.46231 3.51523
internal_count=210 171 143 134 21 14 113 101 12 88 52 36 21 12 46
shrinkage=0.1


Tree=22
num_leaves=16
num_cat=0
split_feature=2 0 0 0 2 0 0 1 2 2 0 1 2 0 0
split_gain=0.251339 0.221723 0.139494 0.373486 0.36944 0.207402 0.466891 0.182979 0.181773 0.223438 0.326603 0.157088 0.102447 0.0875318 0.110997
threshold=9.7056349680081286 712.50000000000011 16812.500000000004 19386.000000000004 2.8882715919603066 3507.0000000000005 2518.0000000000005 2312.0000000000005 2.5462555066079298 2.0175310133772899 999.00000000000011 9968.5000000000018 55.872305298468255 1243.5000000000002 1881.0000000000002
decision_type=2 2 2 2 2 2 2 2 2 2 2 2 2 2 2
left_child=1 -1 5 -4 -5 6 8 -7 9 10 -3 -9 -2 -12 -15
right_child=12 2 3 4 -6 7 -8 11 -10 -11 13 -13 -14 14 -16
leaf_value=-0.1060362884424134 -0.079356477946102594 -0.097918316130361172 -0.13067468698072204 0.032887483154150403 -0.10049453716233026 0.073032188443971233 -0.08524406586611423 -0.066668181459839354 -0.038798951641625778 0.064463368007537075 -0.025849305457130208 0.029510734592570555 0.0031032205094349338 0.030501905090684844 -0.0030308394517057011
leaf_weight=0.18038575444370408 0.53557752538472492 0.27690270775928905 0.26423118263482948 0.87422979250550237 0.27235098741948605 0.87280288897454772 0.56199921667575836 0.20635864138603188 0.69041664153337468 0.80270183458924294 0.4989879261702298 0.95903664827346802 0.20964121073484421 2.7368780188262463 1.5440244162455199
leaf_count=28 33 13 8 8 8 7 14 5 10 5 12 9 6 24 20
internal_value=0 0.0389627 0.0577397 -0.234949 0.0120483 0.102868 0.0222701 0.384099 0.0973225 0.154506 0.0767047 0.124802 -0.561593 0.137873 0.184074
internal_weight=0 10.7413 10.5609 1.41081 1.14658 9.15011 7.11191 2.0382 6.54991 5.85949 5.05679 1.1654 0.745219 4.77989 4.2809
internal_count=210 171 143 24 16 119 98 21 84 74 69 14 39 56 44
shrinkage=0.1


Tree=23
num_leaves=16
num_cat=0
split_feature=0 0 1 0 2 1 0 0 2 0 2 2 1 0 2
split_gain=0.237979 0.309174 0.300078 0.203717 0.104509 0.410963 0.141305 0.410213 0.157363 0.101173 0.367449 0.154062 0.430071 0.159631 0.1134
threshold=16812.500000000004 19386.000000000004 19386.000000000004 712.50000000000011 0.025252220714467543 55435.000000000007 3507.0000000000005 2518.0000000000005 9.7056349680081286 2312.0000000000005 0.20908113783825596 1.1687909505581064 999.00000000000011 999.00000000000011 0.54303089582512243
decision_type=2 2 2 2 2 2 2 2 2 2 2 2 2 2 2
left_child=3 -2 -3 -1 -5 6 7 9 -8 10 -6 13 -13 -12 -15
right_child=1 2 -4 4 5 -7 8 -9 -10 -11 11 12 -14 14 -16
leaf_value=-0.10520665942518337 -0.12275172352232976 -0.055893657537538083 0.031073297610961489 0.064804482186139753 -0.062500760920332271 -0.10133662325898898 0.042566685014594256 -0.085804656956434466 -0.060435207055134582 0.032996677773600679 -0.064746244219138216 0.021769409585749185 -0.096633626818859356 0.0058587852272605906 0.062069814400219504
leaf_weight=0.15978427603840728 0.31446792185306627 0.82823128625750531 0.76159191504120816 0.32025660574436088 0.71244915807619325 0.33872976899147111 1.8334153108298776 0.47362193651497353 0.16137997480109323 1.5356630887836216 0.14397262036800418 1.3501984365284441 0.39696247875690449 0.51626156643033017 1.1774090975522993
leaf_count=28 14 36 6 5 18 6 19 13 7 13 7 14 5 8 11
internal_value=0 -0.321533 -0.142328 0.0671365 0.0870946 0.0663022 0.110357 0.0369804 0.342338 0.109655 0.0309245 0.161285 -0.0513227 0.363425 0.449357
internal_weight=0 1.90429 1.58982 9.1201 8.96032 8.64006 8.30133 6.30654 1.9948 5.83292 4.29725 3.5848 1.74716 1.83764 1.69367
internal_count=210 56 42 154 126 121 115 89 26 76 63 45 19 26 19
shrinkage=0.1


Tree=24
num_leaves=16
num_cat=0
split_feature=2 0 0 0 2 2 2 0 2 0 0 0 2 2 1
split_gain=0.219535 0.166942 0.109246 0.193565 0.107552 0.257869 0.134027 0.243394 0.120248 0.0846034 0.109315 0.299213 0.197932 0.171372 0.171829
threshold=11.706471164918616 712.50000000000011 37655.000000000007 55435.000000000007 8.10034377032426 3.0582515310586182 2.6638406447304273 16812.500000000004 1.0001811085790837 1243.5000000000002 1881.0000000000002 2312.0000000000005 1.0001811085790837 0.13831947621798577 2312.0000000000005
decision_type=2 2 2 2 2 2 2 2 2 2 2 2 2 2 2
left_child=1 -1 -2 -4 5 6 7 9 -9 -3 12 -12 -11 -13 -15
right_child=2 4 3 -5 -6 -7 -8 8 -10 10 11 13 -14 14 -16
leaf_value=-0.10424000766775379 -0.1157680748236297 -0.015458254387035943 0.03426153051824548 -0.11964597630445582 0.058879799852544538 -0.050403046406840561 0.048584988092980771 -0.015547827991201274 -0.10092749651125404 0.010630622332446974 -0.072686627732989367 0.048739702385513971 0.070031742718863643 0.03067784567554846 -0.028178737249379415
leaf_weight=0.14182112785056131 0.21975216269493181 1.1263416931033079 0.21042123204097152 0.13359863916411996 0.35744479950517494 0.82484790496528226 0.74790549650788285 0.37173264101147641 0.29655269905924803 1.7080107815563681 0.45558749884367022 0.97444244474172625 0.83527902513742436 0.88410820253193412 1.1300360988825557
leaf_count=28 16 28 10 10 6 24 6 6 5 19 12 9 5 10 16
internal_value=0 0.034722 -0.606903 -0.255078 0.0504504 0.0298804 0.0815094 0.0426498 -0.534352 0.0968546 0.144154 0.0280429 0.301394 0.143123 -0.0234365
internal_weight=0 9.85411 0.563772 0.34402 9.71229 9.35484 8.53 7.78209 0.668285 7.11381 5.98746 3.44417 2.54329 2.98859 2.01414
internal_count=210 174 36 20 146 140 116 110 11 99 71 47 24 35 26
shrinkage=0.1


Tree=25
num_leaves=16
num_cat=0
split_feature=0 0 1 1 2 0 2 1 0 2 0 2 2 0 2
split_gain=0.233169 0.360887 0.31275 0.183602 0.18158 0.15272 0.101226 0.31314 0.157901 0.133863 0.132419 0.110953 0.175022 0.179601 0.101322
threshold=16812.500000000004 55435.000000000007 3507.0000000000005 37655.000000000007 46.489208633093533 712.50000000000011 0.025252220714467543 55435.000000000007 3507.0000000000005 9.7056349680081286 2518.0000000000005 2.5462555066079298 2.0175310133772899 999.00000000000011 0.12356009070294785
decision_type=2 2 2 2 2 2 2 2 2 2 2 2 2 2 2
left_child=5 3 -3 4 -2 -1 -7 8 10 -10 11 12 13 -8 -15
right_child=1 2 -4 -5 -6 6 7 -9 9 -11 -12 -13 -14 14 -16
leaf_value=-0.1026916177260085 -0.11100929346329305 -0.11835042596099675 0.080506600163396294 0.00020315754919896756 0.00062890270834414091 0.06336374995195046 -0.089474376856153934 -0.095624911152458594 0.043222451315051647 -0.060794771123926596 -0.049941426506698534 -0.033041795576764746 0.05887764471046613 -0.0203390133634733 0.017624258260365722
leaf_weight=0.12546563544310527 0.68671644665300913 0.099798929877579101 0.38111972343176598 0.33053823560476303 0.18492835760116577 0.32281518355011751 0.19632037356495849 0.29073844291269768 1.7036482328549025 0.13341138930991281 0.45198926888406266 0.62910162284970272 0.67334669083356846 0.92327971663326047 2.9471905995160341
leaf_count=28 32 9 5 5 5 5 11 6 19 7 13 10 5 15 35
internal_value=0 -0.339712 0.392403 -0.632586 -0.873241 0.0680897 0.0846986 0.0624058 0.101078 0.356685 0.0204136 0.0641734 0.116543 0.0383541 0.0856833
internal_weight=0 1.6831 0.480919 1.20218 0.871645 8.39731 8.27184 7.94903 7.65829 1.83706 5.82123 5.36924 4.74014 4.06679 3.87047
internal_count=210 56 14 42 37 154 126 121 115 26 89 76 66 61 50
shrinkage=0.1


Tree=26
num_leaves=16
num_cat=0
split_feature=2 1 1 0 0 0 1 2 2 2 2 2 2 1 2
split_gain=0.151606 0.153385 0.193909 0.155249 0.153211 0.132035 0.151205 0.210728 0.110175 0.124196 0.106321 0.129205 0.278343 0.192106 0.136311
threshold=3.0582515310586182 712.50000000000011 467.00000000000006 3507.0000000000005 1243.5000000000002 1434.5000000000002 999.00000000000011 2.0175310133772899 0.20908113783825596 0.2924971334008824 0.042392460302908073 1.1028432355046529 0.90855223429951704 1881.0000000000002 0.13831947621798577
decision_type=2 2 2 2 2 2 2 2 2 2 2 2 2 2 2
left_child=4 2 3 -2 8 -6 -7 10 -1 -10 -8 12 14 -13 -12
right_child=1 -3 -4 -5 5 6 7 -9 9 -11 11 13 -14 -15 -16
leaf_value=-0.09004020869951404 -0.10857388876522112 -0.064718509167462066 0.053945743803199622 0.004523097514217608 0.036726296501441637 -0.059061750767525283 -0.076532316856927338 0.052639984280294719 0.083374946574509168 -0.027099117885208465 0.0270995219806212 -0.087256525056688211 0.075359714677297185 0.011537362133026653 -0.020046916132198962
leaf_weight=0.2320726050529609 0.20462281629443235 0.66990032512694597 0.36917636450380087 0.29833375662565231 1.5544739887118337 0.35892650485038746 0.17967371828854073 0.87766830995678891 0.11691270512528718 0.78529603336937726 0.9765411699190748 0.36530421674251545 0.55636602640151966 0.4267666433006525 1.6483802832663057
leaf_count=26 5 46 9 6 13 5 5 7 5 25 13 7 5 8 25
internal_value=0 -0.287327 -0.0109136 -0.414893 0.0548461 0.110505 0.0364511 0.0811907 -0.2859 -0.127833 -0.0128962 0.0211283 0.111107 -0.340265 -0.0250718
internal_weight=0 1.54203 0.872133 0.502957 8.07838 6.9441 5.38963 5.0307 1.13428 0.902209 4.15303 3.97336 3.18129 0.792071 2.62492
internal_count=210 66 20 11 144 88 75 70 56 30 63 58 43 15 38
shrinkage=0.1


Tree=27
num_leaves=16
num_cat=0
split_feature=2 0 2 2 2 2 2 2 1 1 1 2 0 0 2
split_gain=0.172964 0.121781 0.0989696 0.0949178 0.107672 0.0912521 0.443536 0.320644 0.198179 0.130798 0.269586 0.254267 0.124079 0.193566 0.313616
threshold=11.706471164918616 712.50000000000011 55.872305298468255 8.10034377032426 3.0582515310586182 0.54303089582512243 0.4631302635999533 0.62865016303319654 9968.5000000000018 19386.000000000004 2312.0000000000005 1.0001811085790837 9968.5000000000018 2312.0000000000005 0.025252220714467543
decision_type=2 2 2 2 2 2 2 2 2 2 2 2 2 2 2
left_child=1 -1 -2 4 5 6 8 -7 -3 10 11 -9 13 14 -10
right_child=2 3 -4 -5 -6 7 -8 9 12 -11 -12 -13 -14 -15 -16
leaf_value=-0.10186972700961293 -0.098064542996771753 0.072473296344645111 -0.0043884850384675834 0.06084002067001492 -0.035247804891988248 0.094578589222704415 -0.12396010923458255 -0.083547929489654338 0.056716893670540607 0.045431826488544873 -0.06198547538751064 0.021379196056082107 -0.070506605531630503 0.025834032623934772 -0.069214869733455628
leaf_weight=0.1091114969458421 0.27340620290488082 0.37761974986642322 0.19197533233091235 0.28848540224135 0.69334264565259207 0.45677143149077881 0.2940076421946286 0.25506717525422645 0.27921627275645811 0.69982208684086789 0.61346767842769612 2.4424012312665582 0.26051444187760342 1.4053763961419461 0.67782646510750055
leaf_count=28 30 8 6 6 24 5 5 6 5 6 12 28 6 15 20
internal_value=0 0.0312367 -0.594221 0.0443383 0.0250935 0.0588198 -0.0674406 0.15193 0.0474129 0.0615204 -0.021504 0.114575 -0.0500998 0.0221263 -0.324744
internal_weight=0 8.85303 0.465382 8.74392 8.45543 7.76209 3.29456 4.46753 3.00055 4.01076 3.31094 2.69747 2.62293 2.36242 0.957043
internal_count=210 174 36 146 140 116 59 57 54 52 46 34 46 40 25
shrinkage=0.1


Tree=28
num_leaves=16
num_cat=0
split_feature=0 2 0 1 2 0 1 0 0 1 1 2 2 1 1
split_gain=0.214385 0.170514 0.163087 0.206812 0.122646 0.145795 0.152017 0.09916 0.167463 0.15423 0.409955 0.112039 0.0963418 0.0885925 0.0771864
threshold=16812.500000000004 2.8882715919603066 1243.5000000000002 467.00000000000006 6.5706741786437624 1434.5000000000002 55435.000000000007 3507.0000000000005 2518.0000000000005 16812.500000000004 3507.0000000000005 2.1593712186214336 55.872305298468255 712.50000000000011 2312.0000000000005
decision_type=2 2 2 2 2 2 2 2 2 2 2 2 2 2 2
left_child=2 -2 13 -4 5 -5 7 8 9 10 11 -7 -3 -1 -9
right_child=1 12 3 4 -6 6 -8 14 -10 -11 -12 -13 -14 -15 -16
leaf_value=0.0056507412789160586 -0.0059040347617369676 -0.10281931565834844 -0.076729976338893169 0.04097803793245107 0.084142643870530207 0.024784916085882118 -0.070360932690987407 0.063790281382736194 -0.064576169604677713 0.049318348624094378 -0.11658588362230643 -0.046194446450957202 -0.016014842667035217 -0.053376392390179064 0.013484005340282428
leaf_weight=0.42508241860195967 0.81500306352972962 0.41586032207123935 0.24857749976217736 1.4475462138652799 0.25544388173148025 1.3369498904794461 0.25590183772146691 0.4791938699781893 0.36556178890168656 0.66233706567436446 0.28808002732694138 0.26675720699131478 0.1846218537539244 0.63276936218608171 0.83901377953588963
leaf_count=6 12 38 7 13 8 16 6 5 12 9 6 5 6 50 11
internal_value=0 -0.356959 0.0673404 0.127068 0.162945 0.133774 0.0448661 0.0900622 -0.0127198 0.077885 -0.0675159 0.129784 -0.761308 -0.296572 0.317713
internal_weight=0 1.41549 7.50321 6.44536 6.19679 5.94134 4.4938 4.23789 2.91969 2.55412 1.89179 1.60371 0.600482 1.05785 1.31821
internal_count=210 56 154 98 91 83 70 64 48 36 27 21 44 56 16
shrinkage=0.1


Tree=29
num_leaves=16
num_cat=0
split_feature=2 0 1 1 2 2 2 2 0 0 2 1 2 2 2
split_gain=0.222 0.103936 0.1129 0.170559 0.125374 0.101378 0.0670706 0.18024 0.126013 0.16602 0.122478 0.0911171 0.0870556 0.144988 0.0888964
threshold=11.706471164918616 1243.5000000000002 467.00000000000006 712.50000000000011 7.2553914454439381 0.20908113783825596 0.048754534962898818 0.12356009070294785 1881.0000000000002 2312.0000000000005 0.60429347073637107 37655.000000000007 0.85566247224278325 1.1687909505581064 2.8882715919603066
decision_type=2 2 2 2 2 2 2 2 2 2 2 2 2 2 2
left_child=1 5 -3 -4 6 -1 -5 -8 10 -10 -9 12 -11 -14 -15
right_child=-2 2 3 4 -6 -7 7 8 9 11 -12 -13 13 14 -16
leaf_value=-0.090815530338622621 -0.071130548662983503 -0.06476630463201595 0.071104381451889617 0.037918282547625609 -0.12485698557037626 -0.010728894910327498 -0.045802676827096468 0.075842153359970577 -0.066527760072584666 0.039018087128635498 0.014132809660534061 -0.037514249071164699 -0.063158020322882646 0.028477326876889687 -0.019949806267772107
leaf_weight=0.19717573898378568 0.41725082159973759 0.20749098621308792 0.42972603067755688 0.65193780697882164 0.072350846137851366 0.79677075101062655 0.64335681404918421 0.49509306997060754 0.3347072992473844 0.91540786251425821 0.91797832027077675 0.39880361594259728 0.29331491328775922 1.1754252742975948 0.55948573490604747
leaf_count=26 36 6 6 9 7 30 11 5 9 11 9 8 7 14 16
internal_value=0 0.0366908 0.0791173 0.101012 0.0604184 -0.266162 0.0752499 0.0406911 0.103724 0.00618814 0.357537 0.0734278 0.1342 0.0186673 0.128602
internal_weight=0 8.08903 7.09508 6.88759 6.45786 0.993946 6.38551 5.73357 5.09022 3.67714 1.41307 3.34244 2.94363 2.02823 1.73491
internal_count=210 174 118 112 106 56 99 90 79 65 14 56 48 37 30
shrinkage=0.1


Tree=30
num_leaves=16
num_cat=0
split_feature=2 0 0 2 0 2 2 1 2 1 0 0 1 1 0
split_gain=0.164544 0.0993474 0.0862947 0.135 0.172672 0.155931 0.102807 0.0550683 0.047267 0.0823835 0.0475954 0.0959026 0.182271 0.117519 0.0771733
threshold=11.706471164918616 712.50000000000011 16812.500000000004 2.6638406447304273 37655.000000000007 1.0001811085790837 6.5706741786437624 467.00000000000006 3.0582515310586182 467.00000000000006 1243.5000000000002 1434.5000000000002 55435.000000000007 999.00000000000011 3507.0000000000005
decision_type=2 2 2 2 2 2 2 2 2 2 2 2 2 2 2
left_child=1 -1 6 5 -5 -4 8 -2 10 -10 -3 -12 13 -13 -15
right_child=7 2 3 4 -6 -7 -8 -9 9 -11 11 12 -14 14 -16
leaf_value=-0.1001090105157805 -0.024981574803736389 -0.013337422879901185 -0.0025021017225094252 -0.11873443207675001 0.053508483774613126 -0.10606290258631601 0.069146000043167177 -0.10049299720280934 -0.086771725102888164 0.0027807566373605577 0.0350367453463915 -0.049790966838517019 -0.081992498290623828 0.0049625715745522754 0.038611859607535638
leaf_weight=0.092068908619694301 0.1884233783930539 0.86634406866505731 0.29238394461572159 0.071206588763743639 0.31868539284914726 0.28920330107212067 0.26756364572793234 0.19813048560172319 0.14643423072993744 0.34417154174298048 1.3361796885728834 0.30566415190696794 0.23206299357116209 2.2688399218022828 0.97424977272748925
leaf_count=28 5 28 6 8 5 5 6 31 5 8 13 5 6 40 11
internal_value=0 0.0315409 0.0438673 -0.234772 0.220515 -0.539993 0.0840203 -0.636854 0.0589153 -0.239485 0.0833827 0.120081 0.0386957 0.0948433 0.150711
internal_weight=0 7.80506 7.71299 0.971479 0.389892 0.581587 6.74151 0.386554 6.47395 0.490606 5.98334 5.117 3.78082 3.54875 3.24309
internal_count=210 174 146 24 13 11 122 36 116 13 103 75 62 56 51
shrinkage=0.1


Tree=31
num_leaves=16
num_cat=0
split_feature=2 0 2 2 2 0 0 1 2 0 0 2 2 2 1
split_gain=0.119108 0.0870683 0.0676226 0.057133 0.10018 0.103907 0.164583 0.156646 0.0930377 0.0753705 0.167736 0.110918 0.199095 0.0786867 0.252576
threshold=9.7056349680081286 712.50000000000011 7.2553914454439381 3.0582515310586182 2.6638406447304273 2518.0000000000005 3507.0000000000005 16812.500000000004 0.34629786944422042 2312.0000000000005 1881.0000000000002 0.085592888888888899 0.025252220714467543 0.60429347073637107 1434.5000000000002
decision_type=2 2 2 2 2 2 2 2 2 2 2 2 2 2 2
left_child=1 -1 3 4 5 9 -7 -8 -9 10 11 12 -3 -13 -15
right_child=-2 2 -4 -5 -6 6 7 8 -10 -11 -12 13 -14 14 -16
leaf_value=-0.099194771190896855 -0.052621474039879629 0.048112527545997319 0.064516624897915875 -0.027925421609790491 0.046068568842670375 -0.085234243887545413 0.045070402324469953 -0.059789708491205198 0.00034623280992686242 0.031220365105528704 -0.064376666480663064 0.045898418217778791 -0.071189696283846401 0.028020810470293034 -0.0761423403635587
leaf_weight=0.082667434122413286 0.40793758677318681 0.21908912342041809 0.18017758661881081 0.5688022426329552 0.54761518165469159 0.30881702620536078 0.43977743014693249 0.45889546535909154 0.58554626069962978 1.191857513040304 0.34244664572179306 0.77452854067087196 0.38692101184278727 1.1114674247801302 0.29446326754987229
leaf_count=28 39 5 6 21 6 11 6 8 9 12 12 15 13 13 6
internal_value=0 0.0286482 0.0400335 0.0249536 0.0509291 0.0142271 -0.188146 -0.0499491 -0.260756 0.0982082 0.0166936 0.0978617 -0.280587 0.203043 0.062045
internal_weight=0 7.49307 7.4104 7.23023 6.66142 6.11381 1.79304 1.48422 1.04444 4.32077 3.12892 2.78647 0.60601 2.18046 1.40593
internal_count=210 171 143 137 116 110 34 23 17 76 64 52 18 34 19
shrinkage=0.1


Tree=32
num_leaves=16
num_cat=0
split_feature=2 0 1 1 2 1 2 2 0 2 1 2 2 2 2
split_gain=0.0955521 0.0969423 0.110804 0.0796449 0.0865246 0.0671904 0.0550977 0.052792 0.0912572 0.128655 0.142081 0.190955 0.0490284 0.0803442 0.055884
threshold=9.7056349680081286 1243.5000000000002 467.00000000000006 712.50000000000011 3.6144282671614105 712.50000000000011 55.872305298468255 2.6638406447304273 2518.0000000000005 1.5907263741833748 16812.500000000004 0.34629786944422042 1.4445024855514694 0.62865016303319654 0.2924971334008824
decision_type=2 2 2 2 2 2 2 2 2 2 2 2 2 2 2
left_child=1 5 -3 -4 7 -1 -2 8 12 10 -10 -12 13 14 -5
right_child=6 2 3 4 -6 -7 -8 -9 9 -11 11 -13 -14 -15 -16
leaf_value=0.0048056435555747061 -0.076951963475530238 -0.0837877460032765 0.05499205230019652 0.0073603116195761946 -0.052543217259727597 -0.051066433509056812 0.00079538439829744559 0.038715794185352641 0.063988392096363964 -0.063889138395437958 -0.057174155873968402 0.027465217206820658 0.036446759795423105 -0.020711818317853639 0.044906041572783668
leaf_weight=0.36349735595285881 0.24611469148658205 0.13179326057434071 0.35314137674868096 1.2530845426954336 0.24130469327792517 0.52770866744685918 0.14476729743182659 0.52773526776581992 0.28649843949824561 0.38747061975300306 0.53918430488556601 0.52717072330415249 0.8169983122497797 0.6940028853714465 0.57988428696990002
leaf_count=6 33 5 6 20 14 50 6 8 7 7 12 8 10 10 8
internal_value=0 0.0260377 0.0694594 0.0887265 0.0609019 -0.282778 -0.481574 0.0861129 0.0548653 -0.130844 0.0146655 -0.153312 0.151515 0.0826655 0.192384
internal_weight=0 7.22947 6.33827 6.20648 5.85333 0.891206 0.390882 5.61203 5.08429 1.74032 1.35285 1.06636 3.34397 2.52697 1.83297
internal_count=210 171 115 110 104 56 39 90 82 34 27 20 48 38 28
shrinkage=0.1


Tree=33
num_leaves=16
num_cat=0
split_feature=2 0 2 2 1 1 2 0 0 2 2 2 1 2 2
split_gain=0.0890393 0.0728424 0.051565 0.0439388 0.0988404 0.10902 0.0561319 0.14622 0.134701 0.0691265 0.0696365 0.17348 0.0920037 0.196413 0.150651
threshold=9.7056349680081286 712.50000000000011 7.2553914454439381 2.8882715919603066 2518.0000000000005 999.00000000000011 2.0175310133772899 999.00000000000011 2312.0000000000005 1.5907263741833748 0.54303089582512243 0.4631302635999533 19386.000000000004 0.10347571227430105 0.2326598738476468
decision_type=2 2 2 2 2 2 2 2 2 2 2 2 2 2 2
left_child=1 -1 3 6 5 -5 7 -3 -8 10 11 12 14 -14 -9
right_child=-2 2 -4 4 -6 -7 8 9 -10 -11 -12 -13 13 -15 -16
leaf_value=-0.09730169915656818 -0.047917837674574033 -0.092326931852019234 0.057361482970337122 -0.044785011377668223 -0.090516905698317704 0.042682931944885413 -0.010389156200926187 -0.0061584474048651423 0.059543211156380865 -0.032329431975003597 0.022347206945397928 -0.095239238376369634 0.013083548421064937 -0.070983189416806799 0.071582628657935632
leaf_weight=0.072380191995762178 0.36854247283190478 0.16435019299387921 0.17355788871645916 0.28818144276738161 0.15983213717117906 0.28187963366508484 0.53871664032340028 0.59056015126407213 0.56357189640402805 0.48210880532860745 1.839772389270365 0.1896210778504609 0.87705500936135616 0.4068424347788096 0.43133225664496416
leaf_count=28 39 13 6 10 9 5 7 12 5 8 30 5 17 10 6
internal_value=0 0.0250147 0.035353 0.0216427 -0.210199 -0.015345 0.0494568 0.00427396 0.253655 0.0359187 0.0758662 -0.032958 0.0426534 -0.135556 0.266554
internal_weight=0 7.05976 6.98738 6.81382 0.729893 0.570061 6.08393 4.98164 1.10229 4.81729 4.33518 2.49541 2.30579 1.2839 1.02189
internal_count=210 171 143 137 24 15 113 101 12 88 80 50 45 27 18
shrinkage=0.1


Tree=34
num_leaves=16
num_cat=0
split_feature=2 0 1 1 2 0 1 0 2 2 0 2 1 2 1
split_gain=0.0787572 0.0636943 0.0847294 0.0699792 0.0613518 0.0503736 0.116489 0.109199 0.106486 0.107515 0.23259 0.091858 0.0888145 0.0639719 0.0630621
threshold=9.7056349680081286 1243.5000000000002 467.00000000000006 712.50000000000011 7.2553914454439381 1881.0000000000002 1434.5000000000002 2312.0000000000005 0.13831947621798577 1.841534988450505 2518.0000000000005 2.8882715919603066 2518.0000000000005 1.0001811085790837 2518.0000000000005
decision_type=2 2 2 2 2 2 2 2 2 2 2 2 2 2 2
left_child=1 -1 -3 -4 5 6 -5 14 -9 10 -10 -11 -13 -12 -7
right_child=-2 2 3 4 -6 7 -8 8 9 11 13 12 -14 -15 -16
leaf_value=-0.023850886494621588 -0.045713054348371335 -0.077119793276228976 0.052642872857733884 0.056460574726904481 -0.1102473985033194 -0.02295756705622156 0.0018917233050551965 0.038330218832575591 -0.097816717934449737 0.038179987357685699 0.011055315238514505 0.0090461285461445728 -0.086581356492096584 -0.048219418310299023 -0.11568516075771007
leaf_weight=0.81332729407586146 0.3580352400895207 0.12025014869868744 0.32682266272604454 0.58340098708868016 0.045790592208504566 0.20085673779249225 1.1874222448095677 0.7342530041933063 0.32489915378391776 0.76844799518585183 0.86276006884872891 0.35148324817419047 0.13420608127489686 0.23077749460935595 0.11552469059824944
leaf_count=56 39 5 6 5 5 5 19 9 6 8 16 7 9 8 7
internal_value=0 0.0240682 0.0597396 0.0767715 0.0502439 0.0598514 0.198695 -0.00618521 0.0460041 -0.046664 -0.235262 0.166642 -0.173777 -0.0145388 -0.568165
internal_weight=0 6.80022 5.9869 5.86664 5.53982 5.49403 1.77082 3.72321 3.40683 2.67257 1.41844 1.25414 0.485689 1.09354 0.316381
internal_count=210 171 115 110 104 99 24 75 63 54 30 24 16 24 12
shrinkage=0.1


Tree=35
num_leaves=16
num_cat=0
split_feature=2 0 0 0 2 2 0 0 2 2 1 2 1 0 2
split_gain=0.072079 0.0628377 0.0470364 0.107723 0.046235 0.0544342 0.0334348 0.0814539 0.0630894 0.0494623 0.08169 0.0777963 0.0570012 0.0624996 0.0372416
threshold=9.7056349680081286 712.50000000000011 55435.000000000007 37655.000000000007 6.5706741786437624 4.7830764264055654 1243.5000000000002 999.00000000000011 0.20908113783825596 2.1593712186214336 1243.5000000000002 1.5907263741833748 1434.5000000000002 2312.0000000000005 0.54303089582512243
decision_type=2 2 2 2 2 2 2 2 2 2 2 2 2 2 2
left_child=1 -1 3 -2 5 6 7 8 -3 10 -8 14 13 -11 -12
right_child=2 4 -4 -5 -6 -7 9 -9 -10 12 11 -13 -14 -15 -16
leaf_value=-0.095871396306297152 -0.079432459604200631 -0.1120160365400546 -0.12248213608175861 0.044829407326447857 0.04986630438822412 -0.073354624451376194 0.043129779664965104 -0.044751941834017595 0.039763878261045882 0.0035904340140095435 0.0010951615740578411 -0.039637137471690148 0.013316787332567404 -0.061722564298281248 0.022582321264228166
leaf_weight=0.064482658635824808 0.16548568196594704 0.030618085991591104 0.06301966099999845 0.12060998589731751 0.20673009566962708 0.094910667743533739 0.64514051005244244 0.43256790889427066 0.259426882956177 0.25425980798900105 2.1181257525458941 0.35929305013269169 0.44079339876770968 0.34574348293244839 1.3027231916785238
leaf_count=28 19 5 10 10 9 6 6 14 9 6 41 7 9 7 24
internal_value=0 0.0235809 -0.442743 -0.270471 0.0333402 0.0180311 0.0295574 -0.172598 0.237415 0.0562822 0.102415 0.0462862 -0.139867 -0.340453 0.0927787
internal_weight=0 6.55482 0.349115 0.286096 6.49033 6.2836 6.18869 0.722613 0.290045 5.46608 4.42528 3.78014 1.0408 0.600003 3.42085
internal_count=210 171 39 29 143 134 128 28 14 100 78 72 22 13 65
shrinkage=0.1


Tree=36
num_leaves=16
num_cat=0
split_feature=2 0 0 0 2 0 0 1 2 2 2 2 2 1 0
split_gain=0.0753178 0.05437 0.0580372 0.122145 0.122323 0.0755038 0.169092 0.143115 0.0714956 0.156554 0.0901578 0.171258 0.0779107 0.0704862 0.0528726
threshold=9.7056349680081286 1243.5000000000002 16812.500000000004 19386.000000000004 2.8882715919603066 3507.0000000000005 2518.0000000000005 2312.0000000000005 0.068506997881763926 0.12356009070294785 0.60429347073637107 0.90855223429951704 2.1593712186214336 9968.5000000000018 1881.0000000000002
decision_type=2 2 2 2 2 2 2 2 2 2 2 2 2 2 2
left_child=1 -1 5 -4 -5 6 8 -7 -3 -10 14 -12 -13 -9 -11
right_child=-2 2 3 4 -6 7 -8 13 9 10 11 12 -14 -15 -16
leaf_value=-0.022728420077012753 -0.04690024579706558 0.04070686516440894 -0.11370953088471845 0.016498152118541661 -0.092586452087825261 0.071488329139621415 -0.067072385846067936 -0.061584264227911995 -0.065407304509303571 0.066576634297651538 -0.08282155406431102 0.024352736736120192 -0.027673934641877534 0.017352910238704451 0.011683562283552563
leaf_weight=0.7630461401422507 0.32606780156493176 0.58708033617585975 0.11680809827521432 0.56954734399914742 0.12543776561506093 0.51372905634343602 0.31997262965887774 0.13679761625826359 0.30398623365908894 0.3742943108081821 0.22568969801068292 1.0947145540267227 0.39051517285406578 0.65356479771435261 0.33031906187534327
leaf_count=56 39 9 8 8 8 7 14 5 7 5 5 14 10 9 6
internal_value=0 0.0235073 0.0568319 -0.19093 -0.0319051 0.0976239 0.0234181 0.303984 0.0905888 0.0222682 0.107383 -0.0165979 0.106732 0.036903 0.40843
internal_weight=0 6.5055 5.74246 0.811793 0.694985 4.93066 3.62657 1.30409 3.3066 2.71952 2.41553 1.71092 1.48523 0.790362 0.704613
internal_count=210 171 115 24 16 91 70 21 56 47 40 29 24 14 11
shrinkage=0.1


Tree=37
num_leaves=16
num_cat=0
split_feature=2 0 0 0 2 2 2 2 2 2 2 2 2 0 2
split_gain=0.0766743 0.0640473 0.0814478 0.0526655 0.0366356 0.109975 0.0719772 0.123758 0.0396899 0.228856 0.0597402 0.0834945 0.0650593 0.0502596 0.101982
threshold=11.706471164918616 37655.000000000007 55435.000000000007 712.50000000000011 0.025252220714467543 0.042392460302908073 0.068506997881763926 0.085592888888888899 0.13831947621798577 0.20908113783825596 0.32701234900062198 0.54303089582512243 0.4631302635999533 16812.500000000004 2.8882715919603066
decision_type=2 2 2 2 2 2 2 2 2 2 2 2 2 2 2
left_child=3 -2 -3 -1 -5 -6 -7 -8 -9 -10 -11 12 -12 -13 -15
right_child=1 2 -4 4 5 6 7 8 9 10 11 13 -14 14 -16
leaf_value=-0.093251379643575202 -0.11617046353150165 0.033362932209952803 -0.11837595769111763 0.048312661856604169 -0.067304443353047846 0.050705193216839473 -0.062518980237900951 0.035524296047534022 -0.10975757640095585 0.043521315857494081 -0.0071213097613127899 0.012557658459352758 -0.092205966649286319 0.0029028983544457545 -0.094727040828994996
leaf_weight=0.057303665904328123 0.099480443983338662 0.1122494749724865 0.051651496905833483 0.17390110297128547 0.22216668166220177 0.3171646184055133 0.28451842442154873 0.39859747188165767 0.17449499666690815 0.40622835606336577 0.21992982504889361 3.3377072722651069 0.1519646905362606 0.49469307623803599 0.13652051240205765
leaf_count=28 16 10 10 5 6 9 6 7 5 8 8 67 5 8 12
internal_value=0 -0.528739 -0.144558 0.0218441 0.0305002 0.0176889 0.0436029 0.0173765 0.0517407 0.0271599 0.0685037 0.0341858 -0.418889 0.0766396 -0.182128
internal_weight=0 0.263381 0.163901 6.37519 6.31789 6.14399 5.92182 5.60465 5.32014 4.92154 4.74704 4.34082 0.371895 3.96892 0.631214
internal_count=210 36 20 174 146 141 135 126 120 113 108 100 13 87 20
shrinkage=0.1


Tree=38
num_leaves=16
num_cat=0
split_feature=2 2 2 2 2 2 2 2 1 0 0 1 1 2 2
split_gain=0.0891364 0.165422 0.289911 0.165387 0.102691 0.0737301 0.134538 0.0723484 0.337881 0.0615271 0.0607848 0.056819 0.0500789 0.0372049 0.0743024
threshold=0.12356009070294785 0.37547539633566202 0.54303089582512243 0.048754534962898818 0.077078650776744237 9.7056349680081286 6.5706741786437624 0.32701234900062198 19386.000000000004 1881.0000000000002 1243.5000000000002 2518.0000000000005 2518.0000000000005 3.0582515310586182 2.6638406447304273
decision_type=2 2 2 2 2 2 2 2 2 2 2 2 2 2 2
left_child=3 7 12 10 -5 6 13 8 9 11 -1 -2 -3 14 -4
right_child=1 2 5 4 -6 -7 -8 -9 -10 -11 -12 -13 -14 -15 -16
leaf_value=-0.064652730769710329 -0.11081917186282178 -0.15215855978470441 0.00081378258511298127 -0.10528951262318618 -0.024298242335497499 -0.044153653252289177 0.082364433660933711 0.09290992016911262 -0.11695778837119353 0.039517758878491321 0.029559756453334238 0.12525685679746226 -0.067277890186242958 -0.024581983997419569 0.045699019102425596
leaf_weight=0.080379515420645253 0.010908254422247188 0.10620385408401478 2.7955521186813725 0.27686666278168559 0.36025047849398106 0.2951664333231746 0.22715261089615515 0.21823153423611075 0.13382767699658871 0.49030197598040098 0.46267622336745262 0.15593198733404279 0.20117022655904293 0.42999367765150953 0.42485333792865271
leaf_count=15 6 7 54 9 9 39 9 6 5 8 9 5 5 18 6
internal_value=0 0.0536039 -0.0287879 -0.249326 -0.594939 0.040254 0.0769288 0.419362 0.278723 0.573671 0.15615 1.09822 -0.966058 0.0304631 0.0673529
internal_weight=0 5.48929 4.48009 1.18017 0.637117 4.17272 3.87755 1.0092 0.79097 0.657142 0.543056 0.16684 0.307374 3.6504 3.22041
internal_count=210 168 138 42 18 126 87 30 24 19 24 11 12 78 60
shrinkage=0.1


Tree=39
num_leaves=16
num_cat=0
split_feature=0 0 2 1 1 2 2 2 0 2 0 2 0 0 2
split_gain=0.232426 0.129554 0.195337 0.215898 0.0953731 0.0735766 0.23527 0.0957967 0.0730001 0.0516163 0.0467815 0.100186 0.0898654 0.0640148 0.0558591
threshold=16812.500000000004 55435.000000000007 2.5462555066079298 1881.0000000000002 3507.0000000000005 0.068506997881763926 0.042392460302908073 0.025252220714467543 37655.000000000007 0.017999256213054794 3507.0000000000005 0.12356009070294785 2518.0000000000005 1434.5000000000002 0.60429347073637107
decision_type=2 2 2 2 2 2 2 2 2 2 2 2 2 2 2
left_child=5 2 -2 8 -3 6 7 9 -4 -1 11 13 14 -7 -13
right_child=1 4 3 -5 -6 10 -8 -9 -10 -11 -12 12 -14 -15 -16
leaf_value=-0.10522602635449214 -0.0041560708206005263 -0.11712567500063187 -0.10014994499964494 -0.15523177439185035 0.045978868060990087 -0.017890139074753519 0.091514816274591043 -0.06297770703952614 0.046163665007615262 0.057246915652187071 0.020237095332227069 0.030417665784771755 -0.05657969763465634 -0.11539687376298353 -0.0010906619864503616
leaf_weight=0.022409275639802103 0.31625889427959897 0.043221713043749325 0.053791999816894531 0.3014525396283716 0.21020824741572144 0.15362090955022756 0.39100212627090514 0.21496695710811764 0.093149468069896102 0.15343593043508008 1.2213022653013466 0.77208388934377659 0.23743442445993407 0.11986651690676808 2.0743089462630451
leaf_count=6 9 9 12 15 5 5 9 9 6 6 28 33 12 5 41
internal_value=0 -0.438017 -0.643384 -1.06786 0.181619 0.0831907 0.366712 -0.181991 -0.0739849 0.365418 0.0347785 -0.0261872 0.0252564 -0.606263 0.0745597
internal_weight=0 1.01808 0.764653 0.448394 0.25343 5.36043 0.781814 0.390812 0.146941 0.175845 4.57862 3.35731 3.08383 0.273487 2.84639
internal_count=210 56 42 33 14 154 30 21 18 12 124 96 86 10 74
shrinkage=0.1


Tree=40
num_leaves=16
num_cat=0
split_feature=2 0 2 0 2 1 1 1 2 2 2 2 1 1 2
split_gain=0.0561009 0.04701 0.0275059 0.0923298 0.0563423 0.0793975 0.0594405 0.0518641 0.0644903 0.0388619 0.0538578 0.108674 0.0322674 0.0294636 0.0681906
threshold=9.7056349680081286 712.50000000000011 2.0175310133772899 999.00000000000011 2.5462555066079298 467.00000000000006 712.50000000000011 1434.5000000000002 7.2553914454439381 1.6549749463135293 1.4445024855514694 1.1028432355046529 3507.0000000000005 19386.000000000004 0.10347571227430105
decision_type=2 2 2 2 2 2 2 2 2 2 2 2 2 2 2
left_child=1 -1 3 12 -4 -6 -7 -8 -9 10 11 13 -3 -5 -15
right_child=-2 2 4 9 5 6 7 8 -10 -11 -12 -13 -14 14 -16
leaf_value=-0.092911959416845991 -0.043603753018654434 -0.12276997538543466 0.043348296248871238 0.014371594682432843 -0.058107389667747922 0.05244440464327868 -0.037660745596768221 0.030080558807278182 -0.11586573559743044 -0.035466738648368461 0.041596272939118419 -0.056021069113955692 -0.017885413245350798 0.01459939276679258 -0.031549346375883386
leaf_weight=0.051581957202870288 0.28135064570233215 0.081755792722105869 0.46631496772170056 1.7437708554789439 0.18378370162099575 0.27991897612810129 0.25804802030324936 0.39899396058171993 0.032762778922915459 0.26790956035256375 0.3450368084013461 0.31281972117722023 0.045743639813736081 0.73485584091395106 0.56742253713309765
leaf_count=28 39 7 6 38 6 6 5 14 5 5 6 8 6 17 14
internal_value=0 0.021259 0.0298306 -0.0137633 0.140155 0.0215741 0.135789 -0.0219251 0.190058 0.0131257 0.0397288 0.00108046 -0.8514 0.0587233 -0.0550832
internal_weight=0 5.77072 5.71914 4.09931 1.61982 1.15351 0.969724 0.689805 0.431757 3.97182 3.70391 3.35887 0.127499 3.04605 1.30228
internal_count=210 171 143 101 42 36 30 24 19 88 83 77 13 69 31
shrinkage=0.1


Tree=41
num_leaves=16
num_cat=0
split_feature=2 2 1 0 0 2 1 0 0 0 0 2 1 2 2
split_gain=0.044246 0.0489 0.0982388 0.0382478 0.0361205 0.0979857 0.0464621 0.0394285 0.106885 0.0590102 0.169011 0.088387 0.0542681 0.0524652 0.134398
threshold=9.7056349680081286 2.6638406447304273 467.00000000000006 712.50000000000011 16812.500000000004 1.0001811085790837 55435.000000000007 3507.0000000000005 2518.0000000000005 2312.0000000000005 1881.0000000000002 0.085592888888888899 19386.000000000004 0.60429347073637107 1.0001811085790837
decision_type=2 2 2 2 2 2 2 2 2 2 2 2 2 2 2
left_child=1 3 -3 -1 6 -6 7 8 9 10 11 12 -5 -13 -15
right_child=-2 2 -4 4 5 -7 -8 -9 -10 -11 -12 13 -14 14 -16
leaf_value=-0.092010762371993682 -0.039546409336087857 -0.070916814702572453 0.033386401123770205 -0.10405608795585899 0.013020698046978108 -0.084145481963314672 -0.03541287645830779 0.026156589589619212 -0.073603517614272349 0.026827316204833713 -0.073931548472068467 0.041360989115802903 -0.014141681688282474 -0.052430226323611606 0.025788905220384767
leaf_weight=0.047055043221916885 0.2700917549664153 0.10088925343006838 0.86033610929735005 0.097073451615871664 0.23827175702899683 0.18387536890804768 0.31785010825842608 0.68407816439867009 0.18723695632070289 0.83904743194580067 0.30133491754531849 0.54341072402894486 0.21757907350547609 0.30884607229381777 0.76077465713024139
leaf_count=28 39 5 28 6 6 5 9 10 10 11 11 15 8 9 10
internal_value=0 0.0187795 0.224388 -0.0230356 -0.0140148 -0.293021 0.0136515 0.043326 -0.00253556 0.0422282 -0.0428596 0.0660101 -0.418812 0.160584 0.0320364
internal_weight=0 5.68766 0.961225 4.72643 4.67938 0.422147 4.25723 3.93938 3.2553 3.06807 2.22902 1.92768 0.314653 1.61303 1.06962
internal_count=210 171 33 138 110 11 99 90 80 70 59 48 14 34 19
shrinkage=0.1


Tree=42
num_leaves=16
num_cat=0
split_feature=0 0 2 2 0 2 2 2 2 2 1 0 2 0 0
split_gain=0.0487796 0.0553069 0.0389465 0.0466705 0.216126 0.141787 0.0367689 0.0333308 0.0287827 0.0267555 0.0529618 0.060516 0.0464871 0.0766044 0.138195
threshold=1243.5000000000002 1434.5000000000002 0.042392460302908073 0.13831947621798577 2312.0000000000005 0.2326598738476468 9.7056349680081286 0.20908113783825596 55.872305298468255 7.2553914454439381 999.00000000000011 2312.0000000000005 2.0175310133772899 2312.0000000000005 3507.0000000000005
decision_type=2 2 2 2 2 2 2 2 2 2 2 2 2 2 2
left_child=7 -2 -3 4 -4 -5 9 -1 -8 10 11 -7 13 -12 -15
right_child=1 2 3 5 -6 6 8 -9 -10 -11 12 -13 -14 14 -16
leaf_value=-0.073370963495781413 0.025065685011460781 -0.057180418695282745 -0.1389866871975978 -0.100618720328155 0.047806860162411542 0.0028812988924418539 -0.06228851092588078 -0.015026712637021447 0.0066238097479651981 0.051136363779849939 0.028483304894386677 -0.0733368816072337 0.02742008368563767 -0.075219069029621444 0.0030146437492588572
leaf_weight=0.12096625688718619 0.94660908728837956 0.12284970469772805 0.07021057792007912 0.1469119489192966 0.52594865951687098 0.22876908816397312 0.16147266374900926 0.51382859889417887 0.097029449651017771 0.11063614953309286 0.5534222619608048 0.19126860145479441 0.74835597304627299 0.30051923170685746 0.90799451246857632
leaf_count=26 14 5 5 5 8 6 33 30 6 6 11 7 19 10 19
internal_value=0 0.0324659 -0.0171193 -0.000262805 0.258079 -0.0449511 -0.00215115 -0.261448 -0.364221 0.0286272 0.0104012 -0.318255 0.0653939 -0.0232937 -0.164396
internal_weight=0 5.112 4.16539 4.04254 0.596159 3.44638 3.29947 0.634795 0.258502 3.04097 2.93033 0.420038 2.51029 1.76194 1.20851
internal_count=210 154 140 135 13 122 117 56 39 78 72 13 59 40 29
shrinkage=0.1


Tree=43
num_leaves=16
num_cat=0
split_feature=2 0 0 0 1 1 2 2 0 1 2 0 0 1 2
split_gain=0.0362329 0.0369115 0.0663203 0.0362668 0.0468036 0.0389012 0.0530771 0.0328157 0.0776226 0.0410336 0.047238 0.0261281 0.0581258 0.180416 0.406177
threshold=9.7056349680081286 55435.000000000007 37655.000000000007 1243.5000000000002 467.00000000000006 712.50000000000011 7.2553914454439381 0.69522666972705494 999.00000000000011 2518.0000000000005 0.1803796544717729 1434.5000000000002 2312.0000000000005 3507.0000000000005 1.2607297648120037
decision_type=2 2 2 2 2 2 2 2 2 2 2 2 2 2 2
left_child=3 2 -2 7 -5 -6 11 9 -9 -1 -11 -7 13 14 -13
right_child=1 -3 -4 4 5 6 -8 8 -10 10 -12 12 -14 -15 -16
leaf_value=-0.10511104815731552 -0.069121358204725911 -0.12426316690267736 0.039547234595120495 -0.063717669198743082 0.040371921724218454 0.020728343021509717 -0.12236963302575364 0.056714607582547011 -0.039364320324211881 -0.065731626536377388 0.035217884957662232 0.074859777875366171 0.0081756399575649737 -0.10351651867712544 -0.086803684498899233
leaf_weight=0.083966848324052865 0.12501090776640911 0.040200648712925606 0.10197320114821196 0.097787491045892128 0.31069800723344082 0.82425802201032627 0.033117020968347677 0.14078270096797496 0.20880245044827461 0.10465972431120464 0.08320482395356521 0.35662000812590161 2.6568535778205842 0.20517736440524456 0.27545883506536484
leaf_count=18 19 10 10 5 6 12 5 5 5 23 5 6 63 12 6
internal_value=0 -0.359438 -0.203017 0.017846 0.0475078 0.0618688 0.0374605 -0.209359 -0.00672028 -0.46996 -0.210213 0.0471321 0.00935255 -0.220406 0.0440713
internal_weight=0 0.267185 0.226984 5.38139 4.75997 4.66218 4.35148 0.621417 0.349585 0.271831 0.187865 4.31837 3.49411 0.837256 0.632079
internal_count=210 39 29 171 115 110 104 56 10 46 28 99 87 24 12
shrinkage=0.1


Tree=44
num_leaves=16
num_cat=0
split_feature=2 2 0 1 1 2 1 0 0 1 1 1 1 2 2
split_gain=0.158414 0.285168 0.0352222 0.0520724 0.0406805 0.0388382 0.0313061 0.0243342 0.130477 0.0500028 0.100382 0.0860083 0.0622038 0.0927165 0.0421835
threshold=55.872305298468255 9.7056349680081286 1243.5000000000002 467.00000000000006 712.50000000000011 7.2553914454439381 712.50000000000011 2518.0000000000005 3507.0000000000005 2312.0000000000005 9968.5000000000018 16812.500000000004 19386.000000000004 0.34629786944422042 1.4445024855514694
decision_type=2 2 2 2 2 2 2 2 2 2 2 2 2 2 2
left_child=1 2 -1 -4 -5 7 -3 14 -9 -10 -11 -12 -13 -14 -6
right_child=-2 6 3 4 5 -7 -8 8 9 10 11 12 13 -15 -16
leaf_value=-0.021949485282460691 0.092384275352839662 -0.13981787018790046 -0.070097781518058733 0.041298178470715485 0.0031912113128425151 -0.11683944529969459 -0.05225629947504197 -0.076184337694129869 0.039485690182258032 -0.089158348153673919 0.07356069163269062 -0.055022463192837039 -0.043952048821645946 0.031599109665118717 0.03400761742811996
leaf_weight=0.566887206834508 0.17961503157857794 0.15612699720077206 0.091790615580975871 0.3042036648839711 1.7939936483744534 0.026679699309170132 0.055293038603849702 0.22296251915395249 0.34035483561456192 0.12395694525912392 0.15996333118528103 0.20146710425615311 0.23817918635904789 0.51076193526387215 0.59038155712187279
leaf_count=56 6 7 5 6 38 5 26 12 6 8 5 5 7 8 10
internal_value=0 -0.0308259 0.0157112 0.0446675 0.0598336 0.0343082 -1.16918 0.041981 -0.0458708 0.0555052 -0.038068 0.0572147 -0.0569656 0.0757224 0.108215
internal_weight=0 5.383 5.17158 4.6047 4.5129 4.2087 0.21142 4.18202 1.79765 1.57468 1.23433 1.11037 0.950408 0.748941 2.38438
internal_count=210 204 171 115 110 104 33 99 51 39 33 25 20 15 48
shrinkage=0.1


Tree=45
num_leaves=16
num_cat=0
split_feature=0 1 0 0 2 1 2 1 0 0 2 2 1 1 2
split_gain=0.0572158 0.09465 0.0599901 0.0719429 0.0931276 0.102479 0.0323209 0.114342 0.0429594 0.0494998 0.0367399 0.0365667 0.0328235 0.116658 0.0306177
threshold=55435.000000000007 3507.0000000000005 16812.500000000004 19386.000000000004 2.5462555066079298 1434.5000000000002 0.025252220714467543 55435.000000000007 3507.0000000000005 2518.0000000000005 0.017999256213054794 9.7056349680081286 2312.0000000000005 9968.5000000000018 0.042392460302908073
decision_type=2 2 2 2 2 2 2 2 2 2 2 2 2 2 2
left_child=2 -2 6 -4 -5 -6 10 8 9 14 -1 12 -10 -14 -8
right_child=1 -3 3 4 5 -7 7 -9 11 -11 -12 -13 13 -15 -16
leaf_value=-0.10066014725294221 -0.11546465285309965 0.069018107517043112 -0.10601011385619992 0.031987139651488944 0.013131003342224477 -0.11961712903888927 -0.052565834265312063 -0.081428956101023728 0.047630200421412722 -0.05091885421177024 0.064666288831609006 -0.053212446010488523 -0.081724555682416489 0.033265484287572929 0.0025847889094389696
leaf_weight=0.014975011406931917 0.031748653505928703 0.22420338704250756 0.10927395784528916 0.21502627152949569 0.10682740883203223 0.12763471924699843 0.10427664057351728 0.16611717920750368 0.40303250961005671 0.1982120107859372 0.13127415324561298 0.0621264330111444 0.11057831021025775 0.43645395711064339 2.9051118108327501
leaf_count=6 9 5 14 5 10 13 6 6 7 13 6 7 5 7 91
internal_value=0 0.461346 -0.0231947 -0.332353 -0.155432 -0.591334 0.0149209 -0.00049991 0.0315359 -0.0251435 0.477379 0.211151 0.259755 0.100211 0.00673795
internal_weight=0 0.255952 5.09092 0.558762 0.449488 0.234462 4.53216 4.38591 4.21979 3.2076 0.146249 1.01219 0.950065 0.547032 3.00939
internal_count=210 14 196 42 28 23 154 142 136 110 12 26 19 12 97
shrinkage=0.1


Tree=46
num_leaves=16
num_cat=0
split_feature=2 2 1 0 2 2 2 2 0 2 0 1 2 1 1
split_gain=0.0399727 0.0388386 0.138854 0.121232 0.0816428 0.0887678 0.0378736 0.0339353 0.084792 0.0569064 0.0477055 0.0858298 0.0685925 0.162561 0.0667299
threshold=9.7056349680081286 0.12356009070294785 37655.000000000007 1434.5000000000002 0.042392460302908073 0.025252220714467543 0.1803796544717729 1.841534988450505 999.00000000000011 2.5462555066079298 1881.0000000000002 2312.0000000000005 0.60429347073637107 1434.5000000000002 16812.500000000004
decision_type=2 2 2 2 2 2 2 2 2 2 2 2 2 2 2
left_child=1 2 3 -1 5 -4 -3 8 -8 -9 12 -12 -10 -14 -13
right_child=-2 6 4 -5 -6 -7 7 9 10 -11 11 14 13 -15 -16
leaf_value=-0.018274508703832525 -0.040342344406854316 0.041634179221905737 0.041379038138433723 -0.14014075569085124 0.053553426561029842 -0.064219710787742107 -0.091422118317227935 0.041176311985834491 0.051693525801738194 0.0010606557860654237 -0.073201253973507477 0.037068358282623413 0.030865171132755654 -0.068848077739841862 -0.021225680526158312
leaf_weight=0.20145173120545207 0.23469820251921181 0.27892367204185564 0.13509452340076678 0.13724129181355238 0.26743340864777565 0.19380329828709364 0.10662996629253108 0.5367752294987439 0.34343001712113641 1.036336339311674 0.20486844656988959 0.29854615312069654 0.4894849881529808 0.24549741670489311 0.57375852949917316
leaf_count=17 39 9 9 5 5 6 22 9 9 36 7 11 7 5 14
internal_value=0 0.0187517 -0.16522 -0.676557 0.1252 -0.208451 0.060562 0.034688 -0.043752 0.147489 -0.000692645 -0.149544 0.147987 -0.0244086 -0.0127455
internal_weight=0 5.04928 0.935024 0.338693 0.596331 0.328898 4.11425 3.83533 2.26222 1.57311 2.15559 1.07717 1.07841 0.734982 0.872305
internal_count=210 171 42 22 20 15 129 120 75 45 53 32 21 12 25
shrinkage=0.1


Tree=47
num_leaves=16
num_cat=0
split_feature=2 2 2 1 0 2 0 1 2 2 1 0 0 2 0
split_gain=0.0739297 0.119682 0.118222 0.0700951 0.057621 0.166385 0.113492 0.106758 0.0458327 0.0942795 0.0361182 0.0355276 0.0338537 0.0270192 0.0247486
threshold=0.042392460302908073 0.025252220714467543 0.068506997881763926 55435.000000000007 16812.500000000004 1.2607297648120037 55435.000000000007 1881.0000000000002 0.12356009070294785 0.085592888888888899 1434.5000000000002 37655.000000000007 37655.000000000007 0.017999256213054794 712.50000000000011
decision_type=2 2 2 2 2 2 2 2 2 2 2 2 2 2 2
left_child=1 13 -2 4 8 -6 10 -8 9 -4 11 -7 -12 -1 -10
right_child=2 -3 3 -5 5 6 7 -9 14 -11 12 -13 -14 -15 -16
leaf_value=-0.10029550384431621 0.066433986721193564 -0.084505262641321022 0.024121658363980301 0.052735084072803785 -0.12753300243180116 -0.09343131559685873 -0.12240447031082197 0.095909785612114495 -0.08818072751914191 -0.077744489192383137 -0.020079633635534277 0.032048419208934267 -0.11498065564641849 0.049364617719427073 0.0054518737948345075
leaf_weight=0.01343906795955252 0.2794319022214039 0.24247622044640596 0.16357024712488089 0.2343346346169709 0.14039873797446478 0.030558803526218981 0.026564608444459736 0.14285642700269818 0.028465125360526481 0.20438407617621124 0.065493325470015407 0.086248967330902815 0.088225632323883474 0.11782477860106157 3.4045007227687165
leaf_count=6 9 9 5 5 6 10 6 7 16 6 11 5 8 6 95
internal_value=0 -0.428694 0.0327312 -0.00550689 -0.0340071 -0.327496 -0.0250172 0.616789 0.0108044 -0.32461 -0.426957 -0.0077911 -0.745472 0.340421 0.046755
internal_weight=0 0.37374 4.89503 4.6156 4.38127 0.580347 0.439948 0.169421 3.80092 0.367954 0.270527 0.116808 0.153719 0.131264 3.43297
internal_count=210 21 189 180 175 53 47 13 122 11 34 15 19 12 111
shrinkage=0.1


Tree=48
num_leaves=16
num_cat=0
split_feature=2 2 2 2 0 0 2 1 2 2 1 1 2 2 2
split_gain=0.100437 0.115492 0.0581353 0.162837 0.117407 0.0760821 0.0388883 0.032993 0.0278509 0.0611101 0.0399766 0.0520228 0.043488 0.0355985 0.0325189
threshold=0.042392460302908073 0.025252220714467543 0.13831947621798577 0.20908113783825596 2312.0000000000005 1434.5000000000002 9.7056349680081286 16812.500000000004 0.60429347073637107 0.69522666972705494 2312.0000000000005 16812.500000000004 0.32701234900062198 0.49650347955097152 0.85566247224278325
decision_type=2 2 2 2 2 2 2 2 2 2 2 2 2 2 2
left_child=1 -1 4 -4 5 7 8 -2 10 -10 -5 12 -12 -14 -11
right_child=2 -3 3 6 -6 -7 -8 -9 9 14 11 -13 13 -15 -16
leaf_value=0.024903412991022087 0.049315594174300703 -0.092074964588467326 -0.11002347116561864 -0.10681604177402329 0.057282832671033124 -0.13477822181384183 -0.038014537881924659 -0.031390715225619335 -0.056963164702913807 0.047253565770126064 0.091679011195416452 -0.0095465422154341895 -0.025365211723472187 0.048818763743117596 0.0017571647041000598
leaf_weight=0.1312041810597292 0.085145792865659931 0.23659508852870204 0.13233514179592054 0.023014980193693968 0.50490481592714787 0.051067160209640861 0.220204512705095 0.12503876117989421 0.17170974519103799 0.16730888222809914 0.14871528802905232 0.2488455306738615 0.094220228027552352 0.20636329986155036 2.5751849813386798
leaf_count=12 5 9 9 11 8 5 39 6 6 6 5 7 5 5 72
internal_value=0 -0.503455 0.03895 -0.00952014 0.291241 -0.252966 0.0279166 0.0130342 0.0526341 0.00909283 0.228584 0.271333 0.474485 0.255652 0.0453272
internal_weight=0 0.367799 4.75406 3.9879 0.766157 0.261252 3.85557 0.210185 3.63536 2.9142 0.721159 0.698144 0.449299 0.300584 2.74249
internal_count=210 21 189 165 24 16 156 11 117 84 33 22 15 10 78
shrinkage=0.1


Tree=49
num_leaves=16
num_cat=0
split_feature=2 1 0 1 2 0 2 2 1 2 2 2 2 1 1
split_gain=0.0447763 0.0472781 0.0238308 0.0339152 0.0443654 0.0333482 0.0292955 0.0476551 0.247879 0.0772788 0.0575274 0.0634002 0.0609675 0.0564827 0.156018
threshold=0.026839177674282153 55435.000000000007 1243.5000000000002 467.00000000000006 9.7056349680081286 1434.5000000000002 0.085592888888888899 0.34629786944422042 19386.000000000004 0.60429347073637107 0.90855223429951704 1.1028432355046529 2.0175310133772899 2312.0000000000005 1434.5000000000002
decision_type=2 2 2 2 2 2 2 2 2 2 2 2 2 2 2
left_child=1 -1 -2 -4 5 -5 -7 8 -8 -9 -11 -12 13 14 -13
right_child=2 -3 3 4 -6 6 7 9 -10 10 11 12 -14 -15 -16
leaf_value=-0.085481383193605487 -0.019304076943443688 0.0029333449722108683 -0.033242182756001111 0.028345374215609932 -0.06992879277767515 0.028812541583440866 0.018554229361994138 0.065596201597296552 -0.12277399919888195 -0.041386976833682754 0.048964896733192917 -0.062629671295527142 0.013371626058468623 -0.082028894922151929 0.067813745542798731
leaf_weight=0.12287771492265154 0.46772750947275193 0.11910049186553806 0.22598571982234705 0.66955691203475032 0.074447564198635394 0.4129294436424974 0.39989433623850373 0.20353993307799131 0.17994735785759983 0.27719211298972402 0.30702470988035191 0.22027799673378456 1.0250098165124653 0.14356117509305477 0.15707420278340578
leaf_count=9 44 6 11 11 33 11 10 5 8 8 5 5 33 6 5
internal_value=0 -0.419641 0.0213141 0.0446496 0.0655841 0.079834 0.0388489 0.00351927 -0.253054 0.0672692 0.0110182 0.0745794 -0.00785463 -0.286426 -0.0833213
internal_weight=0 0.241978 4.76417 4.29644 4.07046 3.99601 3.32645 2.91352 0.579842 2.33368 2.13014 1.85295 1.54592 0.520913 0.377352
internal_count=210 15 195 151 140 107 96 85 18 67 62 54 49 16 10
shrinkage=0.1


Tree=50
num_leaves=16
num_cat=0
split_feature=2 2 2 2 2 0 0 2 1 1 2 0 2 0 1
split_gain=0.0270371 0.0230755 0.0888941 0.0654666 0.0447683 0.0366873 0.0957415 0.0372311 0.0749584 0.065852 0.0370038 0.0167788 0.0133388 0.0577496 0.120045
threshold=0.021620883882149049 0.79340989049482946 0.54303089582512243 0.37547539633566202 0.90855223429951704 2312.0000000000005 1434.5000000000002 0.085592888888888899 19386.000000000004 3507.0000000000005 0.13831947621798577 1434.5000000000002 2.0175310133772899 55435.000000000007 3507.0000000000005
decision_type=2 2 2 2 2 2 2 2 2 2 2 2 2 2 2
left_child=-1 2 3 5 -3 6 7 8 -2 -9 -7 -4 -6 14 -14
right_child=1 4 11 -5 12 10 -8 9 -10 -11 -12 -13 13 -15 -16
leaf_value=-0.066094947381075381 -0.10038954728863664 -0.065276062590579262 0.070879718907005271 -0.061461768063132617 -0.010770214903523407 0.035047284961155577 -0.088059696440500379 -0.12986792586595708 0.017689199805728285 0.070616475058339331 -0.0069577760848904659 0.031326005602816308 0.0045858444580910152 0.061275110409925164 -0.11844443038375196
leaf_weight=0.061113951145671197 0.073560030694352671 0.11830910015851293 0.19483608053997148 0.16569633234757919 1.1107350443489852 0.51238609384745359 0.13585198065266013 0.018575342168333009 0.19975658034672961 0.13885009771911427 0.35504108760505915 0.23856435623019931 1.3077649250626562 0.15606061171274621 0.084428697125986094
leaf_count=9 9 6 7 12 27 9 11 11 6 6 11 5 61 13 7
internal_value=0 0.00839704 0.0893465 -0.0194909 -0.0508619 0.049274 -0.148633 0.0822218 -0.140903 0.469604 0.178545 0.491075 -0.0240811 0.0359097 -0.0287525
internal_weight=0 4.81042 2.03312 1.59972 2.7773 1.43402 0.566594 0.430742 0.273317 0.157425 0.867427 0.4334 2.65899 1.54825 1.39219
internal_count=210 201 87 75 114 63 43 32 15 17 20 12 108 81 68
shrinkage=0.1


Tree=51
num_leaves=16
num_cat=0
split_feature=0 1 2 1 2 2 1 1 0 0 0 2 1 1 2
split_gain=0.0274224 0.0282217 0.0338434 0.0287444 0.030714 0.025691 0.0229111 0.0416491 0.0323754 0.0195821 0.108571 0.0526539 0.0858418 0.0631203 0.0373197
threshold=1243.5000000000002 467.00000000000006 9.7056349680081286 712.50000000000011 7.2553914454439381 0.20908113783825596 1434.5000000000002 712.50000000000011 999.00000000000011 19386.000000000004 16812.500000000004 2.1593712186214336 1434.5000000000002 1434.5000000000002 2.6638406447304273
decision_type=2 2 2 2 2 2 2 2 2 2 2 2 2 2 2
left_child=5 -2 3 -3 9 -1 7 -7 -8 10 11 13 -13 -5 -11
right_child=1 2 -4 4 -6 6 8 -9 -10 14 -12 12 -14 -15 -16
leaf_value=-0.070972634751195682 -0.030762692159295304 0.036321421422176203 -0.065857286453891051 0.0354953184446163 -0.11736972188987381 -0.0055492828205079324 -0.052888665919801604 -0.0948700995829692 0.0530083629205957 0.0018064073233664249 -0.12051914435905389 -0.060558476400705663 0.046661707905790675 0.00024339471388557852 0.062008263281973598
leaf_weight=0.088578175113070645 0.23876624088734377 0.2867117319256075 0.066962127806618699 0.67667368985712739 0.020926292752846964 0.20464954932685939 0.041059291281271726 0.070080102712381631 0.097248378209769726 0.28197393473237742 0.071428691269829758 0.27080359496176232 0.1030974411405623 2.036825314629823 0.16220692323986441
leaf_count=26 11 6 33 10 5 6 9 10 5 7 6 7 5 58 6
internal_value=0 0.026296 0.0463406 0.0584108 0.034296 -0.221034 -0.116231 -0.283339 0.215708 0.041312 0.0136672 0.0418661 -0.309942 0.0903428 0.237911
internal_weight=0 4.21638 3.97761 3.91065 3.62394 0.501615 0.413037 0.27473 0.138308 3.60301 3.15883 3.0874 0.373901 2.7135 0.444181
internal_count=210 154 143 110 104 56 30 16 14 99 86 80 12 68 13
shrinkage=0.1


Tree=52
num_leaves=16
num_cat=0
split_feature=0 1 2 2 2 0 1 2 0 2 1 2 2 2 1
split_gain=0.0224115 0.0265069 0.0272115 0.029329 0.0212589 0.0181872 0.0475839 0.0249231 0.0134702 0.033668 0.0916119 0.0551643 0.0990062 0.0221967 0.027277
threshold=1243.5000000000002 467.00000000000006 9.7056349680081286 7.2553914454439381 0.20908113783825596 999.00000000000011 999.00000000000011 0.32701234900062198 1434.5000000000002 0.077078650776744237 55435.000000000007 0.13831947621798577 0.2326598738476468 1.0001811085790837 2312.0000000000005
decision_type=2 2 2 2 2 2 2 2 2 2 2 2 2 2 2
left_child=4 -2 3 8 -1 6 -6 -8 -3 10 -10 -11 -13 -14 -15
right_child=1 2 -4 -5 5 -7 7 -9 9 11 -12 12 13 14 -16
leaf_value=-0.066537354323926726 -0.030063476030247688 0.016336481608743486 -0.061509795234031252 0.064648053405304717 0.05284300908764044 -0.028584202715427137 0.031669600084198474 -0.11226741799194434 0.033481861278898198 0.044864629868543289 -0.083243715317633651 -0.095238042257498448 0.01779190302983406 0.0046063597523791893 -0.025911373311702065
leaf_weight=0.082804482954088474 0.23726222105324257 0.72845930978655937 0.061704935738816746 0.081848076544701942 0.10881180048454552 0.23545240517705679 0.018376987020019438 0.03482965801958926 0.1193434884771708 0.30161961575504426 0.15400724997743964 0.10547135956585441 0.76388289546594046 1.1746138846501706 0.39016773807816202
leaf_count=26 11 13 33 6 6 9 5 10 5 8 5 5 22 27 19
internal_value=0 0.0238397 0.0436757 0.0543185 -0.204427 -0.108398 0.149471 -0.625532 0.0413509 0.0118132 -0.322819 0.045249 -0.00473697 0.0381843 -0.0300303
internal_weight=0 4.11838 3.88112 3.81941 0.480275 0.397471 0.162018 0.0532066 3.73757 3.00911 0.273351 2.73576 2.43414 2.32866 1.56478
internal_count=210 154 143 110 56 30 21 15 104 91 10 81 73 68 46
shrinkage=0.1


Tree=53
num_leaves=16
num_cat=0
split_feature=2 2 0 1 2 2 2 0 0 2 1 0 0 2 0
split_gain=0.0263922 0.0416184 0.0231977 0.103809 0.0222573 0.0153872 0.161017 0.0811705 0.0491532 0.0229818 0.085771 0.040753 0.145068 0.027159 0.051826
threshold=0.025252220714467543 0.03686992487396152 55435.000000000007 3507.0000000000005 0.017999256213054794 0.20908113783825596 0.13831947621798577 2312.0000000000005 1434.5000000000002 2.5462555066079298 2518.0000000000005 2312.0000000000005 3507.0000000000005 2.0175310133772899 999.00000000000011
decision_type=2 2 2 2 2 2 2 2 2 2 2 2 2 2 2
left_child=4 -2 5 -4 -1 6 7 8 -3 13 11 -11 -13 14 -7
right_child=1 2 3 -5 -6 9 -8 -9 -10 10 -12 12 -14 -15 -16
leaf_value=-0.09558568681105345 -0.067799811786051573 -0.017724042536966775 -0.13291226943895426 0.060403111447370365 0.060499581466471143 -0.075895110660941581 -0.11819223151374088 0.02840614600029491 -0.1263507565046231 0.029942923524198608 -0.10940512797013949 -0.098904369428712127 0.011623310469678058 0.033155363511041508 0.0058017899548813345
leaf_weight=0.0099963483517057083 0.091968463762896011 0.16710033547133196 0.032602776191197225 0.18770666781347245 0.10612760376534423 0.080929567106068911 0.12514606444165113 0.47385647892951965 0.055488719954155385 0.27179654873907555 0.081718035042285919 0.15911384113132954 0.46809490351006394 0.33766412176191801 1.9156374288722873
leaf_count=6 6 11 9 5 6 20 9 9 7 7 11 6 38 6 54
internal_value=0 -0.0122845 0.00176797 0.317951 0.470632 -0.0150717 -0.137582 0.0500786 -0.448033 0.0152917 -0.113164 -0.0240027 -0.16416 0.069262 0.0249026
internal_weight=0 4.44882 4.35686 0.220309 0.116124 4.13655 0.821592 0.696446 0.222589 3.31495 0.980723 0.899005 0.627209 2.33423 1.99657
internal_count=210 198 192 14 12 178 36 27 18 142 62 51 44 80 74
shrinkage=0.1


Tree=54
num_leaves=16
num_cat=0
split_feature=0 2 2 1 1 0 2 1 2 2 2 1 1 0 1
split_gain=0.0178808 0.0161211 0.0175958 0.0554034 0.110791 0.071895 0.0266923 0.0530881 0.0485137 0.017928 0.0244954 0.0445396 0.0788446 0.0340899 0.130362
threshold=712.50000000000011 0.025252220714467543 0.12356009070294785 55435.000000000007 37655.000000000007 1434.5000000000002 0.60429347073637107 19386.000000000004 0.69522666972705494 0.85566247224278325 1.4445024855514694 2312.0000000000005 16812.500000000004 55435.000000000007 2312.0000000000005
decision_type=2 2 2 2 2 2 2 2 2 2 2 2 2 2 2
left_child=-1 -2 3 4 5 -3 7 -4 -8 -10 11 -11 -13 14 -12
right_child=1 2 6 -5 -6 -7 8 -9 9 10 13 12 -14 -15 -16
leaf_value=-0.081852529347370834 0.039365483729719153 -0.010856315794614482 0.03238062175290727 -0.071773333756378344 0.045374802284334673 -0.12638333243130126 -0.054495268239022503 -0.030232352002871971 0.036244060851390446 -0.042153737073676978 0.010549457429667746 0.072185073907036754 -0.032630132581247355 0.053985572788183167 -0.080503932156742342
leaf_weight=0.026525271969148775 0.10416584694758046 0.16563123662490389 0.6129094029311094 0.13825239613652229 0.25852016219869256 0.079831708921119571 0.16745782690122757 0.1738190078176558 0.1369792218320075 0.3451446155086163 1.5262938658124765 0.12238303571939468 0.17352192848920822 0.13166046334663395 0.17529755883151654
leaf_count=28 5 9 23 5 6 5 6 8 5 7 63 5 5 13 17
internal_value=0 0.00503531 -0.00458535 -0.156953 -0.00311997 -0.484291 0.0228601 0.18547 -0.0231786 0.010282 -0.00921373 -0.177474 0.107203 0.0496233 0.0116916
internal_weight=0 4.31187 4.2077 0.642236 0.503983 0.245463 3.56547 0.786728 2.77874 2.61128 2.4743 0.64105 0.295905 1.83325 1.70159
internal_count=210 182 177 25 20 14 152 31 121 115 110 17 10 93 80
shrinkage=0.1


Tree=55
num_leaves=16
num_cat=0
split_feature=2 1 1 2 0 2 2 2 1 2 1 1 0 1 1
split_gain=0.0248212 0.0740185 0.101864 0.0862571 0.0794657 0.0651288 0.0464648 0.0389467 0.0480565 0.0604229 0.0551545 0.0483293 0.042365 0.0970035 0.0666294
threshold=1.4445024855514694 1243.5000000000002 1434.5000000000002 0.62865016303319654 2518.0000000000005 0.54303089582512243 0.4631302635999533 1.6549749463135293 1434.5000000000002 3.0582515310586182 2312.0000000000005 1243.5000000000002 2312.0000000000005 999.00000000000011 467.00000000000006
decision_type=2 2 2 2 2 2 2 2 2 2 2 2 2 2 2
left_child=1 -1 -3 5 -5 6 -4 -2 11 -10 -11 12 14 -14 -9
right_child=7 2 3 4 -6 -7 -8 8 9 10 -12 -13 13 -15 -16
leaf_value=-0.070883292385932953 0.045253764504345352 0.083915958062688006 0.0032967735312056999 -0.073462309782254737 -0.0015860419836163028 0.065016477243852858 -0.069979378565022274 0.021341540784742097 0.058142212283601606 -0.1157769237762222 0.02026040506349349 -0.06137298212400441 -0.012843698403022227 0.073161749437830798 -0.05772359309786166
leaf_weight=0.1666044934827372 0.25319568812847126 0.13060166552895713 1.3159414463880241 0.31820842623710621 0.29774551559239626 0.16426038648933161 0.09262763056904065 0.18861768208444096 0.28479478694498528 0.043413127248641104 0.095067939371801927 0.14601054071681563 0.36385144718224177 0.20504173857625571 0.2450701892375946
leaf_count=10 6 5 74 8 10 5 5 5 7 10 18 8 24 8 7
internal_value=0 -0.0650144 -0.018768 -0.0699594 -0.387181 0.0542714 -0.0152187 0.0885586 0.029929 0.31796 -0.223866 -0.0762153 0.00206541 0.181546 -0.233369
internal_weight=0 2.48599 2.31939 2.18878 0.615954 1.57283 1.40857 1.82506 1.57187 0.423276 0.138481 1.14859 1.00258 0.568893 0.433688
internal_count=210 117 107 102 18 84 79 93 87 35 28 52 44 32 12
shrinkage=0.1


Tree=56
num_leaves=16
num_cat=0
