tree
version=v3
num_class=1
num_tree_per_iteration=1
label_index=0
max_feature_idx=0
objective=lambdarank
feature_names=geographical
feature_infos=[0:0.5]
tree_sizes=742 757 748 750 756 759 756 759 751 748 760 760 761 763 764 745 759 759 761 770 762 766 766 763 762 747 757 766 776 762 764 761 762 750 762 761 768 765 755 748 763 763 768 765 766 764 760 761 750 763 763 762 756 763 756 762 748 765 762 767 760 761 760 762 757 745 765 760 762 762 761 757 762 747 764 763 756 762 762 760 758 762 749 760 764 759 762 760 747 761 769 758 764 766 757 761 756 760 752 761

Tree=0
num_leaves=6
num_cat=0
split_feature=0 0 0 0 0
split_gain=0.306955 1.42966 0.222826 0.190683 0.0220832
threshold=0.25000000000000006 0.35000000000000003 1.0000000180025095e-35 0.45000000000000007 0.15000000000000005
decision_type=2 2 2 2 2
left_child=2 -2 -1 -3 -4
right_child=1 3 4 -5 -6
leaf_value=-0.030646372928208605 -0.10311359774505775 0.02169636289259122 0.024109240269230624 -0.037339536943890715 0.013169124132267951
leaf_weight=1.1103127235546688 1.4684014180675156 3.3785412749275565 2.9127866551280022 0.65283505618572224 5.0336395697668195
leaf_count=18 32 48 40 14 58
internal_value=0 -0.186347 0.113161 0.121362 0.171793
internal_weight=0 5.49978 9.05674 4.03138 7.94643
internal_count=210 94 116 62 98
shrinkage=0.1


Tree=1
num_leaves=6
num_cat=0
split_feature=0 0 0 0 0
split_gain=0.320304 0.456892 0.320307 0.0533258 0.0174563
threshold=0.45000000000000007 0.35000000000000003 0.25000000000000006 1.0000000180025095e-35 0.15000000000000005
decision_type=2 2 2 2 2
left_child=1 2 3 -1 -5
right_child=-2 -3 -4 4 -6
leaf_value=0.014083720863896105 -0.060239535583804626 0.016022787576288063 -0.061228603100057913 -0.0025192809759805464 -0.0072143762576514867
leaf_weight=1.6779995746910561 0.86817349493503471 14.57918845117092 0.98115452006459125 22.545820772647858 12.206096660345791
leaf_count=18 14 48 32 40 58
internal_value=0 0.0100593 -0.0484618 -0.0332765 -0.0416836
internal_weight=0 51.9903 37.4111 36.4299 34.7519
internal_count=210 196 148 116 98
shrinkage=0.1


Tree=2
num_leaves=6
num_cat=0
split_feature=0 0 0 0 0
split_gain=5.07695 0.810282 0.153708 0.0169997 0.00510704
threshold=0.15000000000000005 0.25000000000000006 0.35000000000000003 1.0000000180025095e-35 0.45000000000000007
decision_type=2 2 2 2 2
left_child=3 -2 -3 -1 -4
right_child=1 2 4 -5 -6
leaf_value=0.045970975324618968 0.0026148594543110278 -0.071512584893822062 -0.028223740972906277 0.055715867152526646 -0.018522359675186399
leaf_weight=2.1514044292271111 11.572944369167088 0.8404950406402375 23.126995116472248 10.660602606832981 0.55566548369824798
leaf_count=18 58 32 48 40 14
internal_value=0 -0.191951 -0.294876 0.540795 -0.279961
internal_weight=0 36.0961 24.5232 12.812 23.6827
internal_count=210 152 94 58 62
shrinkage=0.1


Tree=3
num_leaves=6
num_cat=0
split_feature=0 0 0 0 0
split_gain=0.703848 0.303319 0.189273 0.115516 0.097226
threshold=0.35000000000000003 0.15000000000000005 0.45000000000000007 1.0000000180025095e-35 0.25000000000000006
decision_type=2 2 2 2 2
left_child=1 3 -2 -1 -3
right_child=2 4 -4 -5 -6
leaf_value=-0.015403820367627967 0.022613392573134598 -0.017318005748570151 -0.035357553773235524 0.0033211399201803688 -0.05514785468471084
leaf_weight=4.0438918806612518 12.310620695352551 12.393853615969416 0.59020900167524892 17.780313067138195 0.7187813422642656
leaf_count=18 48 58 14 40 32
internal_value=0 -0.0737092 0.199612 -0.00148481 -0.193917
internal_weight=0 34.9368 12.9008 21.8242 13.1126
internal_count=210 148 62 58 90
shrinkage=0.1


Tree=4
num_leaves=6
num_cat=0
split_feature=0 0 0 0 0
split_gain=0.0922085 0.119139 0.103771 0.0879418 0.0160269
threshold=1.0000000180025095e-35 0.35000000000000003 0.45000000000000007 0.25000000000000006 0.15000000000000005
decision_type=2 2 2 2 2
left_child=-1 3 -3 4 -2
right_child=1 2 -4 -5 -6
leaf_value=0.017407560677426978 -0.0020470676265674937 0.0083565351069283759 -0.038061344460383333 -0.036994395986544609 -0.0069841755090068059
leaf_weight=2.8546881265938273 18.857642553746707 13.014238066971298 0.50012876652181226 0.819140526931732 10.094963692128657
leaf_count=18 40 48 14 32 58
internal_value=0 -0.0114802 0.0663874 -0.0468268 -0.037685
internal_weight=0 43.2861 13.5144 29.7717 28.9526
internal_count=210 192 62 130 98
shrinkage=0.1


Tree=5
num_leaves=6
num_cat=0
split_feature=0 0 0 0 0
split_gain=0.076523 0.0749092 0.0634784 0.0583009 0.00174034
threshold=1.0000000180025095e-35 0.35000000000000003 0.45000000000000007 0.25000000000000006 0.15000000000000005
decision_type=2 2 2 2 2
left_child=-1 3 -3 4 -2
right_child=1 2 -4 -5 -6
leaf_value=0.014667148744249845 -0.0026727253676165695 0.006238370862778171 -0.033556445576516956 -0.031312311487177856 -0.0043192400506196198
leaf_weight=3.3043860755860797 19.220634341239936 13.169365674257275 0.41342538408935142 0.7583097848109891 9.6387967709451896
leaf_count=18 40 48 14 32 58
internal_value=0 -0.0112188 0.0502712 -0.0394183 -0.0322265
internal_weight=0 43.2005 13.5828 29.6177 28.8594
internal_count=210 192 62 130 98
shrinkage=0.1


Tree=6
num_leaves=6
num_cat=0
split_feature=0 0 0 0 0
split_gain=0.0707156 0.0298707 0.0387715 0.0351402 9.39973e-06
threshold=1.0000000180025095e-35 0.35000000000000003 0.25000000000000006 0.45000000000000007 0.15000000000000005
decision_type=2 2 2 2 2
left_child=-1 2 4 -3 -2
right_child=1 3 -4 -5 -6
leaf_value=0.0125514309160602 -0.0024657449020518557 0.0034511155776022207 -0.026367106558076 -0.028965586238478148 -0.002343602139060378
leaf_weight=4.1002018153667441 19.43138054013253 13.473529364913698 0.69273555697873135 0.34291135519743043 9.3237758316099626
leaf_count=18 40 48 32 14 58
internal_value=0 -0.0118951 -0.0298933 0.0264656 -0.0242614
internal_weight=0 43.2643 29.4479 13.8164 28.7552
internal_count=210 192 130 62 98
shrinkage=0.1


Tree=7
num_leaves=6
num_cat=0
split_feature=0 0 0 0 0
split_gain=0.611152 0.286674 0.0427862 0.0263711 0.000858279
threshold=0.35000000000000003 1.0000000180025095e-35 0.45000000000000007 0.25000000000000006 0.15000000000000005
decision_type=2 2 2 2 2
left_child=1 -1 -2 4 -3
right_child=2 3 -4 -5 -6
leaf_value=-0.029454525348549029 0.019923879345242566 -0.0030882517012542038 -0.017788061322609617 -0.023183371342353626 -0.0019243392144467166
leaf_weight=4.8056229799985877 12.184033138677474 20.439448580145843 0.30846399441361505 0.64391777664422889 9.1816178029403073
leaf_count=18 48 40 14 32 58
internal_value=0 -0.0676539 0.189927 -0.0316269 -0.0272747
internal_weight=0 35.0706 12.4925 30.265 29.6211
internal_count=210 148 62 130 98
shrinkage=0.1


Tree=8
num_leaves=6
num_cat=0
split_feature=0 0 0 0 0
split_gain=0.122915 0.0370284 0.0211037 0.0274331 0.00854597
threshold=0.35000000000000003 0.45000000000000007 0.15000000000000005 0.25000000000000006 1.0000000180025095e-35
decision_type=2 2 2 2 2
left_child=2 -2 4 -4 -1
right_child=1 -3 3 -5 -6
leaf_value=0.001183597887534149 0.0076979351505270677 -0.032865842672498986 0.002022231442489766 -0.023553422850624242 -0.0054518417825373481
leaf_weight=2.1191387958824661 16.116522662341598 0.2282262435182919 8.5008384007960522 0.44115743879228903 23.087832346558571
leaf_count=18 48 14 58 32 40
internal_value=0 0.0713153 -0.0341337 0.00760445 -0.04894
internal_weight=0 16.3447 34.149 8.942 25.207
internal_count=210 62 148 90 58
shrinkage=0.1


Tree=9
num_leaves=6
num_cat=0
split_feature=0 0 0 0 0
split_gain=5.70235 0.869845 0.0381504 0.0366457 0.00346473
threshold=0.15000000000000005 0.25000000000000006 1.0000000180025095e-35 0.45000000000000007 0.35000000000000003
decision_type=2 2 2 2 2
left_child=2 -2 -1 4 -3
right_child=1 3 -4 -5 -6
leaf_value=0.043773025657181337 0.0038766835373973915 -0.040473230199246618 0.057901738821090967 0.0059138108736916124 -0.032107375043024362
leaf_weight=2.3134762626141283 9.448561944998799 0.50569174159318819 10.989534355700016 0.25381775433197518 23.522451132535934
leaf_count=18 58 32 40 14 48
internal_value=0 -0.218669 0.554447 -0.318842 -0.322834
internal_weight=0 33.7305 13.303 24.282 24.0281
internal_count=210 152 58 94 80
shrinkage=0.1


Tree=10
num_leaves=6
num_cat=0
split_feature=0 0 0 0 0
split_gain=0.446544 0.0795013 0.0313942 0.0179115 0.00989754
threshold=0.35000000000000003 1.0000000180025095e-35 0.45000000000000007 0.25000000000000006 0.15000000000000005
decision_type=2 2 2 2 2
left_child=1 -1 -2 4 -3
right_child=2 3 -4 -5 -6
leaf_value=-0.019075944187836518 0.017799005034969197 -0.0023809678059726479 -0.012680255502902547 -0.020059916220299703 -0.0063451157851959102
leaf_weight=4.0411174260079852 11.241767073050138 18.737693935632713 0.3484140597283848 0.68663125182501872 9.4873866410925967
leaf_count=18 48 40 14 32 58
internal_value=0 -0.0593801 0.168828 -0.0410167 -0.0371345
internal_weight=0 32.9528 11.5902 28.9117 28.2251
internal_count=210 148 62 130 98
shrinkage=0.1


Tree=11
num_leaves=6
num_cat=0
split_feature=0 0 0 0 0
split_gain=0.14765 0.0373313 0.0144717 0.0113583 4.74989e-06
threshold=1.0000000180025095e-35 0.35000000000000003 0.45000000000000007 0.25000000000000006 0.15000000000000005
decision_type=2 2 2 2 2
left_child=-1 3 -3 4 -2
right_child=1 2 -4 -5 -6
leaf_value=0.020508726616372333 -0.00330329737831439 0.0032679068225874861 -0.018580846189639174 -0.016627983336808629 -0.0033910864320771139
leaf_weight=3.2572615630924693 18.660519614815719 13.081247894093391 0.31034768838435489 0.65769258281215925 9.2025559581816179
leaf_count=18 40 48 14 32 58
internal_value=0 -0.0159386 0.0276157 -0.0363889 -0.0333229
internal_weight=0 41.9124 13.3916 28.5208 27.8631
internal_count=210 192 62 130 98
shrinkage=0.1


Tree=12
num_leaves=6
num_cat=0
split_feature=0 0 0 0 0
split_gain=0.592544 0.257987 0.0241591 0.00802399 7.48479e-06
threshold=0.35000000000000003 1.0000000180025095e-35 0.45000000000000007 0.25000000000000006 0.15000000000000005
decision_type=2 2 2 2 2
left_child=1 -1 -2 4 -3
right_child=2 3 -4 -5 -6
leaf_value=-0.029319803034406351 0.019712573316217188 -0.0031393088632343338 -0.0092595340172532039 -0.014527404128027076 -0.00324951300262189
leaf_weight=4.4408416971564284 11.750140454620119 19.063573949038989 0.29504676070064384 0.63667211052961548 9.1069959094747883
leaf_count=18 48 40 14 32 58
internal_value=0 -0.0688441 0.190029 -0.0342584 -0.0317494
internal_weight=0 33.2481 12.0452 28.8072 28.1706
internal_count=210 148 62 130 98
shrinkage=0.1


Tree=13
num_leaves=6
num_cat=0
split_feature=0 0 0 0 0
split_gain=0.119572 0.0384242 0.0207302 0.00735728 0.00915608
threshold=0.35000000000000003 1.0000000180025095e-35 0.45000000000000007 0.15000000000000005 0.25000000000000006
decision_type=2 2 2 2 2
left_child=1 -1 -2 -3 -5
right_child=2 3 -4 4 -6
leaf_value=0.0084923365245671342 0.0083881004769076877 -0.0054522805612794521 -0.019108915918718411 -0.001277766178298599 -0.014255411801162169
leaf_weight=2.5246064849197891 13.396356876939532 19.959580682218075 0.27990632876753885 8.9079472944140434 0.57898325496353287
leaf_count=18 48 40 14 58 32
internal_value=0 -0.0334744 0.0782533 -0.0436253 -0.0206979
internal_weight=0 31.9711 13.6763 29.4465 9.48693
internal_count=210 148 62 130 90
shrinkage=0.1


Tree=14
num_leaves=6
num_cat=0
split_feature=0 0 0 0 0
split_gain=0.142364 0.0185081 0.0177367 0.0193695 0.00804931
threshold=0.35000000000000003 0.45000000000000007 1.0000000180025095e-35 0.15000000000000005 0.25000000000000006
decision_type=2 2 2 2 2
left_child=2 -2 -1 -4 -5
right_child=1 -3 3 4 -6
leaf_value=0.0044564425655953541 0.0087730368704802154 -0.019080466762492278 -0.0060020724390657402 0.00022447360807803702 -0.012788095910458453
leaf_weight=2.4908369295299044 14.101527199149128 0.24266809364780861 20.941981479525566 8.6609549401327968 0.50297771929763335
leaf_count=18 48 14 40 58 32
internal_value=0 0.0830182 -0.0365322 -0.0432418 -0.00489743
internal_weight=0 14.3442 32.5968 30.1059 9.16393
internal_count=210 62 148 130 90
shrinkage=0.1


Tree=15
num_leaves=6
num_cat=0
split_feature=0 0 0 0 0
split_gain=9.99907 1.4194 0.0545203 0.046733 0.010807
threshold=0.15000000000000005 0.25000000000000006 0.45000000000000007 1.0000000180025095e-35 0.35000000000000003
decision_type=2 2 2 2 2
left_child=3 -2 4 -1 -3
right_child=1 2 -4 -5 -6
leaf_value=0.053747087238895819 0.0051627694704976575 -0.025235367208783152 0.012813246550922298 0.070179101143187622 -0.042525916198496973
leaf_weight=1.9963887613266678 8.5773785603232664 0.3668135380139636 0.18094632704742156 13.008997209370136 24.869650475680828
leaf_count=18 58 32 14 40 48
internal_value=0 -0.300122 -0.418824 0.679929 -0.422746
internal_weight=0 33.9948 25.4174 15.0054 25.2365
internal_count=210 152 94 58 80
shrinkage=0.1


Tree=16
num_leaves=6
num_cat=0
split_feature=0 0 0 0 0
split_gain=0.335033 0.0424995 0.0138087 0.00603357 0.00315456
threshold=0.35000000000000003 1.0000000180025095e-35 0.45000000000000007 0.15000000000000005 0.25000000000000006
decision_type=2 2 2 2 2
left_child=1 -1 -2 -3 -5
right_child=2 3 -4 4 -6
leaf_value=-0.015055788326767348 0.01542349128722114 -0.0027948914234824508 -0.0056584002654897726 -0.0053791889333360855 -0.012516422829025759
leaf_weight=3.8530684150755397 10.962812076322731 18.45615217089653 0.31975584104657245 9.1779133225791156 0.6640764719340958
leaf_count=18 48 40 14 58 32
internal_value=0 -0.0520278 0.14826 -0.0386119 -0.0586077
internal_weight=0 32.1512 11.2826 28.2981 9.84199
internal_count=210 148 62 130 90
shrinkage=0.1


Tree=17
num_leaves=6
num_cat=0
split_feature=0 0 0 0 0
split_gain=0.427622 0.115412 0.0137389 0.0029691 0.00050462
threshold=0.35000000000000003 1.0000000180025095e-35 0.45000000000000007 0.25000000000000006 0.15000000000000005
decision_type=2 2 2 2 2
left_child=1 -1 -2 4 -3
right_child=2 3 -4 -5 -6
leaf_value=-0.021817595382796179 0.017077753718199782 -0.0032113480994152566 -0.0045081728318325858 -0.010338355892839822 -0.0041233696765699251
leaf_weight=4.003531362861394 11.236642226576802 18.414309516549118 0.30280195549130517 0.65225574490614135 9.0474858754314464
leaf_count=18 48 40 14 32 58
internal_value=0 -0.0593231 0.165113 -0.036702 -0.0351182
internal_weight=0 32.1176 11.5394 28.1141 27.4618
internal_count=210 148 62 130 98
shrinkage=0.1


Tree=18
num_leaves=6
num_cat=0
split_feature=0 0 0 0 0
split_gain=0.133818 0.0431004 0.00591531 0.0017216 0.00178636
threshold=1.0000000180025095e-35 0.35000000000000003 0.45000000000000007 0.25000000000000006 0.15000000000000005
decision_type=2 2 2 2 2
left_child=-1 3 -3 4 -2
right_child=1 2 -4 -5 -6
leaf_value=0.020918727637895169 -0.0041076858439059389 0.0035834823948936892 -0.011069391986669353 -0.008831551424551734 -0.0023844972831733053
leaf_weight=2.8596314676105967 18.509404391050346 12.878732031211253 0.2815292105078705 0.63080209540203125 8.9127686196006817
leaf_count=18 40 48 14 32 58
internal_value=0 -0.0145147 0.0327002 -0.0366643 -0.0354761
internal_weight=0 41.2132 13.1603 28.053 27.4222
internal_count=210 192 62 130 98
shrinkage=0.1


Tree=19
num_leaves=6
num_cat=0
split_feature=0 0 0 0 0
split_gain=0.336557 0.000829942 0.000890277 0.000565865 0.00103593
threshold=1.0000000180025095e-35 0.15000000000000005 0.45000000000000007 0.25000000000000006 0.35000000000000003
decision_type=2 2 2 2 2
left_child=-1 -2 3 -3 -5
right_child=1 2 -4 4 -6
leaf_value=0.028118361021632728 -0.0031628875816167943 -0.0015640839278388695 -0.0081506262235109938 -0.0066184632967230253 -0.002404363293600996
leaf_weight=3.8891699425876132 18.16114192456007 8.7856615576893127 0.25360257690772314 0.61002034833654661 13.33803637791425
leaf_count=18 40 58 14 32 48
internal_value=0 -0.0265762 -0.0225844 -0.0219271 -0.0258867
internal_weight=0 41.1485 22.9873 22.7337 13.9481
internal_count=210 192 152 138 80
shrinkage=0.1


Tree=20
num_leaves=6
num_cat=0
split_feature=0 0 0 0 0
split_gain=0.376747 0.122775 0.0095526 0.00115895 0.00110016
threshold=0.35000000000000003 1.0000000180025095e-35 0.45000000000000007 0.25000000000000006 0.15000000000000005
decision_type=2 2 2 2 2
left_child=1 -1 -2 4 -3
right_child=2 3 -4 -5 -6
leaf_value=-0.021326867626257042 0.016009678547739228 -0.003434109987015284 -0.0028282684241256054 -0.0074011644196440339 -0.0020840441113325401
leaf_weight=4.2460241317749015 11.244594255462285 19.154179096221931 0.27578941639512849 0.61386602185666461 8.8131716954521817
leaf_count=18 48 40 14 32 58
internal_value=0 -0.0546017 0.155587 -0.0310301 -0.0300867
internal_weight=0 32.8272 11.5204 28.5812 27.9674
internal_count=210 148 62 130 98
shrinkage=0.1


Tree=21
num_leaves=6
num_cat=0
split_feature=0 0 0 0 0
split_gain=0.0981869 0.026346 0.00573583 0.00336645 0.00145756
threshold=1.0000000180025095e-35 0.15000000000000005 0.35000000000000003 0.45000000000000007 0.25000000000000006
decision_type=2 2 2 2 2
left_child=-1 -2 4 -4 -3
right_child=1 2 3 -5 -6
leaf_value=0.016116998792887718 -0.0040951629680990526 -0.00064170290574041601 0.0024869804665627712 -0.0093066518755227905 -0.0058456591118688731
leaf_weight=3.4881567880511275 19.003270126879215 8.6783532532863301 13.196992617100475 0.24655619263649065 0.57380536478012878
leaf_count=18 40 58 48 14 32
internal_value=0 -0.013482 0.00951848 0.0227068 -0.00964445
internal_weight=0 41.699 22.6957 13.4435 9.25216
internal_count=210 192 152 62 90
shrinkage=0.1


Tree=22
num_leaves=6
num_cat=0
split_feature=0 0 0 0 0
split_gain=0.599015 0.35146 0.00996639 0.00563956 0.000827544
threshold=0.35000000000000003 1.0000000180025095e-35 0.45000000000000007 0.15000000000000005 0.25000000000000006
decision_type=2 2 2 2 2
left_child=1 -1 -2 -3 -5
right_child=2 3 -4 4 -6
leaf_value=-0.032521713376053273 0.019287855604545198 -0.0037950752998203506 -0.0014479714596268784 -0.00054657669698706648 -0.0045367689109147629
leaf_weight=4.6321268752217284 12.029589409008619 19.450800500810146 0.23634425923228344 8.6198117551393807 0.55311263841576952
leaf_count=18 48 40 14 58 32
internal_value=0 -0.0696667 0.188883 -0.0283115 -0.00787179
internal_weight=0 33.2559 12.2659 28.6237 9.17292
internal_count=210 148 62 130 90
shrinkage=0.1


Tree=23
num_leaves=6
num_cat=0
split_feature=0 0 0 0 0
split_gain=0.132719 0.0203915 0.0263735 0.00963934 0.00181714
threshold=0.35000000000000003 0.15000000000000005 1.0000000180025095e-35 0.45000000000000007 0.25000000000000006
decision_type=2 2 2 2 2
left_child=1 2 -1 -2 -3
right_child=3 4 -4 -5 -6
leaf_value=0.004738713278031069 0.0083521448677881197 0.00084214148909257192 -0.0062795322445419553 -0.012719383475293578 -0.0055467698983880835
leaf_weight=2.4260969795286682 14.042410001158711 8.4231388429179752 20.775837995111942 0.22050677658990103 0.47001999942585904
leaf_count=18 48 58 40 14 32
internal_value=0 -0.0356689 -0.0512742 0.0802638 0.00504476
internal_weight=0 32.0951 23.2019 14.2629 8.89316
internal_count=210 148 58 62 90
shrinkage=0.1


Tree=24
num_leaves=6
num_cat=0
split_feature=0 0 0 0 0
split_gain=0.131501 0.0107254 0.00807633 0.00789149 0.00190791
threshold=0.15000000000000005 0.35000000000000003 0.45000000000000007 1.0000000180025095e-35 0.25000000000000006
decision_type=2 2 2 2 2
left_child=3 4 -3 -1 -2
right_child=1 2 -4 -5 -6
leaf_value=0.00087893274066475004 0.0025691962166735707 0.0068872553611494655 -0.015372562326584877 -0.0056534402108239503 -0.0050531952548224677
leaf_weight=2.0118245817720917 8.0027758632786572 16.17263982445002 0.16465323325246473 22.898023277521133 0.34243034943938333
leaf_count=18 58 48 14 40 32
internal_value=0 0.0517307 0.0666291 -0.0512586 0.0225643
internal_weight=0 24.6825 16.3373 24.9098 8.34521
internal_count=210 152 62 58 90
shrinkage=0.1


Tree=25
num_leaves=6
num_cat=0
split_feature=0 0 0 0 0
split_gain=5.8969 0.845777 0.0507952 0.0352329 0.00570932
threshold=0.15000000000000005 0.25000000000000006 0.45000000000000007 1.0000000180025095e-35 0.35000000000000003
decision_type=2 2 2 2 2
left_child=3 -2 4 -1 -3
right_child=1 2 -4 -5 -6
leaf_value=0.04424811518206221 0.0039281142998929524 -0.02089009164432544 0.019450757793850526 0.058165675457866751 -0.032962499316186188
leaf_weight=2.1701857708394501 8.7406734353862685 0.3983384087914662 0.18777598137967189 11.238932300359011 23.645418301224709
leaf_count=18 58 32 14 40 48
internal_value=0 -0.227387 -0.323579 0.559132 -0.327625
internal_weight=0 32.9722 24.2315 13.4091 24.0438
internal_count=210 152 94 58 80
shrinkage=0.1


Tree=26
num_leaves=6
num_cat=0
split_feature=0 0 0 0 0
split_gain=0.395087 0.134992 0.0067844 0.00113702 0.000227323
threshold=0.35000000000000003 1.0000000180025095e-35 0.45000000000000007 0.15000000000000005 0.25000000000000006
decision_type=2 2 2 2 2
left_child=1 -1 -2 -3 -5
right_child=2 3 -4 4 -6
leaf_value=-0.022697126365181099 0.016235444114870875 -0.00368002066935184 0.00016076663878290828 -0.00220159097852652 -0.0041998173791226228
leaf_weight=4.0791494138538829 11.284402787685391 18.689857453107834 0.26881357282400209 8.7798451534472406 0.60879355692304749
leaf_count=18 48 40 14 58 32
internal_value=0 -0.056985 0.158614 -0.03229 -0.0233116
internal_weight=0 32.1576 11.5532 28.0785 9.38864
internal_count=210 148 62 130 90
shrinkage=0.1


Tree=27
num_leaves=6
num_cat=0
split_feature=0 0 0 0 0
split_gain=0.098304 0.0411634 0.0075024 0.00246324 0.000300202
threshold=1.0000000180025095e-35 0.35000000000000003 0.15000000000000005 0.45000000000000007 0.25000000000000006
decision_type=2 2 2 2 2
left_child=-1 2 -2 -3 -4
right_child=1 3 4 -5 -6
leaf_value=0.017543306923805613 -0.0045835790894661358 0.0035240224525396671 -0.00095842046504413479 -0.0065125829106528095 -0.0033065228533737025
leaf_weight=2.9789981395006171 18.781714826822281 12.965047388337549 8.6801016130484641 0.24923164350912053 0.58091517700813788
leaf_count=18 40 48 58 14 32
internal_value=0 -0.0126673 -0.0343502 0.0333472 -0.0110571
internal_weight=0 41.257 28.0427 13.2143 9.26102
internal_count=210 192 130 62 90
shrinkage=0.1


Tree=28
num_leaves=6
num_cat=0
split_feature=0 0 0 0 0
split_gain=0.179345 0.0117342 0.000438275 1.68766e-05 0.000127604
threshold=1.0000000180025095e-35 0.15000000000000005 0.45000000000000007 0.35000000000000003 0.25000000000000006
decision_type=2 2 2 2 2
left_child=-1 -2 3 4 -3
right_child=1 2 -4 -5 -6
leaf_value=0.020857593795662183 -0.0037649106337793396 -0.00034281501715339351 -0.0047287808703448224 -0.00026176705848175431 -0.0018998752321288733
leaf_weight=3.7771474197506896 18.648972451686859 8.5852322899736482 0.22920998791232605 13.287239572033286 0.56069998070597726
leaf_count=18 40 58 14 48 32
internal_value=0 -0.0190703 -0.0037818 -0.00333728 -0.00438272
internal_weight=0 41.3114 22.6624 22.4332 9.14593
internal_count=210 192 152 138 90
shrinkage=0.1


Tree=29
num_leaves=6
num_cat=0
split_feature=0 0 0 0 0
split_gain=0.437283 0.202172 0.00641469 0.00578478 0.00011184
threshold=0.35000000000000003 1.0000000180025095e-35 0.15000000000000005 0.45000000000000007 0.25000000000000006
decision_type=2 2 2 2 2
left_child=1 -1 -3 -2 -4
right_child=3 2 4 -5 -6
leaf_value=-0.025783716926109153 0.016828515626900117 -0.0038528528525510843 -0.00055166187765611646 0.0011269739033514155 -0.0020151178773302448
leaf_weight=4.430410496890544 11.575740147382017 19.462602026760578 8.5793817667290568 0.23949473258107976 0.55604538251645941
leaf_count=18 48 40 58 14 32
internal_value=0 -0.059062 -0.0282677 0.165102 -0.00640738
internal_weight=0 33.0284 28.598 11.8152 9.13543
internal_count=210 148 130 62 90
shrinkage=0.1


Tree=30
num_leaves=6
num_cat=0
split_feature=0 0 0 0 0
split_gain=0.0803375 0.0288559 0.0220587 0.00449524 0.000312439
threshold=0.35000000000000003 1.0000000180025095e-35 0.15000000000000005 0.45000000000000007 0.25000000000000006
decision_type=2 2 2 2 2
left_child=1 -1 -3 -2 -4
right_child=3 2 4 -5 -6
leaf_value=0.0066694305306156708 0.0066528321726649622 -0.0055614010271296081 0.0005559604350065748 -0.0077082322464060386 -0.0020144425409250669
leaf_weight=2.951260760426524 13.426329581066963 19.95719650387764 8.4548004055395722 0.22155840834602791 0.50090893614105958
leaf_count=18 48 40 58 14 32
internal_value=0 -0.0274965 -0.0371109 0.064197 0.00412193
internal_weight=0 31.8642 28.9129 13.6479 8.95571
internal_count=210 148 130 62 90
shrinkage=0.1


Tree=31
num_leaves=6
num_cat=0
split_feature=0 0 0 0 0
split_gain=0.113528 0.0200836 0.0160604 0.00503139 0.000335472
threshold=0.15000000000000005 0.35000000000000003 1.0000000180025095e-35 0.45000000000000007 0.25000000000000006
decision_type=2 2 2 2 2
left_child=2 4 -1 -3 -2
right_child=1 3 -4 -5 -6
leaf_value=0.0020130389023485401 0.0013987396850315811 0.0075762906087791975 -0.0058214547255628383 -0.0084345908258302727 -0.0014222763442611282
leaf_weight=2.9929221831262138 8.2937918389216048 13.967977799475191 20.809309676289558 0.19906903663650236 0.44411933678202409
leaf_count=18 58 48 40 14 32
internal_value=0 0.0502579 -0.0483634 0.0735131 0.0125536
internal_weight=0 22.905 23.8022 14.167 8.73791
internal_count=210 152 58 62 90
shrinkage=0.1


Tree=32
num_leaves=6
num_cat=0
split_feature=0 0 0 0 0
split_gain=0.140859 0.0105509 0.00519872 0.00206104 0.000495726
threshold=0.15000000000000005 0.35000000000000003 0.45000000000000007 1.0000000180025095e-35 0.25000000000000006
decision_type=2 2 2 2 2
left_child=3 4 -3 -1 -2
right_child=1 2 -4 -5 -6
leaf_value=-0.0025386285852536071 0.0027191574028720823 0.0071402068492090638 -0.011242213612847635 -0.0055185618413246809 -0.0012083802835314674
leaf_weight=2.584872584789994 7.9491227152757347 15.764565289020537 0.15536404168233353 22.734875589609146 0.33490649890154589
leaf_count=18 58 48 14 40 32
internal_value=0 0.0545472 0.0696081 -0.0521434 0.0256038
internal_weight=0 24.204 15.9199 25.3197 8.28403
internal_count=210 152 62 58 90
shrinkage=0.1


Tree=33
num_leaves=6
num_cat=0
split_feature=0 0 0 0 0
split_gain=6.11604 0.888514 0.0518823 0.0424866 0.0109161
threshold=0.15000000000000005 0.25000000000000006 0.45000000000000007 1.0000000180025095e-35 0.35000000000000003
decision_type=2 2 2 2 2
left_child=3 -2 4 -1 -3
right_child=1 2 -4 -5 -6
leaf_value=0.043954471520451524 0.0040127573305308211 -0.016926711652717405 0.021208988435957279 0.058315908053138424 -0.034048860478325386
leaf_weight=2.5174228455871317 8.6203807448036951 0.37832026230171928 0.17282529594376583 11.335667654871941 23.600054986774921
leaf_count=18 58 32 14 40 48
internal_value=0 -0.235479 -0.333852 0.557061 -0.337787
internal_weight=0 32.7716 24.1512 13.8531 23.9784
internal_count=210 152 94 58 80
shrinkage=0.1


Tree=34
num_leaves=6
num_cat=0
split_feature=0 0 0 0 0
split_gain=0.319015 0.0970028 0.00380739 0.00262875 1.21599e-07
threshold=0.35000000000000003 1.0000000180025095e-35 0.45000000000000007 0.15000000000000005 0.25000000000000006
decision_type=2 2 2 2 2
left_child=1 -1 -2 -3 -5
right_child=2 3 -4 4 -6
leaf_value=-0.019440278420447456 0.014696893851970842 -0.0036578593408091772 0.0024488772279930263 -0.0015990146511524696 -0.0016457089391842584
leaf_weight=4.1021636798977843 11.093627742491659 18.883428238332272 0.25974502600729543 8.6784518738277256 0.59600253892131227
leaf_count=18 48 40 14 58 32
internal_value=0 -0.050737 0.144167 -0.0298072 -0.0160202
internal_weight=0 32.26 11.3534 28.1579 9.27445
internal_count=210 148 62 130 90
shrinkage=0.1


Tree=35
num_leaves=6
num_cat=0
split_feature=0 0 0 0 0
split_gain=0.645234 0.398949 0.005967 0.00560291 6.78038e-05
threshold=0.35000000000000003 1.0000000180025095e-35 0.45000000000000007 0.15000000000000005 0.25000000000000006
decision_type=2 2 2 2 2
left_child=1 -1 -2 -3 -5
right_child=2 3 -4 4 -6
leaf_value=-0.03464007584957092 0.020065928950501619 -0.0038352711800179206 0.0038877660454078086 -0.00088255962496992021 0.00024682146628911673
leaf_weight=4.5985980294644824 11.813941462896761 18.570933438837528 0.23246635403484184 8.589766051620245 0.56665314151905555
leaf_count=18 48 40 14 58 32
internal_value=0 -0.0736131 0.197537 -0.0283711 -0.00812667
internal_weight=0 32.326 12.0464 27.7274 9.15642
internal_count=210 148 62 130 90
shrinkage=0.1


Tree=36
num_leaves=6
num_cat=0
split_feature=0 0 0 0 0
split_gain=0.0917512 0.0440181 0.0217726 0.00400214 3.21748e-05
threshold=0.35000000000000003 1.0000000180025095e-35 0.15000000000000005 0.45000000000000007 0.25000000000000006
decision_type=2 2 2 2 2
left_child=1 -1 -3 -2 -4
right_child=3 2 4 -5 -6
leaf_value=0.0099986100884740838 0.0071399287838293697 -0.0059689698256996547 1.4409535103575715e-05 -0.006033503129222479 -0.00079055684488738725
leaf_weight=2.4051010049879578 13.17475866898894 19.501537136733532 8.5156620875932276 0.23472749255597669 0.52729259710759002
leaf_count=18 48 40 58 14 32
internal_value=0 -0.029936 -0.0408829 0.0690933 -0.000325279
internal_weight=0 30.9496 28.5445 13.4095 9.04295
internal_count=210 148 130 62 90
shrinkage=0.1


Tree=37
num_leaves=6
num_cat=0
split_feature=0 0 0 0 0
split_gain=0.110493 0.0284777 0.0290979 0.00432561 4.24011e-05
threshold=0.35000000000000003 1.0000000180025095e-35 0.15000000000000005 0.45000000000000007 0.25000000000000006
decision_type=2 2 2 2 2
left_child=1 -1 -3 -2 -4
right_child=3 2 4 -5 -6
leaf_value=0.0070825707275294116 0.0076982611269385401 -0.0062596899078941962 0.00066610741347630006 -0.00648328945214927 -0.00029505210733445184
leaf_weight=2.4479862451553371 13.53917319886386 20.065285705029964 8.4019438312388957 0.21855175402015525 0.48549341433681625
leaf_count=18 48 40 58 14 32
internal_value=0 -0.0327416 -0.0414984 0.0747298 0.00613602
internal_weight=0 31.4007 28.9527 13.7577 8.88744
internal_count=210 148 130 62 90
shrinkage=0.1


Tree=38
num_leaves=6
num_cat=0
split_feature=0 0 0 0 0
split_gain=0.141262 0.0223657 0.0214993 0.0047964 7.493e-05
threshold=0.15000000000000005 0.35000000000000003 1.0000000180025095e-35 0.45000000000000007 0.25000000000000006
decision_type=2 2 2 2 2
left_child=2 4 -1 -3 -2
right_child=1 3 -4 -5 -6
leaf_value=0.0035924064352962286 0.0015661595316156273 0.008135514640698064 -0.0064819536403878126 -0.0077733235725505629 0.00019115827048963641
leaf_weight=2.3546353876590755 8.2078709639608842 14.369650907814501 21.105503708124161 0.19204570632428009 0.41643066401593465
leaf_count=18 58 48 40 14 32
internal_value=0 0.055355 -0.0547082 0.079257 0.0149977
internal_weight=0 23.186 23.4601 14.5617 8.6243
internal_count=210 152 58 62 90
shrinkage=0.1


Tree=39
num_leaves=6
num_cat=0
split_feature=0 0 0 0 0
split_gain=9.12651 1.24574 0.0605096 0.0454226 0.00822663
threshold=0.15000000000000005 0.35000000000000003 0.45000000000000007 1.0000000180025095e-35 0.25000000000000006
decision_type=2 2 2 2 2
left_child=3 4 -3 -1 -2
right_child=1 2 -4 -5 -6
leaf_value=0.051449968064196577 0.0045011460168008005 -0.040668468205806163 0.02230849863783561 0.067893193449844402 -0.011809727234878517
leaf_weight=1.9351250119507284 8.2804810439702088 24.624430015683178 0.15351823670789499 12.740198843181133 0.32121533562894988
leaf_count=18 58 48 14 40 32
internal_value=0 -0.288959 -0.402783 0.657249 0.0389204
internal_weight=0 33.3796 24.7779 14.6753 8.6017
internal_count=210 152 62 58 90
shrinkage=0.1


Tree=40
num_leaves=6
num_cat=0
split_feature=0 0 0 0 0
split_gain=0.294282 0.0754178 0.00294598 0.00260842 8.28577e-05
threshold=0.35000000000000003 1.0000000180025095e-35 0.45000000000000007 0.15000000000000005 0.25000000000000006
decision_type=2 2 2 2 2
left_child=1 -1 -2 -3 -5
right_child=2 3 -4 4 -6
leaf_value=-0.01799715366271774 0.014117501457160161 -0.003804624668698544 0.003479056045628186 -0.0018293633248684057 -0.00062483259273867376
leaf_weight=3.8828565329313305 11.016625912860032 18.485803216695786 0.26659870473668057 8.6701176636852324 0.61134864203631956
leaf_count=18 48 40 14 58 32
internal_value=0 -0.0494326 0.138661 -0.0311786 -0.0175002
internal_weight=0 31.6501 11.2832 27.7673 9.28147
internal_count=210 148 62 130 90
shrinkage=0.1


Tree=41
num_leaves=6
num_cat=0
split_feature=0 0 0 0 0
split_gain=0.555402 0.307067 0.00480525 0.00457036 0.000271459
threshold=0.35000000000000003 1.0000000180025095e-35 0.15000000000000005 0.45000000000000007 0.25000000000000006
decision_type=2 2 2 2 2
left_child=1 -1 -3 -2 -4
right_child=3 2 4 -5 -6
leaf_value=-0.031452728543170133 0.018841638682424416 -0.0038816567582660834 -0.0012195622528195201 0.0050084425205030236 0.00099590171613447701
leaf_weight=4.3811735361814526 11.528944990597662 18.226476617157459 8.5978274210356176 0.24389174766838628 0.59108532289974469
leaf_count=18 48 40 58 14 32
internal_value=0 -0.068701 -0.0294163 0.185551 -0.0107705
internal_weight=0 31.7966 27.4154 11.7728 9.18891
internal_count=210 148 130 62 90
shrinkage=0.1


Tree=42
num_leaves=6
num_cat=0
split_feature=0 0 0 0 0
split_gain=0.0566061 0.0729474 0.0156054 0.00197005 3.87723e-05
threshold=1.0000000180025095e-35 0.35000000000000003 0.15000000000000005 0.45000000000000007 0.25000000000000006
decision_type=2 2 2 2 2
left_child=-1 2 -2 -3 -4
right_child=1 3 4 -5 -6
leaf_value=0.014764303466406864 -0.005411120004780611 0.0054530898936714202 -0.00042527519727611219 -0.0036006766534618889 0.00042688528784595964
leaf_weight=2.4504264965653411 18.824682712554932 12.82963032275438 8.5554905915632844 0.24492399021983224 0.56946149049326855
leaf_count=18 40 48 58 14 32
internal_value=0 -0.00881888 -0.0376599 0.0528349 -0.00372094
internal_weight=0 41.0242 27.9496 13.0746 9.12495
internal_count=210 192 130 62 90
shrinkage=0.1


Tree=43
num_leaves=6
num_cat=0
split_feature=0 0 0 0 0
split_gain=0.0501121 0.0739813 0.0141633 0.00180246 4.05698e-05
threshold=1.0000000180025095e-35 0.15000000000000005 0.35000000000000003 0.45000000000000007 0.25000000000000006
decision_type=2 2 2 2 2
left_child=-1 -2 4 -4 -3
right_child=1 2 3 -5 -6
leaf_value=0.013388379877210938 -0.00543042702094702 -3.5565272017924931e-05 0.0053139056907988303 -0.003504448480780192 0.00084991926880490128
leaf_weight=2.6282389424741259 19.025254920125008 8.4988996414467675 12.945000192150472 0.23601335939019999 0.55096062924712974
leaf_count=18 40 58 48 14 32
internal_value=0 -0.00852912 0.0306454 0.0515601 0.000183435
internal_weight=0 41.2561 22.2309 13.181 9.04986
internal_count=210 192 152 62 90
shrinkage=0.1


Tree=44
num_leaves=6
num_cat=0
split_feature=0 0 0 0 0
split_gain=0.0494097 0.0579753 0.0210117 0.00166695 4.27995e-05
threshold=0.35000000000000003 1.0000000180025095e-35 0.15000000000000005 0.45000000000000007 0.25000000000000006
decision_type=2 2 2 2 2
left_child=1 -1 -3 -2 -4
right_child=3 2 4 -5 -6
leaf_value=0.011420278593903835 0.0052427986099042659 -0.0054131031906191375 0.00039280053751169293 -0.0034314485625126438 0.0013209162772004053
leaf_weight=2.8460797667503384 13.094294881448146 19.284682631492615 8.4318715049885213 0.22535699279978949 0.52797228679992336
leaf_count=18 48 40 58 14 32
internal_value=0 -0.0218322 -0.0355398 0.0509604 0.00447491
internal_weight=0 31.0906 28.2445 13.3197 8.95984
internal_count=210 148 130 62 90
shrinkage=0.1


Tree=45
num_leaves=6
num_cat=0
split_feature=0 0 0 0 0
split_gain=0.0557952 0.0513773 0.0100399 0.00164477 4.29977e-05
threshold=0.15000000000000005 1.0000000180025095e-35 0.35000000000000003 0.45000000000000007 0.25000000000000006
decision_type=2 2 2 2 2
left_child=1 -1 4 -4 -2
right_child=2 -3 3 -5 -6
leaf_value=0.0084946711887147648 0.00087542055857896175 -0.0053735237746694881 0.0054024327205118182 -0.0034651794666170758 0.0018312785219991201
leaf_weight=3.0917449630796936 8.3495556563138944 19.646205961704254 13.293957918882368 0.21251028683036643 0.49871668056584967
leaf_count=18 58 40 48 14 32
internal_value=0 -0.0348783 0.0354761 0.0526291 0.00929296
internal_weight=0 22.738 22.3547 13.5065 8.84827
internal_count=210 58 152 62 90
shrinkage=0.1


Tree=46
num_leaves=6
num_cat=0
split_feature=0 0 0 0 0
split_gain=0.0788398 0.025992 0.0107549 0.0019244 3.49592e-05
threshold=0.15000000000000005 1.0000000180025095e-35 0.35000000000000003 0.45000000000000007 0.25000000000000006
decision_type=2 2 2 2 2
left_child=1 -1 4 -4 -2
right_child=2 -3 3 -5 -6
leaf_value=0.0041824702483827178 0.0014322281111346625 -0.0053925566428753855 0.0061114225518181737 -0.0038484036219489054 0.0023285660569055278
leaf_weight=3.297607988119128 8.2424902282655221 20.210993923246861 13.594106934964655 0.19680409086868245 0.45938057126477438
leaf_count=18 58 40 48 14 32
internal_value=0 -0.0404944 0.0423233 0.0596929 0.0147955
internal_weight=0 23.5086 22.4928 13.7909 8.70187
internal_count=210 58 152 62 90
shrinkage=0.1


Tree=47
num_leaves=6
num_cat=0
split_feature=0 0 0 0 0
split_gain=0.126618 0.013696 0.00554477 0.00274118 1.05271e-05
threshold=0.15000000000000005 0.35000000000000003 1.0000000180025095e-35 0.45000000000000007 0.25000000000000006
decision_type=2 2 2 2 2
left_child=2 4 -1 -3 -2
right_child=1 3 -4 -5 -6
leaf_value=-0.0011638768300822663 0.0021303982192601217 0.0073726110404145912 -0.0055862008588118848 -0.005225868260889114 0.0026569502145607281
leaf_weight=3.2720417939126518 8.0769955501891655 14.25328581407666 21.235890910029411 0.17482157563790757 0.39841606700792986
leaf_count=18 58 48 40 14 32
internal_value=0 0.0534573 -0.0499578 0.0721996 0.0215515
internal_weight=0 22.9035 24.5079 14.4281 8.47541
internal_count=210 152 58 62 90
shrinkage=0.1


Tree=48
num_leaves=6
num_cat=0
split_feature=0 0 0 0 0
split_gain=9.56765 1.33439 0.0607204 0.0448568 0.00602088
threshold=0.15000000000000005 0.35000000000000003 0.45000000000000007 1.0000000180025095e-35 0.25000000000000006
decision_type=2 2 2 2 2
left_child=3 4 -3 -1 -2
right_child=1 2 -4 -5 -6
leaf_value=0.053202000203242297 0.0045085817159158442 -0.042340933019605426 0.022963123909792396 0.067652831862859406 -0.0096539426574201066
leaf_weight=2.5816465765237782 8.1808463472407276 24.556319259107116 0.14321216475218437 12.789181672036648 0.31161167437676418
leaf_count=18 58 48 14 40 32
internal_value=0 -0.302053 -0.419623 0.652257 0.0398892
internal_weight=0 33.192 24.6995 15.3708 8.49246
internal_count=210 152 62 58 90
shrinkage=0.1


Tree=49
num_leaves=6
num_cat=0
split_feature=0 0 0 0 0
split_gain=0.243594 0.0692111 0.00343844 0.00170709 0.000206247
threshold=0.35000000000000003 1.0000000180025095e-35 0.15000000000000005 0.45000000000000007 0.25000000000000006
decision_type=2 2 2 2 2
left_child=1 -1 -3 -2 -4
right_child=3 2 4 -5 -6
leaf_value=-0.016516870176160572 0.012992442130312068 -0.0034081470396962565 -0.0011718572696412745 0.0047907075669998715 0.00073322724408966334
leaf_weight=4.1194232963025561 10.794098917394873 18.735126793384552 8.5684157800860703 0.25988213391974646 0.60864165239036161
leaf_count=18 48 40 58 14 32
internal_value=0 -0.044171 -0.0263135 0.127996 -0.0104551
internal_weight=0 32.0316 27.9122 11.054 9.17706
internal_count=210 148 130 62 90
shrinkage=0.1


Tree=50
num_leaves=6
num_cat=0
split_feature=0 0 0 0 0
split_gain=0.291439 0.0919021 0.00610092 0.00228526 0.000228473
threshold=0.35000000000000003 1.0000000180025095e-35 0.15000000000000005 0.45000000000000007 0.25000000000000006
decision_type=2 2 2 2 2
left_child=1 -1 -3 -2 -4
right_child=3 2 4 -5 -6
leaf_value=-0.01906112384210322 0.014004663346275856 -0.0038942444505569262 -0.00087400362538238611 0.0044430776207859098 0.0011515119893045649
leaf_weight=4.0047537609934833 11.056063872762021 18.70887266844511 8.5430708811618388 0.25574511662125665 0.59571500518359322
leaf_count=18 48 40 58 14 32
internal_value=0 -0.0489673 -0.0285976 0.137885 -0.0074197
internal_weight=0 31.8524 27.8477 11.3118 9.13879
internal_count=210 148 130 62 90
shrinkage=0.1


Tree=51
num_leaves=6
num_cat=0
split_feature=0 0 0 0 0
split_gain=0.573761 0.351228 0.00889036 0.00397877 0.0004878
threshold=0.35000000000000003 1.0000000180025095e-35 0.15000000000000005 0.45000000000000007 0.25000000000000006
decision_type=2 2 2 2 2
left_child=1 -1 -3 -2 -4
right_child=3 2 4 -5 -6
leaf_value=-0.032950778464408158 0.01900784300491936 -0.0040069895534639603 -0.00037005736513614975 0.0057947955409816477 0.0026498505698038456
leaf_weight=4.4772836975753334 11.661608448252078 18.431524179875851 8.4767037536948919 0.23244187142700037 0.57090145349502641
leaf_count=18 48 40 58 14 32
internal_value=0 -0.0697854 -0.0274678 0.187496 -0.00179502
internal_weight=0 31.9564 27.4791 11.8941 9.04761
internal_count=210 148 130 62 90
shrinkage=0.1


Tree=52
num_leaves=6
num_cat=0
split_feature=0 0 0 0 0
split_gain=0.0668361 0.0564075 0.0219545 0.00194575 0.0009388
threshold=0.25000000000000006 1.0000000180025095e-35 0.15000000000000005 0.45000000000000007 0.35000000000000003
decision_type=2 2 2 2 2
left_child=1 -1 -3 4 -2
right_child=3 2 -4 -5 -6
leaf_value=0.011869331822813486 0.0018426223947540059 -0.0058082984435417397 0.00031593218016207232 -0.003271146618242007 0.0060975365190614923
leaf_weight=2.4589569084346321 0.5401148244272872 19.158075556159019 8.4289440363645571 0.23392153065651733 12.988306447863579
leaf_count=18 32 40 58 14 48
internal_value=0 -0.026435 -0.039371 0.0577131 0.0592766
internal_weight=0 30.046 27.587 13.7623 13.5284
internal_count=210 116 98 94 80
shrinkage=0.1


Tree=53
num_leaves=6
num_cat=0
split_feature=0 0 0 0 0
split_gain=0.0764568 0.0426151 0.0260709 0.00211186 0.000895174
threshold=0.25000000000000006 1.0000000180025095e-35 0.15000000000000005 0.45000000000000007 0.35000000000000003
decision_type=2 2 2 2 2
left_child=1 -1 -3 4 -2
right_child=3 2 -4 -5 -6
leaf_value=0.0094977401790894839 0.0021957918781820326 -0.0059473461134833816 0.0007277303570218034 -0.0035114649094813866 0.0064557545957076874
leaf_weight=2.5762456879019764 0.5124549781903579 19.506286062300205 8.3584127160720545 0.22311903163790781 13.184785520657897
leaf_count=18 32 40 58 14 48
internal_value=0 -0.0280739 -0.0394506 0.0613917 0.0629638
internal_weight=0 30.4409 27.8647 13.9204 13.6972
internal_count=210 116 98 94 80
shrinkage=0.1


Tree=54
num_leaves=6
num_cat=0
split_feature=0 0 0 0 0
split_gain=0.10016 0.0363947 0.0168605 0.00255561 8.03897e-05
threshold=0.15000000000000005 1.0000000180025095e-35 0.35000000000000003 0.45000000000000007 0.25000000000000006
decision_type=2 2 2 2 2
left_child=1 -1 4 -4 -2
right_child=2 -3 3 -5 -6
leaf_value=0.0063143893893065246 0.0012274761992099362 -0.0061420869490010632 0.0070901662896626534 -0.0040625837466969159 0.0025675653392880859
leaf_weight=2.6564326398074654 8.2603422454558295 20.043602250516415 13.515737939625977 0.20863317279145199 0.47329270769842047
leaf_count=18 58 40 48 14 32
internal_value=0 -0.0468439 0.0473487 0.0692063 0.013001
internal_weight=0 22.7 22.458 13.7244 8.73363
internal_count=210 58 152 62 90
shrinkage=0.1


Tree=55
num_leaves=6
num_cat=0
split_feature=0 0 0 0 0
split_gain=0.137363 0.0178263 0.0171544 0.00317946 4.11043e-05
threshold=0.15000000000000005 1.0000000180025095e-35 0.35000000000000003 0.45000000000000007 0.25000000000000006
decision_type=2 2 2 2 2
left_child=1 -1 4 -4 -2
right_child=2 -3 3 -5 -6
leaf_value=0.0024570290947168285 0.0019003477316852262 -0.0063212298880115153 0.0077807864117227718 -0.0053910092892586097 0.0029261079006922181
leaf_weight=2.5996163524687317 8.0970073253847641 21.008910723030567 14.243746925145386 0.18564690230414349 0.41046067117713464
leaf_count=18 58 40 48 14 32
internal_value=0 -0.0535463 0.0551143 0.0761132 0.0194984
internal_weight=0 23.6085 22.9369 14.4294 8.50747
internal_count=210 58 152 62 90
shrinkage=0.1


Tree=56
num_leaves=6
num_cat=0
split_feature=0 0 0 0 0
split_gain=10.0394 1.35146 0.0623323 0.0440682 0.00462263
threshold=0.15000000000000005 0.35000000000000003 0.45000000000000007 1.0000000180025095e-35 0.25000000000000006
decision_type=2 2 2 2 2
left_child=3 4 -3 -1 -2
right_child=1 2 -4 -5 -6
leaf_value=0.053725538302832887 0.004463719832094949 -0.04274734931356336 0.023573542748681748 0.069487226959456139 -0.0081655855558961932
leaf_weight=2.0504820179194185 8.0952295633032882 24.817611262202266 0.14252774673513968 13.148943196982145 0.30058276269119311
leaf_count=18 58 48 14 40 32
internal_value=0 -0.306946 -0.423686 0.673609 0.0401157
internal_weight=0 33.356 24.9601 15.1994 8.39581
internal_count=210 152 62 58 90
shrinkage=0.1


Tree=57
num_leaves=6
num_cat=0
split_feature=0 0 0 0 0
split_gain=0.248595 0.0652586 0.00576095 0.00166455 0.000335323
threshold=0.35000000000000003 1.0000000180025095e-35 0.15000000000000005 0.45000000000000007 0.25000000000000006
decision_type=2 2 2 2 2
left_child=1 -1 -3 -2 -4
right_child=3 2 4 -5 -6
leaf_value=-0.016631298024822088 0.01301580552696617 -0.0038382968557711577 -0.00093296404874515298 0.0049483094508880193 0.0014931751494158332
leaf_weight=3.9070232100784805 10.902797153219577 18.544164098799229 8.5310388782527298 0.26189498137682754 0.61044497601687997
leaf_count=18 48 40 58 14 32
internal_value=0 -0.0453284 -0.0282549 0.128266 -0.00770953
internal_weight=0 31.5927 27.6856 11.1647 9.14148
internal_count=210 148 130 62 90
shrinkage=0.1


Tree=58
num_leaves=6
num_cat=0
split_feature=0 0 0 0 0
split_gain=0.342071 0.13391 0.00821604 0.0024013 0.000433538
threshold=0.35000000000000003 1.0000000180025095e-35 0.15000000000000005 0.45000000000000007 0.25000000000000006
decision_type=2 2 2 2 2
left_child=1 -1 -3 -2 -4
right_child=3 2 4 -5 -6
leaf_value=-0.022460580749916859 0.015024794037911749 -0.0040984300378016031 -0.00060943651914494154 0.0051671105260530847 0.0021816277966880899
leaf_weight=4.0029525533318546 11.197227728553113 18.483832575380802 8.4956779307685792 0.25269043724984008 0.59554128639865744
leaf_count=18 48 40 58 14 32
internal_value=0 -0.0536898 -0.0288786 0.148072 -0.00426601
internal_weight=0 31.578 27.5751 11.4499 9.09122
internal_count=210 148 130 62 90
shrinkage=0.1


Tree=59
num_leaves=6
num_cat=0
split_feature=0 0 0 0 0
split_gain=0.158275 0.0306855 0.000684543 0.000147763 7.78143e-05
threshold=1.0000000180025095e-35 0.15000000000000005 0.25000000000000006 0.35000000000000003 0.45000000000000007
decision_type=2 2 2 2 2
left_child=-1 -2 -3 -4 -5
right_child=1 2 3 4 -6
leaf_value=0.022028412346802046 -0.0046600533567285468 0.00015255103386472896 0.0028700218023574174 0.0012616151872175832 -0.00058251120156298339
leaf_weight=3.0348420515656462 18.442376047372818 8.4316627429798245 0.57255733723286439 12.916756517253814 0.23293804284185249
leaf_count=18 40 58 32 48 14
internal_value=0 -0.0164677 0.0086169 0.0129742 0.0122895
internal_weight=0 40.5963 22.1539 13.7223 13.1497
internal_count=210 192 152 94 62
shrinkage=0.1


Tree=60
num_leaves=6
num_cat=0
split_feature=0 0 0 0 0
split_gain=0.545924 0.337984 0.0115556 0.00355421 0.000628078
threshold=0.35000000000000003 1.0000000180025095e-35 0.15000000000000005 0.45000000000000007 0.25000000000000006
decision_type=2 2 2 2 2
left_child=1 -1 -3 -2 -4
right_child=3 2 4 -5 -6
leaf_value=-0.032356109198022481 0.018528806072729762 -0.004092682612481466 6.2465462873053721e-05 0.0059765943746799459 0.0035105756505869794
leaf_weight=4.4554859884083298 11.668568027205762 18.550461634993553 8.4054000563919544 0.23002814268693408 0.56369116005953479
leaf_count=18 48 40 58 14 32
internal_value=0 -0.0680466 -0.0266782 0.182861 0.00279173
internal_weight=0 31.975 27.5196 11.8986 8.96909
internal_count=210 148 130 62 90
shrinkage=0.1


Tree=61
num_leaves=6
num_cat=0
split_feature=0 0 0 0 0
split_gain=0.0681404 0.0512985 0.025344 0.0018006 0.000569328
threshold=0.25000000000000006 1.0000000180025095e-35 0.15000000000000005 0.45000000000000007 0.35000000000000003
decision_type=2 2 2 2 2
left_child=1 -1 -3 4 -2
right_child=3 2 -4 -5 -6
leaf_value=0.011048227236504803 0.0027508881622311577 -0.0059040479275962671 0.00069105755725937994 -0.0029671162959850911 0.006096219732448822
leaf_weight=2.5006801337003735 0.52936636668163828 19.260638125240803 8.3541409145109373 0.22946190414950329 13.047280816361308
leaf_count=18 32 40 58 14 48
internal_value=0 -0.0266688 -0.0390887 0.0581731 0.0596578
internal_weight=0 30.1155 27.6148 13.8061 13.5766
internal_count=210 116 98 94 80
shrinkage=0.1


Tree=62
num_leaves=6
num_cat=0
split_feature=0 0 0 0 0
split_gain=0.0841954 0.0483511 0.0143833 0.00208798 0.000185794
threshold=0.15000000000000005 1.0000000180025095e-35 0.35000000000000003 0.45000000000000007 0.25000000000000006
decision_type=2 2 2 2 2
left_child=1 -1 4 -4 -2
right_child=2 -3 3 -5 -6
leaf_value=0.008438984317601329 0.001083586943695921 -0.0060467207447462493 0.0065561212033755437 -0.0033134372695287429 0.0030709941961125451
leaf_weight=2.6102385222911861 8.2800258230417949 19.655617997050285 13.276526683941482 0.21787094278261143 0.4987223398638897
leaf_count=18 58 40 48 14 32
internal_value=0 -0.0434855 0.0434713 0.0639677 0.0119649
internal_weight=0 22.2659 22.2731 13.4944 8.77875
internal_count=210 58 152 62 90
shrinkage=0.1


Tree=63
num_leaves=6
num_cat=0
split_feature=0 0 0 0 0
split_gain=0.112907 0.0298411 0.0157721 0.00256274 0.000144269
threshold=0.15000000000000005 1.0000000180025095e-35 0.35000000000000003 0.45000000000000007 0.25000000000000006
decision_type=2 2 2 2 2
left_child=1 -1 4 -4 -2
right_child=2 -3 3 -5 -6
leaf_value=0.0050229787446545359 0.0015756379738908696 -0.0062416145810854024 0.0072810141545158417 -0.0040755445183538325 0.0034072255266261496
leaf_weight=2.6600171737372902 8.1713813971728069 20.290272690355778 13.690788144245742 0.20163257978856641 0.45393900596536768
leaf_count=18 58 40 48 14 32
internal_value=0 -0.0493601 0.0503083 0.0711619 0.0167203
internal_weight=0 22.9503 22.5177 13.8924 8.62532
internal_count=210 58 152 62 90
shrinkage=0.1


Tree=64
num_leaves=6
num_cat=0
split_feature=0 0 0 0 0
split_gain=0.147599 0.0145663 0.0122394 0.00317996 7.27156e-05
threshold=0.15000000000000005 0.35000000000000003 1.0000000180025095e-35 0.45000000000000007 0.25000000000000006
decision_type=2 2 2 2 2
left_child=2 4 -1 -3 -2
right_child=1 3 -4 -5 -6
leaf_value=0.001118280732998902 0.0022743010482057014 0.0077152103675733929 -0.0062658985788676047 -0.0059101704097733188 0.0036942315087453064
leaf_weight=2.50606416538358 7.9714884930290282 14.71728555485606 21.52128554880619 0.17330416291952211 0.37774687772616727
leaf_count=18 58 48 40 14 32
internal_value=0 0.0568196 -0.0549573 0.0755663 0.0233854
internal_weight=0 23.2398 24.0273 14.8906 8.34924
internal_count=210 152 58 62 90
shrinkage=0.1


Tree=65
num_leaves=6
num_cat=0
split_feature=0 0 0 0 0
split_gain=7.82292 1.07815 0.0598483 0.0400856 0.00583175
threshold=0.15000000000000005 0.35000000000000003 0.45000000000000007 1.0000000180025095e-35 0.25000000000000006
decision_type=2 2 2 2 2
left_child=3 4 -3 -1 -2
right_child=1 2 -4 -5 -6
leaf_value=0.049205117605639892 0.0041631280157939906 -0.03800007038808606 0.02437144410333519 0.063914316475300437 -0.0093735225963553891
leaf_weight=2.186312057077882 8.240189546020698 24.174610648304228 0.15482889744453032 12.142564825713634 0.33104171149898398
leaf_count=18 58 48 14 40 32
internal_value=0 -0.268585 -0.376031 0.6167 0.0364031
internal_weight=0 32.9007 24.3294 14.3289 8.57123
internal_count=210 152 62 58 90
shrinkage=0.1


Tree=66
num_leaves=6
num_cat=0
split_feature=0 0 0 0 0
split_gain=0.272203 0.0890135 0.00901791 0.00169918 0.000473034
threshold=0.35000000000000003 1.0000000180025095e-35 0.15000000000000005 0.45000000000000007 0.25000000000000006
decision_type=2 2 2 2 2
left_child=1 -1 -3 -2 -4
right_child=3 2 4 -5 -6
leaf_value=-0.018743506430914825 0.013528802843631331 -0.0039984678706644862 -0.00034372204220023617 0.0052668539053634866 0.0025680043870253224
leaf_weight=3.9751030579209354 11.021998838521537 18.651352718472481 8.4532172463368624 0.25468066148459989 0.59737332293298173
leaf_count=18 48 40 58 14 32
internal_value=0 -0.0474968 -0.0274162 0.133422 -0.00151537
internal_weight=0 31.677 27.7019 11.2767 9.05059
internal_count=210 148 130 62 90
shrinkage=0.1


Tree=67
num_leaves=6
num_cat=0
split_feature=0 0 0 0 0
split_gain=0.497281 0.291506 0.0116736 0.00304806 0.000740214
threshold=0.35000000000000003 1.0000000180025095e-35 0.15000000000000005 0.45000000000000007 0.25000000000000006
decision_type=2 2 2 2 2
left_child=1 -1 -3 -2 -4
right_child=3 2 4 -5 -6
leaf_value=-0.030572682764458223 0.017783929290451708 -0.0041334993360279404 2.6232022844010214e-05 0.0062937103354323539 0.0037344500828019227
leaf_weight=4.344948090612891 11.537643155083057 18.434465870261192 8.4018700115848333 0.23558334587141949 0.57515277294442135
leaf_count=18 48 40 58 14 32
internal_value=0 -0.0650789 -0.0269342 0.17554 0.00263815
internal_weight=0 31.7564 27.4115 11.7732 8.97702
internal_count=210 148 130 62 90
shrinkage=0.1


Tree=68
num_leaves=6
num_cat=0
split_feature=0 0 0 0 0
split_gain=0.0506713 0.0667226 0.0229369 0.00117038 0.000216555
threshold=0.25000000000000006 1.0000000180025095e-35 0.15000000000000005 0.45000000000000007 0.35000000000000003
decision_type=2 2 2 2 2
left_child=1 -1 -3 4 -2
right_child=3 2 -4 -5 -6
leaf_value=0.013189435094388122 0.00321031131101164 -0.0056698701726456855 0.00061612424220781198 -0.0019857772179366164 0.0052412225950173733
leaf_weight=2.5419065356254604 0.54728078865445695 18.989072218537331 8.3605572963133472 0.23326638620346865 12.915772315114737
leaf_count=18 32 40 58 14 48
internal_value=0 -0.0230795 -0.0374829 0.0503699 0.0515866
internal_weight=0 29.8915 27.3496 13.6963 13.4631
internal_count=210 116 98 94 80
shrinkage=0.1


Tree=69
num_leaves=6
num_cat=0
split_feature=0 0 0 0 0
split_gain=0.0556164 0.0689938 0.00908845 0.0011819 0.000160385
threshold=0.15000000000000005 1.0000000180025095e-35 0.25000000000000006 0.45000000000000007 0.35000000000000003
decision_type=2 2 2 2 2
left_child=1 -1 -2 4 -4
right_child=2 -3 3 -5 -6
leaf_value=0.01133861703839162 0.00092596770094319615 -0.0056725008698278283 0.0035178684284326934 -0.0020926668509945829 0.0052998719757995118
leaf_weight=2.7214440964162376 8.3055899937171489 19.240371786057949 0.52538143843412122 0.22399216797202903 13.059456607326865
leaf_count=18 58 40 32 14 48
internal_value=0 -0.0356453 0.0353994 0.0511216 0.0523095
internal_weight=0 21.9618 22.1144 13.8088 13.5848
internal_count=210 58 152 94 80
shrinkage=0.1


Tree=70
num_leaves=6
num_cat=0
split_feature=0 0 0 0 0
split_gain=0.0661736 0.0519149 0.0087879 0.00128381 0.000141253
threshold=0.15000000000000005 1.0000000180025095e-35 0.25000000000000006 0.45000000000000007 0.35000000000000003
decision_type=2 2 2 2 2
left_child=1 -1 -2 4 -4
right_child=2 -3 3 -5 -6
leaf_value=0.0086299446628786552 0.0012828756556044559 -0.0056733643654373021 0.0038657971312608462 -0.0023106281223351671 0.0055826894442019982
leaf_weight=2.9151239804923561 8.2360536931082606 19.593069389462471 0.49716592370532176 0.21256947284564451 13.25608841702342
leaf_count=18 58 40 32 14 48
internal_value=0 -0.0382089 0.038736 0.0540143 0.0552063
internal_weight=0 22.5082 22.2019 13.9658 13.7533
internal_count=210 58 152 94 80
shrinkage=0.1


Tree=71
num_leaves=6
num_cat=0
split_feature=0 0 0 0 0
split_gain=0.0891664 0.0293295 0.0100382 0.00161323 0.000192646
threshold=0.15000000000000005 1.0000000180025095e-35 0.25000000000000006 0.45000000000000007 0.35000000000000003
decision_type=2 2 2 2 2
left_child=1 -1 -2 4 -4
right_child=2 -3 3 -5 -6
leaf_value=0.004764879505858511 0.0017060804776151029 -0.005729528852727735 0.0042197254165078652 -0.0028542240938408694 0.0063038526183791885
leaf_weight=3.0688881576061275 8.141997991129756 20.140915051102638 0.45850999385583863 0.19799856189638451 13.565444629639387
leaf_count=18 58 40 32 14 48
internal_value=0 -0.0434192 0.0450614 0.0610916 0.0623571
internal_weight=0 23.2098 22.364 14.222 14.024
internal_count=210 58 152 94 80
shrinkage=0.1


Tree=72
num_leaves=6
num_cat=0
split_feature=0 0 0 0 0
split_gain=0.130714 0.0125295 0.00920455 0.00235842 0.000189185
threshold=0.15000000000000005 0.35000000000000003 1.0000000180025095e-35 0.45000000000000007 0.25000000000000006
decision_type=2 2 2 2 2
left_child=2 4 -1 -3 -2
right_child=1 3 -4 -5 -6
leaf_value=2.2483818723198003e-05 0.0022508162432542124 0.0073597322614525193 -0.0058656621480155701 -0.0042739209544618495 0.0044846268967131449
leaf_weight=3.0365154966712025 7.9909442295320332 14.242501836270092 21.124021992087364 0.17641462339088398 0.39801993290893722
leaf_count=18 58 48 40 14 32
internal_value=0 0.0542962 -0.0512564 0.072174 0.023568
internal_weight=0 22.8079 24.1605 14.4189 8.38896
internal_count=210 152 58 62 90
shrinkage=0.1


Tree=73
num_leaves=6
num_cat=0
split_feature=0 0 0 0 0
split_gain=9.95707 1.3495 0.0622935 0.0425989 0.00372109
threshold=0.15000000000000005 0.35000000000000003 0.45000000000000007 1.0000000180025095e-35 0.25000000000000006
decision_type=2 2 2 2 2
left_child=3 4 -3 -1 -2
right_child=1 2 -4 -5 -6
leaf_value=0.054121015810777245 0.00434649326900091 -0.042927906448424646 0.024021929836719452 0.068651490202903301 -0.0069910520116982138
leaf_weight=2.3872683923691485 8.0413462717551702 24.691243793815378 0.13976385071873565 13.030050508677959 0.30029962188564319
leaf_count=18 58 48 14 40 32
internal_value=0 -0.308608 -0.425511 0.664015 0.0393834
internal_weight=0 33.1727 24.831 15.4173 8.34165
internal_count=210 152 62 58 90
shrinkage=0.1


Tree=74
num_leaves=6
num_cat=0
split_feature=0 0 0 0 0
split_gain=0.226777 0.0697199 0.00785451 0.00118378 0.000479153
threshold=0.35000000000000003 1.0000000180025095e-35 0.15000000000000005 0.45000000000000007 0.25000000000000006
decision_type=2 2 2 2 2
left_child=1 -1 -3 -2 -4
right_child=3 2 4 -5 -6
leaf_value=-0.016551491887873662 0.012486419299911395 -0.0036759345818085085 -0.00028091290278244892 0.0056315646910915784 0.0026221229277594146
leaf_weight=4.049634717404845 10.810094392858442 18.67124018073082 8.4321977507788688 0.25793755287304598 0.60965786746237516
leaf_count=18 48 40 58 14 32
internal_value=0 -0.0429534 -0.0250439 0.123267 -0.000851723
internal_weight=0 31.7627 27.7131 11.068 9.04186
internal_count=210 148 130 62 90
shrinkage=0.1


Tree=75
num_leaves=6
num_cat=0
split_feature=0 0 0 0 0
split_gain=0.280493 0.0990816 0.0107535 0.00171822 0.000517552
threshold=0.35000000000000003 1.0000000180025095e-35 0.15000000000000005 0.45000000000000007 0.25000000000000006
decision_type=2 2 2 2 2
left_child=1 -1 -3 -2 -4
right_child=3 2 4 -5 -6
leaf_value=-0.019583529564536944 0.013694914375821139 -0.0040812545104736376 -7.5204432476033874e-05 0.0053671394562747644 0.002974009677818698
leaf_weight=3.9813167005777386 11.066781641915437 18.643956296145916 8.4116902106907219 0.25342721492052162 0.59609155950602222
leaf_count=18 48 40 58 14 32
internal_value=0 -0.0483415 -0.0271052 0.135085 0.00126578
internal_weight=0 31.6331 27.6517 11.3202 9.00778
internal_count=210 148 130 62 90
shrinkage=0.1


Tree=76
num_leaves=6
num_cat=0
split_feature=0 0 0 0 0
split_gain=0.669579 0.409828 0.0130707 0.00353164 0.000967044
threshold=1.0000000180025095e-35 0.35000000000000003 0.15000000000000005 0.45000000000000007 0.25000000000000006
decision_type=2 2 2 2 2
left_child=-1 2 -2 -3 -4
right_child=1 3 4 -5 -6
leaf_value=-0.03595558178281727 -0.0040691184104200782 0.019904795652237104 0.00032896571926219919 0.0072886065104477999 0.0045858301558126483
leaf_weight=4.6315083838999263 18.267287515103817 11.748483953066167 8.3485934587661177 0.22615232365205959 0.57010502053890455
leaf_count=18 40 48 58 14 32
internal_value=0 0.0425245 -0.02537 0.196665 0.00601075
internal_weight=0 39.1606 27.186 11.9746 8.9187
internal_count=210 192 130 62 90
shrinkage=0.1


Tree=77
num_leaves=6
num_cat=0
split_feature=0 0 0 0 0
split_gain=0.0689109 0.0668958 0.0127356 0.00158084 0.000351615
threshold=0.15000000000000005 1.0000000180025095e-35 0.25000000000000006 0.45000000000000007 0.35000000000000003
decision_type=2 2 2 2 2
left_child=1 -1 -2 4 -4
right_child=2 -3 3 -5 -6
leaf_value=0.011766706904937807 0.00083824434164075283 -0.0059963128599173745 0.0034359569158921681 -0.0023625055412138983 0.0060411278136586208
leaf_weight=2.3844533301889923 8.3163087884895504 19.126669749617577 0.53963104914873561 0.23346242960542521 12.970864346250892
leaf_count=18 58 40 32 14 48
internal_value=0 -0.0402733 0.0392708 0.0579609 0.0593707
internal_weight=0 21.5111 22.0603 13.744 13.5105
internal_count=210 58 152 94 80
shrinkage=0.1


Tree=78
num_leaves=6
num_cat=0
split_feature=0 0 0 0 0
split_gain=0.082852 0.0544336 0.0131732 0.00183569 0.000309943
threshold=0.15000000000000005 1.0000000180025095e-35 0.35000000000000003 0.45000000000000007 0.25000000000000006
decision_type=2 2 2 2 2
left_child=1 -1 4 -4 -2
right_child=2 -3 3 -5 -6
leaf_value=0.0095944178650933278 0.0011519862747371178 -0.0061339338133053183 0.0064389540143221435 -0.0027009645833238915 0.0036860636515917942
leaf_weight=2.4808925837278393 8.2551253573037666 19.461530864238739 13.166300691664217 0.22347252350300628 0.51263427978847242
leaf_count=18 58 40 48 14 32
internal_value=0 -0.0435563 0.0431334 0.0628641 0.0130015
internal_weight=0 21.9424 22.1575 13.3898 8.76776
internal_count=210 58 152 62 90
shrinkage=0.1


Tree=79
num_leaves=6
num_cat=0
split_feature=0 0 0 0 0
split_gain=0.106097 0.0383523 0.0145161 0.00222966 0.000263696
threshold=0.15000000000000005 1.0000000180025095e-35 0.35000000000000003 0.45000000000000007 0.25000000000000006
decision_type=2 2 2 2 2
left_child=1 -1 4 -4 -2
right_child=2 -3 3 -5 -6
leaf_value=0.0067230572352356731 0.0015390668544745982 -0.0063170030252524909 0.0070646225587436291 -0.0033234510748958619 0.0039640925685953789
leaf_weight=2.5425401553511646 8.1684187178034318 19.974472336471081 13.494003146886824 0.20983079355210144 0.4744507666910075
leaf_count=18 58 40 48 14 32
internal_value=0 -0.0484457 0.0488149 0.0690556 0.0167219
internal_weight=0 22.517 22.3467 13.7038 8.64287
internal_count=210 58 152 62 90
shrinkage=0.1


Tree=80
num_leaves=6
num_cat=0
split_feature=0 0 0 0 0
split_gain=0.139617 0.0209189 0.0154394 0.00283386 0.000188144
threshold=0.15000000000000005 1.0000000180025095e-35 0.35000000000000003 0.45000000000000007 0.25000000000000006
decision_type=2 2 2 2 2
left_child=1 -1 4 -4 -2
right_child=2 -3 3 -5 -6
leaf_value=0.0032400327396874869 0.0020608094271517921 -0.0064650437351957335 0.0077180640989625866 -0.0046405507548546816 0.0042472806021732262
leaf_weight=2.4852770715951946 8.0233875387348217 20.883354991674423 14.192613149061797 0.187998440582306 0.41385175904724825
leaf_count=18 58 40 48 14 32
internal_value=0 -0.054329 0.0556404 0.075565 0.0216806
internal_weight=0 23.3686 22.8179 14.3806 8.43724
internal_count=210 58 152 62 90
shrinkage=0.1


Tree=81
num_leaves=6
num_cat=0
split_feature=0 0 0 0 0
split_gain=0.120658 0.00475591 0.00451807 0.00275184 5.16432e-05
threshold=0.15000000000000005 0.35000000000000003 1.0000000180025095e-35 0.45000000000000007 0.25000000000000006
decision_type=2 2 2 2 2
left_child=2 4 -1 -3 -2
right_child=1 3 -4 -5 -6
leaf_value=-0.00031871964749096749 0.0029157686045864026 0.0060546452543732664 -0.0052734063054192763 -0.0080674676667755636 0.0042664634099637442
leaf_weight=1.9997632205486322 7.6725837483536479 16.507610321044925 23.099534161388874 0.1391454259864976 0.29391702893190075
leaf_count=18 58 48 40 14 32
internal_value=0 0.0497499 -0.0487865 0.059366 0.029656
internal_weight=0 24.6133 25.0993 16.6468 7.9665
internal_count=210 152 58 62 90
shrinkage=0.1


Tree=82
num_leaves=6
num_cat=0
split_feature=0 0 0 0 0
split_gain=5.94969 0.835025 0.0570729 0.0341124 0.00706453
threshold=0.15000000000000005 0.35000000000000003 0.45000000000000007 1.0000000180025095e-35 0.25000000000000006
decision_type=2 2 2 2 2
left_child=3 4 -3 -1 -2
right_child=1 2 -4 -5 -6
leaf_value=0.044232941381376456 0.0038891176065780509 -0.033316565072387956 0.025526438821170918 0.057857512232475532 -0.010410813924641034
leaf_weight=2.1922046188265059 8.3399911241140181 23.631150186061863 0.16598928440362115 11.362757313996553 0.36040335998404849
leaf_count=18 58 48 14 40 32
internal_value=0 -0.232137 -0.329061 0.55654 0.0329676
internal_weight=0 32.4975 23.7971 13.555 8.70039
internal_count=210 152 62 58 90
shrinkage=0.1


Tree=83
num_leaves=6
num_cat=0
split_feature=0 0 0 0 0
split_gain=0.343165 0.155046 0.0136637 0.00187845 0.000674554
threshold=0.35000000000000003 1.0000000180025095e-35 0.15000000000000005 0.45000000000000007 0.25000000000000006
decision_type=2 2 2 2 2
left_child=1 -1 -3 -2 -4
right_child=3 2 4 -5 -6
leaf_value=-0.02351303753912605 0.014970048665335293 -0.0042103862371294211 0.00031465874459532962 0.0060736834636962982 0.0038443539756386987
leaf_weight=4.0998780429363277 11.278870396316048 18.708882957696915 8.3543201070278883 0.24244315316900689 0.57895097625441927
leaf_count=18 48 40 58 14 32
internal_value=0 -0.0536569 -0.0267407 0.147828 0.00543413
internal_weight=0 31.742 27.6422 11.5213 8.93327
internal_count=210 148 130 62 90
shrinkage=0.1


Tree=84
num_leaves=6
num_cat=0
split_feature=0 0 0 0 0
split_gain=0.101655 0.0460336 0.00100018 0.000224264 0.000121787
threshold=1.0000000180025095e-35 0.15000000000000005 0.25000000000000006 0.35000000000000003 0.45000000000000007
decision_type=2 2 2 2 2
left_child=-1 -2 -3 -4 -5
right_child=1 2 3 4 -6
leaf_value=0.017577145577189934 -0.0049623253079382713 0.00091129298406476323 0.0042792229795364295 0.0022590630535460009 -9.0340141061705508e-05
leaf_weight=3.0606330186128607 18.743231244385242 8.2958784396760166 0.55045485170557995 12.977799073792992 0.224457513540984
leaf_count=18 40 58 32 48 14
internal_value=0 -0.0131882 0.0177848 0.0230158 0.0221912
internal_weight=0 40.7918 22.0486 13.7527 13.2023
internal_count=210 192 152 94 62
shrinkage=0.1


Tree=85
num_leaves=6
num_cat=0
split_feature=0 0 0 0 0
split_gain=0.968592 0.494753 0.0165369 0.00385251 0.00121002
threshold=1.0000000180025095e-35 0.35000000000000003 0.15000000000000005 0.45000000000000007 0.25000000000000006
decision_type=2 2 2 2 2
left_child=-1 2 -2 -3 -4
right_child=1 3 4 -5 -6
leaf_value=-0.041396139424744377 -0.0039850829229184136 0.022027281880677634 0.00098732288245904931 0.0081782386088409386 0.0059083938806974946
leaf_weight=5.0178706273436537 18.522302381694317 12.193313147872683 8.2393150830175728 0.20422936929389912 0.53191633289679963
leaf_count=18 40 48 58 14 32
internal_value=0 0.0523343 -0.0229121 0.217991 0.0128575
internal_weight=0 39.6911 27.2935 12.3975 8.77123
internal_count=210 192 130 62 90
shrinkage=0.1


Tree=86
num_leaves=6
num_cat=0
split_feature=0 0 0 0 0
split_gain=0.120457 0.0406546 0.0172692 0.00260249 0.000280042
threshold=0.15000000000000005 1.0000000180025095e-35 0.35000000000000003 0.45000000000000007 0.25000000000000006
decision_type=2 2 2 2 2
left_child=1 -1 4 -4 -2
right_child=2 -3 3 -5 -6
leaf_value=0.0075203440641869838 0.0015330415002409226 -0.0066480781229478038 0.0075473830850671152 -0.0035872061213043471 0.0040336373534300947
leaf_weight=2.2534911520779159 8.1612046491354686 19.990315452218056 13.553332680836318 0.21321573900058943 0.47385616577230472
leaf_count=18 58 40 48 14 32
internal_value=0 -0.0521269 0.0517598 0.0737493 0.0167026
internal_weight=0 22.2438 22.4016 13.7665 8.63506
internal_count=210 58 152 62 90
shrinkage=0.1


Tree=87
num_leaves=6
num_cat=0
split_feature=0 0 0 0 0
split_gain=0.14997 0.0254675 0.0166879 0.00314654 0.000195478
threshold=0.15000000000000005 1.0000000180025095e-35 0.35000000000000003 0.45000000000000007 0.25000000000000006
decision_type=2 2 2 2 2
left_child=1 -1 4 -4 -2
right_child=2 -3 3 -5 -6
leaf_value=0.0046881357184628521 0.0020675034255577445 -0.0067492108857371991 0.007939640797581032 -0.0050421116355835261 0.0043113569341234831
leaf_weight=2.1461494453251388 8.0042789441067708 20.966370142996311 14.369761280715464 0.18916735704988319 0.40804021374788207
leaf_count=18 58 40 48 14 32
internal_value=0 -0.0568718 0.0572215 0.0777097 0.0217634
internal_weight=0 23.1125 22.9712 14.5589 8.41232
internal_count=210 58 152 62 90
shrinkage=0.1


Tree=88
num_leaves=6
num_cat=0
split_feature=0 0 0 0 0
split_gain=9.7172 1.27038 0.0633142 0.0517933 0.00328993
threshold=0.15000000000000005 0.35000000000000003 0.45000000000000007 1.0000000180025095e-35 0.25000000000000006
decision_type=2 2 2 2 2
left_child=3 4 -3 -1 -2
right_child=1 2 -4 -5 -6
leaf_value=0.050856220624569272 0.0042334746230530918 -0.041669509915749546 0.02462954991812491 0.06940874952324784 -0.0064422321266082664
leaf_weight=1.6993017187342019 8.0134440697729552 24.821366466581825 0.14488178212195535 13.144022986292839 0.29945120017509985
leaf_count=18 58 48 14 40 32
internal_value=0 -0.300107 -0.412848 0.672848 0.0384891
internal_weight=0 33.2791 24.9662 14.8433 8.3129
internal_count=210 152 62 58 90
shrinkage=0.1


Tree=89
num_leaves=6
num_cat=0
split_feature=0 0 0 0 0
split_gain=0.310145 0.122873 0.0118641 0.00168071 0.000698227
threshold=0.35000000000000003 1.0000000180025095e-35 0.15000000000000005 0.45000000000000007 0.25000000000000006
decision_type=2 2 2 2 2
left_child=1 -1 -3 -2 -4
right_child=3 2 4 -5 -6
leaf_value=-0.021682368363554173 0.014327265364107541 -0.0042295464289500645 -3.3080901642450109e-05 0.0061349835445020469 0.0034738535561207361
leaf_weight=3.9286425225436714 11.112727726809677 18.309789575636387 8.394261164823547 0.25620118202641684 0.60891200508922416
leaf_count=18 48 40 58 14 32
internal_value=0 -0.0514656 -0.0276808 0.141427 0.00204104
internal_weight=0 31.2416 27.313 11.3689 9.00317
internal_count=210 148 130 62 90
shrinkage=0.1


Tree=90
num_leaves=6
num_cat=0
split_feature=0 0 0 0 0
split_gain=0.245511 0.0194836 0.00126192 0.000764588 8.15462e-05
threshold=1.0000000180025095e-35 0.15000000000000005 0.35000000000000003 0.25000000000000006 0.45000000000000007
decision_type=2 2 2 2 2
left_child=-1 -2 3 -3 -4
right_child=1 2 4 -5 -6
leaf_value=0.02706911827454277 -0.0045214977526244794 0.00057367571129158048 -0.00075458937840826724 0.0043028502221808046 0.0011303790639167722
leaf_weight=3.110064022243022 18.140856251120567 8.3381255425047112 12.911710115149615 0.58860825130250383 0.23366021830588657
leaf_count=18 40 58 48 32 14
internal_value=0 -0.0209352 -0.000979898 0.00819569 -0.00721084
internal_weight=0 40.213 22.0721 8.92673 13.1454
internal_count=210 192 152 90 62
shrinkage=0.1


Tree=91
num_leaves=6
num_cat=0
split_feature=0 0 0 0 0
split_gain=0.374913 0.18634 0.0141061 0.00223431 0.00074287
threshold=0.35000000000000003 1.0000000180025095e-35 0.15000000000000005 0.45000000000000007 0.25000000000000006
decision_type=2 2 2 2 2
left_child=1 -1 -3 -2 -4
right_child=3 2 4 -5 -6
leaf_value=-0.025489114089257338 0.015609400356616092 -0.0042456208258763424 0.00035207752511968576 0.0059718774951737254 0.0040287108191640704
leaf_weight=4.1154149957001236 11.315135610289868 18.489433959126472 8.3421822779346257 0.24577960325405079 0.5883123072562747
leaf_count=18 48 40 58 14 32
internal_value=0 -0.0564732 -0.026693 0.154045 0.00594282
internal_weight=0 31.5353 27.4199 11.5609 8.93049
internal_count=210 148 130 62 90
shrinkage=0.1


Tree=92
num_leaves=6
num_cat=0
split_feature=0 0 0 0 0
split_gain=0.0882434 0.0563402 0.00249045 0.000349475 5.78478e-05
threshold=1.0000000180025095e-35 0.15000000000000005 0.25000000000000006 0.45000000000000007 0.35000000000000003
decision_type=2 2 2 2 2
left_child=-1 -2 -3 4 -4
right_child=1 2 3 -5 -6
leaf_value=0.017175092738794386 -0.0052173344298647902 0.00088551210506254772 0.004140315364434927 -0.00075296735072439007 0.0031050669251383584
leaf_weight=2.7987983003258696 18.693587638437748 8.2982153897173703 0.56338743062223962 0.23358753044158295 12.868061306886375
leaf_count=18 40 58 32 14 48
internal_value=0 -0.0118233 0.0225199 0.030818 0.0314849
internal_weight=0 40.6568 21.9633 13.665 13.4314
internal_count=210 192 152 94 80
shrinkage=0.1


Tree=93
num_leaves=6
num_cat=0
split_feature=0 0 0 0 0
split_gain=0.133111 0.0329934 0.000132052 0.000656952 1.75688e-05
threshold=1.0000000180025095e-35 0.15000000000000005 0.35000000000000003 0.25000000000000006 0.45000000000000007
decision_type=2 2 2 2 2
left_child=-1 -2 3 -3 -4
right_child=1 2 4 -5 -6
leaf_value=0.01926227056972056 -0.0046626469234849277 0.0011256000749540705 0.00086391358261211242 0.0046998779471130936 -3.3845735324862271e-05
leaf_weight=3.3175142817199221 18.669227808713913 8.2497230151202512 13.067612915299831 0.54841398168355293 0.22168132616207081
leaf_count=18 40 58 48 32 14
internal_value=0 -0.0156791 0.0104789 0.013484 0.00848938
internal_weight=0 40.7567 22.0874 8.79814 13.2893
internal_count=210 192 152 90 62
shrinkage=0.1


Tree=94
num_leaves=6
num_cat=0
split_feature=0 0 0 0 0
split_gain=0.502254 0.323317 0.0183076 0.00298952 0.000811166
threshold=0.35000000000000003 1.0000000180025095e-35 0.15000000000000005 0.45000000000000007 0.25000000000000006
decision_type=2 2 2 2 2
left_child=1 -1 -3 -2 -4
right_child=3 2 4 -5 -6
leaf_value=-0.031427924574081216 0.017687403594957598 -0.0042207597732504326 0.00105758093215376 0.0059632685304406539 0.0050625592301844439
leaf_weight=4.479675840586423 11.772096198052164 18.997003875672817 8.2279282188974321 0.22158403880894265 0.53883795521687794
leaf_count=18 48 40 58 14 32
internal_value=0 -0.0649866 -0.0247633 0.174708 0.0130374
internal_weight=0 32.2434 27.7638 11.9937 8.76677
internal_count=210 148 130 62 90
shrinkage=0.1


Tree=95
num_leaves=6
num_cat=0
split_feature=0 0 0 0 0
split_gain=0.0948228 0.0434299 0.0118717 0.00200508 0.000253421
threshold=0.15000000000000005 1.0000000180025095e-35 0.25000000000000006 0.45000000000000007 0.35000000000000003
decision_type=2 2 2 2 2
left_child=1 -1 -2 4 -4
right_child=2 -3 3 -5 -6
leaf_value=0.0075551016208225442 0.0015916306138508158 -0.0061927621168951239 0.0043000962090856288 -0.0031889751499423382 0.0066184178731832181
leaf_weight=2.5999581068754223 8.1529199839569628 19.773959942162037 0.48876571026630417 0.21527799312025384 13.359813887625933
leaf_count=18 58 40 32 14 48
internal_value=0 -0.0459519 0.046277 0.0638772 0.065366
internal_weight=0 22.3739 22.2168 14.0639 13.8486
internal_count=210 58 152 94 80
shrinkage=0.1


Tree=96
num_leaves=6
num_cat=0
split_feature=0 0 0 0 0
split_gain=0.12534 0.0253785 0.0136624 0.00259272 0.000271998
threshold=0.15000000000000005 1.0000000180025095e-35 0.35000000000000003 0.45000000000000007 0.25000000000000006
decision_type=2 2 2 2 2
left_child=1 -1 4 -4 -2
right_child=2 -3 3 -5 -6
leaf_value=0.004109622861256111 0.002002675155830701 -0.0063583964549939909 0.0073792653790964551 -0.0041667600133822105 0.0045600385574372767
leaf_weight=2.6110451482236412 8.040014560101552 20.495394788682461 13.864233253523706 0.19725411105901081 0.43857897946145458
leaf_count=18 58 40 48 14 32
internal_value=0 -0.051755 0.0530555 0.072173 0.0213496
internal_weight=0 23.1064 22.5401 14.0615 8.47859
internal_count=210 58 152 62 90
shrinkage=0.1


Tree=97
num_leaves=6
num_cat=0
split_feature=0 0 0 0 0
split_gain=0.147488 0.0108067 0.00884896 0.00309855 0.000147581
threshold=0.15000000000000005 0.35000000000000003 1.0000000180025095e-35 0.45000000000000007 0.25000000000000006
decision_type=2 2 2 2 2
left_child=2 4 -1 -3 -2
right_child=1 3 -4 -5 -6
leaf_value=0.00037071785319382636 0.0026088862334152831 0.0073466831032444856 -0.0060810823640696648 -0.0065140828347706988 0.0047103094071371705
leaf_weight=2.35326695814729 7.8115384795237333 15.235390983521937 21.996759340167046 0.16300715366378504 0.34913535031955678
leaf_count=18 58 48 40 14 32
internal_value=0 0.0564079 -0.0545756 0.0719995 0.0269879
internal_weight=0 23.5591 24.35 15.3984 8.16067
internal_count=210 152 58 62 90
shrinkage=0.1


Tree=98
num_leaves=6
num_cat=0
split_feature=0 0 0 0 0
split_gain=6.82872 0.943987 0.0587234 0.0370013 0.00575508
threshold=0.15000000000000005 0.35000000000000003 0.45000000000000007 1.0000000180025095e-35 0.25000000000000006
decision_type=2 2 2 2 2
left_child=3 4 -3 -1 -2
right_child=1 2 -4 -5 -6
leaf_value=0.046681913810776923 0.0039771611189338887 -0.035612767178146897 0.024940848193472503 0.060799414294218881 -0.0091822908381711723
leaf_weight=2.2052734792232487 8.2256129262968862 23.875259254127744 0.16123295342549582 11.739615265280008 0.34632709284778762
leaf_count=18 58 48 14 40 32
internal_value=0 -0.250459 -0.352066 0.585668 0.0344549
internal_weight=0 32.6084 24.0365 13.9449 8.57194
internal_count=210 152 62 58 90
shrinkage=0.1


Tree=99
num_leaves=6
num_cat=0
split_feature=0 0 0 0 0
split_gain=0.289065 0.116177 0.0143193 0.00166585 0.000637561
threshold=0.35000000000000003 1.0000000180025095e-35 0.15000000000000005 0.45000000000000007 0.25000000000000006
decision_type=2 2 2 2 2
left_child=1 -1 -3 -2 -4
right_child=3 2 4 -5 -6
leaf_value=-0.020787165806895106 0.013851634417992751 -0.0041753158982101614 0.0004696919260457215 0.0056042685222967015 0.0038669126005861456
leaf_weight=4.0254708714783218 11.126470108516511 18.691499382257462 8.3241353752091527 0.25042207026854235 0.59169391624163925
leaf_count=18 48 40 58 14 32
internal_value=0 -0.0491652 -0.0260239 0.136701 0.00695147
internal_weight=0 31.6328 27.6073 11.3769 8.91583
internal_count=210 148 130 62 90
shrinkage=0.1


end of trees

feature importances:
geographical=500

parameters:
[boosting: gbdt]
[objective: lambdarank]
[metric: ndcg]
[tree_learner: serial]
[device_type: cpu]
[data: ]
[valid: ]
[num_iterations: 100]
[learning_rate: 0.1]
[num_leaves: 16]
[num_threads: -1]
[max_depth: -1]
[min_data_in_leaf: 5]
[min_sum_hessian_in_leaf: 0.001]
[bagging_fraction: 1]
[pos_bagging_fraction: 1]
[neg_bagging_fraction: 1]
[bagging_freq: 0]
[bagging_seed: 3]
[feature_fraction: 1]
[feature_fraction_bynode: 1]
[feature_fraction_seed: 2]
[early_stopping_round: 0]
[first_metric_only: 0]
[max_delta_step: 0]
[lambda_l1: 0]
[lambda_l2: 0]
[min_gain_to_split: 0]
[drop_rate: 0.1]
[max_drop: 50]
[skip_drop: 0.5]
[xgboost_dart_mode: 0]
[uniform_drop: 0]
[drop_seed: 4]
[top_rate: 0.2]
[other_rate: 0.1]
[min_data_per_group: 100]
[max_cat_threshold: 32]
[cat_l2: 10]
[cat_smooth: 10]
[max_cat_to_onehot: 4]
[top_k: 20]
[monotone_constraints: ]
[feature_contri: ]
[forcedsplits_filename: ]
[forcedbins_filename: ]
[refit_decay_rate: 0.9]
[cegb_tradeoff: 1]
[cegb_penalty_split: 0]
[cegb_penalty_feature_lazy: ]
[cegb_penalty_feature_coupled: ]
[verbosity: -1]
[max_bin: 255]
[max_bin_by_feature: ]
[min_data_in_bin: 3]
[bin_construct_sample_cnt: 200000]
[histogram_pool_size: -1]
[data_random_seed: 1]
[output_model: LightGBM_model.txt]
[snapshot_freq: -1]
[input_model: ]
[output_result: LightGBM_predict_result.txt]
[initscore_filename: ]
[valid_data_initscores: ]
[pre_partition: 0]
[enable_bundle: 1]
[max_conflict_rate: 0]
[is_enable_sparse: 1]
[sparse_threshold: 0.8]
[use_missing: 1]
[zero_as_missing: 0]
[two_round: 0]
[save_binary: 0]
[header: 0]
[label_column: ]
[weight_column: ]
[group_column: ]
[ignore_column: ]
[categorical_feature: ]
[predict_raw_score: 0]
[predict_leaf_index: 0]
[predict_contrib: 0]
[num_iteration_predict: -1]
[pred_early_stop: 0]
[pred_early_stop_freq: 10]
[pred_early_stop_margin: 10]
[convert_model_language: ]
[convert_model: gbdt_prediction.cpp]
[num_class: 1]
[is_unbalance: 0]
[scale_pos_weight: 1]
[sigmoid: 1]
[boost_from_average: 1]
[reg_sqrt: 0]
[alpha: 0.9]
[fair_c: 1]
[poisson_max_delta_step: 0.7]
[tweedie_variance_power: 1.5]
[max_position: 20]
[lambdamart_norm: 1]
[label_gain: ]
[metric_freq: 1]
[is_provide_training_metric: 0]
[eval_at: 1]
[multi_error_top_k: 1]
[num_machines: 1]
[local_listen_port: 12400]
[time_out: 120]
[machine_list_filename: ]
[machines: ]
[gpu_platform_id: -1]
[gpu_device_id: -1]
[gpu_use_dp: 0]

end of parameters

pandas_categorical:null
