tree
version=v3
num_class=1
num_tree_per_iteration=1
label_index=0
max_feature_idx=0
objective=lambdarank
feature_names=geographical
feature_infos=[0:0.5]
tree_sizes=745 747 752 761 758 754 759 759 759 756 760 765 762 761 765 758 765 762 761 765 767 766 762 766 765 761 765 766 768 772 765 768 766 772 769 767 766 768 769 766 769 769 768 771 768 769 770 773 769 779 778 777 782 776 777 779 779 779 775 776 778 777 779 779 776 781 779 780 777 779 777 779 781 780 782 780 782 782 781 780 780 777 782 782 781 779 780 782 781 779 780 780 780 779 778 781 777 779 780 779

Tree=0
num_leaves=6
num_cat=0
split_feature=0 0 0 0 0
split_gain=0.947628 0.450872 0.78699 0.0395027 0.00371829
threshold=0.45000000000000007 0.25000000000000006 0.35000000000000003 1.0000000180025095e-35 0.15000000000000005
decision_type=2 2 2 2 2
left_child=1 3 -3 -1 -5
right_child=-2 2 -4 4 -6
leaf_value=0.0025253459293677577 -0.12811192863396301 -0.089673371959390846 0.0055362283720156022 0.0217878717864846 0.017435962498368287
leaf_weight=1.7534724343568076 0.55592080950737077 1.237625379115342 2.9083225773647428 3.0753040518611652 5.4294990329071879
leaf_count=26 14 28 42 42 58
internal_value=0 0.0494439 -0.228852 0.161919 0.190096
internal_weight=0 14.4042 4.14595 10.2583 8.5048
internal_count=210 196 70 126 100
shrinkage=0.1


Tree=1
num_leaves=6
num_cat=0
split_feature=0 0 0 0 0
split_gain=0.499135 0.27661 0.474634 0.0556188 0.00279053
threshold=0.45000000000000007 0.35000000000000003 0.15000000000000005 1.0000000180025095e-35 0.25000000000000006
decision_type=2 2 2 2 2
left_child=1 2 3 -1 -4
right_child=-2 -3 4 -5 -6
leaf_value=0.015015257150761064 -0.11118607741350822 0.01590314874839905 -0.015798580032158917 0.0033517035412571222 -0.020990539557463741
leaf_weight=5.0400662869215038 0.40071207750588561 9.907756354659794 15.060439419001341 21.65408530831337 1.1116095734760172
leaf_count=26 14 42 58 42 28
internal_value=0 0.00844235 -0.0263636 0.0555387 -0.161555
internal_weight=0 52.774 42.8662 26.6942 16.172
internal_count=210 196 154 68 86
shrinkage=0.1


Tree=2
num_leaves=6
num_cat=0
split_feature=0 0 0 0 0
split_gain=0.403674 0.19271 0.149465 0.0380764 0.000328711
threshold=0.25000000000000006 0.45000000000000007 0.35000000000000003 0.15000000000000005 1.0000000180025095e-35
decision_type=2 2 2 2 2
left_child=3 2 -2 4 -1
right_child=1 -3 -4 -5 -6
leaf_value=0.0078674196803888846 -0.050442933981272121 -0.10289776299601197 -0.0099932440101255723 0.00026575200954463387 0.0070479456748162158
leaf_weight=6.3147457167506245 0.98156633507459901 0.24143618345260695 13.174037985503674 10.887142002582548 21.769977279007435
leaf_count=26 28 14 42 58 42
internal_value=0 -0.14309 -0.127981 0.0528606 0.072322
internal_weight=0 14.397 14.1556 38.9719 28.0847
internal_count=210 84 70 126 68
shrinkage=0.1


Tree=3
num_leaves=6
num_cat=0
split_feature=0 0 0 0 0
split_gain=0.0948402 0.0620964 0.155088 0.0796881 0.0646513
threshold=0.45000000000000007 0.35000000000000003 0.25000000000000006 0.15000000000000005 1.0000000180025095e-35
decision_type=2 2 2 2 2
left_child=1 2 3 4 -1
right_child=-2 -3 -4 -5 -6
leaf_value=-0.0056734647803785114 -0.06515411264104487 0.0071347716508517083 -0.042778835341214794 -0.0076184654374058863 0.005120251763461015
leaf_weight=7.5456774309277561 0.22244946798309584 10.516026698052881 0.88958280114456911 11.427892945706843 20.974076196551323
leaf_count=26 14 42 28 58 42
internal_value=0 0.00282232 -0.0148237 -0.00562751 0.0226448
internal_weight=0 51.3533 40.8372 39.9476 28.5198
internal_count=210 196 154 126 68
shrinkage=0.1


Tree=4
num_leaves=6
num_cat=0
split_feature=0 0 0 0 0
split_gain=0.0765499 0.0484523 0.0701397 0.03895 0.0659804
threshold=0.45000000000000007 0.15000000000000005 1.0000000180025095e-35 0.35000000000000003 0.25000000000000006
decision_type=2 2 2 2 2
left_child=1 2 -1 4 -3
right_child=-2 3 -4 -5 -6
leaf_value=-0.0052052366306851727 -0.065479914048493751 -0.0051902837432534488 0.0060241426636020012 0.0010903940856774998 -0.034597528028957707
leaf_weight=7.6254758760333088 0.17790972534567018 10.744525255635379 20.557826094329357 10.711932200938463 0.8212870145216592
leaf_count=26 14 58 42 42 28
internal_value=0 0.00230861 0.0298584 -0.0325443 -0.0727849
internal_weight=0 50.461 28.1833 22.2777 11.5658
internal_count=210 196 68 128 86
shrinkage=0.1


Tree=5
num_leaves=6
num_cat=0
split_feature=0 0 0 0 0
split_gain=0.310188 0.127677 0.0826663 0.0474102 0.0413913
threshold=0.15000000000000005 1.0000000180025095e-35 0.45000000000000007 0.25000000000000006 0.35000000000000003
decision_type=2 2 2 2 2
left_child=1 -1 3 -2 -5
right_child=2 -3 -4 4 -6
leaf_value=0.020942358415790202 -0.0026881797546931688 0.0038916876006262523 -0.077900553689523089 -0.033552886292455106 -0.010262291353428848
leaf_weight=5.6010031849145916 10.468616511672739 20.339998543262482 0.16903454530984063 0.81281455513089795 12.460512775927782
leaf_count=26 58 42 14 28 42
internal_value=0 0.0757315 -0.082161 -0.0771997 -0.116885
internal_weight=0 25.941 23.911 23.7419 13.2733
internal_count=210 68 142 128 70
shrinkage=0.1


Tree=6
num_leaves=6
num_cat=0
split_feature=0 0 0 0 0
split_gain=0.0485855 0.0672046 0.0495986 0.0372793 0.0404591
threshold=0.35000000000000003 0.25000000000000006 0.45000000000000007 0.15000000000000005 1.0000000180025095e-35
decision_type=2 2 2 2 2
left_child=1 3 -2 4 -1
right_child=2 -3 -4 -5 -6
leaf_value=-0.0055611478468645739 0.0070372891064991536 -0.030524814890959453 -0.045495072756599197 -0.0061272807585064214 0.003143211147453659
leaf_weight=7.2044396102428463 10.127991257235404 0.78776262374594719 0.18297510128468356 10.395712111145256 20.634809575974941
leaf_count=26 42 28 14 58 42
internal_value=0 -0.0161314 0.0610507 -0.0101747 0.00890635
internal_weight=0 39.0227 10.311 38.235 27.8392
internal_count=210 154 56 126 68
shrinkage=0.1


Tree=7
num_leaves=6
num_cat=0
split_feature=0 0 0 0 0
split_gain=0.0337249 0.0237283 0.027649 0.0551841 0.0343817
threshold=0.45000000000000007 1.0000000180025095e-35 0.15000000000000005 0.35000000000000003 0.25000000000000006
decision_type=2 2 2 2 2
left_child=1 -1 -3 4 -4
right_child=-2 2 3 -5 -6
leaf_value=-0.005219654809895031 -0.044805112485626498 0.0036845779737390161 -0.0048752627730909463 0.0038101530937549853 -0.026832148013838975
leaf_weight=7.0277999378740779 0.16741778561845322 20.443327188491821 10.143920270726083 10.208424519747496 0.7670879755169161
leaf_count=26 14 42 58 42 28
internal_value=0 0.00154374 0.0106306 -0.0147453 -0.0641892
internal_weight=0 48.5906 41.5628 21.1194 10.911
internal_count=210 196 170 128 86
shrinkage=0.1


Tree=8
num_leaves=6
num_cat=0
split_feature=0 0 0 0 0
split_gain=0.0300805 0.018544 0.0362799 0.031154 0.024897
threshold=0.45000000000000007 1.0000000180025095e-35 0.15000000000000005 0.35000000000000003 0.25000000000000006
decision_type=2 2 2 2 2
left_child=1 -1 -3 4 -4
right_child=-2 2 3 -5 -6
leaf_value=-0.0045377034309255623 -0.045089625797643113 0.0039862971295685683 -0.0044024468329033218 0.0019840571471122846 -0.023367502451493907
leaf_weight=7.2196930125355712 0.14750619372352858 20.173034355044365 10.002836009487508 10.287486772984266 0.74367563473060805
leaf_count=26 14 42 58 42 28
internal_value=0 0.00137343 0.00956436 -0.0194941 -0.0571486
internal_weight=0 48.4267 41.207 21.034 10.7465
internal_count=210 196 170 128 86
shrinkage=0.1


Tree=9
num_leaves=6
num_cat=0
split_feature=0 0 0 0 0
split_gain=0.527811 0.226635 0.0264898 0.0118282 0.00446538
threshold=1.0000000180025095e-35 0.25000000000000006 0.45000000000000007 0.15000000000000005 0.35000000000000003
decision_type=2 2 2 2 2
left_child=-1 3 4 -2 -3
right_child=1 2 -4 -5 -6
leaf_value=0.028357084191448684 0.0024352753460190777 -0.021812318199772949 -0.059541553512898873 -0.0018095053309650712 -0.013796330836599173
leaf_weight=5.7846296019852153 19.891584113240242 0.73623281996696732 0.13039453746751029 9.7981754159554857 12.389089083299041
leaf_count=26 42 28 14 58 42
internal_value=0 -0.0381961 -0.146915 0.0103442 -0.14246
internal_weight=0 42.9455 13.2557 29.6898 13.1253
internal_count=210 184 84 100 70
shrinkage=0.1


Tree=10
num_leaves=6
num_cat=0
split_feature=0 0 0 0 0
split_gain=0.0553877 0.0288469 0.0224769 0.0194414 0.0260482
threshold=0.35000000000000003 0.25000000000000006 0.45000000000000007 1.0000000180025095e-35 0.15000000000000005
decision_type=2 2 2 2 2
left_child=1 3 -2 -1 -5
right_child=2 -3 -4 4 -6
leaf_value=-0.0060180699459047556 0.0072171954046155121 -0.02125514392739887 -0.030617700905364559 0.00177932784785516 -0.0044884078779239894
leaf_weight=7.2002776935696593 9.870947197079655 0.7421557183843096 0.15955709991976696 20.594419367611408 9.7792182955890912
leaf_count=26 42 28 14 42 58
internal_value=0 -0.0173179 0.0661535 -0.0134616 -0.00238658
internal_weight=0 38.3161 10.0305 37.5739 30.3736
internal_count=210 154 56 126 100
shrinkage=0.1


Tree=11
num_leaves=6
num_cat=0
split_feature=0 0 0 0 0
split_gain=0.0243057 0.0151909 0.0186211 0.0360639 0.0168326
threshold=1.0000000180025095e-35 0.45000000000000007 0.35000000000000003 0.15000000000000005 0.25000000000000006
decision_type=2 2 2 2 2
left_child=-1 2 3 -2 -5
right_child=1 -3 -4 4 -6
leaf_value=-0.0054949715609562133 0.0022713099542661925 -0.030498262276954742 0.0048029150982407459 -0.0038519304014184835 -0.019578667319095959
leaf_weight=6.8907363638281813 20.433167263865471 0.15327655547298391 9.9550398103892785 9.6974346050992608 0.73193752113729793
leaf_count=26 42 14 42 58 28
internal_value=0 0.00924179 0.0104218 -0.00170892 -0.0495564
internal_weight=0 40.9709 40.8176 30.8625 10.4294
internal_count=210 184 170 128 86
shrinkage=0.1


Tree=12
num_leaves=6
num_cat=0
split_feature=0 0 0 0 0
split_gain=0.0211092 0.0142203 0.0116379 0.0310682 0.0137084
threshold=1.0000000180025095e-35 0.45000000000000007 0.15000000000000005 0.35000000000000003 0.25000000000000006
decision_type=2 2 2 2 2
left_child=-1 2 -2 4 -4
right_child=1 -3 3 -5 -6
leaf_value=-0.0051494713709164192 0.0026683383877423154 -0.030448727528495336 -0.003562321339925702 0.003254138238776095 -0.017878452823105854
leaf_weight=6.8204853907227507 20.276314280927181 0.14454880030825634 9.640651395544408 10.021678665652871 0.71872403589077372
leaf_count=26 42 14 58 42 28
internal_value=0 0.0086079 0.00972105 -0.00715412 -0.0455556
internal_weight=0 40.8019 40.6574 20.3811 10.3594
internal_count=210 184 170 128 86
shrinkage=0.1


Tree=13
num_leaves=6
num_cat=0
split_feature=0 0 0 0 0
split_gain=0.0175241 0.0175753 0.0182589 0.0143133 0.010548
threshold=1.0000000180025095e-35 0.15000000000000005 0.35000000000000003 0.45000000000000007 0.25000000000000006
decision_type=2 2 2 2 2
left_child=-1 -2 4 -4 -3
right_child=1 2 3 -5 -6
leaf_value=-0.0046350048418137661 0.0028970348554216464 -0.0033671002352575231 0.0021617881852489681 -0.030889677864313576 -0.016025412853230624
leaf_weight=6.9628561474382868 20.090718343853951 9.5889005688950402 10.076791971921919 0.13275248860009092 0.70681689819321125
leaf_count=26 42 58 42 14 28
internal_value=0 0.00794978 -0.0126458 0.0173203 -0.0423611
internal_weight=0 40.596 20.5053 10.2095 10.2957
internal_count=210 184 142 56 86
shrinkage=0.1


Tree=14
num_leaves=6
num_cat=0
split_feature=0 0 0 0 0
split_gain=0.0122405 0.0094054 0.0198783 0.0109559 0.00746939
threshold=0.45000000000000007 0.15000000000000005 1.0000000180025095e-35 0.35000000000000003 0.25000000000000006
decision_type=2 2 2 2 2
left_child=1 2 -1 4 -3
right_child=-2 3 -4 -5 -6
leaf_value=-0.0031387924061686695 -0.032359992855746013 -0.0031252901384623121 0.0029441622001847335 0.00077928904328973113 -0.013856818537271127
leaf_weight=7.3678085096180466 0.1166054189670821 9.5286610424518567 19.833873853087425 10.174209859222174 0.69594785175286311
leaf_count=26 14 58 42 42 28
internal_value=0 0.000792705 0.0129654 -0.0154395 -0.0385574
internal_weight=0 47.6005 27.2017 20.3988 10.2246
internal_count=210 196 68 128 86
shrinkage=0.1


Tree=15
num_leaves=6
num_cat=0
split_feature=0 0 0 0 0
split_gain=0.650221 0.225293 0.0092887 0.00479226 9.43632e-05
threshold=1.0000000180025095e-35 0.25000000000000006 0.45000000000000007 0.15000000000000005 0.35000000000000003
decision_type=2 2 2 2 2
left_child=-1 3 4 -2 -3
right_child=1 2 -4 -5 -6
leaf_value=0.031852991983732697 0.0015114370693470091 -0.013808471293238153 -0.044175371145391967 -0.001230541165424801 -0.015002684071680589
leaf_weight=5.651485424488782 19.713093310594559 0.69945972878485452 0.10958313569426614 9.4197848942130822 12.245877768844366
leaf_count=26 42 28 14 58 42
internal_value=0 -0.0426703 -0.151836 0.0062485 -0.149382
internal_weight=0 42.1878 13.0549 29.1329 12.9453
internal_count=210 184 84 100 70
shrinkage=0.1


Tree=16
num_leaves=6
num_cat=0
split_feature=0 0 0 0 0
split_gain=0.0374337 0.0142155 0.0200837 0.00943249 0.00807284
threshold=0.35000000000000003 1.0000000180025095e-35 0.15000000000000005 0.45000000000000007 0.25000000000000006
decision_type=2 2 2 2 2
left_child=1 -1 -3 -2 -4
right_child=3 2 4 -5 -6
leaf_value=-0.0055617968204610931 0.0058443868102956414 0.0012863405459183339 -0.0033784732310312179 -0.020031686421454351 -0.014373032280790883
leaf_weight=6.8562719449400893 9.7494003055617178 20.391184940934181 9.4370713597163558 0.14293896360322911 0.71869785571470923
leaf_count=26 42 42 58 14 28
internal_value=0 -0.0144683 -0.00523219 0.0547049 -0.0415653
internal_weight=0 37.4032 30.547 9.89234 10.1558
internal_count=210 154 128 56 86
shrinkage=0.1


Tree=17
num_leaves=6
num_cat=0
split_feature=0 0 0 0 0
split_gain=0.0212359 0.0135252 0.0197928 0.00824552 0.00710992
threshold=0.35000000000000003 1.0000000180025095e-35 0.15000000000000005 0.45000000000000007 0.25000000000000006
decision_type=2 2 2 2 2
left_child=1 -1 -3 -2 -4
right_child=3 2 4 -5 -6
leaf_value=-0.0051773947896980917 0.004445356512456815 0.0015964593607892055 -0.003089596701833142 -0.020064673275260458 -0.013458758968312671
leaf_weight=6.6737722940742961 9.8091950602829421 20.279762119054794 9.4065891951322556 0.13920353306457478 0.71126879099756557
leaf_count=26 42 42 58 14 28
internal_value=0 -0.0110091 -0.00205922 0.041024 -0.0381853
internal_weight=0 37.0714 30.3976 9.9484 10.1179
internal_count=210 154 128 56 86
shrinkage=0.1


Tree=18
num_leaves=6
num_cat=0
split_feature=0 0 0 0 0
split_gain=0.0185418 0.00703371 0.0198375 0.00733654 0.00600889
threshold=1.0000000180025095e-35 0.35000000000000003 0.15000000000000005 0.45000000000000007 0.25000000000000006
decision_type=2 2 2 2 2
left_child=-1 2 -2 -3 -4
right_child=1 3 4 -5 -6
leaf_value=-0.0049049366921914113 0.0018570730407414351 0.0034230550516961 -0.0029066981758439732 -0.02012821929476152 -0.012491710027074712
leaf_weight=6.6185874305665484 20.17427109181881 9.8574947156012023 9.3793238950893283 0.13406935054808933 0.70307395537383932
leaf_count=26 42 42 58 14 28
internal_value=0 0.0080659 0.000469197 0.0310704 -0.0357509
internal_weight=0 40.2482 30.2567 9.99156 10.0824
internal_count=210 184 128 56 86
shrinkage=0.1


Tree=19
num_leaves=6
num_cat=0
split_feature=0 0 0 0 0
split_gain=0.0166456 0.00655785 0.0164178 0.00666456 0.00486531
threshold=1.0000000180025095e-35 0.15000000000000005 0.35000000000000003 0.45000000000000007 0.25000000000000006
decision_type=2 2 2 2 2
left_child=-1 -2 4 -4 -3
right_child=1 2 3 -5 -6
leaf_value=-0.0046209168585090313 0.002048302391725459 -0.0027651099716361782 0.0026471015962274305 -0.020391725470269274 -0.011435638052831536
leaf_weight=6.6826603673398486 20.057714231312275 9.352135372348128 9.8974943589419109 0.12717320793308395 0.69528511143289584
leaf_count=26 42 58 42 14 28
internal_value=0 0.00769502 -0.00508384 0.0235483 -0.0336511
internal_weight=0 40.1298 20.0721 10.0247 10.0474
internal_count=210 184 142 56 86
shrinkage=0.1


Tree=20
num_leaves=6
num_cat=0
split_feature=0 0 0 0 0
split_gain=0.0133159 0.00845614 0.0113862 0.00614486 0.00370087
threshold=1.0000000180025095e-35 0.15000000000000005 0.35000000000000003 0.45000000000000007 0.25000000000000006
decision_type=2 2 2 2 2
left_child=-1 -2 4 -4 -3
right_child=1 2 3 -5 -6
leaf_value=-0.0040595035687939242 0.0021599817348496907 -0.0026144002293072861 0.0018956258081465325 -0.021085870407719212 -0.010215129195463985
leaf_weight=6.8921651765704146 19.910104468464851 9.3211957179009897 9.9449160713702422 0.11772441421635528 0.68788506486453205
leaf_count=26 42 58 42 14 28
internal_value=0 0.00699788 -0.00748648 0.0162676 -0.0313677
internal_weight=0 39.9818 20.0717 10.0626 10.0091
internal_count=210 184 142 56 86
shrinkage=0.1


Tree=21
num_leaves=6
num_cat=0
split_feature=0 0 0 0 0
split_gain=0.00579782 0.0113184 0.00541255 0.00558167 0.00255474
threshold=1.0000000180025095e-35 0.15000000000000005 0.35000000000000003 0.45000000000000007 0.25000000000000006
decision_type=2 2 2 2 2
left_child=-1 -2 4 -4 -3
right_child=1 2 3 -5 -6
leaf_value=-0.0025934330418036639 0.0021780841389745067 -0.0024163433956898035 0.0006716813015758572 -0.022487483028248271 -0.0087630550124886027
leaf_weight=7.2864373773336402 19.70212634652853 9.2819092720746976 10.038188118487595 0.10515841981396155 0.6807478859554984
leaf_count=26 42 58 42 14 28
internal_value=0 0.00474699 -0.0119447 0.00431585 -0.0285001
internal_weight=0 39.8081 20.106 10.1433 9.96266
internal_count=210 184 142 56 86
shrinkage=0.1


Tree=22
num_leaves=6
num_cat=0
split_feature=0 0 0 0 0
split_gain=0.847665 0.260557 0.00464509 0.00273819 0.00176677
threshold=1.0000000180025095e-35 0.25000000000000006 0.35000000000000003 0.45000000000000007 0.15000000000000005
decision_type=2 2 2 2 2
left_child=-1 4 -3 -4 -2
right_child=1 2 3 -5 -6
leaf_value=0.036164471326518011 0.00091798856979342599 -0.0086498561367282806 -0.016990630911290935 -0.033898427509092423 -0.00076390433703143123
leaf_weight=5.7018462419509879 19.508381940424442 0.68282539513893148 12.2370872143656 0.096538968849927964 9.1870352616533655
leaf_count=26 42 28 42 14 58
internal_value=0 -0.0494354 -0.166785 -0.17123 0.00379519
internal_weight=0 41.7119 13.0165 12.3336 28.6954
internal_count=210 184 84 56 100
shrinkage=0.1


Tree=23
num_leaves=6
num_cat=0
split_feature=0 0 0 0 0
split_gain=0.0332652 0.0138515 0.010456 0.00428266 0.00347798
threshold=0.35000000000000003 1.0000000180025095e-35 0.15000000000000005 0.45000000000000007 0.25000000000000006
decision_type=2 2 2 2 2
left_child=1 -1 -3 -2 -4
right_child=3 2 4 -5 -6
leaf_value=-0.0054724950872785368 0.0054317001271304514 0.00084178561192378969 -0.0025995013248867136 -0.012619814691765952 -0.0098730538134896902
leaf_weight=6.7369018048048011 9.648498492315408 20.309058375656605 9.2192548988386989 0.13324261689558703 0.70788410142995495
leaf_count=26 42 42 58 14 28
internal_value=0 -0.0137198 -0.00458344 0.0518581 -0.0311816
internal_weight=0 36.9731 30.2362 9.78174 9.92714
internal_count=210 154 128 56 86
shrinkage=0.1


Tree=24
num_leaves=6
num_cat=0
split_feature=0 0 0 0 0
split_gain=0.0215732 0.012827 0.0106416 0.00381413 0.00312932
threshold=0.35000000000000003 1.0000000180025095e-35 0.15000000000000005 0.45000000000000007 0.25000000000000006
decision_type=2 2 2 2 2
left_child=1 -1 -3 -2 -4
right_child=3 2 4 -5 -6
leaf_value=-0.0051160031846847771 0.0043893386549740034 0.0010748605937393502 -0.0024344989914026754 -0.012788245901799179 -0.0093600492274306234
leaf_weight=6.5751249417662612 9.6995879523456061 20.217923358082771 9.2092529525980353 0.13100809324532825 0.70218954863958138
leaf_count=26 42 42 58 14 28
internal_value=0 -0.0111429 -0.00240994 0.0416042 -0.0292515
internal_weight=0 36.7045 30.1294 9.8306 9.91144
internal_count=210 154 128 56 86
shrinkage=0.1


Tree=25
num_leaves=6
num_cat=0
split_feature=0 0 0 0 0
split_gain=0.0178292 0.0086731 0.0109037 0.00344293 0.00271544
threshold=1.0000000180025095e-35 0.35000000000000003 0.15000000000000005 0.45000000000000007 0.25000000000000006
decision_type=2 2 2 2 2
left_child=-1 2 -2 -3 -4
right_child=1 3 4 -5 -6
leaf_value=-0.004855466867419278 0.0012817594449410774 0.0035769813717096625 -0.0023165934467475305 -0.012939766474359769 -0.0087945226202449881
leaf_weight=6.5027846209704867 20.136207520961761 9.742222075350579 9.1976770292967558 0.12786205345764834 0.69606684870086688
leaf_count=26 42 42 58 14 28
internal_value=0 0.00791332 -0.000539155 0.0336302 -0.0277234
internal_weight=0 39.9 30.03 9.87008 9.89374
internal_count=210 184 128 56 86
shrinkage=0.1


Tree=26
num_leaves=6
num_cat=0
split_feature=0 0 0 0 0
split_gain=0.0162847 0.00515624 0.0110762 0.00316484 0.00227225
threshold=1.0000000180025095e-35 0.35000000000000003 0.15000000000000005 0.45000000000000007 0.25000000000000006
decision_type=2 2 2 2 2
left_child=-1 2 -2 -3 -4
right_child=1 3 4 -5 -6
leaf_value=-0.0046370107566672874 0.0014534444451344975 0.002937087535838706 -0.0022222217750472368 -0.013162786349040168 -0.0081719151883618488
leaf_weight=6.5096434652805319 20.052637793123722 9.7775203967466915 9.184620545245707 0.12364133761730124 0.69013161817565638
leaf_count=26 42 42 58 14 28
internal_value=0 0.00757884 0.00103431 0.0273604 -0.0263804
internal_weight=0 39.8286 29.9274 9.90116 9.87475
internal_count=210 184 128 56 86
shrinkage=0.1


Tree=27
num_leaves=6
num_cat=0
split_feature=0 0 0 0 0
split_gain=0.0147187 0.00294607 0.010945 0.00296619 0.0018105
threshold=1.0000000180025095e-35 0.15000000000000005 0.35000000000000003 0.45000000000000007 0.25000000000000006
decision_type=2 2 2 2 2
left_child=-1 -2 4 -4 -3
right_child=1 2 3 -5 -6
leaf_value=-0.0043716518333989365 0.0015837647119750652 -0.0021290289971004676 0.0023945999138342052 -0.013557923078521595 -0.0074605692903758685
leaf_weight=6.6040488854050627 19.956624373793602 9.1692123324610275 9.8102009203284961 0.11795909341890444 0.68447977676987726
leaf_count=26 42 58 42 14 28
internal_value=0 0.00726517 -0.00138304 0.0220506 -0.0249938
internal_weight=0 39.7385 19.7819 9.92816 9.85369
internal_count=210 184 142 56 86
shrinkage=0.1


Tree=28
num_leaves=6
num_cat=0
split_feature=0 0 0 0 0
split_gain=0.0117837 0.00402774 0.00770624 0.00281367 0.00133154
threshold=1.0000000180025095e-35 0.15000000000000005 0.35000000000000003 0.45000000000000007 0.25000000000000006
decision_type=2 2 2 2 2
left_child=-1 -2 4 -4 -3
right_child=1 2 3 -5 -6
leaf_value=-0.0038418651923099035 0.0016676587990590028 -0.0020183874051583821 0.0017888517844133517 -0.014279436826885629 -0.0066083037834432827
leaf_weight=6.812368430197238 19.832927919924259 9.1496077422052604 9.8528435379266721 0.11019557062536556 0.67894009780138809
leaf_count=26 42 58 42 14 28
internal_value=0 0.00660505 -0.00348752 0.0161113 -0.0233545
internal_weight=0 39.6245 19.7916 9.96304 9.82855
internal_count=210 184 142 56 86
shrinkage=0.1


Tree=29
num_leaves=6
num_cat=0
split_feature=0 0 0 0 0
split_gain=0.00570494 0.00582669 0.00373179 0.00262157 0.000863308
threshold=1.0000000180025095e-35 0.15000000000000005 0.35000000000000003 0.45000000000000007 0.25000000000000006
decision_type=2 2 2 2 2
left_child=-1 -2 4 -4 -3
right_child=1 2 3 -5 -6
leaf_value=-0.0025967031591823822 0.0016907895298306384 -0.0018717739602705952 0.00077932186965300621 -0.015490018731350072 -0.0055817203116012458
leaf_weight=7.1618437375873318 19.661292783915997 9.1233851024880988 9.9318507332354766 0.1000400405609988 0.67354118032381016
leaf_count=26 42 58 42 14 28
internal_value=0 0.00470932 -0.00738619 0.00617081 -0.0212683
internal_weight=0 39.4901 19.8288 10.0319 9.79693
internal_count=210 184 142 56 86
shrinkage=0.1


Tree=30
num_leaves=6
num_cat=0
split_feature=0 0 0 0 0
split_gain=1.03904 0.312855 0.00195394 0.000564312 0.000518909
threshold=1.0000000180025095e-35 0.35000000000000003 0.25000000000000006 0.45000000000000007 0.15000000000000005
decision_type=2 2 2 2 2
left_child=-1 2 4 -3 -2
right_child=1 3 -4 -5 -6
leaf_value=0.039696165569800816 0.00054133288932119302 -0.018816878402144993 -0.0052019639963829366 -0.026846686470511756 -0.00037677496631438042
leaf_weight=5.7854245081543914 19.344758152961738 12.26881023496389 0.67316342541016538 0.08814914140384722 9.0295426445081812
leaf_count=26 42 42 28 14 58
internal_value=0 -0.0554673 0.00122836 -0.188742 0.00249164
internal_weight=0 41.4044 29.0475 12.357 28.3743
internal_count=210 184 128 56 100
shrinkage=0.1


Tree=31
num_leaves=6
num_cat=0
split_feature=0 0 0 0 0
split_gain=0.0307694 0.0141646 0.00543161 0.00205206 0.0015074
threshold=0.35000000000000003 1.0000000180025095e-35 0.15000000000000005 0.45000000000000007 0.25000000000000006
decision_type=2 2 2 2 2
left_child=1 -1 -3 -2 -4
right_child=3 2 4 -5 -6
leaf_value=-0.0054866345499478934 0.0051750946681920033 0.00053670707633038123 -0.0019879436346708639 -0.0076180279238091068 -0.006797390642477379
leaf_weight=6.6846642270684233 9.5783680761232937 20.268643192946911 9.0698749353177845 0.12704566249158311 0.70213542599231082
leaf_count=26 42 42 58 14 28
internal_value=0 -0.0132337 -0.00396954 0.0500763 -0.0233351
internal_weight=0 36.7253 30.0407 9.70541 9.77201
internal_count=210 154 128 56 86
shrinkage=0.1


Tree=32
num_leaves=6
num_cat=0
split_feature=0 0 0 0 0
split_gain=0.0213418 0.0128868 0.00573028 0.0018393 0.00137885
threshold=0.35000000000000003 1.0000000180025095e-35 0.15000000000000005 0.45000000000000007 0.25000000000000006
decision_type=2 2 2 2 2
left_child=1 -1 -3 -2 -4
right_child=3 2 4 -5 -6
leaf_value=-0.005136892329228664 0.0043126681001366129 0.00072869694249788456 -0.0018923487751595462 -0.0078675369049921035 -0.0065069675548566769
leaf_weight=6.5276142656803122 9.6254419470205868 20.186556205153465 9.0703146024607122 0.1255955505184837 0.69728512852452773
leaf_count=26 42 42 58 14 28
internal_value=0 -0.0111078 -0.00233408 0.0415578 -0.0222178
internal_weight=0 36.4818 29.9542 9.75104 9.7676
internal_count=210 154 128 56 86
shrinkage=0.1


Tree=33
num_leaves=6
num_cat=0
split_feature=0 0 0 0 0
split_gain=0.0178012 0.00931966 0.00604537 0.00166979 0.00121465
threshold=1.0000000180025095e-35 0.35000000000000003 0.15000000000000005 0.45000000000000007 0.25000000000000006
decision_type=2 2 2 2 2
left_child=-1 2 -2 -3 -4
right_child=1 3 4 -5 -6
leaf_value=-0.0048749139799524333 0.00090538272215089685 0.0036174512844549945 -0.0018194590963372512 -0.0080857243977365927 -0.0061654462793673363
leaf_weight=6.4437374286353579 20.115676544606686 9.6654392462223733 9.0675202244892716 0.12347127962857564 0.69218527583871114
leaf_count=26 42 42 58 14 28
internal_value=0 0.00791964 -0.000854626 0.0346983 -0.0212769
internal_weight=0 39.6643 29.8754 9.78891 9.75971
internal_count=210 184 128 56 86
shrinkage=0.1


Tree=34
num_leaves=6
num_cat=0
split_feature=0 0 0 0 0
split_gain=0.016254 0.00608601 0.00631139 0.00154277 0.00103152
threshold=1.0000000180025095e-35 0.35000000000000003 0.15000000000000005 0.45000000000000007 0.25000000000000006
decision_type=2 2 2 2 2
left_child=-1 2 -2 -3 -4
right_child=1 3 4 -5 -6
leaf_value=-0.0046670183010370852 0.0010599233843211972 0.0030553208410438967 -0.0017587209541482759 -0.0083257084311481201 -0.0057772342419891692
leaf_weight=6.4215546101331702 20.047041200101376 9.6990501824766362 9.0624729814007878 0.12058822694234628 0.68720969127025533
leaf_count=26 42 42 58 14 28
internal_value=0 0.00756494 0.000449645 0.0291556 -0.0204197
internal_weight=0 39.6164 29.7967 9.81964 9.74968
internal_count=210 184 128 56 86
shrinkage=0.1


Tree=35
num_leaves=6
num_cat=0
split_feature=0 0 0 0 0
split_gain=0.015005 0.00389651 0.00647033 0.00145569 0.000835836
threshold=1.0000000180025095e-35 0.35000000000000003 0.15000000000000005 0.45000000000000007 0.25000000000000006
decision_type=2 2 2 2 2
left_child=-1 2 -2 -3 -4
right_child=1 3 4 -5 -6
leaf_value=-0.0044675048306241976 0.0011889438531175838 0.0025872298615283642 -0.0017006061932668918 -0.0086465137084588885 -0.0053296861321565255
leaf_weight=6.4622928574681273 19.973277159035206 9.7283476917073095 9.055283063556999 0.11673473124392408 0.68247236835304725
leaf_count=26 42 42 58 14 28
internal_value=0 0.00729859 0.00158536 0.0245403 -0.0195495
internal_weight=0 39.5561 29.711 9.84508 9.73776
internal_count=210 184 128 56 86
shrinkage=0.1


Tree=36
num_leaves=6
num_cat=0
split_feature=0 0 0 0 0
split_gain=0.0134561 0.0023041 0.0064559 0.00140186 0.000629841
threshold=1.0000000180025095e-35 0.35000000000000003 0.15000000000000005 0.45000000000000007 0.25000000000000006
decision_type=2 2 2 2 2
left_child=-1 2 -2 -3 -4
right_child=1 3 4 -5 -6
leaf_value=-0.0041871086731384349 0.001289211140816073 0.0021483705872761111 -0.0016346833775876361 -0.0091265244165808623 -0.0047949639615202455
leaf_weight=6.5788729004561892 19.885619476437569 9.7582946708425844 9.0453399503603578 0.11153598094824781 0.67790026881266463
leaf_count=26 42 42 58 14 28
internal_value=0 0.00697756 0.0025668 0.0202096 -0.0185502
internal_weight=0 39.4787 29.6089 9.86983 9.72324
internal_count=210 184 128 56 86
shrinkage=0.1


Tree=37
num_leaves=6
num_cat=0
split_feature=0 0 0 0 0
split_gain=0.0104661 0.0021133 0.00502035 0.0013625 0.00041888
threshold=1.0000000180025095e-35 0.15000000000000005 0.35000000000000003 0.45000000000000007 0.25000000000000006
decision_type=2 2 2 2 2
left_child=-1 -2 4 -4 -3
right_child=1 2 3 -5 -6
leaf_value=-0.0036240356596266214 0.0013549787929339324 -0.0015472380204774169 0.0015947386902787027 -0.0098851938285038233 -0.0041327142108830177
leaf_weight=6.7960779257118693 19.770872786641121 9.0312258559279126 9.8004704825580102 0.10448693018406709 0.67334644973743785
leaf_count=26 42 58 42 14 28
internal_value=0 0.00625418 -0.00110145 0.0147364 -0.0172663
internal_weight=0 39.3804 19.6095 9.90496 9.70457
internal_count=210 184 142 56 86
shrinkage=0.1


Tree=38
num_leaves=6
num_cat=0
split_feature=0 0 0 0 0
split_gain=0.00489362 0.00343734 0.00216994 0.00128733 0.00022524
threshold=1.0000000180025095e-35 0.15000000000000005 0.35000000000000003 0.45000000000000007 0.25000000000000006
decision_type=2 2 2 2 2
left_child=-1 -2 4 -4 -3
right_child=1 2 3 -5 -6
leaf_value=-0.002410390813777264 0.0013740984639975182 -0.0014321784064873437 0.00064999289361752401 -0.011013060842683969 -0.0033339607455312409
leaf_weight=7.1286270171403876 19.614721365272999 9.0116226281970722 9.8758193114772421 0.095553716877476158 0.66899533080868501
leaf_count=26 42 58 42 14 28
internal_value=0 0.00437591 -0.0049714 0.00538228 -0.015636
internal_weight=0 39.2667 19.652 9.97137 9.68062
internal_count=210 184 142 56 86
shrinkage=0.1


Tree=39
num_leaves=6
num_cat=0
split_feature=0 0 0 0 0
split_gain=1.17725 0.351337 0.000619401 8.3927e-05 2.88205e-05
threshold=1.0000000180025095e-35 0.35000000000000003 0.25000000000000006 0.15000000000000005 0.45000000000000007
decision_type=2 2 2 2 2
left_child=-1 2 3 -2 -3
right_child=1 4 -4 -5 -6
leaf_value=0.042046947641628335 0.00028500371290557949 -0.020038419159814316 -0.0029134205686665456 -8.6060831353689936e-05 -0.021909858226974659
leaf_weight=5.8329796232283107 19.237165160477169 12.287014954723414 0.66805649548768897 8.9225743995048088 0.082845384604298355
leaf_count=26 42 42 28 58 14
internal_value=0 -0.0595323 0.00096034 0.0016743 -0.20051
internal_weight=0 41.1977 28.8278 28.1597 12.3699
internal_count=210 184 128 100 56
shrinkage=0.1


Tree=40
num_leaves=6
num_cat=0
split_feature=0 0 0 0 0
split_gain=0.0280246 0.0142157 0.00292682 0.00102323 0.000653658
threshold=0.35000000000000003 1.0000000180025095e-35 0.15000000000000005 0.45000000000000007 0.25000000000000006
decision_type=2 2 2 2 2
left_child=1 -1 -3 -2 -4
right_child=3 2 4 -5 -6
leaf_value=-0.0054555746383298416 0.0049081259545891952 0.00034646886181525713 -0.001539115485881424 -0.0042736249943857397 -0.0047131887673504264
leaf_weight=6.6303723715245715 9.5328014111146295 20.230882234871387 8.9683343088254333 0.12293782434426326 0.69940729951486069
leaf_count=26 42 42 58 14 28
internal_value=0 -0.0126647 -0.00337486 0.0479122 -0.0176874
internal_weight=0 36.529 29.8986 9.65574 9.66774
internal_count=210 154 128 56 86
shrinkage=0.1


Tree=41
num_leaves=6
num_cat=0
split_feature=0 0 0 0 0
split_gain=0.0202935 0.0128689 0.00319499 0.00091632 0.000602827
threshold=0.35000000000000003 1.0000000180025095e-35 0.15000000000000005 0.45000000000000007 0.25000000000000006
decision_type=2 2 2 2 2
left_child=1 -1 -3 -2 -4
right_child=3 2 4 -5 -6
leaf_value=-0.0051229506425548074 0.0041734547670730354 0.00050923874663077919 -0.0014822695886780983 -0.0045526873141059744 -0.0045392628756486348
leaf_weight=6.4844246730208388 9.5761527698487008 20.156328462064266 8.973308471031487 0.12186936137732196 0.69502860377542752
leaf_count=26 42 42 58 14 28
internal_value=0 -0.0108542 -0.00207593 0.040638 -0.0170203
internal_weight=0 36.3091 29.8247 9.69802 9.66834
internal_count=210 154 128 56 86
shrinkage=0.1


Tree=42
num_leaves=6
num_cat=0
split_feature=0 0 0 0 0
split_gain=0.0176179 0.00925387 0.00346335 0.00083217 0.000533143
threshold=1.0000000180025095e-35 0.35000000000000003 0.15000000000000005 0.45000000000000007 0.25000000000000006
decision_type=2 2 2 2 2
left_child=-1 2 -2 -3 -4
right_child=1 3 4 -5 -6
leaf_value=-0.0048669749340371953 0.0006615291607016163 0.0035687186068195432 -0.0014361485029357191 -0.0048015845765913825 -0.0043197199902945951
leaf_weight=6.4003523476421824 20.09268768876791 9.6134671689942444 8.9747711168602109 0.12026211002376008 0.69051523320376951
leaf_count=26 42 42 58 14 28
internal_value=0 0.0078878 -0.000867007 0.034653 -0.0164216
internal_weight=0 39.4917 29.758 9.73373 9.66529
internal_count=210 184 128 56 86
shrinkage=0.1


Tree=43
num_leaves=6
num_cat=0
split_feature=0 0 0 0 0
split_gain=0.0160821 0.00638132 0.00370541 0.000770284 0.000451996
threshold=1.0000000180025095e-35 0.35000000000000003 0.15000000000000005 0.45000000000000007 0.25000000000000006
decision_type=2 2 2 2 2
left_child=-1 2 -2 -3 -4
right_child=1 3 4 -5 -6
leaf_value=-0.0046632726161937926 0.00079907973510871799 0.0030686591645416633 -0.0013962163033565682 -0.0050580649112433318 -0.0040592022286152661
leaf_weight=6.3677074275910845 20.032596006989479 9.645369579084214 8.9738187734037638 0.11806010303553272 0.68611015728674907
leaf_count=26 42 42 58 14 28
internal_value=0 0.00752596 0.000233456 0.0297039 -0.0158536
internal_weight=0 39.456 29.6925 9.76343 9.65993
internal_count=210 184 128 56 86
shrinkage=0.1


Tree=44
num_leaves=6
num_cat=0
split_feature=0 0 0 0 0
split_gain=0.0149103 0.00435761 0.00389118 0.0007299 0.000363288
threshold=1.0000000180025095e-35 0.35000000000000003 0.15000000000000005 0.45000000000000007 0.25000000000000006
decision_type=2 2 2 2 2
left_child=-1 2 -2 -3 -4
right_child=1 3 4 -5 -6
leaf_value=-0.0044826813364794429 0.00091867767897180522 0.0026497734855157498 -0.0013575152540080818 -0.0053600306664102013 -0.0037517898219050607
leaf_weight=6.3855232968926421 19.970308661460876 9.6730596413835848 8.9708305881358683 0.1151218471350156 0.68189905257895667
leaf_count=26 42 42 58 14 28
internal_value=0 0.00726297 0.00121861 0.0255557 -0.0152665
internal_weight=0 39.4112 29.623 9.78818 9.65273
internal_count=210 184 128 56 86
shrinkage=0.1


Tree=45
num_leaves=6
num_cat=0
split_feature=0 0 0 0 0
split_gain=0.0137589 0.00286854 0.0039905 0.000709364 0.000269674
threshold=1.0000000180025095e-35 0.35000000000000003 0.15000000000000005 0.45000000000000007 0.25000000000000006
decision_type=2 2 2 2 2
left_child=-1 2 -2 -3 -4
right_child=1 3 4 -5 -6
leaf_value=-0.0042768965675216222 0.0010192544998548897 0.0022748027772602417 -0.0013139148107765234 -0.0057579513860127824 -0.0033825161113483779
leaf_weight=6.4610983468592158 19.899617172777653 9.6992442049086058 8.9656373951584101 0.11119644669815976 0.67785867850761938
leaf_count=26 42 42 58 14 28
internal_value=0 0.00702184 0.00210195 0.0218376 -0.0145932
internal_weight=0 39.3536 29.5431 9.81044 9.6435
internal_count=210 184 128 56 86
shrinkage=0.1


Tree=46
num_leaves=6
num_cat=0
split_feature=0 0 0 0 0
split_gain=0.0119568 0.00164318 0.00395329 0.000703471 0.000173911
threshold=1.0000000180025095e-35 0.35000000000000003 0.15000000000000005 0.45000000000000007 0.25000000000000006
decision_type=2 2 2 2 2
left_child=-1 2 -2 -3 -4
right_child=1 3 4 -5 -6
leaf_value=-0.0039345466364347865 0.0010963135554051737 0.0018695021475638716 -0.0012569584192600443 -0.0063249904875539512 -0.0029227667523835724
leaf_weight=6.6110265590250483 19.811788849532604 9.7299197232350672 8.9575015692971647 0.10590183024760412 0.67387413932010609
leaf_count=26 42 42 58 14 28
internal_value=0 0.00662222 0.00288391 0.0178127 -0.0137351
internal_weight=0 39.279 29.4432 9.83582 9.63138
internal_count=210 184 128 56 86
shrinkage=0.1


Tree=47
num_leaves=6
num_cat=0
split_feature=0 0 0 0 0
split_gain=0.00839791 0.0013244 0.00291705 0.00069607 8.44682e-05
threshold=1.0000000180025095e-35 0.15000000000000005 0.35000000000000003 0.45000000000000007 0.25000000000000006
decision_type=2 2 2 2 2
left_child=-1 -2 4 -4 -3
right_child=1 2 3 -5 -6
leaf_value=-0.0032282765422996964 0.0011433363004714797 -0.0011781555859735841 0.0012720373475523781 -0.0071613238946587237 -0.0023423551545724832
leaf_weight=6.8578631542623034 19.694254629313946 8.9451878173276764 9.7778962515294534 0.098859927849844875 0.66988695354666639
leaf_count=26 42 58 42 14 28
internal_value=0 0.00564974 -0.000193956 0.0118762 -0.0125927
internal_weight=0 39.1861 19.4918 9.87676 9.61507
internal_count=210 184 142 56 86
shrinkage=0.1


Tree=48
num_leaves=6
num_cat=0
split_feature=0 0 0 0 0
split_gain=0.00301289 0.0025129 0.00083972 0.00065163 2.201e-05
threshold=1.0000000180025095e-35 0.15000000000000005 0.35000000000000003 0.45000000000000007 0.25000000000000006
decision_type=2 2 2 2 2
left_child=-1 -2 4 -4 -3
right_child=1 2 3 -5 -6
leaf_value=-0.0018813981755878156 0.0011479108505886907 -0.0010818006705515556 0.00026560057836269818 -0.0082517589477000847 -0.001677557419298622
leaf_weight=7.1894139088690272 19.542302273213863 8.9287067959085089 9.858367062173782 0.090649710618891613 0.66641439555678594
leaf_count=26 42 58 42 14 28
internal_value=0 0.00346058 -0.0045572 0.00187995 -0.0112318
internal_weight=0 39.0864 19.5441 9.94902 9.59512
internal_count=210 184 142 56 86
shrinkage=0.1


Tree=49
num_leaves=6
num_cat=0
split_feature=0 0 0 0 0
split_gain=0.00260646 0.0015008 0.000553965 7.52227e-05 2.91535e-06
threshold=0.15000000000000005 1.0000000180025095e-35 0.45000000000000007 0.35000000000000003 0.25000000000000006
decision_type=2 2 2 2 2
left_child=1 -1 3 4 -2
right_child=2 -3 -4 -5 -6
leaf_value=-0.00056935360821734669 -0.0010265528789657229 0.0011023066639892938 -0.0089219746091137985 -0.00064883796884897596 -0.0012434941291715827
leaf_weight=7.4234505239874151 8.9166359119117278 19.421758159995079 0.085217772983013584 9.9265300948172808 0.66569621546659696
leaf_count=26 58 42 14 42 28
internal_value=0 0.00640046 -0.00876908 -0.00841766 -0.0104162
internal_weight=0 26.8452 19.5941 19.5089 9.58233
internal_count=210 68 142 128 86
shrinkage=0.1


Tree=50
num_leaves=6
num_cat=0
split_feature=0 0 0 0 0
split_gain=0.00244687 0.00122205 0.000511188 0.000123183 2.60884e-06
threshold=0.15000000000000005 1.0000000180025095e-35 0.45000000000000007 0.35000000000000003 0.25000000000000006
decision_type=2 2 2 2 2
left_child=1 -1 3 4 -2
right_child=2 -3 -4 -5 -6
leaf_value=-0.00047224086718208099 -0.0010573527382249758 0.0010376864341161195 -0.0085796767770861451 -0.00056883105145543822 -0.0012621533908412743
leaf_weight=7.4056385327130583 8.9171155048534292 19.406010061502457 0.085181686677968993 9.9094588616862893 0.66862942243460644
leaf_count=26 58 42 14 42 28
internal_value=0 0.0062063 -0.00849835 -0.0081606 -0.0107164
internal_weight=0 26.8116 19.5804 19.4952 9.58574
internal_count=210 68 142 128 86
shrinkage=0.1


Tree=51
num_leaves=6
num_cat=0
split_feature=0 0 0 0 0
split_gain=0.00226942 0.00102259 0.000471294 0.000180545 2.37383e-06
threshold=0.15000000000000005 1.0000000180025095e-35 0.45000000000000007 0.35000000000000003 0.25000000000000006
decision_type=2 2 2 2 2
left_child=1 -1 3 4 -2
right_child=2 -3 -4 -5 -6
leaf_value=-0.00040312995013661317 -0.0010817748551825166 0.00097949656215896201 -0.0082402723350833533 -0.00048649816978583711 -0.0012767767065190517
leaf_weight=7.386717543005946 8.9168848628178257 19.393551982939243 0.08519211097154665 9.893167189322412 0.67126497963909137
leaf_count=26 58 42 14 42 28
internal_value=0 0.00598131 -0.0081865 -0.00786196 -0.0109543
internal_weight=0 26.7803 19.5665 19.4813 9.58815
internal_count=210 68 142 128 86
shrinkage=0.1


Tree=52
num_leaves=6
num_cat=0
split_feature=0 0 0 0 0
split_gain=0.00211743 0.000858449 0.000434425 0.000234784 2.12093e-06
threshold=0.15000000000000005 1.0000000180025095e-35 0.45000000000000007 0.35000000000000003 0.25000000000000006
decision_type=2 2 2 2 2
left_child=1 -1 3 4 -2
right_child=2 -3 -4 -5 -6
leaf_value=-0.00034049130931102916 -0.0010993319703510799 0.00092742876214545146 -0.0079173723934991402 -0.00041763828214098512 -0.0012833565813322335
leaf_weight=7.3704348262399462 8.9158859765157121 19.382363177835941 0.085168253397568061 9.8788461545482278 0.67360648512840349
leaf_count=26 58 42 14 42 28
internal_value=0 0.00578115 -0.00790962 -0.00759786 -0.0111226
internal_weight=0 26.7528 19.5535 19.4683 9.58949
internal_count=210 68 142 128 86
shrinkage=0.1


Tree=53
num_leaves=6
num_cat=0
split_feature=0 0 0 0 0
split_gain=0.0019832 0.000724878 0.000400569 0.00028484 1.8326e-06
threshold=0.15000000000000005 1.0000000180025095e-35 0.45000000000000007 0.35000000000000003 0.25000000000000006
decision_type=2 2 2 2 2
left_child=1 -1 3 4 -2
right_child=2 -3 -4 -5 -6
leaf_value=-0.00028534617119478563 -0.0011117859161026507 0.00088069061370227818 -0.0076101873829931294 -0.00035849289997394907 -0.0012825987520661279
leaf_weight=7.3557160515338209 8.9143060236237961 19.37249543517828 0.085132783511652543 9.8659557290375233 0.67570548271760411
leaf_count=26 58 42 14 42 28
internal_value=0 0.00559792 -0.00765679 -0.0073573 -0.0112382
internal_weight=0 26.7282 19.5411 19.456 9.59001
internal_count=210 68 142 128 86
shrinkage=0.1


Tree=54
num_leaves=6
num_cat=0
split_feature=0 0 0 0 0
split_gain=0.00185541 0.000616422 0.000369376 0.00033143 1.56347e-06
threshold=0.15000000000000005 1.0000000180025095e-35 0.45000000000000007 0.35000000000000003 0.25000000000000006
decision_type=2 2 2 2 2
left_child=1 -1 3 4 -2
right_child=2 -3 -4 -5 -6
leaf_value=-0.00023850816367509465 -0.0011194032258709298 0.00083754961540614395 -0.0073150422110032053 -0.00030474023783708809 -0.0012769718235659357
leaf_weight=7.3421615324914482 8.912255877163263 19.36385203152895 0.085090241627766683 9.8541809627786279 0.67760396853555072
leaf_count=26 58 42 14 42 28
internal_value=0 0.00541714 -0.00740796 -0.00712026 -0.0113054
internal_weight=0 26.706 19.5291 19.444 9.58986
internal_count=210 68 142 128 86
shrinkage=0.1


Tree=55
num_leaves=6
num_cat=0
split_feature=0 0 0 0 0
split_gain=0.00174313 0.000526016 0.000340619 0.000371171 1.30312e-06
threshold=0.15000000000000005 1.0000000180025095e-35 0.45000000000000007 0.35000000000000003 0.25000000000000006
decision_type=2 2 2 2 2
left_child=1 -1 3 4 -2
right_child=2 -3 -4 -5 -6
leaf_value=-0.00019617160171100578 -0.0011231995348614475 0.00079850202521453226 -0.007033414702238003 -0.00025922510455289534 -0.0012668838854597313
leaf_weight=7.3300341833382872 8.9098098408430833 19.356066286563873 0.0850351668195789 9.8435538010671735 0.67932199512142766
leaf_count=26 58 42 14 42 28
internal_value=0 0.00525289 -0.00718214 -0.00690579 -0.0113338
internal_weight=0 26.6861 19.5177 19.4327 9.58913
internal_count=210 68 142 128 86
shrinkage=0.1


Tree=56
num_leaves=6
num_cat=0
split_feature=0 0 0 0 0
split_gain=0.00163889 0.000451124 0.000359286 0.000360855 1.07004e-06
threshold=0.15000000000000005 1.0000000180025095e-35 0.35000000000000003 0.45000000000000007 0.25000000000000006
decision_type=2 2 2 2 2
left_child=1 -1 4 -4 -2
right_child=2 -3 3 -5 -6
leaf_value=-0.00015921914324643478 -0.0011238592364700469 0.00076248665218334058 -0.00021856536709400007 -0.0067631652991063593 -0.0012539232819042767
leaf_weight=7.3187771774828461 8.9070650935173017 19.349176026880741 9.8337762150913459 0.084977303748019803 0.68089234665967602
leaf_count=26 58 42 42 14 28
internal_value=0 0.00509533 -0.00696587 -0.00274635 -0.011331
internal_weight=0 26.668 19.5067 9.91875 9.58796
internal_count=210 68 142 56 86
shrinkage=0.1


Tree=57
num_leaves=6
num_cat=0
split_feature=0 0 0 0 0
split_gain=0.00153867 0.000390286 0.000389795 0.000336779 8.54353e-07
threshold=0.15000000000000005 1.0000000180025095e-35 0.35000000000000003 0.45000000000000007 0.25000000000000006
decision_type=2 2 2 2 2
left_child=1 -1 4 -4 -2
right_child=2 -3 3 -5 -6
leaf_value=-0.00012869275241970528 -0.0011214814601611933 0.00072909238910605627 -0.00018114266669284321 -0.0065059375648991759 -0.0012375877614197964
leaf_weight=7.3084035627543953 8.9040702893398684 19.343037821352482 9.8247535051777941 0.084916034829803588 0.68232742056716311
leaf_count=26 58 42 42 14 28
internal_value=0 0.00493869 -0.00675127 -0.0023534 -0.0112975
internal_weight=0 26.6514 19.4961 9.90967 9.5864
internal_count=210 68 142 56 86
shrinkage=0.1


Tree=58
num_leaves=6
num_cat=0
split_feature=0 0 0 0 0
split_gain=0.00145213 0.000412996 0.000336343 0.000313912 6.59931e-07
threshold=0.15000000000000005 0.35000000000000003 1.0000000180025095e-35 0.45000000000000007 0.25000000000000006
decision_type=2 2 2 2 2
left_child=2 4 -1 -3 -2
right_child=1 3 -4 -5 -6
leaf_value=-9.845858977890403e-05 -0.0011166836131177632 -0.00015073716579448113 0.0006982391846683517 -0.0062596533912628385 -0.001218637357143485
leaf_weight=7.299225568771365 8.9008609824813885 9.8165901759639365 19.337347269058228 0.084843060816638963 0.68364320939872492
leaf_count=26 58 42 42 14 28
internal_value=0 -0.00656031 0.0047992 -0.00203083 -0.0112396
internal_weight=0 19.4859 26.6366 9.90143 9.5845
internal_count=210 142 68 56 86
shrinkage=0.1


Tree=59
num_leaves=6
num_cat=0
split_feature=0 0 0 0 0
split_gain=0.00136876 0.00043359 0.000292658 0.00029192 4.77427e-07
threshold=0.15000000000000005 0.35000000000000003 0.45000000000000007 1.0000000180025095e-35 0.25000000000000006
decision_type=2 2 2 2 2
left_child=3 4 -3 -1 -2
right_child=1 2 -4 -5 -6
leaf_value=-7.3167192144686053e-05 -0.00111032486350062 -0.00012216658067799773 -0.0060229887386562143 0.00066940866188294518 -0.0011969722872092366
leaf_weight=7.2903831843286779 8.8975246036425215 9.8089060299098474 0.08477598964236753 19.332364782691002 0.68485633714590299
leaf_count=26 58 42 14 42 28
internal_value=0 -0.00637081 -0.00172729 0.00466061 -0.0111652
internal_weight=0 19.4761 9.89368 26.6227 9.58238
internal_count=210 142 56 68 86
shrinkage=0.1


Tree=60
num_leaves=6
num_cat=0
split_feature=0 0 0 0 0
split_gain=0.00129255 0.000449693 0.000272778 0.000254333 3.38549e-07
threshold=0.15000000000000005 0.35000000000000003 0.45000000000000007 1.0000000180025095e-35 0.25000000000000006
decision_type=2 2 2 2 2
left_child=3 4 -3 -1 -2
right_child=1 2 -4 -5 -6
leaf_value=-5.0653125539951987e-05 -0.0011022836692047803 -9.7289486467641475e-05 -0.0057964937491463151 0.00064277400816779373 -0.0011751936932190121
leaf_weight=7.2822099924087551 8.8940684949047846 9.8017977671697718 0.084706785622984962 19.327847085893154 0.68598416983150012
leaf_count=26 58 42 14 42 28
internal_value=0 -0.00619245 -0.0014612 0.00453008 -0.011075
internal_weight=0 19.4666 9.8865 26.6101 9.58005
internal_count=210 142 56 68 86
shrinkage=0.1


Tree=61
num_leaves=6
num_cat=0
split_feature=0 0 0 0 0
split_gain=0.00121954 0.000462516 0.000254292 0.000223013 2.1955e-07
threshold=0.15000000000000005 0.35000000000000003 0.45000000000000007 1.0000000180025095e-35 0.25000000000000006
decision_type=2 2 2 2 2
left_child=3 4 -3 -1 -2
right_child=1 2 -4 -5 -6
leaf_value=-3.1810403821428589e-05 -0.0010926241055575264 -7.4450558691275867e-05 -0.0055793939591803517 0.00061778411829084914 -0.0011512978107352312
leaf_weight=7.274576315656307 8.8905242145992798 9.7951520159840566 0.084637750871480288 19.323779836297035 0.6870257973205306
leaf_count=26 58 42 14 42 28
internal_value=0 -0.00601647 -0.0012161 0.00440122 -0.0109683
internal_weight=0 19.4573 9.87979 26.5984 9.57755
internal_count=210 142 56 68 86
shrinkage=0.1


Tree=62
num_leaves=6
num_cat=0
split_feature=0 0 0 0 0
split_gain=0.00115397 0.000471138 0.000236971 0.000195195 1.29535e-07
threshold=0.15000000000000005 0.35000000000000003 0.45000000000000007 1.0000000180025095e-35 0.25000000000000006
decision_type=2 2 2 2 2
left_child=3 4 -3 -1 -2
right_child=1 2 -4 -5 -6
leaf_value=-1.3571354026826941e-05 -0.0010819575397895279 -5.5167716241903158e-05 -0.005371608339999015 0.00059438807110211319 -0.001126996895852344
leaf_weight=7.2676264140754965 8.8869151324033719 9.7890190584585053 0.084564679302275972 19.320006914436817 0.68799693940673101
leaf_count=26 58 42 14 42 28
internal_value=0 -0.00585388 -0.00100702 0.00428205 -0.0108519
internal_weight=0 19.4485 9.87358 26.5876 9.57491
internal_count=210 142 56 68 86
shrinkage=0.1


Tree=63
num_leaves=6
num_cat=0
split_feature=0 0 0 0 0
split_gain=0.00109082 0.000477587 0.000220926 0.00017179 6.14192e-08
threshold=0.15000000000000005 0.35000000000000003 0.45000000000000007 1.0000000180025095e-35 0.25000000000000006
decision_type=2 2 2 2 2
left_child=3 4 -3 -1 -2
right_child=1 2 -4 -5 -6
leaf_value=1.7177587783654596e-06 -0.0010702962350171892 -3.7129531018425849e-05 -0.005172530150835998 0.00057226711897466985 -0.0011012912759929469
leaf_weight=7.2609988115727928 8.8832736806943995 9.7832257598638517 0.084495246992447259 19.316641077399254 0.68890130845829922
leaf_count=26 58 42 14 42 28
internal_value=0 -0.00569279 -0.000811029 0.00416393 -0.0107253
internal_weight=0 19.4399 9.86772 26.5776 9.57217
internal_count=210 142 56 68 86
shrinkage=0.1


Tree=64
num_leaves=6
num_cat=0
split_feature=0 0 0 0 0
split_gain=0.00103472 0.000480631 0.000205788 0.000150834 1.95679e-08
threshold=0.15000000000000005 0.35000000000000003 0.45000000000000007 1.0000000180025095e-35 0.25000000000000006
decision_type=2 2 2 2 2
left_child=3 4 -3 -1 -2
right_child=1 2 -4 -5 -6
leaf_value=1.6845149699616248e-05 -0.0010582051102184305 -2.2230759348762697e-05 -0.00498063446114929 0.00055163911178433497 -0.0010756903555177754
leaf_weight=7.25486374460161 8.8796119419857842 9.7778366329148394 0.084424669272267105 19.31353085488081 0.68974638194777149
leaf_count=26 58 42 14 42 28
internal_value=0 -0.00554574 -0.000646766 0.00405606 -0.0105947
internal_weight=0 19.4316 9.86226 26.5684 9.56936
internal_count=210 142 56 68 86
shrinkage=0.1


Tree=65
num_leaves=6
num_cat=0
split_feature=0 0 0 0 0
split_gain=0.000978182 0.000482729 0.000191838 0.000134304 1.38023e-09
threshold=0.15000000000000005 0.35000000000000003 0.45000000000000007 1.0000000180025095e-35 0.25000000000000006
decision_type=2 2 2 2 2
left_child=3 4 -3 -1 -2
right_child=1 2 -4 -5 -6
leaf_value=2.7396905701521607e-05 -0.0010450381928687219 -7.2219288259667222e-06 -0.0047964426723516853 0.0005321979352023679 -0.0010496795906716799
leaf_weight=7.2488603480160263 8.8759465622715634 9.7726773805916292 0.084360052715056422 19.310801237821579 0.69054252200294364
leaf_count=26 58 42 14 42 28
internal_value=0 -0.00539333 -0.000482098 0.00394424 -0.0104537
internal_weight=0 19.4235 9.85704 26.5597 9.56649
internal_count=210 142 56 68 86
shrinkage=0.1


Tree=66
num_leaves=6
num_cat=0
split_feature=0 0 0 0 0
split_gain=0.000927721 0.000481594 0.000178814 0.000119506 4.78406e-09
threshold=0.15000000000000005 0.35000000000000003 0.45000000000000007 1.0000000180025095e-35 0.25000000000000006
decision_type=2 2 2 2 2
left_child=3 4 -3 -1 -2
right_child=1 2 -4 -5 -6
leaf_value=3.7788918659141194e-05 -0.0010314772823970285 4.9094327431406471e-06 -0.0046207970079992916 0.00051410463899093605 -0.0010228403169047218
leaf_weight=7.243516223505142 8.872276690322904 9.7679235115647298 0.084290154161863806 19.308179117739201 0.69128720986191261
leaf_count=26 58 42 14 42 28
internal_value=0 -0.00525354 -0.000346656 0.00384162 -0.0103085
internal_weight=0 19.4158 9.85221 26.5517 9.56356
internal_count=210 142 56 68 86
shrinkage=0.1


Tree=67
num_leaves=6
num_cat=0
split_feature=0 0 0 0 0
split_gain=0.000879264 0.000478896 0.000166752 0.000106177 3.16449e-08
threshold=0.15000000000000005 0.35000000000000003 0.45000000000000007 1.0000000180025095e-35 0.25000000000000006
decision_type=2 2 2 2 2
left_child=3 4 -3 -1 -2
right_child=1 2 -4 -5 -6
leaf_value=4.7411623803592925e-05 -0.0010173071231598626 1.6103231811198534e-05 -0.0044526717043413275 0.00049650028161919582 -0.00099510376586298133
leaf_weight=7.2384995166212347 8.8686220888048393 9.7634316841140372 0.084221701370552959 19.305768236517906 0.69198392610997039
leaf_count=26 58 42 14 42 28
internal_value=0 -0.0051156 -0.000221158 0.00374036 -0.010157
internal_weight=0 19.4083 9.84765 26.5443 9.56061
internal_count=210 142 56 68 86
shrinkage=0.1


Tree=68
num_leaves=6
num_cat=0
split_feature=0 0 0 0 0
split_gain=0.000836786 0.000474005 0.000155369 9.37683e-05 7.70845e-08
threshold=0.15000000000000005 0.35000000000000003 0.45000000000000007 1.0000000180025095e-35 0.25000000000000006
decision_type=2 2 2 2 2
left_child=3 4 -3 -1 -2
right_child=1 2 -4 -5 -6
leaf_value=5.7857105571036829e-05 -0.001003285560300832 2.4798639327174282e-05 -0.0042904668626649219 0.00047999628285803854 -0.0009686466795582366
leaf_weight=7.233766924589875 8.8649993711151165 9.7592169120907766 0.084154693526216642 19.30354268848896 0.69264640787150789
leaf_count=26 58 42 14 42 28
internal_value=0 -0.00499154 -0.000120942 0.00364926 -0.0100078
internal_weight=0 19.401 9.84337 26.5373 9.55765
internal_count=210 142 56 68 86
shrinkage=0.1


Tree=69
num_leaves=6
num_cat=0
split_feature=0 0 0 0 0
split_gain=0.000792964 0.000469864 0.00014487 8.44819e-05 1.37413e-07
threshold=0.15000000000000005 0.35000000000000003 0.45000000000000007 1.0000000180025095e-35 0.25000000000000006
decision_type=2 2 2 2 2
left_child=3 4 -3 -1 -2
right_child=1 2 -4 -5 -6
leaf_value=6.368797518485942e-05 -0.00098885129688192747 3.4662963902377764e-05 -0.0041336925011717556 0.0004644816134948434 -0.00094262208991959743
leaf_weight=7.2289365958422449 8.8614208409562689 9.7550975922495109 0.08409625256899822 19.301649652421474 0.69327816774603057
leaf_count=26 58 42 14 42 28
internal_value=0 -0.00486009 -9.64251e-06 0.00355275 -0.00985497
internal_weight=0 19.3939 9.83919 26.5306 9.5547
internal_count=210 142 56 68 86
shrinkage=0.1


Tree=70
num_leaves=6
num_cat=0
split_feature=0 0 0 0 0
split_gain=0.000752646 0.000463594 0.000135089 7.59376e-05 2.16686e-07
threshold=0.15000000000000005 0.35000000000000003 0.45000000000000007 1.0000000180025095e-35 0.25000000000000006
decision_type=2 2 2 2 2
left_child=3 4 -3 -1 -2
right_child=1 2 -4 -5 -6
leaf_value=6.9602630476626339e-05 -0.00097401596312203921 4.2717361396339529e-05 -0.0039839733278635081 0.00044967503286815386 -0.00091598581711795221
leaf_weight=7.2246705666184452 8.8578628152608854 9.7512858575209957 0.08403299609199244 19.299787759780884 0.6938689633971088
leaf_count=26 58 42 14 42 28
internal_value=0 -0.0047359 8.3133e-05 0.00346152 -0.009698
internal_weight=0 19.3871 9.83532 26.5245 9.55173
internal_count=210 142 56 68 86
shrinkage=0.1


Tree=71
num_leaves=6
num_cat=0
split_feature=0 0 0 0 0
split_gain=0.000716651 0.000455373 0.000125941 6.75184e-05 3.12181e-07
threshold=0.15000000000000005 0.35000000000000003 0.45000000000000007 1.0000000180025095e-35 0.25000000000000006
decision_type=2 2 2 2 2
left_child=3 4 -3 -1 -2
right_child=1 2 -4 -5 -6
leaf_value=7.6943461202614644e-05 -0.00095913891887937407 4.871023133068309e-05 -0.0038407019310810588 0.00043540356054954223 -0.00088951073748167386
leaf_weight=7.2207296602427986 8.8543463945388776 9.747714280150829 0.083970104809851231 19.29802131652832 0.6944273021072157
leaf_count=26 58 42 14 42 28
internal_value=0 -0.00462215 0.000154917 0.00337799 -0.00954075
internal_weight=0 19.3805 9.83168 26.5188 9.54877
internal_count=210 142 56 68 86
shrinkage=0.1


Tree=72
num_leaves=6
num_cat=0
split_feature=0 0 0 0 0
split_gain=0.000680264 0.000448175 0.000117499 6.09904e-05 4.16029e-07
threshold=0.15000000000000005 0.35000000000000003 0.45000000000000007 1.0000000180025095e-35 0.25000000000000006
decision_type=2 2 2 2 2
left_child=3 4 -3 -1 -2
right_child=1 2 -4 -5 -6
leaf_value=8.1122267533380852e-05 -0.00094429240844492242 5.5678431609731182e-05 -0.003702360596783106 0.00042188573659487146 -0.00086394083642900234
leaf_weight=7.2167078312486437 8.8508903859183174 9.7442214395850879 0.083914380171337011 19.296516187489033 0.69496518862433809
leaf_count=26 58 42 14 42 28
internal_value=0 -0.00450417 0.000235916 0.00329132 -0.00938443
internal_weight=0 19.374 9.82814 26.5132 9.54586
internal_count=210 142 56 68 86
shrinkage=0.1


Tree=73
num_leaves=6
num_cat=0
split_feature=0 0 0 0 0
split_gain=0.00064788 0.000438893 0.000109516 5.4623e-05 5.31489e-07
threshold=0.15000000000000005 0.35000000000000003 0.45000000000000007 1.0000000180025095e-35 0.25000000000000006
decision_type=2 2 2 2 2
left_child=3 4 -3 -1 -2
right_child=1 2 -4 -5 -6
leaf_value=8.6440734341143482e-05 -0.00092928118511523988 6.0485120557333987e-05 -0.003568893439986412 0.00040898854893563452 -0.00083849101651630148
leaf_weight=7.2130773141980198 8.8474722481332702 9.7409718660637719 0.083856342593208733 19.295039638876915 0.69547203183174211
leaf_count=26 58 42 14 42 28
internal_value=0 -0.00439649 0.000295078 0.00321221 -0.00922665
internal_weight=0 19.3678 9.82483 26.5081 9.54294
internal_count=210 142 56 68 86
shrinkage=0.1


Tree=74
num_leaves=6
num_cat=0
split_feature=0 0 0 0 0
split_gain=0.000615522 0.000430751 0.000102221 5.00639e-05 6.59659e-07
threshold=0.15000000000000005 0.35000000000000003 0.45000000000000007 1.0000000180025095e-35 0.25000000000000006
decision_type=2 2 2 2 2
left_child=3 4 -3 -1 -2
right_child=1 2 -4 -5 -6
leaf_value=8.8277327204738898e-05 -0.00091456576518916517 6.6185960438908638e-05 -0.0034413215597845757 0.00039713060387551425 -0.00081345046012773709
leaf_weight=7.2094525564461973 8.8441213392652553 9.7378089008852822 0.08380377420689987 19.293750084936619 0.69595774554181922
leaf_count=26 58 42 14 42 28
internal_value=0 -0.00428607 0.000362578 0.00313116 -0.00907189
internal_weight=0 19.3617 9.82161 26.5032 9.54008
internal_count=210 142 56 68 86
shrinkage=0.1


Tree=75
num_leaves=6
num_cat=0
split_feature=0 0 0 0 0
split_gain=0.000588016 0.000420161 9.53051e-05 4.46134e-05 8.04056e-07
threshold=0.15000000000000005 0.35000000000000003 0.45000000000000007 1.0000000180025095e-35 0.25000000000000006
decision_type=2 2 2 2 2
left_child=3 4 -3 -1 -2
right_child=1 2 -4 -5 -6
leaf_value=9.3750623261480541e-05 -0.00089987724397733865 6.9085522517891931e-05 -0.0033188486254670962 0.00038535572506658369 -0.00078827489152836344
leaf_weight=7.2063165642321136 8.840810214634983 9.7349110860377532 0.083746432443150165 19.29241469502449 0.6964179540518679
leaf_count=26 58 42 14 42 28
internal_value=0 -0.00418995 0.000401888 0.00306054 -0.00891728
internal_weight=0 19.3559 9.81866 26.4987 9.53723
internal_count=210 142 56 68 86
shrinkage=0.1


Tree=76
num_leaves=6
num_cat=0
split_feature=0 0 0 0 0
split_gain=0.000558929 0.000411445 8.8961e-05 4.09846e-05 9.42948e-07
threshold=0.15000000000000005 0.35000000000000003 0.45000000000000007 1.0000000180025095e-35 0.25000000000000006
decision_type=2 2 2 2 2
left_child=3 4 -3 -1 -2
right_child=1 2 -4 -5 -6
leaf_value=9.4857141547617787e-05 -0.00088527459143411091 7.3811711252114946e-05 -0.0032003510221546186 0.00037440129171469267 -0.00076445135652866909
leaf_weight=7.2029437068849829 8.8375709760002774 9.7320091556757671 0.083698593778536501 19.291335821151733 0.69686521240510124
leaf_count=26 58 42 14 42 28
internal_value=0 -0.00408572 0.000458929 0.00298402 -0.00876444
internal_weight=0 19.3501 9.81571 26.4943 9.53444
internal_count=210 142 56 68 86
shrinkage=0.1


Tree=77
num_leaves=6
num_cat=0
split_feature=0 0 0 0 0
split_gain=0.000533157 0.000400725 8.29792e-05 3.67314e-05 1.09943e-06
threshold=0.15000000000000005 0.35000000000000003 0.45000000000000007 1.0000000180025095e-35 0.25000000000000006
decision_type=2 2 2 2 2
left_child=3 4 -3 -1 -2
right_child=1 2 -4 -5 -6
leaf_value=9.8709497452604275e-05 -0.00087045700544329896 7.6419628884498406e-05 -0.0030867307244638268 0.00036339240366822486 -0.00074002801863079569
leaf_weight=7.2000328898429897 8.8343698102980834 9.7293357485905272 0.083646406652406621 19.290208578109741 0.69728490523994047
leaf_count=26 58 42 14 42 28
internal_value=0 -0.0039911 0.000494568 0.00291452 -0.00860916
internal_weight=0 19.3446 9.81298 26.4902 9.53165
internal_count=210 142 56 68 86
shrinkage=0.1


Tree=78
num_leaves=6
num_cat=0
split_feature=0 0 0 0 0
split_gain=0.000507499 0.000391837 7.74466e-05 3.39481e-05 1.25883e-06
threshold=0.15000000000000005 0.35000000000000003 0.45000000000000007 1.0000000180025095e-35 0.25000000000000006
decision_type=2 2 2 2 2
left_child=3 4 -3 -1 -2
right_child=1 2 -4 -5 -6
leaf_value=9.9019848940200847e-05 -0.00085638980650122761 8.0219271270188657e-05 -0.0029765092163623092 0.00035351769304558909 -0.00071686128789249918
leaf_weight=7.1970257908105877 8.8312475923448783 9.7267002398148161 0.08359986590221602 19.289264276623726 0.69769295095466155
leaf_count=26 58 42 14 42 28
internal_value=0 -0.00389452 0.000541709 0.00284364 -0.00846174
internal_weight=0 19.3392 9.8103 26.4863 9.52894
internal_count=210 142 56 68 86
shrinkage=0.1


Tree=79
num_leaves=6
num_cat=0
split_feature=0 0 0 0 0
split_gain=0.00048495 0.000380349 7.22254e-05 3.03009e-05 1.43029e-06
threshold=0.15000000000000005 0.35000000000000003 0.45000000000000007 1.0000000180025095e-35 0.25000000000000006
decision_type=2 2 2 2 2
left_child=3 4 -3 -1 -2
right_child=1 2 -4 -5 -6
leaf_value=0.00010283681071111573 -0.00084170645230537556 8.1511030575097141e-05 -0.0028712675551713657 0.00034330819780930937 -0.00069301500619891655
leaf_weight=7.1944491136819151 8.8281558519229275 9.7242855411022884 0.083549450966530325 19.288249418139458 0.69807915692217726
leaf_count=26 58 42 14 42 28
internal_value=0 -0.00380766 0.000563574 0.0027798 -0.0083081
internal_weight=0 19.3341 9.80783 26.4827 9.52624
internal_count=210 142 56 68 86
shrinkage=0.1


Tree=80
num_leaves=6
num_cat=0
split_feature=0 0 0 0 0
split_gain=0.000461416 0.000371141 6.74418e-05 2.80739e-05 1.58403e-06
threshold=0.15000000000000005 0.35000000000000003 0.45000000000000007 1.0000000180025095e-35 0.25000000000000006
decision_type=2 2 2 2 2
left_child=3 4 -3 -1 -2
right_child=1 2 -4 -5 -6
leaf_value=0.00010253672826814292 -0.00082756838344042166 8.4689608106481621e-05 -0.0027693398671317197 0.00033403726973895868 -0.0006711273253413334
leaf_weight=7.1916273646056679 8.8251459808088821 9.7218493362888676 0.083507745992393093 19.287457279860973 0.69845779321622181
leaf_count=26 58 42 14 42 28
internal_value=0 -0.00371468 0.000603831 0.00271163 -0.00816095
internal_weight=0 19.329 9.80536 26.4791 9.5236
internal_count=210 142 56 68 86
shrinkage=0.1


Tree=81
num_leaves=6
num_cat=0
split_feature=0 0 0 0 0
split_gain=0.000441743 0.00036015 6.29389e-05 2.53802e-05 1.75813e-06
threshold=0.15000000000000005 0.35000000000000003 0.45000000000000007 1.0000000180025095e-35 0.25000000000000006
decision_type=2 2 2 2 2
left_child=3 4 -3 -1 -2
right_child=1 2 -4 -5 -6
leaf_value=0.00010496080141337645 -0.0008136716582599038 8.5415104138279212e-05 -0.0026724418267653374 0.00032510305618893977 -0.00064889441059678434
leaf_weight=7.1892265453934696 8.8221819689497334 9.719626101665197 0.08346206275746304 19.286587342619896 0.69881758117117065
leaf_count=26 58 42 14 42 28
internal_value=0 -0.00363518 0.000619351 0.00265326 -0.00801577
internal_weight=0 19.3241 9.80309 26.4758 9.521
internal_count=210 142 56 68 86
shrinkage=0.1


Tree=82
num_leaves=6
num_cat=0
split_feature=0 0 0 0 0
split_gain=0.000421734 0.000350144 5.87333e-05 2.33881e-05 1.90876e-06
threshold=0.15000000000000005 0.35000000000000003 0.45000000000000007 1.0000000180025095e-35 0.25000000000000006
decision_type=2 2 2 2 2
left_child=3 4 -3 -1 -2
right_child=1 2 -4 -5 -6
leaf_value=0.00010527560330690351 -0.00079984585231900138 8.6982447196384105e-05 -0.0025777627486059675 0.00031663022196977636 -0.0006281928340298986
leaf_weight=7.1866710223257568 8.8192831864580494 9.7174071194604021 0.083422926720232563 19.285876005887985 0.69916909537278193
leaf_count=26 58 42 14 42 28
internal_value=0 -0.00355245 0.000643006 0.00259252 -0.00787237
internal_weight=0 19.3193 9.80083 26.4725 9.51845
internal_count=210 142 56 68 86
shrinkage=0.1


Tree=83
num_leaves=6
num_cat=0
split_feature=0 0 0 0 0
split_gain=0.000401897 0.000340955 5.48563e-05 2.15284e-05 2.07715e-06
threshold=0.15000000000000005 0.35000000000000003 0.45000000000000007 1.0000000180025095e-35 0.25000000000000006
decision_type=2 2 2 2 2
left_child=3 4 -3 -1 -2
right_child=1 2 -4 -5 -6
leaf_value=0.00010532846734917286 -0.00078634702425828425 8.9124847084688183e-05 -0.0024867766750583829 0.00030813156837857929 -0.00060732019508566275
leaf_weight=7.1842842604964998 8.8164447951130551 9.7152767367660982 0.08338342956267375 19.285200655460358 0.69950587162748057
leaf_count=26 58 42 14 42 28
internal_value=0 -0.00346841 0.000672048 0.00253087 -0.00773187
internal_weight=0 19.3146 9.79866 26.4695 9.51595
internal_count=210 142 56 68 86
shrinkage=0.1


Tree=84
num_leaves=6
num_cat=0
split_feature=0 0 0 0 0
split_gain=0.000384608 0.000330526 5.12108e-05 1.96041e-05 2.24899e-06
threshold=0.15000000000000005 0.35000000000000003 0.45000000000000007 1.0000000180025095e-35 0.25000000000000006
decision_type=2 2 2 2 2
left_child=3 4 -3 -1 -2
right_child=1 2 -4 -5 -6
leaf_value=0.00010656079365492152 -0.00077288356214255509 8.9532047122986471e-05 -0.002399910480226294 0.00030011000470642928 -0.00058663618770869513
leaf_weight=7.1821600720286396 8.813651117961852 9.7132965568453056 0.083342761499808016 19.284494780004025 0.69982728548348028
leaf_count=26 58 42 14 42 28
internal_value=0 -0.00339347 0.000683537 0.00247587 -0.00759183
internal_weight=0 19.3101 9.79664 26.4667 9.51348
internal_count=210 142 56 68 86
shrinkage=0.1


Tree=85
num_leaves=6
num_cat=0
split_feature=0 0 0 0 0
split_gain=0.000367877 0.000320385 4.77929e-05 1.7971e-05 2.4074e-06
threshold=0.15000000000000005 0.35000000000000003 0.45000000000000007 1.0000000180025095e-35 0.25000000000000006
decision_type=2 2 2 2 2
left_child=3 4 -3 -1 -2
right_child=1 2 -4 -5 -6
leaf_value=0.00010709655006045539 -0.00075951456708692048 8.9962151596020625e-05 -0.0023154918441769361 0.00029243033724960692 -0.00056685757831476515
leaf_weight=7.1799648404121426 8.8109170515090209 9.7113520596176368 0.083306519547478142 19.283883817493916 0.70014271093532521
leaf_count=26 58 42 14 42 28
internal_value=0 -0.0033193 0.00069503 0.00242147 -0.00745332
internal_weight=0 19.3057 9.79466 26.4638 9.51106
internal_count=210 142 56 68 86
shrinkage=0.1


Tree=86
num_leaves=6
num_cat=0
split_feature=0 0 0 0 0
split_gain=0.000350722 0.000311583 4.4636e-05 1.67921e-05 2.56901e-06
threshold=0.15000000000000005 0.35000000000000003 0.45000000000000007 1.0000000180025095e-35 0.25000000000000006
decision_type=2 2 2 2 2
left_child=3 4 -3 -1 -2
right_child=1 2 -4 -5 -6
leaf_value=0.00010586630899327912 -0.00074654165286987088 9.1542105454426033e-05 -0.0022335847125861904 0.00028503826916575863 -0.00054756133804634668
leaf_weight=7.1777836345136192 8.8082469967193884 9.709438690915702 0.083272398565896619 19.283356189727783 0.70044889976270575
leaf_count=26 58 42 14 42 28
internal_value=0 -0.00324144 0.000717704 0.00236437 -0.00731884
internal_weight=0 19.3014 9.79271 26.4611 9.5087
internal_count=210 142 56 68 86
shrinkage=0.1


Tree=87
num_leaves=6
num_cat=0
split_feature=0 0 0 0 0
split_gain=0.000336579 0.00030157 4.16786e-05 1.52564e-05 2.72149e-06
threshold=0.15000000000000005 0.35000000000000003 0.45000000000000007 1.0000000180025095e-35 0.25000000000000006
decision_type=2 2 2 2 2
left_child=3 4 -3 -1 -2
right_child=1 2 -4 -5 -6
leaf_value=0.00010714812767020958 -0.00073386488436279456 9.1054071794540988e-05 -0.0021562191220005256 0.00027794786713015068 -0.00052910217661041655
leaf_weight=7.1759314965456751 8.8056223830208165 9.7076923316344601 0.083235585247167232 19.282753825187683 0.70074404228944409
leaf_count=26 58 42 14 42 28
internal_value=0 -0.00317581 0.000719493 0.00231625 -0.00718771
internal_weight=0 19.2973 9.79093 26.4587 9.50637
internal_count=210 142 56 68 86
shrinkage=0.1


Tree=88
num_leaves=6
num_cat=0
split_feature=0 0 0 0 0
split_gain=0.0003216 0.000292288 3.89143e-05 1.41882e-05 2.86511e-06
threshold=0.15000000000000005 0.35000000000000003 0.45000000000000007 1.0000000180025095e-35 0.25000000000000006
decision_type=2 2 2 2 2
left_child=3 4 -3 -1 -2
right_child=1 2 -4 -5 -6
leaf_value=0.00010635567371217465 -0.00072098791223660827 9.1505757537591113e-05 -0.0020803655709969709 0.00027108446735043265 -0.00051092912332892522
leaf_weight=7.1739098876714733 8.8030529310926777 9.7059267843142134 0.083204835536890509 19.282280504703522 0.70103069185279387
leaf_count=26 58 42 14 42 28
internal_value=0 -0.00310473 0.000730455 0.00226416 -0.00705494
internal_weight=0 19.2932 9.78913 26.4562 9.50408
internal_count=210 142 56 68 86
shrinkage=0.1


Tree=89
num_leaves=6
num_cat=0
split_feature=0 0 0 0 0
split_gain=0.000307144 0.000284139 3.63745e-05 1.31801e-05 3.04436e-06
threshold=0.15000000000000005 0.35000000000000003 0.45000000000000007 1.0000000180025095e-35 0.25000000000000006
decision_type=2 2 2 2 2
left_child=3 4 -3 -1 -2
right_child=1 2 -4 -5 -6
leaf_value=0.00010553381182007047 -0.00070896110090110337 9.255447716927204e-05 -0.0020076428259926875 0.00026431837755115011 -0.00049246827897288703
leaf_weight=7.1720420345664051 8.8005476798862201 9.7042312761768681 0.08317321562208313 19.281821802258492 0.70130624016746956
leaf_count=26 58 42 14 42 28
internal_value=0 -0.00303455 0.00074707 0.00221269 -0.00692982
internal_weight=0 19.2893 9.7874 26.4539 9.50185
internal_count=210 142 56 68 86
shrinkage=0.1


Tree=90
num_leaves=6
num_cat=0
split_feature=0 0 0 0 0
split_gain=0.000294415 0.000274644 3.39745e-05 1.20672e-05 3.16446e-06
threshold=0.15000000000000005 0.35000000000000003 0.45000000000000007 1.0000000180025095e-35 0.25000000000000006
decision_type=2 2 2 2 2
left_child=3 4 -3 -1 -2
right_child=1 2 -4 -5 -6
leaf_value=0.00010587898497387756 -0.00069645072571594083 9.1923133689175934e-05 -0.0019382039528714357 0.00025782533333902651 -0.00047576579723153579
leaf_weight=7.1704011093825128 8.7980719008482975 9.7026639012619835 0.0831403473857798 19.281316921114922 0.70157559681683856
leaf_count=26 58 42 14 42 28
internal_value=0 -0.00297139 0.000746751 0.00216636 -0.00680153
internal_weight=0 19.2855 9.7858 26.4517 9.49965
internal_count=210 142 56 68 86
shrinkage=0.1


Tree=91
num_leaves=6
num_cat=0
split_feature=0 0 0 0 0
split_gain=0.000282335 0.000265791 3.17119e-05 1.11879e-05 3.31675e-06
threshold=0.15000000000000005 0.35000000000000003 0.45000000000000007 1.0000000180025095e-35 0.25000000000000006
decision_type=2 2 2 2 2
left_child=3 4 -3 -1 -2
right_child=1 2 -4 -5 -6
leaf_value=0.00010548732234158851 -0.00068454317337721495 9.144778941203549e-05 -0.0018702543584379425 0.00025180635034019152 -0.00045864716234480531
leaf_weight=7.1686624884605434 8.7956623537465912 9.7011086298152787 0.083111525862478497 19.280894346535206 0.70183779462240725
leaf_count=26 58 42 14 42 28
internal_value=0 -0.00291011 0.000747842 0.00212149 -0.0066785
internal_weight=0 19.2817 9.78422 26.4496 9.4975
internal_count=210 142 56 68 86
shrinkage=0.1


Tree=92
num_leaves=6
num_cat=0
split_feature=0 0 0 0 0
split_gain=0.00026902 0.000258053 2.96497e-05 1.0553e-05 3.45768e-06
threshold=0.15000000000000005 0.35000000000000003 0.45000000000000007 1.0000000180025095e-35 0.25000000000000006
decision_type=2 2 2 2 2
left_child=3 4 -3 -1 -2
right_child=1 2 -4 -5 -6
leaf_value=0.00010347890927321709 -0.00067251304329585661 9.2466068532974602e-05 -0.0018046860610234101 0.00024559869751346976 -0.00044190415421366063
leaf_weight=7.1669393554329899 8.7932997527532262 9.6995615353807789 0.083084548125044302 19.280537858605385 0.70209218049421984
leaf_count=26 58 42 14 42 28
internal_value=0 -0.00284102 0.000763535 0.00207086 -0.00655462
internal_weight=0 19.278 9.78265 26.4475 9.49539
internal_count=210 142 56 68 86
shrinkage=0.1


Tree=93
num_leaves=6
num_cat=0
split_feature=0 0 0 0 0
split_gain=0.0002589 0.000249096 2.76762e-05 9.61804e-06 3.58519e-06
threshold=0.15000000000000005 0.35000000000000003 0.45000000000000007 1.0000000180025095e-35 0.25000000000000006
decision_type=2 2 2 2 2
left_child=3 4 -3 -1 -2
right_child=1 2 -4 -5 -6
leaf_value=0.00010423119650434077 -0.00066101450298280376 9.0990103820065251e-05 -0.0017422788233285849 0.00023991909637849056 -0.00042622813200281532
leaf_weight=7.1655527688562897 8.790980452205984 9.6981834787875396 0.083053409238346684 19.280071727931499 0.70234022708609778
leaf_count=26 58 42 14 42 28
internal_value=0 -0.0027874 0.000754236 0.00203154 -0.00643644
internal_weight=0 19.2746 9.78124 26.4456 9.49332
internal_count=210 142 56 68 86
shrinkage=0.1


Tree=94
num_leaves=6
num_cat=0
split_feature=0 0 0 0 0
split_gain=0.000248172 0.000241237 2.58435e-05 8.91153e-06 3.71233e-06
threshold=0.15000000000000005 0.35000000000000003 0.45000000000000007 1.0000000180025095e-35 0.25000000000000006
decision_type=2 2 2 2 2
left_child=3 4 -3 -1 -2
right_child=1 2 -4 -5 -6
leaf_value=0.00010366769470033168 -0.00064976217378043288 9.0660205703984854e-05 -0.0016811298985993939 0.00023428794522582178 -0.000410885136767224
leaf_weight=7.1639353092759874 8.7887209518812579 9.6967575596645457 0.08302912185899991 19.279740497469902 0.70258329680655229
leaf_count=26 58 42 14 42 28
internal_value=0 -0.00272934 0.000756179 0.00198901 -0.0063208
internal_weight=0 19.2711 9.77979 26.4437 9.4913
internal_count=210 142 56 68 86
shrinkage=0.1


Tree=95
num_leaves=6
num_cat=0
split_feature=0 0 0 0 0
split_gain=0.000238017 0.00023362 2.41449e-05 8.27096e-06 3.82709e-06
threshold=0.15000000000000005 0.35000000000000003 0.45000000000000007 1.0000000180025095e-35 0.25000000000000006
decision_type=2 2 2 2 2
left_child=3 4 -3 -1 -2
right_child=1 2 -4 -5 -6
leaf_value=0.00010303203722508373 -0.00063875306534678824 9.0244257365543765e-05 -0.0016225590280347143 0.00022888062046135091 -0.00039624781254067192
leaf_weight=7.1623554024845388 8.7865096922032517 9.695375985465942 0.083006478729658592 19.279439948499203 0.70282174542080689
leaf_count=26 58 42 14 42 28
internal_value=0 -0.00267319 0.000757047 0.00194792 -0.00620792
internal_weight=0 19.2677 9.77838 26.4418 9.48933
internal_count=210 142 56 68 86
shrinkage=0.1


Tree=96
num_leaves=6
num_cat=0
split_feature=0 0 0 0 0
split_gain=0.000227317 0.000227037 2.25836e-05 7.8349e-06 3.93571e-06
threshold=0.15000000000000005 0.35000000000000003 0.45000000000000007 1.0000000180025095e-35 0.25000000000000006
decision_type=2 2 2 2 2
left_child=3 4 -3 -1 -2
right_child=1 2 -4 -5 -6
leaf_value=0.00010104297330475089 -0.00062798949170298326 9.0965544309770264e-05 -0.0015657552379522172 0.00022353895169798411 -0.00038210211853757179
leaf_weight=7.1608155667781856 8.7843451783992332 9.6940138135105354 0.082984444918111744 19.279175966978073 0.70305387245025563
leaf_count=26 58 42 14 42 28
internal_value=0 -0.00261271 0.000769038 0.00190363 -0.00609768
internal_weight=0 19.2644 9.777 26.44 9.4874
internal_count=210 142 56 68 86
shrinkage=0.1


Tree=97
num_leaves=6
num_cat=0
split_feature=0 0 0 0 0
split_gain=0.000218554 0.000219112 2.1097e-05 7.26121e-06 4.0348e-06
threshold=0.15000000000000005 0.35000000000000003 0.45000000000000007 1.0000000180025095e-35 0.25000000000000006
decision_type=2 2 2 2 2
left_child=3 4 -3 -1 -2
right_child=1 2 -4 -5 -6
leaf_value=0.00010066173643054223 -0.00061706967036507208 8.96145036083301e-05 -0.0015118940363908128 0.00021859544403956743 -0.00036814048091577366
leaf_weight=7.1595839373767403 8.7822076831944269 9.6927944244816882 0.082958837272600117 19.278814882040024 0.70327753853052932
leaf_count=26 58 42 14 42 28
internal_value=0 -0.00256211 0.000760238 0.00186659 -0.00598613
internal_weight=0 19.2612 9.77575 26.4384 9.48549
internal_count=210 142 56 68 86
shrinkage=0.1


Tree=98
num_leaves=6
num_cat=0
split_feature=0 0 0 0 0
split_gain=0.000210047 0.000211425 1.96932e-05 6.66774e-06 4.14919e-06
threshold=0.15000000000000005 0.35000000000000003 0.45000000000000007 1.0000000180025095e-35 0.25000000000000006
decision_type=2 2 2 2 2
left_child=3 4 -3 -1 -2
right_child=1 2 -4 -5 -6
leaf_value=0.00010057378903400183 -0.00060630421842805841 8.8300808842206596e-05 -0.0014592116789779025 0.0002135932472100529 -0.00035390574268847312
leaf_weight=7.1582477018237141 8.7801200770772976 9.6915757581591588 0.082936939899810436 19.278515003621578 0.70349851658102203
leaf_count=26 58 42 14 42 28
internal_value=0 -0.002512 0.000751701 0.00182991 -0.00587581
internal_weight=0 19.2581 9.77451 26.4368 9.48362
internal_count=210 142 56 68 86
shrinkage=0.1


Tree=99
num_leaves=6
num_cat=0
split_feature=0 0 0 0 0
split_gain=0.000201222 0.000204876 1.84056e-05 6.31312e-06 4.23119e-06
threshold=0.15000000000000005 0.35000000000000003 0.45000000000000007 1.0000000180025095e-35 0.25000000000000006
decision_type=2 2 2 2 2
left_child=3 4 -3 -1 -2
right_child=1 2 -4 -5 -6
leaf_value=9.8899272095905353e-05 -0.00059597389922412601 8.8093733119556448e-05 -0.0014081309579634898 0.00020888053513102084 -0.00034112759701211372
leaf_weight=7.156794877722862 8.7780868341214937 9.6903329649940115 0.08291943580843586 19.278308287262917 0.70371592929586846
leaf_count=26 58 42 14 42 28
internal_value=0 -0.00245892 0.000753993 0.00179105 -0.0057706
internal_weight=0 19.2551 9.77325 26.4351 9.4818
internal_count=210 142 56 68 86
shrinkage=0.1


end of trees

feature importances:
geographical=500

parameters:
[boosting: gbdt]
[objective: lambdarank]
[metric: ndcg]
[tree_learner: serial]
[device_type: cpu]
[data: ]
[valid: ]
[num_iterations: 100]
[learning_rate: 0.1]
[num_leaves: 16]
[num_threads: -1]
[max_depth: -1]
[min_data_in_leaf: 5]
[min_sum_hessian_in_leaf: 0.001]
[bagging_fraction: 1]
[pos_bagging_fraction: 1]
[neg_bagging_fraction: 1]
[bagging_freq: 0]
[bagging_seed: 3]
[feature_fraction: 1]
[feature_fraction_bynode: 1]
[feature_fraction_seed: 2]
[early_stopping_round: 0]
[first_metric_only: 0]
[max_delta_step: 0]
[lambda_l1: 0]
[lambda_l2: 0]
[min_gain_to_split: 0]
[drop_rate: 0.1]
[max_drop: 50]
[skip_drop: 0.5]
[xgboost_dart_mode: 0]
[uniform_drop: 0]
[drop_seed: 4]
[top_rate: 0.2]
[other_rate: 0.1]
[min_data_per_group: 100]
[max_cat_threshold: 32]
[cat_l2: 10]
[cat_smooth: 10]
[max_cat_to_onehot: 4]
[top_k: 20]
[monotone_constraints: ]
[feature_contri: ]
[forcedsplits_filename: ]
[forcedbins_filename: ]
[refit_decay_rate: 0.9]
[cegb_tradeoff: 1]
[cegb_penalty_split: 0]
[cegb_penalty_feature_lazy: ]
[cegb_penalty_feature_coupled: ]
[verbosity: -1]
[max_bin: 255]
[max_bin_by_feature: ]
[min_data_in_bin: 3]
[bin_construct_sample_cnt: 200000]
[histogram_pool_size: -1]
[data_random_seed: 1]
[output_model: LightGBM_model.txt]
[snapshot_freq: -1]
[input_model: ]
[output_result: LightGBM_predict_result.txt]
[initscore_filename: ]
[valid_data_initscores: ]
[pre_partition: 0]
[enable_bundle: 1]
[max_conflict_rate: 0]
[is_enable_sparse: 1]
[sparse_threshold: 0.8]
[use_missing: 1]
[zero_as_missing: 0]
[two_round: 0]
[save_binary: 0]
[header: 0]
[label_column: ]
[weight_column: ]
[group_column: ]
[ignore_column: ]
[categorical_feature: ]
[predict_raw_score: 0]
[predict_leaf_index: 0]
[predict_contrib: 0]
[num_iteration_predict: -1]
[pred_early_stop: 0]
[pred_early_stop_freq: 10]
[pred_early_stop_margin: 10]
[convert_model_language: ]
[convert_model: gbdt_prediction.cpp]
[num_class: 1]
[is_unbalance: 0]
[scale_pos_weight: 1]
[sigmoid: 1]
[boost_from_average: 1]
[reg_sqrt: 0]
[alpha: 0.9]
[fair_c: 1]
[poisson_max_delta_step: 0.7]
[tweedie_variance_power: 1.5]
[max_position: 20]
[lambdamart_norm: 1]
[label_gain: ]
[metric_freq: 1]
[is_provide_training_metric: 0]
[eval_at: 1]
[multi_error_top_k: 1]
[num_machines: 1]
[local_listen_port: 12400]
[time_out: 120]
[machine_list_filename: ]
[machines: ]
[gpu_platform_id: -1]
[gpu_device_id: -1]
[gpu_use_dp: 0]

end of parameters

pandas_categorical:null
