tree
version=v3
num_class=1
num_tree_per_iteration=1
label_index=0
max_feature_idx=0
objective=lambdarank
feature_names=geographical
feature_infos=[0:0.5]
tree_sizes=746 746 751 757 755 755 747 760 761 757 760 758 745 764 759 759 750 760 763 753 756 749 763 758 764 743 765 762 757 763 762 759 750 759 769 762 751 759 764 761 763 764 764 757 743 762 766 764 768 759 765 757 749 764 761 763 751 763 763 768 767 764 759 748 768 765 768 760 764 751 764 758 757 763 748 764 765 761 763 766 757 745 764 759 763 748 761 766 764 761 754 750 763 761 759 750 765 763 766 756

Tree=0
num_leaves=6
num_cat=0
split_feature=0 0 0 0 0
split_gain=0.475999 2.08898 0.510992 0.0355995 0.0261954
threshold=0.25000000000000006 0.35000000000000003 0.45000000000000007 1.0000000180025095e-35 0.15000000000000005
decision_type=2 2 2 2 2
left_child=3 -2 -3 -1 -5
right_child=1 2 -4 4 -6
leaf_value=-0.00023331936455094648 -0.14404956990513787 0.029571544822472776 -0.067279014656194125 0.022631910365600461 0.010884784225700335
leaf_weight=1.7827659025788296 1.1390768745914108 2.9090616470202808 0.67028728313744057 3.078258063644169 4.9521846994757652
leaf_count=26 28 40 16 44 56
internal_value=0 -0.261007 0.114348 0.125499 0.153877
internal_weight=0 4.71843 3.57935 9.81321 8.03044
internal_count=210 84 56 126 100
shrinkage=0.1


Tree=1
num_leaves=6
num_cat=0
split_feature=0 0 0 0 0
split_gain=6.8712 1.32565 0.420898 0.0535554 0.0193243
threshold=0.15000000000000005 0.25000000000000006 0.35000000000000003 0.45000000000000007 1.0000000180025095e-35
decision_type=2 2 2 2 2
left_child=4 -2 -3 -4 -1
right_child=1 2 3 -5 -6
leaf_value=0.045959992858121669 0.00041591456944364429 -0.11947538179924461 -0.037252545046561295 -0.066493467653302871 0.053667376930095101
leaf_weight=4.3647041805088529 12.318496413528917 0.65579310571775096 20.666800588369373 0.64593216590583225 12.772510085254908
leaf_count=26 56 28 40 16 44
internal_value=0 -0.258427 -0.405668 -0.381388 0.517044
internal_weight=0 34.287 21.9685 21.3127 17.1372
internal_count=210 140 84 56 70
shrinkage=0.1


Tree=2
num_leaves=6
num_cat=0
split_feature=0 0 0 0 0
split_gain=1.06964 0.347793 0.335804 0.110635 0.0102507
threshold=0.35000000000000003 0.45000000000000007 0.15000000000000005 0.25000000000000006 1.0000000180025095e-35
decision_type=2 2 2 2 2
left_child=2 -2 4 -4 -1
right_child=1 -3 3 -5 -6
leaf_value=0.0029407835336791054 0.038101721079428545 -0.038869514929330475 -0.01856469334885975 -0.063031548295074444 -0.0017493246850736361
leaf_weight=6.046593829989436 7.7849968066439015 0.63491035159677256 11.696224962361153 0.58763647964224297 20.321196973323822
leaf_count=26 40 16 56 28 44
internal_value=0 0.322976 -0.0703574 -0.206919 -0.00673801
internal_weight=0 8.41991 38.6517 12.2839 26.3678
internal_count=210 56 154 84 70
shrinkage=0.1


Tree=3
num_leaves=6
num_cat=0
split_feature=0 0 0 0 0
split_gain=0.61607 0.319479 0.153564 0.0141556 0.00206853
threshold=0.35000000000000003 0.25000000000000006 0.45000000000000007 0.15000000000000005 1.0000000180025095e-35
decision_type=2 2 2 2 2
left_child=1 3 -2 4 -1
right_child=2 -3 -4 -5 -6
leaf_value=-0.0050603398271325557 0.024952981292971205 -0.078937009973684191 -0.03331046280817835 -0.0078675496980422487 -0.0029964744117141179
leaf_weight=6.3391367271542576 9.4544334365054929 0.58838967396877606 0.47510545328259546 10.087190072052179 20.759361431002617
leaf_count=26 40 28 16 56 44
internal_value=0 -0.0582649 0.221652 -0.0466966 -0.0347927
internal_weight=0 37.7741 9.92954 37.1857 27.0985
internal_count=210 154 56 126 70
shrinkage=0.1


Tree=4
num_leaves=6
num_cat=0
split_feature=0 0 0 0 0
split_gain=0.127639 0.206173 0.137102 0.108013 0.000627414
threshold=0.35000000000000003 0.25000000000000006 1.0000000180025095e-35 0.45000000000000007 0.15000000000000005
decision_type=2 2 2 2 2
left_child=1 2 -1 -2 -4
right_child=3 -3 4 -5 -6
leaf_value=0.012985051730635062 0.010909278785896388 -0.065919736974423382 -0.0047900570890669703 -0.043978055375055142 -0.0038153323908822513
leaf_weight=5.2395777255296698 11.223288487643 0.51144738658331235 21.776402324438095 0.37036583852022958 9.4779664278030413
leaf_count=26 40 28 44 16 56
internal_value=0 -0.028685 -0.0198487 0.0915587 -0.0449447
internal_weight=0 37.0054 36.4939 11.5937 31.2544
internal_count=210 154 126 56 100
shrinkage=0.1


Tree=5
num_leaves=6
num_cat=0
split_feature=0 0 0 0 0
split_gain=0.192827 0.108705 0.0685622 0.0540382 0.0333335
threshold=0.35000000000000003 0.25000000000000006 0.45000000000000007 1.0000000180025095e-35 0.15000000000000005
decision_type=2 2 2 2 2
left_child=1 3 -2 -1 -5
right_child=2 -3 -4 4 -6
leaf_value=0.0059978971843003409 0.011699095131323873 -0.058165798887834776 -0.041359005145698582 -0.006465329889235847 0.00073585898887799494
leaf_weight=5.705249771475791 12.515447393059727 0.36035011848434712 0.24837949732318601 24.10642833262682 8.7651552585884911
leaf_count=26 40 28 16 44 56
internal_value=0 -0.0349657 0.106666 -0.029859 -0.0454514
internal_weight=0 38.9372 12.7638 38.5768 32.8716
internal_count=210 154 56 126 100
shrinkage=0.1


Tree=6
num_leaves=6
num_cat=0
split_feature=0 0 0 0 0
split_gain=4.50463 0.710596 1.38078 0.0276454 0.00301122
threshold=0.25000000000000006 0.15000000000000005 1.0000000180025095e-35 0.35000000000000003 0.45000000000000007
decision_type=2 2 2 2 2
left_child=1 2 -1 -2 -5
right_child=3 -3 -4 4 -6
leaf_value=0.0036430451148764999 -0.061351565094899391 0.003705074389032561 0.059289908434818919 -0.035576966922558066 -0.024169308536925147
leaf_weight=7.3917533829808244 0.42055745911784725 9.5858621681109089 11.238910900428891 19.600814171135429 0.23415699228644271
leaf_count=26 28 56 44 40 16
internal_value=0 0.258288 0.372119 -0.359802 -0.354423
internal_weight=0 28.2165 18.6307 20.2555 19.835
internal_count=210 126 70 84 56
shrinkage=0.1


Tree=7
num_leaves=6
num_cat=0
split_feature=0 0 0 0 0
split_gain=0.537535 0.0972295 0.0648157 0.0149308 0.00333773
threshold=0.35000000000000003 0.25000000000000006 0.45000000000000007 0.15000000000000005 1.0000000180025095e-35
decision_type=2 2 2 2 2
left_child=1 3 -2 4 -1
right_child=2 -3 -4 -5 -6
leaf_value=-0.0057937735309332265 0.022653108307954008 -0.049676444865494641 -0.020160535944213923 -0.0083232780213341462 -0.0031043723103863973
leaf_weight=6.0051176976412561 9.2460021870210731 0.49341776478104193 0.36766381282359439 9.7154959128238243 19.929972030222416
leaf_count=26 40 28 16 56 44
internal_value=0 -0.0558982 0.210157 -0.0497964 -0.0372709
internal_weight=0 36.144 9.61367 35.6506 25.9351
internal_count=210 154 56 126 70
shrinkage=0.1


Tree=8
num_leaves=6
num_cat=0
split_feature=0 0 0 0 0
split_gain=0.250192 0.0430202 0.0736799 0.0295985 0.00254779
threshold=1.0000000180025095e-35 0.35000000000000003 0.25000000000000006 0.45000000000000007 0.15000000000000005
decision_type=2 2 2 2 2
left_child=-1 2 4 -3 -2
right_child=1 3 -4 -5 -6
leaf_value=0.020487084739315542 -0.0033432628383161037 0.003447093605012109 -0.043021369791439508 -0.027876938219406313 -0.0053426773579723268
leaf_weight=5.2833706215023986 19.933140039443977 11.095288024283942 0.49156442447565402 0.31008873367682177 9.3686272627674025
leaf_count=26 44 40 28 16 56
internal_value=0 -0.0262729 -0.0462664 0.0259546 -0.0398253
internal_weight=0 41.1987 29.7933 11.4054 29.3018
internal_count=210 184 128 56 100
shrinkage=0.1


Tree=9
num_leaves=6
num_cat=0
split_feature=0 0 0 0 0
split_gain=0.615625 0.0528444 0.0435933 0.0217105 7.65768e-06
threshold=0.35000000000000003 0.25000000000000006 0.45000000000000007 1.0000000180025095e-35 0.15000000000000005
decision_type=2 2 2 2 2
left_child=1 3 -2 -1 -5
right_child=2 -3 -4 4 -6
leaf_value=-0.010787325431244018 0.023438188164461124 -0.039093551949648482 -0.015079850004119483 -0.004339844689526166 -0.0044493853566447746
leaf_weight=6.410140447318553 9.5130033865570987 0.47456789971329166 0.30319169862195927 20.644464924931526 9.237425811588766
leaf_count=26 40 28 16 44 56
internal_value=0 -0.0594005 0.222485 -0.0550652 -0.0437371
internal_weight=0 36.7666 9.8162 36.292 29.8819
internal_count=210 154 56 126 100
shrinkage=0.1


Tree=10
num_leaves=6
num_cat=0
split_feature=0 0 0 0 0
split_gain=0.131929 0.125099 0.0408549 0.0352677 0.00864613
threshold=0.35000000000000003 1.0000000180025095e-35 0.25000000000000006 0.45000000000000007 0.15000000000000005
decision_type=2 2 2 2 2
left_child=1 -1 4 -2 -3
right_child=3 2 -4 -5 -6
leaf_value=0.011976709967458643 0.010194563826493662 -0.0059536519004424054 -0.036521783114831147 -0.026953263893254521 -0.0022614963585894429
leaf_weight=4.8432215563952914 11.194633794948455 21.792736180126674 0.41352457134053006 0.2615412091836341 8.9462054148316366
leaf_count=26 40 44 28 16 56
internal_value=0 -0.0297466 -0.0529913 0.0934649 -0.0487909
internal_weight=0 35.9957 31.1525 11.4562 30.7389
internal_count=210 154 128 56 100
shrinkage=0.1


Tree=11
num_leaves=6
num_cat=0
split_feature=0 0 0 0 0
split_gain=0.186458 0.0681755 0.0284963 0.0273514 0.0356225
threshold=0.35000000000000003 1.0000000180025095e-35 0.45000000000000007 0.15000000000000005 0.25000000000000006
decision_type=2 2 2 2 2
left_child=1 -1 -2 -3 -5
right_child=2 3 -4 4 -6
leaf_value=0.0074977639921165089 0.010909966026853801 -0.006962248176497484 -0.027942098312850629 0.00077579798115468392 -0.034622752139869387
leaf_weight=4.8429519459605208 12.777029521763321 23.943393424153328 0.1916130068711944 8.4202119037508929 0.29421835090033788
leaf_count=26 40 44 16 56 28
internal_value=0 -0.035744 0.103359 -0.0521633 -0.00419335
internal_weight=0 37.5008 12.9686 32.6578 8.71443
internal_count=210 154 56 128 84
shrinkage=0.1


Tree=12
num_leaves=6
num_cat=0
split_feature=0 0 0 0 0
split_gain=3.91423 0.675449 0.13329 0.00244561 0.00144179
threshold=0.25000000000000006 0.15000000000000005 1.0000000180025095e-35 0.45000000000000007 0.35000000000000003
decision_type=2 2 2 2 2
left_child=1 2 -1 4 -2
right_child=3 -3 -4 -5 -6
leaf_value=0.022708530250574191 -0.04029804483619405 0.0020102544621619393 0.040857128515437241 -0.022739924708848065 -0.033968463226789598
leaf_weight=5.9325666204094896 0.36672593082767591 9.2242373623885232 12.731199907138944 0.1918065925128748 19.261490769684315
leaf_count=26 28 56 44 16 40
internal_value=0 0.241474 0.350883 -0.339769 -0.340867
internal_weight=0 27.888 18.6638 19.82 19.6282
internal_count=210 126 70 84 68
shrinkage=0.1


Tree=13
num_leaves=6
num_cat=0
split_feature=0 0 0 0 0
split_gain=0.418238 0.0273439 0.0188784 0.000417459 5.61257e-06
threshold=0.35000000000000003 0.25000000000000006 0.45000000000000007 0.15000000000000005 1.0000000180025095e-35
decision_type=2 2 2 2 2
left_child=1 3 -2 4 -1
right_child=2 -3 -4 -5 -6
leaf_value=-0.0047738939040696607 0.019674467618558435 -0.029066629164142446 -0.0064932041006847008 -0.0039097078429520277 -0.0046671763906131957
leaf_weight=6.4621676690876511 9.0701677687466109 0.458671570639125 0.28434174135327417 9.0864222296513599 20.761472418904305
leaf_count=26 40 28 16 56 44
internal_value=0 -0.0480311 0.188791 -0.0449662 -0.0469251
internal_weight=0 36.7687 9.35451 36.3101 27.2236
internal_count=210 154 56 126 70
shrinkage=0.1


Tree=14
num_leaves=6
num_cat=0
split_feature=0 0 0 0 0
split_gain=0.6521 0.0404259 0.022139 0.0206758 0.00476724
threshold=0.35000000000000003 1.0000000180025095e-35 0.45000000000000007 0.25000000000000006 0.15000000000000005
decision_type=2 2 2 2 2
left_child=1 -1 -2 4 -3
right_child=2 3 -4 -5 -6
leaf_value=-0.013177398500428065 0.023441638697868854 -0.0050773282764760659 -0.0069487655781016447 -0.026412843472363074 -0.0023163536301288603
leaf_weight=6.6488375291228285 9.7293338887393439 21.045557692646987 0.24576419545337641 0.42720335198100562 8.8977944697253388
leaf_count=26 40 44 16 28 56
internal_value=0 -0.0611473 0.226929 -0.0456855 -0.0425689
internal_weight=0 37.0194 9.9751 30.3706 29.9434
internal_count=210 154 56 128 100
shrinkage=0.1


Tree=15
num_leaves=6
num_cat=0
split_feature=0 0 0 0 0
split_gain=0.183959 0.0854365 0.0237419 0.0211183 0.0207547
threshold=0.35000000000000003 1.0000000180025095e-35 0.15000000000000005 0.25000000000000006 0.45000000000000007
decision_type=2 2 2 2 2
left_child=1 -1 -3 -4 -2
right_child=4 2 3 -5 -6
leaf_value=0.0092219125000349809 0.011070647843364093 -0.0070842983535953268 -4.1529634579781058e-05 -0.02644865391915522 -0.0216444227718494
leaf_weight=4.5673186816275111 12.154219936579462 23.114571012556553 8.4942103549838066 0.31403850961942303 0.19706289283931333
leaf_count=26 40 44 56 28 16
internal_value=0 -0.0357055 -0.0540081 -0.00983017 0.105487
internal_weight=0 36.4901 31.9228 8.80825 12.3513
internal_count=210 154 128 84 56
shrinkage=0.1


Tree=16
num_leaves=6
num_cat=0
split_feature=0 0 0 0 0
split_gain=4.68346 0.893676 0.105292 0.00584203 0.000511658
threshold=0.25000000000000006 0.15000000000000005 1.0000000180025095e-35 0.45000000000000007 0.35000000000000003
decision_type=2 2 2 2 2
left_child=1 2 -1 4 -2
right_child=3 -3 -4 -5 -6
leaf_value=0.028349747912860865 -0.032626732687934638 0.001725707735696168 0.045199055775475207 -0.018395623025983132 -0.036545420784197154
leaf_weight=5.2471624836325654 0.33891239226796344 9.0684049618430453 12.649998176842928 0.1802472984418263 19.750756353139877
leaf_count=26 28 56 44 16 40
internal_value=0 0.273005 0.402591 -0.363185 -0.364793
internal_weight=0 26.9656 17.8972 20.2699 20.0897
internal_count=210 126 70 84 68
shrinkage=0.1


Tree=17
num_leaves=6
num_cat=0
split_feature=0 0 0 0 0
split_gain=0.380772 0.01493 0.0129836 0.000737286 0.000110618
threshold=0.35000000000000003 0.25000000000000006 0.45000000000000007 0.15000000000000005 1.0000000180025095e-35
decision_type=2 2 2 2 2
left_child=1 3 -2 4 -1
right_child=2 -3 -4 -5 -6
leaf_value=-0.0050420265357403599 0.018702159167978152 -0.022589715867946236 -0.0033846671310767333 -0.0036271600167368263 -0.0045617854865929444
leaf_weight=6.2658072598278549 9.0220333309844101 0.457571234786882 0.27424220275133926 8.9827595427632314 20.450889728963375
leaf_count=26 40 28 16 56 44
internal_value=0 -0.0464096 0.180506 -0.044109 -0.0467442
internal_weight=0 36.157 9.29628 35.6995 26.7167
internal_count=210 154 56 126 70
shrinkage=0.1


Tree=18
num_leaves=6
num_cat=0
split_feature=0 0 0 0 0
split_gain=0.581884 0.0357953 0.0160342 0.0118305 0.00355578
threshold=0.35000000000000003 1.0000000180025095e-35 0.45000000000000007 0.25000000000000006 0.15000000000000005
decision_type=2 2 2 2 2
left_child=1 -1 -2 4 -3
right_child=2 3 -4 -5 -6
leaf_value=-0.012570731265893767 0.022324706469592715 -0.0048402270624239461 -0.0035847252370027291 -0.020718225537171418 -0.0024436923064936095
leaf_weight=6.4606519639492026 9.5189080564305151 20.610551618039615 0.24500076146796423 0.43578698008786793 8.8492845310829562
leaf_count=26 40 44 16 28 56
internal_value=0 -0.0582096 0.216746 -0.0436229 -0.0412034
internal_weight=0 36.3563 9.76391 29.8956 29.4598
internal_count=210 154 56 128 100
shrinkage=0.1


Tree=19
num_leaves=6
num_cat=0
split_feature=0 0 0 0 0
split_gain=0.116143 0.110811 0.0131531 0.013375 0.0120399
threshold=0.35000000000000003 1.0000000180025095e-35 0.15000000000000005 0.25000000000000006 0.45000000000000007
decision_type=2 2 2 2 2
left_child=1 -1 -3 -4 -2
right_child=4 2 3 -5 -6
leaf_value=0.011266577655951742 0.009249506845287853 -0.0063566376320311792 -0.001012636218553975 -0.020315227505120558 -0.014615589538664459
leaf_weight=4.831627693027257 11.15667704120278 21.727935530245304 8.6459241337142885 0.37452291278168642 0.21547825448215083
leaf_count=26 40 44 56 28 16
internal_value=0 -0.0281181 -0.0502401 -0.0181407 0.0879731
internal_weight=0 35.58 30.7484 9.02045 11.3722
internal_count=210 154 128 84 56
shrinkage=0.1


Tree=20
num_leaves=6
num_cat=0
split_feature=0 0 0 0 0
split_gain=0.177794 0.0671629 0.0354409 0.0117801 0.0115302
threshold=0.35000000000000003 1.0000000180025095e-35 0.15000000000000005 0.45000000000000007 0.25000000000000006
decision_type=2 2 2 2 2
left_child=1 -1 -3 -2 -4
right_child=3 2 4 -5 -6
leaf_value=0.0074618507569245126 0.010585530498150107 -0.0071575026738837123 0.0010353751934532726 -0.016069338263161113 -0.019752324713800097
leaf_weight=4.853662781417369 12.484908375889059 23.580664195120335 8.2565910127013886 0.16803660709410984 0.27573465311434198
leaf_count=26 40 44 56 16 28
internal_value=0 -0.0350205 -0.0515917 0.102315 0.0036359
internal_weight=0 36.9667 32.113 12.6529 8.53233
internal_count=210 154 128 56 84
shrinkage=0.1


Tree=21
num_leaves=6
num_cat=0
split_feature=0 0 0 0 0
split_gain=4.25649 0.733067 0.125731 0.00838729 0.00324164
threshold=0.25000000000000006 0.15000000000000005 1.0000000180025095e-35 0.45000000000000007 0.35000000000000003
decision_type=2 2 2 2 2
left_child=1 2 -1 4 -2
right_child=3 -3 -4 -5 -6
leaf_value=0.024672819313855121 -0.02551241771578865 0.0020652308123691124 0.042494093114444138 -0.012574556100746998 -0.035520155322851875
leaf_weight=5.7475604750216016 0.32914360484574601 8.9413986369036156 12.720494396984577 0.1629749455023547 19.436115488409996
leaf_count=26 28 56 44 16 40
internal_value=0 0.255686 0.369478 -0.351672 -0.353535
internal_weight=0 27.4095 18.4681 19.9282 19.7653
internal_count=210 126 70 84 68
shrinkage=0.1


Tree=22
num_leaves=6
num_cat=0
split_feature=0 0 0 0 0
split_gain=0.363058 0.00755219 0.00693876 0.00406494 3.33773e-05
threshold=0.35000000000000003 0.45000000000000007 0.25000000000000006 0.15000000000000005 1.0000000180025095e-35
decision_type=2 2 2 2 2
left_child=2 -2 3 4 -1
right_child=1 -3 -4 -5 -6
leaf_value=-0.0051563623680474331 0.018156791272871477 0.00067390686988104962 -0.016918274052795092 -0.0024854949589007093 -0.0048953912848527931
leaf_weight=6.4255650527775314 9.0053997626528108 0.25405582366511303 0.44471072324085881 8.8201111187227053 20.652435258030891
leaf_count=26 40 16 28 56 44
internal_value=0 0.176771 -0.0450379 -0.0435 -0.0495732
internal_weight=0 9.25946 36.3428 35.8981 27.078
internal_count=210 56 154 126 70
shrinkage=0.1


Tree=23
num_leaves=6
num_cat=0
split_feature=0 0 0 0 0
split_gain=0.554121 0.0318231 0.0102528 0.0060513 0.00803423
threshold=0.35000000000000003 1.0000000180025095e-35 0.45000000000000007 0.15000000000000005 0.25000000000000006
decision_type=2 2 2 2 2
left_child=1 -1 -2 -3 -5
right_child=2 3 -4 4 -6
leaf_value=-0.01195753047995333 0.02166153132364404 -0.0052095824750607901 0.00014599698647111483 -0.001471766960475511 -0.015685417389930682
leaf_weight=6.5655341520905486 9.5388337299227679 20.886950425803661 0.22674759989604432 8.6986157395876944 0.41673130833078248
leaf_count=26 40 44 16 56 28
internal_value=0 -0.0565138 0.21162 -0.0427138 -0.0212158
internal_weight=0 36.5678 9.76558 30.0023 9.11535
internal_count=210 154 56 128 84
shrinkage=0.1


Tree=24
num_leaves=6
num_cat=0
split_feature=0 0 0 0 0
split_gain=0.129274 0.0940702 0.0233285 0.00813065 0.00801398
threshold=0.35000000000000003 1.0000000180025095e-35 0.15000000000000005 0.45000000000000007 0.25000000000000006
decision_type=2 2 2 2 2
left_child=1 -1 -3 -2 -4
right_child=3 2 4 -5 -6
leaf_value=0.009824868811161229 0.0095247527175801663 -0.0067397849580730562 -5.1421465940527536e-05 -0.011192413057400041 -0.01573013392964567
leaf_weight=4.9587150812149039 11.403143927454945 22.167760774493217 8.4648555582389235 0.19263701909221784 0.33906570659019131
leaf_count=26 40 44 56 16 28
internal_value=0 -0.0296284 -0.0501021 0.0918059 -0.00655256
internal_weight=0 35.9304 30.9717 11.5958 8.80392
internal_count=210 154 128 56 84
shrinkage=0.1


Tree=25
num_leaves=6
num_cat=0
split_feature=0 0 0 0 0
split_gain=7.82748 1.37177 0.197017 0.0191518 0.015616
threshold=0.25000000000000006 0.15000000000000005 1.0000000180025095e-35 0.45000000000000007 0.35000000000000003
decision_type=2 2 2 2 2
left_child=1 2 -1 4 -2
right_child=3 -3 -4 -5 -6
leaf_value=0.034016730251275315 -0.021666664805394288 0.0024384269187961139 0.057049597858106815 -0.009287402307932591 -0.045810827996822581
leaf_weight=5.1135570444166669 0.27134589804337039 8.5784409018233436 13.565981317311525 0.14703418267890711 20.989652663469315
leaf_count=26 28 56 44 16 40
internal_value=0 0.355418 0.507443 -0.45254 -0.455027
internal_weight=0 27.258 18.6795 21.408 21.261
internal_count=210 126 70 84 68
shrinkage=0.1


Tree=26
num_leaves=6
num_cat=0
split_feature=0 0 0 0 0
split_gain=0.274913 0.00534135 0.00506211 0.000650091 0.00111035
threshold=0.35000000000000003 0.45000000000000007 0.25000000000000006 1.0000000180025095e-35 0.15000000000000005
decision_type=2 2 2 2 2
left_child=2 -2 3 -1 -5
right_child=1 -3 -4 4 -6
leaf_value=-0.0028901524328057812 0.015981265706015383 0.0016392160676812911 -0.014359462470482871 -0.0044348403494751838 -0.003089875964067232
leaf_weight=6.1215227209031573 8.7847904618829453 0.26758397417143065 0.4622870854800557 20.114537224173546 8.8338807891123015
leaf_count=26 40 16 28 44 56
internal_value=0 0.155573 -0.0396346 -0.0382642 -0.0402441
internal_weight=0 9.05237 35.5322 35.0699 28.9484
internal_count=210 56 154 126 100
shrinkage=0.1


Tree=27
num_leaves=6
num_cat=0
split_feature=0 0 0 0 0
split_gain=0.31984 0.00594766 0.00380988 0.00359284 6.31875e-05
threshold=0.35000000000000003 0.45000000000000007 0.25000000000000006 0.15000000000000005 1.0000000180025095e-35
decision_type=2 2 2 2 2
left_child=2 -2 3 4 -1
right_child=1 -3 -4 -5 -6
leaf_value=-0.0050294661518019658 0.017067399855251124 0.0016368827843278606 -0.013383028627183111 -0.002413831222033471 -0.0046642137874354306
leaf_weight=6.1805093511939075 8.932643406093117 0.25698196212761182 0.45445145067060266 8.7687618606723827 20.270237177610397
leaf_count=26 40 16 28 56 44
internal_value=0 0.166359 -0.0428541 -0.0416802 -0.0474956
internal_weight=0 9.18963 35.674 35.2195 26.4507
internal_count=210 56 154 126 70
shrinkage=0.1


Tree=28
num_leaves=6
num_cat=0
split_feature=0 0 0 0 0
split_gain=0.456558 0.0209251 0.0079408 0.00447994 0.00481113
threshold=0.35000000000000003 1.0000000180025095e-35 0.45000000000000007 0.15000000000000005 0.25000000000000006
decision_type=2 2 2 2 2
left_child=1 -1 -2 -3 -5
right_child=2 3 -4 4 -6
leaf_value=-0.010396450347140441 0.019931197357587194 -0.004876937566390095 0.0014221280850543205 -0.0016964015285326325 -0.012448251542742837
leaf_weight=6.3120319657027713 9.2798821032047236 20.400845095515251 0.237728211795912 8.6886601466685534 0.4371172884712004
leaf_count=26 40 44 16 56 28
internal_value=0 -0.0517032 0.194689 -0.040531 -0.0221141
internal_weight=0 35.8387 9.51761 29.5266 9.12578
internal_count=210 154 56 128 84
shrinkage=0.1


Tree=29
num_leaves=6
num_cat=0
split_feature=0 0 0 0 0
split_gain=0.108005 0.067871 0.0113902 0.00487423 0.00299071
threshold=1.0000000180025095e-35 0.35000000000000003 0.15000000000000005 0.25000000000000006 0.45000000000000007
decision_type=2 2 2 2 2
left_child=-1 2 -2 -4 -3
right_child=1 4 3 -5 -6
leaf_value=0.013593841717534758 -0.0054910312499683606 0.0051739643783898226 -0.00072545689040474611 -0.012034454302730695 -0.0069358113915478766
leaf_weight=5.1871769018471232 20.84756077080965 10.904044343158599 8.5663634813390672 0.39886224147630928 0.20782690355554301
leaf_count=26 44 40 56 28 16
internal_value=0 -0.0172301 -0.0420924 -0.0122859 0.0494747
internal_weight=0 40.9247 29.8128 8.96523 11.1119
internal_count=210 184 128 84 56
shrinkage=0.1


Tree=30
num_leaves=6
num_cat=0
split_feature=0 0 0 0 0
split_gain=0.0872466 0.0605187 0.0101526 0.00459589 0.00168092
threshold=1.0000000180025095e-35 0.15000000000000005 0.35000000000000003 0.25000000000000006 0.45000000000000007
decision_type=2 2 2 2 2
left_child=-1 -2 3 -3 -4
right_child=1 2 4 -5 -6
leaf_value=0.011338749002597953 -0.0053466059618899383 0.00021763705380037506 0.0044181457767009198 -0.011230030594960768 -0.0051525262010236553
leaf_weight=5.9364782534539691 21.266875721514225 8.428548629395662 11.23313515819609 0.36592510255286553 0.18655839469283897
leaf_count=26 44 56 40 28 16
internal_value=0 -0.0162272 0.0229509 -0.00258684 0.0426179
internal_weight=0 41.481 20.2142 8.79447 11.4197
internal_count=210 184 140 84 56
shrinkage=0.1


Tree=31
num_leaves=6
num_cat=0
split_feature=0 0 0 0 0
split_gain=0.748745 0.0842359 0.0297205 0.00665473 0.00396909
threshold=0.35000000000000003 1.0000000180025095e-35 0.15000000000000005 0.45000000000000007 0.25000000000000006
decision_type=2 2 2 2 2
left_child=1 -1 -3 -2 -4
right_child=3 2 4 -5 -6
leaf_value=-0.016223131378166344 0.023632293751667137 -0.0061807319237746567 0.001162136600933106 0.0034128366655875077 -0.01017326322469831
leaf_weight=7.2777091562747946 10.586436636745926 22.490538127720356 8.2554169376380742 0.16531839850358743 0.32090747094480399
leaf_count=26 40 44 56 16 28
internal_value=0 -0.0653928 -0.0427075 0.233214 0.00737991
internal_weight=0 38.3446 31.0669 10.7518 8.57632
internal_count=210 154 128 56 84
shrinkage=0.1


Tree=32
num_leaves=6
num_cat=0
split_feature=0 0 0 0 0
split_gain=3.89883 0.714645 0.0843447 0.00951184 0.00896141
threshold=0.25000000000000006 0.15000000000000005 1.0000000180025095e-35 0.45000000000000007 0.35000000000000003
decision_type=2 2 2 2 2
left_child=1 2 -1 4 -2
right_child=3 -3 -4 -5 -6
leaf_value=0.026014195556620136 -0.017174814489251265 0.0019158267719932951 0.041215562602278127 -0.0091967268806993924 -0.034004551820403246
leaf_weight=5.1624851562082776 0.32165078987600887 8.8371770835947263 12.458316905423999 0.15932517452165385 19.341980144381523
leaf_count=26 28 56 44 16 40
internal_value=0 0.25123 0.367619 -0.335321 -0.337293
internal_weight=0 26.458 17.6208 19.823 19.6636
internal_count=210 126 70 84 68
shrinkage=0.1


Tree=33
num_leaves=6
num_cat=0
split_feature=0 0 0 0 0
split_gain=0.402302 0.0118094 0.00612229 0.00548718 0.00313636
threshold=0.35000000000000003 0.15000000000000005 1.0000000180025095e-35 0.45000000000000007 0.25000000000000006
decision_type=2 2 2 2 2
left_child=1 2 -1 -2 -3
right_child=3 4 -4 -5 -6
leaf_value=-0.0085902614798748552 0.018781158330620391 -0.0012833118759045133 -0.0050359121953938817 0.0032741826108503716 -0.010011381652148679
leaf_weight=6.3436974212527302 9.1848976928740704 8.6261407404672319 20.527892798185349 0.23400272405706424 0.43234289233805689
leaf_count=26 40 56 44 16 28
internal_value=0 -0.048224 -0.05875 0.183959 -0.0169988
internal_weight=0 35.9301 26.8716 9.4189 9.05848
internal_count=210 154 70 56 84
shrinkage=0.1


Tree=34
num_leaves=6
num_cat=0
split_feature=0 0 0 0 0
split_gain=0.141106 0.0342145 0.00389796 0.00318789 0.000729967
threshold=1.0000000180025095e-35 0.15000000000000005 0.35000000000000003 0.25000000000000006 0.45000000000000007
decision_type=2 2 2 2 2
left_child=-1 -2 3 -3 -4
right_child=1 2 4 -5 -6
leaf_value=0.014767553741574228 -0.0049244269893004376 -0.00028963068036646247 0.0022077760062281624 -0.0094829386752793721 -0.0039540079115414272
leaf_weight=5.6794599853456011 20.593330673873425 8.4964777638670039 11.104482976719735 0.39471278118435366 0.19564793445170003
leaf_count=26 44 56 40 28 16
internal_value=0 -0.0205645 0.00868628 -0.00697756 0.0210109
internal_weight=0 40.7847 20.1913 8.89119 11.3001
internal_count=210 184 140 84 56
shrinkage=0.1


Tree=35
num_leaves=6
num_cat=0
split_feature=0 0 0 0 0
split_gain=0.615127 0.0524543 0.0195493 0.0062312 0.00287926
threshold=0.35000000000000003 1.0000000180025095e-35 0.15000000000000005 0.45000000000000007 0.25000000000000006
decision_type=2 2 2 2 2
left_child=1 -1 -3 -2 -4
right_child=3 2 4 -5 -6
leaf_value=-0.013825623380836033 0.022305890310310564 -0.0057745443415913806 0.00020616901539301688 0.0042215863343459739 -0.0087589393827433547
leaf_weight=6.8728859014809123 9.8490220699459279 21.464399971067905 8.4152769795618951 0.19429082982242185 0.37416515371296633
leaf_count=26 40 44 56 16 28
internal_value=0 -0.0593942 -0.0414788 0.21956 -0.00175474
internal_weight=0 37.1267 30.2538 10.0433 8.78944
internal_count=210 154 128 56 84
shrinkage=0.1


Tree=36
num_leaves=6
num_cat=0
split_feature=0 0 0 0 0
split_gain=8.81026 1.51553 0.229611 0.0240566 0.00720855
threshold=0.15000000000000005 0.35000000000000003 1.0000000180025095e-35 0.45000000000000007 0.25000000000000006
decision_type=2 2 2 2 2
left_child=2 4 -1 -3 -2
right_child=1 3 -4 -5 -6
leaf_value=0.034766634116473176 0.0024999399426996402 -0.047887572672715831 0.060590320602143477 -0.0061190999524848811 -0.014849638025940068
leaf_weight=4.5690595135092744 8.3805814204970375 21.339460305869583 13.972582742571831 0.13878807961009343 0.24652508343570009
leaf_count=26 56 40 44 16 28
internal_value=0 -0.333978 0.542268 -0.476177 0.0200416
internal_weight=0 30.1054 18.5416 21.4782 8.62711
internal_count=210 140 70 56 84
shrinkage=0.1


Tree=37
num_leaves=6
num_cat=0
split_feature=0 0 0 0 0
split_gain=0.251515 0.0034124 0.00222172 0.00205524 0.00023477
threshold=0.35000000000000003 0.45000000000000007 0.15000000000000005 0.25000000000000006 1.0000000180025095e-35
decision_type=2 2 2 2 2
left_child=2 -2 4 -4 -1
right_child=1 -3 3 -5 -6
leaf_value=-0.0037580574658758041 0.015201738614227354 0.0035647057842420229 -0.0021494870831566017 -0.0089814430701975947 -0.00447215568341249
leaf_weight=5.9869511835277107 8.785900995600965 0.25942580867558795 8.6966653785202617 0.46380629128543738 19.929399915039539
leaf_count=26 40 16 56 28 44
internal_value=0 0.14868 -0.0383403 -0.024954 -0.0430719
internal_weight=0 9.04533 35.0768 9.16047 25.9164
internal_count=210 56 154 84 70
shrinkage=0.1


Tree=38
num_leaves=6
num_cat=0
split_feature=0 0 0 0 0
split_gain=0.30614 0.00603949 0.00419739 0.00194646 0.00130344
threshold=0.35000000000000003 0.15000000000000005 0.45000000000000007 0.25000000000000006 1.0000000180025095e-35
decision_type=2 2 2 2 2
left_child=1 4 -2 -3 -1
right_child=2 3 -4 -5 -6
leaf_value=-0.0063048594727890999 0.016608536503108926 -0.0016920650328262191 0.0034683873582546428 -0.0083988491175773783 -0.0046301721278374326
leaf_weight=6.0515873841941383 8.9411858450621331 8.6514213057234848 0.24989090347662649 0.45551464636810202 20.031166382133961
leaf_count=26 40 56 16 28 44
internal_value=0 -0.0424462 0.162513 -0.0202753 -0.0501872
internal_weight=0 35.1897 9.19108 9.10694 26.0828
internal_count=210 154 56 84 70
shrinkage=0.1


Tree=39
num_leaves=6
num_cat=0
split_feature=0 0 0 0 0
split_gain=0.49622 0.0504412 0.00664781 0.00649196 0.00181883
threshold=0.35000000000000003 1.0000000180025095e-35 0.45000000000000007 0.15000000000000005 0.25000000000000006
decision_type=2 2 2 2 2
left_child=1 -1 -2 -3 -5
right_child=2 3 -4 4 -6
leaf_value=-0.013588250353747739 0.020632134082027988 -0.0047121565744355316 0.0033990536517542833 -0.0011612653990722267 -0.0077549015810186687
leaf_weight=6.2857632897794238 9.3263021297752822 20.034233346581459 0.229352743597702 8.5886039764154702 0.43977363506564954
leaf_count=26 40 44 16 56 28
internal_value=0 -0.0546563 0.202185 -0.0370884 -0.0148244
internal_weight=0 35.3484 9.55565 29.0626 9.02838
internal_count=210 154 56 128 84
shrinkage=0.1


Tree=40
num_leaves=6
num_cat=0
split_feature=0 0 0 0 0
split_gain=0.104981 0.0705866 0.0142376 0.00217562 0.00197909
threshold=1.0000000180025095e-35 0.35000000000000003 0.15000000000000005 0.45000000000000007 0.25000000000000006
decision_type=2 2 2 2 2
left_child=-1 2 -2 -3 -4
right_child=1 3 4 -5 -6
leaf_value=0.01398602322841158 -0.005639256859725137 0.0054130665806799028 -0.00053158447626439791 -0.0048684788257375208 -0.0076609564410567502
leaf_weight=4.7979663591831914 20.633851282298565 10.701362121850249 8.5111894377041608 0.20984610007144588 0.4080381271196537
leaf_count=26 44 40 56 16 28
internal_value=0 -0.0165836 -0.0419618 0.0521533 -0.0085774
internal_weight=0 40.4643 29.5531 10.9112 8.91923
internal_count=210 184 128 56 84
shrinkage=0.1


Tree=41
num_leaves=6
num_cat=0
split_feature=0 0 0 0 0
split_gain=0.0953016 0.0733961 0.0137639 0.00195239 0.00158636
threshold=1.0000000180025095e-35 0.15000000000000005 0.35000000000000003 0.25000000000000006 0.45000000000000007
decision_type=2 2 2 2 2
left_child=-1 -2 3 -3 -4
right_child=1 2 4 -5 -6
leaf_value=0.012710038306213504 -0.0057522359644164396 8.391131316272564e-05 0.0052189174428640371 -0.0072246608864981483 -0.0038691805389975001
leaf_weight=5.2306320294737807 20.985757231712341 8.4178168296348286 10.930273497477172 0.38210265251109454 0.1955040944740184
leaf_count=26 44 56 40 28 16
internal_value=0 -0.0162501 0.0272179 -0.00233435 0.0505922
internal_weight=0 40.9115 19.9257 8.79992 11.1258
internal_count=210 184 140 84 56
shrinkage=0.1


Tree=42
num_leaves=6
num_cat=0
split_feature=0 0 0 0 0
split_gain=0.067628 0.0822943 0.0103483 0.00190559 0.00106593
threshold=1.0000000180025095e-35 0.15000000000000005 0.35000000000000003 0.25000000000000006 0.45000000000000007
decision_type=2 2 2 2 2
left_child=-1 -2 3 -3 -4
right_child=1 2 4 -5 -6
leaf_value=0.0099957478374694316 -0.0057148652971522849 0.00087501196410600356 0.0052801748045546645 -0.0067124599173864312 -0.0025774680446124221
leaf_weight=5.9247811622917643 21.544874347746372 8.2833963623270375 11.253730332478879 0.34478282509371722 0.1753304232843228
leaf_count=26 44 56 40 28 16
internal_value=0 -0.0142355 0.0318606 0.00571816 0.0515963
internal_weight=0 41.6021 20.0572 8.62818 11.4291
internal_count=210 184 140 84 56
shrinkage=0.1


Tree=43
num_leaves=6
num_cat=0
split_feature=0 0 0 0 0
split_gain=0.077782 0.0495562 0.0142493 0.00176852 0.00102055
threshold=0.15000000000000005 1.0000000180025095e-35 0.35000000000000003 0.25000000000000006 0.45000000000000007
decision_type=2 2 2 2 2
left_child=1 -1 3 -2 -4
right_child=2 -3 4 -5 -6
leaf_value=0.004117823909790189 0.0019046252108388499 -0.0055188488857021096 0.0071304550962260106 -0.0060966535240342739 -0.0012610361500565437
leaf_weight=6.9745920151472118 8.0690919102635217 22.718705326318741 11.67124719545245 0.28603565494995642 0.1467521972954281
leaf_count=26 56 44 40 28 16
internal_value=0 -0.0325531 0.0479157 0.016307 0.0702625
internal_weight=0 29.6933 20.1731 8.35513 11.818
internal_count=210 70 140 84 56
shrinkage=0.1


Tree=44
num_leaves=6
num_cat=0
split_feature=0 0 0 0 0
split_gain=8.46902 1.26815 1.14185 0.0363987 0.0361575
threshold=0.25000000000000006 0.15000000000000005 1.0000000180025095e-35 0.45000000000000007 0.35000000000000003
decision_type=2 2 2 2 2
left_child=1 2 -1 4 -2
right_child=3 -3 -4 -5 -6
leaf_value=0.018958425050674937 -0.010533731706425794 0.003261755227438848 0.068343293596331275 0.0078496505404903223 -0.04809670617551394
leaf_weight=7.525565817952157 0.25940903235460311 8.3534943906124699 12.390192519873381 0.1188676857855161 21.101382452994585
leaf_count=26 28 56 44 16 40
internal_value=0 0.359651 0.496822 -0.473335 -0.476405
internal_weight=0 28.2693 19.9158 21.4797 21.3608
internal_count=210 126 70 84 68
shrinkage=0.1


Tree=45
num_leaves=6
num_cat=0
split_feature=0 0 0 0 0
split_gain=0.22416 0.00364182 0.00234045 0.00112659 0.000935479
threshold=0.35000000000000003 0.15000000000000005 0.45000000000000007 0.25000000000000006 1.0000000180025095e-35
decision_type=2 2 2 2 2
left_child=1 4 -2 -3 -1
right_child=2 3 -4 -5 -6
leaf_value=-0.0031199633439592794 0.01437491813556227 -0.0016273722869419548 0.0046938231973070203 -0.0066855770199511473 -0.0045408467234412447
leaf_weight=6.0345080308616188 8.7230074317194486 8.6258114050142431 0.25707838358357626 0.46401253319345487 19.95930328220129
leaf_count=26 40 56 16 28 44
internal_value=0 -0.036085 0.140978 -0.0188558 -0.0421099
internal_weight=0 35.0836 8.98009 9.08982 25.9938
internal_count=210 154 56 84 70
shrinkage=0.1


Tree=46
num_leaves=6
num_cat=0
split_feature=0 0 0 0 0
split_gain=0.261495 0.00700858 0.00284672 0.00108086 1.03749e-05
threshold=0.35000000000000003 0.15000000000000005 0.45000000000000007 0.25000000000000006 1.0000000180025095e-35
decision_type=2 2 2 2 2
left_child=1 4 -2 -3 -1
right_child=2 3 -4 -5 -6
leaf_value=-0.0048490797975438444 0.015416049576712876 -0.0012534674610885316 0.0045885159659750053 -0.0062489207380044196 -0.0046999953898501446
leaf_weight=6.0821224711835411 8.8422507913783157 8.5886955852620268 0.24967692024074573 0.45613258396042583 20.074379287660122
leaf_count=26 40 56 16 28 44
internal_value=0 -0.0390491 0.151187 -0.0150539 -0.0473466
internal_weight=0 35.2013 9.09193 9.04483 26.1565
internal_count=210 154 56 84 70
shrinkage=0.1


Tree=47
num_leaves=6
num_cat=0
split_feature=0 0 0 0 0
split_gain=0.351116 0.0144217 0.00657567 0.00403621 0.00103532
threshold=0.35000000000000003 0.15000000000000005 1.0000000180025095e-35 0.45000000000000007 0.25000000000000006
decision_type=2 2 2 2 2
left_child=1 2 -1 -2 -3
right_child=3 4 -4 -5 -6
leaf_value=-0.0085892969417377379 0.017607419671976987 -0.00084914603575762598 -0.0048592919066905247 0.0043880419644786181 -0.0058087812949909759
leaf_weight=6.1720936652272966 9.0781278749927843 8.5418797554448211 20.17649357765913 0.23699754197150549 0.44271043804474247
leaf_count=26 40 56 44 16 28
internal_value=0 -0.0455329 -0.0573304 0.172711 -0.0109353
internal_weight=0 35.3332 26.3486 9.31513 8.98459
internal_count=210 154 70 56 84
shrinkage=0.1


Tree=48
num_leaves=6
num_cat=0
split_feature=0 0 0 0 0
split_gain=0.264959 0.00566929 0.00396736 0.000239723 5.85389e-05
threshold=1.0000000180025095e-35 0.15000000000000005 0.25000000000000006 0.35000000000000003 0.45000000000000007
decision_type=2 2 2 2 2
left_child=-1 -2 -3 -4 -5
right_child=1 2 3 4 -6
leaf_value=0.019896995592660987 -0.0041050248822563007 -6.8278904358005677e-05 -0.0052586180683852962 -0.0028469494676403701 -0.0010914800407672502
leaf_weight=5.8416891582310191 19.759970180690289 8.4394923176150769 0.4168583732098331 11.288422846235333 0.19320953683927733
leaf_count=26 44 56 28 40 16
internal_value=0 -0.028987 -0.0172666 -0.0290294 -0.0281741
internal_weight=0 40.098 20.338 11.8985 11.4816
internal_count=210 184 140 84 56
shrinkage=0.1


Tree=49
num_leaves=6
num_cat=0
split_feature=0 0 0 0 0
split_gain=0.395493 0.02334 0.00558283 0.0036356 0.00101525
threshold=0.35000000000000003 0.15000000000000005 1.0000000180025095e-35 0.45000000000000007 0.25000000000000006
decision_type=2 2 2 2 2
left_child=1 2 -1 -2 -3
right_child=3 4 -4 -5 -6
leaf_value=-0.0087478768027887555 0.018525268695537434 -5.2118110428443182e-05 -0.0053973300756176307 0.0055162622625511927 -0.0051217692107027486
leaf_weight=6.5327328816056278 9.2263868814334238 8.4359787292778456 20.829701483249664 0.21994775813073 0.41442347853444594
leaf_count=26 40 56 44 16 28
internal_value=0 -0.0475341 -0.0619727 0.182224 -0.00289506
internal_weight=0 36.2128 27.3624 9.44633 8.8504
internal_count=210 154 70 56 84
shrinkage=0.1


Tree=50
num_leaves=6
num_cat=0
split_feature=0 0 0 0 0
split_gain=0.0941969 0.0609582 0.00466537 0.00112234 0.000616766
threshold=1.0000000180025095e-35 0.15000000000000005 0.35000000000000003 0.25000000000000006 0.45000000000000007
decision_type=2 2 2 2 2
left_child=-1 -2 3 -3 -4
right_child=1 2 4 -5 -6
leaf_value=0.01191339466630538 -0.0054356442261581824 0.0007606045173244565 0.0036992154838496011 -0.0049225410243809156 -0.0021707026241266913
leaf_weight=5.8142754137516013 21.095198042690754 8.2994933300651592 11.155309325084088 0.36267788120312688 0.18192062573507503
leaf_count=26 44 56 40 28 16
internal_value=0 -0.0168557 0.0226998 0.00522656 0.0360502
internal_weight=0 41.0946 19.9994 8.66217 11.3372
internal_count=210 184 140 84 56
shrinkage=0.1


Tree=51
num_leaves=6
num_cat=0
split_feature=0 0 0 0 0
split_gain=0.733703 0.0970426 0.0319544 0.00518686 0.000987737
threshold=0.35000000000000003 1.0000000180025095e-35 0.15000000000000005 0.45000000000000007 0.25000000000000006
decision_type=2 2 2 2 2
left_child=1 -1 -3 -2 -4
right_child=3 2 4 -5 -6
leaf_value=-0.016991961911102343 0.023556067353845439 -0.0060727764928937 0.0013584699632283861 0.005742610255134447 -0.0042539081283955145
leaf_weight=7.1714928895235053 10.411947006359693 22.078268177807331 8.1732600424438715 0.16606569173745889 0.32609038235386911
leaf_count=26 40 44 56 16 28
internal_value=0 -0.0652249 -0.0406704 0.232764 0.0114314
internal_weight=0 37.7491 30.5776 10.578 8.49935
internal_count=210 154 128 56 84
shrinkage=0.1


Tree=52
num_leaves=6
num_cat=0
split_feature=0 0 0 0 0
split_gain=4.53093 0.811018 0.096627 0.020304 0.0139143
threshold=0.25000000000000006 0.15000000000000005 1.0000000180025095e-35 0.35000000000000003 0.45000000000000007
decision_type=2 2 2 2 2
left_child=1 2 -1 -2 -5
right_child=3 -3 -4 4 -6
leaf_value=0.027893721009922191 -0.0098626772734758446 0.0022369792891754701 0.044328621982267148 -0.036376228836792528 -0.0058680036423346882
leaf_weight=4.9931421540677556 0.2983974037924807 8.6225136176217365 12.616724789142609 19.628773052245382 0.15064279804937442
leaf_count=26 28 56 44 40 16
internal_value=0 0.273649 0.396686 -0.357533 -0.361439
internal_weight=0 26.2324 17.6099 20.0778 19.7794
internal_count=210 126 70 84 56
shrinkage=0.1


Tree=53
num_leaves=6
num_cat=0
split_feature=0 0 0 0 0
split_gain=0.342452 0.0174544 0.00465485 0.00332108 0.00069272
threshold=0.35000000000000003 0.15000000000000005 1.0000000180025095e-35 0.45000000000000007 0.25000000000000006
decision_type=2 2 2 2 2
left_child=1 2 -1 -2 -3
right_child=3 4 -4 -5 -6
leaf_value=-0.0081443699831827907 0.017373037041282045 -0.00044775392899494039 -0.0050250702055191325 0.0052573630248142029 -0.0045370668786581603
leaf_weight=6.2550224289298084 9.0785018755122984 8.4866984828840906 20.342383466660976 0.2320301802828916 0.43550211517140341
leaf_count=26 40 56 44 16 28
internal_value=0 -0.0447474 -0.0575865 0.170711 -0.00647358
internal_weight=0 35.5196 26.5974 9.31053 8.9222
internal_count=210 154 70 56 84
shrinkage=0.1


Tree=54
num_leaves=6
num_cat=0
split_feature=0 0 0 0 0
split_gain=0.844037 0.218805 0.0141876 0.00794677 0.000644615
threshold=0.35000000000000003 1.0000000180025095e-35 0.15000000000000005 0.45000000000000007 0.25000000000000006
decision_type=2 2 2 2 2
left_child=1 -1 -3 -2 -4
right_child=3 2 4 -5 -6
leaf_value=-0.023271058819237189 0.025854764401355198 -0.004873217801832642 0.00012864973256022412 0.0053848647886941175 -0.0039535455210364121
leaf_weight=6.8618963845074168 9.9485502941533888 20.120529517531395 8.3951381286606193 0.19333847961388609 0.4055081959813841
leaf_count=26 40 44 56 16 28
internal_value=0 -0.0721734 -0.034084 0.254645 -0.00059446
internal_weight=0 35.7831 28.9212 10.1419 8.80065
internal_count=210 154 128 56 84
shrinkage=0.1


Tree=55
num_leaves=6
num_cat=0
split_feature=0 0 0 0 0
split_gain=0.147638 0.086312 0.0384559 0.00505381 0.000879782
threshold=0.35000000000000003 1.0000000180025095e-35 0.15000000000000005 0.45000000000000007 0.25000000000000006
decision_type=2 2 2 2 2
left_child=1 -1 -3 -2 -4
right_child=3 2 4 -5 -6
leaf_value=0.010185616500541837 0.010020987064894618 -0.0073047681251141167 0.00079597481630800391 -0.0067270173759788714 -0.0045554585319809932
leaf_weight=4.2002671323716632 11.443241843953725 22.083695389330387 8.2247445972170681 0.18305666930973608 0.31912991846911687
leaf_count=26 40 44 56 16 28
internal_value=0 -0.032572 -0.0510074 0.0975729 0.00596089
internal_weight=0 34.8278 30.6276 11.6263 8.54387
internal_count=210 154 128 56 84
shrinkage=0.1


Tree=56
num_leaves=6
num_cat=0
split_feature=0 0 0 0 0
split_gain=7.51131 1.30945 0.205654 0.0225558 0.00299647
threshold=0.15000000000000005 0.35000000000000003 1.0000000180025095e-35 0.45000000000000007 0.25000000000000006
decision_type=2 2 2 2 2
left_child=2 4 -1 -3 -2
right_child=1 3 -4 -5 -6
leaf_value=0.031835776060467912 0.0023610638933339134 -0.044513409022738343 0.05737934424016386 -0.0044548627182255584 -0.0087143429458340343
leaf_weight=4.0993316508829603 8.3664576162118465 20.891668997704986 13.637719467282295 0.14151416416279872 0.25162868358893398
leaf_count=26 56 40 44 16 28
internal_value=0 -0.307922 0.514758 -0.442439 0.0203769
internal_weight=0 29.6513 17.7371 21.0332 8.61809
internal_count=210 140 70 56 84
shrinkage=0.1


Tree=57
num_leaves=6
num_cat=0
split_feature=0 0 0 0 0
split_gain=0.3098 0.0129771 0.00686527 0.00308778 0.000425259
threshold=0.35000000000000003 0.15000000000000005 1.0000000180025095e-35 0.45000000000000007 0.25000000000000006
decision_type=2 2 2 2 2
left_child=1 2 -1 -2 -3
right_child=3 4 -4 -5 -6
leaf_value=-0.0084376887562752374 0.016609794298562176 -0.00089477633976326994 -0.0045689525516406379 0.0051822224383223136 -0.0040195330396330534
leaf_weight=5.9739242363721159 8.9641016209498012 8.5338834035210276 19.755850113928318 0.24285530066117719 0.4589560064487167
leaf_count=26 40 56 44 16 28
internal_value=0 -0.0432428 -0.0546719 0.163084 -0.0105425
internal_weight=0 34.7226 25.7298 9.20696 8.99284
internal_count=210 154 70 56 84
shrinkage=0.1


Tree=58
num_leaves=6
num_cat=0
split_feature=0 0 0 0 0
split_gain=0.719331 0.184396 0.00883564 0.00710655 0.000381041
threshold=0.35000000000000003 1.0000000180025095e-35 0.15000000000000005 0.45000000000000007 0.25000000000000006
decision_type=2 2 2 2 2
left_child=1 -1 -3 -2 -4
right_child=3 2 4 -5 -6
leaf_value=-0.02178961128206099 0.024364605318145729 -0.0044053110857179166 -0.00045459100884373603 0.0058125766283735041 -0.0034592454506027514
leaf_weight=6.5810410007834426 9.5749939354136551 19.46073317527771 8.473659610375762 0.21102965786121863 0.44419331452809352
leaf_count=26 40 44 56 16 28
internal_value=0 -0.0670824 -0.0321084 0.239645 -0.00604251
internal_weight=0 34.9596 28.3786 9.78602 8.91785
internal_count=210 154 128 56 84
shrinkage=0.1


Tree=59
num_leaves=6
num_cat=0
split_feature=0 0 0 0 0
split_gain=0.0864984 0.0836176 0.0193308 0.0019327 0.000498155
threshold=1.0000000180025095e-35 0.35000000000000003 0.15000000000000005 0.45000000000000007 0.25000000000000006
decision_type=2 2 2 2 2
left_child=-1 2 -2 -3 -4
right_child=1 3 4 -5 -6
leaf_value=0.013408304058242313 -0.0058967159792002047 0.0062994592356674763 -0.00013967991113947054 -0.0033420871727567504 -0.0036892542349950212
leaf_weight=4.3411331400275222 20.513531170785427 10.504591736942526 8.4391760774888098 0.21210549678653559 0.41481157805537883
leaf_count=26 44 40 56 16 28
internal_value=0 -0.0145212 -0.0421117 0.0610863 -0.00305978
internal_weight=0 40.0842 29.3675 10.7167 8.85399
internal_count=210 184 128 56 84
shrinkage=0.1


Tree=60
num_leaves=6
num_cat=0
split_feature=0 0 0 0 0
split_gain=0.0788431 0.0999502 0.0210762 0.00196035 0.000523433
threshold=1.0000000180025095e-35 0.15000000000000005 0.35000000000000003 0.45000000000000007 0.25000000000000006
decision_type=2 2 2 2 2
left_child=-1 -2 4 -4 -3
right_child=1 2 3 -5 -6
leaf_value=0.012551459613852393 -0.0062169992138895389 0.00024020619040151907 0.0068467039592984349 -0.0030866158796001545 -0.0035007356597717013
leaf_weight=4.5038661509752265 20.856978796422482 8.3738576800096762 10.679850684478877 0.20244122785516161 0.39151111652609039
leaf_count=26 44 56 40 16 28
internal_value=0 -0.0139564 0.0372247 0.0666192 0.000731145
internal_weight=0 40.5046 19.6477 10.8823 8.76537
internal_count=210 184 140 56 84
shrinkage=0.1


Tree=61
num_leaves=6
num_cat=0
split_feature=0 0 0 0 0
split_gain=0.0884113 0.0989876 0.0323544 0.00224109 0.000560399
threshold=0.35000000000000003 1.0000000180025095e-35 0.15000000000000005 0.45000000000000007 0.25000000000000006
decision_type=2 2 2 2 2
left_child=1 -1 -3 -2 -4
right_child=3 2 4 -5 -6
leaf_value=0.011032958953884439 0.0079252157951180957 -0.0066765562259748119 0.00074250442571320335 -0.0030792438110578226 -0.0033148892667929533
leaf_weight=4.6846317537128916 10.980526886880394 21.43245342373848 8.273450888460502 0.18823681399226264 0.35501755354926068
leaf_count=26 40 44 56 16 28
internal_value=0 -0.024879 -0.0459496 0.0773975 0.00575563
internal_weight=0 34.7456 30.0609 11.1688 8.62847
internal_count=210 154 128 56 84
shrinkage=0.1


Tree=62
num_leaves=6
num_cat=0
split_feature=0 0 0 0 0
split_gain=0.14563 0.0741329 0.0457576 0.0030858 0.000599426
threshold=0.35000000000000003 1.0000000180025095e-35 0.15000000000000005 0.45000000000000007 0.25000000000000006
decision_type=2 2 2 2 2
left_child=1 -1 -3 -2 -4
right_child=3 2 4 -5 -6
leaf_value=0.0084201569668309693 0.0097520978377498551 -0.0073095273685383827 0.0015065544928067091 -0.0041508959027152584 -0.0031540789642048525
leaf_weight=4.765883330255746 11.77656425721943 22.650713011622429 8.0735979387536645 0.16183732473291534 0.28572591737611297
leaf_count=26 40 44 56 16 28
internal_value=0 -0.0319138 -0.0497593 0.0956363 0.0134725
internal_weight=0 35.7759 31.01 11.9384 8.35932
internal_count=210 154 128 56 84
shrinkage=0.1


Tree=63
num_leaves=6
num_cat=0
split_feature=0 0 0 0 0
split_gain=5.79494 0.987787 0.137881 0.0297577 0.020374
threshold=0.25000000000000006 0.15000000000000005 1.0000000180025095e-35 0.35000000000000003 0.45000000000000007
decision_type=2 2 2 2 2
left_child=1 2 -1 -2 -5
right_child=3 -3 -4 4 -6
leaf_value=0.030084037826071604 -0.0071953714850454056 0.0025302774953586665 0.049400057202408032 -0.040612438929226245 -0.0020097296221171369
leaf_weight=5.1603148244321355 0.27437569049652921 8.4464966391678917 13.018162740394473 20.128370065242056 0.13765761046670277
leaf_count=26 28 56 44 40 16
internal_value=0 0.307874 0.439168 -0.399074 -0.403502
internal_weight=0 26.625 18.1785 20.5404 20.266
internal_count=210 126 70 84 56
shrinkage=0.1


Tree=64
num_leaves=6
num_cat=0
split_feature=0 0 0 0 0
split_gain=0.259082 0.0148754 0.00139684 0.000289993 7.38394e-05
threshold=0.35000000000000003 0.15000000000000005 0.45000000000000007 0.25000000000000006 1.0000000180025095e-35
decision_type=2 2 2 2 2
left_child=1 4 -2 -3 -1
right_child=2 3 -4 -5 -6
leaf_value=-0.0053595225638794364 0.015249273354245172 -0.00020026348776796215 0.0074325177790233237 -0.0028148104139063914 -0.0049657520881042864
leaf_weight=6.2248024940490749 8.8663788856938446 8.4466630981769377 0.23465926502831361 0.44665648165391841 20.266647309064865
leaf_count=26 40 56 16 28 44
internal_value=0 -0.0387031 0.150477 -0.00331576 -0.0505828
internal_weight=0 35.3848 9.10104 8.89332 26.4914
internal_count=210 154 56 84 70
shrinkage=0.1


Tree=65
num_leaves=6
num_cat=0
split_feature=0 0 0 0 0
split_gain=0.368195 0.0254026 0.00938904 0.00250883 0.000286863
threshold=0.35000000000000003 0.15000000000000005 1.0000000180025095e-35 0.45000000000000007 0.25000000000000006
decision_type=2 2 2 2 2
left_child=1 2 -1 -2 -3
right_child=3 4 -4 -5 -6
leaf_value=-0.0095597549935097191 0.017871447299309378 0.00012691446246319033 -0.0051464773021620523 0.0070793672817296253 -0.0025274557572959773
leaf_weight=6.3124995790421989 9.1637230264022911 8.3992764330469036 20.396314829587936 0.22059252113103944 0.42788838047999966
leaf_count=26 40 56 44 16 28
internal_value=0 -0.0465248 -0.0618953 0.176178 -1.7536e-05
internal_weight=0 35.536 26.7088 9.38432 8.82716
internal_count=210 154 70 56 84
shrinkage=0.1


Tree=66
num_leaves=6
num_cat=0
split_feature=0 0 0 0 0
split_gain=0.147951 0.0355867 0.000173349 0.000341697 4.90775e-06
threshold=1.0000000180025095e-35 0.15000000000000005 0.35000000000000003 0.25000000000000006 0.45000000000000007
decision_type=2 2 2 2 2
left_child=-1 -2 3 -3 -4
right_child=1 2 4 -5 -6
leaf_value=0.01524999681746339 -0.0050442063766564862 0.00069722965513194376 0.0011644799440579526 -0.0023234448220966915 0.00064636759360190072
leaf_weight=5.5878711678087702 20.431374303996563 8.3075316431932134 11.029705414548514 0.39216180623043406 0.18590600299649016
leaf_count=26 44 56 40 28 16
internal_value=0 -0.0211207 0.00896051 0.00561065 0.0115589
internal_weight=0 40.3467 19.9153 8.69969 11.2156
internal_count=210 184 140 84 56
shrinkage=0.1


Tree=67
num_leaves=6
num_cat=0
split_feature=0 0 0 0 0
split_gain=0.569122 0.0614127 0.025995 0.00358583 0.000306617
threshold=0.35000000000000003 1.0000000180025095e-35 0.15000000000000005 0.45000000000000007 0.25000000000000006
decision_type=2 2 2 2 2
left_child=1 -1 -3 -2 -4
right_child=3 2 4 -5 -6
leaf_value=-0.014361459183621373 0.021506920469819835 -0.0056983379215136349 0.00094066984575722715 0.0076143714432867944 -0.0019763589811272516
leaf_weight=6.7711597681045523 9.7312949560582602 21.14835699647665 8.2564054743852466 0.18940761336125511 0.37678665108978826
leaf_count=26 40 44 56 16 28
internal_value=0 -0.0576516 -0.038107 0.212417 0.00813359
internal_weight=0 36.5527 29.7815 9.9207 8.63319
internal_count=210 154 128 56 84
shrinkage=0.1


Tree=68
num_leaves=6
num_cat=0
split_feature=0 0 0 0 0
split_gain=0.161545 0.0650476 0.0500943 0.00326713 0.000430615
threshold=0.35000000000000003 1.0000000180025095e-35 0.15000000000000005 0.45000000000000007 0.25000000000000006
decision_type=2 2 2 2 2
left_child=1 -1 -3 -2 -4
right_child=3 2 4 -5 -6
leaf_value=0.0076143038720954464 0.010038368258230049 -0.0074019334537376207 0.0018116639528420462 -0.0047700858427960242 -0.0023450626272314657
leaf_weight=4.6813983283936969 12.226369407027956 23.168805792927742 7.9696732431184518 0.15082445438020009 0.25726705836132158
leaf_count=26 40 44 56 16 28
internal_value=0 -0.0338201 -0.0502166 0.0985792 0.0168168
internal_weight=0 36.0771 31.3957 12.3772 8.22694
internal_count=210 154 128 56 84
shrinkage=0.1


Tree=69
num_leaves=6
num_cat=0
split_feature=0 0 0 0 0
split_gain=4.79192 0.801864 0.114855 0.0273107 0.0175314
threshold=0.25000000000000006 0.15000000000000005 1.0000000180025095e-35 0.35000000000000003 0.45000000000000007
decision_type=2 2 2 2 2
left_child=1 2 -1 -2 -5
right_child=3 -3 -4 4 -6
leaf_value=0.027424973342910532 -0.0063060972445225785 0.0025188586980058143 0.044902593393401746 -0.037551697089609232 -0.0020209830902424143
leaf_weight=5.3306954652071008 0.28842748480383562 8.5022405011113751 12.760430106893182 19.665821101516489 0.13985771359875698
leaf_count=26 28 56 44 40 16
internal_value=0 0.278485 0.397527 -0.368559 -0.373008
internal_weight=0 26.5934 18.0911 20.0941 19.8057
internal_count=210 126 70 84 56
shrinkage=0.1


Tree=70
num_leaves=6
num_cat=0
split_feature=0 0 0 0 0
split_gain=0.287856 0.0199393 0.0014827 0.000752135 0.000193656
threshold=0.35000000000000003 0.15000000000000005 0.45000000000000007 1.0000000180025095e-35 0.25000000000000006
decision_type=2 2 2 2 2
left_child=1 3 -2 -1 -3
right_child=2 4 -4 -5 -6
leaf_value=-0.0063851975844221301 0.015988479849442867 0.00015405131239155847 0.007807811194012821 -0.005137367556032519 -0.0020079004341328282
leaf_weight=6.3257341310381916 8.9551031384617055 8.3962523299269343 0.22717173234559676 20.434484094381332 0.43582869280362574
leaf_count=26 40 56 16 44 28
internal_value=0 -0.0407257 0.157861 -0.0543234 0.000473674
internal_weight=0 35.5923 9.18227 26.7602 8.83208
internal_count=210 154 56 70 84
shrinkage=0.1


Tree=71
num_leaves=6
num_cat=0
split_feature=0 0 0 0 0
split_gain=0.47288 0.0467586 0.0200134 0.00320458 0.000195084
threshold=0.35000000000000003 1.0000000180025095e-35 0.15000000000000005 0.45000000000000007 0.25000000000000006
decision_type=2 2 2 2 2
left_child=1 -1 -3 -2 -4
right_child=3 2 4 -5 -6
leaf_value=-0.012983790854068387 0.019945407965407388 -0.0052992127634278255 0.00051739427959320017 0.0073615649773535359 -0.0017177539476521929
leaf_weight=6.4761584103107444 9.4188352925702894 20.551790729165077 8.334531887434423 0.2068127335514881 0.40968460938893336
leaf_count=26 40 44 56 16 28
internal_value=0 -0.052942 -0.0359434 0.19675 0.00412673
internal_weight=0 35.7722 29.296 9.62565 8.74422
internal_count=210 154 128 56 84
shrinkage=0.1


Tree=72
num_leaves=6
num_cat=0
split_feature=0 0 0 0 0
split_gain=0.0678246 0.116297 0.0160774 0.0011884 0.000278771
threshold=1.0000000180025095e-35 0.15000000000000005 0.35000000000000003 0.45000000000000007 0.25000000000000006
decision_type=2 2 2 2 2
left_child=-1 -2 4 -4 -3
right_child=1 2 3 -5 -6
leaf_value=0.01096958667540392 -0.0064499133710367619 0.0010543992420373584 0.006826140432874328 -0.0013101052159364048 -0.001816912461013097
leaf_weight=5.022996984422206 21.381702110171318 8.220741806086151 10.990365024656056 0.18250208324752823 0.35263721313094798
leaf_count=26 44 56 40 16 28
internal_value=0 -0.0133973 0.041937 0.0669324 0.00936297
internal_weight=0 41.1279 19.7462 11.1729 8.57338
internal_count=210 184 140 56 84
shrinkage=0.1


Tree=73
num_leaves=6
num_cat=0
split_feature=0 0 0 0 0
split_gain=0.114465 0.0706302 0.0442714 0.00170626 0.000306328
threshold=0.35000000000000003 1.0000000180025095e-35 0.15000000000000005 0.45000000000000007 0.25000000000000006
decision_type=2 2 2 2 2
left_child=1 -1 -3 -2 -4
right_child=3 2 4 -5 -6
leaf_value=0.007828846372771257 0.0087274277914537041 -0.0069355367961853841 0.0017113639805806356 -0.001697964103875519 -0.0015837624974915461
leaf_weight=5.3432093076407901 11.565477687865492 22.465246722102165 8.0484312318731099 0.15914578316733319 0.29237466427730474
leaf_count=26 40 44 56 16 28
internal_value=0 -0.0278475 -0.0462564 0.0858592 0.0159586
internal_weight=0 36.1493 30.8061 11.7246 8.34081
internal_count=210 154 128 56 84
shrinkage=0.1


Tree=74
num_leaves=6
num_cat=0
split_feature=0 0 0 0 0
split_gain=6.87124 1.12005 0.187158 0.0247416 0.00159016
threshold=0.35000000000000003 0.15000000000000005 1.0000000180025095e-35 0.45000000000000007 0.25000000000000006
decision_type=2 2 2 2 2
left_child=1 2 -1 -2 -3
right_child=3 4 -4 -5 -6
leaf_value=0.03093127015692107 -0.043968260036103213 0.0027749688001894395 0.052545165244304852 0.00020629248074129138 -0.0052308099645998092
leaf_weight=5.7217837795615205 20.488757863640789 8.3081060982076451 13.362401533871889 0.12757898424751957 0.25574106286512766
leaf_count=26 40 56 44 16 28
internal_value=0 0.32582 0.460649 -0.436949 0.0253589
internal_weight=0 27.648 19.0842 20.6163 8.56385
internal_count=210 154 70 56 84
shrinkage=0.1


Tree=75
num_leaves=6
num_cat=0
split_feature=0 0 0 0 0
split_gain=0.21538 0.0140458 0.000765745 0.000729876 0.000118463
threshold=0.35000000000000003 0.15000000000000005 1.0000000180025095e-35 0.45000000000000007 0.25000000000000006
decision_type=2 2 2 2 2
left_child=1 2 -1 -2 -3
right_child=3 4 -4 -5 -6
leaf_value=-0.0036838263196607756 0.01400387644100071 3.6667335767017725e-05 -0.0049433546786424969 0.0083806834305190855 -0.0016255372885971833
leaf_weight=6.3322025351226356 8.7218460086733067 8.410531372064721 20.30482143163681 0.23710015299730081 0.45179041879600917
leaf_count=26 40 56 44 16 28
internal_value=0 -0.0349659 -0.0464394 0.138551 -0.000480698
internal_weight=0 35.4993 26.637 8.95895 8.86232
internal_count=210 154 70 56 84
shrinkage=0.1


Tree=76
num_leaves=6
num_cat=0
split_feature=0 0 0 0 0
split_gain=0.266144 0.0197875 0.0011931 0.000120354 7.73579e-05
threshold=0.35000000000000003 0.15000000000000005 0.45000000000000007 0.25000000000000006 1.0000000180025095e-35
decision_type=2 2 2 2 2
left_child=1 4 -2 -3 -1
right_child=2 3 -4 -5 -6
leaf_value=-0.0055512463290103764 0.015430063344828875 0.00029847241438351512 0.0081108338025350918 -0.0014033062938987417 -0.0051524278940809423
leaf_weight=6.3787835985422161 8.8894942412152851 8.3744443217292392 0.22843564907088956 0.43727802264038551 20.474608734250069
leaf_count=26 40 56 16 28 44
internal_value=0 -0.0389788 0.152467 0.00214022 -0.0524716
internal_weight=0 35.6651 9.11793 8.81172 26.8534
internal_count=210 154 56 84 70
shrinkage=0.1


Tree=77
num_leaves=6
num_cat=0
split_feature=0 0 0 0 0
split_gain=0.392902 0.0326859 0.010968 0.00238665 0.000124639
threshold=0.35000000000000003 0.15000000000000005 1.0000000180025095e-35 0.45000000000000007 0.25000000000000006
decision_type=2 2 2 2 2
left_child=1 2 -1 -2 -3
right_child=3 4 -4 -5 -6
leaf_value=-0.010097112557766366 0.018361133990068529 0.00061878460735943146 -0.0053751093172943387 0.007635553476196863 -0.0011607098265394797
leaf_weight=6.4571400843560722 9.2534587830305064 8.3201686432585085 20.649769306182861 0.21222390606999475 0.41315134009346449
leaf_count=26 40 56 44 16 28
internal_value=0 -0.0478581 -0.0649994 0.181207 0.00534601
internal_weight=0 35.8402 27.1069 9.46568 8.73332
internal_count=210 154 70 56 84
shrinkage=0.1


Tree=78
num_leaves=6
num_cat=0
split_feature=0 0 0 0 0
split_gain=0.0926992 0.0722457 0.0040395 0.000254073 0.000176324
threshold=1.0000000180025095e-35 0.15000000000000005 0.35000000000000003 0.45000000000000007 0.25000000000000006
decision_type=2 2 2 2 2
left_child=-1 -2 4 -4 -3
right_child=1 2 3 -5 -6
leaf_value=0.012165165337400655 -0.0057276571451740903 0.0011553883600384149 0.0040046290057539433 0.00021930112585026945 -0.0010929488507476178
leaf_weight=5.5175515897572032 21.017004445195198 8.2135350632015598 11.018533900380133 0.18021763721481043 0.36427993554389182
leaf_count=26 44 56 40 16 28
internal_value=0 -0.016454 0.026929 0.0394371 0.0105991
internal_weight=0 40.7936 19.7766 11.1988 8.57781
internal_count=210 184 140 56 84
shrinkage=0.1


Tree=79
num_leaves=6
num_cat=0
split_feature=0 0 0 0 0
split_gain=0.0663963 0.0590443 0.00102724 0.000180395 2.02204e-05
threshold=1.0000000180025095e-35 0.15000000000000005 0.35000000000000003 0.25000000000000006 0.45000000000000007
decision_type=2 2 2 2 2
left_child=-1 -2 3 -3 -4
right_child=1 2 4 -5 -6
leaf_value=0.0093876361626578902 -0.0051218458923996246 0.0016852122826694401 0.003058848663924545 -0.00070382696118058766 0.0019227446017998952
leaf_weight=6.5110557228326789 21.433387659490108 8.0958711421117169 11.421922488138078 0.32890698668779883 0.15883709327317852
leaf_count=26 44 56 40 28 16
internal_value=0 -0.0147502 0.0243208 0.0159194 0.0304327
internal_weight=0 41.4389 20.0055 8.42478 11.5808
internal_count=210 184 140 84 56
shrinkage=0.1


Tree=80
num_leaves=6
num_cat=0
split_feature=0 0 0 0 0
split_gain=0.652292 0.0673107 0.023962 0.00242964 0.000147304
threshold=0.35000000000000003 0.15000000000000005 1.0000000180025095e-35 0.45000000000000007 0.25000000000000006
decision_type=2 2 2 2 2
left_child=1 2 -1 -2 -3
right_child=3 4 -4 -5 -6
leaf_value=-0.012964512897574469 0.02217840631994604 0.0021338720065080408 -0.0065136199781647948 0.0092559826304995495 -0.00017373926012224363
leaf_weight=7.6647008880972889 10.453937364742156 7.9599156854674202 23.14900716394186 0.14755072561092752 0.2865830574883147
leaf_count=26 40 56 44 16 28
internal_value=0 -0.0597071 -0.0811824 0.219986 0.0205368
internal_weight=0 39.0602 30.8137 10.6015 8.2465
internal_count=210 154 70 56 84
shrinkage=0.1


Tree=81
num_leaves=6
num_cat=0
split_feature=0 0 0 0 0
split_gain=3.68926 0.57389 0.113116 0.0246665 0.0139759
threshold=0.25000000000000006 0.15000000000000005 1.0000000180025095e-35 0.35000000000000003 0.45000000000000007
decision_type=2 2 2 2 2
left_child=1 2 -1 -2 -5
right_child=3 -3 -4 4 -6
leaf_value=0.02230037905388017 -0.0048610960566039616 0.002587243012278583 0.039246854520404106 -0.03381586416536228 -0.0022201517168747476
leaf_weight=5.7224423550069341 0.30372928787255915 8.5404906275216508 12.636936992406845 19.040748413652185 0.141035693930461
leaf_count=26 28 56 44 40 16
internal_value=0 0.240027 0.339648 -0.331358 -0.335836
internal_weight=0 26.8999 18.3594 19.4855 19.1818
internal_count=210 126 70 84 56
shrinkage=0.1


Tree=82
num_leaves=6
num_cat=0
split_feature=0 0 0 0 0
split_gain=0.339968 0.0289783 0.00312548 0.00180473 8.58457e-05
threshold=0.35000000000000003 0.15000000000000005 1.0000000180025095e-35 0.45000000000000007 0.25000000000000006
decision_type=2 2 2 2 2
left_child=1 2 -1 -2 -3
right_child=3 4 -4 -5 -6
leaf_value=-0.0079286953214041458 0.017225654817044592 0.00067364471741244503 -0.005417055076691984 0.0079808207516093039 -0.00079829246751720619
leaf_weight=6.5094827003777054 9.1127703282982075 8.3130814235191757 20.740942344069481 0.21617028582841241 0.41605342295952213
leaf_count=26 40 56 44 16 28
internal_value=0 -0.044108 -0.0601703 0.170114 0.00603488
internal_weight=0 35.9796 27.2504 9.32894 8.72913
internal_count=210 154 70 56 84
shrinkage=0.1


Tree=83
num_leaves=6
num_cat=0
split_feature=0 0 0 0 0
split_gain=0.807313 0.192242 0.0250456 0.00537293 8.83174e-05
threshold=0.35000000000000003 1.0000000180025095e-35 0.15000000000000005 0.45000000000000007 0.25000000000000006
decision_type=2 2 2 2 2
left_child=1 -1 -3 -2 -4
right_child=3 2 4 -5 -6
leaf_value=-0.021967021918929387 0.025028213802916574 -0.0053519942539326454 0.0011406180606195703 0.0074970609619800475 -0.00043346925388748083
leaf_weight=6.9518241994082919 10.108569717034694 20.707599632441998 8.2115270176436752 0.1778960754163571 0.3726161226222765
leaf_count=26 40 44 56 16 28
internal_value=0 -0.0701733 -0.0346931 0.24725 0.0107229
internal_weight=0 36.2436 29.2917 10.2865 8.58414
internal_count=210 154 128 56 84
shrinkage=0.1


Tree=84
num_leaves=6
num_cat=0
split_feature=0 0 0 0 0
split_gain=0.172796 0.0772698 0.0306324 0.00416464 0.000177241
threshold=0.15000000000000005 1.0000000180025095e-35 0.35000000000000003 0.45000000000000007 0.25000000000000006
decision_type=2 2 2 2 2
left_child=1 -1 4 -4 -2
right_child=2 -3 3 -5 -6
leaf_value=0.0079071691315606412 0.0019769922973873256 -0.0073465930550611017 0.0098961455485486599 -0.0073958535132991306 -0.0008891631657240662
leaf_weight=3.8596584349870708 7.8396187978796661 23.790816880762577 13.136634942144154 0.14077211031690318 0.22186292285914519
leaf_count=26 56 44 40 16 28
internal_value=0 -0.0521736 0.0676054 0.0971281 0.0189811
internal_weight=0 27.6505 21.3389 13.2774 8.06148
internal_count=210 70 140 56 84
shrinkage=0.1


Tree=85
num_leaves=6
num_cat=0
split_feature=0 0 0 0 0
split_gain=4.12847 0.736655 0.0814418 0.0263573 0.0148686
threshold=0.25000000000000006 0.15000000000000005 1.0000000180025095e-35 0.35000000000000003 0.45000000000000007
decision_type=2 2 2 2 2
left_child=1 2 -1 -2 -5
right_child=3 -3 -4 4 -6
leaf_value=0.027194640837965318 -0.0046317968020974818 0.0024117311034273729 0.042583195352637659 -0.034897077172710143 -0.0030253963485183865
leaf_weight=4.7486751973629007 0.29678734886693087 8.5358018899569306 12.471306877210736 19.456407718360428 0.147482271771877
leaf_count=26 28 56 44 40 16
internal_value=0 0.264326 0.383396 -0.342095 -0.346573
internal_weight=0 25.7558 17.22 19.9007 19.6039
internal_count=210 126 70 84 56
shrinkage=0.1


Tree=86
num_leaves=6
num_cat=0
split_feature=0 0 0 0 0
split_gain=0.433147 0.0471352 0.0185592 0.00290845 4.44334e-05
threshold=0.35000000000000003 1.0000000180025095e-35 0.15000000000000005 0.45000000000000007 0.25000000000000006
decision_type=2 2 2 2 2
left_child=1 -1 -3 -2 -4
right_child=3 2 4 -5 -6
leaf_value=-0.012922182784451711 0.019208487756001497 -0.0050629218075973342 0.00049822167730162014 0.0074221866264365128 -0.00054951519901089054
leaf_weight=6.3283141832798711 9.2947067273780668 20.200236976146698 8.3389984059613198 0.2141908884514131 0.42541653348598713
leaf_count=26 40 44 56 16 28
internal_value=0 -0.0510376 -0.0339556 0.18943 0.00447366
internal_weight=0 35.293 28.9647 9.5089 8.76441
internal_count=210 154 128 56 84
shrinkage=0.1


Tree=87
num_leaves=6
num_cat=0
split_feature=0 0 0 0 0
split_gain=0.09879 0.0757759 0.00607833 0.000395054 7.89814e-05
threshold=1.0000000180025095e-35 0.15000000000000005 0.35000000000000003 0.45000000000000007 0.25000000000000006
decision_type=2 2 2 2 2
left_child=-1 -2 4 -4 -3
right_child=1 2 3 -5 -6
leaf_value=0.013268926259769321 -0.0058591939565349107 0.00089738856221563239 0.004457689128914988 -0.00011898378066519678 -0.00056378142089088244
leaf_weight=4.992940802127122 20.722434125840664 8.2673636057879758 10.765199750661848 0.19196979096159417 0.38726172733004283
leaf_count=26 44 56 40 16 28
internal_value=0 -0.0164255 0.0281289 0.0437751 0.00832007
internal_weight=0 40.3342 19.6118 10.9572 8.65463
internal_count=210 184 140 56 84
shrinkage=0.1


Tree=88
num_leaves=6
num_cat=0
split_feature=0 0 0 0 0
split_gain=0.0891931 0.0751844 0.00381719 0.00018739 9.05938e-05
threshold=1.0000000180025095e-35 0.15000000000000005 0.35000000000000003 0.45000000000000007 0.25000000000000006
decision_type=2 2 2 2 2
left_child=-1 -2 4 -4 -3
right_child=1 2 3 -5 -6
leaf_value=0.011903349584878709 -0.0057723535355364234 0.0012915749781484429 0.0040809554940754193 0.00080712847908504806 -0.00032954367914822676
leaf_weight=5.5424190834164611 21.064675375819206 8.1849336239974928 11.032524632290004 0.17765265726484436 0.35987869376549569
leaf_count=26 44 56 40 16 28
internal_value=0 -0.0161621 0.0281547 0.0402907 0.012233
internal_weight=0 40.8197 19.755 11.2102 8.54481
internal_count=210 184 140 56 84
shrinkage=0.1


Tree=89
num_leaves=6
num_cat=0
split_feature=0 0 0 0 0
split_gain=0.059374 0.0654647 0.00146184 9.59297e-05 1.84677e-05
threshold=1.0000000180025095e-35 0.15000000000000005 0.35000000000000003 0.25000000000000006 0.45000000000000007
decision_type=2 2 2 2 2
left_child=-1 -2 3 -3 -4
right_child=1 2 4 -5 -6
leaf_value=0.008872061106587557 -0.0052166423401988019 0.0017936594027131852 0.0034742490159844434 3.5727853795079272e-05 0.0023803463343263749
leaf_weight=6.5192599594593039 21.543078608810902 8.0658312945160997 11.424627877771853 0.32284448842983771 0.15644517913460809
leaf_count=26 44 56 40 28 16
internal_value=0 -0.0139329 0.027313 0.01726 0.0345947
internal_weight=0 41.5128 19.9697 8.38868 11.5811
internal_count=210 184 140 84 56
shrinkage=0.1


Tree=90
num_leaves=6
num_cat=0
split_feature=0 0 0 0 0
split_gain=0.6695 0.0706879 0.029125 0.00228425 7.34221e-05
threshold=0.35000000000000003 0.15000000000000005 1.0000000180025095e-35 0.45000000000000007 0.25000000000000006
decision_type=2 2 2 2 2
left_child=1 2 -1 -2 -3
right_child=3 4 -4 -5 -6
leaf_value=-0.01359828286519347 0.02223594021290487 0.0022432830007219004 -0.0064976199978593442 0.0094514246669706141 0.00058186758488448169
leaf_weight=7.6811755076050785 10.638818604871627 7.9162089386954886 23.296255670487881 0.14161817100830454 0.27524160951725202
leaf_count=26 40 56 44 16 28
internal_value=0 -0.0607376 -0.082583 0.22068 0.0218746
internal_weight=0 39.1689 30.9774 10.7804 8.19145
internal_count=210 154 70 56 84
shrinkage=0.1


Tree=91
num_leaves=6
num_cat=0
split_feature=0 0 0 0 0
split_gain=3.48595 0.559468 0.107563 0.0135911 0.0012775
threshold=0.35000000000000003 0.15000000000000005 1.0000000180025095e-35 0.45000000000000007 0.25000000000000006
decision_type=2 2 2 2 2
left_child=1 2 -1 -2 -3
right_child=3 4 -4 -5 -6
leaf_value=0.021617670868596724 -0.032991727314821452 0.0026099006824500453 0.038178388539182533 -0.0018230454282503125 -0.0039662008158452573
leaf_weight=5.6969818584620961 18.930437430739406 8.5379413685295731 12.58774583414197 0.14094169135205348 0.30599611555226225
leaf_count=26 40 56 44 16 28
internal_value=0 0.230312 0.330186 -0.327614 0.0238237
internal_weight=0 27.1287 18.2847 19.0714 8.84394
internal_count=210 154 70 56 84
shrinkage=0.1


Tree=92
num_leaves=6
num_cat=0
split_feature=0 0 0 0 0
split_gain=0.362282 0.0331124 0.00553188 0.0018116 3.5508e-05
threshold=0.35000000000000003 0.15000000000000005 1.0000000180025095e-35 0.45000000000000007 0.25000000000000006
decision_type=2 2 2 2 2
left_child=1 2 -1 -2 -3
right_child=3 4 -4 -5 -6
leaf_value=-0.0088133379277746358 0.01769651861107149 0.00085753496897045386 -0.0054766684809814878 0.0083328822495593625 -9.5967991768413391e-05
leaf_weight=6.5300320386886623 9.1849631713703239 8.2806320174131507 20.781500659883022 0.21137543534860093 0.40988761372864319
leaf_count=26 40 56 44 16 28
internal_value=0 -0.0456372 -0.0627445 0.174859 0.00812563
internal_weight=0 36.0021 27.3115 9.39634 8.69052
internal_count=210 154 70 56 84
shrinkage=0.1


Tree=93
num_leaves=6
num_cat=0
split_feature=0 0 0 0 0
split_gain=0.109904 0.047719 0.000146152 6.11088e-05 8.46221e-07
threshold=1.0000000180025095e-35 0.15000000000000005 0.35000000000000003 0.25000000000000006 0.45000000000000007
decision_type=2 2 2 2 2
left_child=-1 -2 3 -3 -4
right_child=1 2 4 -5 -6
leaf_value=0.01268800620593989 -0.0051966728887670819 0.0013928407654343654 0.0018876908761214319 6.2906968804446006e-05 0.0016647548519017918
leaf_weight=5.9562770426273337 20.85631962865591 8.1678042078856361 11.189988212659953 0.36075628438266072 0.17289492371492166
leaf_count=26 44 56 40 28 16
internal_value=0 -0.0185466 0.0164946 0.0133658 0.018843
internal_weight=0 40.7478 19.8914 8.52856 11.3629
internal_count=210 184 140 84 56
shrinkage=0.1


Tree=94
num_leaves=6
num_cat=0
split_feature=0 0 0 0 0
split_gain=0.602493 0.0609404 0.0311734 0.00285642 5.13507e-05
threshold=0.35000000000000003 0.15000000000000005 1.0000000180025095e-35 0.45000000000000007 0.25000000000000006
decision_type=2 2 2 2 2
left_child=1 2 -1 -2 -3
right_child=3 4 -4 -5 -6
leaf_value=-0.013777834188838673 0.021813804526198393 0.0016822558902345565 -0.0061612665425694506 0.0087760827144306598 0.00042070968005161584
leaf_weight=7.1163747534155872 9.9931728914380038 8.0910445793997461 21.942474074661732 0.17091647279448885 0.33605728321708817
leaf_count=26 40 56 44 16 28
internal_value=0 -0.0585524 -0.0802653 0.215946 0.0163195
internal_weight=0 37.486 29.0588 10.1641 8.4271
internal_count=210 154 70 56 84
shrinkage=0.1


Tree=95
num_leaves=6
num_cat=0
split_feature=0 0 0 0 0
split_gain=6.12707 1.05928 0.146639 0.021829 0.000958777
threshold=0.35000000000000003 0.15000000000000005 1.0000000180025095e-35 0.45000000000000007 0.25000000000000006
decision_type=2 2 2 2 2
left_child=1 2 -1 -2 -3
right_child=3 4 -4 -5 -6
leaf_value=0.030660833967154945 -0.041599090488680462 0.0026739199408770589 0.050648163949547367 -0.0013441684460136574 -0.0034569819095396077
leaf_weight=5.0957192182540902 20.245963107794527 8.341758928145282 13.125082718208432 0.13561081420630117 0.26312123774550933
leaf_count=26 40 56 44 16 28
internal_value=0 0.314026 0.450584 -0.413313 0.0248645
internal_weight=0 26.8257 18.2208 20.3816 8.60488
internal_count=210 154 70 56 84
shrinkage=0.1


Tree=96
num_leaves=6
num_cat=0
split_feature=0 0 0 0 0
split_gain=0.238303 0.0196373 0.00109135 7.77433e-05 1.17284e-05
threshold=0.35000000000000003 0.15000000000000005 0.45000000000000007 1.0000000180025095e-35 0.25000000000000006
decision_type=2 2 2 2 2
left_child=1 3 -2 -1 -3
right_child=2 4 -4 -5 -6
leaf_value=-0.0053959118132966529 0.014630167762154334 0.00039308488010360342 0.0077194294552859633 -0.0049911810390613903 -0.00013289761727239467
leaf_weight=6.2024692371487644 8.838606222532686 8.3606180227361584 0.23457925696857351 20.211683928966522 0.44657707159058263
leaf_count=26 40 56 16 44 28
internal_value=0 -0.0372277 0.144515 -0.0508622 0.00366414
internal_weight=0 35.2213 9.07319 26.4142 8.8072
internal_count=210 154 56 70 84
shrinkage=0.1


Tree=97
num_leaves=6
num_cat=0
split_feature=0 0 0 0 0
split_gain=0.335754 0.0296821 0.00788311 0.0020504 1.32039e-05
threshold=0.35000000000000003 0.15000000000000005 1.0000000180025095e-35 0.45000000000000007 0.25000000000000006
decision_type=2 2 2 2 2
left_child=1 2 -1 -2 -3
right_child=3 4 -4 -5 -6
leaf_value=-0.009209936067345971 0.017106265018599378 0.00062823732448361253 -0.0051567522621082593 0.0073790778905258652 5.9216104157804238e-05
leaf_weight=6.2809702754020718 9.1074440274387563 8.3216438170056755 20.330311812460423 0.22198494919575829 0.42881245719036171
leaf_count=26 40 56 44 16 28
internal_value=0 -0.0445205 -0.0611341 0.168748 0.00600353
internal_weight=0 35.3617 26.6113 9.32943 8.75046
internal_count=210 154 70 56 84
shrinkage=0.1


Tree=98
num_leaves=6
num_cat=0
split_feature=0 0 0 0 0
split_gain=0.196753 0.0180378 0.00306275 0.000191605 2.50543e-05
threshold=1.0000000180025095e-35 0.15000000000000005 0.35000000000000003 0.45000000000000007 0.25000000000000006
decision_type=2 2 2 2 2
left_child=-1 -2 4 -4 -3
right_child=1 2 3 -5 -6
leaf_value=0.017205518946407299 -0.0046078499115720607 0.0010917743900744085 -0.00149711162138229 0.0017661090997785804 0.00027784899135599315
leaf_weight=5.8055170513689509 20.093849211931229 8.2377545493654889 11.171042900532482 0.18288042908534485 0.39639051910489881
leaf_count=26 44 56 40 16 28
internal_value=0 -0.0249207 -0.00365088 -0.0144455 0.0105441
internal_weight=0 40.0819 19.9881 11.3539 8.63415
internal_count=210 184 140 56 84
shrinkage=0.1


Tree=99
num_leaves=6
num_cat=0
split_feature=0 0 0 0 0
split_gain=0.433226 0.0423525 0.0126135 0.00238318 2.16864e-05
threshold=0.35000000000000003 0.15000000000000005 1.0000000180025095e-35 0.45000000000000007 0.25000000000000006
decision_type=2 2 2 2 2
left_child=1 2 -1 -2 -3
right_child=3 4 -4 -5 -6
leaf_value=-0.010675076436432375 0.019127936043034727 0.001173056739762354 -0.0056892948622997361 0.0081204661797864945 0.00040983650758818699
leaf_weight=6.6851563602685955 9.3964177556335891 8.2179404629860038 21.057212442159653 0.20089506963268 0.38996155213681127
leaf_count=26 40 56 44 16 28
internal_value=0 -0.0498938 -0.0689073 0.188975 0.0113848
internal_weight=0 36.3503 27.7424 9.59731 8.6079
internal_count=210 154 70 56 84
shrinkage=0.1


end of trees

feature importances:
geographical=500

parameters:
[boosting: gbdt]
[objective: lambdarank]
[metric: ndcg]
[tree_learner: serial]
[device_type: cpu]
[data: ]
[valid: ]
[num_iterations: 100]
[learning_rate: 0.1]
[num_leaves: 16]
[num_threads: -1]
[max_depth: -1]
[min_data_in_leaf: 5]
[min_sum_hessian_in_leaf: 0.001]
[bagging_fraction: 1]
[pos_bagging_fraction: 1]
[neg_bagging_fraction: 1]
[bagging_freq: 0]
[bagging_seed: 3]
[feature_fraction: 1]
[feature_fraction_bynode: 1]
[feature_fraction_seed: 2]
[early_stopping_round: 0]
[first_metric_only: 0]
[max_delta_step: 0]
[lambda_l1: 0]
[lambda_l2: 0]
[min_gain_to_split: 0]
[drop_rate: 0.1]
[max_drop: 50]
[skip_drop: 0.5]
[xgboost_dart_mode: 0]
[uniform_drop: 0]
[drop_seed: 4]
[top_rate: 0.2]
[other_rate: 0.1]
[min_data_per_group: 100]
[max_cat_threshold: 32]
[cat_l2: 10]
[cat_smooth: 10]
[max_cat_to_onehot: 4]
[top_k: 20]
[monotone_constraints: ]
[feature_contri: ]
[forcedsplits_filename: ]
[forcedbins_filename: ]
[refit_decay_rate: 0.9]
[cegb_tradeoff: 1]
[cegb_penalty_split: 0]
[cegb_penalty_feature_lazy: ]
[cegb_penalty_feature_coupled: ]
[verbosity: -1]
[max_bin: 255]
[max_bin_by_feature: ]
[min_data_in_bin: 3]
[bin_construct_sample_cnt: 200000]
[histogram_pool_size: -1]
[data_random_seed: 1]
[output_model: LightGBM_model.txt]
[snapshot_freq: -1]
[input_model: ]
[output_result: LightGBM_predict_result.txt]
[initscore_filename: ]
[valid_data_initscores: ]
[pre_partition: 0]
[enable_bundle: 1]
[max_conflict_rate: 0]
[is_enable_sparse: 1]
[sparse_threshold: 0.8]
[use_missing: 1]
[zero_as_missing: 0]
[two_round: 0]
[save_binary: 0]
[header: 0]
[label_column: ]
[weight_column: ]
[group_column: ]
[ignore_column: ]
[categorical_feature: ]
[predict_raw_score: 0]
[predict_leaf_index: 0]
[predict_contrib: 0]
[num_iteration_predict: -1]
[pred_early_stop: 0]
[pred_early_stop_freq: 10]
[pred_early_stop_margin: 10]
[convert_model_language: ]
[convert_model: gbdt_prediction.cpp]
[num_class: 1]
[is_unbalance: 0]
[scale_pos_weight: 1]
[sigmoid: 1]
[boost_from_average: 1]
[reg_sqrt: 0]
[alpha: 0.9]
[fair_c: 1]
[poisson_max_delta_step: 0.7]
[tweedie_variance_power: 1.5]
[max_position: 20]
[lambdamart_norm: 1]
[label_gain: ]
[metric_freq: 1]
[is_provide_training_metric: 0]
[eval_at: 1]
[multi_error_top_k: 1]
[num_machines: 1]
[local_listen_port: 12400]
[time_out: 120]
[machine_list_filename: ]
[machines: ]
[gpu_platform_id: -1]
[gpu_device_id: -1]
[gpu_use_dp: 0]

end of parameters

pandas_categorical:null
