tree
version=v3
num_class=1
num_tree_per_iteration=1
label_index=0
max_feature_idx=0
objective=lambdarank
feature_names=geographical
feature_infos=[0:1]
tree_sizes=747 749 754 747 747 750 753 752 758 747 761 747 763 758 749 758 757 755 753 761 751 758 758 759 763 758 759 755 760 762 749 756 756 752 759 762 765 756 762 763 762 750 754 767 769 763 759 761 763 763 762 759 758 760 756 762 752 763 757 762 761 748 760 757 744 760 764 769 763 764 755 763 765 759 759 752 763 765 760 762 760 754 760 749 764 755 762 760 758 758 758 761 753 762 759 759 762 757 763 757

Tree=0
num_leaves=6
num_cat=0
split_feature=0 0 0 0 0
split_gain=0.582045 0.789451 0.315136 0.0930245 0.0185078
threshold=0.75000000000000011 0.15000000000000005 0.45000000000000007 0.35000000000000003 1.0000000180025095e-35
decision_type=2 2 2 2 2
left_child=1 4 3 -3 -1
right_child=-2 2 -4 -5 -6
leaf_value=0.0026331833512115324 0.020470017325370484 -0.070252183912512076 -0.12776030714995237 -0.030558764819412849 0.016375753064763288
leaf_weight=1.7772270366549494 7.0478507159277797 0.8505921326577669 0.51644284091889847 1.9302742443978786 2.1845864942297339
leaf_count=26 78 22 14 36 34
internal_value=0 -0.198743 -0.560225 -0.426999 0.10211
internal_weight=0 7.25912 3.29731 2.78087 3.96181
internal_count=210 132 72 58 60
shrinkage=0.1


Tree=1
num_leaves=6
num_cat=0
split_feature=0 0 0 0 0
split_gain=1.15881 0.164871 0.201267 0.391317 1.10599e-06
threshold=0.15000000000000005 0.35000000000000003 0.45000000000000007 0.75000000000000011 1.0000000180025095e-35
decision_type=2 2 2 2 2
left_child=4 -2 -3 -4 -1
right_child=1 2 3 -5 -6
leaf_value=0.022975448673083168 -0.040956522988279315 0.0087673875114274002 -0.099371429347682519 -0.011799741169656342 0.023033583180035559
leaf_weight=5.0063254162669155 1.8167166206985736 4.7745388746261623 0.52296011522412555 21.030975901521742 9.44928889721632
leaf_count=26 22 36 14 78 34
internal_value=0 -0.118199 -0.0980942 -0.139245 0.230134
internal_weight=0 28.1452 26.3285 21.5539 14.4556
internal_count=210 150 128 92 60
shrinkage=0.1


Tree=2
num_leaves=6
num_cat=0
split_feature=0 0 0 0 0
split_gain=0.37169 0.211221 0.230336 0.0128869 0.000429569
threshold=0.35000000000000003 0.45000000000000007 0.75000000000000011 0.15000000000000005 1.0000000180025095e-35
decision_type=2 2 2 2 2
left_child=3 -2 -3 4 -1
right_child=1 2 -4 -5 -6
leaf_value=-0.0074175132309200267 0.028665104999161306 -0.073277345805743063 0.0068622188780318467 -0.016533061539555329 -0.0064861214194579121
leaf_weight=6.9354690089821878 5.2635866627097103 0.37304207496344943 9.2942515099421144 1.426408571191131 17.313602842390537
leaf_count=26 36 14 78 22 34
internal_value=0 0.125461 0.0376979 -0.0729587 -0.0675251
internal_weight=0 14.9309 9.66729 25.6755 24.2491
internal_count=210 128 92 82 60
shrinkage=0.1


Tree=3
num_leaves=6
num_cat=0
split_feature=0 0 0 0 0
split_gain=0.35384 0.140912 0.11676 0.0403713 0.0163494
threshold=0.25000000000000006 0.45000000000000007 0.75000000000000011 1.0000000180025095e-35 0.35000000000000003
decision_type=2 2 2 2 2
left_child=3 4 -3 -1 -2
right_child=1 2 -4 -5 -6
leaf_value=-0.014203026584523208 0.0080108215650598041 -0.068233771701337223 0.0046728310301808462 -0.0052854043454373181 0.022615437367646877
leaf_weight=7.2260029502213028 0.8659799452871092 0.22424364136531849 10.758110807277262 17.067022318020463 6.6737716756761074
leaf_count=26 18 14 78 38 36
internal_value=0 0.104112 0.0318418 -0.0793797 0.20938
internal_weight=0 18.5221 10.9824 24.293 7.53975
internal_count=210 146 92 64 54
shrinkage=0.1


Tree=4
num_leaves=6
num_cat=0
split_feature=0 0 0 0 0
split_gain=14.4564 5.99542 0.018137 0.0105854 0.0101173
threshold=0.15000000000000005 0.75000000000000011 1.0000000180025095e-35 0.45000000000000007 0.35000000000000003
decision_type=2 2 2 2 2
left_child=2 3 -1 4 -2
right_child=1 -3 -4 -5 -6
leaf_value=0.075312685969969054 -0.085468972741965799 0.021506906091547345 0.083116526975397106 -0.050349992081780454 -0.073833373550943618
leaf_weight=4.1560877766460154 0.77972300490365043 10.042517312802376 10.507833521813154 0.18610350694507261 17.964123256504536
leaf_count=26 22 78 34 14 36
internal_value=0 -0.409486 0.809047 -0.740818 -0.743174
internal_weight=0 28.9725 14.6639 18.9299 18.7438
internal_count=210 150 60 72 58
shrinkage=0.1


Tree=5
num_leaves=6
num_cat=0
split_feature=0 0 0 0 0
split_gain=0.294838 0.121495 0.0831114 0.049671 0.00103349
threshold=0.25000000000000006 0.45000000000000007 0.75000000000000011 0.35000000000000003 1.0000000180025095e-35
decision_type=2 2 2 2 2
left_child=4 3 -3 -2 -1
right_child=1 2 -4 -5 -6
leaf_value=-0.0057891845419168302 0.004229701678999608 -0.046590918986028955 0.0057892151857769428 0.027523961715990964 -0.0072813465422044924
leaf_weight=6.3758420236408737 1.1493922779336543 0.31460473267361422 8.1556477481499314 4.4962199851870537 17.065726581029594
leaf_count=26 18 14 78 36 38
internal_value=0 0.114178 0.038437 0.227815 -0.068755
internal_weight=0 14.1159 8.47025 5.64561 23.4416
internal_count=210 146 92 54 64
shrinkage=0.1


Tree=6
num_leaves=6
num_cat=0
split_feature=0 0 0 0 0
split_gain=0.342717 0.129371 0.0623175 0.0383053 0.000344198
threshold=0.25000000000000006 0.45000000000000007 0.75000000000000011 0.35000000000000003 1.0000000180025095e-35
decision_type=2 2 2 2 2
left_child=4 3 -3 -2 -1
right_child=1 2 -4 -5 -6
leaf_value=-0.0081009642632814405 0.0065437424521363422 -0.042429999631716286 0.0059316875238817346 0.027557207339959235 -0.0072439605931918019
leaf_weight=6.4668754152953651 1.0637337551452191 0.2749963398091485 8.5680789640173316 4.7021740628406405 17.022001461591572
leaf_count=26 18 14 78 36 38
internal_value=0 0.120265 0.0442777 0.236805 -0.0747991
internal_weight=0 14.609 8.84308 5.76591 23.4889
internal_count=210 146 92 54 64
shrinkage=0.1


Tree=7
num_leaves=6
num_cat=0
split_feature=0 0 0 0 0
split_gain=0.437676 0.129452 0.0493108 0.0277357 0.0179871
threshold=0.25000000000000006 0.45000000000000007 0.75000000000000011 0.35000000000000003 1.0000000180025095e-35
decision_type=2 2 2 2 2
left_child=4 3 -3 -2 -1
right_child=1 2 -4 -5 -6
leaf_value=-0.013015946148570635 0.0089148112028442777 -0.039897275425482596 0.0069173360295221647 0.027503900143131262 -0.0068718613205293738
leaf_weight=6.6470901705324676 0.95460816891863665 0.23059188015758889 9.2756276139989495 5.0420694015920162 16.82674755435437
leaf_count=26 18 14 78 36 38
internal_value=0 0.130395 0.0578176 0.245447 -0.0861168
internal_weight=0 15.5029 9.50622 5.99668 23.4738
internal_count=210 146 92 54 64
shrinkage=0.1


Tree=8
num_leaves=6
num_cat=0
split_feature=0 0 0 0 0
split_gain=0.0828948 0.0246887 0.039795 0.0581392 3.82239e-05
threshold=1.0000000180025095e-35 0.25000000000000006 0.45000000000000007 0.75000000000000011 0.35000000000000003
decision_type=2 2 2 2 2
left_child=-1 -2 4 -4 -3
right_child=1 2 3 -5 -6
leaf_value=0.0118207675540196 -0.0045427643911381916 0.0076262932306311766 -0.061555273230033292 -0.0018311952362362095 0.0068937592532895865
leaf_weight=5.1758914776146403 16.574118725024164 0.81164101092144925 0.16523107141256232 12.036551521159708 5.8214406911283731
leaf_count=26 38 18 14 78 36
internal_value=0 -0.017279 0.00749106 -0.0263995 0.0698339
internal_weight=0 35.409 18.8349 12.2018 6.63308
internal_count=210 184 146 92 54
shrinkage=0.1


Tree=9
num_leaves=6
num_cat=0
split_feature=0 0 0 0 0
split_gain=0.364199 0.185682 0.0352169 0.0223112 0.0128523
threshold=0.25000000000000006 0.45000000000000007 1.0000000180025095e-35 0.75000000000000011 0.35000000000000003
decision_type=2 2 2 2 2
left_child=2 4 -1 -3 -2
right_child=1 3 -4 -5 -6
leaf_value=-0.013967249688241307 0.010968206765505384 -0.034971203201579669 -0.0055377381416934993 0.00311348567756372 0.025071988036413681
leaf_weight=7.0165993832051781 0.72039115289226252 0.156167171895503 16.877839378081262 10.249787577427924 6.2665585037320852
leaf_count=26 18 14 38 78 36
internal_value=0 0.110084 -0.0801306 0.0254193 0.236178
internal_weight=0 17.3929 23.8944 10.406 6.98695
internal_count=210 146 64 92 54
shrinkage=0.1


Tree=10
num_leaves=6
num_cat=0
split_feature=0 0 0 0 0
split_gain=0.52161 0.0282826 0.0830135 0.0518297 0.012365
threshold=1.0000000180025095e-35 0.15000000000000005 0.35000000000000003 0.75000000000000011 0.45000000000000007
decision_type=2 2 2 2 2
left_child=-1 -2 -3 4 -4
right_child=1 2 3 -5 -6
leaf_value=0.032162499283165773 -0.00080284864718313184 -0.04091077050394662 -0.0094911117368037014 0.00026490054147907343 -0.040364843908130589
leaf_weight=4.5110082402825347 17.344024069607258 0.66940086241811769 10.640591874718664 9.5013322541490197 0.13132335338741619
leaf_count=26 34 22 36 78 14
internal_value=0 -0.0378945 -0.0626285 -0.0511881 -0.098675
internal_weight=0 38.2867 20.9426 20.2732 10.7719
internal_count=210 184 150 128 50
shrinkage=0.1


Tree=11
num_leaves=6
num_cat=0
split_feature=0 0 0 0 0
split_gain=3.20805 0.414971 0.00520863 0.02232 0.00503519
threshold=1.0000000180025095e-35 0.45000000000000007 0.15000000000000005 0.35000000000000003 0.75000000000000011
decision_type=2 2 2 2 2
left_child=-1 2 -2 -4 -3
right_child=1 4 3 -5 -6
leaf_value=-0.04049342667535679 0.028694233713662816 -0.017777524767810231 0.0049539952926999633 0.026728294025249712 0.0028558469039412448
leaf_weight=13.44794152677059 11.120024543255569 0.11961420369334597 0.50323172984644671 7.2973555438220501 10.525878668762743
leaf_count=26 34 14 22 36 78
internal_value=0 0.184182 0.273046 0.253236 0.0262401
internal_weight=0 29.5661 18.9206 7.80059 10.6455
internal_count=210 184 92 58 92
shrinkage=0.1


Tree=12
num_leaves=6
num_cat=0
split_feature=0 0 0 0 0
split_gain=0.50471 0.0318507 0.0879374 0.0257219 0.0116485
threshold=1.0000000180025095e-35 0.15000000000000005 0.35000000000000003 0.75000000000000011 0.45000000000000007
decision_type=2 2 2 2 2
left_child=-1 -2 -3 4 -4
right_child=1 2 3 -5 -6
leaf_value=0.034624307278147838 -0.0005073963130921694 -0.039714617616226536 -0.007915382698488474 -0.00076987502877339485 -0.035723082832359553
leaf_weight=3.8101998381316653 17.180119670927525 0.76253919862211006 10.277318926528096 7.9416995523497453 0.15288127353414971
leaf_count=26 34 22 36 78 14
internal_value=0 -0.0363285 -0.0643909 -0.0505796 -0.0832298
internal_weight=0 36.3146 19.1344 18.3719 10.4302
internal_count=210 184 150 128 50
shrinkage=0.1


Tree=13
num_leaves=6
num_cat=0
split_feature=0 0 0 0 0
split_gain=0.680387 0.0967453 0.149613 0.0193467 0.00379103
threshold=1.0000000180025095e-35 0.75000000000000011 0.15000000000000005 0.35000000000000003 0.45000000000000007
decision_type=2 2 2 2 2
left_child=-1 2 -2 -4 -5
right_child=1 -3 3 4 -6
leaf_value=0.032806908059593472 -0.0016678797904560009 0.0047089413664290732 -0.032791045867856625 -0.015279984320693461 -0.03267811536833428
leaf_weight=5.4863730408251277 16.536589734256268 7.9956768145784727 0.68687624996528107 10.693500585854052 0.12672670301981348
leaf_count=26 34 78 22 36 14
internal_value=0 -0.0499429 -0.0776082 -0.165168 -0.154838
internal_weight=0 36.0394 28.0437 11.5071 10.8202
internal_count=210 184 106 72 50
shrinkage=0.1


Tree=14
num_leaves=6
num_cat=0
split_feature=0 0 0 0 0
split_gain=3.51098 0.769648 0.00784816 0.0279109 0.00123967
threshold=1.0000000180025095e-35 0.45000000000000007 0.15000000000000005 0.35000000000000003 0.75000000000000011
decision_type=2 2 2 2 2
left_child=-1 2 -2 -4 -3
right_child=1 4 3 -5 -6
leaf_value=-0.041964450563308192 0.03400940501144193 -0.01209297512734496 0.0080705504460619661 0.031569074822484403 -0.0023433160139947162
leaf_weight=13.45637748390436 11.123888671398165 0.13220958528108973 0.54789346130564709 6.5274313222616911 9.6083141239359975
leaf_count=26 34 14 22 36 78
internal_value=0 0.20211 0.323532 0.297494 -0.0247565
internal_weight=0 27.9397 18.1992 7.07532 9.74052
internal_count=210 184 92 58 92
shrinkage=0.1


Tree=15
num_leaves=6
num_cat=0
split_feature=0 0 0 0 0
split_gain=0.14721 0.069228 0.0285111 0.0486468 0.00693535
threshold=1.0000000180025095e-35 0.75000000000000011 0.15000000000000005 0.35000000000000003 0.45000000000000007
decision_type=2 2 2 2 2
left_child=-1 2 -2 -4 -5
right_child=1 -3 3 4 -6
leaf_value=0.016371680234691908 -0.0020010862181694634 0.0060526288467126731 -0.032873814488654451 -0.0064613163050018189 -0.02848687366009256
leaf_weight=4.8233757130801669 16.170726992189884 7.7631504824385038 0.7688605317380286 9.9341789186000806 0.14504736685194153
leaf_count=26 34 78 22 36 14
internal_value=0 -0.0227034 -0.0466172 -0.0862781 -0.0677828
internal_weight=0 34.782 27.0188 10.8481 10.0792
internal_count=210 184 106 72 50
shrinkage=0.1


Tree=16
num_leaves=6
num_cat=0
split_feature=0 0 0 0 0
split_gain=0.727149 0.0761191 0.143405 0.0110728 0.00209365
threshold=1.0000000180025095e-35 0.75000000000000011 0.15000000000000005 0.35000000000000003 0.45000000000000007
decision_type=2 2 2 2 2
left_child=-1 2 -2 -4 -5
right_child=1 -3 3 4 -6
leaf_value=0.035202578226773619 -0.0015292825362757346 0.0035966050174263877 -0.028618050513952688 -0.015270413643020299 -0.028210888445024569
leaf_weight=5.1230645030736914 16.100071020424366 7.8045691298320881 0.67642424325458783 10.534488186240194 0.12652891909238029
leaf_count=26 34 78 22 36 14
internal_value=0 -0.0511732 -0.0759599 -0.162112 -0.15424
internal_weight=0 35.2421 27.4375 11.3374 10.661
internal_count=210 184 106 72 50
shrinkage=0.1


Tree=17
num_leaves=6
num_cat=0
split_feature=0 0 0 0 0
split_gain=0.187925 0.414169 0.00796005 0.0020733 0.00106494
threshold=0.45000000000000007 0.25000000000000006 0.35000000000000003 1.0000000180025095e-35 0.75000000000000011
decision_type=2 2 2 2 2
left_child=1 3 -3 -1 -2
right_child=4 2 -4 -5 -6
leaf_value=-0.0010994470495285385 -0.021032422857001125 0.012174907923582692 0.025478693686483318 -0.003187772775382141 -0.011755320428090157
leaf_weight=6.6116048209369245 0.12529788631945571 0.48130372655577858 6.8588904645293951 16.921341829001904 9.9333324069157243
leaf_count=26 14 18 36 38 78
internal_value=0 0.038676 0.246064 -0.0260106 -0.118709
internal_weight=0 30.8731 7.34019 23.5329 10.0586
internal_count=210 118 54 64 92
shrinkage=0.1


Tree=18
num_leaves=6
num_cat=0
split_feature=0 0 0 0 0
split_gain=0.18876 0.0464957 0.0364444 0.0231278 0.0034278
threshold=0.35000000000000003 0.45000000000000007 0.15000000000000005 1.0000000180025095e-35 0.75000000000000011
decision_type=2 2 2 2 2
left_child=2 -2 3 -1 -3
right_child=1 4 -4 -5 -6
leaf_value=-0.0093202764493930477 0.013902292480866227 -0.012002037763437307 -0.027499518330505564 -0.0026102266552653496 0.002983940847003012
leaf_weight=7.2805481627583566 8.3410031255334598 0.15639100642874737 0.71419776417314906 17.44407220184803 6.3499106401577592
leaf_count=26 36 14 22 34 78
internal_value=0 0.0895986 -0.052294 -0.045861 0.0262373
internal_weight=0 14.8473 25.4388 24.7246 6.5063
internal_count=210 128 82 60 92
shrinkage=0.1


Tree=19
num_leaves=6
num_cat=0
split_feature=0 0 0 0 0
split_gain=0.534532 0.0980856 0.119438 0.00541195 0.000488904
threshold=1.0000000180025095e-35 0.75000000000000011 0.15000000000000005 0.35000000000000003 0.45000000000000007
decision_type=2 2 2 2 2
left_child=-1 2 -2 -4 -5
right_child=1 -3 3 4 -6
leaf_value=0.027956193178375912 -0.0018854729278338232 0.0068414182735363292 -0.023912115549315008 -0.014407452434400968 -0.020582982281665763
leaf_weight=5.8600896522402754 17.448142759501934 6.1102298041805616 0.64458465948700971 10.733781691640614 0.12974578817375082
leaf_count=26 34 78 22 36 14
internal_value=0 -0.0467186 -0.0710135 -0.150094 -0.144812
internal_weight=0 35.0665 28.9563 11.5081 10.8635
internal_count=210 184 106 72 50
shrinkage=0.1


Tree=20
num_leaves=6
num_cat=0
split_feature=0 0 0 0 0
split_gain=2.94151 0.166315 0.0767379 0.0444373 0.00142568
threshold=1.0000000180025095e-35 0.15000000000000005 0.35000000000000003 0.45000000000000007 0.75000000000000011
decision_type=2 2 2 2 2
left_child=-1 -2 -3 -4 -5
right_child=1 2 3 4 -6
leaf_value=-0.037941601426136784 0.02875892053869893 -0.021632108090930694 0.019130702499348413 -0.001228492400204381 0.0084054056872467572
leaf_weight=13.534732714295385 10.987089335918428 0.62525493605062266 8.1114181354641897 0.15722847392316808 6.6735914209857583
leaf_count=26 34 22 36 14 78
internal_value=0 0.193386 0.126901 0.141263 0.0818366
internal_weight=0 26.5546 15.5675 14.9422 6.83082
internal_count=210 184 150 128 92
shrinkage=0.1


Tree=21
num_leaves=6
num_cat=0
split_feature=0 0 0 0 0
split_gain=0.33217 0.0691807 0.0492572 0.00935001 0.00153665
threshold=1.0000000180025095e-35 0.75000000000000011 0.15000000000000005 0.35000000000000003 0.45000000000000007
decision_type=2 2 2 2 2
left_child=-1 2 -2 -4 -5
right_child=1 -3 3 4 -6
leaf_value=0.024746919313997074 -0.0022274401671658426 0.0055260131378684525 -0.02224616948092727 -0.0099639797828386806 -0.020670851727432524
leaf_weight=4.7670390866696826 16.692995950579643 6.927957114763557 0.67597068729810494 10.159119283780454 0.13583734096027988
leaf_count=26 34 78 22 36 14
internal_value=0 -0.0341033 -0.0564828 -0.108533 -0.101053
internal_weight=0 34.5919 27.6639 10.9709 10.295
internal_count=210 184 106 72 50
shrinkage=0.1


Tree=22
num_leaves=6
num_cat=0
split_feature=0 0 0 0 0
split_gain=0.156253 0.109836 0.0449779 0.0209318 0.00156025
threshold=0.35000000000000003 0.45000000000000007 1.0000000180025095e-35 0.15000000000000005 0.75000000000000011
decision_type=2 2 2 2 2
left_child=2 -2 -1 -4 -3
right_child=1 4 3 -5 -6
leaf_value=-0.011927177973939683 0.01566396320728489 -0.011481463110579015 -0.0016741026094426632 -0.020462193335297196 -0.00089544731137640985
leaf_weight=6.8194700777530697 8.3007744830101711 0.14195686252787609 16.718200497329239 0.61478690570220251 7.2458188766613603
leaf_count=26 36 14 34 22 78
internal_value=0 0.0777031 -0.0504731 -0.023405 -0.0109886
internal_weight=0 15.6886 24.1525 17.333 7.38778
internal_count=210 128 82 56 92
shrinkage=0.1


Tree=23
num_leaves=6
num_cat=0
split_feature=0 0 0 0 0
split_gain=0.434345 0.0779081 0.0704926 0.00259744 0.000489122
threshold=1.0000000180025095e-35 0.75000000000000011 0.15000000000000005 0.35000000000000003 0.45000000000000007
decision_type=2 2 2 2 2
left_child=-1 2 -2 -4 -5
right_child=1 -3 3 4 -6
leaf_value=0.027350140203036971 -0.0022389393296285316 0.005670091684874666 -0.018729934299363062 -0.012033245845210937 -0.018219634202998793
leaf_weight=5.0686299242079249 16.94453102350235 6.7434519277885547 0.62805439578369338 10.371673762798308 0.12939809774980027
leaf_count=26 34 78 22 36 14
internal_value=0 -0.039816 -0.0629999 -0.124831 -0.121095
internal_weight=0 34.8171 28.0737 11.1291 10.5011
internal_count=210 184 106 72 50
shrinkage=0.1


Tree=24
num_leaves=6
num_cat=0
split_feature=0 0 0 0 0
split_gain=0.161078 0.121336 0.00950149 0.0103871 0.000501916
threshold=0.35000000000000003 0.45000000000000007 1.0000000180025095e-35 0.15000000000000005 0.75000000000000011
decision_type=2 2 2 2 2
left_child=2 -2 -1 -4 -3
right_child=1 4 3 -5 -6
leaf_value=-0.0079904781078422634 0.016336623397085522 -0.0072639990914641602 -0.0032613854593529883 -0.016929446287401152 -0.0012958359991211324
leaf_weight=7.2336974218487766 8.2322213687002641 0.14376962138339777 17.394142210483555 0.57436585705727239 7.0911352196708322
leaf_count=26 36 14 34 22 78
internal_value=0 0.0803339 -0.0493026 -0.0369829 -0.0141443
internal_weight=0 15.4671 25.2022 17.9685 7.2349
internal_count=210 128 82 56 92
shrinkage=0.1


Tree=25
num_leaves=6
num_cat=0
split_feature=0 0 0 0 0
split_gain=0.191261 0.0869073 0.023758 0.0109294 0.00223245
threshold=0.35000000000000003 1.0000000180025095e-35 0.45000000000000007 0.15000000000000005 0.75000000000000011
decision_type=2 2 2 2 2
left_child=1 -1 -2 -3 -4
right_child=2 3 4 -5 -6
leaf_value=-0.014171793357427685 0.012149388957107715 -0.001032203052019152 -0.0092585157188672523 -0.015129835682818022 0.0044612002303091149
leaf_weight=7.7083130218088654 8.9191623218357545 17.392365083098415 0.12084192794281888 0.56788054737262328 6.3977169124409556
leaf_count=26 36 34 14 22 78
internal_value=0 -0.0528994 0.0879567 -0.0147795 0.0420686
internal_weight=0 25.6686 15.4377 17.9602 6.51856
internal_count=210 82 128 56 92
shrinkage=0.1


Tree=26
num_leaves=6
num_cat=0
split_feature=0 0 0 0 0
split_gain=0.212405 0.115501 0.156695 4.92656e-05 8.39153e-08
threshold=1.0000000180025095e-35 0.75000000000000011 0.15000000000000005 0.35000000000000003 0.45000000000000007
decision_type=2 2 2 2 2
left_child=-1 2 -2 -4 -5
right_child=1 -3 3 4 -6
leaf_value=0.019661301947503634 0.00057965702957450509 0.009372027743612326 -0.015286939236051284 -0.01426312027915212 -0.014181676732622507
leaf_weight=4.8454266116023055 17.921198144555092 6.5591055741533628 0.48966964636929405 11.065407752990721 0.12797400855925012
leaf_count=26 34 78 22 36 14
internal_value=0 -0.0263436 -0.0529449 -0.143051 -0.142622
internal_weight=0 36.1634 29.6042 11.6831 11.1934
internal_count=210 184 106 72 50
shrinkage=0.1


Tree=27
num_leaves=6
num_cat=0
split_feature=0 0 0 0 0
split_gain=0.208372 0.0577249 0.0496064 0.00547 0.000979901
threshold=0.35000000000000003 0.45000000000000007 1.0000000180025095e-35 0.15000000000000005 0.75000000000000011
decision_type=2 2 2 2 2
left_child=2 -2 -1 -4 -3
right_child=1 4 3 -5 -6
leaf_value=-0.012412574981178318 0.014525388129408765 -0.0062963904400059403 -0.0024544539515612617 -0.012911148670663087 0.0026294210236832908
leaf_weight=7.5346488803625133 8.5971006602048856 0.12510932015720655 17.539752833545212 0.51495005376636882 7.2772910455241799
leaf_count=26 36 14 34 22 78
internal_value=0 0.0895175 -0.05597 -0.027527 0.0247856
internal_weight=0 15.9995 25.5894 18.0547 7.4024
internal_count=210 128 82 56 92
shrinkage=0.1


Tree=28
num_leaves=6
num_cat=0
split_feature=0 0 0 0 0
split_gain=0.218764 0.128641 0.149431 0.000100474 3.45131e-05
threshold=1.0000000180025095e-35 0.75000000000000011 0.15000000000000005 0.35000000000000003 0.45000000000000007
decision_type=2 2 2 2 2
left_child=-1 2 -2 -4 -5
right_child=1 -3 3 4 -6
leaf_value=0.019341617482165379 0.00014127363717688537 0.0094431504784714924 -0.012863957449790181 -0.014424653800273319 -0.012704471655313521
leaf_weight=5.1330794468522063 18.06235533207655 7.0613153958693138 0.43851090827956873 11.187540359795092 0.11786553810816336
leaf_count=26 34 78 22 36 14
internal_value=0 -0.0269293 -0.0556806 -0.143491 -0.144067
internal_weight=0 36.8676 29.8063 11.7439 11.3054
internal_count=210 184 106 72 50
shrinkage=0.1


Tree=29
num_leaves=6
num_cat=0
split_feature=0 0 0 0 0
split_gain=0.244147 0.163561 0.0146371 0.0010425 0.000121362
threshold=0.35000000000000003 0.45000000000000007 1.0000000180025095e-35 0.15000000000000005 0.75000000000000011
decision_type=2 2 2 2 2
left_child=2 -2 -1 -4 -3
right_child=1 4 3 -5 -6
leaf_value=-0.0094856529092387804 0.019240506504533419 -0.003773780609479636 -0.00427815917341822 -0.0092618716070655832 -0.00049645909789249444
leaf_weight=8.1274121180176753 8.4623287096619606 0.11458134662825514 18.061601318418983 0.42971825692802568 8.1434489460662007
leaf_count=26 36 14 34 22 78
internal_value=0 0.0947014 -0.059486 -0.0439398 -0.00541932
internal_weight=0 16.7204 26.6187 18.4913 8.25803
internal_count=210 128 82 56 92
shrinkage=0.1


Tree=30
num_leaves=6
num_cat=0
split_feature=0 0 0 0 0
split_gain=12.8196 4.31266 0.0551432 0.00425449 0.00271975
threshold=0.15000000000000005 0.45000000000000007 0.35000000000000003 0.75000000000000011 1.0000000180025095e-35
decision_type=2 2 2 2 2
left_child=4 2 -2 -3 -1
right_child=1 3 -4 -5 -6
leaf_value=0.066749226688351634 -0.033853941887452714 -0.0021945716663100876 -0.072391640568073165 0.017704758486053952 0.069427369989589816
leaf_weight=5.8644293211400518 0.3793876946438165 0.10895398969296266 17.40944691374898 7.7374987928196788 10.729841627180576
leaf_count=26 22 14 36 78 34
internal_value=0 -0.443292 -0.715697 0.174284 0.684809
internal_weight=0 25.6353 17.7888 7.84645 16.5943
internal_count=210 150 58 92 60
shrinkage=0.1


Tree=31
num_leaves=6
num_cat=0
split_feature=0 0 0 0 0
split_gain=0.265046 0.255149 0.0148949 0.00747831 0.000290857
threshold=0.25000000000000006 0.45000000000000007 1.0000000180025095e-35 0.35000000000000003 0.75000000000000011
decision_type=2 2 2 2 2
left_child=2 3 -1 -2 -3
right_child=1 4 -4 -5 -6
leaf_value=-0.0022889023893677518 0.01873914832310623 -0.0040283423494030454 -0.0076565441471305 0.029452718428647065 -6.3704258519143999e-06
leaf_weight=7.3061664998531368 0.75613584462553074 0.18406907049939025 17.6796400208259 4.7095706537365913 7.7617057049646974
leaf_count=26 18 14 38 36 78
internal_value=0 0.113401 -0.0608698 0.279706 -0.00099542
internal_weight=0 13.4115 24.9858 5.46571 7.94577
internal_count=210 146 64 54 92
shrinkage=0.1


Tree=32
num_leaves=6
num_cat=0
split_feature=0 0 0 0 0
split_gain=0.245071 0.426354 0.016561 0.00965654 8.17655e-07
threshold=0.25000000000000006 0.45000000000000007 1.0000000180025095e-35 0.35000000000000003 0.75000000000000011
decision_type=2 2 2 2 2
left_child=2 3 -1 -2 -3
right_child=1 4 -4 -5 -6
leaf_value=-0.0019400547990836856 0.019899703880481436 -0.0038161133712000432 -0.0074500980323001162 0.03285545872222366 -0.0040430047540254265
leaf_weight=7.8324912786483791 0.64764537219889184 0.16204000276047636 17.9687502005836 5.1503479219973087 8.0193140720948577
leaf_count=26 18 14 38 36 78
internal_value=0 0.106632 -0.0577741 0.314083 -0.0403851
internal_weight=0 13.9793 25.8012 5.79799 8.18135
internal_count=210 146 64 54 92
shrinkage=0.1


Tree=33
num_leaves=6
num_cat=0
split_feature=0 0 0 0 0
split_gain=4.52662 0.987677 0.197253 0.0425493 0.00149241
threshold=1.0000000180025095e-35 0.45000000000000007 0.15000000000000005 0.35000000000000003 0.75000000000000011
decision_type=2 2 2 2 2
left_child=-1 2 -2 -4 -3
right_child=1 4 3 -5 -6
leaf_value=-0.047162830399112989 0.043569325717702258 0.0040115315649724348 -0.0071544936994763809 0.025094906732208724 -0.0071019159736096854
leaf_weight=13.645585857331751 11.432834535837177 0.12275992392096569 0.43093996844254334 8.0795343890786171 7.7050926024094224
leaf_count=26 34 14 22 36 78
internal_value=0 0.231738 0.349888 0.234619 -0.0692763
internal_weight=0 27.7712 19.9433 8.51047 7.82785
internal_count=210 184 92 58 92
shrinkage=0.1


Tree=34
num_leaves=6
num_cat=0
split_feature=0 0 0 0 0
split_gain=0.712105 0.0522824 0.0911362 0.000202452 1.22551e-05
threshold=1.0000000180025095e-35 0.75000000000000011 0.15000000000000005 0.35000000000000003 0.45000000000000007
decision_type=2 2 2 2 2
left_child=-1 2 -2 -4 -5
right_child=1 -3 3 4 -6
leaf_value=0.036069806679797617 -0.0022921430351228746 0.0029170212838432958 -0.012369562584211236 -0.014210411178038288 -0.013217836046755553
leaf_weight=4.7921696323901406 16.216131530702114 6.5172231318429104 0.6430209751706577 10.20909823104739 0.12592610262800086
leaf_count=26 34 78 22 36 14
internal_value=0 -0.0512742 -0.0705532 -0.140912 -0.141983
internal_weight=0 33.7114 27.1942 10.978 10.335
internal_count=210 184 106 72 50
shrinkage=0.1


Tree=35
num_leaves=6
num_cat=0
split_feature=0 0 0 0 0
split_gain=0.0874827 0.172993 0.0144037 0.0059694 1.04696e-05
threshold=0.35000000000000003 0.45000000000000007 1.0000000180025095e-35 0.15000000000000005 0.75000000000000011
decision_type=2 2 2 2 2
left_child=2 -2 -1 -4 -3
right_child=1 4 3 -5 -6
leaf_value=-0.0079573934046126386 0.015939031771377555 -0.0046721003128044527 -0.0019915522916648977 -0.012340296072299582 -0.005512881673174797
leaf_weight=6.2369390744715956 8.0569249074906093 0.15134334680624206 16.48165083676577 0.57689526991452922 6.9182685501873493
leaf_count=26 36 14 34 22 78
internal_value=0 0.0592157 -0.0384508 -0.0234153 -0.0549488
internal_weight=0 15.1265 23.2955 17.0585 7.06961
internal_count=210 128 82 56 92
shrinkage=0.1


Tree=36
num_leaves=6
num_cat=0
split_feature=0 0 0 0 0
split_gain=0.13906 0.0709626 0.0392767 0.00634991 0.000299423
threshold=0.35000000000000003 0.45000000000000007 1.0000000180025095e-35 0.15000000000000005 0.75000000000000011
decision_type=2 2 2 2 2
left_child=2 -2 -1 -4 -3
right_child=1 4 3 -5 -6
leaf_value=-0.011231813616601444 0.013887176427918473 -0.0046744645701493172 -0.0017951690075345981 -0.011909714426901039 -0.00010520666114317041
leaf_weight=6.6461376119405058 8.1571591952815634 0.14680919144302507 16.495195224881176 0.64495898759923775 6.2027255231514573
leaf_count=26 36 14 34 22 78
internal_value=0 0.0771651 -0.0470612 -0.0217576 -0.00210854
internal_weight=0 14.5067 23.7863 17.1402 6.34953
internal_count=210 128 82 56 92
shrinkage=0.1


Tree=37
num_leaves=6
num_cat=0
split_feature=0 0 0 0 0
split_gain=0.727506 0.0635563 0.0979237 0.0011504 0.00018007
threshold=1.0000000180025095e-35 0.75000000000000011 0.15000000000000005 0.35000000000000003 0.45000000000000007
decision_type=2 2 2 2 2
left_child=-1 2 -2 -4 -5
right_child=1 -3 3 4 -6
leaf_value=0.035612706317478419 -0.0024562815643202783 0.0040988873857062524 -0.010529049779605946 -0.014909375968322869 -0.011131072650751002
leaf_weight=4.9934409931302062 16.594749435782433 5.9273617006838313 0.65081713406834829 10.268044533208011 0.127707361243666
leaf_count=26 34 78 22 36 14
internal_value=0 -0.052975 -0.0731244 -0.146076 -0.14863
internal_weight=0 33.5687 27.6413 11.0466 10.3958
internal_count=210 184 106 72 50
shrinkage=0.1


Tree=38
num_leaves=6
num_cat=0
split_feature=0 0 0 0 0
split_gain=0.111614 0.0799208 0.00594328 0.00356719 2.19392e-06
threshold=0.35000000000000003 0.45000000000000007 1.0000000180025095e-35 0.15000000000000005 0.75000000000000011
decision_type=2 2 2 2 2
left_child=2 -2 -1 -4 -3
right_child=1 4 3 -5 -6
leaf_value=-0.0066929916461495988 0.013608696354454233 -0.0017659377707357543 -0.0029085200404685048 -0.010632618186127053 -0.0013894969318401535
leaf_weight=6.6290195100009468 8.030474345199762 0.15878600836731394 16.996044643223289 0.6197032118216147 6.1989694340154529
leaf_count=26 36 14 34 22 78
internal_value=0 0.0697726 -0.041407 -0.0318025 -0.013989
internal_weight=0 14.3882 24.2448 17.6157 6.35776
internal_count=210 128 82 56 92
shrinkage=0.1


Tree=39
num_leaves=6
num_cat=0
split_feature=0 0 0 0 0
split_gain=0.134859 0.0365414 0.0238824 0.00351015 0.000242313
threshold=0.35000000000000003 0.45000000000000007 1.0000000180025095e-35 0.15000000000000005 0.75000000000000011
decision_type=2 2 2 2 2
left_child=2 -2 -1 -4 -3
right_child=1 4 3 -5 -6
leaf_value=-0.0095392288728148728 0.01207508269795075 -0.0021171405688901468 -0.0022945740845089603 -0.0098857612904820098 0.0019360987546927562
leaf_weight=6.8110505118966129 8.2063790699467045 0.15127145731821556 16.991314031183723 0.63177260546944936 5.9052341030910611
leaf_count=26 36 14 34 22 78
internal_value=0 0.0772674 -0.0451031 -0.0256671 0.0183486
internal_weight=0 14.2629 24.4341 17.6231 6.05651
internal_count=210 128 82 56 92
shrinkage=0.1


Tree=40
num_leaves=6
num_cat=0
split_feature=0 0 0 0 0
split_gain=1.12713 0.0841382 0.216455 0.00206802 0.00134383
threshold=1.0000000180025095e-35 0.75000000000000011 0.35000000000000003 0.15000000000000005 0.45000000000000007
decision_type=2 2 2 2 2
left_child=-1 2 3 -2 -4
right_child=1 -3 4 -5 -6
leaf_value=0.040750298683593172 -0.0020694448933821752 0.0041787939080156931 -0.020412488382353034 -0.0079926096788203987 -0.0096761648431171222
leaf_weight=5.7937245815992346 16.694906942546371 5.6220672177150837 10.729516012594104 0.61102221941109647 0.11786306963767934
leaf_count=26 34 78 36 22 14
internal_value=0 -0.0699018 -0.0922057 -0.0227857 -0.202958
internal_weight=0 33.7754 28.1533 17.3059 10.8474
internal_count=210 184 106 56 50
shrinkage=0.1


Tree=41
num_leaves=6
num_cat=0
split_feature=0 0 0 0 0
split_gain=4.15012 0.489957 0.0632384 0.0369114 0.00020863
threshold=1.0000000180025095e-35 0.15000000000000005 0.45000000000000007 0.35000000000000003 0.75000000000000011
decision_type=2 2 2 2 2
left_child=-1 -2 3 -3 -4
right_child=1 2 4 -5 -6
leaf_value=-0.044322624901796573 0.039032199931494087 -0.0071950508165848602 0.0070871565753194941 0.018742557539606148 0.0033972966533776933
leaf_weight=13.785473115742205 11.463639020919802 0.58997654670383592 0.15736003860365499 7.833948964253068 5.8454550709575415
leaf_count=26 34 22 14 36 78
internal_value=0 0.235998 0.113371 0.16926 0.0349402
internal_weight=0 25.8904 14.4267 8.42393 6.00282
internal_count=210 184 150 58 92
shrinkage=0.1


Tree=42
num_leaves=6
num_cat=0
split_feature=0 0 0 0 0
split_gain=1.36697 0.088719 0.192607 0.00943061 0.00144632
threshold=1.0000000180025095e-35 0.15000000000000005 0.75000000000000011 0.35000000000000003 0.45000000000000007
decision_type=2 2 2 2 2
left_child=-1 -2 3 -3 -5
right_child=1 2 -4 4 -6
leaf_value=0.047485517666810105 -0.0021511514746135256 -0.0083782101582650075 0.00229122223086438 -0.020918639497577704 -0.0099488028809580943
leaf_weight=5.238454168662428 16.159241773188114 0.64901347621344108 5.8290953030809751 10.550320723094044 0.12157410907093512
leaf_count=26 34 22 78 36 14
internal_value=0 -0.0746792 -0.124775 -0.200819 -0.207937
internal_weight=0 33.3092 17.15 11.3209 10.6719
internal_count=210 184 150 72 50
shrinkage=0.1


Tree=43
num_leaves=6
num_cat=0
split_feature=0 0 0 0 0
split_gain=0.0828827 0.138796 0.00168559 0.000889812 0.000304748
threshold=0.35000000000000003 0.45000000000000007 0.15000000000000005 1.0000000180025095e-35 0.75000000000000011
decision_type=2 2 2 2 2
left_child=2 -2 3 -1 -3
right_child=1 4 -4 -5 -6
leaf_value=-0.0044655595449321767 0.014848345703129668 -0.0006212505592165452 -0.0088506503856055595 -0.0030856338462215186 -0.0050245888486694125
leaf_weight=6.4572014585137429 7.9406552724540216 0.16121259832289059 0.59639684692956407 16.910757876932621 6.2714487826451659
leaf_count=26 36 14 22 34 78
internal_value=0 0.0600376 -0.0360093 -0.0346694 -0.0491423
internal_weight=0 14.3733 23.9644 23.368 6.43266
internal_count=210 128 82 60 92
shrinkage=0.1


Tree=44
num_leaves=6
num_cat=0
split_feature=0 0 0 0 0
split_gain=0.104309 0.0556598 0.00377886 0.00206575 1.47783e-06
threshold=0.35000000000000003 0.45000000000000007 1.0000000180025095e-35 0.15000000000000005 0.75000000000000011
decision_type=2 2 2 2 2
left_child=2 -2 -1 -4 -3
right_child=1 4 3 -5 -6
leaf_value=-0.0060211111932670638 0.012354971613853698 -0.00011182179176388739 -0.0029988452305250088 -0.0087718549713656207 -0.00041502437703241592
leaf_weight=6.5578191764652756 7.9734069481492025 0.16532168327830721 16.990027777850631 0.64330126449931313 5.8162486422806978
leaf_count=26 36 14 34 22 78
internal_value=0 0.0688492 -0.0397165 -0.0320946 -0.00406644
internal_weight=0 13.955 24.1911 17.6333 5.98157
internal_count=210 128 82 56 92
shrinkage=0.1


Tree=45
num_leaves=6
num_cat=0
split_feature=0 0 0 0 0
split_gain=0.11917 0.0299065 0.0141409 0.00194642 8.38742e-05
threshold=0.35000000000000003 0.45000000000000007 1.0000000180025095e-35 0.15000000000000005 0.75000000000000011
decision_type=2 2 2 2 2
left_child=2 -2 -1 -4 -3
right_child=1 4 3 -5 -6
leaf_value=-0.0081418462901293922 0.011307881273215008 -0.00036138876929756606 -0.0025336494718598088 -0.0081201340662250352 0.0019661292786699665
leaf_weight=6.6784485876560238 8.1036806721240264 0.15919468551874061 16.985987320542339 0.64745041995774855 5.6410057637840509
leaf_count=26 36 14 34 22 78
internal_value=0 0.0738419 -0.0422299 -0.0273877 0.0190225
internal_weight=0 13.9039 24.3119 17.6334 5.8002
internal_count=210 128 82 56 92
shrinkage=0.1


Tree=46
num_leaves=6
num_cat=0
split_feature=0 0 0 0 0
split_gain=0.143235 0.0469355 0.0236949 0.00173778 0.000356392
threshold=0.35000000000000003 1.0000000180025095e-35 0.45000000000000007 0.15000000000000005 0.75000000000000011
decision_type=2 2 2 2 2
left_child=1 -1 -2 -3 -4
right_child=2 3 4 -5 -6
leaf_value=-0.011463079529893783 0.011411779265343492 -0.001626947926574438 -0.0020067254345909791 -0.0069664828005878386 0.003155618944150207
leaf_weight=7.0942200794816044 8.4226705338805896 16.861607342958454 0.13707188854459573 0.63237825979012896 5.4878247259184718
leaf_count=26 36 34 14 22 78
internal_value=0 -0.0460221 0.0805549 -0.0181996 0.0302982
internal_weight=0 24.5882 14.0476 17.494 5.6249
internal_count=210 82 128 56 92
shrinkage=0.1


Tree=47
num_leaves=6
num_cat=0
split_feature=0 0 0 0 0
split_gain=0.4932 0.0707857 0.0717094 0.000871201 0.000382583
threshold=1.0000000180025095e-35 0.75000000000000011 0.35000000000000003 0.15000000000000005 0.45000000000000007
decision_type=2 2 2 2 2
left_child=-1 2 3 -2 -4
right_child=1 -3 4 -5 -6
leaf_value=0.029134006753795311 -0.002401701484557337 0.0060245194240806169 -0.013058015203578632 -0.0062517796395143571 -0.0075785993384180732
leaf_weight=5.0514658205211154 17.117657817900184 5.4753855671733609 10.281931325793266 0.60862917162012209 0.12902466114610511
leaf_count=26 34 78 36 22 14
internal_value=0 -0.043784 -0.0640276 -0.0253389 -0.129901
internal_weight=0 33.6126 28.1372 17.7263 10.411
internal_count=210 184 106 56 50
shrinkage=0.1


Tree=48
num_leaves=6
num_cat=0
split_feature=0 0 0 0 0
split_gain=0.136661 0.0259822 0.00921489 0.000609517 4.10455e-05
threshold=0.35000000000000003 0.45000000000000007 1.0000000180025095e-35 0.15000000000000005 0.75000000000000011
decision_type=2 2 2 2 2
left_child=2 -2 -1 -4 -3
right_child=1 4 3 -5 -6
leaf_value=-0.007455861841808022 0.011563085001294968 0.0011895821457315644 -0.0030946325119141065 -0.0063107860282393159 0.0028414665956806202
leaf_weight=7.1058868616819408 8.1789791304618102 0.15456485620234062 17.407042950391773 0.60991447046399017 5.6097439015284181
leaf_count=26 36 14 34 22 78
internal_value=0 0.0793916 -0.0440627 -0.0320351 0.0279717
internal_weight=0 13.9433 25.1228 18.017 5.76431
internal_count=210 128 82 56 92
shrinkage=0.1


Tree=49
num_leaves=6
num_cat=0
split_feature=0 0 0 0 0
split_gain=0.147367 0.0482132 0.0134422 0.000713573 0.000304616
threshold=0.35000000000000003 1.0000000180025095e-35 0.45000000000000007 0.15000000000000005 0.75000000000000011
decision_type=2 2 2 2 2
left_child=1 -1 -2 -3 -4
right_child=2 3 4 -5 -6
leaf_value=-0.011383526052650073 0.010636653410975395 -0.0016609379303877516 -0.00037546219348862157 -0.0052267375788619327 0.0044586146930344966
leaf_weight=7.3752059563994434 8.5926227550953609 17.326955452561382 0.13353264180477609 0.57999466604087402 5.4769674297422171
leaf_count=26 36 34 14 22 78
internal_value=0 -0.0457897 0.0815076 -0.0177643 0.0434356
internal_weight=0 25.2822 14.2031 17.907 5.6105
internal_count=210 82 128 56 92
shrinkage=0.1


Tree=50
num_leaves=6
num_cat=0
split_feature=0 0 0 0 0
split_gain=0.403591 0.0811698 0.0859254 0.000600831 0.00040787
threshold=1.0000000180025095e-35 0.75000000000000011 0.35000000000000003 0.45000000000000007 0.15000000000000005
decision_type=2 2 2 2 2
left_child=-1 2 4 -4 -2
right_child=1 -3 3 -5 -6
leaf_value=0.025627458674796766 -0.0018190732084819626 0.0071587002223590648 -0.013289867812124817 -0.0063014024903884679 -0.004622484731996084
leaf_weight=5.319642409682273 17.554532125592235 5.4964593639597288 10.570986343547702 0.12447229772806244 0.53478692204225708
leaf_count=26 34 78 36 14 22
internal_value=0 -0.0397678 -0.061031 -0.132085 -0.0190195
internal_weight=0 34.2812 28.7848 10.6955 18.0893
internal_count=210 184 106 50 56
shrinkage=0.1


Tree=51
num_leaves=6
num_cat=0
split_feature=0 0 0 0 0
split_gain=0.193121 0.0334055 0.00454504 0.00168474 5.11936e-06
threshold=0.35000000000000003 0.45000000000000007 1.0000000180025095e-35 0.25000000000000006 0.75000000000000011
decision_type=2 2 2 2 2
left_child=2 -2 -1 -4 -3
right_child=1 4 3 -5 -6
leaf_value=-0.0069816749077302653 0.013594566052288221 0.0030631725602504349 -0.0042961566377864987 0.0014282611910943455 0.0036623304156893702
leaf_weight=8.0099949091672915 8.2543410174548608 0.1463544222060581 18.127335739904087 0.52913522720336814 5.56553412694484
leaf_count=26 36 14 38 18 78
internal_value=0 0.0952622 -0.0498924 -0.041338 0.0364698
internal_weight=0 13.9662 26.6665 18.6565 5.71189
internal_count=210 128 82 56 92
shrinkage=0.1


Tree=52
num_leaves=6
num_cat=0
split_feature=0 0 0 0 0
split_gain=0.156757 0.0675046 0.00247365 0.00207897 0.000341729
threshold=0.25000000000000006 1.0000000180025095e-35 0.45000000000000007 0.35000000000000003 0.75000000000000011
decision_type=2 2 2 2 2
left_child=1 -1 3 -2 -4
right_child=2 -3 4 -5 -6
leaf_value=-0.01220752678917654 0.0025465184793299349 -0.0012604200123174421 0.0011561673480496282 0.0094448049654126485 0.0065663550390621305
leaf_weight=8.1578605771064776 0.45887588826007858 18.199630167451687 0.11935528460889956 9.1158562190830708 5.348871155641973
leaf_count=26 18 38 14 36 78
internal_value=0 -0.0464864 0.0814511 0.091142 0.0644827
internal_weight=0 26.3575 15.043 9.57473 5.46823
internal_count=210 64 146 54 92
shrinkage=0.1


Tree=53
num_leaves=6
num_cat=0
split_feature=0 0 0 0 0
split_gain=0.253344 0.126248 0.283136 0.00762871 0.00220594
threshold=1.0000000180025095e-35 0.15000000000000005 0.75000000000000011 0.35000000000000003 0.45000000000000007
decision_type=2 2 2 2 2
left_child=-1 -2 3 -3 -5
right_child=1 2 -4 4 -6
leaf_value=0.020366805950248305 0.0027597081596061977 -0.0035907237271687827 0.0098505657580377978 -0.018127129860864656 -0.0044724255868458448
leaf_weight=5.3248126730322829 18.578709416091442 0.37984354153741223 5.4688902003690592 11.678316008299587 0.11952312546782272
leaf_count=26 34 22 78 36 14
internal_value=0 -0.0299375 -0.0905111 -0.175397 -0.179888
internal_weight=0 36.2253 17.6466 12.1777 11.7978
internal_count=210 184 150 72 50
shrinkage=0.1


Tree=54
num_leaves=6
num_cat=0
split_feature=0 0 0 0 0
split_gain=0.247413 0.0491199 0.00776937 0.00528623 8.77648e-07
threshold=0.25000000000000006 0.45000000000000007 0.35000000000000003 1.0000000180025095e-35 0.75000000000000011
decision_type=2 2 2 2 2
left_child=3 2 -2 -1 -3
right_child=1 4 -4 -5 -6
leaf_value=-0.0077622210155657958 0.0027232280076284884 0.0036843816360000066 0.015847426974005013 -0.0047522921435178 0.0034270565914767204
leaf_weight=8.5307745188474673 0.47691513586323431 0.13557934539858152 8.3221094440668821 18.46389935107436 5.9179916149005294
leaf_count=26 18 14 36 38 78
internal_value=0 0.103661 0.151361 -0.0570348 0.0343282
internal_weight=0 14.8526 8.79902 26.9947 6.05357
internal_count=210 146 54 64 92
shrinkage=0.1


Tree=55
num_leaves=6
num_cat=0
split_feature=0 0 0 0 0
split_gain=0.269671 0.0976578 0.118752 0.00107322 0.000634671
threshold=1.0000000180025095e-35 0.75000000000000011 0.35000000000000003 0.45000000000000007 0.25000000000000006
decision_type=2 2 2 2 2
left_child=-1 2 4 -4 -2
right_child=1 -3 3 -5 -6
leaf_value=0.017810687972414689 -0.00096338361515091301 0.0087503347848244054 -0.013832537881467294 -0.0036686578412634106 0.0033126589416830193
leaf_weight=7.1058560833334914 18.828324679518122 5.5179017214104524 11.3855881690979 0.10484579182230014 0.35362720536067982
leaf_count=26 38 78 36 14 18
internal_value=0 -0.0349708 -0.0570036 -0.137398 -0.00884553
internal_weight=0 36.1903 30.6724 11.4904 19.182
internal_count=210 184 106 50 56
shrinkage=0.1


Tree=56
num_leaves=6
num_cat=0
split_feature=0 0 0 0 0
split_gain=2.09074 0.0141465 0.0131697 0.00733842 0.000171066
threshold=1.0000000180025095e-35 0.15000000000000005 0.35000000000000003 0.45000000000000007 0.75000000000000011
decision_type=2 2 2 2 2
left_child=-1 -2 -3 -4 -5
right_child=1 2 3 4 -6
leaf_value=-0.032337650153228564 0.018969697698737253 -0.0026100076391591728 0.016756844980921705 0.0088910276613874267 0.012422084540158565
leaf_weight=13.321009911596773 10.877178438007833 0.44854929728899046 8.4016443677246553 0.14005640253890206 6.727842072956264
leaf_count=26 34 22 36 14 78
internal_value=0 0.161972 0.142787 0.147748 0.123501
internal_weight=0 26.5953 15.7181 15.2695 6.8679
internal_count=210 184 150 128 92
shrinkage=0.1


Tree=57
num_leaves=6
num_cat=0
split_feature=0 0 0 0 0
split_gain=0.244674 0.0855777 0.0533396 0.000731322 0.000257704
threshold=1.0000000180025095e-35 0.75000000000000011 0.35000000000000003 0.25000000000000006 0.45000000000000007
decision_type=2 2 2 2 2
left_child=-1 2 3 -2 -4
right_child=1 -3 4 -5 -6
leaf_value=0.020911023102905907 -0.0021142054289328654 0.0068578892148737141 -0.011030945468338332 0.0019811690646341015 -0.0062356935048018839
leaf_weight=4.9147866554558268 17.264684925437908 7.175974807702004 10.485413443297148 0.44733297650236536 0.11328323720954436
leaf_count=26 38 78 36 18 14
internal_value=0 -0.0289611 -0.0536847 -0.0201077 -0.109797
internal_weight=0 35.4867 28.3107 17.712 10.5987
internal_count=210 184 106 56 50
shrinkage=0.1


Tree=58
num_leaves=6
num_cat=0
split_feature=0 0 0 0 0
split_gain=0.184491 0.0890414 0.05062 0.00579579 4.25958e-07
threshold=0.25000000000000006 0.45000000000000007 1.0000000180025095e-35 0.35000000000000003 0.75000000000000011
decision_type=2 2 2 2 2
left_child=2 3 -1 -2 -3
right_child=1 4 -4 -5 -6
leaf_value=-0.012491118068667619 0.0034030102318042795 0.00050308553237399581 -0.00256270074391247 0.015494999199183651 0.00030919444025607286
leaf_weight=7.3039238750934627 0.41577472735662085 0.11499619134701689 17.295140087371692 8.4995754938572645 7.7065035095438361
leaf_count=26 18 14 38 36 78
internal_value=0 0.0809928 -0.0551063 0.149311 0.00312045
internal_weight=0 16.7368 24.5991 8.91535 7.8215
internal_count=210 146 64 54 92
shrinkage=0.1


Tree=59
num_leaves=6
num_cat=0
split_feature=0 0 0 0 0
split_gain=0.237854 0.110207 0.0895859 0.000622083 0.000580683
threshold=1.0000000180025095e-35 0.75000000000000011 0.35000000000000003 0.45000000000000007 0.25000000000000006
decision_type=2 2 2 2 2
left_child=-1 2 4 -4 -2
right_child=1 -3 3 -5 -6
leaf_value=0.020113634362763116 -0.0013599727801275104 0.0082089388117849698 -0.012790890617671476 -0.0051700873419834453 0.0025335127868636345
leaf_weight=5.1500818356871596 17.767063837032769 7.2237797314301124 10.8793272562325 0.10817922011483538 0.39149653888307406
leaf_count=26 38 78 36 14 18
internal_value=0 -0.0284815 -0.0558863 -0.127159 -0.0127603
internal_weight=0 36.3698 29.1461 10.9875 18.1586
internal_count=210 184 106 50 56
shrinkage=0.1


Tree=60
num_leaves=6
num_cat=0
split_feature=0 0 0 0 0
split_gain=0.237136 0.147983 0.0154841 0.00664228 9.89728e-05
threshold=0.25000000000000006 0.45000000000000007 1.0000000180025095e-35 0.35000000000000003 0.75000000000000011
decision_type=2 2 2 2 2
left_child=2 3 -1 -2 -3
right_child=1 4 -4 -5 -6
leaf_value=-0.0096234135459022617 0.0050194590296714948 0.0024740203928236581 -0.0043528047436013394 0.018749380843060433 -0.00056006024586030924
leaf_weight=8.0670648366212863 0.36767849884927167 0.1089722141623487 18.035937233828008 8.4547618851065636 8.0296460809186101
leaf_count=26 18 14 38 36 78
internal_value=0 0.0920577 -0.0598167 0.181772 -0.00519435
internal_weight=0 16.9611 26.103 8.82244 8.13862
internal_count=210 146 64 54 92
shrinkage=0.1


Tree=61
num_leaves=6
num_cat=0
split_feature=0 0 0 0 0
split_gain=13.7405 4.36722 0.0907312 0.00364362 0.00172875
threshold=0.15000000000000005 0.45000000000000007 0.35000000000000003 1.0000000180025095e-35 0.75000000000000011
decision_type=2 2 2 2 2
left_child=3 2 -2 -1 -3
right_child=1 4 -4 -5 -6
leaf_value=0.068788012623648559 -0.020165563560231494 0.004189969317011065 -0.073860958549154865 0.071889966102498301 0.017313632950971318
leaf_weight=5.8318942040205011 0.32040597597370529 0.10171873512444918 17.639152526855469 10.797944203019142 7.5923636751249433
leaf_count=26 22 14 36 34 78
internal_value=0 -0.458971 -0.72903 0.708021 0.171401
internal_weight=0 25.6536 17.9596 16.6298 7.69408
internal_count=210 150 58 60 92
shrinkage=0.1


Tree=62
num_leaves=6
num_cat=0
split_feature=0 0 0 0 0
split_gain=0.248685 0.257633 0.0138251 0.00583008 7.3133e-05
threshold=0.25000000000000006 0.45000000000000007 1.0000000180025095e-35 0.35000000000000003 0.75000000000000011
decision_type=2 2 2 2 2
left_child=2 3 -1 -2 -3
right_child=1 4 -4 -5 -6
leaf_value=-0.0022300581038484884 0.019381937937511983 0.0015201767733552796 -0.0074237688116208199 0.029074370460811929 -0.00054711946965446017
leaf_weight=7.2287528440356281 0.71474454982671698 0.17499828583095212 17.612545238225721 4.7113824151456356 7.7270606458187103
leaf_count=26 18 14 38 36 78
internal_value=0 0.110197 -0.0591241 0.277977 -0.00501337
internal_weight=0 13.3282 24.8413 5.42613 7.90206
internal_count=210 146 64 54 92
shrinkage=0.1


Tree=63
num_leaves=6
num_cat=0
split_feature=0 0 0 0 0
split_gain=0.224284 0.428978 0.0157091 0.0078144 0.000557907
threshold=0.25000000000000006 0.45000000000000007 1.0000000180025095e-35 0.35000000000000003 0.75000000000000011
decision_type=2 2 2 2 2
left_child=2 3 -1 -2 -3
right_child=1 4 -4 -5 -6
leaf_value=-0.0017831060678360627 0.020415529739656359 0.0013986864492940962 -0.0071899935132786535 0.032374022664981857 -0.0046606633896948265
leaf_weight=7.6855647712945965 0.61131272802594949 0.15489659330341776 17.861924320808612 5.1492602974176407 7.9962587580084801
leaf_count=26 18 14 38 36 78
internal_value=0 0.102167 -0.0556342 0.31105 -0.0454552
internal_weight=0 13.9117 25.5475 5.76057 8.15116
internal_count=210 146 64 54 92
shrinkage=0.1


Tree=64
num_leaves=6
num_cat=0
split_feature=0 0 0 0 0
split_gain=5.05103 1.19858 0.23426 0.0224253 0.00372072
threshold=1.0000000180025095e-35 0.45000000000000007 0.15000000000000005 0.35000000000000003 0.75000000000000011
decision_type=2 2 2 2 2
left_child=-1 2 -2 -4 -3
right_child=1 4 3 -5 -6
leaf_value=-0.049577209377770874 0.046528941199979329 0.0087592554524112878 0.001072479133248485 0.025782899920305986 -0.0092766026151272808
leaf_weight=13.75258621573448 11.680169984698299 0.11612888984382053 0.38483404298312862 8.0442754086107016 7.5982262333855033
leaf_count=26 34 14 22 36 78
internal_value=0 0.245049 0.3736 0.246547 -0.090051
internal_weight=0 27.8236 20.1093 8.42911 7.71436
internal_count=210 184 92 58 92
shrinkage=0.1


Tree=65
num_leaves=6
num_cat=0
split_feature=0 0 0 0 0
split_gain=0.862663 0.0492097 0.115832 0.00103456 0.000371157
threshold=1.0000000180025095e-35 0.75000000000000011 0.35000000000000003 0.45000000000000007 0.25000000000000006
decision_type=2 2 2 2 2
left_child=-1 2 4 -4 -2
right_child=1 -3 3 -5 -6
leaf_value=0.03947685535991681 -0.0025035972692722735 0.0022267047308064578 -0.015966888567984321 -0.0065467667607390402 8.3363091005145566e-05
leaf_weight=4.836529752239584 16.173818078241315 6.3400231618434182 10.260702505707741 0.1179248262196787 0.57429042912553896
leaf_count=26 38 78 36 14 18
internal_value=0 -0.0570509 -0.075589 -0.158599 -0.0241489
internal_weight=0 33.4668 27.1267 10.3786 16.7481
internal_count=210 184 106 50 56
shrinkage=0.1


Tree=66
num_leaves=6
num_cat=0
split_feature=0 0 0 0 0
split_gain=0.0752006 0.172944 0.0112073 0.00070419 0.000335015
threshold=0.35000000000000003 0.45000000000000007 1.0000000180025095e-35 0.75000000000000011 0.15000000000000005
decision_type=2 2 2 2 2
left_child=2 -2 -1 -3 -4
right_child=1 3 4 -5 -6
leaf_value=-0.0072179242557389132 0.015533104259831905 0.0007757564671171625 -0.0021610386652649387 -0.0062045027810313192 -0.0046986212788461624
leaf_weight=6.1634056493639973 8.0137279490008932 0.14768224814906616 16.48260967433453 6.7631447510793805 0.53722185245714971
leaf_count=26 36 14 34 78 22
internal_value=0 0.0553656 -0.0356425 -0.0605534 -0.0224114
internal_weight=0 14.9246 23.1832 6.91083 17.0198
internal_count=210 128 82 92 56
shrinkage=0.1


Tree=67
num_leaves=6
num_cat=0
split_feature=0 0 0 0 0
split_gain=0.115047 0.0686641 0.0276804 0.000500029 4.63058e-05
threshold=0.35000000000000003 0.45000000000000007 1.0000000180025095e-35 0.15000000000000005 0.75000000000000011
decision_type=2 2 2 2 2
left_child=2 -2 -1 -4 -3
right_child=1 4 3 -5 -6
leaf_value=-0.0098772811693961307 0.013180441804812985 0.00095730161369636979 -0.0020867074626688682 -0.0050095198292981133 -0.00083070097949148811
leaf_weight=6.4467656910419491 8.0523268450051528 0.14836506405845185 16.528350107371811 0.60680838115513225 6.1022133622318506
leaf_count=26 36 14 34 22 78
internal_value=0 0.0707591 -0.0429168 -0.0219021 -0.00788261
internal_weight=0 14.3029 23.5819 17.1352 6.25058
internal_count=210 128 82 56 92
shrinkage=0.1


Tree=68
num_leaves=6
num_cat=0
split_feature=0 0 0 0 0
split_gain=0.143152 0.0556731 0.0551507 0.00031288 7.91424e-05
threshold=0.35000000000000003 0.45000000000000007 1.0000000180025095e-35 0.15000000000000005 0.75000000000000011
decision_type=2 2 2 2 2
left_child=2 -2 -1 -4 -3
right_child=1 4 3 -5 -6
leaf_value=-0.011828917824336226 0.013008317407213286 -0.0023045323241000517 -0.0014230546466218064 -0.0037202344190163453 0.00038027456894133539
leaf_weight=7.4724644757807281 8.6002287901937944 0.11195754772052068 16.231003716588024 0.61538809700868924 5.684577614068985
leaf_count=26 36 14 34 22 78
internal_value=0 0.0790304 -0.046786 -0.0150697 0.00328419
internal_weight=0 14.3968 24.3189 16.8464 5.79654
internal_count=210 128 82 56 92
shrinkage=0.1


Tree=69
num_leaves=6
num_cat=0
split_feature=0 0 0 0 0
split_gain=0.386651 0.0573473 0.0398742 0.00053758 0.000402975
threshold=1.0000000180025095e-35 0.75000000000000011 0.35000000000000003 0.25000000000000006 0.45000000000000007
decision_type=2 2 2 2 2
left_child=-1 2 3 -2 -4
right_child=1 -3 4 -5 -6
leaf_value=0.02710254384678934 -0.0028604588973944246 0.0053193628872414385 -0.010714463343449724 0.00019861070912062081 -0.0050628885441196059
leaf_weight=4.6229591500014058 16.867731629870836 5.7592292511835685 10.000598924234509 0.59472003486007352 0.12777714990079481
leaf_count=26 38 78 36 18 14
internal_value=0 -0.0375693 -0.0565149 -0.0275628 -0.106432
internal_weight=0 33.3501 27.5908 17.4625 10.1284
internal_count=210 184 106 56 50
shrinkage=0.1


Tree=70
num_leaves=6
num_cat=0
split_feature=0 0 0 0 0
split_gain=0.135166 0.0419062 0.0405678 0.000337031 6.87311e-07
threshold=0.35000000000000003 0.45000000000000007 1.0000000180025095e-35 0.25000000000000006 0.75000000000000011
decision_type=2 2 2 2 2
left_child=2 -2 -1 -4 -3
right_child=1 4 3 -5 -6
leaf_value=-0.011114661377222638 0.012357952237812338 0.0011549204982887402 -0.0020766748367019943 0.0003735747859079418 0.0013800239934965534
leaf_weight=6.7921044435352114 8.2318664314225298 0.138847820693626 16.717812412767675 0.58087587682530173 5.8716443143785
leaf_count=26 36 14 38 18 78
internal_value=0 0.077229 -0.0456574 -0.019944 0.0137482
internal_weight=0 14.2424 24.0908 17.2987 6.01049
internal_count=210 128 82 56 92
shrinkage=0.1


Tree=71
num_leaves=6
num_cat=0
split_feature=0 0 0 0 0
split_gain=0.672495 0.065997 0.0975898 0.00123708 0.000715597
threshold=1.0000000180025095e-35 0.75000000000000011 0.35000000000000003 0.45000000000000007 0.25000000000000006
decision_type=2 2 2 2 2
left_child=-1 2 4 -4 -2
right_child=1 -3 3 -5 -6
leaf_value=0.033834751163863891 -0.0026903445865927838 0.0046435619335341268 -0.014927124591844882 -0.0047469196657851861 0.0008986514079587617
leaf_weight=5.0989848636090747 16.821628609905023 5.7138064019381991 10.299527294933796 0.12076721538323988 0.57452360424213011
leaf_count=26 38 78 36 14 18
internal_value=0 -0.0514529 -0.0715603 -0.148091 -0.0257181
internal_weight=0 33.5303 27.8164 10.4203 17.3962
internal_count=210 184 106 50 56
shrinkage=0.1


Tree=72
num_leaves=6
num_cat=0
split_feature=0 0 0 0 0
split_gain=0.121296 0.0537348 0.00432722 0.00100931 0.000162664
threshold=0.35000000000000003 0.45000000000000007 1.0000000180025095e-35 0.25000000000000006 0.75000000000000011
decision_type=2 2 2 2 2
left_child=2 -2 -1 -4 -3
right_child=1 4 3 -5 -6
leaf_value=-0.0063360315881772454 0.012755495689129365 0.0035175693881538497 -0.0035268638533844498 0.00078463192341633303 0.00021006163869086814
leaf_weight=6.9271632060408619 8.0489458525553328 0.1525260767666613 17.294843582669277 0.56056205800268699 5.9158559655770659
leaf_count=26 36 14 38 18 78
internal_value=0 0.0739853 -0.0421455 -0.0339151 0.00293194
internal_weight=0 14.1173 24.7826 17.8554 6.06838
internal_count=210 128 82 56 92
shrinkage=0.1


Tree=73
num_leaves=6
num_cat=0
split_feature=0 0 0 0 0
split_gain=0.137478 0.0239038 0.0219085 0.000785535 4.2547e-08
threshold=0.35000000000000003 0.45000000000000007 1.0000000180025095e-35 0.25000000000000006 0.75000000000000011
decision_type=2 2 2 2 2
left_child=2 -2 -1 -4 -3
right_child=1 4 3 -5 -6
leaf_value=-0.0091854271824219503 0.011333186475330687 0.00293495496735431 -0.0027242683861669588 0.0010913730227313893 0.0029900986320263246
leaf_weight=7.0606140866875675 8.2808635681867582 0.1434273486956944 17.299252098542642 0.55691839370410789 5.7206340739503503
leaf_count=26 36 14 38 18 78
internal_value=0 0.0787383 -0.0446987 -0.0260526 0.0298875
internal_weight=0 14.1449 24.9168 17.8562 5.86406
internal_count=210 128 82 56 92
shrinkage=0.1


Tree=74
num_leaves=6
num_cat=0
split_feature=0 0 0 0 0
split_gain=0.972228 0.0860667 0.205937 0.00267261 0.00100945
threshold=1.0000000180025095e-35 0.75000000000000011 0.35000000000000003 0.45000000000000007 0.25000000000000006
decision_type=2 2 2 2 2
left_child=-1 2 4 -4 -2
right_child=1 -3 3 -5 -6
leaf_value=0.036926590696996338 -0.0022197390734271555 0.0048773814661439872 -0.019744688220426326 -0.0040915502906379011 0.0022215546863917752
leaf_weight=6.050897389650344 17.003634983208034 5.490259237587451 10.797575727105141 0.11018989188596684 0.52763780928216775
leaf_count=26 38 78 36 14 18
internal_value=0 -0.0658543 -0.0879837 -0.195866 -0.0208607
internal_weight=0 33.9293 28.439 10.9078 17.5313
internal_count=210 184 106 50 56
shrinkage=0.1


Tree=75
num_leaves=6
num_cat=0
split_feature=0 0 0 0 0
split_gain=2.85593 0.207616 0.0271352 0.0182655 0.000194042
threshold=1.0000000180025095e-35 0.15000000000000005 0.45000000000000007 0.35000000000000003 0.75000000000000011
decision_type=2 2 2 2 2
left_child=-1 -2 3 -3 -4
right_child=1 2 4 -5 -6
leaf_value=-0.037188776939595318 0.030143532047770358 -0.0020506223247038274 0.010283668643865774 0.016768626096996898 0.0066931720150774365
leaf_weight=13.495527997612951 10.909866478294136 0.55159441777504792 0.15445309120695938 7.9329247530549765 5.9073326522484422
leaf_count=26 34 22 14 36 78
internal_value=0 0.197155 0.118944 0.155452 0.0678466
internal_weight=0 25.4562 14.5463 8.48452 6.06179
internal_count=210 184 150 58 92
shrinkage=0.1


Tree=76
num_leaves=6
num_cat=0
split_feature=0 0 0 0 0
split_gain=0.15206 0.0639898 0.0566865 0.000479521 3.02384e-05
threshold=0.35000000000000003 1.0000000180025095e-35 0.45000000000000007 0.25000000000000006 0.75000000000000011
decision_type=2 2 2 2 2
left_child=1 -1 -2 -3 -4
right_child=2 3 4 -5 -6
leaf_value=-0.012623370126864633 0.01331586683057228 -0.001556674283888183 -0.00098247878973466997 0.0013962835349861655 0.00066066028726769323
leaf_weight=7.3601065184921053 8.5506295766681415 16.389509464497682 0.11417479219380666 0.56900357420090486 5.8747017197310925
leaf_count=26 36 38 14 18 78
internal_value=0 -0.0483695 0.0809024 -0.0145759 0.00629335
internal_weight=0 24.3186 14.5395 16.9585 5.98888
internal_count=210 82 128 56 92
shrinkage=0.1


Tree=77
num_leaves=6
num_cat=0
split_feature=0 0 0 0 0
split_gain=0.358418 0.0600675 0.0406674 0.000724348 0.000490138
threshold=1.0000000180025095e-35 0.75000000000000011 0.35000000000000003 0.25000000000000006 0.45000000000000007
decision_type=2 2 2 2 2
left_child=-1 2 3 -2 -4
right_child=1 -3 4 -5 -6
leaf_value=0.025968632802251375 -0.0027532318828327297 0.0055458876845658686 -0.010657921081107536 0.00087352081837874197 -0.0043536360193699259
leaf_weight=4.6669196560978881 16.943056186311882 5.9112236499786368 10.065934227779508 0.56919539859518309 0.12485350924544114
leaf_count=26 38 78 36 18 14
internal_value=0 -0.0360542 -0.0555811 -0.0263535 -0.105807
internal_weight=0 33.6143 27.703 17.5123 10.1908
internal_count=210 184 106 56 50
shrinkage=0.1


Tree=78
num_leaves=6
num_cat=0
split_feature=0 0 0 0 0
split_gain=0.14083 0.0449258 0.0432883 0.000558118 9.60856e-07
threshold=0.35000000000000003 1.0000000180025095e-35 0.45000000000000007 0.25000000000000006 0.75000000000000011
decision_type=2 2 2 2 2
left_child=1 -1 -2 -3 -4
right_child=2 3 4 -5 -6
leaf_value=-0.011491158465636548 0.012528776225504549 -0.0020499659632748106 0.0017327954156343976 0.0011724596672962298 0.0014621978959029154
leaf_weight=6.887922756373885 8.2931463420391065 16.812060665572066 0.13413876062258978 0.55522818397730489 6.0374352056533098
leaf_count=26 36 38 14 18 78
internal_value=0 -0.0465728 0.0780958 -0.0194695 0.0146808
internal_weight=0 24.2552 14.4647 17.3673 6.17157
internal_count=210 82 128 56 92
shrinkage=0.1


Tree=79
num_leaves=6
num_cat=0
split_feature=0 0 0 0 0
split_gain=0.555578 0.0676108 0.0813105 0.00111616 0.000932244
threshold=1.0000000180025095e-35 0.75000000000000011 0.35000000000000003 0.45000000000000007 0.25000000000000006
decision_type=2 2 2 2 2
left_child=-1 2 4 -4 -2
right_child=1 -3 3 -5 -6
leaf_value=0.03075352513223345 -0.0026578666143975273 0.0050976432906804994 -0.013788308019414181 -0.0040297087319914847 0.0015392101012000545
leaf_weight=5.104376718401908 16.967286628205333 5.8907682402059427 10.318373708054423 0.11855342693161296 0.54625762207433481
leaf_count=26 38 78 36 14 18
internal_value=0 -0.0463865 -0.0669064 -0.136775 -0.0252696
internal_weight=0 33.8412 27.9505 10.4369 17.5135
internal_count=210 184 106 50 56
shrinkage=0.1


Tree=80
num_leaves=6
num_cat=0
split_feature=0 0 0 0 0
split_gain=0.136566 0.0524608 0.00675192 0.00561596 0.000180141
threshold=0.25000000000000006 0.45000000000000007 0.35000000000000003 1.0000000180025095e-35 0.75000000000000011
decision_type=2 2 2 2 2
left_child=3 2 -2 -1 -3
right_child=1 4 -4 -5 -6
leaf_value=-0.0069465474296167909 0.0016930985377336515 0.0040378558277665384 0.013315814506927618 -0.0036141481958941075 0.00047865645620849421
leaf_weight=7.1252165809273746 0.53261964477132728 0.14560820872429658 8.1158504169434309 17.424222918809392 6.0806255144998431
leaf_count=26 18 14 36 38 78
internal_value=0 0.0756112 0.126 -0.0458134 0.00561893
internal_weight=0 14.8747 8.64847 24.5494 6.22623
internal_count=210 146 54 64 92
shrinkage=0.1


Tree=81
num_leaves=6
num_cat=0
split_feature=0 0 0 0 0
split_gain=0.1542 0.0356324 0.0187227 0.00430177 4.4374e-06
threshold=0.25000000000000006 1.0000000180025095e-35 0.45000000000000007 0.35000000000000003 0.75000000000000011
decision_type=2 2 2 2 2
left_child=1 -1 3 -2 -4
right_child=2 -3 4 -5 -6
leaf_value=-0.010709892391746176 0.0020833311329868931 -0.0023901385446400535 0.0030983499962928076 0.011437542657876335 0.0036842157975638095
leaf_weight=7.3070793785154846 0.52191264915745428 17.420704988529906 0.13220789912156661 8.471194576472044 5.838241552002728
leaf_count=26 18 38 14 36 78
internal_value=0 -0.0484863 0.0801253 0.108947 0.0367124
internal_weight=0 24.7278 14.9636 8.99311 5.97045
internal_count=210 64 146 54 92
shrinkage=0.1


Tree=82
num_leaves=6
num_cat=0
split_feature=0 0 0 0 0
split_gain=0.447802 0.0833918 0.0926761 0.00133011 0.0010115
threshold=1.0000000180025095e-35 0.75000000000000011 0.35000000000000003 0.45000000000000007 0.25000000000000006
decision_type=2 2 2 2 2
left_child=-1 2 4 -4 -2
right_child=1 -3 3 -5 -6
leaf_value=0.02638829691096254 -0.0021740605139091824 0.0067418082831623739 -0.013896594877429539 -0.0030656791928621459 0.002474629519157685
leaf_weight=5.5416936650872222 17.542161512887109 5.7669672807678571 10.636892199516296 0.11460706929210653 0.48089669493492593
leaf_count=26 38 78 36 14 18
internal_value=0 -0.0423362 -0.0643331 -0.137811 -0.0205002
internal_weight=0 34.5415 28.7746 10.7515 18.0231
internal_count=210 184 106 50 56
shrinkage=0.1


Tree=83
num_leaves=6
num_cat=0
split_feature=0 0 0 0 0
split_gain=4.65478 0.373024 0.0363708 0.0186017 0.00010497
threshold=1.0000000180025095e-35 0.15000000000000005 0.45000000000000007 0.35000000000000003 0.75000000000000011
decision_type=2 2 2 2 2
left_child=-1 -2 3 -3 -4
right_child=1 2 4 -5 -6
leaf_value=-0.046403973527325552 0.037853863797239422 -0.00036619741250705197 0.010749153025386447 0.019359243150617055 0.0079746155040690322
leaf_weight=14.103052742779253 11.904323965311052 0.50831639149691632 0.13959560415241767 8.03698037751019 5.8822632348164916
leaf_count=26 34 22 14 36 78
internal_value=0 0.247224 0.139913 0.181859 0.0803893
internal_weight=0 26.4715 14.5672 8.5453 6.02186
internal_count=210 184 150 58 92
shrinkage=0.1


Tree=84
num_leaves=6
num_cat=0
split_feature=0 0 0 0 0
split_gain=0.21931 0.0538091 0.0206201 0.000834111 0.000219633
threshold=1.0000000180025095e-35 0.75000000000000011 0.35000000000000003 0.25000000000000006 0.45000000000000007
decision_type=2 2 2 2 2
left_child=-1 2 3 -2 -4
right_child=1 -3 4 -5 -6
leaf_value=0.020733690598559687 -0.002737746975530482 0.0054229367157488549 -0.0083618628879354225 0.0012031664646021691 -0.0041056536233399256
leaf_weight=4.5018455665558568 16.703660889063034 6.4893539650365701 9.9217783473432064 0.5549111490836357 0.12274149653967548
leaf_count=26 38 78 36 18 14
internal_value=0 -0.0276215 -0.0470757 -0.0261104 -0.0830985
internal_weight=0 33.7924 27.3031 17.2586 10.0445
internal_count=210 184 106 56 50
shrinkage=0.1


Tree=85
num_leaves=6
num_cat=0
split_feature=0 0 0 0 0
split_gain=0.872729 0.0595577 0.137135 0.0017122 0.00106175
threshold=1.0000000180025095e-35 0.75000000000000011 0.35000000000000003 0.45000000000000007 0.25000000000000006
decision_type=2 2 2 2 2
left_child=-1 2 4 -4 -2
right_child=1 -3 3 -5 -6
leaf_value=0.038308261663443768 -0.0024213419357051978 0.0028119767868590934 -0.016929988480594359 -0.0044060292125212919 0.0021248743909525469
leaf_weight=5.1624627001583567 16.416972504113804 6.46905275247991 10.445693489164114 0.1103146997047596 0.53030913090333243
leaf_count=26 38 78 36 14 18
internal_value=0 -0.0582135 -0.07852 -0.167991 -0.0227908
internal_weight=0 33.9723 27.5033 10.556 16.9473
internal_count=210 184 106 50 56
shrinkage=0.1


Tree=86
num_leaves=6
num_cat=0
split_feature=0 0 0 0 0
split_gain=0.0933639 0.181516 0.00882955 0.00193486 0.00121785
threshold=0.25000000000000006 0.45000000000000007 0.35000000000000003 1.0000000180025095e-35 0.75000000000000011
decision_type=2 2 2 2 2
left_child=3 2 -2 -1 -3
right_child=1 4 -4 -5 -6
leaf_value=-0.0053533658088806852 0.0025185236008324571 0.0034535653279645904 0.016606696920405728 -0.0033588730986010141 -0.0060390384304051586
leaf_weight=6.7955896593630341 0.47083811729680469 0.13784765545278688 8.0648067127913237 17.111067329999059 6.9114469075575471
leaf_count=26 18 14 36 38 78
internal_value=0 0.0602204 0.158296 -0.0392582 -0.0585341
internal_weight=0 15.5849 8.53564 23.9067 7.04929
internal_count=210 146 54 64 92
shrinkage=0.1


Tree=87
num_leaves=6
num_cat=0
split_feature=0 0 0 0 0
split_gain=0.132879 0.0465042 0.0126871 0.00614829 0.000128789
threshold=0.25000000000000006 0.45000000000000007 1.0000000180025095e-35 0.35000000000000003 0.75000000000000011
decision_type=2 2 2 2 2
left_child=2 3 -1 -2 -3
right_child=1 4 -4 -5 -6
leaf_value=-0.0081824346393637327 0.0017242782059051966 0.003817917146474753 -0.0031255889368204865 0.012817326022731286 0.00078115405735402761
leaf_weight=6.9641109220683601 0.53220464673358669 0.14290277753025191 17.252451857551932 8.1642231848090887 6.1456636926159263
leaf_count=26 18 14 38 36 78
internal_value=0 0.0740124 -0.0457982 0.121385 0.00850162
internal_weight=0 14.985 24.2166 8.69643 6.28857
internal_count=210 146 64 54 92
shrinkage=0.1


Tree=88
num_leaves=6
num_cat=0
split_feature=0 0 0 0 0
split_gain=0.15789 0.0601513 0.0216699 0.00424447 1.81888e-05
threshold=0.25000000000000006 1.0000000180025095e-35 0.45000000000000007 0.35000000000000003 0.75000000000000011
decision_type=2 2 2 2 2
left_child=1 -1 3 -2 -4
right_child=2 -3 4 -5 -6
leaf_value=-0.012529676412351845 0.0023395714194884803 -0.0017168635693521781 0.0021579191671333583 0.011634302803040657 0.0033924190599881349
leaf_weight=7.3477681428194073 0.52105998934711983 17.159809349686839 0.12182193889748204 8.6032516025006771 5.8812126265838742
leaf_count=26 18 38 14 36 78
internal_value=0 -0.0495872 0.0803355 0.111035 0.0336737
internal_weight=0 24.5076 15.1273 9.12431 6.00303
internal_count=210 64 146 54 92
shrinkage=0.1


Tree=89
num_leaves=6
num_cat=0
split_feature=0 0 0 0 0
split_gain=0.33872 0.0807149 0.0723804 0.00105937 0.000833073
threshold=1.0000000180025095e-35 0.75000000000000011 0.35000000000000003 0.45000000000000007 0.25000000000000006
decision_type=2 2 2 2 2
left_child=-1 2 4 -4 -2
right_child=1 -3 3 -5 -6
leaf_value=0.024127202475656945 -0.0019894750305857545 0.0070923194052228793 -0.012389808422578712 -0.0028652742190425811 0.0022058824173431229
leaf_weight=5.0732953064143649 17.499435584992174 5.9119622288271776 10.512989385053515 0.11808905471116382 0.4864669346716245
leaf_count=26 38 78 36 14 18
internal_value=0 -0.0354498 -0.0574253 -0.12284 -0.01876
internal_weight=0 34.5289 28.617 10.6311 17.9859
internal_count=210 184 106 50 56
shrinkage=0.1


Tree=90
num_leaves=6
num_cat=0
split_feature=0 0 0 0 0
split_gain=0.175275 0.0316947 0.0172745 0.00477789 2.75023e-05
threshold=0.25000000000000006 0.45000000000000007 1.0000000180025095e-35 0.35000000000000003 0.75000000000000011
decision_type=2 2 2 2 2
left_child=2 3 -1 -2 -3
right_child=1 4 -4 -5 -6
leaf_value=-0.0090966630476579831 0.0028120365771996986 0.0044811095950667368 -0.0033850591309803218 0.01293238925535101 0.0030284669912898788
leaf_weight=7.5500408113002804 0.49402145820203885 0.13318089535459776 17.731200888054445 8.3714411519467831 6.093073989264667
leaf_count=26 18 14 38 36 78
internal_value=0 0.0852795 -0.0509078 0.123684 0.0305954
internal_weight=0 15.0917 25.2812 8.86546 6.22625
internal_count=210 146 64 54 92
shrinkage=0.1


Tree=91
num_leaves=6
num_cat=0
split_feature=0 0 0 0 0
split_gain=0.509788 0.0908239 0.115974 0.00175432 0.00142316
threshold=1.0000000180025095e-35 0.75000000000000011 0.35000000000000003 0.45000000000000007 0.25000000000000006
decision_type=2 2 2 2 2
left_child=-1 2 4 -4 -2
right_child=1 -3 3 -5 -6
leaf_value=0.026423644421755068 -0.0022028887019583344 0.0066758919412867245 -0.015209175713601759 -0.0022721220426077842 0.0035425863572806637
leaf_weight=6.2020181119441977 17.713091988582168 5.8596439370885482 10.868651196360588 0.10583908436819987 0.44187733682338048
leaf_count=26 38 78 36 14 18
internal_value=0 -0.0468374 -0.0696883 -0.150844 -0.0206305
internal_weight=0 34.9891 29.1295 10.9745 18.155
internal_count=210 184 106 50 56
shrinkage=0.1


Tree=92
num_leaves=6
num_cat=0
split_feature=0 0 0 0 0
split_gain=2.44513 0.0743509 0.0192972 0.0136754 3.70053e-05
threshold=1.0000000180025095e-35 0.15000000000000005 0.45000000000000007 0.35000000000000003 0.75000000000000011
decision_type=2 2 2 2 2
left_child=-1 -2 3 -3 -4
right_child=1 2 4 -5 -6
leaf_value=-0.034740811940653371 0.024142710785826912 -7.5571677815217025e-05 0.010896727909564183 0.017399636283340143 0.009256858261348748
leaf_weight=13.397504433989523 10.815824184566738 0.47379878140054366 0.14055497851222654 8.1644257828593254 6.5641080653294921
leaf_count=26 34 22 14 36 78
internal_value=0 0.177929 0.133167 0.164411 0.0929124
internal_weight=0 26.1587 15.3429 8.63822 6.70466
internal_count=210 184 150 58 92
shrinkage=0.1


Tree=93
num_leaves=6
num_cat=0
split_feature=0 0 0 0 0
split_gain=0.42025 0.0651496 0.0598469 0.00126924 0.000791317
threshold=1.0000000180025095e-35 0.75000000000000011 0.35000000000000003 0.25000000000000006 0.45000000000000007
decision_type=2 2 2 2 2
left_child=-1 2 3 -2 -4
right_child=1 -3 4 -5 -6
leaf_value=0.027141158744988111 -0.0026090168372570428 0.0049031185478064197 -0.012137074571079808 0.002527412661947261 -0.0036699612894697505
leaf_weight=4.9854896217584601 16.889135195058774 6.7409995431080452 10.310711681842804 0.49518947314936568 0.11157162603922266
leaf_count=26 38 78 36 18 14
internal_value=0 -0.0391668 -0.0605481 -0.0246271 -0.120464
internal_weight=0 34.5476 27.8066 17.3843 10.4223
internal_count=210 184 106 56 50
shrinkage=0.1


Tree=94
num_leaves=6
num_cat=0
split_feature=0 0 0 0 0
split_gain=0.139139 0.106371 0.0170807 0.00642303 0.000360223
threshold=0.25000000000000006 0.45000000000000007 1.0000000180025095e-35 0.35000000000000003 0.75000000000000011
decision_type=2 2 2 2 2
left_child=2 3 -1 -2 -3
right_child=1 4 -4 -5 -6
leaf_value=-0.0089203194623752192 0.0031937295129753902 0.0035327356872503282 -0.0030707357879333442 0.015360335550073415 -0.00180973957416815
leaf_weight=7.0298842117190388 0.45805147092323473 0.12850026856176455 17.217658679757733 8.2332852128893137 7.0745875192806125
leaf_count=26 18 14 38 36 78
internal_value=0 0.0727171 -0.0476666 0.147191 -0.0171443
internal_weight=0 15.8944 24.2475 8.69134 7.20309
internal_count=210 146 64 54 92
shrinkage=0.1


Tree=95
num_leaves=6
num_cat=0
split_feature=0 0 0 0 0
split_gain=0.203569 0.074724 0.0322969 0.00103246 4.01869e-05
threshold=1.0000000180025095e-35 0.35000000000000003 0.45000000000000007 0.25000000000000006 0.75000000000000011
decision_type=2 2 2 2 2
left_child=-1 3 -3 -2 -4
right_child=1 2 4 -5 -6
leaf_value=-0.014651246048440099 -0.0011628136138656195 0.012414133773036812 0.0011825907110911507 0.0035969111410373215 0.0031689022433768138
leaf_weight=7.6902804635465136 17.122860096918888 8.9052276909351331 0.10350855404976655 0.46819262206554313 6.3825786905363202
leaf_count=26 38 36 14 18 78
internal_value=0 0.0341613 0.0850472 -0.0103613 0.031372
internal_weight=0 32.9824 15.3913 17.5911 6.48609
internal_count=210 184 128 56 92
shrinkage=0.1


Tree=96
num_leaves=6
num_cat=0
split_feature=0 0 0 0 0
split_gain=0.213291 0.0984464 0.100901 0.0012401 0.000446672
threshold=1.0000000180025095e-35 0.75000000000000011 0.35000000000000003 0.45000000000000007 0.25000000000000006
decision_type=2 2 2 2 2
left_child=-1 2 4 -4 -2
right_child=1 -3 3 -5 -6
leaf_value=0.019836803364898424 -0.00066544068885997687 0.0084260844120636856 -0.012873394051362279 -0.0024091183287884579 0.0026217119003263847
leaf_weight=4.7782332375645629 17.698196096753239 6.5318364305421701 10.788103759288788 0.11445143388118673 0.42326538357883592
leaf_count=26 38 78 36 14 18
internal_value=0 -0.026658 -0.0516202 -0.127635 -0.00588662
internal_weight=0 35.5559 29.024 10.9026 18.1215
internal_count=210 184 106 50 56
shrinkage=0.1


Tree=97
num_leaves=6
num_cat=0
split_feature=0 0 0 0 0
split_gain=0.194046 0.0722496 0.0428501 0.00380246 1.32017e-07
threshold=0.25000000000000006 1.0000000180025095e-35 0.45000000000000007 0.35000000000000003 0.75000000000000011
decision_type=2 2 2 2 2
left_child=1 -1 3 -2 -4
right_child=2 -3 4 -5 -6
leaf_value=-0.013776320962450335 0.0039313119452002452 -0.0020178558177033038 0.0028013232424853297 0.013502601565299061 0.0026912680950289345
leaf_weight=7.4769942462444332 0.43593445792794311 17.354190097306855 0.1107153344200914 8.6734910383820534 7.0171774895861745
leaf_count=26 18 38 14 36 78
internal_value=0 -0.0555848 0.085004 0.130446 0.0269298
internal_weight=0 24.8312 16.2373 9.10943 7.12789
internal_count=210 64 146 54 92
shrinkage=0.1


Tree=98
num_leaves=6
num_cat=0
split_feature=0 0 0 0 0
split_gain=0.212096 0.111464 0.115974 0.00139723 0.000519917
threshold=1.0000000180025095e-35 0.75000000000000011 0.35000000000000003 0.45000000000000007 0.25000000000000006
decision_type=2 2 2 2 2
left_child=-1 2 4 -4 -2
right_child=1 -3 3 -5 -6
leaf_value=0.019408441022765906 -0.00052761794909454067 0.0087264041843019904 -0.013535262437234893 -0.0021147957937036393 0.0031834320613654079
leaf_weight=4.9537786431610575 17.840330530190844 6.9578264271840444 10.967505257576704 0.10818432748783458 0.38568201137240882
leaf_count=26 38 78 36 14 18
internal_value=0 -0.0265158 -0.0535334 -0.134237 -0.00449088
internal_weight=0 36.2595 29.3017 11.0757 18.226
internal_count=210 184 106 50 56
shrinkage=0.1


Tree=99
num_leaves=6
num_cat=0
split_feature=0 0 0 0 0
split_gain=0.214038 0.0863357 0.0400292 0.00438177 8.21405e-05
threshold=0.25000000000000006 0.45000000000000007 1.0000000180025095e-35 0.35000000000000003 0.75000000000000011
decision_type=2 2 2 2 2
left_child=2 3 -1 -2 -3
right_child=1 4 -4 -5 -6
leaf_value=-0.011865924043626616 0.0050471260215853254 0.0038553036271205899 -0.0031999726648598379 0.015936399883750774 0.0010807295360084161
leaf_weight=7.6326679661870029 0.38621561997570175 0.1081813928904002 17.669691630988382 8.5542082190513611 7.7924846680834889
leaf_count=26 18 14 38 36 78
internal_value=0 0.0873525 -0.0581413 0.15466 0.0111872
internal_weight=0 16.8411 25.3024 8.94042 7.90067
internal_count=210 146 64 54 92
shrinkage=0.1


end of trees

feature importances:
geographical=500

parameters:
[boosting: gbdt]
[objective: lambdarank]
[metric: ndcg]
[tree_learner: serial]
[device_type: cpu]
[data: ]
[valid: ]
[num_iterations: 100]
[learning_rate: 0.1]
[num_leaves: 16]
[num_threads: -1]
[max_depth: -1]
[min_data_in_leaf: 5]
[min_sum_hessian_in_leaf: 0.001]
[bagging_fraction: 1]
[pos_bagging_fraction: 1]
[neg_bagging_fraction: 1]
[bagging_freq: 0]
[bagging_seed: 3]
[feature_fraction: 1]
[feature_fraction_bynode: 1]
[feature_fraction_seed: 2]
[early_stopping_round: 0]
[first_metric_only: 0]
[max_delta_step: 0]
[lambda_l1: 0]
[lambda_l2: 0]
[min_gain_to_split: 0]
[drop_rate: 0.1]
[max_drop: 50]
[skip_drop: 0.5]
[xgboost_dart_mode: 0]
[uniform_drop: 0]
[drop_seed: 4]
[top_rate: 0.2]
[other_rate: 0.1]
[min_data_per_group: 100]
[max_cat_threshold: 32]
[cat_l2: 10]
[cat_smooth: 10]
[max_cat_to_onehot: 4]
[top_k: 20]
[monotone_constraints: ]
[feature_contri: ]
[forcedsplits_filename: ]
[forcedbins_filename: ]
[refit_decay_rate: 0.9]
[cegb_tradeoff: 1]
[cegb_penalty_split: 0]
[cegb_penalty_feature_lazy: ]
[cegb_penalty_feature_coupled: ]
[verbosity: -1]
[max_bin: 255]
[max_bin_by_feature: ]
[min_data_in_bin: 3]
[bin_construct_sample_cnt: 200000]
[histogram_pool_size: -1]
[data_random_seed: 1]
[output_model: LightGBM_model.txt]
[snapshot_freq: -1]
[input_model: ]
[output_result: LightGBM_predict_result.txt]
[initscore_filename: ]
[valid_data_initscores: ]
[pre_partition: 0]
[enable_bundle: 1]
[max_conflict_rate: 0]
[is_enable_sparse: 1]
[sparse_threshold: 0.8]
[use_missing: 1]
[zero_as_missing: 0]
[two_round: 0]
[save_binary: 0]
[header: 0]
[label_column: ]
[weight_column: ]
[group_column: ]
[ignore_column: ]
[categorical_feature: ]
[predict_raw_score: 0]
[predict_leaf_index: 0]
[predict_contrib: 0]
[num_iteration_predict: -1]
[pred_early_stop: 0]
[pred_early_stop_freq: 10]
[pred_early_stop_margin: 10]
[convert_model_language: ]
[convert_model: gbdt_prediction.cpp]
[num_class: 1]
[is_unbalance: 0]
[scale_pos_weight: 1]
[sigmoid: 1]
[boost_from_average: 1]
[reg_sqrt: 0]
[alpha: 0.9]
[fair_c: 1]
[poisson_max_delta_step: 0.7]
[tweedie_variance_power: 1.5]
[max_position: 20]
[lambdamart_norm: 1]
[label_gain: ]
[metric_freq: 1]
[is_provide_training_metric: 0]
[eval_at: 1]
[multi_error_top_k: 1]
[num_machines: 1]
[local_listen_port: 12400]
[time_out: 120]
[machine_list_filename: ]
[machines: ]
[gpu_platform_id: -1]
[gpu_device_id: -1]
[gpu_use_dp: 0]

end of parameters

pandas_categorical:null
