tree
version=v3
num_class=1
num_tree_per_iteration=1
label_index=0
max_feature_idx=8
objective=lambdarank
feature_names=word_overlap transfer_data_size task_data_size ratio_data_size genetic syntactic featural phonological inventory
feature_infos=[0.00014591645131190408:0.055996267571293466] [417:56332] [417:56332] [0.0074025420720017039:135.08872901678657] [0.28570000000000001:1] [0:0.76000000000000001] [0:0.69999999999999996] [0:0.6875] [0:0.68799999999999994]
tree_sizes=1741 1728 1733 1747 1751 1755 1768 1757 1755 1774 1773 1756 1766 1763 1769 1772 1769 1773 1777 1784 1780 1783 1796 1782 1783 1790 1786 1788 1785 1808 1810 1809 1805 1806 1812 1802 1806 1804 1810 1837 1808 1814 1799 1815 1809 1817 1807 1812 1832 1834 1817 1818 1829 1827 1808 1827 1832 1818 1818 1840 1821 1818 1823 1832 1822 1821 1834 1845 1842 1846 1830 1850 1836 1840 1841 1845 1836 1845 1846 1848 1841 1850 1847 1837 1851 1852 1832 1844 1846 1861 1856 1848 1833 1848 1831 1861 1853 1860 1852 1850

Tree=0
num_leaves=16
num_cat=0
split_feature=1 1 1 5 0 7 1 0 1 1 5 7 3 1 0
split_gain=11.4115 4.05359 1.87732 2.85046 2.2993 1.41819 1.32143 1.38074 1.20582 1.05686 0.892528 0.690473 0.582734 0.552943 0.341525
threshold=9968.5000000000018 712.50000000000011 1243.5000000000002 0.6100000000000001 0.0012184070068800787 0.42120000000000007 999.00000000000011 0.00082141320976745742 1881.0000000000002 2496.0000000000005 0.56500000000000006 0.55485000000000018 0.2803307362175797 1434.5000000000002 0.0017852057668150522
decision_type=2 2 2 2 2 2 2 2 2 2 2 2 2 2 2
left_child=1 10 6 4 9 13 7 -3 11 -4 12 -6 -1 -5 -10
right_child=-2 2 3 5 8 -7 -8 -9 14 -11 -12 -13 -14 -15 -16
leaf_value=-0.1716953713266961 -0.14951155897037355 0.16995739937627943 0.13609900170872966 -0.19999161505342847 0.086056190623792231 -0.17206801151856263 0.18816033971238569 -0.10848100108583483 0.18032439087241167 -0.077863175738320356 -0.19810183481110299 -0.10526353066889996 0.061780256100823716 0.041334068566805472 0.11397834722042849
leaf_weight=0.16354273259639629 3.7756094727665195 0.35167187452316118 0.29660742357373227 0.10716109070926882 0.48258899524807958 0.72841713950037956 1.9427958130836487 0.36082650534808641 1.6660084109753373 1.0414246600121257 0.67884700745344162 0.30969095230102534 0.30866876430809498 0.83288267254829407 1.4521593675017355
leaf_count=5 84 5 5 5 5 19 14 9 6 9 18 7 5 5 9
internal_value=0 0.526422 0.739627 0.465241 0.827185 -0.673328 1.45439 0.289494 1.21436 -0.304332 -1.2466 0.11272 -0.190802 0.138239 1.49426
internal_weight=0 10.7233 9.57223 6.91694 5.24848 1.66846 2.65529 0.712498 3.91045 1.33803 1.15106 0.79228 0.472211 0.940044 3.11817
internal_count=210 126 98 70 41 29 28 14 27 14 28 12 10 10 15
shrinkage=0.1


Tree=1
num_leaves=16
num_cat=0
split_feature=1 1 1 8 5 8 2 7 2 5 2 1 1 1 1
split_gain=16.9122 22.0911 3.1348 5.82953 3.78972 3.7854 2.8378 2.37425 1.36184 1.22611 2.31652 1.16667 0.73386 0.726387 1.01728
threshold=1243.5000000000002 999.00000000000011 9968.5000000000018 0.48310000000000003 0.57500000000000007 0.5918000000000001 1434.5000000000002 0.10250000000000002 1243.5000000000002 0.55500000000000016 1881.0000000000002 3507.0000000000005 712.50000000000011 2496.0000000000005 1881.0000000000002
decision_type=2 2 2 2 2 2 2 2 2 2 2 2 2 2 2
left_child=1 9 3 -2 5 -5 -7 8 -4 -1 -11 13 -12 14 -6
right_child=2 -3 7 4 11 6 -8 -9 -10 10 12 -13 -14 -15 -16
leaf_value=-0.1701144858795027 0.12628458263787232 0.15525427289486926 -0.15116873867482764 -0.12466001109942873 -0.15668642467190064 -0.094024622893574439 0.10534280180773206 -0.12950000303153478 0.069927148501506206 0.055750312152720673 -0.17109060240870397 -0.039993158530463424 -0.069358800811298138 -0.1846774519162277 -0.021224808265096345
leaf_weight=1.3651980161666877 2.0728596784174469 11.341659888625145 0.37834351137280281 1.6261494234204272 1.3629553616046908 0.94228753075003646 2.9464489221572876 7.0397532358765602 1.0566158220171926 1.2101747393608091 1.1450756043195724 1.6256146952509878 1.8623426035046577 1.9410644844174385 0.93448031693696965
leaf_count=11 6 14 5 11 16 5 8 73 6 9 14 7 8 11 6
internal_value=0 0.750977 -0.579656 -0.279539 -0.560508 0.0345848 0.570337 -1.05603 0.116327 -0.877435 -0.610808 -1.12016 -1.08093 -1.39639 -1.01588
internal_weight=0 16.9245 21.9266 13.4519 11.379 5.51489 3.88874 8.47471 1.43496 5.58279 4.21759 5.86411 3.00742 4.2385 2.29744
internal_count=210 56 154 70 64 24 13 84 11 42 31 40 22 33 22
shrinkage=0.1


Tree=2
num_leaves=16
num_cat=0
split_feature=1 1 1 1 0 8 8 1 1 1 0 3 5 1 1
split_gain=12.321 6.36576 4.97606 5.29884 2.12764 1.87632 2.48983 1.48482 1.36191 2.34871 1.2719 1.1166 0.916052 0.4744 0.736487
threshold=2496.0000000000005 999.00000000000011 1243.5000000000002 1434.5000000000002 0.0020952882571277569 0.58640000000000014 0.60890000000000011 712.50000000000011 9968.5000000000018 3507.0000000000005 0.0012184070068800787 0.52405024657060195 0.58500000000000008 16812.500000000004 19386.000000000004
decision_type=2 2 2 2 2 2 2 2 2 2 2 2 2 2 2
left_child=1 5 -3 -4 11 -1 -7 -8 9 -2 -11 -5 -6 -10 -15
right_child=8 2 3 4 12 6 7 -9 13 10 -12 -13 -14 14 -16
leaf_value=-0.15297726185863195 -0.14080911906268484 0.13488437150474478 -0.16771824914984013 0.030732550100110858 -0.112571601189565 0.10831636159473375 -0.16032196078254468 -0.0042311221736256333 -0.15840429918232671 -0.080415035699621593 0.070231689484261964 0.1442450105634808 0.029312278919119666 -0.033491937405905531 -0.10839583637782535
leaf_weight=1.2927582971751714 1.2743232995271676 8.0317975431680662 1.2438902854919422 1.3481814339756968 0.74292032420635212 1.1595579981803896 1.0397899113595486 1.4723936840891838 1.211866732686756 0.80537142604589484 1.8428829759359358 2.4259306490421295 1.1743314601480959 1.7140266075730322 5.6058964282274246
leaf_count=16 14 14 14 7 6 5 12 9 14 7 7 7 8 14 56
internal_value=0 0.487568 0.813048 0.192536 0.601178 -0.493694 -0.128909 -0.688369 -0.780287 -0.292592 0.244179 1.03696 -0.256666 -1.00451 -0.908564
internal_weight=0 19.9316 14.9671 6.93525 5.69136 4.9645 3.67174 2.51218 12.4544 3.92258 2.64825 3.77411 1.91725 8.53179 7.31992
internal_count=210 98 56 42 28 42 26 21 112 28 14 14 14 84 70
shrinkage=0.1


Tree=3
num_leaves=16
num_cat=0
split_feature=1 1 1 1 1 2 5 7 0 7 8 2 8 7 2
split_gain=9.30155 3.65155 4.44285 2.57223 2.20284 1.23634 1.0534 1.07779 1.01831 0.949269 1.7325 0.607369 0.510732 0.325431 0.480881
threshold=9968.5000000000018 712.50000000000011 1243.5000000000002 1434.5000000000002 999.00000000000011 1434.5000000000002 0.65500000000000014 0.33830000000000005 0.00082141320976745742 0.43670000000000003 0.59375000000000011 999.00000000000011 0.57890000000000008 0.10250000000000002 1243.5000000000002
decision_type=2 2 2 2 2 2 2 2 2 2 2 2 2 2 2
left_child=1 5 4 -4 8 -1 7 -5 -3 -9 -11 -12 -8 14 -2
right_child=13 2 3 6 -6 -7 12 9 -10 10 11 -13 -14 -15 -16
leaf_value=-0.0018658949219888016 -0.13673192975756593 0.068360653008670086 -0.15160552053594101 -0.074940571472954062 0.12392224881832979 -0.14432195090383876 -0.10952018960822429 0.10418147771638164 -0.077611154614023348 -0.099642690795515632 -0.018925906065193739 0.080693976883673135 0.01109958152670013 -0.10732919569228612 0.00031403973631332857
leaf_weight=1.0993383750319545 0.39801523089408758 1.0804097503423706 0.99302926659583934 0.7973434627056103 7.1963407844305038 1.3665088750421999 0.8424292132258413 2.0543796569108963 0.85697349160909631 0.924403116106987 0.81866943836212192 2.4244902357459068 0.60181564837694168 6.0733695551753044 0.71777497977018356
leaf_count=8 5 5 14 6 14 20 10 7 9 10 7 11 5 73 6
internal_value=0 0.335316 0.486983 0.00653599 0.984411 -0.808114 0.185182 0.34521 0.0379213 0.485485 0.211245 0.55547 -0.59258 -0.982098 -0.485718
internal_weight=0 21.0561 18.5903 9.45656 9.13372 2.46585 8.46353 7.01929 1.93738 6.22194 4.16756 3.24316 1.44424 7.18916 1.11579
internal_count=210 126 98 70 28 28 56 41 14 35 28 18 15 84 11
shrinkage=0.1


Tree=4
num_leaves=16
num_cat=0
split_feature=1 1 1 1 1 8 8 5 8 0 0 0 0 8 8
split_gain=6.69848 2.72661 3.42295 1.97914 1.76934 1.32415 1.5622 1.01485 0.995224 0.740066 0.588809 0.575653 0.368971 0.368939 0.826712
threshold=9968.5000000000018 712.50000000000011 1243.5000000000002 1434.5000000000002 999.00000000000011 0.48310000000000003 0.55870000000000009 0.56500000000000006 0.61745000000000017 0.0022121630982437292 0.001752510742700903 0.00082141320976745742 0.0020952882571277569 0.47060000000000007 0.48635
decision_type=2 2 2 2 2 2 2 2 2 2 2 2 2 2 2
left_child=1 7 4 -4 11 -5 12 8 -1 10 -8 -3 -7 -2 -15
right_child=13 2 3 5 -6 6 9 -9 -10 -11 -12 -13 -14 14 -16
leaf_value=0.060552987585186971 -0.14273909275315178 0.055417842546933618 -0.14371501861299929 0.10665104815032485 0.11611977301764045 -0.044190639914941342 0.011094959482045369 -0.14246936868814039 -0.14122290760783424 -0.070671675243010046 0.090747687535672542 -0.060618477151232301 -0.13410245933709333 0.045222836153080537 -0.087522850019227633
leaf_weight=0.73656328395009685 0.9583619236946096 0.92287941277027274 0.85451714694499781 1.3496976867318151 6.2962233275175095 1.3582595437765124 1.9871317222714426 1.090499799698591 0.36586710810661321 0.60819646716117848 1.7412927895784376 0.79654662683606148 0.68739816918969132 0.51469542086124409 5.3019645176827908
leaf_count=5 13 5 14 5 14 14 13 18 5 7 8 9 9 5 66
internal_value=0 0.307295 0.445722 0.00700957 0.915677 0.166614 -0.0236921 -0.740701 -0.0641103 0.316106 0.482953 0.016625 -0.744035 -0.852488 -0.757767
internal_weight=0 18.7951 16.6021 8.58649 8.01565 7.73198 6.38228 2.19293 1.10243 4.33662 3.72842 1.71943 2.04566 6.77502 5.81666
internal_count=210 126 98 70 28 56 51 28 10 28 21 14 23 84 71
shrinkage=0.1


Tree=5
num_leaves=16
num_cat=0
split_feature=1 1 1 1 8 8 5 8 1 7 7 0 5 8 0
split_gain=5.16068 2.52485 3.50769 1.56335 0.978841 1.09955 0.926616 0.812018 0.806689 0.592169 0.550727 0.994091 0.445043 0.50244 0.365609
threshold=9968.5000000000018 999.00000000000011 1243.5000000000002 1434.5000000000002 0.58640000000000014 0.60890000000000011 0.65500000000000014 0.64520000000000011 712.50000000000011 0.33830000000000005 0.37375000000000008 0.0022121630982437292 0.69500000000000006 0.67605000000000015 0.001752510742700903
decision_type=2 2 2 2 2 2 2 2 2 2 2 2 2 2 2
left_child=1 4 -3 -4 -1 -6 9 -7 -9 -5 -11 14 13 -2 -12
right_child=12 2 3 6 5 7 -8 8 -10 10 11 -13 -14 -15 -16
leaf_value=-0.13198982516718813 -0.096865943877840671 0.10884646713782647 -0.13589797586904684 -0.052093565552219868 0.082401910582630869 -0.13599586465268107 -0.062327972438413516 -0.13594046290384004 0.050008960614963988 0.10490064370074773 0.017128586134537074 -0.12049147239981227 0.0075275218759779279 0.0048040586738410359 0.081830960453160378
leaf_weight=0.95672921463847804 5.0494850352406493 5.599764406681059 0.71505983546376217 0.68326170742511738 0.82011258602142367 0.7627582661807536 1.161379177123308 0.32596365734934785 0.820692479610443 1.2459273040294645 1.9897157698869712 0.40150447189807881 0.54580513387918461 0.53784260898828495 1.5565122365951536
leaf_count=16 73 14 14 6 5 9 15 6 6 5 16 6 5 6 8
internal_value=0 0.283127 0.485379 0.0498074 -0.449511 -0.144431 0.192934 -0.56039 -0.0285148 0.354232 0.469366 0.286428 -0.786598 -0.870791 0.455278
internal_weight=0 17.0394 13.3531 7.75336 3.68626 2.72953 7.0383 1.90941 1.14666 5.87692 5.19366 3.94773 6.13313 5.58733 3.54623
internal_count=210 126 84 70 42 26 56 21 12 41 35 30 84 79 24
shrinkage=0.1


Tree=6
num_leaves=16
num_cat=0
split_feature=1 1 1 1 1 5 0 8 0 0 0 1 0 8 0
split_gain=4.23855 1.80763 1.9619 1.20836 1.13128 0.620039 0.558953 0.553942 0.534089 1.03015 1.02348 0.580365 0.461303 0.959678 0.381518
threshold=9968.5000000000018 712.50000000000011 1243.5000000000002 1434.5000000000002 999.00000000000011 0.56500000000000006 0.00082141320976745742 0.61745000000000017 0.0019318600060226857 0.0012184070068800787 0.0078770732699921676 2496.0000000000005 0.00048636127031704348 0.59990000000000021 0.0023291285591354586
decision_type=2 2 2 2 2 2 2 2 2 2 2 2 2 2 2
left_child=1 5 4 -4 6 7 -3 -1 9 11 14 -5 13 -2 -10
right_child=12 2 3 8 -6 -7 -8 -9 10 -11 -12 -13 -14 -15 -16
leaf_value=0.041929738682669693 0.048132484680155518 0.05797144738137408 -0.1313197479192493 0.040628039714241372 0.10101113987210311 -0.13127959131640551 -0.063442424771504177 -0.13062119785840068 -0.031721916903245211 0.084056541348281819 0.075686652376038277 -0.067623735141141519 -0.092602148160728329 -0.13383527310797053 -0.13257670773895797
leaf_weight=0.60487888008356339 0.7453574240207661 0.83449913561343936 0.61620977148413647 0.95686305314302433 5.0326153114438057 0.84533119574189186 0.69493243470788002 0.26869627460837364 1.141489125788212 2.1926301270723343 0.74522515758872021 1.0266219675540922 4.1392556577920914 0.47422277554869646 0.55864113196730603
leaf_count=5 8 5 14 7 14 18 9 5 13 11 5 13 68 8 7
internal_value=0 0.264776 0.385229 0.0262051 0.781218 -0.702247 0.0280426 -0.111439 0.150853 0.36818 -0.220293 -0.154014 -0.766763 -0.22624 -0.648615
internal_weight=0 15.5186 13.7997 7.23768 6.56205 1.71891 1.52943 0.873575 6.62147 4.17612 2.44536 1.98349 5.35884 1.21958 1.70013
internal_count=210 126 98 70 28 28 14 10 56 31 25 20 84 16 20
shrinkage=0.1


Tree=7
num_leaves=16
num_cat=0
split_feature=1 1 1 1 1 8 8 2 1 1 7 8 8 0 0
split_gain=3.43036 1.40697 1.46577 0.997562 0.996499 0.612977 1.24558 0.573574 0.411034 0.665836 0.286232 0.445983 0.42526 0.263388 0.263313
threshold=9968.5000000000018 712.50000000000011 1243.5000000000002 1434.5000000000002 999.00000000000011 0.48310000000000003 0.55870000000000009 1434.5000000000002 2496.0000000000005 3507.0000000000005 0.10250000000000002 0.66670000000000007 0.59990000000000021 0.0020952882571277569 0.0023291285591354586
decision_type=2 2 2 2 2 2 2 2 2 2 2 2 2 2 2
left_child=1 7 4 -4 -3 -5 13 -1 -8 -10 12 -12 -2 -7 -6
right_child=10 2 3 5 14 6 8 -9 9 -11 11 -13 -14 -15 -16
leaf_value=-0.0025384780767249973 0.046602163673670205 -0.00097411659009922341 -0.12792777930996388 0.085879828821153345 0.11615599332460946 -0.040857998429080729 0.07214154336886415 -0.12384563809227769 -0.11240822003249196 0.033800124921216756 -0.095499770554663493 0.012777959669021633 -0.10207558282849896 -0.12395692363953648 0.067438395073037338
leaf_weight=0.75717865303159004 0.44339947775006194 1.4265876263380031 0.53011664003133763 1.0194350183010099 2.5441077947616577 1.1083960533142088 1.613532654941082 0.80329206585884094 0.39305165037512768 1.5007417798042297 3.5823262482881546 0.42559240758419031 0.33982247859239578 0.58154238760471333 1.9673504829406736
leaf_count=8 5 14 14 5 7 14 11 20 6 11 67 6 6 9 7
internal_value=0 0.246184 0.356412 0.0375065 0.718753 0.149793 0.0107224 -0.649844 0.35054 0.0345498 -0.73197 -0.84002 -0.179058 -0.69454 0.949113
internal_weight=0 14.2453 12.6849 6.74682 5.93805 6.2167 5.19726 1.56047 3.50733 1.89379 4.79114 4.00792 0.783222 1.68994 4.51146
internal_count=210 126 98 70 28 56 51 28 28 17 84 73 11 23 14
shrinkage=0.1


Tree=8
num_leaves=16
num_cat=0
split_feature=1 1 1 1 8 8 1 5 7 1 1 1 0 0 8
split_gain=2.80603 1.56381 0.980817 1.05539 0.709276 0.755326 0.54851 0.396643 0.459773 0.749681 0.391728 0.820669 0.32289 0.253634 0.252958
threshold=2496.0000000000005 999.00000000000011 1243.5000000000002 1434.5000000000002 0.58640000000000014 0.60890000000000011 712.50000000000011 0.49500000000000005 0.43670000000000003 1881.0000000000002 9968.5000000000018 3507.0000000000005 0.0012184070068800787 0.0023291285591354586 0.67605000000000015
decision_type=2 2 2 2 2 2 2 2 2 2 2 2 2 2 2
left_child=1 4 13 -4 -1 -6 -7 -5 -9 -10 11 -2 -13 -3 -12
right_child=10 2 3 7 5 6 -8 8 9 -11 14 12 -14 -15 -16
leaf_value=-0.12293092298894637 -0.10535356551064419 0.11220690311142936 -0.12492893496332221 -0.041149831756234351 0.083571736367699212 -0.12941595217247936 0.00042039758740637818 0.10310557347756033 -0.09873150151698315 0.059821349405675822 -0.075686100245630578 -0.041038752145640615 0.051603232181112603 0.062164492630547553 0.0068757171714569285
leaf_weight=0.65589083917439195 0.74468278512358588 2.2068303972482681 0.4533447660505775 0.52664160728454623 0.67268187925219569 0.4998058099299667 0.93236082047224034 1.1063784435391428 0.40244137495756122 1.1514641121029854 3.9565920941531658 0.56508323177695285 1.1256375834345815 1.8719412684440611 0.40950865298509592
leaf_count=16 14 7 14 6 5 12 9 6 7 9 78 7 7 7 6
internal_value=0 0.324627 0.555645 0.178325 -0.321301 -0.0383576 -0.448906 0.381405 0.538372 0.187582 -0.500187 -0.178856 0.206399 0.892401 -0.679424
internal_weight=0 10.4798 7.71904 3.64027 2.76074 2.10485 1.43217 3.18693 2.66028 1.55391 6.8015 2.4354 1.69072 4.07877 4.3661
internal_count=210 98 56 42 42 26 21 28 22 16 112 28 14 14 84
shrinkage=0.1


Tree=9
num_leaves=16
num_cat=0
split_feature=1 1 1 1 1 7 0 8 8 0 0 5 1 1 5
split_gain=2.15602 0.771071 0.941252 0.666756 0.553746 0.535776 0.782166 0.518775 0.688622 0.356213 0.296864 0.255162 0.251168 0.365244 0.225309
threshold=9968.5000000000018 712.50000000000011 1243.5000000000002 1434.5000000000002 999.00000000000011 0.58045000000000002 0.00087786804756971625 0.48310000000000003 0.55870000000000009 0.0020952882571277569 0.0023291285591354586 0.58500000000000008 16812.500000000004 19386.000000000004 0.64500000000000013
decision_type=2 2 2 2 2 2 2 2 2 2 2 2 2 2 2
left_child=1 5 4 -4 -3 -1 -7 -5 11 -10 -6 -9 -2 -14 -15
right_child=12 2 3 7 10 6 -8 8 9 -11 -12 -13 13 14 -16
leaf_value=-0.12751520440964129 -0.12559793297442812 0.0042549143287753648 -0.1231872056558961 0.082070666803398001 0.10901067891309134 -0.12955044970151974 0.086589722356163842 -0.012050954368242925 0.041669660444287632 -0.049428387855135758 0.052223592648777753 -0.097247926082871777 0.0049029535650604401 -0.058354217550337976 -0.13685037181545281
leaf_weight=0.54203210212290176 0.55747820064425546 1.2319722436368445 0.39314283244311798 0.87584603577852227 1.9135610461235046 0.26999544538557529 0.44073168560862547 0.63330851867794968 2.4087084867060189 0.52230608090758313 1.7740091755986211 0.79010026156902302 0.82257251068949733 2.1945000346750025 0.43877522088587273
leaf_count=15 14 14 14 5 7 8 5 9 20 8 7 14 14 46 10
internal_value=0 0.215409 0.303542 0.0240723 0.622996 -0.526299 0.0448105 0.118478 -0.0227683 0.25436 0.816917 -0.593418 -0.633116 -0.532639 -0.714338
internal_weight=0 11.7957 10.543 5.62341 4.91954 1.25276 0.710727 5.23027 4.35442 2.93101 3.68757 1.42341 4.01333 3.45585 2.63328
internal_count=210 126 98 70 28 28 13 56 51 28 14 23 84 70 56
shrinkage=0.1


Tree=10
num_leaves=16
num_cat=0
split_feature=1 1 0 7 1 1 0 2 0 0 3 8 8 0 0
split_gain=1.92539 0.832656 0.64834 0.980203 0.681566 0.618867 0.610674 0.491041 0.517417 0.271059 0.287085 0.267412 0.243648 0.534603 0.589862
threshold=2496.0000000000005 999.00000000000011 0.0057169065169909621 0.43670000000000003 1243.5000000000002 1434.5000000000002 0.0009681337451676119 1243.5000000000002 0.00042664295226370146 0.0019534492068226674 0.52405024657060195 0.57890000000000008 0.55870000000000009 0.00042664295226370146 0.0022898297278177919
decision_type=2 2 2 2 2 2 2 2 2 2 2 2 2 2 2
left_child=1 6 4 -4 11 -6 7 -1 -9 10 -7 -3 -2 -14 -15
right_child=12 2 3 -5 5 9 -8 8 -10 -11 -12 -13 13 14 -16
leaf_value=-0.10608510608875749 -0.066812872568338816 0.12195859547080355 0.037657007734125517 -0.18276899817506118 -0.1210881132985203 0.012090194387750084 -0.083121620871073262 -0.088083182704043028 0.085057500074428041 -0.013036538394811331 0.099830589923392665 0.062792327490603692 -0.12809108867310279 0.014060667239118418 -0.10957462472506177
leaf_weight=0.24568733572959761 2.710394313558937 1.5333870500326159 0.67776761017739762 0.28723573125898838 0.26968060620129142 0.64565553143620513 0.961797785013914 0.21559387631714319 0.86552732065320015 0.68229155614972092 0.88280170410871506 1.5222203582525251 0.43550860695540938 2.126889426261187 0.47142488136887534
leaf_count=5 63 6 5 6 11 7 22 6 9 10 5 6 10 27 12
internal_value=0 0.294238 0.476855 -0.279534 0.608703 0.219264 -0.224506 0.215296 0.505303 0.393722 0.62767 0.924836 -0.450235 -0.25557 -0.0837109
internal_weight=0 8.78965 6.50104 0.965003 5.53604 2.48043 2.28861 1.32681 1.08112 2.21075 1.52846 3.05561 5.74422 3.03382 2.59831
internal_count=210 98 56 11 45 33 42 20 15 22 12 12 112 49 39
shrinkage=0.1


Tree=11
num_leaves=16
num_cat=0
split_feature=1 8 8 8 7 0 1 1 8 1 1 1 1 0 1
split_gain=1.34927 0.787073 1.07653 1.44363 0.689223 0.878328 0.305851 0.586708 0.495368 0.375952 0.251729 0.207248 0.537226 0.26158 0.231801
threshold=2496.0000000000005 0.44770000000000004 0.49645000000000006 0.51755000000000007 0.33050000000000007 0.00088947140715304183 999.00000000000011 1243.5000000000002 0.59375000000000011 712.50000000000011 1434.5000000000002 3507.0000000000005 9968.5000000000018 0.0012184070068800787 16812.500000000004
decision_type=2 2 2 2 2 2 2 2 2 2 2 2 2 2 2
left_child=1 -1 -3 -4 5 -5 8 -8 -6 -10 -9 -2 13 -13 -14
right_child=11 2 3 4 6 -7 7 10 9 -11 -12 12 14 -15 -16
leaf_value=-0.13890896155930083 -0.097157507469281978 0.11436238437302093 -0.17892206071773015 0.05153178635042284 0.094196821227112704 -0.1108879551672632 0.10414125251271578 -0.12082699104715433 -0.12062744815487277 0.0084226609149643996 0.031044160724366339 -0.04110106058982492 -0.12222803883858627 0.051614975687814847 -0.044105854633898239
leaf_weight=0.28215221874415686 0.55909349583089429 1.298029815778136 0.36361192353069766 0.6072923596948383 0.44083159510046233 0.73702766746282589 1.5918187946081161 0.11633297614753237 0.32933323271572568 0.71768908947706223 1.7650706171989441 0.45991162583231904 0.43705825321376363 0.89931626245379459 2.8996614813804626
leaf_count=7 14 9 8 7 6 11 7 5 11 8 19 7 14 7 70
internal_value=0 0.252289 0.310418 0.148246 0.259973 -0.375153 0.432076 0.594586 0.0527146 -0.321691 0.216535 -0.396034 -0.327511 0.202434 -0.543386
internal_weight=0 8.24919 7.96704 6.66901 6.3054 1.34432 4.96108 3.47322 1.48785 1.04702 1.8814 5.25504 4.69595 1.35923 3.33672
internal_count=210 98 91 82 74 18 56 31 25 19 24 112 98 14 84
shrinkage=0.1


Tree=12
num_leaves=16
num_cat=0
split_feature=5 7 1 7 8 7 5 8 5 3 3 5 7 3 0
split_gain=2.16712 3.74747 2.27479 2.1111 1.49775 1.32726 0.711869 0.654226 0.62221 0.610135 0.569158 0.496455 0.489672 0.480202 0.441198
threshold=0.65500000000000014 0.33050000000000007 2496.0000000000005 0.58045000000000002 0.59375000000000011 0.10250000000000002 0.49500000000000005 0.62060000000000015 0.59500000000000008 0.054576928930147622 0.52405024657060195 0.67000000000000015 0.53875000000000017 0.30901548448504323 0.001752510742700903
decision_type=2 2 2 2 2 2 2 2 2 2 2 2 2 2 2
left_child=1 5 4 11 6 -1 -3 -6 -8 -7 -9 13 -4 -2 -14
right_child=3 2 12 -5 7 9 8 10 -10 -11 -12 -13 14 -15 -16
leaf_value=-0.00028705540601171658 0.027009988331522319 -0.013371749563442503 -0.090548149616472159 -0.17445179109512554 -0.075124813391576784 -0.19017285149171681 0.15222698673467122 -0.019068636724201851 0.025263380596284954 -0.063535326248654544 0.10018713363957649 0.04568792495136112 -0.034202899061545708 -0.13804226724254981 0.052510243828580376
leaf_weight=1.119155474007129 0.31547141447663418 0.34958715364336823 0.74284509336575899 1.2659670524299143 0.54996457695961032 1.0001057339832184 3.0698080211877827 0.68289902806282021 0.44150629639625538 0.61404314544051875 0.96672269701957692 0.92703433241695166 1.3926905468106272 0.39948496408760553 1.0139664644375441
leaf_count=18 5 5 23 16 13 5 16 11 6 11 6 14 32 13 16
internal_value=0 0.188491 0.493647 -0.774155 0.851915 -0.839744 1.22714 0.193287 1.36263 -1.41998 0.508185 -0.026009 -0.195757 -0.652137 0.0233086
internal_weight=0 11.9433 9.20999 2.90796 6.06049 2.7333 3.8609 2.19959 3.51131 1.61415 1.64962 1.64199 3.1495 0.714956 2.40666
internal_count=210 162 128 48 57 34 27 30 22 16 17 32 71 18 48
shrinkage=0.1


Tree=13
num_leaves=16
num_cat=0
split_feature=0 1 0 5 2 3 6 8 5 1 4 1 7 3 1
split_gain=1.27812 1.04335 0.492914 0.815193 1.18726 0.530269 0.493606 0.846503 0.807799 0.448811 0.376876 0.371682 0.423737 0.254598 0.252232
threshold=0.017762762034324375 9968.5000000000018 0.0019318600060226857 0.57500000000000007 999.00000000000011 0.2803307362175797 0.55000000000000016 0.64520000000000011 0.71500000000000008 712.50000000000011 0.96155000000000013 712.50000000000011 0.50160000000000016 1.1530000000000002 2496.0000000000005
decision_type=2 2 2 2 2 2 2 2 2 2 2 2 2 2 2
left_child=1 2 3 4 -1 9 10 8 -8 -6 -4 -5 14 -9 -13
right_child=-2 -3 6 11 5 -7 7 13 -10 -11 -12 12 -14 -15 -16
leaf_value=-0.084160557624550186 -0.12570422610817414 -0.046893257012263406 0.082105808636847008 -0.11960520400035597 -0.12071637011791853 0.132815292234752 -0.13600116375035562 -0.052233205787283778 0.03640272902482812 0.067640108613682512 -0.051251239294623642 0.075727046421397659 -0.045428071301220167 0.0729823866099895 -0.031899857273911605
leaf_weight=0.43379910662770127 0.75990380346775133 2.6694928156211963 0.81958380714058909 0.25453058537095818 0.13871389441192183 1.5977139063179491 0.92342675756663106 0.21586518362164489 0.38511971011757851 1.4370949380099771 0.28582138009369373 0.85308549366891362 0.83457070589065541 0.65539863333106041 0.29238053038716322
leaf_count=9 10 76 7 12 5 8 20 5 6 13 6 9 14 5 5
internal_value=0 0.0809751 0.241812 0.416083 0.71009 0.922196 -0.0680826 -0.344115 -0.852608 0.510596 0.476241 -0.058541 0.0876843 0.419588 0.482552
internal_weight=0 11.7966 9.1271 5.84189 3.60732 3.17352 3.28522 2.17981 1.30855 1.57581 1.10541 2.23457 1.98004 0.871264 1.14547
internal_count=210 200 124 75 35 26 49 36 26 18 13 40 28 10 14
shrinkage=0.1


Tree=14
num_leaves=16
num_cat=0
split_feature=1 8 4 8 0 5 1 5 2 7 1 8 3 7 8
split_gain=0.664103 0.300084 0.785605 0.586972 0.428116 0.595603 0.510611 0.472942 0.514768 0.340957 0.323539 0.282282 0.277219 0.257002 0.202232
threshold=9968.5000000000018 0.49645000000000006 0.96155000000000013 0.53645000000000009 0.0019318600060226857 0.59500000000000008 1243.5000000000002 0.57500000000000007 1243.5000000000002 0.50160000000000016 712.50000000000011 0.67605000000000015 0.2803307362175797 0.10250000000000002 0.56205000000000005
decision_type=2 2 2 2 2 2 2 2 2 2 2 2 2 2 2
left_child=1 2 -1 -3 7 -6 -7 8 -5 10 -9 13 -10 -2 -15
right_child=11 3 -4 4 5 6 -8 9 12 -11 -12 -13 -14 14 -16
leaf_value=0.10219697171198067 0.019280307367140325 -0.08023430132491631 -0.064543090040464338 -0.055687804888700065 -0.070729395838114897 0.079884218305531524 -0.075892030863723967 -0.12281905557377071 0.042709295193442742 -0.052199262192847463 0.053320462542373152 0.047450088734369761 0.11582667938383472 -0.04874679475896157 -0.11930323061451649
leaf_weight=1.0210248827934245 0.41293234005570578 0.71682741958647955 0.3906934624537825 0.31732732057571444 1.1413467135280373 0.72164297103881803 0.29702949803322554 0.11738121323287463 0.98881482705473922 0.8252745745703578 0.9345328500494362 0.31515000015497202 1.0902962572872636 1.5750800091773274 0.54742203652858723
leaf_count=7 8 20 11 7 18 7 10 5 12 12 11 6 6 50 20
internal_value=0 0.139186 0.560516 0.0560031 0.151639 -0.211207 0.344622 0.335032 0.629458 -0.0408358 0.336654 -0.418069 0.810524 -0.529013 -0.669443
internal_weight=0 8.56219 1.41172 7.15047 6.43365 2.16002 1.01867 4.27363 2.39644 1.87719 1.05191 2.85058 2.07911 2.53543 2.1225
internal_count=210 126 18 108 88 35 17 53 25 28 16 84 18 78 70
shrinkage=0.1


Tree=15
num_leaves=16
num_cat=0
split_feature=8 3 2 1 1 3 2 0 8 5 8 2 3 0 3
split_gain=0.751096 0.610174 0.878695 0.512484 0.505181 0.401887 0.399897 0.344341 0.432447 0.520474 0.326491 0.350891 0.257713 0.248727 0.243424
threshold=0.68080000000000018 0.073705407949861898 3507.0000000000005 1434.5000000000002 712.50000000000011 23.346186253198166 3507.0000000000005 0.0017743627100873063 0.59990000000000021 0.50500000000000012 0.64520000000000011 1881.0000000000002 3.2398377298161476 0.011035889998469137 0.054576928930147622
decision_type=2 2 2 2 2 2 2 2 2 2 2 2 2 2 2
left_child=1 4 5 -4 -1 7 -2 8 9 -3 11 13 -11 -9 -6
right_child=6 2 3 -5 14 -7 -8 10 -10 12 -12 -13 -14 -15 -16
leaf_value=-0.12043385614675979 0.0032282494608154412 -0.11374511877533318 -0.1622542666085488 -0.048784416068231605 0.025894679201510003 -0.073360819404812691 0.12122780372298288 -0.099089555604377114 -0.043995155036933832 0.10701545128031285 0.044156295408964319 0.033774620256903504 0.028585858093699647 0.0013324838446700045 0.099600011343155104
leaf_weight=0.18214934598654364 0.47501662559807367 0.16032378003001246 0.51606143545359406 1.7403464494273064 1.1795438826084135 0.65952487476170052 0.72638278640806675 0.84348538983613264 0.52492316253483284 1.0138739347457884 0.61440798640251149 0.45167458336800326 0.71401663683354843 0.3485637735575437 0.72259232029318787
leaf_count=11 7 5 7 52 17 22 5 25 11 8 7 8 14 5 6
internal_value=0 -0.0926344 -0.224284 -0.74736 0.386594 -0.00287663 0.745724 0.100294 0.362933 0.586135 -0.180375 -0.412849 0.74606 -0.697254 0.538942
internal_weight=0 9.67149 7.5872 2.25641 2.08429 5.33079 1.2014 4.67127 2.41314 1.88821 2.25813 1.64372 1.72789 1.19205 1.90214
internal_count=210 198 164 59 34 105 12 83 38 27 45 38 22 30 23
shrinkage=0.1


Tree=16
num_leaves=16
num_cat=0
split_feature=1 1 5 1 1 1 8 1 1 5 5 2 2 8 0
split_gain=0.56008 0.407335 0.313506 0.260971 0.407029 0.259416 0.207171 0.217975 0.203538 0.238801 0.20336 0.172767 0.244206 0.161068 0.154596
threshold=9968.5000000000018 712.50000000000011 0.56500000000000006 1243.5000000000002 1434.5000000000002 999.00000000000011 0.47060000000000007 16812.500000000004 19386.000000000004 0.64500000000000013 0.6100000000000001 999.00000000000011 23528.000000000004 0.61745000000000017 0.00082141320976745742
decision_type=2 2 2 2 2 2 2 2 2 2 2 2 2 2 2
left_child=1 2 13 5 -5 14 -2 -8 -9 -10 11 -6 -13 -1 -3
right_child=6 3 -4 4 10 -7 7 8 9 -11 -12 12 -14 -15 -16
leaf_value=0.040376744054143092 -0.11314795138824869 0.042136992255442998 -0.12340178215549735 -0.12473207489878289 -0.022402240569624712 0.067233992805156295 -0.11147479154746694 0.037578826165283963 -0.017291469579094769 -0.1250257603669753 -0.030403979841851222 0.055194588775421577 -0.028333263345716758 -0.10376108356543207 -0.046311042124478528
leaf_weight=0.31145658716559399 0.34119165502488646 0.4025174379348756 0.35633023921400309 0.22523893695324693 0.57517758943140573 1.8342392146587372 0.28108008112758431 0.50054259598255146 1.1354842297732828 0.25127455405890931 0.80843303538858879 1.8087873775511982 0.43400657549500449 0.10322003066539764 0.38820366561412806
leaf_count=5 13 5 18 14 10 14 14 11 36 10 19 20 7 5 9
internal_value=0 0.140983 -0.546122 0.222779 0.0570642 0.465935 -0.407156 -0.293184 -0.170827 -0.368124 0.138081 0.264918 0.39031 0.044984 -0.0128647
internal_weight=0 7.24761 0.771007 6.4766 3.85164 2.62496 2.50957 2.16838 1.8873 1.38676 3.6264 2.81797 2.24279 0.414677 0.790721
internal_count=210 126 28 98 70 28 84 71 57 46 56 37 27 10 14
shrinkage=0.1


Tree=17
num_leaves=16
num_cat=0
split_feature=8 1 8 8 0 7 0 2 3 7 2 0 7 6 8
split_gain=0.587917 0.453739 0.431207 0.457596 0.290419 0.236126 0.223363 0.211244 0.257845 0.19743 0.184517 0.184433 0.164436 0.119432 0.108286
threshold=0.44770000000000004 2496.0000000000005 0.49645000000000006 0.51755000000000007 0.0022898297278177919 0.23625000000000004 0.00042664295226370146 55435.000000000007 0.054576928930147622 0.10250000000000002 1881.0000000000002 0.001752510742700903 0.10250000000000002 0.55000000000000016 0.5918000000000001
decision_type=2 2 2 2 2 2 2 2 2 2 2 2 2 2 2
left_child=5 2 -2 -4 6 -1 -3 8 12 -10 11 -8 -5 -11 -15
right_child=1 4 3 7 -6 -7 10 -9 9 13 -12 -13 -14 14 -16
leaf_value=-0.033411724768484211 0.094307272693663971 -0.089694083800123336 -0.13480032527213012 0.014601022753165299 -0.079988785450496924 -0.15548615135398 0.0051035293599989854 0.092929782106705008 -0.11882890852682865 -0.020645899162363833 -0.025521342615664713 0.08952937593506971 -0.097001726152719667 0.0582510484806604 0.018527562518284624
leaf_weight=0.3250360097736128 0.77317676879465391 0.29133831989020187 0.19904752960428584 0.226585824042559 0.68053971789777268 0.30916516855359077 0.89134301431477092 0.36626697331666935 0.094176826067269181 0.43576012551784554 1.1748638572171328 0.36459422297775751 0.31633975217118854 1.2053124168887737 1.5934829814359543
leaf_count=8 9 12 8 5 30 10 21 5 6 7 33 5 10 17 24
internal_value=0 0.0684222 0.25391 0.133818 -0.215595 -0.929215 -0.0695208 0.203417 0.134747 0.238969 0.0296478 0.296121 -0.504252 0.280525 0.356346
internal_weight=0 8.61283 5.21015 4.43697 3.40268 0.634201 2.72214 4.23792 3.87166 3.32873 2.4308 1.25594 0.542926 3.23456 2.7988
internal_count=210 192 91 82 101 18 71 74 69 54 59 26 15 48 41
shrinkage=0.1


Tree=18
num_leaves=16
num_cat=0
split_feature=1 4 8 1 8 5 3 0 8 1 0 3 1 6 0
split_gain=0.3149 0.296226 0.579257 0.289491 0.235026 0.213011 0.175786 0.305802 0.174876 0.191207 0.16778 0.160782 0.172666 0.159873 0.155705
threshold=9968.5000000000018 0.96155000000000013 0.53785000000000016 1434.5000000000002 0.54150000000000009 0.55500000000000016 0.38172042992664662 0.0017301925035752509 0.47060000000000007 16812.500000000004 0.00042664295226370146 3.0028299069995108 999.00000000000011 0.65000000000000002 0.001752510742700903
decision_type=2 2 2 2 2 2 2 2 2 2 2 2 2 2 2
left_child=1 4 3 -3 -1 -4 7 10 -2 -10 -7 12 -8 -11 -5
right_child=8 2 5 14 -6 6 11 -9 9 13 -12 -13 -14 -15 -16
leaf_value=0.083965180487623248 -0.10831278329283418 -0.13267103736897884 -0.085285982824714807 -0.082278956521738764 0.0088234293725607572 -0.083073822633452268 -0.024405750325898402 -0.10464157901103498 -0.10727726405436727 -0.0021329867186069243 0.02944853997867965 -0.016699225195266416 0.064786488370485604 -0.12143892710310689 0.031886456161960418
leaf_weight=0.85730406455695596 0.26782344747334752 0.43096721405163402 0.19900951813906465 0.21855521481484172 0.80908429995179165 0.15161103010177646 0.253217147663236 0.25828901538625348 0.2321522869169711 1.5899030426517127 1.0520552564412353 0.42101725563406928 1.5194681407883761 0.12085655890405168 0.26348451152443886
leaf_count=10 13 19 8 7 11 7 6 9 14 51 18 6 20 6 5
internal_value=0 0.111875 -0.0149786 -0.731186 0.474815 0.154661 0.209509 -0.0591071 -0.325599 -0.221176 0.152755 0.388523 0.520459 -0.105614 -0.198758
internal_weight=0 6.43406 4.76767 0.913007 1.66639 3.85467 3.65566 1.46196 2.21074 1.94291 1.20367 2.1937 1.77269 1.71076 0.48204
internal_count=210 126 105 31 21 74 66 34 84 71 25 32 26 57 12
shrinkage=0.1


Tree=19
num_leaves=16
num_cat=0
split_feature=0 8 5 3 5 5 5 7 2 7 0 1 3 3 2
split_gain=0.263206 0.30919 0.308685 0.521292 0.280268 0.463352 0.295363 0.293417 0.224808 0.219134 0.203027 0.121675 0.115583 0.422915 0.104135
threshold=0.0019318600060226857 0.44770000000000004 0.56500000000000006 0.76622894910705897 0.6100000000000001 0.71500000000000008 0.58500000000000008 0.10250000000000002 1881.0000000000002 0.50160000000000016 0.00042664295226370146 712.50000000000011 0.58192568869890871 1.0005237939809739 9968.5000000000018
decision_type=2 2 2 2 2 2 2 2 2 2 2 2 2 2 2
left_child=1 -1 3 -3 6 -6 7 -2 10 11 -4 -10 -9 -14 -11
right_child=4 2 8 -5 5 -7 -8 12 9 14 -12 -13 13 -15 -16
leaf_value=-0.10891055159117452 0.04908211157758649 0.093397383157334271 -0.082616954134164741 -0.027035509995619995 -0.13269390289945607 0.032625742252994201 0.042265679554742863 -0.10579276299761771 -0.11959398326193493 -0.08808295548968377 0.043112558767444409 0.032386375980899863 0.075887508950803734 -0.088354167326344185 -0.026171748904767936
leaf_weight=0.19878810830414284 0.32864326704293567 1.0990786012262104 0.14226829074323211 0.53405026998370875 0.49806768959388126 0.25702407490462065 0.80889878049492814 0.35290530230849959 0.056922245305031434 0.41365707200020529 1.3207907453179357 0.70645266165956855 0.23022280912846327 0.49144798051565886 0.7915485268458724
leaf_count=10 6 14 6 16 22 6 12 12 5 12 23 16 6 18 26
internal_value=0 0.134265 0.182281 0.540146 -0.238173 -0.764211 -0.058614 -0.336047 0.0119722 -0.208681 0.308866 0.210537 -0.588932 -0.359588 -0.474212
internal_weight=0 5.26356 5.06477 1.63313 2.96721 0.755092 2.21212 1.40322 3.43164 1.96858 1.46306 0.763375 1.07458 0.721671 1.20521
internal_count=210 128 118 30 82 28 54 42 88 59 29 21 36 24 38
shrinkage=0.1


Tree=20
num_leaves=16
num_cat=0
split_feature=0 5 5 5 0 3 1 1 8 1 1 5 0 8 5
split_gain=0.42305 0.486726 0.544779 0.395417 0.356822 0.361644 0.278766 0.287916 0.252312 0.225392 0.27486 0.186313 0.181779 0.167056 0.160258
threshold=0.0019318600060226857 0.6100000000000001 0.71500000000000008 0.69500000000000006 0.0017301925035752509 0.4751472296782982 1243.5000000000002 999.00000000000011 0.58640000000000014 712.50000000000011 1881.0000000000002 0.58500000000000008 0.01453861959453618 0.4280500000000001 0.65500000000000014
decision_type=2 2 2 2 2 2 2 2 2 2 2 2 2 2 2
left_child=3 9 -3 4 6 -6 7 8 -1 -2 11 -11 -12 -8 -15
right_child=1 2 -4 -5 5 -7 13 -9 -10 10 12 -13 -14 14 -16
leaf_value=-0.11335328803032062 -0.13371661415068556 -0.15047791295123017 0.027987320882710411 0.10360006542379444 -0.067603997220165316 0.088973447039279244 -0.14314464851904579 0.085306406385820044 0.023094598625284225 -0.0053855174605805991 -0.071844880568912958 0.077259904796781034 0.027373405157769023 -0.0094061562021868599 -0.084260203458882119
leaf_weight=0.17910386621952079 0.12738626077771265 0.56444179639220227 0.24541588220745325 0.48071223124861706 0.17960185185074784 0.82555651478469372 0.11773642990738188 0.55451054871082317 0.55691504012793291 0.53561865910887696 0.56487997714430083 0.5558602586388588 0.27433133963495493 1.8650479651987555 0.33782257232815016
leaf_count=11 6 22 6 8 5 9 5 6 15 12 21 6 9 57 12
internal_value=0 -0.30724 -0.963966 0.172875 0.0829942 0.609962 -0.063687 0.308889 -0.101088 -0.0488169 0.036188 0.367035 -0.394112 -0.270883 -0.208854
internal_weight=0 2.86793 0.809858 5.09701 4.61629 1.00516 3.61114 1.29053 0.736019 2.05808 1.93069 1.09148 0.839211 2.32061 2.20287
internal_count=210 82 28 128 120 14 106 32 26 54 48 18 30 74 69
shrinkage=0.1


Tree=21
num_leaves=16
num_cat=0
split_feature=6 3 5 1 1 7 1 7 1 1 1 5 5 8 8
split_gain=0.48176 0.332258 0.253717 0.282088 0.276358 0.257517 0.169135 0.181258 0.130221 0.219853 0.151519 0.127982 0.119633 0.0886081 0.127356
threshold=0.65000000000000002 1.1530000000000002 0.69500000000000006 9968.5000000000018 712.50000000000011 0.55485000000000018 467.00000000000006 0.58045000000000002 1243.5000000000002 1434.5000000000002 999.00000000000011 0.65500000000000014 0.64500000000000013 0.47060000000000007 0.57890000000000008
decision_type=2 2 2 2 2 2 2 2 2 2 2 2 2 2 2
left_child=2 -2 3 4 6 -4 7 -1 10 -10 -6 -11 13 -5 -15
right_child=1 -3 5 12 8 -7 -8 -9 9 11 -12 -13 -14 14 -16
leaf_value=-0.12296344184355623 -0.0001022733525054554 -0.14965072893784581 0.099908528882702449 -0.092657362270943025 0.0002437125041292722 -0.096698997545953375 -0.13004632999889698 0.049961175190264703 -0.13000180565539371 0.020155970778593518 0.066207024343910167 -0.089456725830988307 -0.12084949258233145 0.0072495029664557181 -0.057549063713747066
leaf_weight=0.090927613433450349 0.26052091363817442 0.34570029145106673 0.47735527902841562 0.17316538095474232 0.51130272448062863 0.07742585800588131 0.19283101707696915 0.18182947998866439 0.10939068277366493 2.2622897382825617 1.0918114148080349 0.11178181692957868 0.14424884133040894 0.82656842097640015 0.47913156822323799
leaf_count=7 10 10 6 12 12 6 12 5 7 41 13 6 9 33 21
internal_value=0 -0.853829 0.0769101 0.0187135 0.146337 0.724698 -0.583634 -0.076858 0.229503 0.0860815 0.451685 0.149949 -0.339217 -0.254428 -0.165286
internal_weight=0 0.606221 6.73006 6.17528 4.55216 0.554781 0.465588 0.272757 4.08658 2.48346 1.60311 2.37407 1.62311 1.47887 1.3057
internal_count=210 20 190 178 103 12 24 12 79 54 25 47 75 66 54
shrinkage=0.1


Tree=22
num_leaves=16
num_cat=0
split_feature=1 1 1 1 8 5 7 5 4 8 1 0 0 1 0
split_gain=0.210909 0.156164 0.218632 0.196533 0.168592 0.15574 0.124713 0.199747 0.185701 0.184389 0.124498 0.116554 0.204604 0.115978 0.0922393
threshold=55435.000000000007 712.50000000000011 1243.5000000000002 1434.5000000000002 0.68080000000000018 0.56500000000000006 0.42120000000000007 0.64500000000000013 0.88750000000000007 0.59990000000000021 999.00000000000011 0.0017743627100873063 0.0012184070068800787 3507.0000000000005 0.00082141320976745742
decision_type=2 2 2 2 2 2 2 2 2 2 2 2 2 2 2
left_child=1 5 10 -4 6 -1 8 11 -5 -10 14 12 -8 -13 -3
right_child=-2 2 3 4 -6 -7 7 -9 9 -11 -12 13 -14 -15 -16
leaf_value=-0.0019001835604932267 -0.088987302671314175 0.040045889562352381 -0.12173421099250653 -0.051299736191087852 0.050150305064122928 -0.11625570000543012 -0.022586254180147744 -0.084961435020772635 0.052606334550459689 -0.037081673793527621 0.056433148169211647 -0.11144991582867325 0.067042520186713514 -0.010608293566388073 -0.039501496501378353
leaf_weight=0.27689191931858648 0.25634113140404213 0.2886474020779129 0.13781675603240717 0.35444134846329722 0.57065007463097561 0.20897337095811963 0.71323837060481332 0.43381579499691714 0.9406836265698072 0.30308365076780319 1.1701555848121643 0.18566187843680368 0.3961618784815073 0.29568933323025703 0.29448576271533966
leaf_count=10 14 5 14 13 8 18 28 26 16 9 14 7 6 13 9
internal_value=0 0.034718 0.0782831 -0.0423215 -0.00370453 -0.510851 -0.0832835 -0.248132 0.125543 0.30751 0.376219 -0.0841015 0.0941978 -0.495039 -0.0012602
internal_weight=0 6.5704 6.08453 4.33124 4.19343 0.485865 3.62278 2.02457 1.59821 1.24377 1.75329 1.59075 1.1094 0.481351 0.583133
internal_count=210 196 168 140 126 28 118 80 38 25 28 54 34 20 14
shrinkage=0.1


Tree=23
num_leaves=16
num_cat=0
split_feature=1 4 8 7 1 0 5 5 3 3 0 3 5 2 3
split_gain=0.183922 0.15991 0.561213 0.170871 0.162385 0.14696 0.143974 0.121099 0.113973 0.12776 0.090072 0.173359 0.122036 0.0962923 0.0873628
threshold=19386.000000000004 0.96155000000000013 0.53785000000000016 0.33050000000000007 1881.0000000000002 0.00042664295226370146 0.55500000000000016 0.43500000000000005 20.004048233157366 35.933259660667737 0.00088947140715304183 0.38172042992664662 0.65500000000000014 1434.5000000000002 1.0005237939809739
decision_type=2 2 2 2 2 2 2 2 2 2 2 2 2 2 2
left_child=1 3 7 -1 -5 -4 -7 -3 14 -10 -8 -12 -13 -14 -2
right_child=8 2 5 4 -6 6 10 -9 9 -11 11 12 13 -15 -16
leaf_value=-0.021106241278999294 0.0069532098388959771 -0.018638211939066781 -0.081617503335260702 0.10037178388136336 0.020724455191317298 -0.065568876183362601 0.052894671648157449 -0.10354583510441065 0.051372919807118535 -0.047432857106543574 -0.040357661171916304 0.045160836008134378 -0.079287293913864951 0.027106495666391457 -0.09447225724057895
leaf_weight=0.37798067182302464 0.10816995799541453 0.24069792963564429 0.14740235684439573 0.47560858260840161 0.55431810580193996 0.18226501904428041 0.87241027131676707 0.55597167485393584 0.22337094228714705 0.31600508373230696 0.44864841597154725 1.2077305717393754 0.15943430736660946 0.18237132951617241 0.39518314460292459
leaf_count=7 6 8 9 8 13 9 19 32 7 16 18 21 5 5 27
internal_value=0 0.0741845 -0.0279023 0.364 0.575047 0.159057 0.206144 -0.778927 -0.384525 -0.0651458 0.260865 0.143821 0.302313 -0.225206 -0.726761
internal_weight=0 5.40484 3.99693 1.40791 1.02993 3.20026 3.05286 0.79667 1.04273 0.539376 2.87059 1.99818 1.54954 0.341806 0.503353
internal_count=210 154 126 28 21 86 77 40 56 23 68 49 31 10 33
shrinkage=0.1


Tree=24
num_leaves=16
num_cat=0
split_feature=1 4 8 2 8 3 5 2 0 7 0 5 7 8 5
split_gain=0.159566 0.145149 0.522979 0.160382 0.128899 0.1201 0.119822 0.151929 0.159599 0.127725 0.110375 0.109362 0.0981634 0.129831 0.0735016
threshold=19386.000000000004 0.96155000000000013 0.53785000000000016 712.50000000000011 0.52425000000000022 13.58771023231427 0.55500000000000016 1881.0000000000002 0.0017743627100873063 0.58045000000000002 0.0023291285591354586 0.49500000000000005 0.50160000000000016 0.66670000000000007 0.64500000000000013
decision_type=2 2 2 2 2 2 2 2 2 2 2 2 2 2 2
left_child=1 4 3 -3 11 6 -4 8 -8 -10 -6 -1 -9 -14 -2
right_child=14 2 5 -5 10 -7 7 12 9 -11 -12 -13 13 -15 -16
leaf_value=0.013676100306089093 -0.027858323239895146 0.001423148933190672 -0.063918833334314848 -0.1049236247579243 0.033172421314621038 -0.0994056230405716 0.077674708173196494 0.039212887610429022 -0.064351366783476291 0.038628328453833773 -0.049595498192940478 0.10718250621785208 -0.052481278320071503 0.020639512070598273 -0.11593619817304185
leaf_weight=0.19700772408395983 0.83234860375523556 0.19009792525321281 0.16498715803027231 0.55826669838279486 0.56759591400623322 0.088416242040693649 0.7705084113404157 0.45896904566325225 0.17103973450139165 0.40712260082364082 0.22498200833797452 0.34258521161973482 0.49902142165228719 0.47298265481367702 0.1069169156253338
leaf_count=5 46 6 9 34 12 5 10 16 10 7 5 6 18 11 10
internal_value=0 0.069586 -0.0304132 -0.779097 0.353437 0.154315 0.188796 0.237941 0.478759 0.0816349 0.0967783 0.730429 0.010974 -0.169003 -0.378843
internal_weight=0 5.11358 3.78141 0.748365 1.33217 3.03305 2.94463 2.77964 1.34867 0.578162 0.792578 0.539593 1.43097 0.972004 0.939266
internal_count=210 154 126 40 28 86 81 72 27 17 17 11 45 29 56
shrinkage=0.1


Tree=25
num_leaves=16
num_cat=0
split_feature=1 1 8 1 4 8 0 0 8 8 1 3 8 3 2
split_gain=0.162151 0.329434 0.156579 0.138997 0.12031 0.119415 0.261173 0.184412 0.11614 0.100723 0.0866597 0.0650241 0.0448991 0.0994598 0.0842503
threshold=1243.5000000000002 999.00000000000011 0.58640000000000014 1434.5000000000002 0.51430000000000009 0.48310000000000003 0.0020952882571277569 0.0017301925035752509 0.60890000000000011 0.68080000000000018 712.50000000000011 41.744509045591023 0.55070000000000008 13.58771023231427 1881.0000000000002
decision_type=2 2 2 2 2 2 2 2 2 2 2 2 2 2 2
left_child=1 2 -1 -2 -5 7 9 -6 -4 11 -10 12 -7 14 -14
right_child=3 -3 8 4 5 6 -8 -9 10 -11 -12 -13 13 -15 -16
leaf_value=-0.10549592442122067 -0.12323532169936564 0.064934829803589153 0.05999655185311719 -0.10550069268850462 -0.083269972808821202 -0.021783301530106738 -0.068227034451905505 0.083049344845914586 -0.091493701927622267 0.046777101121020452 0.0010003094423176144 -0.082246190575429312 0.05178365281948142 -0.062396712994638254 -0.0050033660513067431
leaf_weight=0.17172266286797799 0.10890507232397828 0.95744245126843441 0.22650593612343076 0.1237451373599473 0.08519708365201982 0.72291680704802386 0.64803245617076732 0.30649341270327568 0.14489969843998551 0.4347847532480954 0.33661171980202198 0.10663579590618601 0.48206841200590111 0.1654563397169112 0.57038349658250809
leaf_count=16 14 14 5 8 6 33 39 7 12 7 9 7 7 9 17
internal_value=0 0.243439 -0.198322 -0.119118 -0.0858632 -0.0518121 -0.116947 0.46873 0.00944724 0.0306398 -0.268336 -0.0621863 -0.0204141 0.0967683 0.210075
internal_weight=0 1.83718 0.87974 3.75462 3.64571 3.52197 3.13028 0.39169 0.708017 2.48225 0.481511 2.04746 1.94083 1.21791 1.05245
internal_count=210 56 42 154 140 132 119 13 26 80 21 73 66 33 24
shrinkage=0.1


Tree=26
num_leaves=16
num_cat=0
split_feature=1 8 8 1 8 1 2 3 3 7 0 1 1 1 8
split_gain=0.176092 0.174522 0.169828 0.167367 0.165542 0.0954214 0.0788028 0.091235 0.0680797 0.067511 0.0986487 0.066212 0.0648501 0.136294 0.102077
threshold=2496.0000000000005 0.44770000000000004 0.49645000000000006 3507.0000000000005 0.53645000000000009 55435.000000000007 1881.0000000000002 13.58771023231427 1.608500148364566 0.33050000000000007 0.00088947140715304183 23528.000000000004 999.00000000000011 1243.5000000000002 0.60890000000000011
decision_type=2 2 2 2 2 2 2 2 2 2 2 2 2 2 2
left_child=1 -1 -3 -2 -4 6 7 -5 -8 10 -6 -9 -11 -14 -15
right_child=3 2 4 5 9 -7 8 11 -10 12 -12 -13 13 14 -16
leaf_value=-0.11757603784617168 -0.097444857278974062 0.085011125319002803 -0.067756621760798511 0.044862073417649077 0.032948213821425237 -0.080717223806569496 -0.0050518269723944104 -0.054598672495594164 -0.06245375321680096 -0.0013615428394875954 -0.060903480871075388 0.020232675452280757 0.083314044167367041 -0.011192256954699517 0.061738586716134802
leaf_weight=0.094494676915929041 0.25327225821092758 0.35764189064502749 0.23928800958674437 0.50076905358582757 0.21894350508227975 0.18038374138995997 0.5649369484744966 0.23148470185697079 0.32575650326907635 0.52518782624974836 0.22928358218632641 0.2417011889629066 0.46937339752912494 0.51868487102910876 0.30462641664780682
leaf_count=7 14 9 14 10 7 14 27 14 21 21 11 12 7 17 5
internal_value=0 0.161357 0.205489 -0.207639 0.11347 -0.112672 -0.0454865 0.151106 -0.260456 0.196999 -0.150602 -0.163752 0.282706 0.403094 0.157923
internal_weight=0 2.95752 2.86303 2.2983 2.50539 2.04503 1.86465 0.973955 0.890693 2.2661 0.448227 0.473186 1.81787 1.29268 0.823311
internal_count=210 98 91 112 82 98 84 36 48 68 18 26 50 29 22
shrinkage=0.1


Tree=27
num_leaves=16
num_cat=0
split_feature=1 8 8 8 1 1 5 1 7 5 8 8 1 7 1
split_gain=0.131315 0.16125 0.126259 0.117202 0.105942 0.0904301 0.158077 0.0755723 0.0874818 0.0798806 0.0574901 0.0573931 0.0692628 0.0699914 0.0608867
threshold=2496.0000000000005 0.44770000000000004 0.49645000000000006 0.51755000000000007 3507.0000000000005 712.50000000000011 0.56500000000000006 9968.5000000000018 0.10250000000000002 0.63500000000000012 0.59990000000000021 0.47060000000000007 16812.500000000004 0.43670000000000003 55435.000000000007
decision_type=2 2 2 2 2 2 2 2 2 2 2 2 2 2 2
left_child=1 -1 -3 -4 -2 6 -5 -6 10 11 -9 -10 -13 -14 -15
right_child=4 2 3 5 7 -7 -8 8 9 -11 -12 12 13 14 -16
leaf_value=-0.12386559297159903 -0.083676165935171992 0.077170504926688352 -0.10017542282466528 0.028585254112390636 0.017256701756258555 0.022999361310171367 -0.11472467005347793 0.054515721834364241 -0.10623312826069418 -0.1106837449448376 -0.037315614822735564 -0.094955229334393876 -0.066174040875382395 0.028041999757454236 -0.054668703453132531
leaf_weight=0.08186120470054481 0.2234282712452117 0.32380377082154188 0.091815266641788518 0.17357383621856604 0.63736027665436257 1.9655426112003622 0.13829349284060299 0.19590987265110005 0.084320992231368783 0.13444204209372401 0.1045563081279397 0.10506434505805372 0.15722646657377479 0.40695928502827883 0.11391493258997798
leaf_count=7 14 9 8 7 14 53 14 5 9 15 6 10 13 18 8
internal_value=0 0.14398 0.186009 0.105961 -0.184695 0.150619 -0.349637 -0.109587 -0.247667 -0.389595 0.225602 -0.278437 -0.194038 -0.0769788 0.0995321
internal_weight=0 2.77489 2.69303 2.36923 2.16318 2.27741 0.311867 1.93975 1.30239 1.00193 0.300466 0.867486 0.783165 0.678101 0.520874
internal_count=210 98 91 82 112 74 21 98 84 73 11 58 49 39 26
shrinkage=0.1


Tree=28
num_leaves=16
num_cat=0
split_feature=1 8 8 0 0 1 1 1 8 8 1 1 1 8 1
split_gain=0.114759 0.141713 0.111608 0.104824 0.0960019 0.0782513 0.0730161 0.0730121 0.0693619 0.0833521 0.266123 0.165049 0.0739736 0.0681386 0.0666605
threshold=2496.0000000000005 0.44770000000000004 0.48310000000000003 0.0057169065169909621 0.0028051199333365838 3507.0000000000005 9968.5000000000018 16812.500000000004 0.53645000000000009 0.5918000000000001 1243.5000000000002 1881.0000000000002 712.50000000000011 0.47060000000000007 1434.5000000000002
decision_type=2 2 2 2 2 2 2 2 2 2 2 2 2 2 2
left_child=1 -1 -3 4 8 -2 -7 -8 -4 10 -10 12 -11 -9 -12
right_child=5 2 3 -5 -6 6 7 13 9 11 14 -13 -14 -15 -16
leaf_value=-0.12598911858542369 -0.075500294045963173 0.090218610408242542 -0.048572378148007356 -0.05288207248487943 0.079965635195299256 0.01666928232293232 -0.10022575999611807 -0.089927962164877154 0.099043623363908484 -0.09660450114581691 -0.12644819368473398 0.056210217666762041 -0.013442868550899455 -0.0087474378835562458 -0.002930804510597222
leaf_weight=0.070663943653926586 0.21118951728567517 0.19534285180270705 0.17650092346593815 0.22802036569919423 0.22675428353250016 0.62002272531390179 0.11817496083676804 0.11579121882095912 0.39286308200098558 0.13308797450736143 0.051315811462700367 0.33291073516011238 0.5448816295247525 0.96558894636109471 0.29413805529475207
leaf_count=7 14 6 11 11 5 14 14 13 9 14 5 5 17 57 8
internal_value=0 0.137213 0.17554 0.115911 0.184211 -0.178814 -0.111939 -0.255957 0.111741 0.172028 0.427455 -0.0145288 -0.297678 -0.1744 -0.212788
internal_weight=0 2.64648 2.57582 2.38047 2.15245 2.03077 1.81958 1.19956 1.9257 1.7492 0.738317 1.01088 0.67797 1.08138 0.345454
internal_count=210 98 91 85 74 112 98 84 69 58 22 36 31 70 13
shrinkage=0.1


Tree=29
num_leaves=16
num_cat=0
split_feature=1 1 4 1 8 8 8 0 0 0 0 0 7 2 1
split_gain=0.0977584 0.20164 0.112923 0.112526 0.0948293 0.0917963 0.0767094 0.192927 0.131775 0.0795353 0.0837218 0.0512008 0.0508082 0.0627082 0.0559518
threshold=1243.5000000000002 999.00000000000011 0.51430000000000009 1434.5000000000002 0.58640000000000014 0.60890000000000011 0.48310000000000003 0.0020952882571277569 0.0017301925035752509 0.001752510742700903 0.0019318600060226857 0.0014971413892899855 0.46775000000000005 1243.5000000000002 40411.000000000007
decision_type=2 2 2 2 2 2 2 2 2 2 2 2 2 2 2
left_child=1 4 -2 -4 -1 -6 8 9 -5 11 -11 12 13 -8 -14
right_child=2 -3 3 6 5 -7 7 -9 -10 10 -12 -13 14 -15 -16
leaf_value=-0.098325857864791089 -0.12185886897679687 0.059154974497958285 -0.12187028845312489 -0.0802766000620381 0.05722361646270311 -0.028533153554434268 -0.035703573174618558 -0.063899268645217819 0.079054672410426935 0.058515482550943014 -0.022418553343579686 -0.054626169488215803 -0.00896715171959909 0.042737309168853072 -0.10408032540959498
leaf_weight=0.11843095533549763 0.08772281697019968 0.71166046336293221 0.082501419354230512 0.066474893130362367 0.18756723124533889 0.37312942906282842 0.13700858596712415 0.51285826228559006 0.23686781618744132 0.43495344556868071 0.18100168276578188 0.2039949963800608 0.6286728261038661 0.39789094030857086 0.068597719538956881
leaf_count=16 8 14 14 6 5 21 8 39 7 8 6 7 32 12 7
internal_value=0 0.219589 -0.100509 -0.0672706 -0.170191 0.00154658 -0.0341519 -0.0903906 0.441386 0.046714 0.347326 -0.0822151 -0.00538875 0.226455 -0.183244
internal_weight=0 1.39079 3.03855 2.95082 0.679128 0.560697 2.86832 2.56498 0.303343 2.05212 0.615955 1.43617 1.23217 0.5349 0.697271
internal_count=210 56 154 146 42 26 132 119 13 80 14 66 59 20 39
shrinkage=0.1


Tree=30
num_leaves=16
num_cat=0
split_feature=8 8 3 0 7 1 1 8 8 0 3 0 0 3 3
split_gain=0.110748 0.147072 0.114682 0.104791 0.0964532 0.0794924 0.185405 0.152984 0.0925361 0.0841479 0.0793951 0.0882039 0.0759877 0.0925387 0.0759096
threshold=0.44770000000000004 0.48310000000000003 1.0005237939809739 0.0057169065169909621 0.23625000000000004 1243.5000000000002 999.00000000000011 0.68080000000000018 0.60890000000000011 0.0009681337451676119 0.38172042992664662 0.00042664295226370146 0.0015950285659673306 9.3991757682324941 2.7795576249980916
decision_type=2 2 2 2 2 2 2 2 2 2 2 2 2 2 2
left_child=4 2 -2 5 -1 6 9 8 14 10 11 -3 13 -10 -7
right_child=1 3 -4 -5 -6 7 -8 -9 12 -11 -12 -13 -14 -15 -16
leaf_value=-0.015401305635046601 0.11475208639835621 -0.078938654780470366 -0.022361572095356309 -0.057827317653726701 -0.14992478927881925 -0.028449745918164671 0.070386617046432384 0.049238170360747902 0.014474154609742421 -0.065040513751606133 -0.076534086713836824 0.065567468162863435 -0.092340116157999183 -0.10447488949857422 0.017029741641559858
leaf_weight=0.13462478527799238 0.19914211239665736 0.05150538892485268 0.087937679141759872 0.30364076630212355 0.08823031245265156 0.69227881589904494 0.5021945908665657 0.41060882993042458 0.23054507980123151 0.20122331008315089 0.074153688736259937 0.23478255793452263 0.2551466915756464 0.091306362301111221 0.78106971550732851
leaf_count=8 6 6 6 24 10 40 10 8 6 16 5 6 11 10 38
internal_value=0 0.0371794 0.727517 -0.0145861 -0.686603 0.033972 0.262376 -0.0647662 -0.176342 -0.132368 0.156837 0.395697 -0.515817 -0.192706 -0.043396
internal_weight=0 4.11554 0.28708 3.82846 0.222855 3.52482 1.06386 2.46096 2.05035 0.561665 0.360442 0.286288 0.576998 0.321851 1.47335
internal_count=210 192 12 180 18 156 43 113 105 33 17 12 27 16 78
shrinkage=0.1


Tree=31
num_leaves=16
num_cat=0
split_feature=0 0 8 8 7 0 1 8 3 0 0 1 1 8 7
split_gain=0.175281 0.0717794 0.0631707 0.184086 0.116075 0.0981879 0.0636168 0.153575 0.163276 0.124358 0.123008 0.0743569 0.0663966 0.0655142 0.0620855
threshold=0.00042664295226370146 0.00033995553188485866 0.44770000000000004 0.48310000000000003 0.58045000000000002 0.0057169065169909621 1243.5000000000002 0.5918000000000001 0.81980196262843164 0.0020952882571277569 0.0012184070068800787 999.00000000000011 1434.5000000000002 0.55070000000000008 0.23625000000000004
decision_type=2 2 2 2 2 2 2 2 2 2 2 2 2 2 2
left_child=1 -1 14 4 -4 6 7 11 10 12 -9 -5 -8 -14 -2
right_child=2 -3 3 5 -6 -7 9 8 -10 -11 -12 -13 13 -15 -16
leaf_value=-0.025432655879101342 -0.010526965727720385 -0.12581559607859621 0.1146037163826667 0.016858521553918041 -0.035471401451467065 -0.053117946189776256 -0.12135228286068789 0.023963128233905326 0.073410234696078089 -0.056977655470623716 -0.090478757632486917 0.10997513799173286 -0.017841065199270759 0.024470647981092299 -0.13085943225220228
leaf_weight=0.14232323016040016 0.13120829127728972 0.14260824164375663 0.24191935919225249 0.1308944134507336 0.065488741267472506 0.29699398262891907 0.038609419483691787 0.16439645085483787 0.18288215156644583 0.35022009164094914 0.21908683096989989 0.24868274852633479 0.53202769206836809 1.1722498880699275 0.063689977978356183
leaf_count=12 8 8 6 9 6 24 6 7 5 27 10 6 32 34 10
internal_value=0 -0.756743 0.0561752 0.0858462 0.826324 0.017613 0.0712443 0.286463 -0.0433965 -0.0260201 -0.414184 0.778646 0.0832437 0.112621 -0.498499
internal_weight=0 0.284931 3.83835 3.64345 0.307408 3.33604 3.03905 0.945943 0.566365 2.09311 0.383483 0.379577 1.74289 1.70428 0.194898
internal_count=210 20 190 172 12 160 136 37 22 99 17 15 72 66 18
shrinkage=0.1


Tree=32
num_leaves=16
num_cat=0
split_feature=1 5 7 5 2 0 1 1 1 1 1 5 0 1 1
split_gain=0.0971688 0.0637052 0.127444 0.0783425 0.0785355 0.0582642 0.0458042 0.0555821 0.0584696 0.051061 0.0870027 0.0806742 0.0465933 0.0348285 0.0785699
threshold=55435.000000000007 0.65500000000000014 0.58045000000000002 0.67000000000000015 23528.000000000004 0.00048636127031704348 40411.000000000007 9968.5000000000018 16812.500000000004 712.50000000000011 467.00000000000006 0.55500000000000016 0.0023291285591354586 1243.5000000000002 1434.5000000000002
decision_type=2 2 2 2 2 2 2 2 2 2 2 2 2 2 2
left_child=1 6 3 4 -3 -2 7 9 -9 10 11 -1 -10 -11 -15
right_child=5 2 -4 -5 -6 -7 -8 8 12 13 -12 -13 -14 14 -16
leaf_value=-0.08386267807975048 -0.0033198377616205361 -0.099204977190426799 -0.11153571988787402 0.030093617966970965 0.02488366544015649 -0.13395360568245787 0.065398825878666508 -0.0978901897779655 0.0076303336164023827 0.035999132254265612 -0.11697983545754481 0.079024212175748149 -0.060603883631123748 -0.12536013497546794 0.013363793918748413
leaf_weight=0.049127555452289307 0.057249471079558016 0.1265366906300186 0.13563945255009455 0.30249999451916665 0.085444075986742973 0.084588719997555004 0.13831411907449354 0.08245639968663443 0.44217898696661001 0.74314996600151084 0.077757200226187692 0.07979035354219377 0.12934709340333941 0.042188713792711385 1.2654312737286089
leaf_count=5 5 13 16 14 5 9 8 11 23 23 12 6 13 6 41
internal_value=0 0.0311391 -0.253064 -0.0257267 -0.49188 -0.812265 0.0917234 0.0650117 -0.191697 0.13938 -0.334371 0.169519 -0.0781235 0.187125 0.0888804
internal_weight=0 3.69986 0.65012 0.514481 0.211981 0.141838 3.04974 2.91143 0.653982 2.25745 0.206675 0.128918 0.571526 2.05077 1.30762
internal_count=210 196 48 32 18 14 148 140 47 93 23 11 36 70 47
shrinkage=0.1


Tree=33
num_leaves=16
num_cat=0
split_feature=1 1 1 0 5 5 1 3 3 5 3 0 0 2 3
split_gain=0.0708462 0.0995639 0.0795467 0.0712525 0.0694019 0.0682907 0.0533951 0.0452764 0.0896489 0.0847763 0.0816799 0.0458093 0.0413681 0.0411721 0.0442554
threshold=2496.0000000000005 3507.0000000000005 712.50000000000011 0.0057169065169909621 0.6100000000000001 0.56500000000000006 55435.000000000007 0.38172042992664662 1.4993842388644152 0.59500000000000008 0.12865058732909687 0.0017743627100873063 0.0019318600060226857 1881.0000000000002 1.608500148364566
decision_type=2 2 2 2 2 2 2 2 2 2 2 2 2 2 2
left_child=2 12 5 7 -5 -1 13 10 -9 -10 11 -4 -2 -3 -15
right_child=1 6 3 4 -6 -7 -8 8 9 -11 -12 -13 -14 14 -16
leaf_value=0.0046721128055415171 -0.039534021848656398 0.015390729480823729 0.043778723778562373 0.0042675798390030169 -0.11061466524111879 -0.10769314062655527 -0.070923503074254879 0.081965435110610427 -0.031580041901702424 0.063130103118602274 -0.054251278034936859 -0.017515746169187527 -0.13697836039977609 0.00070887504354928352 -0.052819628306219626
leaf_weight=0.12517179502174292 0.090043159201741121 0.71345362206920959 0.45448498474434001 0.1816704487428068 0.07400713890092446 0.095242539769969894 0.11962047591805448 0.35547732503619045 0.20485685858875516 0.17545861273538321 0.15292424219660461 0.16663543833419681 0.084404754918068634 0.41407377552241087 0.24633922497741881
leaf_count=10 7 36 17 6 7 18 14 11 8 6 6 9 7 27 21
internal_value=0 -0.151941 0.127612 0.198327 -0.289857 -0.438817 -0.0684395 0.280996 0.45861 0.121145 0.11216 0.273345 -0.866814 -0.0126464 -0.192577
internal_weight=0 1.66794 1.98593 1.76552 0.255678 0.220414 1.49349 1.50984 0.735793 0.380315 0.774045 0.62112 0.174448 1.37387 0.660413
internal_count=210 112 98 70 13 28 98 57 25 14 32 26 14 84 48
shrinkage=0.1


Tree=34
num_leaves=16
num_cat=0
split_feature=1 1 1 7 0 1 1 1 5 2 0 3 5 0 6
split_gain=0.0650321 0.0517758 0.0509685 0.0643436 0.0951755 0.0506796 0.0839875 0.0685141 0.0488228 0.0517716 0.0403239 0.0817715 0.0339669 0.0337177 0.0308257
threshold=9968.5000000000018 16812.500000000004 712.50000000000011 0.58045000000000002 0.00087786804756971625 1243.5000000000002 1434.5000000000002 999.00000000000011 0.6100000000000001 999.00000000000011 0.0019534492068226674 0.52405024657060195 0.43500000000000005 0.00082141320976745742 0.65000000000000002
decision_type=2 2 2 2 2 2 2 2 2 2 2 2 2 2 2
left_child=2 -2 3 -1 -5 7 -7 13 9 -8 11 -11 -3 -4 -14
right_child=1 12 5 4 -6 6 8 -9 -10 10 -12 -13 14 -15 -16
leaf_value=-0.11019451260777682 -0.098034174215024639 -0.12332311905653728 0.028973017223360362 -0.11843183343915115 0.06461015322160045 -0.11989702931191433 -0.024083632243613859 0.055089990069970764 -0.028211257220042557 0.0099148839113306353 -0.00394261117352376 0.086025707604487883 -0.0074848732808201514 -0.035992590217486686 -0.10365019777593446
leaf_weight=0.078741403762251902 0.082337868399917954 0.028048410313203927 0.15791986696422133 0.042281449888832874 0.086567327845841632 0.054817378113511839 0.24514611158519961 0.51314128935337067 0.31765292980708171 0.32398740388453007 0.26732993545010686 0.2501460500061512 0.8067458365112542 0.16168347559869287 0.034769682213664055
leaf_count=15 14 5 5 8 5 14 10 14 19 12 10 5 59 9 6
internal_value=0 -0.222431 0.0847127 -0.389769 0.0454532 0.127691 0.0153485 0.324529 0.0627512 0.163567 0.281383 0.430759 -0.150665 -0.038923 -0.114582
internal_weight=0 0.951902 2.49941 0.20759 0.128849 2.29182 1.45908 0.832745 1.40426 1.08661 0.841463 0.574133 0.869564 0.319603 0.841516
internal_count=210 84 126 28 13 98 70 28 56 37 27 17 70 14 65
shrinkage=0.1


Tree=35
num_leaves=16
num_cat=0
split_feature=1 8 8 0 1 1 1 8 1 1 0 7 2 3 8
split_gain=0.0602642 0.0588139 0.0626002 0.0564374 0.0505202 0.0811051 0.0639468 0.0539858 0.047877 0.0434349 0.0559649 0.0475529 0.0744848 0.0420943 0.0709487
threshold=2496.0000000000005 0.44770000000000004 0.48310000000000003 0.0078770732699921676 999.00000000000011 1243.5000000000002 1434.5000000000002 0.55070000000000008 3507.0000000000005 9968.5000000000018 0.0012184070068800787 0.10250000000000002 1243.5000000000002 15.691383239313604 0.50255000000000016
decision_type=2 2 2 2 2 2 2 2 2 2 2 2 2 2 2
left_child=1 -1 -3 4 -4 -6 -7 -8 -2 10 -10 12 -11 14 -13
right_child=8 2 3 -5 5 6 7 -9 9 11 -12 13 -14 -15 -16
leaf_value=-0.095520644378857988 -0.069339091293793106 0.083070288076869253 -0.011981930301720589 -0.055275961119578387 0.066115504050993965 -0.11713542617124598 -0.02595704844682379 0.035948705116738956 -0.034374222364291954 -0.084106761521426321 0.040964031108986144 -0.0018751975793495077 0.052320194450954011 -0.0058672133811630165 -0.089205908421719216
leaf_weight=0.049097239796538239 0.14520110911689688 0.12695388006977726 0.46167973231058562 0.12192263745237132 0.35975450277328469 0.03894652018789202 0.21336243860423565 0.41461162827908993 0.14603643491864182 0.052839912939816713 0.30356345325708389 0.15067520085722208 0.16493573598563671 0.29565479583106929 0.24314707447774708
leaf_count=7 14 6 35 7 10 11 10 12 7 5 7 13 6 27 33
internal_value=0 0.124137 0.154641 0.10134 0.154923 0.27847 0.0720397 0.149154 -0.147631 -0.0892271 0.164931 -0.215178 0.192183 -0.343846 -0.557934
internal_weight=0 1.78633 1.73723 1.61028 1.48835 1.02668 0.666921 0.627974 1.50205 1.35685 0.4496 0.907253 0.217776 0.689477 0.393822
internal_count=210 98 91 85 78 43 33 22 112 98 14 84 11 73 46
shrinkage=0.1


Tree=36
num_leaves=16
num_cat=0
split_feature=1 4 8 2 0 0 8 1 8 1 1 1 8 3 1
split_gain=0.0547256 0.037244 0.063924 0.124922 0.0431486 0.0392081 0.0337885 0.0389668 0.0305026 0.0451966 0.0719614 0.0439708 0.0361506 0.0366024 0.0541124
threshold=9968.5000000000018 0.96155000000000013 0.55870000000000009 712.50000000000011 0.0019534492068226674 0.00042664295226370146 0.47060000000000007 16812.500000000004 0.59990000000000021 1243.5000000000002 1881.0000000000002 712.50000000000011 0.64520000000000011 0.52405024657060195 2496.0000000000005
decision_type=2 2 2 2 2 2 2 2 2 2 2 2 2 2 2
left_child=1 4 3 -3 -1 -4 -2 -8 9 -7 -11 -10 -13 -14 -15
right_child=6 2 5 -5 -6 8 7 -9 11 10 -12 12 13 14 -16
leaf_value=0.059409657983036893 -0.084079962996253282 0.045780541534031896 -0.068420442946546631 -0.076589960742310059 0.0049016422148498153 0.082057854897877591 -0.086183287265079692 -0.008168481951777622 -0.079945931098559631 -0.067937187250683623 0.052293776821848159 -0.034291953067609342 -0.0082496680950486945 0.068061020666020766 -0.0072365388114696855
leaf_weight=0.2681033611297613 0.078399103833362349 0.12516377959400429 0.059236666886135832 0.25015130557585508 0.31686781626194715 0.14673104416578986 0.070375272538512945 0.709373525576666 0.057316645281389363 0.076457302551716566 0.14268108131363988 0.1468658895464614 0.267276331782341 0.25099284574389458 0.15400037821382284
leaf_count=10 13 5 7 35 11 6 14 57 9 7 5 10 9 6 6
internal_value=0 0.0815771 0.00578678 -0.357806 0.298837 0.110632 -0.215015 -0.152096 0.148531 0.391054 0.103452 0.0472919 0.106541 0.204731 0.394288
internal_weight=0 2.26184 1.67687 0.375315 0.584971 1.30156 0.858148 0.779749 1.24232 0.365869 0.219138 0.876452 0.819135 0.67227 0.404993
internal_count=210 126 105 40 21 65 84 71 58 18 12 40 31 21 12
shrinkage=0.1


Tree=37
num_leaves=16
num_cat=0
split_feature=1 5 3 3 3 4 8 2 3 3 8 5 3 3 3
split_gain=0.0497358 0.0420741 0.0427225 0.0729169 0.0475269 0.0328014 0.0728662 0.0623948 0.0451047 0.0458183 0.033808 0.0413216 0.0370008 0.0372843 0.0325818
threshold=19386.000000000004 0.64500000000000013 20.004048233157366 1.0005237939809739 41.744509045591023 0.96155000000000013 0.52015000000000011 712.50000000000011 0.049993941023791781 13.58771023231427 0.52425000000000022 0.49500000000000005 0.66739574018155534 0.054576928930147622 0.019827912916779194
decision_type=2 2 2 2 2 2 2 2 2 2 2 2 2 2 2
left_child=5 2 3 -2 -4 10 7 -7 14 -10 11 -1 13 -12 -8
right_child=1 -3 4 -5 -6 6 8 -9 9 -11 12 -13 -14 -15 -16
leaf_value=0.0048742141648315616 0.046388733729181612 -0.11423333812451729 0.038212033081273716 -0.083128148534048402 -0.057902228269553449 0.0094953773412844791 0.00079181514010738172 -0.093238609287196975 0.015071543121183027 -0.096086046950538129 -0.014974343996118395 0.092462993326414 -0.031078193752397676 0.057928507112228717 -0.10129893960299147
leaf_weight=0.091088431188837263 0.05847204104065884 0.0509525032248348 0.17564907600171864 0.1694071072852239 0.072758287191390991 0.099250545259565212 0.062115090433508047 0.14620312739862129 1.3743121344596145 0.038110074587166198 0.11465691402554512 0.13179200794547796 0.15208559855818748 0.18072706833481789 0.062934109591878951
leaf_count=5 5 10 10 22 9 6 5 25 75 5 5 6 6 6 10
internal_value=0 -0.278649 -0.186254 -0.498951 0.100603 0.0598852 -0.0110166 -0.516976 0.0697586 0.120723 0.248462 0.566666 0.0899679 0.296304 -0.505879
internal_weight=0 0.527239 0.476287 0.227879 0.248407 2.45328 1.78293 0.245454 1.53747 1.41242 0.67035 0.22288 0.44747 0.295384 0.125049
internal_count=210 56 46 27 19 154 126 31 95 80 28 11 17 11 15
shrinkage=0.1


Tree=38
num_leaves=16
num_cat=0
split_feature=1 1 8 1 1 0 1 8 0 0 1 5 2 3 5
split_gain=0.0422365 0.0303875 0.0326522 0.0297935 0.0541444 0.0531118 0.0436262 0.0637915 0.0621689 0.0803998 0.0560932 0.0360543 0.0413304 0.0353218 0.0300475
threshold=9968.5000000000018 16812.500000000004 0.47060000000000007 712.50000000000011 467.00000000000006 0.00087786804756971625 1243.5000000000002 0.5918000000000001 0.0023436425850236107 0.0012184070068800787 1434.5000000000002 0.6100000000000001 999.00000000000011 0.4751472296782982 0.54500000000000015
decision_type=2 2 2 2 2 2 2 2 2 2 2 2 2 2 2
left_child=3 -2 -3 4 5 -1 7 13 9 -9 -8 12 -12 -5 -14
right_child=1 2 -4 6 -6 -7 10 8 -10 -11 11 -13 14 -15 -16
leaf_value=-0.11066836218003806 -0.087956702554840227 -0.081865492800737627 -0.0074022011051524759 0.098900649017154216 -0.1125724029356571 0.048710773193036058 -0.11818690190886648 0.031348481479982732 0.060674224044554831 -0.07779410241594846 -0.025922697226076132 -0.028317682848784644 -0.0080460181487314111 0.027961327675123493 0.037649285072830233
leaf_weight=0.028125939541497117 0.060657402733340741 0.064814826590009034 0.64400592003948987 0.15784359583631147 0.056677813641726971 0.081482829584274427 0.03914046668796789 0.13760313577950001 0.13621970359236002 0.13247117213904858 0.21011498337611531 0.27437859983183444 0.2013996266759932 0.12639226205646992 0.50404791859909892
leaf_count=6 14 13 57 8 14 8 14 5 5 5 10 19 9 5 18
internal_value=0 -0.200245 -0.142112 0.0738693 -0.332193 0.0781361 0.109044 0.310169 0.0559496 -0.221858 -0.00395275 0.0347922 0.130082 0.673558 0.246036
internal_weight=0 0.769478 0.708821 2.0859 0.166287 0.109609 1.91961 0.69053 0.406294 0.270074 1.22908 1.18994 0.915563 0.284236 0.705448
internal_count=210 84 70 126 28 14 98 28 15 10 70 56 37 13 27
shrinkage=0.1


Tree=39
num_leaves=16
num_cat=0
split_feature=0 1 1 0 1 8 0 8 0 0 0 7 0 5 8
split_gain=0.0428097 0.0405686 0.0815655 0.055066 0.0488296 0.0435239 0.0421051 0.0625582 0.0902339 0.0604705 0.0424756 0.050372 0.0395657 0.0322649 0.0285975
threshold=0.00042664295226370146 1243.5000000000002 999.00000000000011 0.0017301925035752509 1434.5000000000002 0.58640000000000014 0.0019318600060226857 0.48310000000000003 0.011035889998469137 0.0017301925035752509 0.00099849331387414373 0.58045000000000002 0.0026521713104910899 0.55500000000000016 0.52015000000000011
decision_type=2 2 2 2 2 2 2 2 2 2 2 2 2 2 2
left_child=-1 2 3 5 -3 -2 9 8 -8 10 14 -12 -5 -7 -6
right_child=1 4 -4 12 6 13 7 -9 -10 -11 11 -13 -14 -15 -16
leaf_value=-0.049081664979510581 -0.064592274867825816 -0.12028370782182594 0.055340493923156743 -0.097357988616201166 -0.047723966991467248 -0.028015835201945567 -0.11969444593028805 -0.042670103603435663 0.067180213917472101 0.046293293293195703 -0.096674625426622932 -0.0042000438323025633 0.0015391314168478089 0.068712994060282542 0.017678643507274945
leaf_weight=0.16690463817212764 0.046153864765074437 0.036024905799422302 0.38047202862799168 0.091874591540545211 0.076794840162619712 0.046229386702179909 0.032306099776178487 0.45636589615605766 0.1290671955794096 0.31094220234081149 0.096211484167724834 0.15190617926418781 0.072277228580787778 0.13572878064587712 0.5165590203832835
leaf_count=20 11 14 14 10 13 5 5 46 5 10 8 10 5 5 29
internal_value=0 0.0317652 0.223518 -0.0964526 -0.0502723 0.221382 -0.0268161 -0.237467 0.297689 0.0861012 -0.0531463 -0.400585 -0.538129 0.441375 0.0921391
internal_weight=0 2.57891 0.772736 0.392264 1.80618 0.228112 1.77015 0.617739 0.161373 1.15241 0.841472 0.248118 0.164152 0.181958 0.593354
internal_count=210 190 50 36 140 21 126 56 10 70 60 18 15 10 42
shrinkage=0.1


Tree=40
num_leaves=16
num_cat=0
split_feature=0 0 1 5 5 1 3 5 1 1 1 2 3 3 3
split_gain=0.0398969 0.0784461 0.0668149 0.0724145 0.0675296 0.0657218 0.0591461 0.054877 0.0384463 0.0328705 0.0381741 0.0318982 0.0289906 0.0793767 0.0438634
threshold=0.0009681337451676119 0.00042664295226370146 999.00000000000011 0.65500000000000014 0.58500000000000008 9968.5000000000018 20.004048233157366 0.69500000000000006 19386.000000000004 55435.000000000007 23528.000000000004 1881.0000000000002 1.3055296880733946 1.9085570139381647 0.4751472296782982
decision_type=2 2 2 2 2 2 2 2 2 2 2 2 2 2 2
left_child=1 -1 4 5 -2 12 8 -5 -3 10 -7 -6 14 -14 -4
right_child=2 6 3 7 11 9 -8 -9 -10 -11 -12 -13 13 -15 -16
leaf_value=-0.047723906597296376 -0.0048578229963791254 0.021643246504644567 0.012972987223812925 -0.10184177562145552 -0.054477702979290103 -0.059217099216285554 0.080980401642751249 -0.00090571053638592081 -0.070643070152791171 -0.11719220340229333 0.016610479505897616 -0.1627708704542179 -0.069383215859355543 0.025803945235730392 0.073671300315945515
leaf_weight=0.16188370762392912 0.10900170588865864 0.61162603355478495 0.30095533421263082 0.1163717147137503 0.048080673674121499 0.12917158170603216 0.16996172722429037 0.10027927055489272 0.048739107965957366 0.040270945406518877 0.13660353026352823 0.06263028085231781 0.11616006586700678 0.35639541642740369 0.19697802630253136
leaf_count=20 12 44 15 16 5 19 9 11 7 7 13 5 5 15 7
internal_value=0 0.159566 -0.0924301 -0.0166698 -0.607303 0.0740537 0.28372 -0.551224 0.148319 -0.330001 -0.202431 -1.1574 0.201473 0.0240575 0.369847
internal_weight=0 0.992211 1.7129 1.49319 0.219713 1.27653 0.830327 0.216651 0.660365 0.306046 0.265775 0.110711 0.970489 0.472555 0.497933
internal_count=210 80 130 108 22 81 60 27 51 39 32 10 42 20 22
shrinkage=0.1


Tree=41
num_leaves=16
num_cat=0
split_feature=6 3 8 8 4 3 0 2 2 0 7 0 3 3 7
split_gain=0.0367859 0.0644432 0.0337278 0.0768333 0.0444718 0.0797307 0.127671 0.0576337 0.0433815 0.0427728 0.0420152 0.0440209 0.0507862 0.0398682 0.0335159
threshold=0.65000000000000002 1.1530000000000002 0.55870000000000009 0.5918000000000001 0.96155000000000013 1.0005237939809739 0.0019534492068226674 712.50000000000011 1243.5000000000002 0.0009681337451676119 0.55485000000000018 0.001752510742700903 0.52405024657060195 7.7739503974090036 0.49670000000000009
decision_type=2 2 2 2 2 2 2 2 2 2 2 2 2 2 2
left_child=2 -2 4 8 5 -1 -7 -6 -4 -9 13 -12 -13 14 -5
right_child=1 -3 3 10 7 6 -8 9 -10 -11 11 12 -14 -15 -16
leaf_value=0.036055806319799204 0.010271363585112173 -0.11455121798537504 -0.020388560653014604 0.0094847388918990541 0.018579082338488935 0.043480716507065399 -0.10831018954516657 -0.019263032887434119 0.078535958097921188 -0.091836025667797236 -0.016722603300602056 -0.043906066522466369 0.045596355311054798 -0.10764217530214529 -0.078726588098826711
leaf_weight=0.37637846241705192 0.092840678989887127 0.07459206081693992 0.054823267273604759 0.16762007097713627 0.14853395114187151 0.10154818941373378 0.12196302495431156 0.15782637888332829 0.23160479008220136 0.16729559164377861 0.30416109983343631 0.074963436927646399 0.41092882584780455 0.055718354880809777 0.057968730106949806
leaf_count=22 10 10 5 9 12 10 12 19 11 33 20 7 15 9 6
internal_value=0 -0.453377 0.0312216 0.13595 -0.101236 0.0796176 -0.393468 -0.330289 0.596015 -0.566064 0.0129522 0.13112 0.317879 -0.318922 -0.131826
internal_weight=0 0.167433 2.43133 1.35779 1.07355 0.59989 0.223511 0.473656 0.286428 0.325122 1.07136 0.790053 0.485892 0.281307 0.225589
internal_count=210 20 190 82 108 44 22 64 16 52 66 42 22 24 15
shrinkage=0.1


Tree=42
num_leaves=16
num_cat=0
split_feature=0 3 5 2 5 3 1 1 3 8 0 0 8 3 5
split_gain=0.262217 0.189035 0.17822 0.186126 0.149289 0.115173 0.0612115 0.0852464 0.0557566 0.0567509 0.0495109 0.043207 0.0326475 0.026982 0.0252127
threshold=0.0069631644804298322 0.016383833362809821 0.43500000000000005 1881.0000000000002 0.58500000000000008 1.0005237939809739 1243.5000000000002 999.00000000000011 0.33304623924065585 0.58640000000000014 0.0020952882571277569 0.0017301925035752509 0.57890000000000008 0.76622894910705897 0.58500000000000008
decision_type=2 2 2 2 2 2 2 2 2 2 2 2 2 2 2
left_child=1 -1 3 -3 5 -2 7 8 9 -4 11 -8 -9 -6 -13
right_child=4 2 6 -5 13 -7 10 12 -10 -11 -12 14 -14 -15 -16
leaf_value=-0.15146005459337758 0.15348538451476418 -0.17306879291053456 -0.095746555482701834 0.021542199578295479 0.022886211862201133 0.0047165635448804099 -0.013021598700712685 0.10798470594940116 -0.061392992717018396 0.051589399692907614 -0.052501304449570976 0.048516182859885321 0.038697624566197963 -0.070451706056176525 -0.01133079611309863
leaf_weight=0.094756481528748604 0.2055415044305845 0.12385168101172928 0.031444391119293758 0.081472344696521759 0.07713085412979126 0.069679963635280728 0.84550448984373339 0.1231322018429637 0.11665782239288092 0.15506231982726604 0.22282526420894999 0.224758316995576 0.15189963206648829 0.051751685910858207 0.10249516810290515
leaf_count=6 6 5 8 9 5 6 74 6 12 11 32 9 6 9 6
internal_value=0 -0.131914 -0.0717895 -0.958474 0.742272 1.1582 0.0204485 0.294043 -0.0716803 0.267491 -0.0929029 -0.0108015 0.697176 -0.145928 0.297722
internal_weight=0 2.27386 2.1791 0.205324 0.404104 0.275221 1.97378 0.578196 0.303165 0.186507 1.39558 1.17276 0.275032 0.128883 0.327253
internal_count=210 184 178 14 26 12 164 43 31 19 121 89 12 14 15
shrinkage=0.1


Tree=43
num_leaves=16
num_cat=0
split_feature=1 1 1 7 1 1 2 8 5 0 0 8 0 3 3
split_gain=0.0349699 0.0260474 0.0403991 0.0436578 0.0256027 0.0402618 0.0308619 0.0452866 0.0430122 0.0237636 0.0696163 0.0253499 0.0258888 0.0230313 0.0266997
threshold=9968.5000000000018 712.50000000000011 467.00000000000006 0.58045000000000002 1243.5000000000002 1434.5000000000002 999.00000000000011 0.5918000000000001 0.57500000000000007 0.0078770732699921676 0.0020952882571277569 0.55070000000000008 0.0017301925035752509 0.76622894910705897 1.1530000000000002
decision_type=2 2 2 2 2 2 2 2 2 2 2 2 2 2 2
left_child=1 2 3 -1 6 -6 -3 8 -8 10 11 12 -7 -2 -15
right_child=13 4 -4 -5 5 9 7 -9 -10 -11 -12 -13 -14 14 -16
leaf_value=-0.095920534886720255 -0.07921965703895166 0.078753982884550169 -0.1130091521032707 0.055100916309107677 -0.11626365971863979 -0.049491867178283896 0.10608003412549319 -0.0092239718090329405 0.0081950664315816168 0.053935548319575304 -0.057754463119938863 0.025279996274655738 0.022353662883309894 0.04543228606872874 -0.021272985843322361
leaf_weight=0.02875728742219541 0.058960921829566248 0.10061872377991664 0.044220729789230966 0.057248618802987039 0.028063355304766224 0.10897390055470169 0.087764930445700884 0.26099831145256758 0.091893995646387339 0.090853400994092226 0.16799095924943686 0.52404241519980133 0.092921381117776036 0.067684949259273708 0.52882233110722165
leaf_count=8 11 5 14 6 14 10 6 12 5 5 15 21 5 6 67
internal_value=0 0.0762634 -0.353331 0.0460476 0.112261 0.0184318 0.287836 0.173735 0.560127 0.0520887 0.00256591 0.136811 -0.164253 -0.195973 -0.13704
internal_weight=0 1.68435 0.130227 0.0860059 1.55412 1.01285 0.541276 0.440657 0.179659 0.984782 0.893929 0.725938 0.201895 0.655468 0.596507
internal_count=210 126 28 14 98 70 28 23 11 56 51 36 15 84 73
shrinkage=0.1


Tree=44
num_leaves=16
num_cat=0
split_feature=1 8 1 8 0 0 1 7 0 5 1 3 7 2 7
split_gain=0.0365284 0.0444612 0.0433411 0.0410504 0.0278171 0.0248813 0.0248374 0.0367675 0.0261397 0.0241354 0.0224936 0.0337029 0.040634 0.0220464 0.0212951
threshold=2496.0000000000005 0.44770000000000004 3507.0000000000005 0.48310000000000003 0.0019318600060226857 0.0078770732699921676 9968.5000000000018 0.10250000000000002 0.0012184070068800787 0.63500000000000012 712.50000000000011 0.33304623924065585 0.58045000000000002 1243.5000000000002 0.43670000000000003
decision_type=2 2 2 2 2 2 2 2 2 2 2 2 2 2 2
left_child=1 -1 4 -3 -2 10 8 13 -4 14 11 12 -5 -8 -9
right_child=2 3 6 5 -6 -7 7 9 -10 -11 -12 -13 -14 -15 -16
leaf_value=-0.10475161427891798 -0.028039561171506286 0.088460670302754271 -0.025587054051520376 -0.097583632708457713 -0.13218626134854866 -0.043673417310662765 -0.046804675208216816 -0.070398430638137971 0.036644614088694648 -0.097356452667754945 0.019812200902930326 -0.10929364952234411 0.059373029489765784 0.044668672103794889 -0.01342807725932519
leaf_weight=0.03176863485714454 0.056801120168529222 0.071678670123219379 0.1000209031626582 0.024193766992538945 0.046757334843277931 0.079110697988653444 0.033828890416771173 0.080870188656263053 0.20756366290152076 0.050365111557766802 0.89806549303466443 0.034888785565271974 0.051828143768943846 0.11914754658937454 0.34774194250348955
leaf_count=7 7 6 7 9 7 7 5 15 7 15 55 7 7 6 43
internal_value=0 0.119625 -0.136648 0.151595 -0.750625 0.103308 -0.0689737 -0.182406 0.16408 -0.318721 0.145651 -0.27922 0.09422 0.244404 -0.241772
internal_weight=0 1.19153 1.0431 1.15977 0.103558 1.08809 0.939538 0.631954 0.307585 0.478977 1.00898 0.110911 0.0760219 0.152976 0.428612
internal_count=210 98 112 91 14 85 98 84 14 73 78 23 16 11 58
shrinkage=0.1


Tree=45
num_leaves=16
num_cat=0
split_feature=1 8 8 1 1 7 0 3 8 3 8 0 0 0 8
split_gain=0.0362419 0.0333942 0.0344783 0.0304056 0.0248319 0.0252094 0.0233156 0.0217798 0.0438721 0.021802 0.0201491 0.0190541 0.0182341 0.0211201 0.0239452
threshold=2496.0000000000005 0.44770000000000004 0.48310000000000003 3507.0000000000005 9968.5000000000018 0.10250000000000002 0.0019318600060226857 15.691383239313604 0.50255000000000016 35.933259660667737 0.47060000000000007 0.0012184070068800787 0.0057169065169909621 0.0028051199333365838 0.53645000000000009
decision_type=2 2 2 2 2 2 2 2 2 2 2 2 2 2 2
left_child=1 -1 -3 6 11 -6 -2 8 10 -9 -7 -5 13 14 -4
right_child=3 2 12 4 5 7 -8 9 -10 -11 -12 -13 -14 -15 -16
leaf_value=-0.097057046454322116 -0.026502208508937787 0.084612216383765079 -0.041364040497177346 -0.020881591185428892 0.016776206803075719 -0.091370797733612993 -0.12776556465382913 0.022031336058411899 -0.082722789855897969 -0.04490559856165497 0.022075099241058323 0.03330332438715608 -0.026560973273534301 0.06043261878509823 0.015548504933698585
leaf_weight=0.027378978062188582 0.05530424928292621 0.066413274034857639 0.081820797466207074 0.096659654751420021 0.14310302492231133 0.019255853025242686 0.038612167350947857 0.1149808095069602 0.16084591031540185 0.084359947009943426 0.083742240909487023 0.1975046303123236 0.1189035586285172 0.09228423098102212 0.76625980663811777
leaf_count=7 7 6 11 7 11 6 7 12 33 15 7 7 11 5 58
internal_value=0 0.120641 0.147181 -0.139894 -0.0834203 -0.199093 -0.681349 -0.312434 -0.500918 -0.0629602 0.00865993 0.154987 0.103359 0.150013 0.100577
internal_weight=0 1.15306 1.12568 0.994368 0.900452 0.606288 0.0939164 0.463185 0.263844 0.199341 0.102998 0.294164 1.05927 0.940365 0.848081
internal_count=210 98 91 112 98 84 14 73 46 27 13 14 85 74 69
shrinkage=0.1


Tree=46
num_leaves=16
num_cat=0
split_feature=1 8 8 1 0 1 1 2 1 6 1 7 0 8 1
split_gain=0.0283065 0.0273223 0.0276349 0.0219994 0.0204606 0.0191361 0.0204882 0.01846 0.0372731 0.027024 0.0280015 0.0206734 0.0149726 0.0137009 0.0378057
threshold=2496.0000000000005 0.44770000000000004 0.48310000000000003 3507.0000000000005 0.0019318600060226857 9968.5000000000018 16812.500000000004 1434.5000000000002 55435.000000000007 0.55000000000000016 19386.000000000004 0.43670000000000003 0.0012184070068800787 0.55870000000000009 1881.0000000000002
decision_type=2 2 2 2 2 2 2 2 2 2 2 2 2 2 2
left_child=1 -1 -3 4 -2 12 -7 8 -8 11 -11 -9 -5 14 -4
right_child=3 2 13 5 -6 6 7 9 -10 10 -12 -13 -14 -15 -16
leaf_value=-0.094972205841062807 -0.022636274915422288 0.077414122681595934 0.014401602037576592 -0.019031822120148589 -0.12237012096345604 -0.083670619779777175 0.01896639888154629 -0.05046668257613917 -0.12330067740766751 -0.01126296922585223 -0.10334411701166334 0.025102673816386725 0.029572122902545839 0.017010862605915788 -0.059845338050949465
leaf_weight=0.023910412885016163 0.05419531906954933 0.062944007571786531 0.23008889435732249 0.095050647854804993 0.033153434749692678 0.044220938696525991 0.22550115408375856 0.05623219336848706 0.020053300191648304 0.058922953903675079 0.075137496693059802 0.10162457602564244 0.19021920301020143 0.70602281700121239 0.097701200749725103
leaf_count=7 7 6 26 7 7 14 20 12 5 6 16 11 7 53 6
internal_value=0 0.107781 0.130836 -0.12657 -0.604905 -0.078376 -0.182418 -0.128586 0.073481 -0.29856 -0.628721 -0.0181686 0.133775 0.0916679 -0.0772846
internal_weight=0 1.12067 1.09676 0.954311 0.0873488 0.866962 0.581693 0.537472 0.245554 0.291917 0.13406 0.157857 0.28527 1.03381 0.32779
internal_count=210 98 91 112 14 98 84 70 25 45 22 23 14 85 32
shrinkage=0.1


Tree=47
num_leaves=16
num_cat=0
split_feature=1 1 1 1 3 3 3 3 1 7 8 7 1 0 3
split_gain=0.0200584 0.0282907 0.0325144 0.0520272 0.0266659 0.0496466 0.0194261 0.0346312 0.0193368 0.0179687 0.0178096 0.0174322 0.0172745 0.0215446 0.0139708
threshold=2496.0000000000005 999.00000000000011 1243.5000000000002 1434.5000000000002 1.3055296880733946 0.52405024657060195 0.33304623924065585 0.049993941023791781 712.50000000000011 0.50160000000000016 0.58640000000000014 0.50160000000000016 3507.0000000000005 0.0019318600060226857 2.3281785580709751
decision_type=2 2 2 2 2 2 2 2 2 2 2 2 2 2 2
left_child=1 6 -3 -4 5 11 7 9 -8 -1 -9 -5 13 -2 -6
right_child=12 2 3 4 14 -7 8 10 -10 -11 -12 -13 -14 -15 -16
leaf_value=0.025312417540145623 -0.016006271868540638 0.04760503945176426 -0.12585119857976509 0.026099768250747109 -0.057531949036225938 0.088576253845144795 -0.11306169463787266 -0.049906609738392067 -0.023623944807149581 -0.080604179914188445 0.059135825598729742 -0.033095027096183144 -0.0065273566915279961 -0.12206505386394516 0.0020859315958819628
leaf_weight=0.023279785964405383 0.052985747577622415 0.26833797479048366 0.028854591146227904 0.12392135756090283 0.06102657038718462 0.098514966201037169 0.032126471749506891 0.017964312108233571 0.097653114702552557 0.051343079539947205 0.090112492907792316 0.083116866182535873 0.84355415921891108 0.029996576486155391 0.11044224444776772
leaf_count=6 7 14 14 7 5 5 8 5 7 10 6 6 98 7 5
internal_value=0 0.0921678 0.194673 0.0454194 0.124293 0.301409 -0.161805 0.0483383 -0.457639 -0.475618 0.41011 0.0233563 -0.1081 -0.543446 -0.191324
internal_weight=0 1.08669 0.774215 0.505877 0.477022 0.305553 0.312479 0.1827 0.12978 0.0746229 0.108077 0.207038 0.926536 0.0829823 0.171469
internal_count=210 98 56 42 28 18 42 27 15 16 11 13 112 14 10
shrinkage=0.1


Tree=48
num_leaves=16
num_cat=0
split_feature=1 1 1 1 0 3 3 1 0 0 0 1 5 3 0
split_gain=0.0205906 0.0228881 0.0234454 0.0424317 0.0259422 0.0178045 0.0236132 0.0167023 0.0238033 0.0170317 0.0261844 0.0296363 0.020874 0.0289461 0.0238611
threshold=2496.0000000000005 999.00000000000011 1243.5000000000002 1434.5000000000002 0.0020952882571277569 0.33304623924065585 0.049993941023791781 3507.0000000000005 0.0019534492068226674 0.00042664295226370146 0.00048636127031704348 55435.000000000007 0.64500000000000013 2.6197312513940325 0.0012184070068800787
decision_type=2 2 2 2 2 2 2 2 2 2 2 2 2 2 2
left_child=1 5 -3 -4 -5 6 -1 8 -2 -9 -11 12 14 -14 -12
right_child=7 2 3 4 -6 -7 -8 9 -10 10 11 -13 13 -15 -16
leaf_value=-0.038308619910569087 -0.015595572755272942 0.043337885945157466 -0.1213854925044336 0.030028256328847543 -0.019929081510406659 -0.042960649677541873 0.037223359618015567 -0.061398187230947025 -0.13017355888375381 0.04448963087703367 -0.022528029330481453 -0.10982557409290244 0.029766957058398026 -0.094006534578125411 0.019199189780405461
leaf_weight=0.069254245318006502 0.053629508358426496 0.25783721730113029 0.0248018920829054 0.30289685633033514 0.15825502993538976 0.12321326870005578 0.10286979482043536 0.053362411679700017 0.027392682619392872 0.10099785681813955 0.24003913393244147 0.028544931847136468 0.028576091455761343 0.055768605787307024 0.31937940593343228
leaf_count=16 8 14 14 14 14 15 11 11 6 6 26 9 5 11 30
internal_value=0 0.0961183 0.189638 0.0603143 0.128842 -0.139407 0.0683301 -0.110037 -0.543331 -0.0675692 -0.0298637 -0.101185 -0.0569739 -0.520719 0.0129459
internal_weight=0 1.03913 0.743791 0.485954 0.461152 0.295337 0.172124 0.907691 0.0810222 0.826668 0.773306 0.672308 0.643763 0.0843447 0.559419
internal_count=210 98 56 42 28 42 27 112 14 98 87 81 72 16 56
shrinkage=0.1


Tree=49
num_leaves=16
num_cat=0
split_feature=1 1 0 0 3 8 0 8 0 7 3 8 8 0 1
split_gain=0.0249971 0.0258222 0.0264807 0.0334733 0.0157834 0.0173498 0.0221436 0.0200286 0.0174719 0.01834 0.0176776 0.0122811 0.0315855 0.0269984 0.0401828
threshold=9968.5000000000018 712.50000000000011 0.00087786804756971625 0.0011132480528156681 0.76622894910705897 0.57890000000000008 0.0017852057668150522 0.47060000000000007 0.00099849331387414373 0.50160000000000016 1.1530000000000002 0.62060000000000015 0.60890000000000011 0.0017743627100873063 1243.5000000000002
decision_type=2 2 2 2 2 2 2 2 2 2 2 2 2 2 2
left_child=1 2 -1 -4 -2 7 -7 -6 9 -9 -10 12 13 14 -3
right_child=4 11 3 -5 5 6 -8 8 10 -11 -12 -13 -14 -15 -16
leaf_value=-0.11514512262831803 -0.075991588408698366 0.082584065204680562 0.04341234659232189 -0.10219564271985931 -0.078716736491018624 -0.068579313073602058 0.017482701994117982 0.053662139025148131 0.027268505305652675 -0.011377793629200959 -0.049908732246817661 0.024938167799441781 -0.053496962881927013 -0.0089384186061023021 0.0093944555700244421
leaf_weight=0.032788134121801593 0.043856662698090187 0.10308543685823655 0.046244696713984006 0.023972167575266209 0.030156445922330025 0.099170662579126642 0.042799525312148042 0.10519718192517756 0.046907277952414006 0.073749196017161012 0.08080449991393833 0.42564675258472562 0.085562572319759056 0.35955131030641496 0.27546690218150616
leaf_count=13 11 9 6 9 10 18 7 5 5 10 18 22 10 34 23
internal_value=0 0.0717813 -0.409461 -0.0629849 -0.185732 -0.133137 -0.426343 -0.00954748 0.0669229 0.268572 -0.215623 0.111459 0.0401852 0.106858 0.293251
internal_weight=0 1.35232 0.103005 0.0702169 0.522641 0.478785 0.14197 0.336815 0.306658 0.178946 0.127712 1.24931 0.823666 0.738104 0.378552
internal_count=210 126 28 15 84 73 25 48 38 15 23 98 76 66 32
shrinkage=0.1


Tree=50
num_leaves=16
num_cat=0
split_feature=8 8 8 7 0 1 5 8 1 1 1 7 1 7 7
split_gain=0.0191522 0.0205077 0.0218725 0.0346458 0.0360678 0.033032 0.0270039 0.0212819 0.0309629 0.0233496 0.0171914 0.0169442 0.0308702 0.0149279 0.0139934
threshold=0.44770000000000004 0.48310000000000003 0.55870000000000009 0.23625000000000004 0.00082141320976745742 55435.000000000007 0.6100000000000001 0.5918000000000001 1243.5000000000002 712.50000000000011 16812.500000000004 0.37375000000000008 1881.0000000000002 0.23625000000000004 0.42120000000000007
decision_type=2 2 2 2 2 2 2 2 2 2 2 2 2 2 2
left_child=13 10 3 -3 6 7 -5 8 -4 -9 -2 12 -6 -1 -10
right_child=1 2 5 4 11 -7 -8 9 14 -11 -12 -13 -14 -15 -16
leaf_value=-0.021094439782096217 0.083029349560361843 0.057915739404974645 0.097580461239857294 0.043292434633449055 0.023557402103163465 -0.12442849195859296 -0.055079088819532995 -0.068056831293957454 0.032351702102621192 0.0069817162058213728 0.00019250287054288842 -0.060672111472697667 -0.070042954867052351 -0.11514911461799089 -0.036778214742436824
leaf_weight=0.064620761550031713 0.055982789257541195 0.056008395360549801 0.062597923912107722 0.10528309707297012 0.083312329719774411 0.018545804894529169 0.037969124387018383 0.043723378446884446 0.10890978900715707 0.80380836682161316 0.045346750412136323 0.2068100943142781 0.061060655396431678 0.022838820790639147 0.040048688650131226
leaf_count=8 6 6 5 10 6 6 6 14 7 63 6 44 6 10 7
internal_value=0 0.0230889 -0.00407803 -0.166255 -0.250694 0.0787604 0.17219 0.101928 0.385658 0.0311055 0.459584 -0.423194 -0.160296 -0.456555 0.137656
internal_weight=0 1.72941 1.62808 0.550444 0.494435 1.07763 0.143252 1.05909 0.211556 0.847532 0.10133 0.351183 0.144373 0.0874596 0.148958
internal_count=210 192 180 78 72 102 16 96 19 77 12 56 12 18 14
shrinkage=0.1


Tree=51
num_leaves=16
num_cat=0
split_feature=1 1 1 0 7 6 1 7 2 8 0 1 1 2 8
split_gain=0.0181348 0.0172924 0.017102 0.0217914 0.0302457 0.0101529 0.011373 0.0242026 0.0131295 0.0149753 0.012667 0.00898268 0.0359336 0.0274391 0.0305174
threshold=9968.5000000000018 16812.500000000004 712.50000000000011 0.00087786804756971625 0.58045000000000002 0.65000000000000002 55435.000000000007 0.47525000000000006 1434.5000000000002 0.50255000000000016 0.01453861959453618 1243.5000000000002 1434.5000000000002 999.00000000000011 0.5918000000000001
decision_type=2 2 2 2 2 2 2 2 2 2 2 2 2 2 2
left_child=2 -2 3 -1 -5 6 8 -8 9 -3 -10 13 -13 -4 -15
right_child=1 5 11 4 -6 -7 7 -9 10 -11 -12 12 -14 14 -16
leaf_value=-0.1099641831526242 -0.082163348913824569 -0.063004831593399577 0.076728607774100066 -0.099010097484251783 0.049488348964794204 -0.088750091813397269 0.011927612280809375 -0.12416307774317326 -0.031864726587415369 0.027720197258841589 0.034275863225286099 -0.12379041222421222 0.0068416642248225858 0.047283417160284558 -0.01507177698380468
leaf_weight=0.027532282430911329 0.037013046327047161 0.02052419190295041 0.073742036707699077 0.021120830409927294 0.039120156085118651 0.016196548356674612 0.027948624396231025 0.024543780484236777 0.16069402999710292 0.16023369645699859 0.035320371272973723 0.021668350687832568 0.74659389641601581 0.1286947843618691 0.20118619641289115
leaf_count=13 14 5 5 10 5 6 6 8 28 12 5 14 56 11 12
internal_value=0 -0.164856 0.0631432 -0.36261 -0.0257605 -0.110285 -0.0809598 -0.517041 -0.0202045 0.174188 -0.199467 0.0950317 0.0315727 0.215821 0.0925454
internal_weight=0 0.482474 1.25966 0.0877733 0.060241 0.445461 0.429265 0.0524924 0.376772 0.180758 0.196014 1.17189 0.768262 0.403623 0.329881
internal_count=210 84 126 28 15 70 64 14 50 17 33 98 70 28 23
shrinkage=0.1


Tree=52
num_leaves=16
num_cat=0
split_feature=1 1 5 1 8 0 3 3 0 3 8 8 0 1 3
split_gain=0.0198366 0.0158148 0.0205148 0.0135466 0.00940489 0.00938279 0.0160997 0.0110285 0.0125979 0.0092393 0.00841284 0.0206485 0.0193336 0.0312198 0.0243967
threshold=9968.5000000000018 712.50000000000011 0.56500000000000006 16812.500000000004 0.61745000000000017 0.0023291285591354586 1.0005237939809739 10.899745621440355 0.00042664295226370146 50.437160399623806 0.62060000000000015 0.60890000000000011 0.0017743627100873063 1243.5000000000002 0.66739574018155534
decision_type=2 2 2 2 2 2 2 2 2 2 2 2 2 2 2
left_child=1 2 4 -2 -1 7 -7 -5 -9 -10 11 12 13 -3 -14
right_child=3 10 -4 5 -6 6 -8 8 9 -11 -12 -13 14 -15 -16
leaf_value=0.042303440566671291 -0.07916960798960003 0.077507290490400366 -0.093793187444739912 -0.032031183532115474 -0.047711987389833628 0.010012716874924606 -0.073713537455319583 -0.051137837698218641 0.026467455638589894 -0.033971575268330431 0.021626582857798296 -0.046991792653031821 0.018570048832804251 0.0080429137083995218 -0.035990142955238627
leaf_weight=0.029348764219321199 0.033320194168482087 0.086662902031093614 0.034924377992865629 0.10267478006426244 0.019200505223125216 0.038105841260403402 0.057806877128314234 0.03146865451708436 0.16312463232316077 0.02993473073001951 0.39117966359481215 0.073011877568205819 0.1661748779588379 0.25530187564436346 0.16170933250396047
leaf_count=5 14 9 18 17 5 6 18 9 14 6 22 10 17 23 17
internal_value=0 0.0666524 -0.35343 -0.177791 0.0670369 -0.129446 -0.404493 -0.048822 0.075328 0.170961 0.0975735 0.0350719 0.0901145 0.25647 -0.0833851
internal_weight=0 1.21751 0.0834736 0.456436 0.0485493 0.423116 0.0959127 0.327203 0.224528 0.193059 1.13404 0.742861 0.669849 0.341965 0.327884
internal_count=210 126 28 84 10 70 24 46 29 20 98 76 66 32 34
shrinkage=0.1


Tree=53
num_leaves=16
num_cat=0
split_feature=1 1 1 8 7 5 7 2 3 8 5 0 8 5 0
split_gain=0.0214345 0.0145323 0.0168967 0.024631 0.010676 0.0111154 0.0110735 0.00900666 0.00874939 0.00859205 0.0181361 0.0146145 0.0212067 0.0281215 0.0169883
threshold=9968.5000000000018 712.50000000000011 467.00000000000006 0.55870000000000009 0.10250000000000002 0.63500000000000012 0.43670000000000003 1243.5000000000002 0.81980196262843164 0.49645000000000006 0.43500000000000005 0.0020952882571277569 0.64520000000000011 0.69500000000000006 0.0028051199333365838
decision_type=2 2 2 2 2 2 2 2 2 2 2 2 2 2 2
left_child=1 2 3 -1 7 6 -6 -2 -8 10 -3 -11 13 14 -13
right_child=4 9 -4 -5 5 -7 8 -9 -10 11 -12 12 -14 -15 -16
leaf_value=-0.098944227111219682 -0.043682745821550073 -0.010441484063481686 -0.10475952093252108 0.043125188561276895 -0.062193744513845683 -0.083973074103988452 -0.086256150087873226 0.024933230104719845 -0.0077551875458843665 0.014386987735137047 0.065732884979665937 -0.10353508906045612 0.031297210694220201 0.037330925433999511 -0.029671025201497472
leaf_weight=0.018261621589772289 0.02505883178673696 0.053309573326259622 0.023859113920480013 0.036785473581403487 0.055313770659267902 0.031816370668821037 0.015138484188355504 0.080853592837229371 0.22854210902005437 0.70184592949226499 0.075551484944298863 0.044304590875981376 0.07781711034476757 0.046663754736073322 0.10477169253863394
leaf_count=9 5 5 14 5 15 15 6 6 37 54 8 8 5 8 10
internal_value=0 0.0698865 -0.344709 -0.0400569 -0.189336 -0.277804 -0.218009 0.0869872 -0.12632 0.0995118 0.342197 0.0674505 -0.128613 -0.304167 -0.51623
internal_weight=0 1.18317 0.0789062 0.0550471 0.436723 0.330811 0.298994 0.105912 0.243681 1.10426 0.128861 0.975403 0.273557 0.19574 0.149076
internal_count=210 126 28 14 84 73 58 11 43 98 13 85 31 26 18
shrinkage=0.1


Tree=54
num_leaves=16
num_cat=0
split_feature=1 3 3 7 7 5 2 3 7 7 8 3 2 2 5
split_gain=0.0182371 0.0118039 0.0183379 0.0117417 0.0328793 0.0212241 0.0173912 0.041091 0.0287807 0.0331885 0.021676 0.0168606 0.0164203 0.0259025 0.0371335
threshold=19386.000000000004 20.004048233157366 1.0005237939809739 0.43670000000000003 0.47525000000000006 0.65500000000000014 1881.0000000000002 1.9085570139381647 0.33050000000000007 0.10250000000000002 0.57890000000000008 4.0651801671460923 1881.0000000000002 1243.5000000000002 0.59500000000000008
decision_type=2 2 2 2 2 2 2 2 2 2 2 2 2 2 2
left_child=3 2 -2 6 -5 11 7 -1 9 -8 -9 12 13 14 -6
right_child=1 -3 -4 4 5 -7 8 10 -10 -11 -12 -13 -14 -15 -16
leaf_value=-0.063303300684844202 0.014398632697518829 -0.003880437087407684 -0.069549254895863874 -0.11243931825769082 -0.040657514238331763 -0.045688196008281487 0.036158013873488458 0.04466002577260908 0.075988304468769696 -0.070530659970703513 -0.043509454899980413 -0.036201801408908114 0.00020216142435188148 0.081298875166891313 0.059036610021894198
leaf_weight=0.075346815894590483 0.036359385820105776 0.14321771683171391 0.091519344190601259 0.026311255991458893 0.07383110525552182 0.08595078055805061 0.10726792574860156 0.13015514239668846 0.1033843335462734 0.04004159604664892 0.035485198342939839 0.080098757636733339 0.39294617617269978 0.076628709677606821 0.07563777174800633
leaf_count=10 6 23 27 6 9 22 14 7 9 6 5 12 44 5 5
internal_value=0 -0.23598 -0.456806 0.0490937 -0.024799 0.0120523 0.171036 -0.0207858 0.355431 0.0715796 0.257714 0.0697019 0.125563 0.340271 0.0979206
internal_weight=0 0.271096 0.127879 1.30309 0.811405 0.785093 0.491681 0.240987 0.250694 0.14731 0.16564 0.699143 0.619044 0.226098 0.149469
internal_count=210 56 33 154 103 97 51 22 29 20 12 75 63 19 14
shrinkage=0.1


Tree=55
num_leaves=16
num_cat=0
split_feature=1 4 3 3 7 1 5 5 5 0 1 1 7 3 0
split_gain=0.0186035 0.0117701 0.0173499 0.0258586 0.0130116 0.0423099 0.0124228 0.0229972 0.0183546 0.0126766 0.0103119 0.00993311 0.0111732 0.00992377 0.0269649
threshold=9968.5000000000018 0.96155000000000013 0.049993941023791781 0.019827912916779194 0.33050000000000007 1881.0000000000002 0.55500000000000016 0.43500000000000005 0.54500000000000015 0.0057169065169909621 16812.500000000004 55435.000000000007 0.47525000000000006 0.35998264076484449 0.0017301925035752509
