tree
version=v3
num_class=1
num_tree_per_iteration=1
label_index=0
max_feature_idx=9
objective=lambdarank
feature_names=word_overlap transfer_data_size task_data_size ratio_data_size genetic syntactic featural phonological inventory geographical
feature_infos=[9.4781973583706424e-05:0.072113819101770907] [400:102993] [400:102993] [0.0038837590904236209:257.48250000000002] [0.28570000000000001:1] [0.34999999999999998:0.87] [0.40000000000000002:0.90000000000000002] [0.00020000000000000001:0.6875] [0.30859999999999999:0.68799999999999994] [0:0.5]
tree_sizes=1739 1732 1731 1741 1741 1746 1750 1761 1760 1774 1760 1777 1771 1766 1765 1770 1786 1784 1781 1795 1774 1776 1782 1786 1795 1775 1800 1785 1797 1789 1806 1797 1807 1820 1816 1800 1808 1822 1809 1815 1815 1812 1823 1822 1829 1813 1824 1819 1817 1825 1823 1821 1818 1828 1829 1822 1833 1835 1837 1824 1830 1838 1837 1826 1829 1831 1831 1838 1851 1844 1842 1834 1849 1850 1847 1837 1850 1859 1849 1838 1838 1846 1851 1858 1851 1848 1842 1862 1840 1856 1858 1843 1869 1856 1860 1854 1861 1860 1858 1863

Tree=0
num_leaves=16
num_cat=0
split_feature=5 1 7 0 9 0 9 3 7 8 8 4 2 0 1
split_gain=16.7158 5.16018 3.16847 3.2427 2.62053 1.65464 0.881321 0.667719 0.440133 0.694237 0.534887 0.412595 0.504608 0.477662 0.167946
threshold=0.62500000000000011 38653.000000000007 0.46775000000000005 0.0089520238238956374 0.25000000000000006 0.010448330962471655 0.35000000000000003 1.0976440623329711 0.38810000000000006 0.51835000000000009 0.55870000000000009 0.51875000000000016 38653.000000000007 0.033394802589982446 16306.000000000002
decision_type=2 2 2 2 2 2 2 2 2 2 2 2 2 2 2
left_child=2 5 3 8 -3 -2 11 -5 9 -1 -11 -4 13 14 -13
right_child=1 4 6 7 -6 -7 -8 -9 -10 10 -12 12 -14 -15 -16
leaf_value=-0.17084498656558283 -0.1865504588531437 0.1371857385107017 0.19999999999999987 0.017566543213211744 -0.1700763428381204 0.022176490585390129 -0.0216328733624074 0.17236220843948213 -0.17386430419332305 0.088003031813723653 -0.12460972245966179 0.19004565803213472 0.027089903262744925 0.054905439479450271 0.13855879157294881
leaf_weight=0.32282421924173854 4.5014827754348516 0.98375559505075205 1.4211457073688505 0.40906561166048022 0.38666797615587711 0.41478790529072274 0.30090632941573847 0.87412977963686 0.49722082912921911 0.34662994742393494 0.17965430207550526 1.3751960080116998 0.37919671460986126 0.45313360728323449 1.1747402986511586
leaf_count=10 89 7 6 8 6 6 8 6 16 6 6 11 6 8 11
internal_value=0 -1.21107 0.984454 0.0926737 0.504911 -1.6894 1.44386 1.23015 -0.991466 -0.553935 0.154248 1.54786 1.35788 1.49514 1.66326
internal_weight=0 6.28669 7.73384 2.62952 1.37042 4.91627 5.10432 1.2832 1.34633 0.849108 0.526284 4.80341 3.38227 3.00307 2.54994
internal_count=210 108 102 52 13 95 50 14 38 22 12 42 36 30 22
shrinkage=0.1


Tree=1
num_leaves=16
num_cat=0
split_feature=4 5 7 7 1 2 1 1 0 2 9 8 3 2 0
split_gain=17.8059 8.87419 6.43262 7.64684 6.31738 5.19376 4.21267 6.03772 3.08668 1.69205 1.43902 0.958301 1.04972 0.522428 0.505362
threshold=0.51875000000000016 0.62500000000000011 0.60420000000000007 0.50160000000000016 75903.500000000015 12923.500000000002 12923.500000000002 22734.000000000004 0.027969188169662925 27951.000000000004 0.25000000000000006 0.54765000000000008 0.91105242545999598 6619.5000000000009 0.0058492361728285031
decision_type=2 2 2 2 2 2 2 2 2 2 2 2 2 2 2
left_child=-1 2 3 5 13 6 -2 -8 9 10 -5 12 14 -3 -7
right_child=1 4 -4 8 -6 11 7 -9 -10 -11 -12 -13 -14 -15 -16
leaf_value=0.15335830230549019 -0.13250375434029615 -0.116414492522253 -0.13168304860345922 0.15687815072869782 0.069392513569882422 -0.070708797415038493 0.15052883660213867 -0.14405528009028923 -0.047544607397992246 0.019665875307362371 0.05549263675346601 -0.16945144344183979 -0.13969933324177294 -0.16502942439908785 0.026306608497038059
leaf_weight=6.3912479877471915 1.1436567083001188 5.0001276768743956 2.9868747889995566 5.2533776462078077 1.7585444152355201 1.3804295919835574 3.1277356930077076 0.8947954773902892 1.4801543578505505 1.7300722301006315 1.9085642695426941 1.5641792528331278 1.5565594024956224 3.9620489999651909 0.87872465699911106
leaf_count=8 8 44 8 7 8 6 7 7 8 5 6 15 12 56 5
internal_value=0 -0.283069 0.0559551 0.251972 -1.03903 -0.347636 0.368503 0.849998 0.861634 1.0842 1.2986 -1.03533 -0.765106 -1.37906 -0.329735
internal_weight=0 34.6258 23.9051 20.9182 10.7207 10.5461 5.16619 4.02253 10.3722 8.89201 7.16194 5.37989 3.81571 8.96218 2.25915
internal_count=210 202 94 86 108 60 22 14 26 18 13 38 23 100 11
shrinkage=0.1


Tree=2
num_leaves=16
num_cat=0
split_feature=5 0 7 8 3 1 1 4 1 5 7 8 4 1 9
split_gain=10.9709 5.43094 5.03382 4.00788 3.68756 2.48482 5.34303 3.07373 3.75186 2.12707 1.97088 0.937637 0.904945 1.56731 0.767777
threshold=0.63500000000000012 0.046272435954519603 0.51755000000000007 0.65315000000000012 2.2307523649509888 2042.5000000000002 12923.500000000002 0.93030000000000013 22734.000000000004 0.54500000000000015 0.60420000000000007 0.47205000000000003 0.77500000000000013 27951.000000000004 0.35000000000000003
decision_type=2 2 2 2 2 2 2 2 2 2 2 2 2 2 2
left_child=1 2 4 11 14 -4 -7 12 -9 -6 -5 -2 -8 -14 -1
right_child=3 -3 5 10 9 6 7 8 -10 -11 -12 -13 13 -15 -16
leaf_value=-0.072195682803120415 -0.023200835330342229 0.15322368048801546 0.15086363466159702 0.10955224316704951 -0.082622824709060891 -0.12507401508183699 0.1537148174998913 0.074336625367807704 -0.14318641065019289 0.10497126699290463 -0.11790262833682917 -0.13752275448532275 -0.027445238845076405 0.12254941655076597 -0.16226854413599545
leaf_weight=4.3199578560888821 0.80407245084643164 3.3427571803331366 2.238664247095584 1.2604102529585359 0.86824924126267455 1.7464414909481991 2.5978503599762899 2.0286958068609242 1.3017183467745779 1.9892011955380438 0.54596756771206845 6.6574330218136311 1.0278694890439513 2.1617167443037033 1.2117986269295213
leaf_count=33 8 6 5 6 9 8 5 6 5 7 6 80 5 6 15
internal_value=0 0.346485 0.162061 -0.928469 -0.442768 0.549305 0.351628 0.658547 -0.106839 0.4797 0.408053 -1.25203 1.09899 0.742124 -0.919272
internal_weight=0 24.8349 21.4922 9.26788 8.38921 13.103 10.8643 9.11785 3.33041 2.85745 1.80638 7.46151 5.78744 3.18959 5.53176
internal_count=210 110 104 100 64 40 35 27 11 16 12 88 16 11 48
shrinkage=0.1


Tree=3
num_leaves=16
num_cat=0
split_feature=5 4 7 8 5 2 2 0 7 2 3 7 4 1 8
split_gain=12.5172 4.58559 3.16384 2.56916 2.22052 2.75713 1.38215 1.26593 1.16241 1.03214 0.936058 1.19925 0.545679 0.673811 0.39665
threshold=0.62500000000000011 0.51875000000000016 0.57455000000000012 0.65315000000000012 0.48000000000000004 9853.5000000000018 6619.5000000000009 0.0089520238238956374 0.60420000000000007 27951.000000000004 1.6809140740974973 0.41835000000000006 0.88750000000000007 13559.000000000002 0.55870000000000009
decision_type=2 2 2 2 2 2 2 2 2 2 2 2 2 2 2
left_child=1 -1 4 12 10 7 -5 -6 9 -4 11 -3 13 -2 -7
right_child=3 2 8 6 5 14 -8 -9 -10 -11 -12 -13 -14 -15 -16
leaf_value=0.14051183654658558 -0.14086189425781148 -0.034320816215985435 0.13456928794506531 0.062034858514964403 -0.037617864728817368 -0.073232346556364403 -0.15341147274093059 0.086420409977488177 0.0013419171860253568 0.013696555184169831 -0.046619118553985234 0.13144616167704259 -0.12896108719578123 0.015143949645586074 -0.13916004802350274
leaf_weight=4.0254630148410842 0.49533300846814904 0.57902200520038505 3.2660927921533593 1.3789694979786871 1.5625367313623431 2.7925398387014866 0.37977303937077511 1.7380149513483045 1.3395745679736135 0.90143100172281243 0.63015401363372792 1.7722011208534239 6.7328394986689091 0.62769730389118195 1.3555716499686239
leaf_count=8 7 5 7 7 12 25 5 5 8 5 6 5 84 5 16
internal_value=0 0.451474 0.210599 -0.937385 -0.113159 -0.405073 0.155126 0.276986 0.823773 1.08425 0.616156 0.906237 -1.18197 -0.536653 -0.94777
internal_weight=0 19.9626 15.9371 9.61461 10.43 7.44866 1.75874 3.30055 5.5071 4.16752 2.98138 2.35122 7.85587 1.12303 4.14811
internal_count=210 102 94 108 74 58 12 17 20 12 16 10 96 12 41
shrinkage=0.1


Tree=4
num_leaves=16
num_cat=0
split_feature=5 4 8 1 7 0 7 7 1 0 3 9 8 8 0
split_gain=8.62387 3.14124 2.43851 2.17807 2.04345 3.5557 1.4441 1.44154 1.1652 1.49104 0.947145 0.642949 0.829353 0.55783 0.5294
threshold=0.62500000000000011 0.51875000000000016 0.46395000000000003 38653.000000000007 0.50160000000000016 0.0089520238238956374 0.55485000000000018 0.60420000000000007 4397.5000000000009 0.027969188169662925 1.0976440623329711 0.35000000000000003 0.54765000000000008 0.51835000000000009 0.010448330962471655
decision_type=2 2 2 2 2 2 2 2 2 2 2 2 2 2 2
left_child=1 -1 -3 14 5 11 -5 8 -6 -10 -7 12 13 -4 -2
right_child=3 2 4 6 7 10 -8 -9 9 -11 -12 -13 -14 -15 -16
leaf_value=0.123686795237407 -0.11958773843328654 -0.11872667455872098 -0.056432264384450218 0.079131736874738082 0.13774016009632994 -0.027610285034583938 -0.1094795283840615 -0.027941333624909616 0.082204079733745605 -0.071172115325781118 0.12668442825687143 -0.13824033909076433 -0.12199033223675103 0.044174445042195691 -0.024560677173648269
leaf_weight=3.4694320857524916 5.9996447414159757 1.1972329467535026 1.2283812724053849 1.1731072664260862 2.5071941316127777 0.52002820372581515 0.62073814123868931 1.3827814757823942 3.0199970379471783 0.802196204662323 1.6932910308241842 0.95974353328347195 0.97214578464627233 0.99959924072027195 0.64974891766905774
leaf_count=8 89 10 10 6 6 5 7 8 11 5 5 14 14 6 6
internal_value=0 0.377863 0.182853 -0.839216 0.299311 -0.119682 0.138651 0.64556 0.847639 0.500137 0.904323 -0.664519 -0.44922 -0.112944 -1.10302
internal_weight=0 18.752 15.2826 8.44324 14.0854 6.37319 1.79385 7.71217 6.32939 3.82219 2.21332 4.15987 3.20013 2.22798 6.64939
internal_count=210 102 94 108 84 54 13 30 22 16 10 44 30 16 95
shrinkage=0.1


Tree=5
num_leaves=16
num_cat=0
split_feature=5 7 0 9 8 4 9 3 2 3 3 8 5 3 2
split_gain=7.37414 2.2828 2.78498 2.11455 1.53954 1.30298 1.32361 1.21274 0.877704 0.578329 1.11621 1.64558 0.44886 0.389638 0.388641
threshold=0.62500000000000011 0.46775000000000005 0.0089520238238956374 0.35000000000000003 0.65315000000000012 0.51875000000000016 1.0000000180025095e-35 1.0976440623329711 6619.5000000000009 0.10431161227093999 0.55972388391564742 0.55725000000000013 0.67500000000000016 3.4948767859375063 9853.5000000000018
decision_type=2 2 2 2 2 2 2 2 2 2 2 2 2 2 2
left_child=1 2 13 5 12 -3 -7 -4 -6 -8 -11 -12 14 -1 -2
right_child=4 3 7 -5 8 6 9 -9 -10 10 11 -13 -14 -15 -16
leaf_value=-0.10314017448437263 -0.046569121105670311 0.13477490996210487 -0.039013765269549784 -0.095673984615163188 0.051085618827745344 -0.052704851834498995 0.0054245576149514483 0.10763499715102885 -0.13854149532374249 0.13423252672937983 0.086291392404543824 -0.085503494484932246 -0.13090469211559264 -0.017153767090895083 -0.11331741864167555
leaf_weight=2.1929648071527548 1.8866204023361199 2.7581529021263087 0.8314863741397861 0.77153385430574495 1.1768515035510061 0.99993667006492604 1.1198585107922552 1.7523686960339544 0.30796243995428074 2.4541786760091782 2.2133279368281369 0.74532991647720315 2.840358279645443 0.6936897225677966 1.6224821619689462
leaf_count=30 23 6 8 8 7 8 5 6 5 7 9 7 46 8 27
internal_value=0 0.378686 -0.149722 0.639993 -0.799149 0.759705 0.544387 0.604433 0.117554 0.708388 0.843723 0.430137 -1.01352 -0.824768 -0.774311
internal_weight=0 16.5328 5.47051 11.0623 7.83427 10.2908 7.53263 2.58386 1.48481 6.5327 5.41284 2.95866 6.34946 2.88665 3.5091
internal_count=210 102 52 50 108 42 36 14 12 28 23 16 96 38 50
shrinkage=0.1


Tree=6
num_leaves=16
num_cat=0
split_feature=5 7 0 1 4 5 9 9 4 0 0 1 0 0 3
split_gain=5.97801 2.05455 1.91155 1.70079 1.38341 1.06729 1.03708 1.03428 0.994746 0.680697 2.35706 0.667452 0.460032 0.402382 0.244985
threshold=0.62500000000000011 0.46775000000000005 0.0089520238238956374 38653.000000000007 0.51875000000000016 0.52000000000000013 0.25000000000000006 0.35000000000000003 0.88750000000000007 0.0023294324590137313 0.0015572113221936112 13559.000000000002 0.00095343872489543873 0.010448330962471655 0.59513468526957392
decision_type=2 2 2 2 2 2 2 2 2 2 2 2 2 2 2
left_child=1 2 12 13 -3 11 -5 9 -4 10 -7 -6 -1 -2 -11
right_child=3 4 8 6 5 7 -8 -9 -10 14 -12 -13 -14 -15 -16
leaf_value=0.0036278326642591244 -0.11313011034428105 0.12947428005408321 -0.051609370410433467 0.058498196996345668 0.028808672237047486 0.09519627035464949 -0.12826429609129814 -0.070174064985242882 0.090084395574455439 0.1244941625954835 -0.13445154081215868 -0.10896291643737166 -0.095969172206250022 -0.026353920753633943 0.071525528250561132
leaf_weight=0.59533542022109331 4.7757027074694625 2.3253704905509931 0.6993188709020618 1.2308381721377371 0.73374150693416573 1.523553289473057 0.39202710241079319 0.56230457127094258 1.6996583230793474 1.8325511664152148 0.63247268274426449 0.67525450140237808 2.098414670675993 0.60168872028589238 1.6679007858037946
leaf_count=6 89 6 6 7 5 6 6 6 8 6 6 7 32 6 8
internal_value=0 0.35519 -0.161411 -0.76342 0.619518 0.413673 0.13383 0.591723 0.487797 0.720305 0.278288 -0.372177 -0.739576 -1.03421 0.992556
internal_weight=0 15.0459 5.09273 7.00026 9.95315 7.62778 1.62287 6.21878 2.39898 5.65648 2.15603 1.409 2.69375 5.37739 3.50045
internal_count=210 102 52 108 50 44 13 32 14 26 12 12 38 95 14
shrinkage=0.1


Tree=7
num_leaves=16
num_cat=0
split_feature=5 4 8 8 8 7 8 6 5 0 0 7 4 3 2
split_gain=4.94256 1.51347 1.22791 0.971633 1.094 0.853345 0.629545 0.895345 0.762648 0.723805 0.457131 0.348918 0.330469 0.483544 0.275872
threshold=0.62500000000000011 0.51875000000000016 0.65315000000000012 0.59085000000000021 0.4280500000000001 0.60420000000000007 0.48585000000000006 0.55000000000000016 0.54500000000000015 0.0032783312239091883 0.00040819260646470299 0.42985000000000001 0.96875000000000011 3.7531041271371914 12923.500000000002
decision_type=2 2 2 2 2 2 2 2 2 2 2 2 2 2 2
left_child=1 -1 12 4 -3 -4 8 9 -6 10 -8 -11 13 -2 -9
right_child=2 3 5 -5 6 -7 7 14 -10 11 -12 -13 -14 -15 -16
leaf_value=0.10782744982774316 -0.10465876809574728 -0.11023321419339333 0.063788599857295056 -0.072900565861046068 0.11793614694767596 -0.10782889326142647 -0.060871709772467246 0.075914803804867911 -0.022221751678473501 -0.018146629571119049 0.054063765320943952 -0.11157155773336191 -0.11026976339809783 0.021576092547405612 0.021058364843652883
leaf_weight=2.3180224075913456 0.71056308969855198 0.5382026806473722 0.94967362284660317 1.0423229224979866 1.6163737848401054 0.41693923249840736 0.45133625343442002 2.4622812718153004 0.51095375791192044 0.82058078050613381 1.4833346381783483 0.77950899302959442 3.7646511197090149 0.52961185574531555 1.4605350419878957
leaf_count=8 15 6 6 16 6 6 6 11 6 10 10 12 76 5 11
internal_value=0 0.342973 -0.725812 0.19032 0.284978 0.114299 0.362877 0.225997 0.842722 -0.139021 0.272507 -0.636601 -0.955212 -0.507507 0.554908
internal_weight=0 13.4835 6.37144 11.1654 10.1231 1.36661 9.5849 7.45758 2.12733 3.53476 1.93467 1.60009 5.00483 1.24017 3.92282
internal_count=210 102 108 94 78 12 72 60 12 38 16 22 96 20 22
shrinkage=0.1


Tree=8
num_leaves=16
num_cat=0
split_feature=5 7 1 0 4 3 9 9 5 0 0 7 8 0 2
split_gain=3.90482 1.45391 1.21156 1.10259 1.04606 0.896104 0.725449 0.711776 0.512177 0.364671 1.05936 0.252184 0.413968 0.247201 0.242966
threshold=0.62500000000000011 0.46775000000000005 38653.000000000007 0.0089520238238956374 0.51875000000000016 1.0976440623329711 0.35000000000000003 0.25000000000000006 0.52000000000000013 0.0023294324590137313 0.0015572113221936112 0.38810000000000006 0.51835000000000009 0.010448330962471655 16306.000000000002
decision_type=2 2 2 2 2 2 2 2 2 2 2 2 2 2 2
left_child=1 3 13 11 -3 -5 8 -4 14 10 -10 12 -1 -2 -6
right_child=2 4 7 5 6 -7 -8 -9 9 -11 -12 -13 -14 -15 -16
leaf_value=-0.11209522513640316 -0.10232448783862649 0.12364822824272559 0.05341344839479515 -0.052019042738723834 -0.079162905131668959 0.086876348396100173 -0.06483831863473509 -0.11796489685988727 0.073301952118104183 0.084246986380834527 -0.10576465438481447 -0.11098981740619283 -0.001197726026218499 -0.028317534261171021 0.021764691331260327
leaf_weight=0.51766700670123389 3.8726081214845172 1.8079191148281077 1.0550627782940862 0.71841936558485053 0.37658812105655648 1.3141949921846388 0.62582102045416821 0.31460753828287114 1.2505363523960111 2.9227322340011597 0.4490051083266734 0.75555142387747742 0.9623904526233672 0.51088283210992802 0.65057795494794846
leaf_count=10 89 6 7 8 5 6 8 6 6 14 6 16 12 6 5
internal_value=0 0.316958 -0.680474 -0.155189 0.56627 0.377843 0.37318 0.140486 0.486344 0.628282 0.25994 -0.639822 -0.399854 -0.936992 -0.152382
internal_weight=0 12.3514 5.75316 4.26822 8.08318 2.03261 6.27526 1.36967 5.64944 4.62227 1.69954 2.23561 1.48006 4.38349 1.02717
internal_count=210 102 108 52 50 14 44 13 36 26 12 38 22 95 10
shrinkage=0.1


Tree=9
num_leaves=16
num_cat=0
split_feature=5 4 7 1 8 8 8 8 0 0 0 9 8 3 3
split_gain=3.23809 1.02544 0.824155 0.702995 0.683246 0.535977 0.718133 0.546576 0.429694 0.387436 0.605032 0.251102 0.255071 0.189013 0.186235
threshold=0.62500000000000011 0.51875000000000016 0.23325000000000004 16306.000000000002 0.59990000000000021 0.46395000000000003 0.48585000000000006 0.49505000000000005 0.011984433375487867 0.00095343872489543873 0.0089520238238956374 0.35000000000000003 0.54765000000000008 0.52478920575423105 0.94597701483045593
decision_type=2 2 2 2 2 2 2 2 2 2 2 2 2 2 2
left_child=1 -1 3 -2 5 -3 -7 -8 -4 -9 11 12 14 -12 -11
right_child=2 4 8 -5 -6 6 7 9 -10 10 13 -13 -14 -15 -16
leaf_value=0.098354148833579597 -0.12191162719949467 -0.067936820160744302 -0.097777919907769975 0.062459699074826784 -0.097954269951346817 0.092918363196153153 -0.11806920924752561 0.05688287164594541 -0.0025594259379832446 0.043137345874821285 -0.017961921557444305 -0.099151252671801623 -0.080226904929871543 0.058605682375222651 -0.031763261471869988
leaf_weight=1.853192158043387 0.28149934113025554 0.60006047412752828 3.5986649319529533 0.77941359579563141 0.49074183404445726 1.4840827956795672 0.29071499779820431 2.1376947052776814 0.54581521451473225 0.69136352837085757 0.40005540847778354 0.44006164371967305 0.44586076959967602 1.6610432788729665 0.63858708366751671
leaf_count=8 8 10 88 6 10 8 6 14 6 6 5 10 8 9 8
internal_value=0 0.304401 -0.651061 0.135392 0.168782 0.232896 0.299739 0.160426 -0.852379 0.221206 0.047459 -0.315283 -0.147707 0.437441 0.0717318
internal_weight=0 11.1335 5.20539 1.06091 9.28027 8.78952 8.18946 6.70538 4.14448 6.41467 4.27697 2.21587 1.77581 2.0611 1.32995
internal_count=210 102 108 14 94 84 74 66 94 60 46 32 22 14 14
shrinkage=0.1


Tree=10
num_leaves=16
num_cat=0
split_feature=5 7 9 2 9 4 8 2 7 3 7 5 8 1 2
split_gain=2.60627 0.833118 1.18415 0.915985 0.711937 0.689918 0.611391 0.264556 0.608656 0.456152 0.882825 0.25274 0.189834 0.142322 0.115683
threshold=0.62500000000000011 0.41835000000000006 0.35000000000000003 4397.5000000000009 0.25000000000000006 0.51875000000000016 0.65315000000000012 27951.000000000004 0.60420000000000007 1.1898297797422142 0.53875000000000017 0.67500000000000016 0.52190000000000014 13559.000000000002 3841.0000000000005
decision_type=2 2 2 2 2 2 2 2 2 2 2 2 2 2 2
left_child=1 3 5 -1 6 -3 11 8 9 -7 -11 14 -4 -5 -2
right_child=4 2 12 13 -6 7 -8 -9 -10 10 -12 -13 -14 -15 -16
leaf_value=0.067083038818880447 -0.099581990607667731 0.12058363641526884 -0.022815214299616055 -0.091194441078759847 -0.11032486485027025 0.099900115407993359 0.038609226120548609 -0.0059834298191286982 -0.037026963637516577 -0.077597046599664501 0.076440666195696033 -0.11440719584468816 -0.12469159657858708 -0.035341867577208287 -0.023340199737564446
leaf_weight=0.8557522669434533 0.24317132681608319 1.4094178974628446 0.35347625985741604 0.75472977943718411 1.8405034746974704 2.0299973338842396 0.88270827755331982 0.94673948362469662 0.65242282301187504 0.53003707900643338 1.248390309512615 0.62007418274879444 0.37903834506869322 1.153556242585182 1.0959671363234518
leaf_count=7 5 6 6 15 54 11 8 9 7 7 8 18 8 18 23
internal_value=0 0.280901 0.452875 -0.188816 -0.618716 0.582699 -0.30492 0.420286 0.522184 0.67507 0.305317 -0.61625 -0.75531 -0.574316 -0.371848
internal_weight=0 10.3136 7.54952 2.76404 4.68242 6.817 2.84192 5.40759 4.46085 3.80842 1.77843 1.95921 0.732515 1.90829 1.33914
internal_count=210 102 62 40 108 48 54 42 33 26 15 46 14 33 28
shrinkage=0.1


Tree=11
num_leaves=16
num_cat=0
split_feature=5 4 1 1 3 3 0 8 0 5 9 4 4 0 7
split_gain=2.27129 0.827214 0.675342 0.398838 0.565888 0.332695 0.404977 0.46188 0.373155 0.389833 0.311649 0.241454 0.205094 0.172089 0.161168
threshold=0.63500000000000012 0.51875000000000016 75903.500000000015 2042.5000000000002 0.12681291441123818 19.687909545644022 0.0089520238238956374 0.49755000000000005 0.00095343872489543873 0.56500000000000006 0.35000000000000003 0.88750000000000007 0.8660500000000001 0.0073567970783944897 0.53875000000000017
decision_type=2 2 2 2 2 2 2 2 2 2 2 2 2 2 2
left_child=1 -1 13 -3 -5 6 7 -6 -9 12 -11 -8 -10 -2 -13
right_child=2 3 -4 4 5 -7 11 8 9 10 -12 14 -14 -15 -16
leaf_value=0.095954243575529174 -0.095449881669842307 0.082665767598000164 0.028387270570231063 -0.13844428472182635 -0.12604674552023917 0.07485111296401846 -0.01982813350796668 0.038329446342540721 -0.0077030549131585973 0.055248441978428486 -0.094941836583867789 0.067241730812999154 -0.091480269143549398 -0.034835262895742805 0.010273246841654454
leaf_weight=1.4208467826247204 2.5954862274229544 0.75775726325809756 0.63629452884197213 0.25981859490275366 0.35321726463735137 0.74980434775352467 0.67703272774815593 1.2202487066388132 0.43263471126556419 0.64792912080883969 0.17560468055307865 1.4954953230917456 0.90030694007873535 0.57151721231639374 0.74349361285567261
leaf_count=8 82 5 8 5 10 5 10 11 6 6 6 10 20 10 8
internal_value=0 0.253793 -0.656233 0.134606 0.0661063 0.117065 0.0458248 -0.172438 -0.0586267 -0.308689 0.232229 0.32501 -0.642886 -0.845114 0.483244
internal_weight=0 9.83419 3.8033 8.41334 7.65559 7.39577 6.64596 3.72994 3.37672 2.15648 0.823534 2.91602 1.33294 3.167 2.23899
internal_count=210 110 100 102 97 92 87 59 49 38 12 28 26 92 18
shrinkage=0.1


Tree=12
num_leaves=16
num_cat=0
split_feature=5 4 8 8 8 8 8 7 5 3 3 2 2 2 7
split_gain=1.90263 0.633859 0.621405 0.333958 0.365837 0.474015 0.422514 0.303355 0.222715 0.597309 0.661455 0.238361 0.215806 0.202448 0.246829
threshold=0.63500000000000012 0.51875000000000016 0.65315000000000012 0.59085000000000021 0.46395000000000003 0.48585000000000006 0.49505000000000005 0.60420000000000007 0.54500000000000015 0.94597701483045593 0.40706634781460072 9853.5000000000018 9853.5000000000018 6619.5000000000009 0.46775000000000005
decision_type=2 2 2 2 2 2 2 2 2 2 2 2 2 2 2
left_child=1 -1 -2 4 -3 -6 -7 -4 9 10 -8 -11 -5 -10 -15
right_child=2 3 7 12 5 6 8 -9 13 11 -12 -13 -14 14 -16
leaf_value=0.088686437775351734 -0.088924057906058812 -0.063188189234122324 0.043772888667493431 0.0046670307023535321 0.085681300620689696 -0.10986809591840772 -0.063166386844080741 -0.082192204377222536 0.062137754407032654 -0.14180765864538936 0.095997616393879437 -0.028253301878900145 -0.10219158640342028 -0.072561885497498008 0.029392861980639291
leaf_weight=1.2984353750944118 2.524397756904365 0.49158141762018193 0.65363506600260723 0.36994441598653777 1.1139101870357988 0.26181597635149945 0.40668685734271987 0.27022162638604641 1.5646747685968878 0.31639136001467694 0.72938202321529377 0.44463314488530159 0.38638151437044144 0.28526677004992951 1.4167515616863964
leaf_count=8 88 10 6 6 8 8 7 6 11 6 5 8 12 7 14
internal_value=0 0.24002 -0.632431 0.132168 0.200087 0.262627 0.140637 0.0692898 0.203473 -0.0690481 0.390205 -0.754628 -0.499234 0.361737 0.123047
internal_weight=0 9.08586 3.44825 7.78742 7.03109 6.53951 5.4256 0.923857 5.16379 1.89709 1.13607 0.761025 0.756326 3.26669 1.70202
internal_count=210 110 100 102 84 74 66 12 58 26 12 14 18 32 21
shrinkage=0.1


Tree=13
num_leaves=16
num_cat=0
split_feature=5 1 7 4 0 9 3 7 9 3 8 3 7 8 2
split_gain=1.55445 0.546189 0.498708 0.638734 0.473867 0.3693 0.339886 0.271933 0.235131 0.265593 0.476627 0.254909 0.173495 0.225011 0.145605
threshold=0.62500000000000011 38653.000000000007 0.46775000000000005 0.51875000000000016 0.0089520238238956374 0.35000000000000003 1.0976440623329711 0.55485000000000018 1.0000000180025095e-35 0.55972388391564742 0.55725000000000013 0.10431161227093999 0.38810000000000006 0.5031500000000001 6619.5000000000009
decision_type=2 2 2 2 2 2 2 2 2 2 2 2 2 2 2
left_child=2 14 4 -4 12 8 -6 -3 -5 11 -11 -10 13 -1 -2
right_child=1 7 3 5 6 -7 -8 -9 9 10 -12 -13 -14 -15 -16
leaf_value=-0.12567127620741878 -0.056906365814849258 0.050245604228703902 0.11654742598883699 -0.026447851255220318 -0.037494462717258176 -0.059667121663664058 0.069155919634372592 -0.063529817173153064 0.015614459563284619 0.050993347640899578 -0.074476464860628241 0.10175293179799055 -0.097578284874503929 -0.002454965442566447 -0.10436078311993589
leaf_weight=0.18033225089311625 1.4135807771235711 0.6053621433675288 0.96682876348495483 0.50803192332387004 0.44601799920201279 0.44641417078673834 0.90543543547391869 0.32170890830457211 0.49645874649286303 1.1211689710617063 0.4147647432982921 1.1154363267123697 0.47659297194331873 0.83193225413560867 1.1916495943441985
leaf_count=6 40 6 6 8 8 8 6 7 5 9 7 7 16 16 55
internal_value=0 -0.551551 0.24632 0.434281 -0.0891348 0.261953 0.339583 0.107637 0.366799 0.468681 0.171114 0.752225 -0.478287 -0.244056 -0.786123
internal_weight=0 3.5323 7.90941 5.0691 2.84031 4.10227 1.35145 0.927071 3.65586 3.14783 1.53593 1.6119 1.48886 1.01226 2.60523
internal_count=210 108 102 50 52 44 14 13 36 28 16 12 38 22 95
shrinkage=0.1


Tree=14
num_leaves=16
num_cat=0
split_feature=5 7 4 9 2 9 1 7 2 3 7 8 2 3 9
split_gain=1.24023 0.461972 0.582652 0.423039 0.412732 0.395005 0.338336 0.192899 0.307273 0.228099 0.438312 0.129369 0.114403 0.151993 0.0959986
threshold=0.62500000000000011 0.41835000000000006 0.51875000000000016 0.25000000000000006 4397.5000000000009 0.35000000000000003 38653.000000000007 0.60420000000000007 27951.000000000004 1.1898297797422142 0.53875000000000017 0.52190000000000014 9853.5000000000018 1.1898297797422142 0.35000000000000003
decision_type=2 2 2 2 2 2 2 2 2 2 2 2 2 2 2
left_child=1 4 -3 6 -1 7 12 8 9 -4 -11 -7 13 -2 -6
right_child=3 2 5 -5 14 11 -8 -9 -10 10 -12 -13 -14 -15 -16
leaf_value=0.049157723061318784 0.028678434616298345 0.11526454472614203 0.088599706315441576 -0.098396372738401905 -0.03830883243902973 -0.0075328422922353311 0.035200766139931235 -0.015576512952110247 -0.022520953100541339 -0.060062699403952174 0.067621143785710505 -0.10565335274464892 -0.094873647553621349 -0.05818211445725481 -0.12125353138825859
leaf_weight=0.64314875379204783 0.28523717261850901 0.83975335955619812 1.3419996835291397 1.2000647587701676 1.2416168376803396 0.27218377497047169 0.66179729253053643 0.61644573509693135 0.54867495223879803 0.3825195040553806 0.90474022924900033 0.2653937460854649 0.4250756604596973 0.68586322292685509 0.15720340330153693
leaf_count=7 5 6 11 54 27 6 7 8 8 7 8 8 22 20 6
internal_value=0 0.231282 0.390297 -0.512086 -0.171455 0.242515 -0.23692 0.356175 0.45548 0.597526 0.296789 -0.559734 -0.516076 -0.326689 -0.476304
internal_weight=0 7.21368 5.17171 3.25804 2.04197 4.33196 2.05797 3.79438 3.17793 2.62926 1.28726 0.537578 1.39618 0.9711 1.39882
internal_count=210 102 62 108 40 56 54 42 34 26 15 14 47 25 33
shrinkage=0.1


Tree=15
num_leaves=16
num_cat=0
split_feature=5 8 9 4 8 8 7 5 7 3 2 0 0 2 5
split_gain=1.01054 0.403451 0.382788 0.295968 0.290465 0.256188 0.203222 0.354154 0.294907 0.22686 0.395106 0.337982 0.247423 0.174237 0.16387
threshold=0.62500000000000011 0.59085000000000021 0.25000000000000006 0.51875000000000016 0.65315000000000012 0.4280500000000001 0.57455000000000012 0.60500000000000009 0.60420000000000007 3.3412442009808863 6619.5000000000009 0.035245549293887117 0.0021377646103648952 16306.000000000002 0.67500000000000016
decision_type=2 2 2 2 2 2 2 2 2 2 2 2 2 2 2
left_child=1 3 4 -1 14 -5 7 9 13 10 -7 12 -12 -8 -2
right_child=2 -3 -4 5 -6 6 8 -9 -10 -11 11 -13 -14 -15 -16
leaf_value=0.08242897752576693 -0.02626086552985453 -0.061121069139223029 -0.096035975222260123 -0.080428111813679412 0.033819525237174373 -0.14513855026415498 0.10598159968351278 -0.1179709274029329 -0.0079840978245460277 0.066888380734625649 0.050207405195924239 0.080378510425120439 -0.039346535459708266 0.029266108664802695 -0.10560514588418693
leaf_weight=0.89002120494842529 0.90960851870477211 0.53897563740611065 1.0749525390565393 0.24210461601614941 0.63503612205386151 0.16821576096117619 0.80997816473245599 0.20449677202850569 0.58132300525903691 0.71874484233558167 0.44940531998872735 0.55942189320921887 0.98403964005410693 0.46660596132278442 0.36464289296418423
leaf_count=8 28 16 54 6 8 5 5 6 8 9 5 5 24 5 18
internal_value=0 0.217973 -0.483047 0.291546 -0.214314 0.200087 0.249288 0.0919061 0.510559 0.182204 0.0203409 0.144568 -0.112701 0.779412 -0.489662
internal_weight=0 6.61333 2.98424 6.07436 1.90929 5.18434 4.94223 3.08432 1.85791 2.87983 2.16108 1.99287 1.43344 1.27658 1.27425
internal_count=210 102 108 86 54 78 72 54 18 48 39 34 29 10 46
shrinkage=0.1


Tree=16
num_leaves=16
num_cat=0
split_feature=5 9 7 4 0 1 0 9 2 5 0 0 2 3 1
split_gain=0.792281 0.419803 0.357862 0.437826 0.318036 0.213124 0.188623 0.185253 0.161038 0.149805 0.201052 0.237286 0.146468 0.215564 0.0700242
threshold=0.62500000000000011 0.25000000000000006 0.46775000000000005 0.51875000000000016 0.0056345748364402615 38653.000000000007 0.00095343872489543873 0.35000000000000003 13559.000000000002 0.52000000000000013 0.0023294324590137313 0.0015572113221936112 9853.5000000000018 1.1898297797422142 16306.000000000002
decision_type=2 2 2 2 2 2 2 2 2 2 2 2 2 2 2
left_child=2 5 4 -4 6 12 -1 9 -6 -5 11 -11 13 -2 -10
right_child=1 -3 3 7 8 -7 -8 -9 14 10 -12 -13 -14 -15 -16
leaf_value=0.0042102839098244514 0.054980679835471995 -0.097550671157160776 0.11353639044771464 -0.01628098729549798 0.050786061450263965 0.033754010890809157 -0.094978750554133018 -0.047188600328947811 -0.045823849618955248 0.037072158899787301 0.066126842658575088 -0.078039047729140221 -0.093565929489019317 -0.0520176790138469 0.019796031552458883
leaf_weight=0.29546965844929246 0.27860287204384826 0.96528213284909725 0.65002035349607501 0.52976261824369508 0.71514019370079018 0.58535252138972271 0.54599738586694002 0.33223411254584778 0.37830083724111319 0.65963955968618426 1.4196933582425115 0.24580665864050388 0.35659323818981647 0.58082317002117634 0.28523700311779976
leaf_count=6 5 54 6 10 8 7 22 8 10 6 14 6 22 20 6
internal_value=0 -0.443374 0.20251 0.387396 -0.117036 -0.158225 -0.601499 0.234847 0.178653 0.317092 0.426433 0.0582226 -0.396871 -0.173317 -0.176156
internal_weight=0 2.76665 6.0573 3.83716 2.22015 1.80137 0.841467 3.18714 1.37868 2.8549 2.32514 0.905446 1.21602 0.859426 0.663538
internal_count=210 108 102 50 52 54 28 44 24 36 26 12 47 25 16
shrinkage=0.1


Tree=17
num_leaves=16
num_cat=0
split_feature=5 9 0 7 5 8 8 1 3 1 2 8 2 0 8
split_gain=0.682595 0.355772 0.301628 0.451448 0.236243 0.250673 0.198413 0.223507 0.288992 0.188415 0.253642 0.160077 0.147557 0.136125 0.12699
threshold=0.62500000000000011 0.25000000000000006 0.046272435954519603 0.51755000000000007 0.58500000000000008 0.49755000000000005 0.47205000000000003 27951.000000000004 0.59513468526957392 14184.000000000002 4397.5000000000009 0.53300000000000003 4397.5000000000009 0.0047727463696809226 0.65315000000000012
decision_type=2 2 2 2 2 2 2 2 2 2 2 2 2 2 2
left_child=2 9 3 4 13 -6 -5 8 11 12 -11 -8 -2 -1 -14
right_child=1 -3 -4 6 5 -7 7 -9 -10 10 -12 -13 14 -15 -16
leaf_value=-0.086462883546724295 0.040368565200043102 -0.094990738530584221 0.08587883701339602 0.080126712554110857 -0.11907545997465124 0.042476294909694033 -0.015541182399982374 0.073714515135190617 -0.058684054380222943 -0.10795852331407839 0.041299057406835801 0.072280329858312967 -0.099824254140404772 -0.022634077154886564 -0.0099177771827536742
leaf_weight=0.53238472808152459 0.15029728692024968 0.86566525604575861 0.60967823117971409 0.80925486236810718 0.11095199082046736 0.71496758610010147 0.35741457715630509 0.57353758066892613 0.52809698693454266 0.13567660842090845 0.70785880275070667 0.49500333145260805 0.45659966394305224 0.89720012806355953 0.23951500095427039
leaf_count=22 7 54 6 10 6 12 5 6 10 5 11 5 26 20 5
internal_value=0 -0.428592 0.194602 0.113918 -0.21805 0.207738 0.384881 0.212438 -0.00555237 -0.161552 0.17292 0.354572 -0.494888 -0.464043 -0.688898
internal_weight=0 2.55561 5.62849 5.01881 2.2555 0.82592 2.76331 1.95405 1.38051 1.68995 0.843535 0.852418 0.846412 1.42958 0.696115
internal_count=210 108 102 96 60 18 36 26 20 54 16 10 38 42 31
shrinkage=0.1


Tree=18
num_leaves=16
num_cat=0
split_feature=5 9 4 0 0 8 1 3 0 9 8 2 4 1 0
split_gain=0.559554 0.3414 0.294613 0.191137 0.30523 0.171927 0.13964 0.180648 0.123165 0.107221 0.153377 0.1932 0.139883 0.385427 0.225177
threshold=0.63500000000000012 0.25000000000000006 0.51875000000000016 0.0024064046943045895 0.0029133719470074175 0.59990000000000021 2042.5000000000002 0.13428280279728283 0.0047727463696809226 0.25000000000000006 0.58695000000000008 9853.5000000000018 0.93030000000000013 14184.000000000002 0.0034139475987942222
decision_type=2 2 2 2 2 2 2 2 2 2 2 2 2 2 2
left_child=2 3 -1 -2 -5 6 -4 -8 -6 12 -11 -12 -9 14 -14
right_child=1 -3 5 4 8 -7 7 9 -10 10 11 -13 13 -15 -16
leaf_value=0.079523092385283045 -0.082247761609351711 -0.099083143910376217 0.068424790787966441 0.076575924230089021 -0.093410008006506021 -0.073162901319137816 -0.09064300304280469 0.04495700253067083 -0.0045405702367418933 -0.035306551616657036 0.061523278543581611 -0.1134420660847662 0.080338676375297846 -0.087099611272295402 -0.02858341025090555
leaf_weight=0.66260971128940571 0.32339566759765181 0.72558907093480229 0.4102357942610978 0.38741924054920646 0.23298051068559289 0.24534251075237976 0.18027066625654689 1.4095771890133624 0.47166134743019938 0.89462026860564925 0.40960225090384478 0.074605704285204411 0.47869348712265486 0.36432601697742933 0.3144927304238081
leaf_count=8 16 50 5 6 14 10 5 23 14 28 5 5 6 9 6
internal_value=0 -0.433104 0.170322 -0.147203 0.0527687 0.083728 0.127825 0.0725039 -0.339241 0.117227 -0.107695 0.34565 0.238036 -0.019562 0.371518
internal_weight=0 2.14105 5.44438 1.41546 1.09206 4.78177 4.53642 4.12619 0.704642 3.94592 1.37883 0.484208 2.56709 1.15751 0.793186
internal_count=210 100 110 50 34 102 92 87 28 82 38 10 44 21 12
shrinkage=0.1


Tree=19
num_leaves=16
num_cat=0
split_feature=5 9 0 7 0 0 5 1 8 0 5 8 2 0 0
split_gain=0.49058 0.282072 0.248992 0.35875 0.177721 0.241027 0.163757 0.19511 0.194343 0.1966 0.127833 0.170044 0.142805 0.108427 0.0916951
threshold=0.63500000000000012 0.25000000000000006 0.046272435954519603 0.51755000000000007 0.0025069498992903567 0.0032123904825280586 0.56500000000000006 13559.000000000002 0.47205000000000003 0.0020096510130461283 0.58500000000000008 0.49755000000000005 13559.000000000002 0.0047727463696809226 0.0056345748364402615
decision_type=2 2 2 2 2 2 2 2 2 2 2 2 2 2 2
left_child=2 4 3 10 -2 -6 8 -8 -5 -10 14 -12 -13 -7 -1
right_child=1 -3 -4 6 5 13 7 -9 9 -11 11 12 -14 -15 -16
leaf_value=-0.074988574136997152 -0.072625649001863454 -0.096240216369545245 0.081265392614492324 0.10019091625049246 0.084384072689296985 -0.091282907577347139 -0.083381205906508535 0.026882201283954296 0.067284174090477197 -0.029934643341534596 -0.11997090104862849 0.03846738408341481 -0.093337873619295936 0.00039075702718366682 -0.019506061930765595
leaf_weight=0.49820771720260398 0.3844026476144789 0.65271960711106647 0.53034168109297741 0.5980275943875315 0.28653514664620161 0.18234509183093903 0.20478722173720587 0.74171078950166702 0.48736108839511871 0.36289659515023232 0.093003111425787086 0.69888393953442574 0.093158356845378876 0.44114912766963238 0.74078415706753731
leaf_count=24 18 50 6 8 6 12 6 12 6 8 6 10 6 14 18
internal_value=0 -0.426412 0.164441 0.088365 -0.156139 0.0846829 0.353722 0.0302527 0.56512 0.257904 -0.210817 0.0794464 0.229647 -0.264198 -0.41816
internal_weight=0 1.94715 5.04916 4.51882 1.29443 0.910029 2.39478 0.946498 1.44829 0.850258 2.12404 0.885045 0.792042 0.623494 1.23899
internal_count=210 100 110 104 50 32 40 18 22 14 64 22 16 26 42
shrinkage=0.1


Tree=20
num_leaves=16
num_cat=0
split_feature=5 9 4 3 1 0 8 2 2 0 8 1 1 7 1
split_gain=0.404894 0.250665 0.215912 0.133264 0.150345 0.179087 0.280477 0.131789 0.139903 0.112606 0.112027 0.105218 0.0843516 0.109237 0.229268
threshold=0.63500000000000012 0.25000000000000006 0.51875000000000016 19.687909545644022 2042.5000000000002 0.0089520238238956374 0.49755000000000005 3841.0000000000005 9853.5000000000018 0.0025069498992903567 0.55870000000000009 12923.500000000002 13559.000000000002 0.47525000000000006 27951.000000000004
decision_type=2 2 2 2 2 2 2 2 2 2 2 2 2 2 2
left_child=2 7 -1 4 -4 6 -6 -2 9 -9 -8 -12 -7 -14 -15
right_child=1 -3 3 -5 5 12 10 8 -10 -11 11 -13 13 14 -16
leaf_value=0.074232230038689825 -0.11052158795548968 -0.09330620904615966 0.064454450257333235 0.06501597326344416 -0.13334442140815814 -0.014818757048302307 0.0023847261469397232 -0.03774217607351197 -0.060514391841763486 0.044657620381675908 -0.0057687220901588218 -0.10887585491936771 0.073990399614289312 -0.064197810339041067 0.06401431225232744
leaf_weight=0.55069082230329502 0.12698310520499934 0.59667711565271009 0.35090153105556998 0.3689487837255 0.20875662937760431 0.4297371171414851 1.4013669621199367 0.23871584795415376 0.3032055995427072 0.54331746138632298 0.1959166103042661 0.20001228386536241 0.46269215084612342 0.2458325419574976 0.32236025109887123
leaf_count=8 10 50 5 5 12 9 35 8 22 10 7 10 7 7 5
internal_value=0 -0.40247 0.153683 0.0762536 0.0207885 -0.0423489 -0.236292 -0.141303 -0.0285162 0.195051 -0.108857 -0.578556 0.224017 0.379175 0.0854245
internal_weight=0 1.8089 4.73722 4.18652 3.81758 3.46667 2.00605 1.21222 1.08524 0.782033 1.7973 0.395929 1.46062 1.03088 0.568193
internal_count=210 100 110 102 97 92 64 50 40 18 52 17 28 19 12
shrinkage=0.1


Tree=21
num_leaves=16
num_cat=0
split_feature=5 9 0 7 2 2 8 3 3 7 5 1 1 0 9
split_gain=0.322755 0.197337 0.194884 0.275967 0.131758 0.168824 0.111345 0.102324 0.17127 0.091134 0.114815 0.203243 0.10062 0.0884415 0.0837288
threshold=0.64500000000000013 0.25000000000000006 0.046272435954519603 0.51755000000000007 9853.5000000000018 3841.0000000000005 0.41070000000000001 3.0029287580387583 3.6280175393724154 0.60420000000000007 0.58500000000000008 13559.000000000002 13559.000000000002 0.0025069498992903567 0.35000000000000003
decision_type=2 2 2 2 2 2 2 2 2 2 2 2 2 2 2
left_child=2 4 3 7 5 -2 -5 14 -9 10 12 -12 -8 -7 -1
right_child=1 -3 -4 6 -6 13 9 8 -10 -11 11 -13 -14 -15 -16
leaf_value=-0.02612178753573929 -0.12126846299086787 -0.091624224833560655 0.075397962071466804 0.086172726205627673 -0.088619759824405064 -0.034861563567417216 0.083028276545130286 0.055219508021257704 -0.042788223118908848 -0.02044114153393238 -0.13536915051502091 0.025851350448232165 0.013975743869845646 0.039816982861687007 -0.09430242895303953
leaf_weight=1.0006578443571923 0.098581972066312806 0.4928415436297654 0.45723052695393551 0.31581054441630874 0.19783227890729904 0.22490781918168068 0.53557208925485589 0.37995566986501206 0.33596242032945162 0.3980507906526326 0.09519675187766552 0.43781242240220314 0.34822246804833407 0.53778913430869579 0.21965322503820048
leaf_count=35 9 48 6 6 19 8 7 6 11 8 5 9 7 10 16
internal_value=0 -0.393507 0.134988 0.0653968 -0.15026 0.0187816 0.31372 -0.207863 0.0922694 0.218359 0.337137 -0.0294303 0.55821 0.177954 -0.383941
internal_weight=0 1.55195 4.52412 4.06689 1.05911 0.861279 2.13067 1.93623 0.715918 1.81485 1.4168 0.533009 0.883795 0.762697 1.22031
internal_count=210 94 116 110 46 27 42 68 17 36 28 14 14 18 51
shrinkage=0.1


Tree=22
num_leaves=16
num_cat=0
split_feature=4 8 5 9 3 8 2 2 0 0 8 8 5 3 3
split_gain=0.25439 0.241149 0.233027 0.190805 0.156256 0.128407 0.122385 0.133806 0.090231 0.0727134 0.0693276 0.234071 0.132933 0.227985 0.224176
threshold=0.51875000000000016 0.4280500000000001 0.64500000000000013 0.25000000000000006 19.687909545644022 0.59085000000000021 3841.0000000000005 9853.5000000000018 0.0032123904825280586 0.00035675154792058324 0.48585000000000006 0.49755000000000005 0.54500000000000015 0.94597701483045593 0.40706634781460072
decision_type=2 2 2 2 2 2 2 2 2 2 2 2 2 2 2
left_child=-1 -2 4 6 5 10 -4 8 9 -8 -3 -12 13 14 -13
right_child=1 2 3 -5 -6 -7 7 -9 -10 -11 11 12 -14 -15 -16
leaf_value=0.071078732715501469 -0.1076854474380695 0.046474053329699776 -0.12395533612431782 -0.089371164712296253 0.082524002248131181 -0.051830832985152724 -0.019675758323606903 -0.079650244325739764 -0.021525658579450595 0.07331437598987986 -0.118583711833521 -0.053324655159750205 0.032052974851934084 -0.076725331880615269 0.081345364318480773
leaf_weight=0.46303458511829371 0.22429129946976889 0.5006503723561776 0.088080123532563212 0.45164527185261238 0.28875815868377674 0.34595656348392362 0.1154387090355158 0.17419567424803972 0.33177245408296585 0.3096434660255909 0.14285316504538093 0.20947720855474505 1.4384401491843162 0.37251248396933079 0.30154316872358322
leaf_count=8 8 13 9 48 5 17 5 19 8 5 9 7 30 14 5
internal_value=0 -0.0621536 -0.0172728 -0.35266 0.119742 0.0582224 -0.112884 -0.006298 0.175573 0.480612 0.125481 0.0565716 0.133007 -0.172289 0.261415
internal_weight=0 5.29526 5.07097 1.47078 3.60019 3.31143 1.01913 0.93105 0.756855 0.425082 2.96548 2.46483 2.32197 0.883533 0.51102
internal_count=210 202 194 94 100 95 46 37 18 10 78 65 56 26 12
shrinkage=0.1


Tree=23
num_leaves=16
num_cat=0
split_feature=1 1 4 5 0 7 5 8 8 3 1 5 3 7 0
split_gain=0.236603 0.224079 0.218402 0.159105 0.133864 0.124069 0.186936 0.120249 0.125303 0.114873 0.114534 0.105334 0.103891 0.165393 0.0850266
threshold=12923.500000000002 2042.5000000000002 0.51875000000000016 0.69500000000000006 0.010448330962471655 0.10250000000000002 0.64500000000000013 0.46395000000000003 0.5031500000000001 3.6280175393724154 6619.5000000000009 0.60500000000000009 3.3412442009808863 0.51755000000000007 0.0032783312239091883
decision_type=2 2 2 2 2 2 2 2 2 2 2 2 2 2 2
left_child=1 3 -2 -1 11 -4 7 -7 -9 12 -6 -3 13 -10 -11
right_child=2 4 5 -5 10 6 -8 8 9 14 -12 -13 -14 -15 -16
leaf_value=0.063152362853103425 0.086841460578832352 -0.035091142271226783 0.072365275840236234 -0.12474955300006595 0.044995643199180833 -0.067064782805973763 -0.051617041751076044 0.058583539022398691 -0.049315757531781239 -0.0076300036436690137 -0.047998578931182388 -0.099715996442811428 0.069701982282095329 0.045076262300028321 -0.10856357914800155
leaf_weight=0.34841994615271682 0.38527201488614121 0.5185564844869075 0.26371690817177329 0.051757166162133217 0.24863569764420376 0.17021927610039789 0.54912589211016882 0.60391380521468851 0.35080806538462617 0.22745607141405333 0.28340195678174496 0.49105245666578407 0.30770437233150005 0.39424042776226997 0.1318358089774847
leaf_count=8 7 21 6 6 5 8 35 14 18 6 7 51 5 7 6
internal_value=0 -0.278249 0.159652 0.388499 -0.451322 0.0686006 0.00544547 0.136465 0.204615 0.0415714 -0.0453984 -0.665233 0.208198 0.00631529 -0.446658
internal_weight=0 1.94182 3.38429 0.400177 1.54165 2.99902 2.7353 2.18618 2.01596 1.41204 0.532038 1.00961 1.05275 0.745048 0.359292
internal_count=210 98 112 14 84 105 99 64 56 42 12 72 30 25 12
shrinkage=0.1


Tree=24
num_leaves=16
num_cat=0
split_feature=5 1 0 7 8 0 5 7 5 1 0 2 0 0 8
split_gain=0.211274 0.158275 0.124923 0.143727 0.0967338 0.0760233 0.0939401 0.0750015 0.100403 0.152021 0.0785046 0.0701771 0.0507606 0.101414 0.0766204
threshold=0.63500000000000012 75903.500000000015 0.046272435954519603 0.51755000000000007 0.41070000000000001 0.0073567970783944897 0.67500000000000016 0.60420000000000007 0.58500000000000008 13559.000000000002 0.014314496617991439 6619.5000000000009 0.0089520238238956374 0.027969188169662925 0.49755000000000005
decision_type=2 2 2 2 2 2 2 2 2 2 2 2 2 2 2
left_child=2 5 3 12 -5 6 11 8 10 -10 -6 -2 14 -14 -1
right_child=1 -3 -4 4 7 -7 -8 -9 9 -11 -12 -13 13 -15 -16
leaf_value=-0.12096546586319555 -0.0053485783755971433 0.040801547081029066 0.068392757950214433 0.085749296567400296 0.074112496887767512 0.0014083380440473576 -0.095886274820281739 -0.024580652711608808 -0.13673973996569733 0.019220492706540863 0.003449522240344088 -0.096281074293724123 0.04845831287937756 -0.038286419109055052 -0.02038311980520132
leaf_weight=0.082268218509853552 0.31150888185948111 0.23265601601451624 0.35987476631999005 0.23722933046519745 0.49240902066230752 0.22785689448937771 0.440876618726179 0.33569171279668802 0.077371469000354409 0.3251473680138588 0.23096664436161521 0.11665258323773742 0.29890469927340729 0.24544669687747955 0.9537917028646915
leaf_count=8 15 8 6 6 8 10 49 8 5 7 6 18 6 8 42
internal_value=0 -0.341152 0.124641 0.0632623 0.26519 -0.500054 -0.634858 0.169053 0.292746 -0.107579 0.515505 -0.301231 -0.153794 0.0934533 -0.283698
internal_weight=0 1.32955 3.6391 3.27923 1.69882 1.09689 0.869038 1.46159 1.12589 0.402519 0.723376 0.428161 1.58041 0.544351 1.03606
internal_count=210 100 110 104 40 92 82 34 26 12 14 33 64 14 50
shrinkage=0.1


Tree=25
num_leaves=16
num_cat=0
split_feature=1 3 4 8 3 3 2 3 5 9 5 8 2 3 4
split_gain=0.219942 0.21209 0.168285 0.185162 0.259334 0.236772 0.154594 0.180647 0.142818 0.154175 0.137539 0.105976 0.098874 0.112916 0.0960422
threshold=12923.500000000002 9.6025000000000009 0.51875000000000016 0.4280500000000001 14.781982830820771 35.460000000000001 13559.000000000002 0.55972388391564742 0.60500000000000009 0.25000000000000006 0.66500000000000015 0.59085000000000021 6619.5000000000009 1.9057917079941109 0.93030000000000013
decision_type=2 2 2 2 2 2 2 2 2 2 2 2 2 2 2
left_child=1 6 -2 -4 8 -6 7 10 11 -10 -1 12 -5 -14 -15
right_child=2 -3 3 4 5 -7 -8 -9 9 -11 -12 -13 13 14 -16
leaf_value=0.062473400632348422 0.084416719618927882 -0.16173689248886136 -0.094166624582291636 0.081221404047786716 0.12184074634197578 -0.06504825551118891 -0.060927750083785641 -0.037427385575501161 -0.0054904015040424603 -0.10294770782578747 -0.11436116678268433 -0.067444526596540016 0.037893727710790664 0.004840539940809482 -0.11001759168716066
leaf_weight=0.46612380584701874 0.32185098342597518 0.11182184191420665 0.16664729267358813 0.27983324788510866 0.3473541243001817 0.084227526094764457 0.57602604082785536 0.52900449698790908 0.57280789362266649 0.22651562676765025 0.048566582845523953 0.12576942634768773 0.64568452909588814 0.21250812616199252 0.1107378751039505
leaf_count=11 7 5 6 5 5 6 49 26 20 23 7 10 19 6 5
internal_value=0 -0.28538 0.159715 0.0802469 0.14561 0.853675 -0.193422 0.0360925 0.00503581 -0.331083 0.457872 0.200497 0.288616 0.137398 -0.345077
internal_weight=0 1.73154 3.09394 2.77209 2.60544 0.431582 1.61972 1.04369 2.17386 0.799324 0.51469 1.37453 1.24876 0.968931 0.323246
internal_count=210 98 112 105 99 11 93 44 88 43 18 45 35 30 11
shrinkage=0.1


Tree=26
num_leaves=16
num_cat=0
split_feature=5 0 7 9 2 9 9 8 4 0 8 0 2 5 3
split_gain=0.171975 0.090729 0.137575 0.0886226 0.0787375 0.0906165 0.0776136 0.0769605 0.0781797 0.073516 0.0604764 0.0555999 0.0810412 0.0517009 0.0564289
threshold=0.62500000000000011 0.046272435954519603 0.51755000000000007 0.25000000000000006 4397.5000000000009 0.25000000000000006 0.35000000000000003 0.65315000000000012 0.93030000000000013 0.0025069498992903567 0.41070000000000001 0.0015572113221936112 12923.500000000002 0.67500000000000016 1.6809140740974973
decision_type=2 2 2 2 2 2 2 2 2 2 2 2 2 2 2
left_child=1 2 4 7 5 -1 -6 8 -2 -10 -4 -12 -13 14 -5
right_child=3 -3 10 13 6 -7 -8 -9 9 -11 11 12 -14 -15 -16
leaf_value=-0.049202125454884435 0.020846272876733893 0.064262964542113665 0.081179533230960332 -0.093711542998409225 -0.018611788384223737 0.060584173045365432 -0.097457826400427341 0.026644308174333043 -0.10880986855928948 -0.02473005024508728 0.046624690267595137 -0.046378285742755238 0.02624529737730474 -0.10570079507164215 0.012918524513979688
leaf_weight=0.11122440360486574 0.1870424188673494 0.31348232552409161 0.1931664403527974 0.088107932358980193 0.80321185663342465 0.23200149182230237 0.14782385341823101 0.3229334070347249 0.16630047932267189 0.27755014132708311 0.49306597001850577 0.22678339295089245 0.47652319632470608 0.19666269817389548 0.11364293191581964
leaf_count=5 10 6 6 15 35 6 14 8 12 24 10 7 13 32 7
internal_value=0 0.133559 0.0740972 -0.296039 -0.160498 0.250073 -0.308672 -0.130584 -0.33381 -0.562328 0.292607 0.208779 0.028276 -0.692146 -0.336486
internal_weight=0 2.99728 2.6838 1.35224 1.29426 0.343226 0.951036 0.953826 0.630893 0.443851 1.38954 1.19637 0.703307 0.398414 0.201751
internal_count=210 102 96 108 60 11 49 54 46 36 36 30 20 54 22
shrinkage=0.1


Tree=27
num_leaves=16
num_cat=0
split_feature=5 1 4 8 2 8 5 2 5 3 3 3 4 2 9
split_gain=0.161135 0.0917004 0.0820325 0.0800255 0.0752656 0.0738067 0.11907 0.18287 0.112687 0.0577546 0.0563023 0.10727 0.0491003 0.0455758 0.1446
threshold=0.62500000000000011 75903.500000000015 0.51875000000000016 0.4280500000000001 9853.5000000000018 0.48585000000000006 0.54500000000000015 6619.5000000000009 0.54500000000000015 0.84052269475765662 0.48510407601501387 0.94597701483045593 0.93030000000000013 6619.5000000000009 0.35000000000000003
decision_type=2 2 2 2 2 2 2 2 2 2 2 2 2 2 2
left_child=2 4 -1 -4 9 8 7 -7 -5 -2 -9 -12 -11 -8 -15
right_child=1 -3 3 5 -6 6 13 10 -10 12 11 -13 -14 14 -16
leaf_value=0.062431941069444989 0.024102515838632606 0.033157878915402866 -0.071804515764330765 0.084614539526915888 -0.090228419676390739 -0.14534060762027004 0.041296301762761715 -0.049477573992615126 -0.033594714067972646 0.017345240754831164 0.067280513266600436 -0.031499269069642587 -0.053929341281295479 0.027812382530981845 -0.086442055811206786
leaf_weight=0.30072298273444209 0.1744052800349889 0.19479145854711519 0.12200411781668696 0.28183440119028125 0.24396577500738204 0.11251803860068356 0.63296851143240906 0.21443174034357071 0.11296901339665057 0.11850916408002377 0.19975431077182293 0.24449674319475889 0.52407048223540187 0.52826606761664152 0.1401600306853652
leaf_count=8 8 8 6 6 49 6 15 11 6 5 5 12 38 14 13
internal_value=0 -0.299085 0.129951 0.0725366 -0.414876 0.111628 0.036143 -0.275219 0.507902 -0.269327 -0.0739576 0.129164 -0.407844 0.220655 0.0385475
internal_weight=0 1.25574 2.89013 2.5894 1.06095 2.4674 2.0726 0.771201 0.394803 0.816985 0.658683 0.444251 0.64258 1.30139 0.668426
internal_count=210 108 102 94 100 88 76 34 12 51 28 17 43 42 27
shrinkage=0.1


Tree=28
num_leaves=16
num_cat=0
split_feature=5 7 4 2 2 5 9 8 8 5 8 8 1 3 4
split_gain=0.124273 0.0818166 0.163625 0.106949 0.0730184 0.0840726 0.0677524 0.0818904 0.0656525 0.0518465 0.0473691 0.0522988 0.0490005 0.0546588 0.0429936
threshold=0.62500000000000011 0.41835000000000006 0.51875000000000016 4397.5000000000009 6619.5000000000009 0.75500000000000012 0.35000000000000003 0.52190000000000014 0.65315000000000012 0.67500000000000016 0.58695000000000008 0.51835000000000009 13559.000000000002 1.0571200669811673 0.96875000000000011
decision_type=2 2 2 2 2 2 2 2 2 2 2 2 2 2 2
left_child=1 3 -3 -1 5 8 -4 -8 9 -2 11 12 -5 -14 -6
right_child=4 2 6 10 14 -7 7 -9 -10 -11 -12 -13 13 -15 -16
leaf_value=0.039823775470988282 -0.0043574809578408617 0.10880679658294382 0.021505170909075021 -0.11585105815835842 -0.019307790323974498 -0.1240269024065398 0.014064199644778126 -0.10730164961396126 0.037834206823173684 -0.079094395093184999 -0.11564836808446473 0.010417758273694499 0.028046310916996105 -0.0714063027125688 -0.091298835438810788
leaf_weight=0.26203674264252264 0.36045182542875381 0.20150798372924292 1.4018854834139345 0.088937104679644094 0.13105680630542338 0.06057479465380311 0.13136212155222904 0.096390026155859232 0.27104369923472404 0.1250146001111716 0.067482114536687732 0.22184818051755428 0.097770740278065205 0.12710427306592464 0.22602223185822368
leaf_count=7 20 6 42 7 14 6 6 8 5 16 7 9 5 5 47
internal_value=0 0.118245 0.237982 -0.135176 -0.271536 -0.106682 0.132867 -0.373007 -0.0159138 -0.236033 -0.366919 -0.26745 -0.530171 -0.281665 -0.648763
internal_weight=0 2.69632 1.83115 0.865179 1.17416 0.817085 1.62964 0.227752 0.75651 0.485466 0.603142 0.53566 0.313812 0.224875 0.357079
internal_count=210 102 62 40 108 47 56 14 41 36 33 26 17 10 61
shrinkage=0.1


Tree=29
num_leaves=16
num_cat=0
split_feature=4 1 1 7 7 5 8 5 3 5 5 4 1 3 3
split_gain=0.124028 0.178351 0.102042 0.0871849 0.0850677 0.0877788 0.104747 0.0842128 0.0767406 0.0679801 0.0628489 0.0596029 0.0563678 0.0515866 0.0746195
threshold=0.93030000000000013 13559.000000000002 2042.5000000000002 0.41835000000000006 0.55485000000000018 0.56500000000000006 0.65315000000000012 0.69500000000000006 14.781982830820771 0.48000000000000004 0.60500000000000009 0.88750000000000007 27951.000000000004 3.3412442009808863 0.55972388391564742
decision_type=2 2 2 2 2 2 2 2 2 2 2 2 2 2 2
left_child=1 11 7 -3 8 -6 -7 -2 10 -5 13 -1 -11 14 -4
right_child=2 3 4 9 5 6 -8 -9 -10 12 -12 -13 -14 -15 -16
leaf_value=-0.099496733258965811 0.061380694530220284 0.0031830999274497897 0.0164780306646569 0.11202414005525606 0.015516234523403068 -0.11140286917114746 -0.021051695276272132 -0.12046262685642498 0.067718935648614323 -0.0057440042446665635 -0.054087860460259096 0.0016737266355160722 0.064545289579555395 0.037867433791963737 -0.048442456422116476
leaf_weight=0.13258201163262162 0.2496541028376672 0.40356128010898806 0.35672050551511369 0.19292731210589409 0.15343520883470765 0.28409576939884573 0.23400396388024089 0.028360377298668027 0.12341719144023944 0.1653491803444922 0.30893840757198632 0.10383924259804188 0.36803956050425768 0.24041744787245989 0.35150624299421906
leaf_count=14 8 17 15 5 5 34 10 6 6 7 39 8 11 7 18
internal_value=0 0.239222 -0.140245 0.404491 -0.217256 -0.5092 -0.70595 0.428308 -0.0752927 0.611552 -0.14914 -0.550614 0.427558 -0.0215653 -0.157432
internal_weight=0 1.3663 2.33055 1.12988 2.05253 0.671535 0.5181 0.278014 1.381 0.726316 1.25758 0.236421 0.533389 0.948644 0.708227
internal_count=210 62 148 40 134 49 44 14 85 23 79 22 18 40 33
shrinkage=0.1


Tree=30
num_leaves=16
num_cat=0
split_feature=4 9 7 3 8 3 3 0 2 2 8 0 5 8 7
split_gain=0.0982678 0.066271 0.137568 0.175563 0.0729058 0.0892568 0.0781313 0.122975 0.099138 0.0967859 0.089851 0.0825319 0.0797708 0.0651421 0.0613223
threshold=0.51875000000000016 0.35000000000000003 0.55485000000000018 3.0029287580387583 0.4280500000000001 14.781982830820771 1.1898297797422142 0.00040819260646470299 13559.000000000002 13559.000000000002 0.55870000000000009 0.014314496617991439 0.55500000000000016 0.52655000000000018 0.41835000000000006
decision_type=2 2 2 2 2 2 2 2 2 2 2 2 2 2 2
left_child=-1 4 3 -3 -2 6 7 -6 12 14 13 -10 -8 -11 -9
right_child=1 2 -4 -5 5 -7 8 9 11 10 -12 -13 -14 -15 -16
leaf_value=0.063820350782119201 -0.071615613198658154 -0.074753616648477753 -0.12234487732216487 0.049152937268023951 -0.094733683268810737 0.065990111332881254 -0.097030936614178748 -0.0074424200379740197 -0.033949551077354582 -0.030581492409527067 -0.096626937519030329 0.072493760123182496 -0.020804541754949463 0.04420188425085262 0.074158055669266129
leaf_weight=0.22559959627687964 0.12689751945436081 0.21320187696255727 0.13735389593057334 0.24663717043586075 0.090121972840280132 0.22626805212348688 0.17726371996104695 0.11712376750074303 0.12241284735500813 0.19309847475960848 0.085496127256192253 0.17988331988453865 0.60877845622599125 0.29356062621809542 0.43095022416673601
leaf_count=8 8 29 24 9 13 7 10 8 6 13 13 5 34 11 12
internal_value=0 -0.044314 -0.345269 -0.0829566 0.0234604 0.0606316 0.00164337 0.176466 -0.192779 0.266876 -0.0208079 0.293902 -0.379947 0.14529 0.5672
internal_weight=0 3.24905 0.597193 0.459839 2.65186 2.52496 2.29869 1.21035 1.08834 1.12023 0.572155 0.302296 0.786042 0.486659 0.548074
internal_count=210 202 62 38 140 132 125 70 55 57 37 11 44 24 20
shrinkage=0.1


Tree=31
num_leaves=16
num_cat=0
split_feature=9 7 3 1 1 4 3 3 3 3 7 3 4 5 0
split_gain=0.0985347 0.140203 0.126675 0.0651795 0.124103 0.079465 0.0555015 0.0673786 0.0524397 0.043643 0.0426066 0.0413458 0.046328 0.0360437 0.0557385
threshold=0.35000000000000003 0.55485000000000018 3.0029287580387583 2042.5000000000002 12923.500000000002 0.51875000000000016 1.2840939208614175 0.52478920575423105 14.781982830820771 2.4581895072068165 0.50160000000000016 1.97094688718503 0.93030000000000013 0.48000000000000004 0.0030745927766122729
decision_type=2 2 2 2 2 2 2 2 2 2 2 2 2 2 2
left_child=3 2 10 -1 6 -6 7 -5 11 -8 -2 13 -13 -7 -15
right_child=1 -3 -4 4 5 8 9 -9 -10 -11 -12 12 -14 14 -16
leaf_value=0.055111822258223267 -0.099747796452697393 -0.12571136214691289 0.040119519087313101 -0.05880121555985271 0.078449420962738159 0.057487737351373969 -0.15384756153110868 0.01116405275419048 0.054551690381097057 -0.040201171095634328 0.0022517948563296752 0.011146274264934627 -0.039817328741444002 -0.070521640826772813 0.023058605395735378
leaf_weight=0.26463870098814446 0.13649042905308295 0.13767537393141538 0.23276353813707829 0.24034599063452369 0.18909963499754656 0.19010901916772105 0.059777989517897367 0.3221171060577035 0.22301361802965392 0.077730614226311445 0.058506722096353769 0.35959631111472845 0.35393092455342406 0.079219197621569024 0.32382026966661209
leaf_count=8 22 24 9 33 7 7 5 14 6 7 7 16 22 10 13
internal_value=0 -0.379386 -0.0968886 0.0799429 0.0283912 0.172943 -0.326557 -0.187328 0.097343 -0.896057 -0.69144 0.0208521 -0.141332 0.215951 0.0466499
internal_weight=0 0.565436 0.427761 2.6834 2.41876 1.71879 0.699972 0.562463 1.52969 0.137509 0.194997 1.30668 0.713527 0.593148 0.403039
internal_count=210 62 38 148 140 81 59 47 74 12 29 68 38 30 23
shrinkage=0.1


Tree=32
num_leaves=16
num_cat=0
split_feature=5 9 1 4 0 1 0 0 1 4 8 4 3 3 0
split_gain=0.0755106 0.0647653 0.0525624 0.059145 0.051679 0.0461747 0.0459542 0.0889159 0.0387726 0.0971225 0.11539 0.0879356 0.0320387 0.0750146 0.0297683
threshold=0.63500000000000012 0.25000000000000006 12923.500000000002 0.51875000000000016 0.0073567970783944897 3841.0000000000005 0.0024064046943045895 0.0029133719470074175 13559.000000000002 0.93030000000000013 0.58695000000000008 0.96875000000000011 0.91105242545999598 0.40706634781460072 0.00033208591016369889
decision_type=2 2 2 2 2 2 2 2 2 2 2 2 2 2 2
left_child=2 6 5 -4 -3 -1 14 -8 11 -10 -11 -5 13 -7 -2
right_child=1 4 3 8 -6 12 7 -9 9 10 -12 -13 -14 -15 -16
leaf_value=0.015269566982496123 -0.020811456492759315 -0.094407051397416619 0.074642893341974978 -0.11934869806039468 0.026391581962094658 -0.0775891293954033 0.065286147500716998 -0.026646118776424168 0.028224338338969181 -0.068328618979059952 0.04483464643648568 0.072820068152781192 -0.076151425959912006 0.026004006632065257 -0.12202284180784601
leaf_weight=0.33823157707229334 0.068282551132142433 0.18506578588858247 0.17569310124963511 0.026974627748131641 0.043796369805932045 0.1176643748767674 0.16274946369230747 0.29755905002821242 0.69038110645487882 0.28722856938838959 0.13129588309675455 0.203109678812325 0.12778713973239064 0.17220043553970754 0.050590624567121274
leaf_count=13 8 44 7 6 6 12 6 28 29 17 6 5 7 8 8
internal_value=0 -0.262528 0.093428 0.20091 -0.712903 -0.121951 -0.0845638 0.0585801 0.129331 0.0518189 -0.32828 0.502906 -0.344372 -0.160474 -0.638855
internal_weight=0 0.808044 2.27057 1.51468 0.228862 0.755884 0.579182 0.460309 1.33899 1.10891 0.418524 0.230084 0.417652 0.289865 0.118873
internal_count=210 100 110 70 50 40 50 34 63 52 23 11 27 20 16
shrinkage=0.1


Tree=33
num_leaves=16
num_cat=0
split_feature=5 9 0 7 9 0 3 0 0 3 0 3 0 9 9
split_gain=0.0607866 0.0606141 0.0400223 0.0565496 0.0477046 0.107355 0.0415062 0.0391643 0.0626399 0.0373414 0.0329106 0.0325488 0.0256557 0.0231666 0.0221052
threshold=0.63500000000000012 0.25000000000000006 0.046272435954519603 0.51755000000000007 0.25000000000000006 0.0020096510130461283 1.7866135738250242 0.0024064046943045895 0.0029133719470074175 3.6280175393724154 0.011984433375487867 0.27563628173692006 0.00033208591016369889 0.15000000000000005 0.35000000000000003
decision_type=2 2 2 2 2 2 2 2 2 2 2 2 2 2 2
left_child=2 7 3 6 11 -6 14 12 -9 -8 -10 -5 -2 -13 -1
right_child=1 -3 -4 4 5 -7 9 8 10 -11 -12 13 -14 -15 -16
leaf_value=-0.024259006640136038 -0.021459321171160811 -0.07196824744632295 0.051722778196509583 -0.017825921815873929 0.023742819818262796 -0.10828363799007119 0.02957735770026761 0.057036572705279766 -0.05609123267549887 -0.028885536734172476 0.011797316747291153 0.030444593270797505 -0.12006743901629102 0.072786632947228355 -0.085877815805656829
leaf_weight=0.44638760923408038 0.066045114770531529 0.19814775674603879 0.19517898745834816 0.091860046144574881 0.24278562888503075 0.082522225100547075 0.30595749546773726 0.15499809756875038 0.14186995814088732 0.16993205435574055 0.14377223933115602 0.34106639213860035 0.043938586721196771 0.20803235378116369 0.066951368004083633
leaf_count=31 8 50 6 5 8 6 14 6 22 9 6 14 8 7 10
internal_value=0 -0.245391 0.0854346 0.0423371 0.2144 -0.0974889 -0.125732 -0.0747125 0.0585291 0.0870125 -0.219209 0.372693 -0.608534 0.464864 -0.322955
internal_weight=0 0.748772 2.15067 1.9555 0.966267 0.325308 0.989229 0.550624 0.44064 0.47589 0.285642 0.640959 0.109984 0.549099 0.513339
internal_count=210 100 110 104 40 14 64 50 34 23 28 26 16 21 41
shrinkage=0.1


Tree=34
num_leaves=16
num_cat=0
split_feature=4 7 1 7 3 0 9 7 1 3 4 0 9 2 2
split_gain=0.0562222 0.0475564 0.079218 0.0723399 0.0510767 0.0467958 0.0565253 0.0443058 0.0752725 0.0956285 0.0746452 0.0423299 0.0390828 0.0378561 0.0344189
threshold=0.51875000000000016 0.60420000000000007 2042.5000000000002 0.55485000000000018 14.781982830820771 0.0089520238238956374 0.15000000000000005 0.47525000000000006 27951.000000000004 1.1898297797422142 0.93030000000000013 0.0015572113221936112 0.35000000000000003 27951.000000000004 38653.000000000007
decision_type=2 2 2 2 2 2 2 2 2 2 2 2 2 2 2
left_child=-1 2 3 -2 5 6 -4 -7 9 10 -9 13 -6 -8 -3
right_child=1 14 4 -5 12 7 11 8 -10 -11 -12 -13 -14 -15 -16
leaf_value=0.054022002926316703 -0.12018782467659904 -0.057328614638850174 -0.096205946371120343 0.097122000577241713 0.068635078636045135 0.039817198780888588 0.011873188499474411 -0.072197355366338131 0.043029845233996909 -0.1078689902363085 0.055064246325009975 -0.034964813019480893 -0.036214710416153352 -0.094739413749979268 0.036091355827257185
leaf_weight=0.18016815744340453 0.01734655431937504 0.24107087799347929 0.093199727591127476 0.13103101670276374 0.15353081095963703 0.30585767701268185 0.50180045969318576 0.075533046387135983 0.17970649711787701 0.12093021161854269 0.11823919671587646 0.53350210527423769 0.046263442724011838 0.035673497943207622 0.047152127604931593
leaf_count=8 5 19 19 6 5 14 31 5 7 5 5 63 7 6 5
internal_value=0 -0.0374227 0.0103149 0.717167 -0.0381461 -0.0871387 -0.215104 0.0990168 -0.0860504 -0.380904 0.0545726 -0.150102 0.443565 0.0479704 -0.420455
internal_weight=0 2.60084 2.31261 0.148378 2.16424 1.96444 1.16418 0.800267 0.494409 0.314702 0.193772 1.07098 0.199794 0.537474 0.288223
internal_count=210 202 178 11 167 155 119 36 22 15 10 100 12 37 24
shrinkage=0.1


Tree=35
num_leaves=16
num_cat=0
split_feature=4 1 1 9 5 7 2 8 1 1 3 3 4 0 0
split_gain=0.0521295 0.106917 0.0792054 0.0542611 0.0481979 0.04402 0.0815935 0.0520774 0.0520337 0.0950632 0.0730209 0.0696075 0.0316898 0.0300029 0.0232943
threshold=0.93030000000000013 14184.000000000002 2042.5000000000002 0.25000000000000006 0.69500000000000006 0.35230000000000006 13559.000000000002 0.58695000000000008 13559.000000000002 9853.5000000000018 1.3985118072963105 0.52478920575423105 0.51875000000000016 0.033394802589982446 0.0034139475987942222
decision_type=2 2 2 2 2 2 2 2 2 2 2 2 2 2 2
left_child=1 13 4 12 -2 6 7 -4 9 10 11 -7 -3 -1 -11
right_child=2 3 5 -5 -6 8 -8 -9 -10 14 -12 -13 -14 -15 -16
leaf_value=-0.050745666790700542 0.058369253284730985 0.10682817485340523 -0.0093319927117187194 -0.039247077992021616 -0.11761561208769465 -0.062966983581263042 -0.099193283937043644 0.074012144651967343 -0.05414049644649932 0.073265647504890216 -0.10522738462742109 0.027586021001039546 0.041580008177660777 0.017419565823200391 0.0047144013959036103
leaf_weight=0.21493709611240783 0.2060241298750044 0.087408564053475857 0.14942428946960706 0.074627914000302539 0.016834011359605938 0.1535875689005477 0.05581556900870055 0.15046727634035051 0.46574164123740047 0.1236964059062302 0.11419378279242665 0.18978330143727359 0.50154563598334789 0.092299342155456543 0.082718760939314961
leaf_count=24 8 5 12 6 6 29 9 6 47 5 9 12 21 6 5
internal_value=0 0.185037 -0.105156 0.410847 0.450759 -0.18856 0.118228 0.32485 -0.285156 -0.105413 -0.359553 -0.129178 0.512637 -0.302676 0.457944
internal_weight=0 0.970819 1.70829 0.663582 0.222858 1.48543 0.355707 0.299892 1.12972 0.66398 0.457565 0.343371 0.588954 0.307236 0.206415
internal_count=210 62 148 32 14 134 27 18 107 60 50 41 26 30 10
shrinkage=0.1


Tree=36
num_leaves=16
num_cat=0
split_feature=1 1 3 7 5 2 0 5 0 7 7 7 7 4 6
split_gain=0.102246 0.0961613 0.0893519 0.0895359 0.0713329 0.0681832 0.0550587 0.0462438 0.0372948 0.0376575 0.0770427 0.050661 0.0791853 0.0560713 0.0459951
threshold=2042.5000000000002 9853.5000000000018 1.2840939208614175 0.55485000000000018 0.71500000000000008 13559.000000000002 0.010448330962471655 0.60500000000000009 0.038595742545180382 0.50160000000000016 0.40755000000000002 0.55485000000000018 0.57455000000000012 0.96875000000000011 0.55000000000000016
decision_type=2 2 2 2 2 2 2 2 2 2 2 2 2 2 2
left_child=5 2 6 -4 8 -1 7 -2 9 10 14 -11 -13 -14 -3
right_child=1 4 3 -5 -6 -7 -8 -9 -10 11 -12 12 13 -15 -16
leaf_value=0.087669198977534668 -0.011102421990794654 -0.0099455711029050303 -0.17091052766491355 -0.0074824130431011479 -0.10199352117126324 -0.045546848052790821 0.03885186508979159 -0.087454109406044908 0.058105075340262428 0.052862765354947744 -0.06670821661959063 -0.08805957373047206 0.047582975012715564 -0.026037106557752449 0.053258150067295111
leaf_weight=0.19653619837481559 0.20929581311065737 0.43823936861008383 0.08972375723533331 0.053519207518547766 0.059891417622566112 0.047756456246133887 0.11994194379076362 0.1277423455612734 0.14205289818346489 0.29418854718096554 0.18851617188192904 0.083867420209571733 0.25869003520347178 0.17239956499543041 0.15617143595591187
leaf_count=7 15 29 5 6 8 7 5 39 8 16 20 8 14 15 8
internal_value=0 -0.0628801 -0.409356 -1.0985 0.0530401 0.61627 -0.193341 -0.400408 0.0900974 0.046292 -0.110058 0.197576 0.00844976 0.181411 0.0666014
internal_weight=0 2.39424 0.600223 0.143243 1.79402 0.244293 0.45698 0.337038 1.73413 1.59207 0.782927 0.809146 0.514957 0.43109 0.594411
internal_count=210 196 70 11 126 14 59 54 118 110 57 53 37 29 37
shrinkage=0.1


Tree=37
num_leaves=16
num_cat=0
split_feature=4 8 8 3 8 8 3 5 7 0 5 9 2 0 7
split_gain=0.0507144 0.0400205 0.0476407 0.0668864 0.0598978 0.0607602 0.0611354 0.0565149 0.0472747 0.0412548 0.0471745 0.0289344 0.0248383 0.0309792 0.02286
threshold=0.51875000000000016 0.4280500000000001 0.48055000000000009 0.082625158462780526 0.49505000000000005 0.5031500000000001 0.12681291441123818 0.54500000000000015 0.33830000000000005 0.01724049321605306 0.68500000000000016 0.25000000000000006 14184.000000000002 0.0027390048446439721 0.50160000000000016
decision_type=2 2 2 2 2 2 2 2 2 2 2 2 2 2 2
left_child=-1 -2 7 -4 -5 -6 -7 -3 12 10 14 -9 13 -8 -10
right_child=1 2 3 4 5 6 8 11 9 -11 -12 -13 -14 -15 -16
leaf_value=0.055700228384597629 -0.071026731308148225 0.078653287710704817 -0.079882266945902364 -0.085462913154702391 0.060169438740246863 0.072061027564636379 0.0026709527926415785 0.0099758417499812117 -0.042532636858202119 0.013614906335718564 -0.10191748800701286 -0.1161922665662448 -0.038138042773224336 0.073692327429996457 -0.0074190997541484782
leaf_weight=0.15311421081423793 0.085134195396676993 0.15198504924774203 0.11774496221914876 0.082114334101788589 0.16230652225203801 0.098425114527344607 0.11923642340116192 0.11341813288163394 0.31934769498184301 0.29349730303511024 0.082130278635304421 0.021645670756697651 0.04988303198479116 0.12665720330551267 0.44205723836785182
leaf_count=8 8 6 16 16 9 5 7 10 35 12 25 6 6 6 35
internal_value=0 -0.0376437 -0.0113816 -0.0689352 -0.0205359 0.0199066 -0.0417613 0.368248 -0.0941315 -0.186775 -0.299132 -0.102442 0.262012 0.392533 -0.221464
internal_weight=0 2.26558 2.18045 1.8934 1.77566 1.69354 1.53123 0.287049 1.43281 1.13703 0.843535 0.135064 0.295777 0.245894 0.761405
internal_count=210 202 194 172 156 140 131 22 126 107 95 16 19 13 70
shrinkage=0.1


Tree=38
num_leaves=16
num_cat=0
split_feature=5 9 4 2 8 8 2 7 5 2 3 3 2 0 8
split_gain=0.0504855 0.0392723 0.0317444 0.028908 0.0270845 0.0300006 0.0576614 0.032994 0.0265012 0.0849262 0.0393806 0.049848 0.0252442 0.0235877 0.0222246
threshold=0.64500000000000013 0.25000000000000006 0.51875000000000016 3841.0000000000005 0.4280500000000001 0.5031500000000001 14184.000000000002 0.41835000000000006 0.54500000000000015 6619.5000000000009 0.48510407601501387 1.6809140740974973 9853.5000000000018 0.0024064046943045895 0.52655000000000018
decision_type=2 2 2 2 2 2 2 2 2 2 2 2 2 2 2
left_child=2 3 -1 -2 -4 6 7 -6 9 -7 -11 -12 13 -5 -10
right_child=1 -3 4 12 5 8 -8 -9 14 10 11 -13 -14 -15 -16
leaf_value=0.052795403255963824 -0.10492434820564139 -0.072464039035629077 -0.055045418450855768 -0.04803499057206842 -0.010568727348262821 -0.12948009387447032 -0.024212154324894656 0.072133974102127976 -0.028815145030842811 -0.046917587542941369 0.067263517029806236 -0.024925509357284908 -0.060629385635681959 0.022847206691802166 0.019150295118982072
leaf_weight=0.14650825783610377 0.030098171322606396 0.13973395322682336 0.073707996634766335 0.058235747739672654 0.061109823873266474 0.061926677357405202 0.13592608680482954 0.22902952192816883 0.11721801292151213 0.1302537159062922 0.11854685517027974 0.11609034519642591 0.062749945325776935 0.2421984551474452 0.54919699335005134
leaf_count=8 9 48 8 7 6 6 12 10 10 11 6 9 19 11 30
internal_value=0 -0.26926 0.0825058 -0.107463 0.0415381 0.0702583 0.295351 0.547149 -0.0174671 -0.212016 -0.0282529 0.216516 -0.0294144 0.091075 0.107135
internal_weight=0 0.533016 1.73951 0.393282 1.59301 1.5193 0.426065 0.290139 1.09323 0.426818 0.364891 0.234637 0.363184 0.300434 0.666415
internal_count=210 94 116 46 108 100 28 16 72 32 26 15 37 18 40
shrinkage=0.1


Tree=39
num_leaves=16
num_cat=0
split_feature=0 8 4 5 8 8 8 8 2 9 8 3 8 8 8
split_gain=0.0442734 0.0372742 0.0293454 0.0321876 0.0808958 0.0408811 0.0262005 0.0607881 0.0497353 0.0325207 0.0268981 0.0227275 0.0153583 0.0116797 0.0233164
threshold=0.046272435954519603 0.41070000000000001 0.77500000000000013 0.67500000000000016 0.65315000000000012 0.59455000000000002 0.58695000000000008 0.56975000000000009 9853.5000000000018 0.25000000000000006 0.49755000000000005 0.91105242545999598 0.51835000000000009 0.46395000000000003 0.47205000000000003
decision_type=2 2 2 2 2 2 2 2 2 2 2 2 2 2 2
left_child=1 -1 -3 5 -5 6 7 9 -8 13 -11 -7 -12 -4 -15
right_child=-2 2 3 4 -6 11 8 -9 -10 10 12 -13 -14 14 -16
leaf_value=0.056251385231097989 0.055449446848579935 -0.067499732991138567 -0.020959048980655148 -0.096734124165331573 0.015562873000808298 -0.10418953353295131 0.062271898191309821 -0.1122560582165312 -0.10908601793811196 -0.10505461695247041 0.014094034128247494 -0.023177455842072786 -0.02789032139659911 0.069237191162506678 0.014796014239753361
leaf_weight=0.09873061627149661 0.13502854667603958 0.076354144839569579 0.071112543344497459 0.12069803848862661 0.13691933685913682 0.044923406559973837 0.15407731477171172 0.044955067569389835 0.019029711140319705 0.032233635312877595 0.15410659956978634 0.15113453380763531 0.20047752768732607 0.089716536924242973 0.63890207896474749
leaf_count=8 6 6 6 46 10 10 5 6 5 10 10 12 22 6 42
internal_value=0 -0.0368219 -0.0674078 -0.0424429 -0.370501 0.010356 0.0700629 0.0188575 0.434345 0.0621026 -0.175941 -0.4174 -0.0964341 0.17724 0.214995
internal_weight=0 2.03337 1.93464 1.85829 0.257617 1.60067 1.40461 1.2315 0.173107 1.18655 0.386818 0.196058 0.354584 0.799731 0.728619
internal_count=210 204 196 190 56 134 112 102 10 96 42 22 32 54 48
shrinkage=0.1


Tree=40
num_leaves=16
num_cat=0
split_feature=4 3 3 5 2 1 0 3 0 5 3 2 1 0 7
split_gain=0.0423047 0.0283552 0.068506 0.0448154 0.0346088 0.0507383 0.0335873 0.0335203 0.0354787 0.0316693 0.0310826 0.0424112 0.0447718 0.0374329 0.0307673
threshold=0.51875000000000016 6.9671272366601471 3.8589036294710692 0.67500000000000016 4397.5000000000009 38653.000000000007 0.0067918769395814366 3.3412442009808863 0.00040819260646470299 0.64500000000000013 1.7866135738250242 13559.000000000002 16306.000000000002 0.0010822875654896349 0.48610000000000003
decision_type=2 2 2 2 2 2 2 2 2 2 2 2 2 2 2
left_child=-1 2 3 7 5 9 -5 8 -2 -3 11 -10 13 -13 -12
right_child=1 4 -4 6 -6 -7 -8 -9 10 -11 14 12 -14 -15 -16
leaf_value=0.05495011926848014 -0.06086803685983562 0.039240925838776239 -0.088141624588190193 -0.09461889472018023 0.051515346932976547 -0.080488709901806829 -0.002762421756061216 0.043199136735748767 0.03783861532461319 -0.093819166596460835 -0.00050629494048399387 0.03348903849073126 0.03144723638582609 -0.053296426033184588 -0.078149206883329103
leaf_weight=0.13126255851238977 0.10096113465260692 0.14670792315155279 0.10456561553291964 0.089838160318322383 0.18598540546372533 0.066093177534639835 0.071478174941148609 0.17117377789691079 0.3292558912653476 0.020370938233099881 0.12275238859001548 0.064274680567905307 0.16869610018329695 0.21918619645293799 0.087358050281181931
leaf_count=8 19 7 12 35 9 6 7 10 22 8 9 5 12 35 6
internal_value=0 -0.0370139 -0.100161 -0.0428318 0.193415 -0.0632145 -0.539179 0.020531 -0.0439379 0.230177 0.0135666 0.105377 -0.0934259 -0.336178 -0.32788
internal_weight=0 1.9487 1.52954 1.42497 0.419157 0.233172 0.161316 1.26366 1.09248 0.167079 0.991523 0.781413 0.452157 0.283461 0.21011
internal_count=210 202 172 160 30 21 42 118 108 15 89 74 52 40 15
shrinkage=0.1


Tree=41
num_leaves=16
num_cat=0
split_feature=0 8 3 2 1 9 2 5 8 0 3 3 3 2 5
split_gain=0.0398963 0.0273263 0.0235883 0.0388954 0.0523462 0.0345002 0.032388 0.0355489 0.0192766 0.0446079 0.0297028 0.0445941 0.027807 0.0220887 0.0193138
threshold=0.046272435954519603 0.41070000000000001 6.9671272366601471 4397.5000000000009 14184.000000000002 0.35000000000000003 4397.5000000000009 0.56500000000000006 0.55870000000000009 0.0041562167850123432 0.59513468526957392 0.17172187532123692 1.0007076339628087 75903.500000000015 0.63500000000000012
decision_type=2 2 2 2 2 2 2 2 2 2 2 2 2 2 2
left_child=1 -1 3 4 -3 8 7 -4 10 -10 11 13 -12 -5 -13
right_child=-2 2 6 5 -6 -7 -8 -9 9 -11 12 14 -14 -15 -16
leaf_value=0.050630008480745885 0.055001144798749971 0.037949897634782626 0.036223804663402713 -0.002077545821178224 -0.10458054973842011 -0.066792845134147946 0.046717894068702484 -0.046861704108487917 -0.11071665409641838 -0.011375526223093228 -0.09080028943453515 0.049924620255398802 -0.014761783726719253 -0.084273827823115904 -0.055193591050230466
leaf_weight=0.088242734782397636 0.12362328171730053 0.23251188884023569 0.090170874260365838 0.098409461556002276 0.028978870948776603 0.14174151222687215 0.17825546348467469 0.12006481445860118 0.063466869760304689 0.15706257236888632 0.056694495258852839 0.20958520006388423 0.31702010403387249 0.048959068139083677 0.019069170812144879
leaf_count=8 6 15 5 9 5 47 9 16 12 17 8 11 25 6 11
internal_value=0 -0.036749 -0.0639456 -0.125481 0.221544 -0.207084 0.15361 -0.11226 -0.139762 -0.399652 -0.063317 0.135113 -0.262972 -0.29385 0.41158
internal_weight=0 1.85023 1.76199 1.3735 0.261491 1.11201 0.388491 0.210236 0.970267 0.220529 0.749737 0.376023 0.373715 0.147369 0.228654
internal_count=210 204 196 166 20 146 30 21 99 29 70 37 33 15 22
shrinkage=0.1


Tree=42
num_leaves=16
num_cat=0
split_feature=8 3 2 3 0 1 8 5 9 5 2 8 8 7 3
split_gain=0.0453789 0.0852777 0.0566205 0.0491935 0.0358485 0.0300391 0.0324975 0.0299016 0.0243032 0.0232065 0.0348304 0.0224927 0.0208868 0.0198959 0.0188627
threshold=0.46815000000000001 0.77891129191346886 75903.500000000015 1.0976440623329711 0.046272435954519603 75903.500000000015 0.49755000000000005 0.66500000000000015 0.25000000000000006 0.54500000000000015 13559.000000000002 0.65315000000000012 0.60890000000000011 0.57455000000000012 0.48510407601501387
decision_type=2 2 2 2 2 2 2 2 2 2 2 2 2 2 2
left_child=1 -1 4 -3 5 6 -2 9 -7 10 -8 -9 -11 -4 -12
right_child=2 3 13 -5 -6 8 7 11 -10 12 14 -13 -14 -15 -16
leaf_value=0.11081681615062362 -0.072684559314816308 -0.090977808470034532 -0.11616603907358046 0.027080418814964032 0.05138842260397028 0.056134291658577029 -0.058265324350600958 -0.073158725167052227 -0.045061276971512965 0.016023860170873202 -0.027260075346448438 -0.0098583115325142339 -0.049430357356376881 -0.015301012704379502 0.040905736797930692
leaf_weight=0.10073742107488226 0.080562420422211165 0.047777131898328655 0.060733784572221221 0.13509895640891045 0.11665765661746252 0.12011072225868692 0.14347488665953256 0.10699099744670092 0.029576215660199523 0.61942769819870591 0.075742651941254735 0.1180938786128536 0.052917307242751122 0.028843745589256287 0.087480561342090368
leaf_count=8 24 6 6 10 6 6 14 40 5 48 9 10 6 5 7
internal_value=0 0.36935 -0.0638498 -0.0376278 -0.0192048 -0.0625609 -0.111958 -0.0708192 0.361393 0.00473929 -0.223213 -0.399473 0.108722 -0.836877 0.0927384
internal_weight=0 0.283614 1.64061 0.182876 1.55103 1.43438 1.28469 1.20413 0.149687 0.979043 0.306698 0.225085 0.672345 0.0895775 0.163223
internal_count=210 24 186 16 175 169 158 134 11 84 30 50 54 11 16
shrinkage=0.1


Tree=43
num_leaves=16
num_cat=0
split_feature=4 5 9 8 5 8 8 3 0 0 5 7 1 3 2
split_gain=0.0318579 0.0230798 0.0222764 0.0203378 0.024087 0.0163406 0.0256172 0.0168108 0.0186426 0.0309753 0.0352933 0.0207573 0.0341055 0.0220372 0.0218208
threshold=0.51875000000000016 0.64500000000000013 0.35000000000000003 0.65315000000000012 0.67500000000000016 0.4280500000000001 0.46815000000000001 0.082625158462780526 0.00095343872489543873 0.0045249144143414627 0.57500000000000007 0.42985000000000001 14184.000000000002 0.40706634781460072 14184.000000000002
decision_type=2 2 2 2 2 2 2 2 2 2 2 2 2 2 2
left_child=-1 5 3 4 -3 -2 -7 -8 -9 10 -10 13 -13 -11 -15
right_child=1 2 -4 -5 -6 6 7 8 9 11 -12 12 -14 14 -16
leaf_value=0.051560426003251995 -0.048176939382563844 -0.011632387445362821 -0.074584566655928275 0.017749438851849771 -0.087118681439609463 0.059723048537484974 -0.045835290843298487 0.025532150287509867 -0.069907099318606059 -0.035916062782249923 0.0073478808262186961 -0.061155852096516618 0.01421713420337126 0.06751733911783489 -0.0052707838215309095
leaf_weight=0.11239547887817014 0.059049762785434605 0.15317527682054799 0.071814582508523017 0.1303642219863832 0.058383290830533952 0.0818527421215548 0.069544791360385605 0.31102484138682462 0.12548651336692274 0.039718749467283487 0.11183560296194628 0.085017220582813025 0.20428678300231692 0.13774070050567389 0.058754170313477523
leaf_count=8 8 26 36 8 24 6 7 18 20 5 11 9 13 6 5
internal_value=0 -0.0341283 -0.239534 -0.133193 -0.324642 0.0320427 0.0568051 0.0181179 0.0489748 -0.0351569 -0.335015 0.100258 -0.0793258 0.320204 0.457529
internal_weight=0 1.69805 0.413737 0.341923 0.211559 1.28431 1.22526 1.14341 1.07386 0.76284 0.237322 0.525518 0.289304 0.236214 0.196495
internal_count=210 202 94 58 50 108 100 94 87 69 31 38 22 16 11
shrinkage=0.1


Tree=44
num_leaves=16
num_cat=0
split_feature=0 8 5 2 8 3 7 8 0 8 5 8 0 5 8
split_gain=0.0304137 0.0261908 0.0184904 0.0182895 0.0480256 0.0259104 0.0335945 0.032963 0.0248014 0.020696 0.0172997 0.0191701 0.0177337 0.0131328 0.0129038
threshold=0.046272435954519603 0.41070000000000001 0.75500000000000012 6619.5000000000009 0.56440000000000012 1.0571200669811673 0.33830000000000005 0.49755000000000005 0.0027390048446439721 0.52655000000000018 0.60500000000000009 0.52015000000000011 0.0061657126701524616 0.53500000000000014 0.47485000000000005
decision_type=2 2 2 2 2 2 2 2 2 2 2 2 2 2 2
left_child=1 -1 3 5 9 -3 8 -8 -7 10 11 12 -5 -6 -12
right_child=-2 2 -4 4 13 6 7 -9 -10 -11 14 -13 -14 -15 -16
leaf_value=0.054739894160342729 0.051169542894130296 0.049210511211887777 -0.097496588246063526 0.020134602736976079 -0.022544082947784205 0.0028443894486938951 0.036020963585390163 -0.03292830219994388 0.080598759571537892 0.012365126370312122 -0.0076889652797377875 -0.07995022889126098 -0.028825776205087111 -0.10403600021491095 -0.09176283878887749
leaf_weight=0.073920317459851392 0.10888294503092776 0.1210950205568222 0.021863398374989521 0.15870841033756733 0.02763120923191309 0.096863714745268226 0.089292884222231805 0.31025603390298784 0.071160057676024735 0.33420857694000006 0.027925680798944089 0.036002291133627289 0.13857304723933339 0.069556969916447997 0.052719500963576138
leaf_count=8 6 8 10 14 5 7 9 34 5 30 6 6 10 27 25
internal_value=0 -0.0341856 -0.0618173 -0.0488025 -0.147358 0.0721725 -0.0174226 -0.175192 0.357743 -0.0614488 -0.2109 -0.110337 -0.026875 -0.808673 -0.626499
internal_weight=0 1.62978 1.55586 1.53399 0.845326 0.688668 0.567573 0.399549 0.168024 0.748138 0.413929 0.333284 0.297281 0.0971882 0.0806452
internal_count=210 204 196 186 123 63 55 43 12 91 61 30 24 32 31
shrinkage=0.1


Tree=45
num_leaves=16
num_cat=0
split_feature=5 4 8 7 7 5 9 2 8 5 2 7 8 3 7
split_gain=0.0291859 0.0186417 0.0214812 0.0222816 0.0344593 0.0238315 0.0182816 0.017115 0.0158774 0.0202437 0.0145574 0.0165385 0.0117015 0.013505 0.0155922
threshold=0.63500000000000012 0.51875000000000016 0.4280500000000001 0.57455000000000012 0.60420000000000007 0.48000000000000004 0.25000000000000006 16306.000000000002 0.65315000000000012 0.67500000000000016 9853.5000000000018 0.33830000000000005 0.57745000000000013 0.65837651993880464 0.35230000000000006
decision_type=2 2 2 2 2 2 2 2 2 2 2 2 2 2 2
left_child=1 -1 -3 5 7 -4 8 -5 9 -2 11 -7 13 -12 -15
right_child=6 2 3 4 -6 10 -8 -9 -10 -11 12 -13 -14 14 -16
leaf_value=0.048312982808670232 -0.011335714779632985 -0.061529092994685008 0.029693330655521502 0.081863876133512911 -0.012319440124355886 0.033383926746424902 -0.058772922206115519 0.021622726683524163 0.01793366553738697 -0.090242580155718885 0.0020339425973422902 -0.013723832020104798 -0.069471590713023987 -0.098879426479373242 -0.012297100683273594
leaf_weight=0.1033620131202041 0.14848340424941864 0.047974085435271152 0.18051237356848995 0.10873121675103904 0.12147456547245385 0.11301150266081096 0.10611796626471914 0.083287599729374051 0.1192430417286232 0.04162874718895182 0.12968361494131386 0.2188472542911768 0.056357972382102162 0.036284321802668273 0.048736457480117679
leaf_count=8 24 6 14 6 8 6 50 6 8 18 13 14 15 7 7
internal_value=0 0.0764122 0.0396936 0.0683393 0.293645 -0.0218173 -0.229576 0.557345 -0.106718 -0.286139 -0.11725 0.0231829 -0.289181 -0.182731 -0.492478
internal_weight=0 1.24826 1.1449 1.09693 0.313493 0.783433 0.415473 0.192019 0.309355 0.190112 0.602921 0.331859 0.271062 0.214704 0.0850208
internal_count=210 110 102 96 20 76 100 12 50 42 62 20 42 27 14
shrinkage=0.1


Tree=46
num_leaves=16
num_cat=0
split_feature=0 5 8 4 1 3 0 3 3 2 1 4 1 0 8
split_gain=0.0240977 0.0212714 0.0166138 0.018188 0.0127862 0.0271399 0.0201695 0.0205782 0.0191406 0.0261557 0.0245103 0.0161143 0.0209011 0.0177109 0.0214006
threshold=0.046272435954519603 0.79000000000000015 0.41070000000000001 0.77500000000000013 2042.5000000000002 0.13428280279728283 0.0089520238238956374 4.2445209587029806 6.9671272366601471 4397.5000000000009 38653.000000000007 0.8660500000000001 22734.000000000004 0.0032123904825280586 0.49755000000000005
decision_type=2 2 2 2 2 2 2 2 2 2 2 2 2 2 2
left_child=1 2 -1 -4 -5 -6 8 -8 11 10 -10 -7 13 14 -13
right_child=-2 -3 3 4 5 6 7 -9 9 -11 -12 12 -14 -15 -16
leaf_value=0.046991718057272536 0.047019566730873458 -0.12309791591526101 -0.059101717680008409 0.029327462272717587 -0.075251184903042001 0.015077616031244412 0.031546988175294263 -0.031954574710239249 0.012887242844583946 0.052899037897499807 -0.069967085039512072 -0.052355530354299129 -0.068977376225406312 -0.047642289515474362 0.013903861524156911
leaf_weight=0.066134705673903116 0.10208667628467094 0.014649105141870566 0.05805032153148193 0.1192910682002547 0.052586237608920672 0.10829553601797648 0.26445536280516529 0.063233682885766029 0.12159700016491116 0.099822327727451921 0.050545708276331432 0.064615342824254185 0.097523363889195025 0.1286799912340939 0.19846492708893493
leaf_count=8 6 6 6 13 13 10 19 5 14 6 6 18 22 38 20
internal_value=0 -0.0318319 -0.0200683 -0.0427743 -0.0195288 -0.0493848 -0.0185013 0.192932 -0.0981802 0.121744 -0.11441 -0.19827 -0.275526 -0.172405 -0.0237016
internal_weight=0 1.50794 1.4933 1.42716 1.36911 1.24982 1.19723 0.327689 0.869544 0.271965 0.172143 0.597579 0.489284 0.39176 0.26308
internal_count=210 204 198 190 184 171 158 24 134 26 20 108 98 76 38
shrinkage=0.1


Tree=47
num_leaves=16
num_cat=0
split_feature=5 1 4 3 9 2 7 8 5 8 9 8 8 5 5
split_gain=0.0230806 0.0177185 0.0309179 0.0221574 0.0336003 0.02641 0.0176557 0.0201156 0.0247789 0.0162018 0.0174013 0.0325032 0.0277891 0.0159438 0.014861
threshold=0.63500000000000012 12923.500000000002 0.51875000000000016 0.65837651993880464 0.25000000000000006 13559.000000000002 0.60420000000000007 0.65315000000000012 0.67500000000000016 0.4280500000000001 0.25000000000000006 0.55870000000000009 0.58695000000000008 0.58500000000000008 0.60500000000000009
decision_type=2 2 2 2 2 2 2 2 2 2 2 2 2 2 2
left_child=1 3 -3 5 -5 -1 7 8 -2 -4 11 -11 14 -7 -12
right_child=6 2 9 4 -6 13 -8 -9 -10 10 12 -13 -14 -15 -16
leaf_value=0.037777515646527128 -0.0084660942877407309 0.07466019596254396 -0.05286581542555549 -0.096297795715964474 -0.0016353683197247258 -0.0027021203384709883 -0.077078622407067587 0.028593257855669626 -0.080061057688995352 0.032972706243747943 -0.018164639132297208 -0.05837370137712905 0.051984636335872074 -0.0857445373656395 -0.098609499195748879
leaf_weight=0.13812339631840564 0.1818001899519005 0.080409981776028858 0.039750703144818544 0.062335920985788107 0.094098304398357854 0.075696785002946854 0.049398659000871696 0.086163876228965819 0.065851030492922291 0.39689088729210198 0.11835087230429052 0.043192317942157381 0.050876532448455691 0.033287082274910063 0.028492777957580984
leaf_count=9 38 7 5 6 7 7 16 6 40 26 13 9 5 11 5
internal_value=0 0.0702116 0.160332 -0.0990596 -0.393565 0.0873803 -0.212809 -0.130238 -0.275034 0.0907552 0.12936 0.240074 -0.117068 -0.280659 -0.337737
internal_weight=0 1.16151 0.757964 0.403541 0.156434 0.247107 0.383214 0.333815 0.247651 0.677554 0.637803 0.440083 0.19772 0.108984 0.146844
internal_count=210 110 70 40 13 27 100 84 78 63 58 35 23 18 18
shrinkage=0.1


Tree=48
num_leaves=16
num_cat=0
split_feature=4 1 9 7 1 5 0 4 3 3 8 8 3 1 7
split_gain=0.0232088 0.0463805 0.0351915 0.0228398 0.0255592 0.0253291 0.0184062 0.0156634 0.0126514 0.0257068 0.0271688 0.0452766 0.0222625 0.0223318 0.0147502
threshold=0.93030000000000013 14184.000000000002 0.25000000000000006 0.60420000000000007 2042.5000000000002 0.69500000000000006 0.033394802589982446 0.51875000000000016 0.48510407601501387 0.55972388391564742 0.58695000000000008 0.56975000000000009 1.1898297797422142 13559.000000000002 0.38810000000000006
decision_type=2 2 2 2 2 2 2 2 2 2 2 2 2 2 2
left_child=1 6 7 4 5 -2 -1 -3 -6 -10 11 12 -11 -14 -12
right_child=3 2 -4 -5 8 -7 -8 -9 9 10 14 -13 13 -15 -16
leaf_value=-0.046880031824129059 0.074104373097517759 0.10493611144245918 -0.045764774068605518 -0.048901587429875493 -0.040560983755407967 -0.11899906930293176 0.025905173165717478 0.038585631108070173 0.048396901498982903 -0.10806462469882389 0.047717726581972916 -0.132065577683984 0.027973150876356875 -0.034980291745487634 -0.0038818349934704741
leaf_weight=0.12620746466564017 0.06401127960998565 0.04033724358305335 0.047126275836490095 0.12788692131289281 0.10813406141824088 0.0075990413897670788 0.047941763885319233 0.30163419246673584 0.08279745775507763 0.024129365338012576 0.080741071724332883 0.039330603089183569 0.10124931985046716 0.12706546427216381 0.17650714854244143
leaf_count=24 5 5 6 22 32 6 6 21 8 9 6 6 13 22 19
internal_value=0 0.160501 0.352478 -0.0962283 -0.0343326 0.536129 -0.268429 0.46412 -0.08954 -0.0354456 -0.113778 -0.322656 -0.167168 -0.0706272 0.123134
internal_weight=0 0.563247 0.389098 0.939452 0.811565 0.0716103 0.174149 0.341971 0.739954 0.63182 0.549023 0.291775 0.252444 0.228315 0.257248
internal_count=210 62 32 148 126 11 30 26 115 83 75 50 44 35 25
shrinkage=0.1


Tree=49
num_leaves=16
num_cat=0
split_feature=1 9 5 1 0 2 4 0 7 8 5 0 0 9 8
split_gain=0.0237245 0.0432964 0.0344736 0.0272452 0.0272614 0.0265468 0.0202667 0.0307499 0.0287479 0.0201747 0.017338 0.0169325 0.0164815 0.0183766 0.0153302
threshold=12923.500000000002 0.25000000000000006 0.60500000000000009 5436.5000000000009 0.027969188169662925 9853.5000000000018 0.93030000000000013 0.0032123904825280586 0.33050000000000007 0.47205000000000003 0.48000000000000004 0.0037916662092843507 0.00040819260646470299 0.35000000000000003 0.55070000000000008
decision_type=2 2 2 2 2 2 2 2 2 2 2 2 2 2 2
left_child=3 6 5 12 -5 -3 8 -8 -2 -10 -11 -9 -1 -14 -4
right_child=1 2 14 4 -6 -7 7 11 9 10 -12 -13 13 -15 -16
leaf_value=-0.046401164376189949 -0.010603690077009261 0.033335600245214196 -0.12040181640094488 -0.019895499365667917 -0.096020290497230321 -0.055171767407858729 0.028607701508154799 -0.11481990937125219 0.10710801256157719 0.075838074671960798 0.021573243202889204 -0.019129673921690349 0.020569338251805847 -0.06409567174221914 -0.038226867556884786
leaf_weight=0.059104814543388784 0.098894032882526531 0.098880694713443518 0.040835389518178999 0.14909423977951519 0.068728778511285782 0.051559031242504723 0.16003265022300184 0.024029185296967626 0.053545057307928801 0.088630395010113716 0.1754040417727083 0.080249269609339535 0.24720356776379049 0.02860269692610018 0.051125059835612767
leaf_count=19 10 6 15 37 5 11 13 6 5 6 14 12 25 12 14
internal_value=0 0.0981027 -0.264825 -0.163853 -0.439148 0.0300216 0.227327 0.0107447 0.364778 0.51139 0.397887 -0.411799 0.0151972 0.117891 -0.74717
internal_weight=0 0.923185 0.2424 0.552734 0.217823 0.15044 0.680785 0.264311 0.416474 0.317579 0.264034 0.104278 0.334911 0.275806 0.0919604
internal_count=210 112 46 98 42 17 66 31 35 25 20 18 56 37 29
shrinkage=0.1


Tree=50
num_leaves=16
num_cat=0
split_feature=0 1 7 7 8 8 5 7 7 3 4 3 0 5 0
split_gain=0.0817413 0.163051 0.0667152 0.104232 0.0543007 0.0255275 0.0172189 0.0213355 0.017573 0.0162052 0.0154854 0.024179 0.0145314 0.0195835 0.0138111
threshold=0.027969188169662925 13559.000000000002 0.35230000000000006 0.30740000000000006 0.51835000000000009 0.46815000000000001 0.62500000000000011 0.46775000000000005 0.40755000000000002 9.6025000000000009 0.51875000000000016 1.0976440623329711 0.0041562167850123432 0.67500000000000016 0.00095343872489543873
decision_type=2 2 2 2 2 2 2 2 2 2 2 2 2 2 2
left_child=2 -2 3 9 -5 -4 7 8 -7 -1 -3 -12 13 -8 -9
right_child=1 10 5 4 -6 6 12 14 -10 -11 11 -13 -14 -15 -16
leaf_value=-0.026068196696808932 -0.11603878133943367 0.068359347379970126 0.053708027490587833 -0.052252692355361445 0.11764886246350675 0.0008330870857305721 -0.031053628763502095 0.036708635553959867 -0.073986210437163358 0.035018586941771533 -0.066144735646678929 0.034722572643255914 -0.0055989684569831104 -0.11908668047455884 -0.002524093929373996
leaf_weight=0.12791431602090575 0.16131375147961091 0.055162344127893448 0.070656684169080108 0.021156875707674768 0.16964765498414636 0.069328264333307743 0.1141441575018689 0.15912455646321175 0.05736878199968487 0.065749058150686324 0.034386835526674986 0.076935587916523232 0.14125849859556183 0.032454613014124334 0.20574722986202687
leaf_count=26 6 5 10 8 6 8 28 10 14 6 5 6 28 24 20
internal_value=0 -0.443898 0.117864 0.463531 0.988098 -0.0384715 -0.0906465 0.023093 -0.330453 -0.0532913 0.250339 0.0356526 -0.284877 -0.505427 0.145857
internal_weight=0 0.327799 1.23455 0.384468 0.190805 0.850083 0.779426 0.491569 0.126697 0.193663 0.166485 0.111322 0.287857 0.146599 0.364872
internal_count=210 22 188 46 14 142 132 52 22 32 16 11 80 52 30
shrinkage=0.1


Tree=51
num_leaves=16
num_cat=0
split_feature=0 8 5 7 8 3 9 7 8 2 8 0 5 7 3
split_gain=0.0258789 0.0148017 0.031081 0.0205574 0.019573 0.016586 0.0254624 0.0229711 0.0154737 0.0136268 0.0126682 0.0120921 0.0175977 0.0119013 0.0117227
threshold=0.046272435954519603 0.59455000000000002 0.67500000000000016 0.50160000000000016 0.65315000000000012 3.0029287580387583 0.35000000000000003 0.40755000000000002 0.51835000000000009 6619.5000000000009 0.46815000000000001 0.0020096510130461283 0.54500000000000015 0.55485000000000018 0.71566618673164262
decision_type=2 2 2 2 2 2 2 2 2 2 2 2 2 2 2
left_child=1 2 3 5 13 6 14 8 -7 -6 -5 -12 -13 -3 -1
right_child=-2 4 -4 10 9 7 -8 -9 -10 -11 11 12 -14 -15 -16
leaf_value=0.010619719190059483 0.053179222714177132 -0.036421690373961632 -0.089650235970686068 0.051939233584090194 0.018742453233297384 -0.0096497285511448812 -0.089359040964165568 -0.057855690231242422 0.053997026085885663 -0.10388770995108038 0.032492582242169034 -0.056639817818832996 0.010809423749505429 -0.11080495408383009 -0.031730490558959698
leaf_weight=0.12650251801824175 0.085762714501470438 0.1060442519665229 0.036086171603528672 0.09570544026792048 0.092151352670043693 0.062018642667680979 0.049669398460537202 0.036946854670532048 0.09945208951830864 0.010049703530967236 0.16299200936919078 0.048455046722665429 0.19177042739465835 0.026983430609107018 0.13523190177511424
leaf_count=19 6 20 34 12 7 6 19 7 6 5 12 6 22 12 17
internal_value=0 -0.0356296 0.015393 0.0480146 -0.26226 -0.0932071 -0.237183 0.132754 0.295512 0.066839 0.192321 0.114689 -0.0279553 -0.515096 -0.112616
internal_weight=0 1.28006 1.04483 1.00874 0.235229 0.509821 0.311404 0.198418 0.161471 0.102201 0.498923 0.403217 0.240225 0.133028 0.261734
internal_count=210 204 160 126 44 74 55 19 12 12 52 40 28 32 36
shrinkage=0.1


Tree=52
num_leaves=16
num_cat=0
split_feature=5 4 1 7 5 1 1 3 2 8 5 7 8 5 8
split_gain=0.0190534 0.0115738 0.0272331 0.0270073 0.025279 0.029505 0.0182232 0.052927 0.0225961 0.0155928 0.0128926 0.0109928 0.0126892 0.0138569 0.0100689
threshold=0.63500000000000012 0.93030000000000013 14184.000000000002 0.41835000000000006 0.48000000000000004 16306.000000000002 9853.5000000000018 1.0571200669811673 13559.000000000002 0.56975000000000009 0.58500000000000008 0.60420000000000007 0.65315000000000012 0.67500000000000016 0.52015000000000011
decision_type=2 2 2 2 2 2 2 2 2 2 2 2 2 2 2
left_child=1 3 6 -1 -5 -6 7 8 9 -3 -10 12 13 -2 -4
right_child=11 2 14 4 5 -7 -8 -9 10 -11 -12 -13 -14 -15 -16
leaf_value=-0.0066540949205593841 -0.012340061127287525 0.0097686649039854453 -0.015729596120813764 0.099377912501098314 -0.08268921245471772 0.040086054507730694 0.038626297931430582 -0.086736897160127002 -0.005415583218305816 0.075553792560716024 -0.10975435995987122 -0.069327386586999717 0.021925055138917224 -0.073243149245326475 -0.069590998531520246
leaf_weight=0.20972980529768392 0.15959333890350536 0.07633938291110097 0.074160668475087732 0.059129168279469006 0.022706658986862749 0.14186676219105721 0.1458456760738045 0.061578758293762803 0.051006434950977571 0.068236145190894604 0.015423693519551309 0.041249683185014881 0.072702204575762139 0.048775980336358771 0.065241488046012819
leaf_count=26 38 6 9 6 5 13 12 6 5 5 7 16 6 40 10
internal_value=0 0.0686762 -0.0265711 0.191261 0.43296 0.231464 0.100961 -0.0516891 0.186355 0.408177 -0.296409 -0.211206 -0.140459 -0.265965 -0.409372
internal_weight=0 0.991265 0.557832 0.433432 0.223703 0.164573 0.41843 0.272584 0.211006 0.144576 0.0664301 0.322321 0.281072 0.208369 0.139402
internal_count=210 110 60 50 24 18 41 29 23 11 12 100 84 78 19
shrinkage=0.1


Tree=53
num_leaves=16
num_cat=0
split_feature=4 7 5 1 0 0 2 0 0 8 3 8 3 8 2
split_gain=0.0193078 0.0198663 0.0259687 0.0188742 0.0186124 0.0379588 0.0348229 0.0169531 0.0196599 0.0188862 0.01328 0.0111927 0.0341301 0.0127621 0.010426
threshold=0.93030000000000013 0.41835000000000006 0.48000000000000004 16306.000000000002 0.0032123904825280586 0.0067918769395814366 27951.000000000004 0.0023294324590137313 0.00095343872489543873 0.51190000000000013 9.6025000000000009 0.58695000000000008 1.7866135738250242 0.54435000000000011 4397.5000000000009
decision_type=2 2 2 2 2 2 2 2 2 2 2 2 2 2 2
left_child=1 -1 -3 -4 6 -6 7 8 9 -2 14 12 13 -7 -11
right_child=4 2 3 -5 5 11 -8 -9 -10 10 -12 -13 -14 -15 -16
leaf_value=-0.0056144443254433352 -0.085945630381740662 0.097565770756733505 -0.060074760984849276 0.031243658129302701 -0.069576267975118108 -0.028791384931146857 -0.12433548822077951 0.038063514665414723 -0.040781729806357636 0.058296899237141056 -0.031821712399380066 0.023968543227367786 -0.091425774035207491 0.075244474539485268 0.0077284494608099363
leaf_weight=0.21851641632383689 0.017778153356630355 0.053360810037702322 0.026269278954714537 0.163529735757038 0.13056847039842978 0.020159234903985634 0.020531049318378791 0.13804944240837358 0.099384588509565219 0.084671315125888214 0.037809866480529301 0.098095859313616529 0.041516834986396127 0.028405546792782843 0.078637573635205613
leaf_count=32 9 6 8 16 46 6 10 17 19 6 5 10 7 5 8
internal_value=0 0.162679 0.359325 0.186047 -0.0943993 -0.281478 0.0306488 0.0879683 -0.0389713 0.128494 0.215825 0.00597597 -0.248526 0.320592 0.339468
internal_weight=0 0.461676 0.24316 0.189799 0.795608 0.318746 0.476862 0.456331 0.318281 0.218897 0.201119 0.188177 0.0900816 0.0485648 0.163309
internal_count=210 62 30 24 148 74 74 64 47 28 19 28 18 11 14
shrinkage=0.1


Tree=54
num_leaves=16
num_cat=0
split_feature=5 8 0 7 7 8 3 5 8 7 5 3 1 8 1
split_gain=0.0162212 0.0149055 0.0102727 0.0142059 0.0122917 0.023166 0.0170247 0.00895991 0.00938238 0.00988989 0.00822924 0.00791834 0.0135132 0.00735067 0.0156298
threshold=0.63500000000000012 0.59455000000000002 0.046272435954519603 0.51755000000000007 0.40755000000000002 0.51835000000000009 3.0029287580387583 0.79000000000000015 0.65315000000000012 0.60420000000000007 0.67500000000000016 0.71566618673164262 13559.000000000002 0.47205000000000003 27951.000000000004
decision_type=2 2 2 2 2 2 2 2 2 2 2 2 2 2 2
left_child=1 2 3 4 6 -6 11 8 9 10 -2 -1 -13 -5 -15
right_child=7 -3 -4 13 5 -7 -8 -9 -10 -11 -12 12 -14 14 -16
leaf_value=0.0061389726948336415 -0.012346739310036043 -0.038839262023969388 0.04871618074829534 0.051045370551525894 0.013133192107163528 -0.079469200297502554 0.032317920562418334 -0.11752096769278804 0.010511861601751932 -0.11660145370588355 -0.062725206699089778 -0.098738127627327948 -0.011776080069050007 0.00035315038691846254 0.05209050086932121
leaf_weight=0.082247139303944991 0.1487885924289003 0.066486615338362753 0.064435413107275963 0.068553673569113016 0.052435631572734565 0.055724825069773935 0.12790199881419539 0.0091734416200779361 0.086118564126081765 0.012089442316209896 0.041459035797743127 0.025259172194637362 0.061074083670973778 0.2111935376888141 0.080704201944172382
leaf_count=11 38 12 6 10 6 14 9 6 8 10 38 7 7 22 6
internal_value=0 0.0671866 0.103701 0.0714066 -0.0572005 -0.34576 0.0480697 -0.202266 -0.171325 -0.288984 -0.233253 -0.160656 -0.372192 0.215781 0.146575
internal_weight=0 0.896016 0.82953 0.765094 0.404643 0.10816 0.296482 0.297629 0.288456 0.202337 0.190248 0.16858 0.0863333 0.360451 0.291898
internal_count=210 110 98 92 54 20 34 100 94 86 76 25 14 38 28
shrinkage=0.1


Tree=55
num_leaves=16
num_cat=0
split_feature=4 5 8 7 7 2 5 3 3 5 2 3 8 3 5
split_gain=0.0198502 0.012158 0.0137362 0.0155685 0.0219207 0.0100254 0.00902868 0.010317 0.0272328 0.0271601 0.0215406 0.0114128 0.0106019 0.00791386 0.00790265
