tree
version=v3
num_class=1
num_tree_per_iteration=1
label_index=0
max_feature_idx=16
objective=lambdarank
feature_names=word_overlap transfer_data_size task_data_size ratio_data_size transfer_ttr task_ttr distance_ttr distance_pron distance_verb emotion_dist mwe_dist genetic syntactic featural phonological inventory geographical
feature_infos=[4.8239546007984611e-05:0.055996267571293466] [417:56332] [417:56332] [0.0074025420720017039:135.08872901678657] [0.083547845079983626:0.91472562179234107] [0.083547845079983626:0.91472562179234107] [0.00034636316520243905:98.973138062881944] [0.090240624351764193:11.081483613210951] [0.35664634059056349:2.8038981091019188] [0.56954364382458011:1] [0.17482412697205627:2.1941517017186225] [0.28570000000000001:1] [0:0.76000000000000001] [0:0.69999999999999996] [0:0.6875] [0:0.68799999999999994] [0:1]
tree_sizes=1747 1737 1744 1741 1757 1739 1757 1754 1765 1758 1760 1765 1766 1767 1764 1778 1773 1775 1782 1777 1777 1792 1795 1796 1796 1795 1804 1803 1799 1794 1806 1803 1812 1804 1803 1811 1809 1807 1808 1814 1818 1821 1822 1817 1824 1828 1823 1819 1825 1829 1826 1828 1830 1835 1835 1833 1835 1841 1843 1836 1835 1847 1835 1838 1848 1850 1841 1847 1846 1858 1850 1854 1849 1861 1857 1852 1841 1847 1865 1859 1870 1850 1852 1851 1852 1856 1855 1857 1857 1859 1873 1849 1872 1857 1854 1854 1857 1861 1856 1865

Tree=0
num_leaves=16
num_cat=0
split_feature=10 7 15 10 8 8 0 9 12 6 14 12 15 8 3
split_gain=6.91738 5.85725 2.82092 2.18578 2.0698 1.85392 1.71534 1.35164 1.54424 1.01711 0.996959 0.834942 1.24478 0.79267 0.789411
threshold=0.84195895735086201 0.62553343220645818 0.65540000000000009 1.5766711699472054 0.97759310431451263 1.7049840319895735 0.0012552408358990853 0.84265423809865425 0.6100000000000001 0.06277441264874746 0.41835000000000006 0.63500000000000012 0.56010000000000015 0.89168259436058339 1.865220791564232
decision_type=2 2 2 2 2 2 2 2 2 2 2 2 2 2 2
left_child=6 5 3 9 -4 13 -1 8 -8 14 -5 -11 -13 -2 -3
right_child=1 2 4 10 -6 -7 7 -9 -10 11 -12 12 -14 -15 -16
leaf_value=-0.16113017612096489 0.032114119475249378 -0.14419176390681496 -0.19855063827069255 0.11832962860306084 0.16707317514813783 -0.19678135333753607 -0.080180883483904827 -0.1451751243960393 0.15863071601508885 -0.17805882379495142 -0.060883679444263927 -0.18169885518694429 0.055860535952554073 0.15389325513306612 0.099008484465822541
leaf_weight=2.4858367219567308 0.61751795373856833 0.20870092138648064 0.18291005492210377 0.77584022656083074 1.0086081009358165 0.17210253700613964 0.55229145288467385 0.6536939665675161 0.53120578452944756 1.6323169572278859 0.51743448153138161 0.4215589091181754 0.46262942999601359 3.9757343642413616 0.37024428322911263
leaf_count=54 6 5 5 6 10 5 10 12 5 41 9 11 7 19 5
internal_value=0 0.440246 -0.255082 -0.62555 1.10946 1.25448 -1.07852 -0.31613 0.369012 -1.08171 0.46627 -1.35665 -0.574018 1.37521 0.113385
internal_weight=0 10.3456 5.58024 4.38873 1.19152 4.76535 4.22303 1.73719 1.0835 3.09545 1.29327 2.51651 0.884188 4.59325 0.578945
internal_count=210 129 99 84 15 30 81 27 15 69 15 59 18 25 10
shrinkage=0.1


Tree=1
num_leaves=16
num_cat=0
split_feature=1 4 12 1 5 3 0 15 11 12 14 5 5 6 7
split_gain=28.6859 11.3014 7.805 6.2039 5.80069 6.0168 5.12768 7.21885 5.81534 3.69512 1.87495 1.32881 1.16246 1.03721 0.906586
threshold=23528.000000000004 0.20960867828457028 0.65500000000000014 41308.000000000007 0.49073970366204928 2.9525593755985446 0.0018570136779449723 0.58150000000000013 0.93030000000000013 0.52000000000000013 0.10250000000000002 0.11059101642519507 0.24564711843534917 0.075856736785678849 1.0509180152209625
decision_type=2 2 2 2 2 2 2 2 2 2 2 2 2 2 2
left_child=1 -1 4 12 5 6 7 -3 9 13 -4 -9 -2 -8 -10
right_child=3 2 10 -5 -6 -7 8 11 14 -11 -12 -13 -14 -15 -16
leaf_value=-0.17401920705578874 0.11962710694090706 -0.14058608741441056 0.0033030511175839413 -0.11132951732673613 -0.11381883361778233 -0.1317081696780667 0.035166242766477646 0.02284415317811796 -0.058552820782128236 0.15714091481804607 -0.16012956935227049 0.16443755393038206 0.18660585058634371 -0.1510902925161334 -0.18005379530100349
leaf_weight=6.0431533344090012 4.6879474148154223 0.98984862118959949 0.84671571850776572 0.94150431826710768 3.1788034141063681 1.9054110087454308 0.56160696223378204 0.74565721675753582 1.0782517492771151 2.0380422547459602 4.105922169983387 5.9640271477401257 5.7935037985444069 0.63934465125203133 1.4266712106764314
leaf_count=42 6 17 7 14 20 15 5 6 5 8 29 15 8 7 6
internal_value=0 -0.520634 -0.206754 1.34562 0.0913324 0.34597 0.581684 1.11511 -0.133361 0.751501 -1.32189 1.48702 1.56649 -0.639902 -1.27753
internal_weight=0 29.5235 23.4803 11.423 18.5277 15.3489 13.4434 7.69953 5.74392 3.23899 4.95264 6.70968 10.4815 1.20095 2.50492
internal_count=210 182 140 28 104 84 69 38 31 20 36 21 14 12 11
shrinkage=0.1


Tree=2
num_leaves=16
num_cat=0
split_feature=1 1 10 7 3 1 9 9 12 4 14 3 2 7 15
split_gain=12.1458 6.09416 4.78979 6.06487 4.53585 2.96241 3.34799 2.59846 2.06401 1.53492 0.89254 0.827142 0.775526 0.76106 0.689044
threshold=23528.000000000004 41308.000000000007 1.1169906944474473 0.16382244184057712 2.7070237758684974 2312.0000000000005 0.78407717324548831 0.74055752629857319 0.59500000000000008 0.27489080593727977 0.33830000000000005 4.7830764264055654 3507.0000000000005 1.5106690599911692 0.60890000000000011
decision_type=2 2 2 2 2 2 2 2 2 2 2 2 2 2 2
left_child=2 -2 3 -1 7 -5 -7 9 -9 10 -4 14 -3 -12 -8
right_child=1 12 4 5 -6 6 11 8 -10 -11 13 -13 -14 -15 -16
leaf_value=0.1065483534032392 0.14080096654060248 -0.1626042770027189 -0.087930007222004655 -0.15389596331422217 -0.16010088431749814 0.060024363094730138 -0.10959929107540711 0.15551513887692672 0.0033558140704592941 -0.11890733122119518 -0.0081505961025587527 -0.15820724629078231 -0.0073596643351098341 0.086592470249451103 -0.027336241509761439
leaf_weight=1.6689378619194055 7.0579017549753171 0.73182284086942651 0.63052381575107386 5.2341874316334707 1.2672948390245427 1.8710386231541631 2.1856963485479355 2.5737518668174748 1.3639092259109018 0.96762794256210316 1.6143092811107638 1.4942544326186178 0.57430651783943176 1.7857754305005071 1.9062299206852913
leaf_count=6 14 9 5 57 14 8 24 5 8 10 8 18 5 8 11
internal_value=0 1.04081 -0.354401 -0.72662 0.169473 -0.962284 -0.557519 0.420564 1.02811 -0.0580663 0.213455 -0.9453 -0.94343 0.416099 -0.712769
internal_weight=0 8.36403 24.5635 14.3603 10.2032 12.6914 7.45722 8.9359 3.93766 4.99824 4.03061 5.58618 1.30613 3.40008 4.09193
internal_count=210 28 182 124 58 118 61 44 13 31 21 53 14 16 35
shrinkage=0.1


Tree=3
num_leaves=16
num_cat=0
split_feature=4 4 1 10 2 4 0 4 12 12 8 5 6 7 16
split_gain=10.3846 4.11523 4.22745 2.81847 2.79156 2.34016 1.95106 1.74939 1.39239 2.00935 1.3127 1.29334 1.21821 0.818665 0.659649
threshold=0.25594321900873779 0.11059101642519507 1243.5000000000002 0.75006419545601732 467.00000000000006 0.13733650906466102 0.011035889998469137 0.20960867828457028 0.59500000000000008 0.49500000000000005 0.99148601421193938 0.24564711843534917 0.075856736785678849 1.3828092561155725 0.45000000000000007
decision_type=2 2 2 2 2 2 2 2 2 2 2 2 2 2 2
left_child=1 6 -3 -4 -2 11 -1 -7 9 12 -11 -5 -9 -12 -6
right_child=4 2 3 5 14 7 -8 8 -10 10 13 -13 -14 -15 -16
leaf_value=-0.14868096951693835 0.061484150510298596 -0.14892199766580172 -0.083941405731329757 0.068236192788218117 -0.13641155541134586 -0.11992856511859216 0.046237500036857893 0.049684053897104979 -0.030161090237946522 0.14441143615511412 0.089730386663267422 0.15806837682216324 -0.13753752788411752 -0.035086156671269068 -0.080315644129429931
leaf_weight=1.5596352554857795 1.1398645937442768 0.94530729949474601 1.1339759901165987 2.5969302654266349 3.7650390863418561 0.59371218457817931 0.7656172141432761 0.82022719085216322 1.4886329621076582 3.2538245543837547 1.4911220818758013 4.1861682534217834 0.60307591408491135 0.81145025044679631 4.7296439222991467
leaf_count=23 6 14 11 5 53 9 5 5 10 7 5 7 5 6 39
internal_value=0 0.406612 0.56898 0.683569 -0.854607 0.792563 -0.845017 0.460076 0.576413 0.763678 1.03524 1.23676 -0.296447 0.457437 -1.05179
internal_weight=0 20.2497 17.9244 16.9791 9.63455 15.8451 2.32525 9.06205 8.46833 6.9797 5.5564 6.7831 1.4233 2.30257 8.49468
internal_count=210 112 84 70 98 59 28 47 38 28 18 12 10 11 92
shrinkage=0.1


Tree=4
num_leaves=16
num_cat=0
split_feature=1 10 4 7 3 9 12 16 1 14 14 0 10 12 10
split_gain=8.22035 3.73536 3.57338 2.6361 2.45235 1.81726 1.22273 1.1052 1.16314 0.870826 0.90085 0.663922 0.651556 0.641745 0.54288
threshold=23528.000000000004 1.1169906944474473 0.11059101642519507 0.16382244184057712 2.7070237758684974 0.74055752629857319 0.59500000000000008 0.75000000000000011 1881.0000000000002 0.41835000000000006 0.33830000000000005 0.00083182050829562276 1.4931074860769626 0.52000000000000013 0.76849195909565182
decision_type=2 2 2 2 2 2 2 2 2 2 2 2 2 2 2
left_child=1 3 13 -1 5 9 -7 -5 -9 10 -3 -10 -11 -2 -13
right_child=2 4 -4 7 -6 6 -8 8 11 12 -12 14 -14 -15 -16
leaf_value=0.060375524863142807 0.011143914631292365 -0.075108853435512046 0.12054489592158001 -0.12892635001636496 -0.13399288984334884 0.13367631149752376 0.001048359263441248 -0.13681170307836957 -0.080826101764372105 0.0010003019728907871 0.067502840285443386 -0.044049398371736818 -0.11791344257718619 -0.13860931330069753 0.055283208796396144
leaf_weight=1.3009674772620261 0.52114776894450077 0.58931479603051995 6.1558253467082977 4.3005499243736249 0.96813289076089859 2.2018884718418126 1.0158018395304678 1.4444039501249788 1.5780556648969652 0.90510475262999524 1.7832608669996259 1.1338358372449877 0.93859727680683125 0.63464049249887466 1.0688790977001188
leaf_count=6 5 6 14 64 14 5 8 21 15 8 7 11 10 9 7
internal_value=0 -0.34318 0.902528 -0.731452 0.157136 0.3521 0.918066 -0.913807 -0.60479 -0.0798226 0.320801 -0.313168 -0.595367 -0.710852 0.0415228
internal_weight=0 19.2288 7.31161 10.8267 8.4021 7.43397 3.21769 9.52572 5.22517 4.21628 2.37258 3.78077 1.8437 1.15579 2.20271
internal_count=210 182 28 124 58 44 13 118 54 31 13 33 18 14 18
shrinkage=0.1


Tree=5
num_leaves=16
num_cat=0
split_feature=10 1 4 4 3 1 8 8 7 4 5 6 4 8 12
split_gain=4.7994 3.67284 2.73859 2.03048 1.79526 1.57375 1.2364 1.46392 1.22346 0.810194 0.648388 0.499764 0.475811 0.359243 0.352574
threshold=0.75006419545601732 23528.000000000004 0.20960867828457028 0.27489080593727977 2.1603315126015157 41308.000000000007 0.89168259436058339 1.0000000000100615 2.1501247151075642 0.75690037016871969 0.24564711843534917 0.26438350761456847 0.24564711843534917 0.79527391602630526 0.57500000000000007
decision_type=2 2 2 2 2 2 2 2 2 2 2 2 2 2 2
left_child=9 2 -2 6 -5 10 12 -8 11 -1 -3 -9 -4 -7 -11
right_child=1 5 3 4 -6 13 7 8 -10 14 -12 -13 -14 -15 -16
leaf_value=-0.11298490952916883 -0.11318540038870395 0.062926096447561794 -0.098274645523595119 -0.089836608378933591 0.0539940722017365 0.006464298154566739 0.11579477309864342 0.082077335612957686 -0.1198309887239678 -0.074204160941279698 0.13426633683290976 -0.018118720724455396 0.016474914741033603 -0.13574908489750573 0.034276263698895609
leaf_weight=3.6102145537734058 2.0606088638305691 2.1173276156187049 0.68418249115347662 2.7476325444877148 1.2684296518564222 0.45266730338335032 2.872449591755867 1.4253434911370284 0.54926071316003788 0.57963389530777909 3.1985395550727844 0.76498733460903157 0.765830397605896 0.29234045371413231 0.62014869228005409
leaf_count=54 35 5 5 40 9 5 9 7 6 7 7 5 6 5 5
internal_value=0 0.223783 -0.073278 0.123625 -0.444092 0.86775 0.446475 0.659161 0.136186 -0.893253 1.05851 0.470832 -0.376692 -0.493401 -0.181323
internal_weight=0 19.1996 13.1387 11.0781 4.01606 6.06087 7.06205 5.61204 2.73959 4.81 5.31587 2.19033 1.45001 0.745008 1.19978
internal_count=210 144 122 87 49 22 38 27 18 66 12 12 11 10 12
shrinkage=0.1


Tree=6
num_leaves=16
num_cat=0
split_feature=1 10 1 7 3 12 16 1 0 9 10 10 0 3 12
split_gain=4.5872 2.53351 2.27693 1.83214 1.60368 0.914075 0.811117 0.791033 0.659062 0.626286 0.529647 0.52833 0.435364 0.350533 0.386655
threshold=23528.000000000004 1.1169906944474473 41308.000000000007 0.16382244184057712 2.7070237758684974 0.49500000000000005 0.45000000000000007 1881.0000000000002 0.0061796889986182784 0.77570118815983091 1.4054237927425344 1.2395163308643313 0.0014111077755195546 3.6144282671614105 0.58500000000000008
decision_type=2 2 2 2 2 2 2 2 2 2 2 2 2 2 2
left_child=1 3 -2 -1 5 -3 -5 -8 10 -9 11 -7 -4 14 -11
right_child=2 4 12 6 -6 8 7 9 -10 13 -12 -13 -14 -15 -16
leaf_value=0.055980570290716097 0.10389958847544188 -0.039607001376356199 -0.13206241522335252 -0.1212086024680533 -0.12088927603925415 0.059616038018321098 -0.12582215416876463 0.035157198949864882 -0.049048854850682909 -0.063801697285067113 0.092927528988269059 -0.071431764434697259 0.0038766669342784701 -0.10890917924616267 0.036562887172736862
leaf_weight=1.1320711150765435 4.8403832167387 1.3022447638213623 0.4843964241445064 2.977107685059309 0.74277151748537995 0.97385936230421044 1.1865242049098013 1.0096097066998484 0.54193840548396099 1.1996365562081339 2.8461336642503738 0.4497036449611187 0.45868048444390297 0.8815975859761237 0.56446463987231243
leaf_count=6 14 14 9 55 14 6 22 8 6 14 12 6 5 14 5
internal_value=0 -0.278802 0.762038 -0.629189 0.178609 0.347176 -0.801338 -0.548781 0.548332 -0.318494 0.680186 0.18218 -0.659463 -0.574194 -0.316877
internal_weight=0 15.8077 5.78346 8.95101 6.85665 6.11388 7.81894 4.84183 4.81164 3.65531 4.2697 1.42356 0.943077 2.6457 1.7641
internal_count=210 182 28 124 58 44 118 63 30 41 24 12 14 33 19
shrinkage=0.1


Tree=7
num_leaves=16
num_cat=0
split_feature=10 1 6 10 7 3 10 7 8 15 4 8 6 3 14
split_gain=3.1359 1.95147 1.77944 1.21315 1.07116 0.992199 1.1858 1.18233 0.812592 0.644588 0.480209 0.366816 0.446155 0.308026 0.271362
threshold=0.75006419545601732 23528.000000000004 0.012613163907019833 1.1169906944474473 1.9146941562498827 2.7070237758684974 2.0293413882633407 1.6520472861820934 0.91249414051596334 0.65540000000000009 0.75690037016871969 0.89503664574525643 0.37523587264779229 2.9525593755985446 0.37375000000000008
decision_type=2 2 2 2 2 2 2 2 2 2 2 2 2 2 2
left_child=10 2 -2 9 8 6 7 14 -3 13 -1 -11 -13 -4 -5
right_child=1 4 3 5 -6 -7 -8 -9 -10 11 -12 12 -14 -15 -16
leaf_value=-0.10018120001672071 0.089255774380373215 0.036643218921557863 -0.11454099657032631 0.097764986888744965 -0.084851087564496164 -0.12174978469696447 -0.14401481112625267 -0.058086165589172539 0.12321271415212401 -0.12887563799464527 -0.020325243478974547 -0.052341976078892606 0.066653684328020157 -0.025906497767937277 0.041513751405629053
leaf_weight=2.9383759051561382 1.744518719613551 1.872245106846093 1.8766153920441855 1.4895316697657111 0.39600844308733929 0.51905469968914975 0.38833235949277867 0.99556668102741241 2.5763229839503765 0.22779932618141163 1.0125203579664233 0.6111977770924566 0.65034491568803787 0.49564246460795391 2.0214569196105003
leaf_count=54 9 9 40 7 5 12 5 13 8 5 12 6 5 5 15
internal_value=0 0.198523 -0.0340192 -0.208287 0.727492 0.0971441 0.236549 0.381031 0.867787 -0.6365 -0.79716 -0.120867 0.0900214 -0.960223 0.653783
internal_weight=0 15.8646 11.0201 9.27554 4.84458 5.41394 4.89489 4.50656 4.44857 3.8616 3.9509 1.48934 1.26154 2.37226 3.51099
internal_count=210 144 122 113 22 52 40 35 17 61 66 16 11 45 22
shrinkage=0.1


Tree=8
num_leaves=16
num_cat=0
split_feature=1 1 10 4 8 16 15 4 12 6 0 10 6 14 9
split_gain=2.61495 1.63034 1.52043 1.16035 0.933722 0.725646 0.8616 0.759451 0.718672 0.530922 0.448648 0.416094 0.413295 0.410526 0.636535
threshold=23528.000000000004 41308.000000000007 0.84195895735086201 0.20960867828457028 1.7049840319895735 0.25000000000000006 0.47770000000000007 0.27489080593727977 0.6100000000000001 4.5685414722059283 0.0061796889986182784 0.87136330668360795 0.24031596237869871 0.60420000000000007 0.76068307321674433
decision_type=2 2 2 2 2 2 2 2 2 2 2 2 2 2 2
left_child=2 11 9 10 5 6 -5 12 13 -1 -4 -2 -8 14 -7
right_child=1 -3 3 4 -6 8 7 -9 -10 -11 -12 -13 -14 -15 -16
leaf_value=-0.099771760125267145 0.048292210324327768 -0.066288893171717739 -0.11614419887705039 -0.15775525697213597 -0.12396875081051124 -0.0053105380622069012 -0.02926176904780118 -0.076725884495414606 -0.030680057048160854 -0.021837229295358827 0.010612715909533423 0.11778643757807394 0.078991042533762018 0.014609482913700747 0.11026533501113348
leaf_weight=2.6545494385063679 1.3383652567863458 0.77477767691016175 1.0694292224943627 0.38385291397571414 0.46235115453600872 0.60926780849695283 0.52603914588689837 0.7868184521794318 0.99783272668719281 1.303278964012861 0.37790131010115136 2.4184880405664444 1.0701727420091627 1.1733368784189222 2.1872263923287392
leaf_count=54 6 14 27 5 11 5 5 15 13 18 5 8 6 10 8
internal_value=0 0.657906 -0.219186 -0.00500763 0.140746 0.223265 -0.187153 0.0368098 0.451858 -0.741086 -0.830477 0.930294 0.433158 0.64255 0.85085
internal_weight=0 4.53163 13.6021 9.64423 8.1969 7.73455 2.76688 2.38303 4.96766 3.95783 1.44733 3.75685 1.59621 3.96983 2.79649
internal_count=210 28 182 110 78 67 31 26 36 72 32 14 11 23 13
shrinkage=0.1


Tree=9
num_leaves=16
num_cat=0
split_feature=1 1 1 3 3 15 0 7 14 15 2 0 8 10 6
split_gain=2.30136 1.39216 1.15972 1.16296 1.12586 0.885508 1.12526 0.783216 0.506327 0.4994 0.361989 0.325198 0.321776 0.285214 0.281497
threshold=23528.000000000004 41308.000000000007 712.50000000000011 2.9525593755985446 2.1046173229464276 0.62945000000000018 0.0021482031021809954 1.3828092561155725 0.41835000000000006 0.51600000000000013 3507.0000000000005 0.01453861959453618 1.0831791787969458 0.93334414024036572 0.78313091492240638
decision_type=2 2 2 2 2 2 2 2 2 2 2 2 2 2 2
left_child=2 -2 -1 4 5 6 -4 -6 9 -8 -3 -10 -5 -7 -14
right_child=1 10 3 12 7 13 8 -9 11 -11 -12 -13 14 -15 -16
leaf_value=-0.1253309010440565 0.093277993278567589 -0.12831747690832271 -0.082264676773145001 -0.10494455491871611 0.11766100227231127 -0.01327327229516896 0.094866287579202305 -0.061557396549325565 -0.079649183707640625 -0.0065080946618354119 0.010492884867004282 0.027744200441134428 0.015102683046614601 0.070418380876458173 -0.11864537939728631
leaf_weight=0.98774004355073253 3.3077873215079299 0.3681151159107684 2.5145687945187074 1.4573473688215011 1.2183407321572302 0.57747886329889286 0.876270776614547 0.30486395955085743 0.82046122476458527 1.0909631289541719 0.38367783278226847 0.42960360646247858 0.53136135824024666 1.3809468522667883 0.22357198968529701
leaf_count=28 14 9 49 30 5 6 5 5 12 14 5 5 8 9 6
internal_value=0 0.6536 -0.213746 -0.123877 0.0324543 -0.12312 -0.321469 0.817911 0.0702403 0.386474 -0.574756 -0.427418 -0.774954 0.457403 -0.245065
internal_weight=0 4.05958 12.4135 11.4258 9.2135 7.69029 5.73187 1.5232 3.2173 1.96723 0.751793 1.25006 2.21228 1.95843 0.754933
internal_count=210 28 182 154 110 100 85 10 36 19 14 17 44 15 14
shrinkage=0.1


Tree=10
num_leaves=16
num_cat=0
split_feature=1 7 10 7 3 16 0 1 3 12 12 1 7 4 10
split_gain=1.78248 1.15955 1.10656 1.00878 0.746692 0.573147 0.534518 0.44108 0.421795 0.330284 0.38086 0.319741 0.307425 0.295272 0.317633
threshold=23528.000000000004 1.9146941562498827 1.1169906944474473 0.16382244184057712 2.7070237758684974 0.45000000000000007 0.0045049448905925904 1881.0000000000002 1.0001811085790837 0.53500000000000014 0.56500000000000006 16812.500000000004 1.6321134184030079 0.11059101642519507 0.87136330668360795
decision_type=2 2 2 2 2 2 2 2 2 2 2 2 2 2 2
left_child=2 13 3 -1 6 -5 9 -7 -8 -4 -11 -9 -12 -2 -15
right_child=1 -3 4 5 -6 7 8 11 -10 10 12 -13 -14 14 -16
leaf_value=0.057434317823001901 -0.0016921524270721707 -0.088595137585831485 -0.01075556960249522 -0.10788994614085064 -0.10350362369587762 -0.11109630369948727 -0.088277447474904569 -0.011515289090273523 0.026768256574658419 0.10785290140176805 0.066384218204270151 -0.12934412021570871 -0.031885180160954318 0.050914644550800074 0.11976127026857163
leaf_weight=0.79140879958867838 0.37249062955379647 0.4552843254059552 0.71724146604537997 1.8883574139326809 0.47971044480800618 0.69287462159991298 0.59909332543611504 2.5726953651756053 0.68086857348680496 1.1746039614081385 0.86542611569166161 0.25294353440403927 0.50359740108251572 1.0953196659684183 1.7263195365667341
leaf_count=6 6 9 10 55 14 22 9 35 7 5 6 6 7 6 7
internal_value=0 0.607078 -0.197479 -0.480131 0.15148 -0.634475 0.276827 -0.395957 -0.270795 0.491781 0.66078 -0.22063 0.302357 0.819891 0.93036
internal_weight=0 3.64941 11.2188 6.19828 5.02054 5.40687 4.54083 3.51851 1.27996 3.26087 2.54363 2.82564 1.36902 3.19413 2.82164
internal_count=210 28 182 124 58 118 44 63 16 28 18 41 13 19 13
shrinkage=0.1


Tree=11
num_leaves=16
num_cat=0
split_feature=10 1 4 4 4 8 15 0 6 8 8 2 8 10 3
split_gain=1.54843 1.3175 0.817439 0.683923 0.546672 0.598233 0.741956 0.42732 0.389488 0.346476 0.572168 0.453144 0.252978 0.248531 0.229016
threshold=0.75006419545601732 23528.000000000004 0.20960867828457028 0.11059101642519507 0.27489080593727977 1.1214752947923914 0.56810000000000016 0.0013491691819817748 4.5685414722059283 0.89168259436058339 0.97759310431451263 9968.5000000000018 0.99148601421193938 1.0795014706123731 0.61344574710461375
decision_type=2 2 2 2 2 2 2 2 2 2 2 2 2 2 2
left_child=8 2 -2 13 9 -6 -7 -8 -1 -4 -11 14 -10 -3 -12
right_child=1 3 4 -5 5 6 7 -9 12 10 11 -13 -14 -15 -16
leaf_value=-0.094877127641338391 -0.083397657024477878 0.021273212983316192 -0.024078854833286936 0.09628594309423702 -0.10793173992186939 -0.072853004289493165 0.085373909672205872 -0.067701688261217502 0.018844119169288857 0.11093574742820943 0.083584077572410542 -0.046600674912987021 -0.082032373321016344 -0.12672066395821943 0.0063091300946080606
leaf_weight=1.7548202928155672 1.1141318082809428 0.30597376823425326 0.87668407335877407 2.4333454594016075 0.67453477531671557 0.78506176546216 0.88900472968816735 0.2294282540678978 0.67516980320215203 0.97301951795816444 0.87118428945541404 0.71515807509422291 0.39348378404974937 0.18036207742989063 0.68513742834329605
leaf_count=48 35 5 11 12 15 21 7 6 9 5 5 9 9 5 8
internal_value=0 0.173341 -0.040831 0.746487 0.0910753 -0.2701 0.0166589 0.53973 -0.658932 0.317011 0.467732 0.192883 -0.182991 -0.336117 0.495654
internal_weight=0 10.733 7.81334 2.91968 6.69921 2.57803 1.90349 1.11843 2.82347 4.12118 3.2445 2.27148 1.06865 0.486336 1.55632
internal_count=210 144 122 22 87 49 34 13 66 38 27 22 18 10 13
shrinkage=0.1


Tree=12
num_leaves=16
num_cat=0
split_feature=1 1 4 3 6 7 9 8 12 7 6 10 3 5 8
split_gain=1.22602 0.779177 0.768225 0.628982 0.469616 0.488347 0.52497 0.506164 0.329555 0.638552 0.319754 0.431405 0.276962 0.241667 0.133045
threshold=23528.000000000004 712.50000000000011 0.11059101642519507 10.477668680273174 0.012613163907019833 1.6520472861820934 0.91312388359984109 1.7049840319895735 0.53500000000000014 0.81225444546948744 0.24031596237869871 1.4054237927425344 19.440334640100236 0.27489080593727977 1.0000000000100615
decision_type=2 2 2 2 2 2 2 2 2 2 2 2 2 2 2
left_child=1 -1 12 4 -3 6 7 8 9 -6 -10 14 -2 -4 -12
right_child=2 3 13 -5 5 -7 -8 -9 10 -11 11 -13 -14 -15 -16
leaf_value=-0.12106512068324041 0.017522456883003482 0.059713124137847934 0.051950588014897228 -0.11924481209344213 0.039347231168375907 -0.059186780167871711 -0.11365259279162231 -0.1141753042828587 -0.016332703227095603 -0.10209595389682463 0.041186706725553857 0.10398067899412262 -0.12296881489809373 0.11671483656930803 -0.018134984711420384
leaf_weight=0.67342854104936012 0.30366719327867159 1.0460135713219605 1.2122579440474512 0.49243769235909057 0.70038270205259301 1.6814177986234424 0.36462553218007082 0.30647135898470867 0.93770859017968189 0.58641953580081452 1.0882557816803458 0.9874139130115509 0.26086139120161533 1.098048999905586 0.5793364606797694
leaf_count=28 5 9 8 18 11 40 10 11 15 13 12 5 9 6 10
internal_value=0 -0.174058 0.571787 -0.0944652 -0.0291493 -0.119732 0.0232894 0.104836 0.183131 -0.25111 0.338663 0.515959 -0.473968 0.827319 0.205778
internal_weight=0 9.44391 2.87484 8.77048 8.27805 7.23203 5.55061 5.18599 4.87952 1.2868 3.59271 2.65501 0.564529 2.31031 1.66759
internal_count=210 182 28 154 136 127 87 77 66 24 42 27 14 14 22
shrinkage=0.1


Tree=13
num_leaves=16
num_cat=0
split_feature=10 1 4 8 4 8 8 3 9 9 6 10 1 12 5
split_gain=1.15434 0.838361 0.574512 0.477402 0.413027 0.348631 0.3816 0.552595 0.353806 0.295258 0.224334 0.258548 0.223428 0.199217 0.192444
threshold=0.75006419545601732 23528.000000000004 0.20960867828457028 1.7049840319895735 0.11059101642519507 0.89168259436058339 0.9703737769564309 0.12844444444444447 0.79234851939635231 0.77570118815983091 4.5685414722059283 0.5671919853288554 1434.5000000000002 0.52000000000000013 0.24564711843534917
decision_type=2 2 2 2 2 2 2 2 2 2 2 2 2 2 2
left_child=10 2 -2 5 13 -4 -7 12 9 -9 -1 -12 -8 -3 -6
right_child=1 4 3 -5 14 6 7 8 -10 -11 11 -13 -14 -15 -16
leaf_value=-0.087540799121305121 -0.076224572969288903 0.026061098270445851 -0.037029928042985855 -0.10282698211346142 0.051219132735531185 0.090603718368024846 -0.0020515635132909373 0.026220278512109514 -0.032756245372813714 0.10319099271373372 0.0064492509606192188 -0.11342714402624479 -0.11934911495918066 -0.12382554654789101 0.11523747322804251
leaf_weight=1.407994318753482 0.89414386078715136 0.2627553939819337 0.95249675214290597 0.35075053945183743 0.82622263580560684 0.83301028609275807 0.292097877711058 1.4082609545439488 0.60897329822182644 0.77133648470044125 0.69779542088508595 0.2424231003969908 0.36569667048752313 0.13384539820253849 1.0877831578254697
leaf_count=48 35 5 18 14 5 6 5 20 10 5 12 6 9 5 7
internal_value=0 0.166437 -0.0180521 0.101142 0.683569 0.176859 0.298645 0.151834 0.346315 0.534594 -0.622831 -0.244593 -0.672624 -0.245229 0.876026
internal_weight=0 8.78737 6.47677 5.58262 2.31061 5.23187 4.27938 3.44637 2.78857 2.1796 2.34821 0.940219 0.657795 0.396601 1.91401
internal_count=210 144 122 87 22 73 55 49 35 25 66 18 14 10 12
shrinkage=0.1


Tree=14
num_leaves=16
num_cat=0
split_feature=1 1 7 3 6 15 10 7 10 5 16 3 4 9 7
split_gain=0.879114 0.571351 0.548601 0.437297 0.361763 0.337725 0.39799 0.371749 0.31983 0.398358 0.311943 0.228643 0.333684 0.201708 0.246463
threshold=23528.000000000004 712.50000000000011 1.9146941562498827 10.477668680273174 0.075856736785678849 0.46725000000000005 1.1169906944474473 1.780161646732825 1.4664139692746521 0.24564711843534917 0.45000000000000007 17.532064020302627 0.11059101642519507 0.87360705717773302 1.9877838738558522
decision_type=2 2 2 2 2 2 2 2 2 2 2 2 2 2 2
left_child=1 -1 11 4 8 -6 10 -8 9 -3 -7 -2 -13 14 -12
right_child=2 3 -4 -5 5 6 7 -9 -10 -11 13 12 -14 -15 -16
leaf_value=-0.1175692756074453 0.10442118506719728 0.10955471653876719 -0.070283695604731064 -0.11432996315546898 -0.11432665159023135 -0.092995293755455607 0.049814716840794235 -0.04388525806790803 -0.029432854991111337 0.0011064254171874177 0.011277248718029176 -0.118491277793054 0.060009272855756648 -0.10406627987998374 -0.10338441969215473
leaf_weight=0.51720530539751042 1.0831452310085303 0.7391664460301397 0.30693985521793354 0.372724363580346 0.33494687825441349 0.70672945119440567 1.4566641785204413 0.59693585708737362 0.56817513145506371 0.62519580684602261 1.4698856845498083 0.1205151081085204 0.7993805706501006 0.2254411168396474 0.21486590802669517
leaf_count=28 8 5 9 18 12 32 16 12 11 11 25 5 6 5 7
internal_value=0 -0.159966 0.542085 -0.0881078 -0.0314207 -0.173306 -0.103745 0.225782 0.336076 0.598601 -0.362337 0.732854 0.36624 -0.152332 -0.033462
internal_weight=0 7.82794 2.30998 7.31073 6.93801 5.00547 4.67052 2.0536 1.93254 1.36436 2.61692 2.00304 0.919896 1.91019 1.68475
internal_count=210 182 28 154 136 109 97 28 27 16 69 19 11 37 32
shrinkage=0.1


Tree=15
num_leaves=16
num_cat=0
split_feature=10 1 1 8 8 6 7 12 4 6 6 6 9 7 8
split_gain=0.76263 0.65455 0.402626 0.365349 0.321171 0.298656 0.401698 0.229547 0.228875 0.261204 0.167873 0.161253 0.155445 0.152633 0.148783
threshold=0.75006419545601732 23528.000000000004 41308.000000000007 0.88776635989921071 1.7049840319895735 0.012613163907019833 1.9877838738558522 0.67000000000000015 0.20960867828457028 1.4912879275389492 4.5685414722059283 0.78313091492240638 0.87360705717773302 0.59273623476475878 0.66339112600621497
decision_type=2 2 2 2 2 2 2 2 2 2 2 2 2 2 2
left_child=10 3 -3 14 5 -5 8 -8 -7 11 -1 -10 13 -12 -2
right_child=1 2 -4 4 -6 6 7 -9 9 -11 12 -13 -14 -15 -16
leaf_value=-0.080905814510434715 -0.0060377260397167622 0.088310763471262321 -0.033635506802548697 0.076981222556077034 -0.092434355934147117 -0.063212360587430988 -0.10010285441773964 0.020427527538662643 0.028395186221531046 -0.049769244827627866 0.041969661842768853 0.090464696574586945 -0.11859988053442039 -0.054578066626049082 -0.08520635876761197
leaf_weight=1.1250250637531278 0.3731774967163799 1.5068855583667753 0.33004876971244801 0.68999645113944996 0.2872176133096217 0.27990826498717147 0.49094112031161774 0.23299667052924636 1.5454599298536784 0.33540200069546688 0.3678446933627128 0.57401298545300949 0.1353683453053236 0.29511041752994061 0.65234372951090336
leaf_count=48 10 12 10 6 14 12 14 5 24 8 6 5 5 7 24
internal_value=0 0.147627 0.664002 -0.0260533 0.0983064 0.169105 0.0492671 -0.613106 0.224607 0.322293 -0.56019 0.452054 -0.209475 -0.0100797 -0.563976
internal_weight=0 7.29839 1.83693 5.46146 4.43594 4.14872 3.45872 0.723938 2.73478 2.45487 1.92335 2.11947 0.798323 0.662955 1.02552
internal_count=210 144 22 122 88 74 68 19 49 37 66 29 18 13 34
shrinkage=0.1


Tree=16
num_leaves=16
num_cat=0
split_feature=4 1 4 0 4 15 9 10 8 10 4 7 3 12 9
split_gain=0.665925 0.366578 0.413945 0.517109 0.333162 0.272422 0.314043 0.179407 0.175442 0.162642 0.154288 0.141958 0.241125 0.132595 0.124921
threshold=0.25594321900873779 1243.5000000000002 0.11059101642519507 0.011035889998469137 0.13733650906466102 0.56810000000000016 0.79018910339913817 0.87136330668360795 1.1214752947923914 0.84195895735086201 0.75690037016871969 0.26865698544310784 1.7192311334622825 0.49500000000000005 0.78407717324548831
decision_type=2 2 2 2 2 2 2 2 2 2 2 2 2 2 2
left_child=1 -1 3 -3 7 -2 8 -4 -7 -6 -8 -11 13 -13 -15
right_child=5 2 4 -5 9 6 10 -9 -10 11 -12 12 -14 14 -16
leaf_value=-0.11239217195476126 -0.073808046620306586 -0.11714018303387741 0.032236316782328391 0.054047349474605461 -0.046603520245630976 -0.036270112664652208 -0.10264942379461894 0.10293165669036264 0.060024314109704741 0.071635447640592306 -0.011004287317053418 -0.021792975027289149 -0.06882127279337405 0.056743513127758875 -0.010650876608805678
leaf_weight=0.20125079248100508 1.2666538963094356 0.42021444719284762 0.59578238427638985 0.30419405922293663 0.35087055712938342 0.2789805158972738 0.39223394356668001 0.90311141312122334 0.58795773237943649 0.5410227179527286 0.34552998840808868 0.4291817434132103 0.3003961918875574 1.1817859839648006 0.35845965333282936
leaf_count=14 56 23 6 5 13 6 20 8 9 5 7 8 10 14 6
internal_value=0 0.201174 0.250696 -0.45255 0.360003 -0.391387 -0.117728 0.748316 0.290368 0.175913 -0.597276 0.256045 0.146328 0.273621 0.410589
internal_weight=0 5.58627 5.38502 0.724409 4.66061 2.87136 1.6047 1.49889 0.866938 3.16172 0.737764 2.81085 2.26982 1.96943 1.54025
internal_count=210 112 98 28 70 98 42 14 15 56 27 43 38 28 20
shrinkage=0.1


Tree=17
num_leaves=16
num_cat=0
split_feature=1 4 4 0 4 9 16 5 9 6 7 7 3 9 12
split_gain=0.508578 0.413942 0.361115 0.405413 0.303092 0.221082 0.179155 0.165652 0.156884 0.189884 0.204508 0.125268 0.188948 0.141534 0.101568
threshold=712.50000000000011 0.27489080593727977 0.11059101642519507 0.011035889998469137 0.13733650906466102 0.8439098639995023 0.25000000000000006 0.27489080593727977 0.94299549673690009 0.012613163907019833 1.6871196709714054 1.3138194924301201 4.3018987091935434 0.79018910339913817 0.49500000000000005
decision_type=2 2 2 2 2 2 2 2 2 2 2 2 2 2 2
left_child=-1 2 3 -2 7 6 -3 -4 9 -6 14 12 13 -8 -11
right_child=1 5 4 -5 8 -7 11 -9 -10 10 -12 -13 -14 -15 -16
leaf_value=-0.11607341631553043 -0.11697695705723397 -0.063661968711199196 0.041587210772157129 0.04328058361309723 0.069052591763222301 -0.11230845166378603 0.073297429099394074 0.11229257769966267 -0.076937446141828167 -0.022594136082329797 -0.0510346039131261 -0.047470151390652103 -0.07708035338055419 -0.0027348405719854196 0.036086187903414328
leaf_weight=0.35999187268316735 0.36520291026681651 0.60236121714115198 0.77502696961164452 0.27803395502269268 0.62521946430206377 0.27635997626930464 0.47997584380209424 0.57882344722747803 0.17565238941460837 0.38066416606307057 0.48083255067467678 0.40333854220807558 0.17952660005539656 0.49974271282553673 1.310195146128535
leaf_count=28 23 27 8 5 7 17 6 6 5 8 16 15 8 11 20
internal_value=0 0.0563834 0.222029 -0.477069 0.325969 -0.280814 -0.173296 0.718165 0.147344 0.204916 0.0651109 0.0053102 0.172322 0.345143 0.228755
internal_weight=0 7.41096 4.96965 0.643237 4.32641 2.4413 2.16494 1.35385 2.97256 2.79691 2.17169 1.56258 1.15925 0.979719 1.69086
internal_count=210 182 98 28 70 84 67 14 56 51 44 40 25 17 28
shrinkage=0.1


Tree=18
num_leaves=16
num_cat=0
split_feature=10 1 4 8 7 8 7 1 6 8 0 11 15 8 10
split_gain=0.451236 0.394573 0.257518 0.243061 0.238097 0.166181 0.18688 0.407839 0.217212 0.162494 0.123785 0.118585 0.174091 0.115631 0.116837
threshold=0.75006419545601732 23528.000000000004 0.20960867828457028 1.7049840319895735 1.9146941562498827 0.88776635989921071 1.9877838738558522 1434.5000000000002 1.4912879275389492 0.91249414051596334 0.0011132480528156681 0.88750000000000007 0.60465000000000013 0.96389030781466434 0.57897662269976669
decision_type=2 2 2 2 2 2 2 2 2 2 2 2 2 2 2
left_child=10 2 -2 5 9 -4 8 -8 11 -3 -1 -7 -13 14 -12
right_child=1 4 3 -5 -6 6 7 -9 -10 -11 13 12 -14 -15 -16
leaf_value=-0.082809246330100159 -0.065570761917277454 0.034003999037981424 -0.034959829422548688 -0.093342010490972904 -0.060101283601313872 -0.013735942569969531 0.061542167559542796 -0.10097466055471932 -0.047407670547926307 0.10796541666972692 0.05066770215499098 0.082466584665969025 0.018826407343905699 -0.07561802444512622 -0.040297392470973768
leaf_weight=0.6273468881845472 0.55343871843069781 0.53856901824474313 0.58180052228272039 0.22479845955967889 0.14683624729514111 0.27378229144960742 0.2890726439654826 0.33149042166769505 0.27270911820232857 0.66238784044981003 0.26335874851793051 1.0713605247437952 0.71786474250257037 0.29111411981284618 0.30440070759505033
leaf_count=37 35 9 16 14 5 7 5 11 8 8 5 14 12 12 12
internal_value=0 0.128681 -0.0188055 0.0748691 0.601008 0.138933 0.235076 -0.252706 0.364672 0.747974 -0.490414 0.475546 0.569332 -0.243764 0.0189733
internal_weight=0 5.66411 4.31632 3.76288 1.34779 3.53808 2.95628 0.620563 2.33572 1.20096 1.48622 2.06301 1.78923 0.858874 0.567759
internal_count=210 144 122 87 22 73 57 16 41 17 66 33 26 29 17
shrinkage=0.1


Tree=19
num_leaves=16
num_cat=0
split_feature=4 4 0 1 4 15 13 9 7 7 0 9 5 1 3
split_gain=0.408815 0.249015 0.323107 0.303076 0.248952 0.149025 0.179017 0.141962 0.153996 0.125783 0.125762 0.142957 0.145481 0.116953 0.119815
threshold=0.25594321900873779 0.11059101642519507 0.011035889998469137 23528.000000000004 0.20960867828457028 0.56810000000000016 0.65000000000000002 0.79018910339913817 1.6321134184030079 0.57601736656773439 0.00083182050829562276 0.76068307321674433 0.24564711843534917 1434.5000000000002 0.63673585463417204
decision_type=2 2 2 2 2 2 2 2 2 2 2 2 2 2 2
left_child=1 2 -1 4 -3 -2 7 8 -7 -5 -6 13 -13 -12 -15
right_child=5 3 -4 9 10 6 -8 -9 -10 -11 11 12 -14 14 -16
leaf_value=-0.11563679303192131 -0.064093500475595408 -0.06891212316662737 0.039038895468870766 0.030249653917976439 -0.060409046429862938 0.066010200757472368 -0.12732933925455936 -0.039206378107924461 -0.03984545921049952 0.098907749534315526 0.025500193304505737 0.08256385838636926 0.003886788242882409 -0.11601536669001276 0.0011049351869168369
leaf_weight=0.29703274648636568 0.97566559910774253 0.35705166077241329 0.2476527476683259 0.44917590916156791 0.17633725143969092 0.42775902338325961 0.12154911179095496 0.50377268064767122 0.20248424634337425 0.65729948133230209 0.7519977465271952 0.65823258087038972 0.36554019339382648 0.14022084511816502 0.23164185509085652
leaf_count=23 56 28 5 6 5 6 8 21 7 8 12 7 8 5 5
internal_value=0 0.179109 -0.453102 0.270028 0.0883011 -0.34776 -0.119942 0.00367966 0.320009 0.710359 0.207743 0.274401 0.54472 0.0281553 -0.430584
internal_weight=0 4.33218 0.544685 3.7875 2.68102 2.23123 1.25557 1.13402 0.630243 1.10648 2.32397 2.14763 1.02377 1.12386 0.371863
internal_count=210 112 28 84 70 98 42 34 13 14 42 37 15 22 10
shrinkage=0.1


Tree=20
num_leaves=16
num_cat=0
split_feature=1 4 4 0 1 9 5 16 10 6 3 6 8 8 7
split_gain=0.350521 0.27182 0.266966 0.258208 0.211918 0.157326 0.117481 0.110022 0.10291 0.0994823 0.140687 0.0942251 0.0938093 0.149691 0.141241
threshold=712.50000000000011 0.27489080593727977 0.11059101642519507 0.011035889998469137 23528.000000000004 0.8439098639995023 0.27489080593727977 0.25000000000000006 0.81245782953977452 0.39348442120954275 3.6144282671614105 0.18172496007156499 0.88776635989921071 1.0000000000100615 1.9877838738558522
decision_type=2 2 2 2 2 2 2 2 2 2 2 2 2 2 2
left_child=-1 2 3 -2 8 7 -6 -3 -4 11 -11 -9 -10 -14 -15
right_child=1 5 4 -5 6 -7 -8 9 12 10 -12 -13 13 14 -16
leaf_value=-0.1138529750054743 -0.11600446368356383 -0.056465126416292838 -0.046226365759746355 0.02915282311841122 0.040882739799919812 -0.107031168288032 0.11065976591030309 -0.007795530664705912 -0.020470580324271407 0.033524046366327991 -0.069644983388562551 -0.1230062396630049 0.063990592764040774 0.027614576685115799 -0.062851107990123389
leaf_weight=0.25884634256362904 0.2628290364518765 0.4754377612844109 0.25213165115565089 0.22959110885858536 0.59818433970212959 0.21075816173106421 0.40442933142185206 0.19702289905399065 0.42721592262387303 0.78477446176111709 0.15894776117056608 0.11096964497119188 0.78233391046524015 0.66586696915328492 0.23295989446341991
leaf_count=28 23 27 12 5 8 17 6 7 13 18 9 6 12 11 8
internal_value=0 0.0508685 0.204435 -0.483248 0.305124 -0.254657 0.690291 -0.155126 0.141526 0.000423774 0.161477 -0.493059 0.213731 0.320064 0.0416748
internal_weight=0 5.79345 3.85554 0.49242 3.36312 1.93791 1.00261 1.72715 2.36051 1.25171 0.943722 0.307993 2.10838 1.68116 0.898827
internal_count=210 182 98 28 70 84 14 67 56 40 27 13 44 31 19
shrinkage=0.1


Tree=21
num_leaves=16
num_cat=0
split_feature=10 1 7 8 8 3 2 11 8 10 9 12 6 9 0
split_gain=0.305671 0.252595 0.19229 0.174432 0.178491 0.158588 0.131023 0.116567 0.10794 0.100704 0.224521 0.0927987 0.0899763 0.0759089 0.101249
threshold=0.75006419545601732 23528.000000000004 1.9146941562498827 0.88776635989921071 0.9703737769564309 0.12844444444444447 23528.000000000004 0.91155000000000019 0.66339112600621497 1.4054237927425344 0.77570118815983091 0.58500000000000008 4.5685414722059283 0.87360705717773302 0.0013227415580784744
decision_type=2 2 2 2 2 2 2 2 2 2 2 2 2 2 2
left_child=12 3 7 8 11 6 -6 -3 -2 -7 -11 -5 -1 14 -14
right_child=1 2 -4 4 5 9 -8 -9 -10 10 -12 -13 13 -15 -16
leaf_value=-0.069615386431051515 0.0047068797579819703 0.033655737978339997 -0.064309992205264899 0.095041268281843921 -0.11186502563384765 -0.0093652374332300805 -0.0038412786059680501 0.10596971936350433 -0.07927140966524239 -0.017357214304687854 0.089226589583137977 0.0043817063431153477 -0.046982338631263894 -0.10792106583492483 0.048179823698618701
leaf_weight=0.66228043567389228 0.24613039847463403 0.42314713262021519 0.11752269323915245 0.32981419097632203 0.21347083151340521 1.0319400914013384 0.2368703642860055 0.47106043808162207 0.40474118664860725 0.38022413197904814 0.41157644055783754 0.17167499847710133 0.21973013319075108 0.073965315707027898 0.22762887924909592
leaf_count=48 10 9 5 5 13 39 9 8 24 12 5 5 8 5 5
internal_value=0 0.120418 0.559453 -0.00921641 0.100044 -0.0190417 -0.550467 0.717501 -0.475146 0.112185 0.380448 0.640057 -0.451533 -0.140771 0.0143885
internal_weight=0 4.43817 1.01173 3.42644 2.77557 2.27408 0.450341 0.894208 0.650872 1.82374 0.791801 0.501489 1.1836 0.521324 0.447359
internal_count=210 144 22 122 88 78 22 17 34 56 17 10 66 18 13
shrinkage=0.1


Tree=22
num_leaves=16
num_cat=0
split_feature=1 1 1 1 8 10 7 10 2 9 9 0 9 0 9
split_gain=0.268408 0.21356 0.22466 0.201358 0.142624 0.105372 0.0881554 0.147108 0.0828067 0.0621495 0.136212 0.0550491 0.0522468 0.0716997 0.0704821
threshold=712.50000000000011 23528.000000000004 41308.000000000007 16812.500000000004 1.7049840319895735 0.87136330668360795 0.16382244184057712 0.93334414024036572 3507.0000000000005 0.77570118815983091 0.79234851939635231 0.0026130453523182462 0.87360705717773302 0.0013227415580784744 0.81116352607654507
decision_type=2 2 2 2 2 2 2 2 2 2 2 2 2 2 2
left_child=-1 3 5 4 6 -3 -2 12 -4 -9 -11 -5 13 14 -8
right_child=1 2 8 11 -6 -7 7 9 -10 10 -12 -13 -14 -15 -16
leaf_value=-0.11109306321569219 0.057299238192255825 0.025013093246562246 -0.11709133141898734 -0.11086271633135487 -0.086086622407766308 0.097621834760907217 -0.085414394656603776 0.004528828970147389 0.0056720320936126164 0.079072042385725405 -0.018213169341528248 -0.027320047087760008 -0.07021517780851233 0.015975873078902015 -0.0038225883400905616
leaf_weight=0.20875769341364489 0.29867326281964901 0.33318534865975358 0.091309773270040764 0.21271544694900504 0.17934872256591905 0.49952354654669762 0.21559711266309045 1.4828444775193932 0.13796323072165251 0.38169030472636206 0.23103466536849737 0.12535497965291142 0.25183335971087217 0.34671030007302761 0.2080302769318223
leaf_count=28 6 6 9 23 15 8 12 41 5 7 7 5 17 12 9
internal_value=0 0.0464219 0.444352 -0.0610037 0.00836845 0.685695 0.054 0.00428154 -0.432194 0.15599 0.423896 -0.798855 -0.306738 -0.177472 -0.453472
internal_weight=0 4.99581 1.06198 3.93383 3.59576 0.832709 3.41641 3.11774 0.229273 2.09557 0.612725 0.33807 1.02217 0.770338 0.423627
internal_count=210 182 28 154 126 14 111 105 14 55 14 28 50 33 21
shrinkage=0.1


Tree=23
num_leaves=16
num_cat=0
split_feature=1 1 1 1 15 0 14 10 10 15 5 7 0 2 5
split_gain=0.229449 0.154852 0.220784 0.169474 0.110935 0.157647 0.106302 0.0954725 0.134261 0.0945278 0.0924727 0.0921831 0.091159 0.0795442 0.0560177
threshold=712.50000000000011 23528.000000000004 41308.000000000007 16812.500000000004 0.55775000000000008 0.0021482031021809954 0.41835000000000006 1.4664139692746521 1.2299212042586489 0.59990000000000021 0.27489080593727977 0.93342077566030512 0.0018570136779449723 3507.0000000000005 0.27489080593727977
decision_type=2 2 2 2 2 2 2 2 2 2 2 2 2 2 2
left_child=-1 3 10 4 5 -2 11 8 9 12 -3 -7 -6 -4 -11
right_child=1 2 13 -5 7 6 -8 -9 -10 14 -12 -13 -14 -15 -16
leaf_value=-0.11070478705410967 -0.061934238120956768 0.037743088351433564 -0.12260928450156411 -0.075789343992522656 0.086524494274145686 -0.022063164603581528 -0.032152851008980569 -0.03872144833311314 0.079304111142462774 -0.027201275599129077 0.10955320932029072 0.068915199176827785 -0.052388873325039512 -0.00016736160271514888 0.018959683887592463
leaf_weight=0.18033263459801663 0.54904302861541576 0.46689910069107998 0.086887451354414225 0.31053319573402394 0.24645060719922171 0.1705963984131813 0.39891777513548726 0.26924521289765824 0.36336428485810746 0.50845662225037791 0.29114968329668045 0.32080582808703184 0.058442596346139915 0.13627195544540882 0.5443285177461803
leaf_count=28 38 8 9 28 5 5 17 7 6 19 6 7 5 5 17
internal_value=0 0.0422835 0.395865 -0.0504758 0.0135763 -0.19791 0.0619795 0.166522 0.25315 0.108655 0.653238 0.373309 0.598973 -0.478403 -0.0333437
internal_weight=0 4.72139 0.981208 3.74018 3.42965 1.43936 0.89032 1.99029 1.72104 1.35768 0.758049 0.491402 0.304893 0.223159 1.05279
internal_count=210 182 28 154 126 67 29 59 52 46 14 12 10 14 36
shrinkage=0.1


Tree=24
num_leaves=16
num_cat=0
split_feature=1 0 8 15 14 15 4 9 10 15 15 7 15 4 0
split_gain=0.194071 0.121487 0.131095 0.130208 0.158574 0.240811 0.137952 0.114243 0.112561 0.108729 0.0946469 0.0941728 0.0911341 0.0828856 0.0742925
threshold=712.50000000000011 0.00058189848571309482 0.96389030781466434 0.56010000000000015 0.41835000000000006 0.54150000000000009 0.11059101642519507 0.78407717324548831 1.4664139692746521 0.48325000000000001 0.65540000000000009 3.3029977196224016 0.59990000000000021 0.20960867828457028 0.0017788170140671325
decision_type=2 2 2 2 2 2 2 2 2 2 2 2 2 2 2
left_child=-1 2 -2 4 5 7 -5 -3 12 -6 -4 13 14 -11 -8
right_child=1 3 10 6 9 -7 8 -9 -10 11 -12 -13 -14 -15 -16
leaf_value=-0.10815219027241792 -0.11214577576910643 0.056628192808648663 -0.057833738735784325 -0.13227216407958731 -0.12133119059197006 -0.063855302284120494 0.1013356168716131 -0.075557713369480792 -0.03179799079825308 0.048194590208158056 0.037615627858869773 -0.10750174734470108 0.023250549487051946 -0.031276296020083708 0.033445488965101265
leaf_weight=0.1602133170235901 0.17141905380412925 0.74783982150256656 0.19992109574377537 0.05170465214177955 0.13488233368843783 0.26977143855765462 0.36653349082916953 0.071646016091108322 0.23234253097325552 0.18088178522884849 0.21626789122819901 0.11509451828896999 0.97665424039587379 0.47819186095148331 0.28771329484879971
leaf_count=28 16 21 15 5 11 8 6 7 6 6 7 8 30 26 10
internal_value=0 0.038498 -0.385479 0.102162 -0.0764035 0.18094 0.2885 0.450714 0.333211 -0.384762 -0.0823456 -0.240405 0.425981 -0.0946563 0.714801
internal_weight=0 4.50086 0.587608 3.91326 1.99831 1.08926 1.91495 0.819486 1.86324 0.90905 0.416189 0.774168 1.6309 0.659074 0.654247
internal_count=210 182 38 144 87 36 57 28 52 51 22 40 46 32 16
shrinkage=0.1


Tree=25
num_leaves=16
num_cat=0
split_feature=1 7 1 8 1 15 8 14 14 1 7 16 15 11 9
split_gain=0.184802 0.162302 0.139354 0.130113 0.146041 0.0802864 0.0867538 0.095785 0.130994 0.0732999 0.143212 0.0746092 0.0625239 0.0612091 0.0751241
threshold=23528.000000000004 1.9146941562498827 712.50000000000011 1.7049840319895735 16812.500000000004 0.56010000000000015 0.88776635989921071 0.41835000000000006 0.33830000000000005 1434.5000000000002 1.9877838738558522 0.75000000000000011 0.60890000000000011 0.91155000000000019 0.7097502462894042
decision_type=2 2 2 2 2 2 2 2 2 2 2 2 2 2 2
left_child=2 13 -1 4 5 6 -4 8 -8 -7 11 -11 -13 14 -2
right_child=1 -3 3 -5 -6 9 7 -9 -10 10 -12 12 -14 -15 -16
leaf_value=-0.10837791210576292 0.081171961066769771 -0.060864590979818646 -0.062582680545568467 -0.094304871481686744 -0.072980779159870848 0.047941871830423158 -0.024368145331195024 -0.032232179524139752 0.079947619487156868 -0.09268902543070566 -0.094269406382284829 0.064427137712236432 0.0069788949963058011 0.090758321518070409 -0.012822751322751253
leaf_weight=0.13859602203592691 0.16061558481305829 0.12809001537971201 0.28717554081231467 0.15899365907534946 0.26277212938293804 0.57920022122561921 0.22554125543683767 0.46558603458106518 0.25817883014678955 0.057884300593286531 0.13074261695146561 0.27228525839745998 0.6227252995595336 0.35407896107062697 0.18068449571728704
leaf_count=28 5 9 17 15 28 12 11 26 6 6 7 6 20 9 5
internal_value=0 0.425761 -0.101339 -0.0603397 -0.0159561 0.048742 -0.144234 0.00145273 0.313089 0.192239 0.038742 0.173401 0.244561 0.6163 0.314111
internal_weight=0 0.823469 3.45968 3.32109 3.16209 2.89932 1.23648 0.949306 0.48372 1.66284 1.08364 0.952895 0.895011 0.695379 0.3413
internal_count=210 28 182 154 139 111 60 43 17 51 39 32 26 19 10
shrinkage=0.1


Tree=26
num_leaves=16
num_cat=0
split_feature=1 1 1 3 8 10 2 8 6 7 10 9 4 14 0
split_gain=0.160892 0.14243 0.120942 0.113428 0.113586 0.06681 0.0627707 0.0568346 0.104569 0.119066 0.0739915 0.0926873 0.0652993 0.0631453 0.0579878
threshold=23528.000000000004 41308.000000000007 712.50000000000011 10.477668680273174 1.7049840319895735 0.87136330668360795 3507.0000000000005 0.89168259436058339 0.012613163907019833 1.9877838738558522 0.93334414024036572 0.72878409282017242 0.24564711843534917 0.43670000000000003 0.0010198046935927993
decision_type=2 2 2 2 2 2 2 2 2 2 2 2 2 2 2
left_child=2 5 -1 4 7 -2 -3 14 -9 10 13 12 -12 -10 -4
right_child=1 6 3 -5 -6 -7 -8 8 9 -11 11 -13 -14 -15 -16
leaf_value=-0.10755017356364582 0.024299969058866836 -0.11706712772271217 -0.073735404617179465 -0.10593967649442759 -0.087436873926882056 0.092853623057396417 0.0076217391239179824 0.06862885009312425 -0.094213151277727475 -0.049650968222848167 -0.058242722474462862 0.059783179442136347 0.022029914785156444 -0.00054943887800432926 -0.0064888933891715491
leaf_weight=0.12178701045923011 0.2405698113143443 0.063897121930494905 0.16664162976667407 0.10943188611417998 0.1487951548770069 0.34752541966736322 0.10966984601691364 0.26988023146986995 0.088691578246652983 0.35943475365638722 0.14192650374025084 0.50982327852398157 0.35435296129435301 0.38194712158292526 0.55634218920022249
leaf_count=28 6 9 14 18 15 8 5 5 9 23 8 11 12 15 24
internal_value=0 0.413181 -0.0980677 -0.0595097 -0.0227651 0.648106 -0.382813 0.0220256 0.105071 0.019644 0.145274 0.298369 -0.00926535 -0.182003 -0.219886
internal_weight=0 0.761662 3.20905 3.08727 2.97784 0.588095 0.173567 2.82904 2.10606 1.83618 1.47674 1.0061 0.496279 0.470639 0.722984
internal_count=210 28 182 154 136 14 14 121 83 78 55 31 20 24 38
shrinkage=0.1


Tree=27
num_leaves=16
num_cat=0
split_feature=10 1 1 8 12 7 5 15 15 10 12 7 6 8 9
split_gain=0.138373 0.155202 0.103641 0.0736393 0.102813 0.0758752 0.124518 0.117325 0.0785853 0.0654974 0.0648717 0.0948992 0.0638467 0.0523706 0.0497662
threshold=0.75006419545601732 23528.000000000004 41308.000000000007 0.89168259436058339 0.59500000000000008 0.6506420051559294 0.11059101642519507 0.51600000000000013 0.53300000000000003 1.0795014706123731 0.56500000000000006 1.5369449079681641 4.5685414722059283 0.66339112600621497 0.87360705717773302
decision_type=2 2 2 2 2 2 2 2 2 2 2 2 2 2 2
left_child=12 3 -3 13 5 -5 -7 -8 -9 -4 11 -10 -1 -2 -14
right_child=1 2 9 4 -6 6 7 8 10 -11 -12 -13 14 -15 -16
leaf_value=-0.062984340849000592 0.0083359613122184605 0.077515465987659932 0.028363700654036639 0.047396736927710577 -0.040462272079325227 -0.11141951523935129 0.090746837108773459 -0.11978521293626875 -0.043003114057911164 -0.12288389134845562 -0.029782649869665181 0.0730651196927911 0.0078987112230785757 -0.061865552500196909 -0.1032417979740775
leaf_weight=0.4312151740305129 0.16413119668141085 0.46649838052690018 0.081404452677816139 0.57666912674903847 0.36115591228008254 0.088861298747360706 0.15760765830054879 0.054940848145633936 0.10380969429388642 0.044165732804685831 0.28366054710932082 0.21915736794471741 0.3187754107639193 0.30141854356043041 0.046118049416691065
leaf_count=48 10 12 5 16 23 6 5 5 7 5 17 7 13 26 5
internal_value=0 0.101269 0.558086 -0.015745 0.0738945 0.190294 0.0101413 0.132105 -0.052612 -0.248333 0.0511097 0.357579 -0.369337 -0.371158 -0.0614808
internal_weight=0 2.90348 0.592069 2.31141 1.84586 1.48471 0.908037 0.819176 0.661568 0.12557 0.606628 0.322967 0.796109 0.46555 0.364893
internal_count=210 144 22 122 86 63 47 41 36 10 31 14 66 36 18
shrinkage=0.1


Tree=28
num_leaves=16
num_cat=0
split_feature=7 1 3 10 1 3 1 3 11 8 8 3 16 10 6
split_gain=0.137388 0.148312 0.111755 0.105346 0.138392 0.0881745 0.0823164 0.0719162 0.0788706 0.058652 0.0570239 0.0654291 0.0551627 0.0687355 0.0509603
threshold=1.9877838738558522 23528.000000000004 0.1591921516395359 1.2172271966135646 999.00000000000011 0.4751472296782982 16812.500000000004 2.5462555066079298 0.82855000000000012 1.126422672271032 0.91249414051596334 36.143135781510196 0.45000000000000007 0.84195895735086201 0.24031596237869871
decision_type=2 2 2 2 2 2 2 2 2 2 2 2 2 2 2
left_child=1 3 -2 4 -1 -4 12 8 -5 14 11 -3 -6 -14 -10
right_child=2 10 5 7 6 -7 -8 -9 9 -11 -12 -13 13 -15 -16
leaf_value=-0.10558206732796656 -0.096572710080466848 0.050713074316909648 0.055279792528559614 -0.038058487920408147 -0.045329388510362716 -0.042940583479071648 -0.10844478418174618 -0.059422125348686572 -0.04197944088120658 0.074268146338938093 0.087346477648625825 -0.065369573541817647 -0.01487130949438758 0.040061382985708834 0.042315394041490505
leaf_weight=0.16348999808542553 0.23544469079934047 0.20261867204681028 0.1371545335277915 0.12991145951673377 0.2247699759900568 0.27396990149281919 0.075920665636658544 0.092340567614883184 0.10311553115025164 0.36932686250656838 0.28313005622476334 0.063858173787593842 0.50445617455989122 0.41531150601804256 0.23553901165723801
leaf_count=34 19 6 5 7 21 21 15 9 6 10 9 5 26 11 6
internal_value=0 0.0940017 -0.416353 -0.0169017 -0.191824 -0.101734 -0.076085 0.243338 0.335642 0.467066 0.560973 0.228952 -0.00919722 0.0993298 0.166488
internal_weight=0 2.86379 0.646569 2.31418 1.38395 0.411124 1.22046 0.930233 0.837893 0.707981 0.549607 0.266477 1.14454 0.919768 0.338655
internal_count=210 165 45 145 107 26 73 38 29 22 20 11 58 37 12
shrinkage=0.1


Tree=29
num_leaves=16
num_cat=0
split_feature=4 4 0 4 9 5 4 8 4 3 0 0 9 5 4
split_gain=0.108848 0.0765542 0.138755 0.0885391 0.0633389 0.0613444 0.0580796 0.0537825 0.0562809 0.0652033 0.053 0.0427148 0.0345974 0.0576231 0.0554675
threshold=0.25594321900873779 0.11059101642519507 0.011035889998469137 0.13733650906466102 0.8439098639995023 0.27489080593727977 0.20960867828457028 1.7049840319895735 0.49073970366204928 3.6144282671614105 0.00083182050829562276 0.000842311435763385 0.76068307321674433 0.24564711843534917 0.24564711843534917
decision_type=2 2 2 2 2 2 2 2 2 2 2 2 2 2 2
left_child=1 2 -1 5 7 -3 -5 8 11 -10 -8 -2 14 -14 -12
right_child=4 3 -4 6 -6 -7 10 -9 9 -11 12 -13 13 -15 -16
leaf_value=-0.11318890608013783 -0.11772891262728249 0.031780192978596432 0.033472934804635847 -0.046973300944417179 -0.10403202531921968 0.10788960467367451 -0.056947513230433046 -0.085006999800399344 0.0277158082163423 -0.073340732435254949 -0.037293528545425086 -0.024539421499560638 0.067311099335322519 -0.00184675785952786 0.027068810668419277
leaf_weight=0.12504937197081822 0.056906104320660011 0.30508666113018978 0.13324232492595911 0.1696669510565697 0.093364062951877602 0.16220438666641712 0.093073419295251231 0.1072654752060771 0.42419066559523344 0.075159721542149782 0.20226290915161349 0.36257871985435486 0.31395794078707689 0.19550283905118704 0.39615082275122399
leaf_count=23 11 8 5 28 18 6 5 15 16 8 10 30 7 8 12
internal_value=0 0.134451 -0.375319 0.206092 -0.25176 0.58199 0.0779353 -0.180009 -0.101786 0.125053 0.155308 -0.371812 0.216198 0.407721 0.0531444
internal_weight=0 2.0962 0.258292 1.83791 1.11946 0.467291 1.37061 1.0261 0.918835 0.49935 1.20095 0.419485 1.10787 0.509461 0.598414
internal_count=210 112 28 84 98 14 70 80 65 24 42 41 37 15 22
shrinkage=0.1


Tree=30
num_leaves=16
num_cat=0
split_feature=10 1 1 7 10 8 6 5 4 3 14 12 15 4 10
split_gain=0.099198 0.104167 0.0649156 0.0592615 0.0733639 0.0571422 0.0488337 0.0434123 0.037583 0.0897728 0.0647369 0.0707163 0.0470376 0.0430309 0.0374165
threshold=0.73341142093149581 23528.000000000004 41308.000000000007 0.16382244184057712 0.93334414024036572 1.7049840319895735 4.5685414722059283 0.24564711843534917 0.24564711843534917 0.1591921516395359 0.41835000000000006 0.57500000000000007 0.56010000000000015 0.17419064063062964 1.0795014706123731
decision_type=2 2 2 2 2 2 2 2 2 2 2 2 2 2 2
left_child=6 3 7 -2 -5 8 -1 -3 9 -6 13 -12 -10 -11 -4
right_child=1 2 14 4 5 -7 -8 -9 12 10 11 -13 -14 -15 -16
leaf_value=-0.064183448008281574 0.057454663078602822 0.038698766167186205 0.020412782805930198 -0.05073590017716733 -0.11299083853154486 -0.10917040205828968 -0.0074993512131183966 0.10742804679463958 -0.0094820152772664059 -0.033465463202921611 -0.090673346570788932 0.013273550697151332 0.038960180915098293 0.062518776979762672 -0.11352191188256258
leaf_weight=0.3067696453072134 0.15882870554924045 0.19753854535520063 0.067445724736899137 0.30742795835249115 0.077810761984437468 0.044101146515458711 0.30121638113632798 0.17185824923217297 0.32944188825786114 0.062108614947646856 0.11618898622691631 0.14986564824357629 0.51191842136904597 0.1883478807285428 0.03019691072404385
leaf_count=45 5 5 5 35 8 6 18 7 20 6 14 8 17 6 5
internal_value=0 0.0909562 0.515067 -0.010828 -0.06285 0.0294976 -0.361003 0.706744 0.0639386 -0.128569 0.0222801 -0.321212 0.199922 0.387164 -0.210078
internal_weight=0 2.41308 0.467039 1.94604 1.78721 1.47978 0.607986 0.369397 1.43568 0.594322 0.516511 0.266055 0.84136 0.250456 0.0976426
internal_count=210 147 22 125 120 85 63 12 79 42 34 22 37 12 10
shrinkage=0.1


Tree=31
num_leaves=16
num_cat=0
split_feature=4 4 0 4 9 15 8 8 11 0 13 15 9 10 12
split_gain=0.0985685 0.0555041 0.109233 0.0673637 0.052807 0.0494757 0.0470874 0.0611376 0.0633124 0.0468284 0.0463592 0.043563 0.0337561 0.034645 0.029927
threshold=0.25594321900873779 0.11059101642519507 0.011035889998469137 0.13733650906466102 0.7097502462894042 0.56810000000000016 0.89168259436058339 1.0000000000100615 0.96875000000000011 0.0061796889986182784 0.65000000000000002 0.59990000000000021 0.77570118815983091 0.84909444545091106 0.57500000000000007
decision_type=2 2 2 2 2 2 2 2 2 2 2 2 2 2 2
left_child=1 2 -1 4 -3 9 -5 14 -9 -2 11 -7 -13 -14 -8
right_child=5 3 -4 6 -6 10 7 8 -10 -11 -12 12 13 -15 -16
leaf_value=-0.1089750382148911 -0.06805688465926045 0.1076016752735896 0.031407027765703865 -0.021668942066330063 0.030401733542488263 0.048928589173421244 0.073836132255922657 0.037990409581404455 -0.033365801491267486 0.015422158252799517 -0.1135771377936655 0.017592267302693382 -0.019789976034219451 -0.11345554899180149 0.011774074842047809
leaf_weight=0.10254904208704864 0.3373119169846176 0.13122888281941403 0.120629059150815 0.36556688079144783 0.27279308810830122 0.14134625461883843 0.23445424297824505 0.22670441586524248 0.27539325272664428 0.083914825459942222 0.037574180169031024 0.17026025941595435 0.16894220374524593 0.051535571925342083 0.11621043412014842
leaf_count=23 50 5 5 33 9 7 8 8 16 6 8 9 11 7 5
internal_value=0 0.136595 -0.330977 0.200917 0.554768 -0.254409 0.0835726 0.212291 -0.0114743 -0.514266 -0.0622617 0.0135463 -0.158549 -0.416838 0.532687
internal_weight=0 1.84553 0.223178 1.62235 0.404022 0.990885 1.21833 0.852762 0.502098 0.421227 0.569658 0.532084 0.390738 0.220478 0.350665
internal_count=210 112 28 84 14 98 70 37 24 56 42 34 27 18 13
shrinkage=0.1


Tree=32
num_leaves=16
num_cat=0
split_feature=1 4 9 7 1 10 1 16 3 12 4 15 14 16 7
split_gain=0.0818514 0.0648693 0.0513285 0.0499094 0.0497247 0.045637 0.0451391 0.0439967 0.0398418 0.0447489 0.0382784 0.0558598 0.0375064 0.0353413 0.0314376
threshold=712.50000000000011 0.27489080593727977 0.8439098639995023 1.9146941562498827 23528.000000000004 0.87136330668360795 41308.000000000007 0.25000000000000006 2.9525593755985446 0.49500000000000005 0.20960867828457028 0.59990000000000021 0.57455000000000012 1.0000000180025095e-35 0.57601736656773439
decision_type=2 2 2 2 2 2 2 2 2 2 2 2 2 2 2
left_child=-1 3 7 4 8 -6 -7 13 9 -2 -11 -12 -5 -3 -10
right_child=1 2 -4 12 5 6 -8 -9 14 10 11 -13 -14 -15 -16
leaf_value=-0.10085681524513886 -0.019452714450194902 0.0028616404929621333 -0.099199580496668494 -0.040706893333136172 0.012281448059068055 0.10803464645518263 0.011334132277128484 0.002227717267821022 -1.11694913446278e-05 -0.052513947170612613 0.076179752362467046 0.0093167330403044098 0.026975707453734038 -0.080838483105208192 -0.085526289401155003
leaf_weight=0.078117951401509664 0.19862992689013503 0.079554125666618222 0.072857707971706973 0.24518060497939576 0.1642350722104311 0.1712819654494524 0.067215173970907927 0.60549779352732003 0.12109777238219976 0.044851486105471849 0.25896802172064781 0.24143603816628456 0.1229239753447473 0.13787511526606977 0.066650343826040626
leaf_count=28 10 6 17 23 6 7 6 40 5 7 7 9 6 21 12
internal_value=0 0.0303231 -0.187506 0.144938 0.234867 0.528472 0.807817 -0.116281 0.107946 0.211838 0.359871 0.439195 -0.181051 -0.502139 -0.303689
internal_weight=0 2.59826 0.895785 1.70247 1.33437 0.402732 0.238497 0.822927 0.931634 0.743885 0.545256 0.500404 0.368105 0.217429 0.187748
internal_count=210 182 84 98 69 19 13 67 50 33 23 16 29 27 17
shrinkage=0.1


Tree=33
num_leaves=16
num_cat=0
split_feature=10 1 7 6 3 1 8 6 7 6 15 10 7 8 8
split_gain=0.0731715 0.0649395 0.0587701 0.0438721 0.0431568 0.0509173 0.0421536 0.0560538 0.0460039 0.0662321 0.0574666 0.0355512 0.0354955 0.0352233 0.0330899
threshold=0.75006419545601732 23528.000000000004 1.9146941562498827 4.5685414722059283 17.532064020302627 41308.000000000007 0.88776635989921071 0.012613163907019833 1.9877838738558522 1.4912879275389492 0.53645000000000009 1.5766711699472054 2.5945666946324022 1.0000000000100615 0.66339112600621497
decision_type=2 2 2 2 2 2 2 2 2 2 2 2 2 2 2
left_child=3 6 4 -1 -3 -6 14 -8 9 11 -11 -9 -10 -5 -2
right_child=1 2 -4 13 5 -7 7 8 12 10 -12 -13 -14 -15 -16
leaf_value=-0.05801634612242082 0.0075448756627079245 0.099113440233602093 -0.048753447669251465 0.02249423658754442 0.050093857932646015 -0.10874074802187993 0.056838435563899462 0.012187873508307717 -0.092100287596960873 -0.12553213789169365 0.0061394161742713074 0.072703668499723567 -0.011391574864753564 -0.05628424877117541 -0.060983496705281803
leaf_weight=0.29929081280715802 0.11668457719497372 0.16329601034522043 0.054837028728798032 0.18175164982676503 0.12823977135121822 0.023952112765982747 0.19949394324794401 0.63135576643981017 0.083601899212226272 0.061919134110212326 0.071329696802422404 0.11471589840948582 0.15649807453155518 0.082527743186801658 0.17787422391120344
leaf_count=48 10 7 5 10 5 5 7 41 9 8 5 5 13 8 24
internal_value=0 0.0903338 0.467989 -0.31798 0.634075 0.250963 0.00365433 0.0800404 -0.00698831 0.0989427 -0.550468 0.214928 -0.39494 -0.0210628 -0.338371
internal_weight=0 1.9838 0.370325 0.56357 0.315488 0.152192 1.61347 1.31891 1.11942 0.87932 0.133249 0.746072 0.2401 0.264279 0.294559
internal_count=210 144 22 66 17 10 122 88 81 59 13 46 22 18 34
shrinkage=0.1


Tree=34
num_leaves=16
num_cat=0
split_feature=1 4 4 0 9 4 5 15 10 6 3 6 9 6 1
split_gain=0.076003 0.0613471 0.0505192 0.0844086 0.0473028 0.0391649 0.0413631 0.0375206 0.0399829 0.028349 0.031802 0.028942 0.0273888 0.0228779 0.0315791
threshold=712.50000000000011 0.27489080593727977 0.11059101642519507 0.011035889998469137 0.8439098639995023 0.13733650906466102 0.27489080593727977 0.48325000000000001 1.4054237927425344 0.39348442120954275 5.5443645083932855 0.18172496007156499 0.94299549673690009 0.012613163907019833 1434.5000000000002
decision_type=2 2 2 2 2 2 2 2 2 2 2 2 2 2 2
left_child=-1 2 3 -2 7 6 -4 -3 9 11 -11 -9 13 -7 -15
right_child=1 4 5 -5 -6 12 -8 8 -10 10 -12 -13 -14 14 -16
leaf_value=-0.10621724548542 -0.10798374300386289 -0.098518351489792821 0.028368715363900194 0.027623673471961142 -0.10097715146595182 0.046803205766601692 0.10620859132080281 -0.025392124510951644 0.055119526005966181 0.0062562219879911361 -0.096817065841727251 -0.11701656905888497 -0.057506987439716772 0.034520660782357909 -0.007660196753961338
leaf_weight=0.065522652002983128 0.084119653445668852 0.047000193502753855 0.22367703169584263 0.10102749522775412 0.064888708759099245 0.19192428886890389 0.098254038952291012 0.13718021591193974 0.092307646758854403 0.3992536840960384 0.03235998866148293 0.046047495678067207 0.0536034912802279 0.28389772959053522 0.473531594267115
leaf_count=28 23 7 8 5 17 7 6 13 5 29 6 7 5 11 33
internal_value=0 0.0298816 0.149408 -0.339881 -0.190486 0.217784 0.521256 -0.119992 -0.0624881 -0.154622 -0.0147164 -0.484185 0.120375 0.159642 0.0814992
internal_weight=0 2.32907 1.51004 0.185147 0.819038 1.32489 0.321931 0.754149 0.707149 0.614841 0.431614 0.183228 1.00296 0.949354 0.757429
internal_count=210 182 98 28 84 70 14 67 60 55 35 20 56 51 44
shrinkage=0.1


Tree=35
num_leaves=16
num_cat=0
split_feature=1 7 8 8 0 6 7 6 13 2 14 14 15 14 9
split_gain=0.0606773 0.0436895 0.0446377 0.0411697 0.0682729 0.0551252 0.0448506 0.0587008 0.0552977 0.0412823 0.0385488 0.0568858 0.0576637 0.0349891 0.032487
threshold=712.50000000000011 6.1044096191244401 1.7049840319895735 0.89168259436058339 0.0010198046935927993 0.013926065188457081 1.9877838738558522 1.4912879275389492 0.55000000000000016 19386.000000000004 0.33050000000000007 0.37375000000000008 0.56010000000000015 0.28375000000000006 0.72878409282017242
decision_type=2 2 2 2 2 2 2 2 2 2 2 2 2 2 2
left_child=-1 2 3 4 -2 -5 7 10 -9 -10 -7 -12 -13 -6 -14
right_child=1 -3 -4 5 13 6 -8 8 9 -11 11 12 14 -15 -16
leaf_value=-0.10209366248829606 -0.083393333830331109 -0.076760503748706299 -0.073125385974250307 0.075285784935779365 0.046324022301459392 -0.0048452509312284994 -0.029596396658115854 -0.11136196996386874 -0.080231390067796865 0.02818808693798925 0.099086032528566112 -0.038443600720648383 -0.017135308790914683 -0.01474077216482852 0.057895321246706537
leaf_weight=0.056760470033623611 0.11615780938882504 0.067239647265523561 0.070554728852584847 0.14431861415505398 0.13010493153706193 0.22568560554645933 0.23348926415201263 0.056563727324828506 0.046663396991789341 0.14196330262348056 0.14194138860329986 0.1051950806286186 0.069945830851793289 0.33655943640042096 0.32981565222144127
leaf_count=28 23 5 15 5 7 12 24 8 7 7 7 11 5 29 17
internal_value=0 0.0261479 0.0509839 0.0775382 -0.147917 0.165397 0.102655 0.185922 -0.24639 0.0136675 0.307398 0.431545 0.274324 0.0228395 0.447673
internal_weight=0 2.2162 2.14896 2.0784 0.582822 1.49558 1.35126 1.11777 0.24519 0.188627 0.872584 0.646898 0.504957 0.466664 0.399761
internal_count=210 182 177 162 59 103 98 74 22 14 52 40 33 36 22
shrinkage=0.1


Tree=36
num_leaves=16
num_cat=0
split_feature=1 1 7 3 6 10 7 6 10 10 1 16 6 10 8
split_gain=0.0523149 0.0399234 0.0487792 0.0442071 0.0382728 0.0396656 0.0420608 0.048712 0.0426392 0.0328774 0.0348623 0.030798 0.0344585 0.03073 0.0372495
threshold=712.50000000000011 23528.000000000004 1.9146941562498827 2.9525593755985446 0.012613163907019833 2.0293413882633407 1.6520472861820934 0.26438350761456847 0.93334414024036572 0.87136330668360795 41308.000000000007 0.75000000000000011 0.78313091492240638 0.5671919853288554 1.0000000000100615
decision_type=2 2 2 2 2 2 2 2 2 2 2 2 2 2 2
left_child=-1 3 9 4 -2 6 8 -8 13 -3 -11 -5 -13 14 -6
right_child=1 2 -4 11 5 -7 7 -9 -10 10 -12 12 -14 -15 -16
leaf_value=-0.10088963926883235 0.0512218015463409 0.011655583641981201 -0.04502599439306413 -0.086430527853520581 0.051837184987363949 -0.10040487646076553 -0.083761764889005566 -0.0012661796993780382 0.028812768273973527 0.10684121231421395 0.0070192865227995784 0.0035526775327785658 -0.10734876873261967 -0.042974529603603207 -0.044798556841124389
leaf_weight=0.050179488840513264 0.14849472977221043 0.13091608881950367 0.066851072129793465 0.095193588407710084 0.10621670074760892 0.040023033507168175 0.11209590150974692 0.1980200977995992 0.55830250773578882 0.12208066135644911 0.049041483085602522 0.15393661078996956 0.034250847296789289 0.1899140705354512 0.063876080792397261
leaf_count=28 6 6 9 26 5 5 16 18 30 7 6 11 7 24 6
internal_value=0 0.0244663 0.322681 -0.0402321 0.0318769 -0.0243557 0.00756344 -0.310854 0.115094 0.493758 0.782335 -0.400787 -0.166318 -0.153248 0.155469
internal_weight=0 2.06921 0.368889 1.70032 1.41694 1.26845 1.22843 0.310116 0.918309 0.302038 0.171122 0.283381 0.188187 0.360007 0.170093
internal_count=210 182 28 154 110 104 99 34 65 19 13 44 18 35 11
shrinkage=0.1


Tree=37
num_leaves=16
num_cat=0
split_feature=1 4 4 0 4 7 9 16 7 12 9 9 6 10 7
split_gain=0.0456975 0.0411412 0.040871 0.0659708 0.0334156 0.0372113 0.0314315 0.0305428 0.0221156 0.0282544 0.0223744 0.0300735 0.0216434 0.0206705 0.022439
threshold=712.50000000000011 0.27489080593727977 0.11059101642519507 0.011035889998469137 0.13733650906466102 0.57601736656773439 0.8439098639995023 0.25000000000000006 1.3138194924301201 0.55500000000000016 0.79018910339913817 0.80538323354366037 0.39348442120954275 0.81245782953977452 0.26865698544310784
decision_type=2 2 2 2 2 2 2 2 2 2 2 2 2 2 2
left_child=-1 2 3 -2 5 -4 7 -3 9 -9 -11 -12 -10 -6 -15
right_child=1 6 4 -5 13 -7 -8 8 12 10 11 -13 -14 14 -16
leaf_value=-0.1000018298787784 -0.10858407125962979 -0.049214305073130987 0.010691474119831856 0.02314534430692201 -0.033125886341633756 0.085639513647915388 -0.095460674521628208 -0.066599233177161266 -0.081473485284445438 0.052164322256277512 -0.076910339147383613 0.023430036822183826 0.0025866858409818476 0.05263957157377408 0.0075064767173664507
leaf_weight=0.04467336297966551 0.068441232317127176 0.16112052730750279 0.12476368527859429 0.085525388363748803 0.098772046621888876 0.14123749360442162 0.048152910661883645 0.038450343767181039 0.055421040393412113 0.14890918880701065 0.039905468467623002 0.11877344897948204 0.068473363993689418 0.13395589962601662 0.620038848137483
leaf_count=28 23 27 6 5 12 8 17 6 8 7 5 7 7 5 39
internal_value=0 0.0228871 0.128943 -0.35411 0.195422 0.504863 -0.175847 -0.116424 0.012395 0.142201 0.24323 -0.0180413 -0.350155 0.098899 0.155249
internal_weight=0 1.95194 1.27273 0.153967 1.11877 0.266001 0.679206 0.631053 0.469933 0.346038 0.307588 0.158679 0.123894 0.852767 0.753995
internal_count=210 182 98 28 70 14 84 67 40 25 19 12 15 56 44
shrinkage=0.1


Tree=38
num_leaves=16
num_cat=0
split_feature=10 1 3 3 7 1 1 3 7 8 7 10 8 7 9
split_gain=0.0420108 0.0387874 0.0311847 0.0352072 0.0612082 0.0493261 0.0390157 0.0335113 0.0305507 0.0304688 0.0304271 0.0304094 0.0284888 0.0276288 0.0273137
threshold=0.43201850116537577 23528.000000000004 2.9525593755985446 2.1046173229464276 1.3828092561155725 1243.5000000000002 1434.5000000000002 0.12844444444444447 1.9146941562498827 1.1214752947923914 1.5106690599911692 0.87136330668360795 1.3026006117561024 1.780161646732825 0.80538323354366037
decision_type=2 2 2 2 2 2 2 2 2 2 2 2 2 2 2
left_child=-1 2 3 5 -5 13 10 -8 11 14 -7 -3 -4 -2 -9
right_child=1 8 12 4 -6 6 7 9 -10 -11 -12 -13 -14 -15 -16
leaf_value=-0.085444255090843524 -0.077968547510410852 0.010314385550691014 -0.056698345683591313 0.073713179674263787 -0.053230012655264808 0.0024361049897431292 -0.052869243351416476 -0.046323727973815593 -0.041085908090713101 0.036360161701127783 0.07093286977796108 0.078342241132479173 0.024955665806461337 0.0083583458865924588 0.010631078896908145
leaf_weight=0.055848850053735195 0.12716844945680328 0.11941449064761388 0.18034381314646439 0.14706470165401686 0.05120915500447154 0.12722356989979744 0.13493256573565304 0.15068219089880586 0.045321273850277066 0.17982515483163297 0.13228156603872776 0.14611097052693367 0.055995514849200845 0.052330093225464232 0.19084663758985695
leaf_count=21 33 6 35 5 5 6 15 15 7 12 6 13 5 8 18
internal_value=0 0.025924 -0.0395078 0.0215178 0.409269 -0.0486745 0.0452775 -0.0845144 0.347962 0.0304441 0.37352 0.477481 -0.373522 -0.528012 -0.144973
internal_weight=0 1.84075 1.5299 1.29356 0.198274 1.09529 0.915792 0.656287 0.310847 0.521354 0.259505 0.265525 0.236339 0.179499 0.341529
internal_count=210 189 163 123 10 113 72 60 26 45 12 19 40 41 33
shrinkage=0.1


Tree=39
num_leaves=16
num_cat=0
split_feature=1 4 4 0 4 5 9 15 10 8 10 8 8 2 0
split_gain=0.0366514 0.0317762 0.037905 0.0531693 0.0292205 0.033407 0.0260296 0.025017 0.0279832 0.0185868 0.0163858 0.0187014 0.038206 0.0255266 0.0349309
threshold=712.50000000000011 0.27489080593727977 0.11059101642519507 0.011035889998469137 0.13733650906466102 0.27489080593727977 0.8439098639995023 0.48325000000000001 1.4054237927425344 2.0907756934216004 0.81245782953977452 0.89168259436058339 0.97759310431451263 9968.5000000000018 0.002265696697644821
decision_type=2 2 2 2 2 2 2 2 2 2 2 2 2 2 2
left_child=-1 2 3 -2 5 -4 7 -3 9 -9 -6 -12 -13 -14 -15
right_child=1 6 4 -5 10 -7 -8 8 -10 -11 11 12 13 14 -16
leaf_value=-0.098848411990350327 -0.10814902153859869 -0.096224139455440838 0.024371184509547339 0.017735320960694193 -0.031248428089709731 0.10574926589279623 -0.092551691824053123 -0.010673920107892639 0.052868598641874001 -0.11817348489315027 -0.01379551919954608 0.071430783423005212 0.026260929141345271 0.0067583959058319576 -0.10770395133268384
leaf_weight=0.036742037686053775 0.059893197612836846 0.03230345738120366 0.16519316006451823 0.076288431882858276 0.088922645663842559 0.072622403502464294 0.041752259014174335 0.44987294846214354 0.071004054043442011 0.016680203727446496 0.17504791938699782 0.12769177975133059 0.25571116525679827 0.085309469606727362 0.038781899958848953
leaf_count=28 23 7 8 5 12 6 17 50 5 5 15 6 13 5 5
internal_value=0 0.0206701 0.118936 -0.376291 0.185757 0.492218 -0.163368 -0.107527 -0.0561648 -0.145172 0.0912855 0.143889 0.241105 0.0820111 -0.290142
internal_weight=0 1.75707 1.14546 0.136182 1.00928 0.237816 0.611613 0.569861 0.537557 0.466553 0.771465 0.682542 0.507494 0.379803 0.124091
internal_count=210 182 98 28 70 14 84 67 60 55 56 44 29 23 10
shrinkage=0.1


Tree=40
num_leaves=16
num_cat=0
split_feature=1 4 4 0 1 5 15 15 9 10 10 0 10 4 15
split_gain=0.0323338 0.0282454 0.0302508 0.0431182 0.0260653 0.0306102 0.0244309 0.030956 0.0222707 0.0184084 0.0181799 0.0157923 0.0150731 0.0187932 0.019695
threshold=712.50000000000011 0.27489080593727977 0.11059101642519507 0.011035889998469137 23528.000000000004 0.27489080593727977 0.56810000000000016 0.59990000000000021 0.77570118815983091 0.94833458905160928 0.84909444545091106 0.0061796889986182784 0.81245782953977452 0.20960867828457028 0.48325000000000001
decision_type=2 2 2 2 2 2 2 2 2 2 2 2 2 2 2
left_child=-1 2 3 -2 12 -6 11 -8 9 -9 -10 -3 -4 -14 -15
right_child=1 6 4 -5 5 -7 7 8 10 -11 -12 -13 13 14 -16
leaf_value=-0.09807213910670938 -0.10382047279671372 -0.054184870181633496 -0.031256017767815766 0.015139876314033435 0.023844490546926222 0.10535203123932929 0.052015303512575266 0.049250110921056023 -0.024359638665795331 -0.032075170223470083 -0.11160820692903378 0.0092345751791296522 -0.050881389982733206 0.059610418910702984 0.010237277669416218
leaf_weight=0.032966545317322127 0.05253459117375292 0.18524033192079503 0.084978193743154407 0.072540791239589453 0.16062036622315645 0.064609413035213947 0.088608391815796494 0.068362388759851456 0.11172176233958452 0.046947819646447897 0.030375461326912045 0.049825842026621103 0.042376266326755285 0.095830955542623997 0.51486846106126893
leaf_count=28 23 44 12 5 8 6 5 5 12 5 7 6 8 5 31
internal_value=0 0.0193664 0.11441 -0.348263 0.174484 0.472257 -0.158648 0.0103561 -0.165133 0.16139 -0.430104 -0.407422 0.0836136 0.135164 0.179849
internal_weight=0 1.66944 1.08836 0.125075 0.963284 0.22523 0.581082 0.346016 0.257407 0.11531 0.142097 0.235066 0.738054 0.653076 0.610699
internal_count=210 182 98 28 70 14 84 34 29 10 19 50 56 44 36
shrinkage=0.1


Tree=41
num_leaves=16
num_cat=0
split_feature=10 1 8 4 5 12 15 9 0 15 2 1 7 6 8
split_gain=0.0292375 0.0371793 0.0302302 0.0260573 0.0240623 0.0289994 0.0242952 0.0239066 0.0338561 0.0237486 0.0228948 0.0214518 0.0300394 0.0161192 0.0154871
threshold=0.75006419545601732 23528.000000000004 1.0305307337428997 0.20960867828457028 0.11059101642519507 0.59500000000000008 0.51345000000000007 0.75815354979819338 0.00058189848571309482 0.54150000000000009 16812.500000000004 1434.5000000000002 1.8475681954895209 4.5685414722059283 1.0374982972731337
decision_type=2 2 2 2 2 2 2 2 2 2 2 2 2 2 2
left_child=13 3 9 14 6 7 -5 10 -9 -3 -6 -10 -13 -1 -2
right_child=1 2 -4 4 5 -7 -8 8 11 -11 -12 12 -14 -15 -16
leaf_value=-0.046149825179550269 -0.087950664135835577 0.059581983437238931 0.10048203465262165 -0.1265755622545891 -0.016070359823998192 -0.020191493506650338 -0.0091952592267755939 -0.060941932373063924 0.097045184444449262 -0.019122953378228898 0.044832357383350945 0.058701518250000299 -0.022386157159573518 -0.002998892857053021 -0.01438155520946399
leaf_weight=0.18305974284885465 0.049219226813874917 0.076040076790377373 0.066846523666754365 0.02626490406692028 0.22200542781502008 0.23765329772140831 0.05365444719791413 0.030204378650523719 0.073402681038714945 0.077324169920757413 0.085496157873421907 0.15346211614087224 0.065051778219640255 0.16423741960898042 0.068349449313245714
leaf_count=48 23 10 6 6 20 26 5 6 5 6 6 8 5 18 12
internal_value=0 0.0695789 0.443613 -0.00777751 0.0473367 0.0957201 -0.477714 0.208064 0.398449 0.199 0.00862718 0.502732 0.345616 -0.257437 -0.451807
internal_weight=0 1.28497 0.220211 1.06476 0.947195 0.867276 0.0799194 0.629623 0.322121 0.153364 0.307502 0.291917 0.218514 0.347297 0.117569
internal_count=210 144 22 122 87 76 11 50 24 16 26 18 13 66 35
shrinkage=0.1


Tree=42
num_leaves=16
num_cat=0
split_feature=4 4 0 1 7 15 10 16 8 8 7 8 12 12 6
split_gain=0.0278339 0.0302383 0.0407476 0.0243683 0.0262613 0.0210617 0.0250099 0.0222012 0.0156137 0.0292972 0.0289233 0.021108 0.019742 0.0181584 0.0137775
threshold=0.25594321900873779 0.11059101642519507 0.011035889998469137 23528.000000000004 0.57601736656773439 0.56810000000000016 1.0709823596403598 0.75000000000000011 0.88776635989921071 1.0000000000100615 1.9877838738558522 1.1022656622996452 0.57500000000000007 0.57500000000000007 0.5118664178914909
decision_type=2 2 2 2 2 2 2 2 2 2 2 2 2 2 2
left_child=1 2 -1 8 -5 -2 7 -7 13 12 11 -11 -10 -3 -9
right_child=5 3 -4 4 -6 6 -8 14 9 10 -12 -13 -14 -15 -16
leaf_value=-0.10719389191845229 -0.041810696124521242 -0.060881747074465302 0.012720341311750434 0.0093934262466893546 0.081922895326318981 -0.10948240632120616 0.043387706111223709 -0.065899907831818719 0.068072013577283319 -0.027787508301938005 -0.056890066319785951 0.037045268652164086 0.0055370063234665215 0.0056115595352022414 0.0028925658554756445
leaf_weight=0.049217629188205832 0.22301354241790261 0.064042993530165404 0.066795495338737965 0.096613283269107342 0.10329627990722656 0.024286509724333879 0.088652457809075713 0.034896614612080157 0.13280212855897844 0.077442460344173014 0.077160506043583155 0.14284861739724874 0.081442295573651791 0.11448997363913804 0.17566501919645816
leaf_count=23 56 14 5 6 8 11 6 7 9 7 9 8 6 17 18
internal_value=0 0.0986773 -0.381523 0.161263 0.468705 -0.181668 -0.0186732 -0.189506 0.0722186 0.161059 -0.0420147 0.142536 0.443001 -0.182408 -0.0850849
internal_weight=0 1.00615 0.116013 0.890139 0.19991 0.546514 0.323501 0.234848 0.690229 0.511696 0.297452 0.220291 0.214244 0.178533 0.210562
internal_count=210 112 28 84 14 98 42 36 70 39 24 15 15 31 25
shrinkage=0.1


Tree=43
num_leaves=16
num_cat=0
split_feature=1 4 4 0 1 9 9 16 9 10 10 9 9 9 15
split_gain=0.0257148 0.0227523 0.0245358 0.0320523 0.019393 0.0253749 0.0186178 0.0192248 0.0162349 0.0160313 0.0290548 0.0137066 0.0121725 0.0247277 0.0120836
threshold=712.50000000000011 0.27489080593727977 0.11059101642519507 0.011035889998469137 23528.000000000004 0.7097502462894042 0.8439098639995023 0.25000000000000006 0.71811863192472414 1.0551575698896445 0.94833458905160928 0.94299549673690009 0.78050944720422144 0.80538323354366037 0.62945000000000018
decision_type=2 2 2 2 2 2 2 2 2 2 2 2 2 2 2
left_child=-1 2 3 -2 11 -6 7 8 -3 10 12 14 -9 -14 -4
right_child=1 6 4 -5 5 -7 -8 9 -10 -11 -12 -13 13 -15 -16
leaf_value=-0.096275501259967658 -0.10096080788343675 -0.012521292716101333 0.0041500726922886694 0.010634250180848528 0.10528628030689449 0.022729869866706748 -0.087609139658592447 0.037953709597461444 -0.086205034113463461 0.035351461117005954 -0.10882087256669626 -0.05266215609605094 -0.061296727398476573 0.017341133590792625 0.037148339622480119
leaf_weight=0.027232375461608279 0.04288966133026384 0.069003637647256255 0.46453267603646958 0.064358795061707497 0.050965555012226105 0.13815321680158377 0.033180223836097866 0.061578547349199646 0.052769977715797722 0.10077034705318512 0.027512517292052507 0.034604666521772742 0.066590543370693922 0.10009088844526561 0.14580383524298668
leaf_count=28 23 10 43 5 5 9 17 6 17 8 5 5 12 9 8
internal_value=0 0.0180465 0.110296 -0.339937 0.16819 0.44978 -0.151721 -0.101472 -0.444518 0.0156919 -0.117405 0.085618 -0.000392474 -0.140753 0.120331
internal_weight=0 1.45281 0.941308 0.107248 0.83406 0.189119 0.511497 0.478316 0.121774 0.356543 0.255772 0.644941 0.22826 0.166681 0.610337
internal_count=210 182 98 28 70 14 84 67 27 40 32 56 27 21 51
shrinkage=0.1


Tree=44
num_leaves=16
num_cat=0
split_feature=10 1 8 15 1 5 6 5 15 0 7 9 15 15 9
split_gain=0.0247635 0.0290448 0.0239611 0.0231011 0.0377804 0.0198903 0.0185039 0.0235409 0.0212249 0.0190078 0.0177396 0.0268241 0.0207208 0.0243632 0.0172353
threshold=0.75006419545601732 23528.000000000004 1.0305307337428997 0.56010000000000015 999.00000000000011 0.27489080593727977 2.9027758023386094 0.23297425298406463 0.48325000000000001 0.0045049448905925904 0.6506420051559294 0.79955581175028889 0.66670000000000007 0.59665000000000012 0.74857140285840285
decision_type=2 2 2 2 2 2 2 2 2 2 2 2 2 2 2
left_child=-1 3 5 4 -2 -3 7 9 -9 -6 -5 12 13 -12 -10
right_child=1 2 -4 10 6 -7 -8 8 14 -11 11 -13 -14 -15 -16
leaf_value=-0.02519652198594844 -0.13357831627268624 -0.0055647140320663436 0.10000860838855803 0.035886794684337524 0.056539922285202063 0.079743192846860572 -0.096507090727681308 -0.11479932174137622 0.0014509582225193942 -0.016506455497601449 0.023469962760467651 -0.1093053735478548 0.04240478313454471 -0.05495649793959298 -0.064151126495253147
leaf_weight=0.30652898323023703 0.026083833712618576 0.090483303531073034 0.053003905341029167 0.21878230501897636 0.088345056632533683 0.039160261861979961 0.023101045982912183 0.023021465982310477 0.17064085963647813 0.059693644288927317 0.07932419003918767 0.02154942695051432 0.10022322274744512 0.079117384098935872 0.052329770522192121
leaf_count=66 11 9 6 15 8 7 6 7 19 5 7 11 7 15 11
internal_value=0 0.0686616 0.433628 -0.00208694 -0.16823 0.202035 -0.0952215 -0.0442244 -0.23384 0.270854 0.145484 -0.0211197 0.0681834 -0.156921 -0.139454
internal_weight=0 1.12486 0.182647 0.942212 0.443216 0.129644 0.417132 0.394031 0.245992 0.148039 0.498997 0.280214 0.258665 0.158442 0.222971
internal_count=210 144 22 122 67 16 56 50 37 13 55 40 29 22 30
shrinkage=0.1


Tree=45
num_leaves=16
num_cat=0
split_feature=10 1 3 1 1 10 8 0 4 0 15 12 3 6 7
split_gain=0.0253096 0.0171541 0.0214433 0.0265643 0.0205246 0.017747 0.0150674 0.0131739 0.0130552 0.0162984 0.0121298 0.0212781 0.0166657 0.0193034 0.0205725
threshold=0.43201850116537577 23528.000000000004 5.5443645083932855 41308.000000000007 16812.500000000004 0.92286749158100678 2.0907756934216004 0.0026130453523182462 0.20960867828457028 0.0011671405324698203 0.46725000000000005 0.40500000000000008 2.9525593755985446 0.013926065188457081 1.9877838738558522
decision_type=2 2 2 2 2 2 2 2 2 2 2 2 2 2 2
left_child=-1 4 -3 5 6 -4 8 -6 9 -2 11 -10 13 -12 -15
right_child=1 2 3 -5 7 -7 -8 -9 10 -11 12 -13 -14 14 -16
leaf_value=-0.080226478492381945 0.017584368936106293 0.078665444600752268 -0.0090613422326098168 -0.10634751964020479 -0.098579722934407005 0.064790628438529549 -0.10999289082639477 -0.011977909609736952 0.0035379383301861293 -0.078567739506363907 0.055633479760248197 -0.12790546914807951 -0.029215202473119317 0.015009721954184456 -0.030779001418133292
leaf_weight=0.038220410002395615 0.030123882694169657 0.060654636472463497 0.073400882072746754 0.017838233849033713 0.034861288266256341 0.05844963667914272 0.012112367199733742 0.035404873313382268 0.037126334384083755 0.042501685093156993 0.09381328988820313 0.018428804236464199 0.1058043126249686 0.58613037783652544 0.11785202485043555
leaf_count=21 12 6 5 10 22 5 6 5 5 16 5 5 15 54 18
internal_value=0 0.0231505 0.28507 0.0818249 -0.0262975 0.236774 0.00891596 -0.549438 0.021933 -0.386854 0.0528857 -0.400646 0.0807697 0.130227 0.0734434
internal_weight=0 1.3245 0.210343 0.149689 1.11416 0.131851 1.04389 0.0702662 1.03178 0.0726256 0.959155 0.0555551 0.9036 0.797796 0.703982
internal_count=210 189 26 20 163 10 136 27 130 28 102 10 92 77 72
shrinkage=0.1


Tree=46
num_leaves=16
num_cat=0
split_feature=1 4 4 0 15 15 1 5 0 9 9 10 7 3 12
split_gain=0.0199597 0.0148428 0.0180303 0.028283 0.0157904 0.0180427 0.0146902 0.0228384 0.0140702 0.0134614 0.011155 0.00994668 0.0137168 0.0257021 0.0224003
threshold=712.50000000000011 0.27489080593727977 0.11059101642519507 0.011035889998469137 0.56810000000000016 0.59990000000000021 23528.000000000004 0.27489080593727977 0.0061796889986182784 0.77570118815983091 0.79494245937140862 0.81245782953977452 0.26865698544310784 1.7192311334622825 0.49500000000000005
decision_type=2 2 2 2 2 2 2 2 2 2 2 2 2 2 2
left_child=-1 2 3 -2 8 -6 11 -8 -3 -7 -11 -4 -13 14 -14
right_child=1 4 6 -5 5 9 7 -9 -10 10 -12 12 13 -15 -16
leaf_value=-0.092362101449157963 -0.09956366676114016 -0.050802055552022933 -0.028411411079797763 0.01282907873285038 0.046058974952828763 0.016551023848639487 0.018992807070184758 0.10445296309645434 0.015956869622216423 -0.087057225555215959 -0.016287541722240836 0.048434286723127114 -0.030508992150216314 -0.054182096529797878 0.028539339525180459
leaf_weight=0.022985667543253041 0.037179155391640739 0.14058376854518428 0.068750345846638083 0.056285439990460873 0.069954706821590662 0.08583957725204526 0.11938647739589214 0.042368155904114246 0.04071327589917928 0.031061271671205759 0.078718301898334175 0.086371512152254581 0.083413628395646811 0.063089855248108506 0.27956325234845281
leaf_count=28 23 44 12 5 5 10 8 6 6 5 14 5 8 10 21
internal_value=0 0.0165436 0.095154 -0.318795 -0.130591 0.0247215 0.14723 0.413773 -0.358102 -0.131148 -0.363113 0.0730467 0.120965 0.0473011 0.149698
internal_weight=0 1.28328 0.836408 0.0934646 0.446871 0.265574 0.742943 0.161755 0.181297 0.195619 0.10978 0.581189 0.512438 0.426067 0.362977
internal_count=210 182 98 28 84 34 70 14 50 29 19 56 44 39 29
shrinkage=0.1


Tree=47
num_leaves=16
num_cat=0
split_feature=1 8 7 1 6 15 8 14 4 1 0 14 0 8 14
split_gain=0.0178792 0.0132874 0.0139334 0.0220069 0.0198767 0.0333105 0.0268209 0.027192 0.0296879 0.0259492 0.0232799 0.0209519 0.0205605 0.016508 0.016159
threshold=712.50000000000011 2.0907756934216004 1.9877838738558522 1434.5000000000002 1.4912879275389492 0.49520000000000003 0.88776635989921071 0.33050000000000007 0.11059101642519507 23528.000000000004 0.0013227415580784744 0.37375000000000008 0.0019452971700935839 0.82413334970171881 0.45225000000000004
decision_type=2 2 2 2 2 2 2 2 2 2 2 2 2 2 2
left_child=-1 2 4 -4 6 -6 13 -8 -9 11 -7 -10 -13 14 -2
right_child=1 -3 3 -5 5 10 7 8 9 -11 -12 12 -14 -15 -16
leaf_value=-0.09152693216100212 0.029143227736780443 -0.11100110511955011 0.029779092851726936 -0.038837429544748885 -0.13005132958798096 -0.045428827396992472 -0.012637671574717603 -0.1022770583229957 0.080290700659921471 0.10495815775334567 0.024495480416632319 0.039177424793316727 -0.018091621667245757 -0.091403093649802966 -0.033035031591091842
leaf_weight=0.020984990929719168 0.075113930157385531 0.010398608515970298 0.064992312807589769 0.16644718477618881 0.024007309111766521 0.082785273552872241 0.13773520896211269 0.014521690434776248 0.075064802542328835 0.058507577516138561 0.11206713411957026 0.19751725334208456 0.091837133513763533 0.025744546437636014 0.094228192057926208
leaf_count=28 10 6 8 32 6 18 14 9 6 7 12 16 9 5 24
internal_value=0 0.0156031 0.0251927 -0.195687 0.0768748 -0.189065 0.152437 0.261111 0.383116 0.431389 -0.0521266 0.332138 0.21001 -0.167972 -0.0545505
internal_weight=0 1.23097 1.22057 0.231439 0.98913 0.21886 0.77027 0.575184 0.437448 0.422927 0.194852 0.364419 0.289354 0.195087 0.169342
internal_count=210 182 176 40 136 36 100 61 47 38 30 31 25 39 34
shrinkage=0.1


Tree=48
num_leaves=16
num_cat=0
split_feature=10 8 8 6 7 10 12 1 9 0 4 12 2 6 3
split_gain=0.015796 0.0147506 0.0140062 0.0225339 0.0305958 0.0187269 0.0257342 0.0214854 0.0266684 0.0177931 0.0152542 0.0144171 0.012532 0.00922326 0.00892608
threshold=0.43201850116537577 1.7049840319895735 0.89168259436058339 0.012613163907019833 1.9877838738558522 0.92286749158100678 0.59500000000000008 23528.000000000004 0.72878409282017242 0.0010198046935927993 0.24564711843534917 0.40500000000000008 2518.0000000000005 0.35725284321862971 1.1530000000000002
decision_type=2 2 2 2 2 2 2 2 2 2 2 2 2 2 2
left_child=-1 2 9 -4 5 6 -5 8 10 -2 13 -11 -12 -7 -6
right_child=1 -3 3 4 14 7 -8 -9 -10 11 12 -13 -14 -15 -16
leaf_value=-0.069509140001422581 -0.062201046041413625 -0.061485645184208099 0.059373332924779955 -0.029872579219344827 -0.0560709079335888 -0.029256280626324516 0.049251393221941123 0.095654330710588209 0.047674517530838088 -0.092228363438037989 -0.03748614128415375 0.0043558702858483489 0.031897712305779168 -0.129527970909702 -0.0039906999560168936
leaf_weight=0.031816558825085051 0.061827404482755595 0.035564094374421873 0.085498901084065423 0.15389420138671994 0.088599577895365642 0.03014515561517328 0.056085364893078797 0.04233925009611994 0.17028044868493453 0.016575162386288866 0.038425656035542488 0.22865137827466239 0.080707607790827737 0.013185895513743162 0.052355891035404056
leaf_count=21 29 15 5 23 17 6 8 6 13 5 5 36 7 5 9
internal_value=0 0.0191619 0.03932 0.108151 0.0509673 0.151729 -0.0873863 0.285591 0.200217 -0.142596 -0.0896147 -0.0217238 0.095184 -0.597695 -0.367265
internal_weight=0 1.15414 1.11857 0.811518 0.726019 0.585064 0.20998 0.375084 0.332745 0.307054 0.162464 0.245227 0.119133 0.0433311 0.140955
internal_count=210 189 174 104 99 73 31 42 36 70 23 41 12 11 26
shrinkage=0.1


Tree=49
num_leaves=16
num_cat=0
split_feature=1 4 15 4 0 1 5 15 0 9 6 8 6 7 5
split_gain=0.0149851 0.0134059 0.0156622 0.0127498 0.0249397 0.0140338 0.0178237 0.0113649 0.00962075 0.00902319 0.00808606 0.00770138 0.0243421 0.0197027 0.012179
threshold=712.50000000000011 0.27489080593727977 0.56810000000000016 0.11059101642519507 0.011035889998469137 23528.000000000004 0.27489080593727977 0.59990000000000021 0.0061796889986182784 0.94299549673690009 0.39348442120954275 0.89168259436058339 0.056904611608878448 1.7361675291993712 0.27489080593727977
decision_type=2 2 2 2 2 2 2 2 2 2 2 2 2 2 2
left_child=-1 3 8 4 -2 9 -7 -4 -3 11 -9 14 -13 -14 -5
right_child=1 2 7 5 -6 6 -8 10 -10 -11 -12 12 13 -15 -16
leaf_value=-0.089087409876374923 -0.098365043570726132 -0.050311273348413635 0.039697593197897861 -0.04697745149333845 0.01620175245044192 0.021488535761802832 0.10407176283726445 -0.051150343859719477 0.0084398347417977658 -0.04983962674053493 0.0014032934833217237 0.061705745496723655 0.017069257717002916 -0.049269600160224927 0.014431922058508424
leaf_weight=0.018571672757389131 0.030923144397092761 0.12558216019533577 0.062578849727287889 0.054455569479614496 0.049283370608463883 0.10165283549576998 0.035178722348064184 0.037481474573723965 0.035823453916236758 0.026818316197022799 0.13375649170484394 0.092025538440793767 0.19124389952048657 0.058454633923247457 0.079362603137269616
leaf_count=28 23 44 5 8 5 8 6 10 6 5 19 6 17 11 9
internal_value=0 0.0148436 -0.133118 0.0961305 -0.279688 0.143289 0.427203 0.0322791 -0.372717 0.0659569 -0.100999 0.0977838 0.17742 0.0153928 -0.105578
internal_weight=0 1.11462 0.395222 0.719399 0.0802065 0.639192 0.136832 0.233817 0.161406 0.502361 0.171238 0.475542 0.341724 0.249699 0.133818
internal_count=210 182 84 98 28 70 14 34 50 56 29 51 34 28 17
shrinkage=0.1


Tree=50
num_leaves=16
num_cat=0
split_feature=10 1 9 5 3 3 7 1 1 7 6 16 5 3 8
split_gain=0.0141086 0.0143512 0.0127139 0.0152845 0.0123131 0.0135065 0.0330757 0.0184546 0.020397 0.0158669 0.0119161 0.0143422 0.0118641 0.0114669 0.0155259
threshold=0.43201850116537577 23528.000000000004 0.7097502462894042 0.40062566858062104 2.9525593755985446 1.865220791564232 1.0003015862220592 1243.5000000000002 1434.5000000000002 1.5106690599911692 0.89295209699793165 0.45000000000000007 0.27489080593727977 0.12844444444444447 1.126422672271032
decision_type=2 2 2 2 2 2 2 2 2 2 2 2 2 2 2
left_child=-1 4 -3 -4 5 7 -7 12 9 -9 11 -6 -2 -10 -15
right_child=1 2 3 -5 10 6 -8 8 13 -11 -12 -13 -14 14 -16
leaf_value=-0.069631874360059465 -0.020902808257466512 0.083275326487918869 -0.0015039105747311299 0.089355042800278908 -0.072260581961575657 0.076218655917964728 -0.024551596918342976 0.0028486286658930189 -0.042458783229956484 0.06766527449015515 -0.10223696494315936 0.0040226584407284461 -0.095493077973058449 -0.015305589241594265 0.034307368522862626
leaf_weight=0.028340647724690027 0.071686830749967845 0.034406635677441955 0.10377664223778992 0.022535150987096127 0.034968046471476555 0.072671695612370982 0.059029522817581885 0.077605873346328735 0.080881773377768681 0.07357195625081657 0.019836734922137111 0.083500881679356098 0.030352860339917243 0.20393527613487092 0.091322134132496999
leaf_count=21 24 7 13 6 18 5 8 6 15 6 9 13 17 32 10
internal_value=0 0.0186157 0.293854 0.147061 -0.0305702 0.0193099 0.310526 -0.041631 0.0336964 0.343922 -0.305046 -0.184936 -0.430905 -0.0909894 0.000395334
internal_weight=0 1.06008 0.160718 0.126312 0.899364 0.761058 0.131701 0.629357 0.527317 0.151178 0.138306 0.118469 0.10204 0.376139 0.295257
internal_count=210 189 26 19 163 123 13 110 69 12 40 31 41 57 42
shrinkage=0.1


Tree=51
num_leaves=16
num_cat=0
split_feature=10 1 1 15 14 14 15 6 12 14 6 5 5 7 1
split_gain=0.0128986 0.0186904 0.0160184 0.0122992 0.0175199 0.0242161 0.0195318 0.0157825 0.0121215 0.0113799 0.0105518 0.00984974 0.00927926 0.0124155 0.0221219
threshold=0.75006419545601732 23528.000000000004 41308.000000000007 0.56010000000000015 0.41835000000000006 0.33830000000000005 0.48325000000000001 0.25529813853589317 0.52000000000000013 0.28375000000000006 4.5685414722059283 0.24564711843534917 0.20960867828457028 1.6871196709714054 1434.5000000000002
decision_type=2 2 2 2 2 2 2 2 2 2 2 2 2 2 2
left_child=10 3 11 4 5 9 -6 -7 -4 -2 -1 -3 -5 -14 -15
right_child=1 2 8 12 6 7 -8 -9 -10 -11 -12 -13 13 14 -16
leaf_value=-0.040910770562736787 -0.013503920366294371 0.03693838168409172 0.018507281031618219 -0.012264548186864822 -0.1266000303423109 -0.0053529615485847712 -0.024715636128161494 0.07996004319483202 -0.12293322669671394 -0.10694295320676975 0.0017133373440447446 0.10366174772781517 0.038766179844330735 0.039561723855283365 -0.060740969825253191
leaf_weight=0.1227292877738364 0.069775129231857136 0.059994418639689677 0.020544476981740445 0.10890638403361665 0.022057369351387024 0.037816178519278765 0.12803907261695713 0.050831886939704418 0.0085935816168785095 0.016028219426516443 0.11025400634389372 0.035049580968916416 0.16567574019427411 0.046697102661710232 0.04155677609378472
leaf_count=48 16 5 5 15 9 5 25 5 5 7 18 7 25 6 9
internal_value=0 0.0595398 0.416581 -0.00496281 -0.146397 0.0691166 -0.39688 0.435666 -0.232073 -0.309585 -0.207399 0.615441 0.121547 0.226277 -0.0766857
internal_weight=0 0.811566 0.124182 0.687384 0.324548 0.174451 0.150096 0.0886481 0.0291381 0.0858033 0.232983 0.095044 0.362836 0.25393 0.0882539
internal_count=210 144 22 122 67 33 34 10 10 23 66 12 55 40 15
shrinkage=0.1


Tree=52
num_leaves=16
num_cat=0
split_feature=10 7 1 9 15 14 14 1 12 12 5 9 3 12 15
split_gain=0.0120557 0.0173488 0.0232159 0.0181191 0.0168968 0.0212522 0.0173941 0.0157834 0.0140896 0.0108988 0.0115863 0.0110248 0.0106887 0.0137357 0.0101891
threshold=0.92286749158100678 0.95154908077778788 23528.000000000004 0.76068307321674433 0.66670000000000007 0.41835000000000006 0.33830000000000005 1881.0000000000002 0.59500000000000008 0.56500000000000006 0.27489080593727977 0.79494245937140862 3.2398377298161476 0.43500000000000005 0.50085000000000013
decision_type=2 2 2 2 2 2 2 2 2 2 2 2 2 2 2
left_child=7 2 3 12 5 6 -3 -1 -5 -9 11 -11 13 -2 -7
right_child=1 4 -4 8 -6 14 -8 9 -10 10 -12 -13 -14 -15 -16
leaf_value=-0.082402334926803822 -0.068492146779924809 -0.015273087814277967 0.10423355845227818 0.076073579368146002 0.042464026772461666 -0.10230637015273132 0.057600904917444143 -0.038125271319872693 -0.0072996365328216175 -0.047716082678638139 0.030015844448133024 0.0041366689361396654 -0.10247964547931031 0.01939330214812671 -0.03019750386259127
leaf_weight=0.030574555974453688 0.022719593020156022 0.084247005521319807 0.035518284887075424 0.063713652838487178 0.061305723094847046 0.023139252909459174 0.053586911759339273 0.0894116976414807 0.029726734443102032 0.060530171496793621 0.096728705073473947 0.12711084960028529 0.01120257907314226 0.081851344206370413 0.12795662158168852
leaf_count=28 5 16 6 7 7 8 6 24 6 10 21 25 5 10 26
internal_value=0 0.090548 0.294826 0.167921 -0.0521944 -0.15337 0.130588 -0.133232 0.495496 -0.0767266 0.0190227 -0.125902 -0.0964627 0.0029888 -0.412405
internal_weight=0 0.594968 0.244732 0.209214 0.350236 0.28893 0.137834 0.404356 0.0934404 0.373781 0.28437 0.187641 0.115774 0.104571 0.151096
internal_count=210 102 39 33 63 56 22 108 13 80 56 35 20 15 34
shrinkage=0.1


Tree=53
num_leaves=16
num_cat=0
split_feature=9 10 10 0 12 10 15 8 7 1 12 5 4 9 14
split_gain=0.016386 0.0127158 0.0284521 0.0181062 0.0156465 0.0176995 0.0216689 0.0143502 0.0112308 0.0109926 0.010452 0.00918766 0.0124685 0.00987117 0.0094812
threshold=0.62527146601186201 0.92286749158100678 0.94833458905160928 0.00046642669967036996 0.56500000000000006 1.451171225709176 0.47770000000000007 1.2361398733781976 1.5369449079681641 1881.0000000000002 0.55500000000000016 0.27489080593727977 0.20960867828457028 0.79494245937140862 0.55485000000000018
decision_type=2 2 2 2 2 2 2 2 2 2 2 2 2 2 2
left_child=-1 9 -3 -4 5 10 -7 8 -6 -2 -5 13 -13 -11 -15
right_child=1 2 3 4 7 6 -8 -9 -10 11 -12 12 -14 14 -16
leaf_value=-0.075183477859357542 -0.071723925973786309 0.096369036103660793 -0.087629704057835156 0.032988368906112182 0.027047926180170007 -0.1259154884591985 0.014482928782262866 -0.053419003267615894 -0.018245096835721574 -0.05054602156903424 0.092401242741934758 0.05610629689343373 -0.0093408276573720226 -0.027753097685569002 0.019304034432197099
leaf_weight=0.028151693695690483 0.028171980899060145 0.037269327556714416 0.019900717452401292 0.098998929170193151 0.11115989479003474 0.01299026666674763 0.071493705501779914 0.052613603300414979 0.10787179897306488 0.068070949171669781 0.042245082935551181 0.04655762854963541 0.07767376292031257 0.090744323679246022 0.08106722729280591
leaf_count=6 28 6 12 16 13 5 9 13 17 15 5 13 18 21 13
internal_value=0 0.022354 0.119824 0.0590234 0.0964471 0.291017 -0.0710475 -0.0652341 0.0474138 -0.115431 0.507583 -0.0688682 0.151865 -0.183182 -0.0554975
internal_weight=0 0.946829 0.554543 0.517274 0.497373 0.225728 0.084484 0.271645 0.219032 0.392286 0.141244 0.364114 0.124231 0.239883 0.171812
internal_count=210 204 96 90 78 35 14 43 30 108 21 80 31 49 34
shrinkage=0.1


Tree=54
num_leaves=16
num_cat=0
split_feature=1 1 3 8 1 5 2 8 8 7 3 10 10 5 14
split_gain=0.0130992 0.0156841 0.0121805 0.0114299 0.0101796 0.0100186 0.00884137 0.00719978 0.0176351 0.0168453 0.0140583 0.0187288 0.0115557 0.0111058 0.0113311
threshold=23528.000000000004 41308.000000000007 10.477668680273174 2.0907756934216004 712.50000000000011 0.27489080593727977 3507.0000000000005 0.89168259436058339 0.9703737769564309 1.7361675291993712 0.12844444444444447 1.2395163308643313 0.93334414024036572 0.27489080593727977 0.48610000000000003
decision_type=2 2 2 2 2 2 2 2 2 2 2 2 2 2 2
left_child=2 5 3 4 -1 -2 -3 13 9 -9 11 -10 -12 -6 -15
right_child=1 6 -4 -5 7 -7 -8 8 10 -11 12 -13 -14 14 -16
leaf_value=-0.083006204972853215 0.030423922260772753 -0.10538373213820558 -0.080030327098541063 -0.12130428847593551 -0.043688944604243662 0.10345328807060297 0.0039305273252736054 0.069518056673566614 -0.0050468889985581617 -0.024846512993268927 -0.022971244963185339 -0.10089278608577384 0.016966669711183918 0.032931898374140116 -0.032794265457666456
leaf_weight=0.015084130442119204 0.080470736604183898 0.010780494601931425 0.021045800356660042 0.0080707216984592378 0.08508756902301684 0.024505723966285583 0.023587389907334 0.071266883984208107 0.059828695026226335 0.025753476656973358 0.09908646257827057 0.030925772793125361 0.26947791915154085 0.061090308241546161 0.045965833822265274
leaf_count=28 8 9 18 6 18 6 5 6 14 6 23 8 35 9 11
internal_value=0 0.282757 -0.0497053 -0.0292333 -0.0167207 0.474719 -0.303591 -0.000329514 0.0573089 0.444695 -0.0245175 -0.377076 0.0622959 -0.167218 0.0471158
internal_weight=0 0.139344 0.792684 0.771638 0.763567 0.104976 0.0343679 0.748483 0.556339 0.0970204 0.459319 0.0907545 0.368564 0.192144 0.107056
internal_count=210 28 182 164 158 14 14 130 92 12 80 22 58 38 20
shrinkage=0.1


Tree=55
num_leaves=16
