tree
version=v3
num_class=1
num_tree_per_iteration=1
label_index=0
max_feature_idx=0
objective=lambdarank
feature_names=geographical
feature_infos=[0:1]
tree_sizes=842 842 840 848 851 847 850 855 851 855 858 857 857 858 859 860 860 862 862 858 861 860 861 863 865 864 865 864 864 868 865 866 867 865 863 866 868 870 865 866 868 862 865 869 871 871 871 870 870 872 872 871 870 871 870 866 874 875 874 873 875 876 874 873 873 872 873 873 873 872 874 873 873 870 871 875 873 873 876 874 874 875 874 870 871 875 870 874 876 874 875 878 876 879 873 878 876 877 878 876

Tree=0
num_leaves=7
num_cat=0
split_feature=0 0 0 0 0 0
split_gain=10.9884 0.626271 0.544702 0.122491 0.0656526 0.0600005
threshold=0.35000000000000003 1.0000000180025095e-35 0.75000000000000011 0.15000000000000005 0.25000000000000006 0.45000000000000007
decision_type=2 2 2 2 2 2
left_child=1 -1 5 -3 -5 -2
right_child=2 3 -4 4 -6 -7
leaf_value=0.14198287319308164 -0.12976631880985276 0.054756714942308528 -0.070369405753672565 0.10117949957829352 0.069865011178299768 -0.18113340464799732
leaf_weight=1.9435830023139711 1.0311150252819059 1.8896558694541452 6.1588953752070665 1.5733856055885553 1.1654415242373943 0.29173524677753437
leaf_count=18 32 28 78 22 20 12
internal_value=0 0.943455 -0.828743 0.743417 0.878544 -1.41095
internal_weight=0 6.57207 7.48175 4.62848 2.73883 1.32285
internal_count=210 88 122 70 42 44
shrinkage=0.1


Tree=1
num_leaves=7
num_cat=0
split_feature=0 0 0 0 0 0
split_gain=4.00006 1.44391 0.973966 0.481919 0.0579143 2.30228e-06
threshold=0.35000000000000003 0.75000000000000011 1.0000000180025095e-35 0.15000000000000005 0.45000000000000007 0.25000000000000006
decision_type=2 2 2 2 2 2
left_child=2 4 -1 -4 -2 -5
right_child=1 -3 3 5 -6 -7
leaf_value=0.038245228363039417 -0.1264173291533626 -0.038356733766455743 -0.022026359502873499 0.012210482309472824 -0.165146495067826 0.012125275800111189
leaf_weight=11.932096093893053 1.5640167538076633 5.6029884833842516 5.8465989455580738 9.053955174982546 0.5126714315265416 4.8805014602839938
leaf_count=18 32 78 28 22 12 20
internal_value=0 -0.647549 0.156811 0.0207023 -1.35978 0.121806
internal_weight=0 7.67968 31.7132 19.7811 2.07669 13.9345
internal_count=210 122 88 70 44 42
shrinkage=0.1


Tree=2
num_leaves=7
num_cat=0
split_feature=0 0 0 0 0 0
split_gain=2.60849 0.822533 0.482244 0.350811 0.0484694 0.0227297
threshold=0.35000000000000003 0.75000000000000011 1.0000000180025095e-35 0.15000000000000005 0.45000000000000007 0.25000000000000006
decision_type=2 2 2 2 2 2
left_child=2 4 -1 -4 -2 -5
right_child=1 -3 3 5 -6 -7
leaf_value=0.028385221774169002 -0.1081983778722998 -0.036182108426191385 -0.020257292091253223 0.0079248750360909753 -0.14993098125219875 0.016514362781797465
leaf_weight=11.912909731268885 1.2554220613092173 5.4653862677514553 4.92790184542537 9.0541513264179212 0.3575678328052162 4.6696729212999335
leaf_count=18 32 78 28 22 12 20
internal_value=0 -0.54701 0.12668 0.0262945 -1.1745 0.108475
internal_weight=0 7.07838 30.5646 18.6517 1.61299 13.7238
internal_count=210 122 88 70 44 42
shrinkage=0.1


Tree=3
num_leaves=7
num_cat=0
split_feature=0 0 0 0 0 0
split_gain=1.80485 0.544617 0.323632 0.262403 0.0664174 0.0413822
threshold=0.35000000000000003 0.75000000000000011 1.0000000180025095e-35 0.15000000000000005 0.25000000000000006 0.45000000000000007
decision_type=2 2 2 2 2 2
left_child=2 5 -1 -4 -5 -2
right_child=1 -3 3 4 -6 -7
leaf_value=0.023231537679378883 -0.094805839837427811 -0.032661694908245935 -0.018969319773265922 0.0038319678291038484 0.018363268366494694 -0.13809042471582711
leaf_weight=11.886651918292047 1.076919994316994 5.3177927853539586 4.4859525002539185 9.1260743923485261 4.7996044866740695 0.27786509599536646
leaf_count=18 32 78 28 22 20 12
internal_value=0 -0.470818 0.103688 0.0206455 0.0884031 -1.03683
internal_weight=0 6.67258 30.2983 18.4116 13.9257 1.35479
internal_count=210 122 88 70 42 44
shrinkage=0.1


Tree=4
num_leaves=7
num_cat=0
split_feature=0 0 0 0 0 0
split_gain=1.25713 0.400092 0.265544 0.321066 0.0838649 0.0323902
threshold=0.35000000000000003 0.75000000000000011 1.0000000180025095e-35 0.25000000000000006 0.15000000000000005 0.45000000000000007
decision_type=2 2 2 2 2 2
left_child=2 5 -1 4 -4 -2
right_child=1 -3 3 -5 -6 -7
leaf_value=0.020104007546102941 -0.085925649748220201 -0.028840691332166719 -0.019140872652846943 0.021591145861148547 -0.0020269915788923977 -0.12825046273775151
leaf_weight=11.816376686096193 0.91477412730455299 5.1651076748967171 4.116710940375925 5.408468183130025 9.4053866825997829 0.22535282000899315
leaf_count=18 32 78 28 20 22 12
internal_value=0 -0.406756 0.083413 0.00999069 -0.072372 -0.942914
internal_weight=0 6.30523 30.7469 18.9306 13.5221 1.14013
internal_count=210 122 88 70 50 44
shrinkage=0.1


Tree=5
num_leaves=7
num_cat=0
split_feature=0 0 0 0 0 0
split_gain=1.1007 0.297963 0.150051 0.365094 0.0288965 2.46534e-06
threshold=0.35000000000000003 0.75000000000000011 1.0000000180025095e-35 0.15000000000000005 0.45000000000000007 0.25000000000000006
decision_type=2 2 2 2 2 2
left_child=2 4 -1 -4 -2 -5
right_child=1 -3 3 5 -6 -7
leaf_value=0.016699060359077044 -0.077996086517494567 -0.028104940188182648 -0.023985043923149513 0.010072078699673687 -0.12051538475462478 0.009986446462409591
leaf_weight=11.91153544187546 0.90214361995458481 5.1381081421859562 4.0994113273918655 5.8845774009823781 0.19425169890746477 7.8429656177759171
leaf_count=18 32 78 28 22 12 20
internal_value=0 -0.382036 0.0800915 0.0220277 -0.855294 0.100232
internal_weight=0 6.2345 29.7385 17.827 1.0964 13.7275
internal_count=210 122 88 70 44 42
shrinkage=0.1


Tree=6
num_leaves=7
num_cat=0
split_feature=0 0 0 0 0 0
split_gain=0.901833 0.227434 0.11102 0.272393 0.0253823 0.00180561
threshold=0.35000000000000003 0.75000000000000011 1.0000000180025095e-35 0.15000000000000005 0.45000000000000007 0.25000000000000006
decision_type=2 2 2 2 2 2
left_child=2 4 -1 -4 -2 -5
right_child=1 -3 3 5 -6 -7
leaf_value=0.014685483621349039 -0.071132041465615609 -0.026378106064318493 -0.020893543213483273 0.0075401374037384747 -0.11360290095565428 0.0098559663132991929
leaf_weight=11.894848167896273 0.8491889457218339 5.0773430676199496 3.9655829481780556 5.910256262868641 0.16866718325763941 7.8232414796948433
leaf_count=18 32 78 28 22 12 20
internal_value=0 -0.35027 0.0721419 0.0219303 -0.781698 0.0885934
internal_weight=0 6.0952 29.5939 17.6991 1.01786 13.7335
internal_count=210 122 88 70 44 42
shrinkage=0.1


Tree=7
num_leaves=7
num_cat=0
split_feature=0 0 0 0 0 0
split_gain=0.764484 0.176138 0.0845599 0.223827 0.0226587 0.00409018
threshold=0.35000000000000003 0.75000000000000011 1.0000000180025095e-35 0.15000000000000005 0.45000000000000007 0.25000000000000006
decision_type=2 2 2 2 2 2
left_child=2 4 -1 -4 -2 -5
right_child=1 -3 3 5 -6 -7
leaf_value=0.013145966317299194 -0.065149728292535333 -0.025042351692605998 -0.018919390226163998 0.006276344585228643 -0.10755206208494737 0.0097768727354599714
leaf_weight=11.889565303921701 0.81454946752637525 5.0320057962089777 3.8950657695531872 5.8688916862010938 0.14909142069518566 7.7400256767868996
leaf_count=18 32 78 28 22 12 20
internal_value=0 -0.325429 0.0663805 0.0221756 -0.717101 0.0826726
internal_weight=0 5.99565 29.3935 17.504 0.963641 13.6089
internal_count=210 122 88 70 44 42
shrinkage=0.1


Tree=8
num_leaves=7
num_cat=0
split_feature=0 0 0 0 0 0
split_gain=0.661876 0.13836 0.0660364 0.193717 0.0203007 0.00543831
threshold=0.35000000000000003 0.75000000000000011 1.0000000180025095e-35 0.15000000000000005 0.45000000000000007 0.25000000000000006
decision_type=2 2 2 2 2 2
left_child=2 4 -1 -4 -2 -5
right_child=1 -3 3 5 -6 -7
leaf_value=0.011920284047929837 -0.059963997287982899 -0.023920318738302457 -0.01753117347231262 0.005596662763529478 -0.10213393267759528 0.0096565397665477649
leaf_weight=11.88888092339039 0.78974007815122493 4.9948130622506142 3.8523219246417311 5.8072876967489702 0.13344770018011332 7.6402590163052082
leaf_count=18 32 78 28 22 12 20
internal_value=0 -0.304939 0.0618262 0.0223956 -0.660597 0.0790329
internal_weight=0 5.918 29.1887 17.2999 0.923188 13.4475
internal_count=210 122 88 70 44 42
shrinkage=0.1


Tree=9
num_leaves=7
num_cat=0
split_feature=0 0 0 0 0 0
split_gain=0.580859 0.110181 0.0528332 0.172006 0.0181547 0.0059816
threshold=0.35000000000000003 0.75000000000000011 1.0000000180025095e-35 0.15000000000000005 0.45000000000000007 0.25000000000000006
decision_type=2 2 2 2 2 2
left_child=2 4 -1 -4 -2 -5
right_child=1 -3 3 5 -6 -7
leaf_value=0.010919705658809141 -0.055469574569594109 -0.022922923691673581 -0.016453911126868854 0.005186667811876584 -0.097197328518012938 0.0094686882039025089
leaf_weight=11.889243856072428 0.77025681035593052 4.9621077533811331 3.8221234697848585 5.7468470185995084 0.12058824393898249 7.5456643141806126
leaf_count=18 32 78 28 22 12 20
internal_value=0 -0.287364 0.0579897 0.0224169 -0.61118 0.0761741
internal_weight=0 5.85295 29.0039 17.1146 0.890845 13.2925
internal_count=210 122 88 70 44 42
shrinkage=0.1


Tree=10
num_leaves=7
num_cat=0
split_feature=0 0 0 0 0 0
split_gain=0.514701 0.0888418 0.043226 0.154668 0.0161846 0.00603502
threshold=0.35000000000000003 0.75000000000000011 1.0000000180025095e-35 0.15000000000000005 0.45000000000000007 0.25000000000000006
decision_type=2 2 2 2 2 2
left_child=2 4 -1 -4 -2 -5
right_child=1 -3 3 5 -6 -7
leaf_value=0.010087001151646777 -0.051552337894959721 -0.022011318158092576 -0.015553854729010991 0.0049022604815943125 -0.092641014390089205 0.009224928917199629
leaf_weight=11.889423467218878 0.75396517594344814 4.9323282744735479 3.7981490902602699 5.6941666752099973 0.10982908704318106 7.4627522602677345
leaf_count=18 32 78 28 22 12 20
internal_value=0 -0.271924 0.0546414 0.0222245 -0.567767 0.0735413
internal_weight=0 5.79612 28.8445 16.9551 0.863794 13.1569
internal_count=210 122 88 70 44 42
shrinkage=0.1


Tree=11
num_leaves=7
num_cat=0
split_feature=0 0 0 0 0 0
split_gain=0.459608 0.0724454 0.0360754 0.140075 0.0143868 0.00580253
threshold=0.35000000000000003 0.75000000000000011 1.0000000180025095e-35 0.15000000000000005 0.45000000000000007 0.25000000000000006
decision_type=2 2 2 2 2 2
left_child=2 4 -1 -4 -2 -5
right_child=1 -3 3 5 -6 -7
leaf_value=0.0093831524212607507 -0.048115478911982805 -0.02116919083222836 -0.014769549889655271 0.0046854222553843099 -0.088399308371010954 0.0089421753234845327
leaf_weight=11.8891429156065 0.7398613018449387 4.9048234322108328 3.7777501791715649 5.6499327383935434 0.10072445520199837 7.3918950743973255
leaf_count=18 32 78 28 22 12 20
internal_value=0 -0.258178 0.0516686 0.0218652 -0.529425 0.0709808
internal_weight=0 5.74541 28.7087 16.8196 0.840586 13.0418
internal_count=210 122 88 70 44 42
shrinkage=0.1


Tree=12
num_leaves=7
num_cat=0
split_feature=0 0 0 0 0 0
split_gain=0.413066 0.0596592 0.0306393 0.127412 0.0127603 0.00543229
threshold=0.35000000000000003 0.75000000000000011 1.0000000180025095e-35 0.15000000000000005 0.45000000000000007 0.25000000000000006
decision_type=2 2 2 2 2 2
left_child=2 4 -1 -4 -2 -5
right_child=1 -3 3 5 -6 -7
leaf_value=0.0087803618718341712 -0.045075174912276389 -0.020386986014536049 -0.014066982564712619 0.0045039855831278024 -0.08442257043818821 0.0086376315404693201
leaf_weight=11.888421498239042 0.7273852585349222 4.8792499038390815 3.7596808020025518 5.6132097914814931 0.092951421858742847 7.3316709771752357
leaf_count=18 32 78 28 22 12 20
internal_value=0 -0.24582 0.0490006 0.021385 -0.495336 0.0684518
internal_weight=0 5.69959 28.593 16.7046 0.820337 12.9449
internal_count=210 122 88 70 44 42
shrinkage=0.1


Tree=13
num_leaves=7
num_cat=0
split_feature=0 0 0 0 0 0
split_gain=0.373349 0.0495639 0.0264213 0.116299 0.0113012 0.00500028
threshold=0.35000000000000003 0.75000000000000011 1.0000000180025095e-35 0.15000000000000005 0.45000000000000007 0.25000000000000006
decision_type=2 2 2 2 2 2
left_child=2 4 -1 -4 -2 -5
right_child=1 -3 3 5 -6 -7
leaf_value=0.008258259024680803 -0.042367413857785668 -0.019658752307159535 -0.013430143718234267 0.004345726705644779 -0.080678405184861593 0.0083237983478978463
leaf_weight=11.887359052896501 0.71621965966187318 4.8554015499539673 3.7433326132595566 5.582640562206505 0.086272394983097911 7.2803099416196346
leaf_count=18 32 78 28 22 12 20
internal_value=0 -0.234638 0.0465914 0.0208276 -0.464861 0.0659728
internal_weight=0 5.65789 28.4936 16.6063 0.802492 12.863
internal_count=210 122 88 70 44 42
shrinkage=0.1


Tree=14
num_leaves=7
num_cat=0
split_feature=0 0 0 0 0 0
split_gain=0.339159 0.0414932 0.023088 0.10645 0.0100009 0.00455965
threshold=0.35000000000000003 0.75000000000000011 1.0000000180025095e-35 0.15000000000000005 0.45000000000000007 0.25000000000000006
decision_type=2 2 2 2 2 2
left_child=2 4 -1 -4 -2 -5
right_child=1 -3 3 5 -6 -7
leaf_value=0.0078015739269583209 -0.039938258046495548 -0.018979781920856535 -0.012846498944413469 0.0042013374082548122 -0.077140421627450217 0.0080100551288488728
leaf_weight=11.886053822934629 0.70613648183643718 4.8331244019791484 3.7283420283347395 5.5570420175790769 0.080498516093939543 7.2362075410783291
leaf_count=18 32 78 28 22 12 20
internal_value=0 -0.224464 0.0444047 0.020224 -0.437453 0.0635565
internal_weight=0 5.61976 28.4076 16.5216 0.786635 12.7932
internal_count=210 122 88 70 44 42
shrinkage=0.1


Tree=15
num_leaves=7
num_cat=0
split_feature=0 0 0 0 0 0
split_gain=0.309507 0.0349827 0.0204101 0.0976807 0.00884711 0.00412955
threshold=0.35000000000000003 0.75000000000000011 1.0000000180025095e-35 0.15000000000000005 0.45000000000000007 0.25000000000000006
decision_type=2 2 2 2 2 2
left_child=2 4 -1 -4 -2 -5
right_child=1 -3 3 5 -6 -7
leaf_value=0.00739865980837358 -0.037748529975038289 -0.018345239554052147 -0.012308597911107702 0.0040683310144195364 -0.073790355361144019 0.0077011404092579942
leaf_weight=11.88457975536585 0.69699164247140188 4.8122718343511224 3.7144970344379571 5.5354117807000858 0.075482129934243872 7.1980194114148617
leaf_count=18 32 78 28 22 12 20
internal_value=0 -0.215162 0.0424115 0.0195968 -0.412704 0.061219
internal_weight=0 5.58475 28.3325 16.4479 0.772474 12.7334
internal_count=210 122 88 70 44 42
shrinkage=0.1


Tree=16
num_leaves=7
num_cat=0
split_feature=0 0 0 0 0 0
split_gain=0.283611 0.0296776 0.0182285 0.089842 0.00782873 0.00372466
threshold=0.35000000000000003 0.75000000000000011 1.0000000180025095e-35 0.15000000000000005 0.45000000000000007 0.25000000000000006
decision_type=2 2 2 2 2 2
left_child=2 4 -1 -4 -2 -5
right_child=1 -3 3 5 -6 -7
leaf_value=0.0070405496450822299 -0.035762433199972021 -0.017751212285069262 -0.011810619943618435 0.0039438145842066227 -0.070614878156744582 0.0074006787463263383
leaf_weight=11.882989801466467 0.688650670228525 4.7927259099669755 3.7016318719834116 5.5169782470911723 0.071104954811744392 7.1646762453019619
leaf_count=18 32 78 28 22 12 20
internal_value=0 -0.20662 0.0405875 0.0189601 -0.390242 0.0589682
internal_weight=0 5.55248 28.2663 16.3833 0.759756 12.6817
internal_count=210 122 88 70 44 42
shrinkage=0.1


Tree=17
num_leaves=7
num_cat=0
split_feature=0 0 0 0 0 0
split_gain=0.260876 0.0253179 0.0164235 0.0828177 0.00693106 0.00335124
threshold=0.35000000000000003 0.75000000000000011 1.0000000180025095e-35 0.15000000000000005 0.45000000000000007 0.25000000000000006
decision_type=2 2 2 2 2 2
left_child=2 4 -1 -4 -2 -5
right_child=1 -3 3 5 -6 -7
leaf_value=0.006719885935714944 -0.033953326410906197 -0.017194892888178791 -0.011347892300839046 0.0038267762474637175 -0.067600812165101276 0.0071113771064208534
leaf_weight=11.881331443786623 0.68101732060313125 4.7743861265480518 3.6896350858733085 5.5011236164718849 0.067267152946442366 7.1353296209126711
leaf_count=18 32 78 28 22 12 20
internal_value=0 -0.198754 0.0389136 0.018329 -0.369781 0.0568147
internal_weight=0 5.52267 28.2074 16.3261 0.748284 12.6365
internal_count=210 122 88 70 44 42
shrinkage=0.1


Tree=18
num_leaves=7
num_cat=0
split_feature=0 0 0 0 0 0
split_gain=0.240787 0.0217103 0.0149119 0.0765015 0.00614219 0.0030121
threshold=0.35000000000000003 0.75000000000000011 1.0000000180025095e-35 0.15000000000000005 0.45000000000000007 0.25000000000000006
decision_type=2 2 2 2 2 2
left_child=2 4 -1 -4 -2 -5
right_child=1 -3 3 5 -6 -7
leaf_value=0.0064308254795067124 -0.032298311096754989 -0.016672130874243837 -0.010916467631846206 0.0037156819497278534 -0.064740479346818244 0.0068343354597923747
leaf_weight=11.87962517142296 0.67400871915742655 4.7571336757391691 3.6784112527966526 5.4873805698007327 0.063890269724652171 7.1092982776463032
leaf_count=18 32 78 28 22 12 20
internal_value=0 -0.191477 0.0373711 0.0177089 -0.351073 0.0547578
internal_weight=0 5.49503 28.1547 16.2751 0.737899 12.5967
internal_count=210 122 88 70 44 42
shrinkage=0.1


Tree=19
num_leaves=7
num_cat=0
split_feature=0 0 0 0 0 0
split_gain=0.222956 0.0187048 0.0136343 0.0708092 0.00544944 0.00270742
threshold=0.35000000000000003 0.75000000000000011 1.0000000180025095e-35 0.15000000000000005 0.45000000000000007 0.25000000000000006
decision_type=2 2 2 2 2 2
left_child=2 4 -1 -4 -2 -5
right_child=1 -3 3 5 -6 -7
leaf_value=0.0061690774398164899 -0.030779042021366443 -0.016180434319279031 -0.010513412304040952 0.0036095583581401617 -0.06202552179536646 0.0065702174942537262
leaf_weight=11.87789209187031 0.6675583531614383 4.7408882169984281 3.6678792182356146 5.4753722082823497 0.060907322564162321 7.0860433038324118
leaf_count=18 32 78 28 22 12 20
internal_value=0 -0.184728 0.035946 0.017104 -0.333916 0.052797
internal_weight=0 5.46935 28.1072 16.2293 0.728466 12.5614
internal_count=210 122 88 70 44 42
shrinkage=0.1


Tree=20
num_leaves=7
num_cat=0
split_feature=0 0 0 0 0 0
split_gain=0.207058 0.0161824 0.0125411 0.0656651 0.00484174 0.00243325
threshold=0.35000000000000003 0.75000000000000011 1.0000000180025095e-35 0.15000000000000005 0.45000000000000007 0.25000000000000006
decision_type=2 2 2 2 2 2
left_child=2 4 -1 -4 -2 -5
right_child=1 -3 3 5 -6 -7
leaf_value=0.0059306332400888362 -0.029378573344181397 -0.015717520678586932 -0.010135651013438392 0.0035087316154447305 -0.059448607832725701 0.0063188267209671883
leaf_weight=11.876148857176306 0.6616014689207067 4.7255736375227571 3.6579782264307168 5.464801259338854 0.058262287871912122 7.0651131123304367
leaf_count=18 32 78 28 22 12 20
internal_value=0 -0.178452 0.0346261 0.0165196 -0.318123 0.0509323
internal_weight=0 5.44544 28.064 16.1879 0.719864 12.5299
internal_count=210 122 88 70 44 42
shrinkage=0.1


Tree=21
num_leaves=7
num_cat=0
split_feature=0 0 0 0 0 0
split_gain=0.192817 0.0140563 0.011599 0.0610107 0.00430851 0.00218856
threshold=0.35000000000000003 0.75000000000000011 1.0000000180025095e-35 0.15000000000000005 0.45000000000000007 0.25000000000000006
decision_type=2 2 2 2 2 2
left_child=2 4 -1 -4 -2 -5
right_child=1 -3 3 5 -6 -7
leaf_value=0.005712571828550405 -0.028084732596257739 -0.015280566562009873 -0.0097815244287548647 0.003412289633114074 -0.057003574355048915 0.006080198912125849
leaf_weight=11.874401494860651 0.65609427588060398 4.711104832123965 3.6486547468230155 5.4554341100156289 0.055908946436829865 7.0461699869483709
leaf_count=18 32 78 28 22 12 20
internal_value=0 -0.172598 0.0333997 0.0159553 -0.303555 0.0491598
internal_weight=0 5.42311 28.0247 16.1503 0.712003 12.5016
internal_count=210 122 88 70 44 42
shrinkage=0.1


Tree=22
num_leaves=7
num_cat=0
split_feature=0 0 0 0 0 0
split_gain=0.180007 0.0122518 0.0107779 0.0567893 0.00384081 0.00196967
threshold=0.35000000000000003 0.75000000000000011 1.0000000180025095e-35 0.15000000000000005 0.45000000000000007 0.25000000000000006
decision_type=2 2 2 2 2 2
left_child=2 4 -1 -4 -2 -5
right_child=1 -3 3 5 -6 -7
leaf_value=0.0055120120829750818 -0.026884522737163664 -0.014867624860948636 -0.0094486993191699002 0.0033204382606042146 -0.0546838711282061 0.0058538674382688739
leaf_weight=11.872650146484377 0.65098286629654367 4.697419848293066 3.6398596363142159 5.4470747169107181 0.053807697724550962 7.0289196837693453
leaf_count=18 32 78 28 22 12 20
internal_value=0 -0.167123 0.0322573 0.0154141 -0.290069 0.0474776
internal_weight=0 5.40221 27.9885 16.1159 0.704791 12.476
internal_count=210 122 88 70 44 42
shrinkage=0.1


Tree=23
num_leaves=7
num_cat=0
split_feature=0 0 0 0 0 0
split_gain=0.168437 0.0107153 0.0100583 0.0529516 0.00343034 0.00177529
threshold=0.35000000000000003 0.75000000000000011 1.0000000180025095e-35 0.15000000000000005 0.45000000000000007 0.25000000000000006
decision_type=2 2 2 2 2 2
left_child=2 4 -1 -4 -2 -5
right_child=1 -3 3 5 -6 -7
leaf_value=0.005326953931091216 -0.025769220971620255 -0.014476403536295371 -0.0091354589407512347 0.0032322160419552127 -0.052484432830655639 0.0056395039860598845
leaf_weight=11.870906986296179 0.64623519126325757 4.6844493323005736 3.6315516801551011 5.4395839702337963 0.05192608485231176 7.0131192822009325
leaf_count=18 32 78 28 22 12 20
internal_value=0 -0.161989 0.0311901 0.0148944 -0.277562 0.0458795
internal_weight=0 5.38261 27.9552 16.0843 0.698161 12.4527
internal_count=210 122 88 70 44 42
shrinkage=0.1


Tree=24
num_leaves=7
num_cat=0
split_feature=0 0 0 0 0 0
split_gain=0.157966 0.00942226 0.0494457 0.00939906 0.00306984 0.00160173
threshold=0.35000000000000003 1.0000000180025095e-35 0.15000000000000005 0.75000000000000011 0.45000000000000007 0.25000000000000006
decision_type=2 2 2 2 2 2
left_child=1 -1 -3 4 -2 -4
right_child=3 2 5 -5 -6 -7
leaf_value=0.0051556338602263873 -0.024730005702901729 -0.008838970041494849 0.0031477256928594427 -0.014106079336829017 -0.050399387761260066 0.0054361482840584001
leaf_weight=11.869167476892473 0.64181609777733584 3.6236832337453988 5.4328301064670068 4.6721579525619745 0.050235756323672831 6.998579066246748
leaf_count=18 32 28 22 78 12 20
internal_value=0 0.0301923 0.0143984 -0.157171 -0.265933 0.0443605
internal_weight=0 27.9243 16.0551 5.36421 0.692052 12.4314
internal_count=210 88 70 122 44 42
shrinkage=0.1


Tree=25
num_leaves=7
num_cat=0
split_feature=0 0 0 0 0 0
split_gain=0.148444 0.00885517 0.0462524 0.00826794 0.00275269 0.00144739
threshold=0.35000000000000003 1.0000000180025095e-35 0.15000000000000005 0.75000000000000011 0.45000000000000007 0.25000000000000006
decision_type=2 2 2 2 2 2
left_child=1 -1 -3 4 -2 -4
right_child=3 2 5 -5 -6 -7
leaf_value=0.0049962075132002799 -0.02375959470136868 -0.008559610071792163 0.0030669535423690918 -0.013754290324766359 -0.048422484422023432 0.0052439352785220621
leaf_weight=11.867436096072199 0.6376947823446234 3.6162328114733127 5.4267068002372962 4.6604767916724086 0.048712187563069165 6.9851299095898867
leaf_count=18 32 28 22 78 12 20
internal_value=0 0.0292562 0.0139252 -0.152634 -0.255098 0.0429211
internal_weight=0 27.8955 16.0281 5.34688 0.686407 12.4118
internal_count=210 88 70 122 44 42
shrinkage=0.1


Tree=26
num_leaves=7
num_cat=0
split_feature=0 0 0 0 0 0
split_gain=0.139762 0.00834691 0.0433215 0.00729172 0.00247342 0.00131154
threshold=0.35000000000000003 1.0000000180025095e-35 0.15000000000000005 0.75000000000000011 0.45000000000000007 0.25000000000000006
decision_type=2 2 2 2 2 2
left_child=1 -1 -3 4 -2 -4
right_child=3 2 5 -5 -6 -7
leaf_value=0.0048474748752255293 -0.022851444955985747 -0.0082942117889010184 0.0029884908918391931 -0.013419864104205377 -0.046548641391769424 0.0050622032588093658
leaf_weight=11.865715831518175 0.6338450520997857 3.6091596232727197 5.4211418125778419 4.6493681166321039 0.047335064853541553 6.9726311210542917
leaf_count=18 32 28 22 78 12 20
internal_value=0 0.0283765 0.0134743 -0.148355 -0.244982 0.0415514
internal_weight=0 27.8686 16.0029 5.33055 0.68118 12.3938
internal_count=210 88 70 122 44 42
shrinkage=0.1


Tree=27
num_leaves=7
num_cat=0
split_feature=0 0 0 0 0 0
split_gain=0.131826 0.00788908 0.0406435 0.00644548 0.00222726 0.00118915
threshold=0.35000000000000003 1.0000000180025095e-35 0.15000000000000005 0.75000000000000011 0.45000000000000007 0.25000000000000006
decision_type=2 2 2 2 2 2
left_child=1 -1 -3 4 -2 -4
right_child=3 2 5 -5 -6 -7
leaf_value=0.0047083632680111776 -0.02199953898621762 -0.0080436467567175009 0.0029140778570653455 -0.013101683147010499 -0.044772623732991242 0.004889910394918766
leaf_weight=11.864008523523809 0.63024209393188257 3.6024507358670226 5.4160440210252982 4.6387940715067089 0.046086889749858528 6.9609731081873178
leaf_count=18 32 28 22 78 12 20
internal_value=0 0.0275485 0.0130445 -0.144314 -0.235514 0.0402531
internal_weight=0 27.8435 15.9795 5.31512 0.676329 12.377
internal_count=210 88 70 122 44 42
shrinkage=0.1


Tree=28
num_leaves=7
num_cat=0
split_feature=0 0 0 0 0 0
split_gain=0.124546 0.00747353 0.0381796 0.00571048 0.00201004 0.00108072
threshold=0.35000000000000003 1.0000000180025095e-35 0.15000000000000005 0.75000000000000011 0.45000000000000007 0.25000000000000006
decision_type=2 2 2 2 2 2
left_child=1 -1 -3 4 -2 -4
right_child=3 2 5 -5 -6 -7
leaf_value=0.0045777160786377707 -0.021199414679905174 -0.0078053188032642289 0.0028421416454282125 -0.012798219104397122 -0.043090212231196919 0.0047268460653804864
leaf_weight=11.8623054176569 0.62686677160672732 3.5960686076432458 5.4113690480589849 4.6287074249703437 0.044953136355616152 6.9500534348189831
leaf_count=18 32 28 22 78 12 20
internal_value=0 0.0267671 0.0126356 -0.140487 -0.226642 0.0390179
internal_weight=0 27.8198 15.9575 5.30053 0.67182 12.3614
internal_count=210 88 70 122 44 42
shrinkage=0.1


Tree=29
num_leaves=7
num_cat=0
split_feature=0 0 0 0 0 0
split_gain=0.117859 0.00709657 0.0359145 0.00506847 0.00181786 0.000983528
threshold=0.35000000000000003 1.0000000180025095e-35 0.15000000000000005 0.75000000000000011 0.45000000000000007 0.25000000000000006
decision_type=2 2 2 2 2 2
left_child=1 -1 -3 4 -2 -4
right_child=3 2 5 -5 -6 -7
leaf_value=0.0044550500227864371 -0.020445887865700223 -0.0075791515826793597 0.0027731793413694489 -0.012509024140927409 -0.041494709949343948 0.0045721231870875676
leaf_weight=11.860618166625502 0.62369755643885483 3.5899966526776543 5.4070606455206853 4.6190898737404495 0.043919597810599953 6.9397907555103302
leaf_count=18 32 28 22 78 12 20
internal_value=0 0.0260293 0.0122453 -0.136862 -0.218306 0.0378431
internal_weight=0 27.7975 15.9368 5.28671 0.667617 12.3469
internal_count=210 88 70 122 44 42
shrinkage=0.1


Tree=30
num_leaves=7
num_cat=0
split_feature=0 0 0 0 0 0
split_gain=0.111697 0.00675091 0.0338229 0.00450697 0.00164755 0.000896678
threshold=0.35000000000000003 1.0000000180025095e-35 0.15000000000000005 0.75000000000000011 0.45000000000000007 0.25000000000000006
decision_type=2 2 2 2 2 2
left_child=1 -1 -3 4 -2 -4
right_child=3 2 5 -5 -6 -7
leaf_value=0.004339261031629074 -0.019735610815173069 -0.0073634172895931218 0.0027067894928005901 -0.012232742740528844 -0.039981906227157547 0.0044253514134279109
leaf_weight=11.858935318887236 0.62072034319862623 3.5842080647125831 5.4030787143856269 4.6098991981707513 0.042975447955541313 6.9301122240722179
leaf_count=18 32 28 22 78 12 20
internal_value=0 0.025331 0.0118745 -0.13342 -0.210466 0.0367246
internal_weight=0 27.7763 15.9174 5.27359 0.663696 12.3332
internal_count=210 88 70 122 44 42
shrinkage=0.1


Tree=31
num_leaves=7
num_cat=0
split_feature=0 0 0 0 0 0
split_gain=0.106003 0.00643291 0.0318968 0.00401477 0.00149645 0.000819315
threshold=0.35000000000000003 1.0000000180025095e-35 0.15000000000000005 0.75000000000000011 0.45000000000000007 0.25000000000000006
decision_type=2 2 2 2 2 2
left_child=1 -1 -3 4 -2 -4
right_child=3 2 5 -5 -6 -7
leaf_value=0.0042297277913967892 -0.019065083126770858 -0.0071585232734454208 0.0026429137296967841 -0.011968288225072087 -0.038547765265246864 0.0042864590461579874
leaf_weight=11.857266135513784 0.61791907728183915 3.5786944879218927 5.3993816096335632 4.6011035849805921 0.042111118731554598 6.9209574572741985
leaf_count=18 32 28 22 78 12 20
internal_value=0 0.0246688 0.0115217 -0.130146 -0.203081 0.0356618
internal_weight=0 27.7563 15.899 5.26113 0.66003 12.3203
internal_count=210 88 70 122 44 42
shrinkage=0.1


Tree=32
num_leaves=7
num_cat=0
split_feature=0 0 0 0 0 0
split_gain=0.100739 0.00613958 0.0301128 0.0035814 0.00136211 0.000750872
threshold=0.35000000000000003 1.0000000180025095e-35 0.15000000000000005 0.75000000000000011 0.45000000000000007 0.25000000000000006
decision_type=2 2 2 2 2 2
left_child=1 -1 -3 4 -2 -4
right_child=3 2 5 -5 -6 -7
leaf_value=0.0041260373321749854 -0.018430974431666115 -0.0069626946562679776 0.0025808601141701117 -0.011715507712760675 -0.037187412195187834 0.0041549749946910011
leaf_weight=11.855611950159075 0.61527939606457849 3.5734285004436961 5.3959451131522638 4.5926918131299317 0.041317799710668623 6.9122696910053492
leaf_count=18 32 28 22 78 12 20
internal_value=0 0.0240408 0.0111864 -0.127031 -0.196113 0.0346488
internal_weight=0 27.7373 15.8816 5.24929 0.656597 12.3082
internal_count=210 88 70 122 44 42
shrinkage=0.1


Tree=33
num_leaves=7
num_cat=0
split_feature=0 0 0 0 0 0
split_gain=0.0958531 0.00586769 0.0284641 0.00319916 0.00124235 0.000689295
threshold=0.35000000000000003 1.0000000180025095e-35 0.15000000000000005 0.75000000000000011 0.45000000000000007 0.25000000000000006
decision_type=2 2 2 2 2 2
left_child=1 -1 -3 4 -2 -4
right_child=3 2 5 -5 -6 -7
leaf_value=0.0040275402065280347 -0.017830305927895657 -0.006776220629890542 0.0025213333959201141 -0.011473131551569078 -0.03589589568644707 0.0040301710855908937
leaf_weight=11.853973127901556 0.61278954450972278 3.5684056291356674 5.3927328232675773 4.5846263186540455 0.040587644034530967 6.9040048308670521
leaf_count=18 32 28 22 78 12 20
internal_value=0 0.0234435 0.0108672 -0.124061 -0.189525 0.0336847
internal_weight=0 27.7191 15.8651 5.238 0.653377 12.2967
internal_count=210 88 70 122 44 42
shrinkage=0.1


Tree=34
num_leaves=7
num_cat=0
split_feature=0 0 0 0 0 0
split_gain=0.0913157 0.00561452 0.026931 0.0028616 0.00113548 0.000633217
threshold=0.35000000000000003 1.0000000180025095e-35 0.15000000000000005 0.75000000000000011 0.45000000000000007 0.25000000000000006
decision_type=2 2 2 2 2 2
left_child=1 -1 -3 4 -2 -4
right_child=3 2 5 -5 -6 -7
leaf_value=0.0039338211494040305 -0.017261213091458741 -0.0065973888313541887 0.0024643876913064207 -0.011240750598740853 -0.034670331415640659 0.003911136148109646
leaf_weight=11.852341786026956 0.61044094245880731 3.5635991794988504 5.38972534611821 4.576892253709957 0.039914755499921739 6.8961181119084358
leaf_count=18 32 28 22 78 12 20
internal_value=0 0.0228753 0.0105641 -0.121227 -0.183297 0.0327646
internal_weight=0 27.7018 15.8494 5.22725 0.650356 12.2858
internal_count=210 88 70 122 44 42
shrinkage=0.1


Tree=35
num_leaves=7
num_cat=0
split_feature=0 0 0 0 0 0
split_gain=0.0870936 0.00537931 0.0255087 0.00256239 0.00103997 0.000583547
threshold=0.35000000000000003 1.0000000180025095e-35 0.15000000000000005 0.75000000000000011 0.45000000000000007 0.25000000000000006
decision_type=2 2 2 2 2 2
left_child=1 -1 -3 4 -2 -4
right_child=3 2 5 -5 -6 -7
leaf_value=0.0038446711331614394 -0.016720837756099435 -0.006426643847486019 0.0024089870590850177 -0.011017821564466044 -0.033506723794639683 0.0037983720270311546
leaf_weight=11.850722372531893 0.60821974999271233 3.5590000180527559 5.3869020286947471 4.5694714344572276 0.039293334091780714 6.8885882552713156
leaf_count=18 32 28 22 78 12 20
internal_value=0 0.022334 0.010275 -0.118521 -0.177395 0.0318866
internal_weight=0 27.6852 15.8345 5.21698 0.647513 12.2755
internal_count=210 88 70 122 44 42
shrinkage=0.1


Tree=36
num_leaves=7
num_cat=0
split_feature=0 0 0 0 0 0
split_gain=0.0831535 0.00515966 0.0241861 0.00229681 0.00095429 0.000538667
threshold=0.35000000000000003 1.0000000180025095e-35 0.15000000000000005 0.75000000000000011 0.45000000000000007 0.25000000000000006
decision_type=2 2 2 2 2 2
left_child=1 -1 -3 4 -2 -4
right_child=3 2 5 -5 -6 -7
leaf_value=0.0037596027519937077 -0.016207095834509407 -0.0062632586463445758 0.0023556036135488415 -0.010803426268844223 -0.032400255391119147 0.0036909841089546903
leaf_weight=11.849120751023294 0.60611841117497445 3.5545990299433461 5.3842479027807695 4.5623371747788042 0.03871764536597766 6.8813681025058031
leaf_count=18 32 28 22 78 12 20
internal_value=0 0.0218172 0.00999911 -0.11593 -0.171794 0.0310479
internal_weight=0 27.6693 15.8202 5.20717 0.644836 12.2656
internal_count=210 88 70 122 44 42
shrinkage=0.1


Tree=37
num_leaves=7
num_cat=0
split_feature=0 0 0 0 0 0
split_gain=0.0794754 0.00495443 0.0229533 0.00206026 0.000877492 0.000498159
threshold=0.35000000000000003 1.0000000180025095e-35 0.15000000000000005 0.75000000000000011 0.45000000000000007 0.25000000000000006
decision_type=2 2 2 2 2 2
left_child=1 -1 -3 4 -2 -4
right_child=3 2 5 -5 -6 -7
leaf_value=0.0036784310861434342 -0.015717894468793448 -0.0061065923684442899 0.0023040152383706439 -0.01059747287594312 -0.031348979544565593 0.0035886555253708263
leaf_weight=11.847530625760557 0.60412698681466181 3.5503798546269527 5.3817442599683982 4.5554817586671561 0.038184043631190434 6.8744403962045908
leaf_count=18 32 28 22 78 12 20
internal_value=0 0.0213239 0.00973576 -0.113451 -0.166471 0.0302456
internal_weight=0 27.6541 15.8066 5.19779 0.642311 12.2562
internal_count=210 88 70 122 44 42
shrinkage=0.1


Tree=38
num_leaves=7
num_cat=0
split_feature=0 0 0 0 0 0
split_gain=0.0760347 0.00475998 0.0218041 0.00184989 0.000808303 0.000461558
threshold=0.35000000000000003 1.0000000180025095e-35 0.15000000000000005 0.75000000000000011 0.45000000000000007 0.25000000000000006
decision_type=2 2 2 2 2 2
left_child=1 -1 -3 4 -2 -4
right_child=3 2 5 -5 -6 -7
leaf_value=0.0036004944401446999 -0.015252475797419047 -0.005956219500631384 0.0022544440976750477 -0.010399213866454898 -0.030348628026062325 0.0034914077607326229
leaf_weight=11.845955565571787 0.60224177851341565 3.5463372715748838 5.3793728034943324 4.548882219940424 0.0376879925315734 6.867779653519392
leaf_count=18 32 28 22 78 12 20
internal_value=0 0.0208522 0.00948679 -0.111074 -0.161415 0.0294809
internal_weight=0 27.6394 15.7935 5.18881 0.63993 12.2472
internal_count=210 88 70 122 44 42
shrinkage=0.1


Tree=39
num_leaves=7
num_cat=0
split_feature=0 0 0 0 0 0
split_gain=0.0728105 0.00457697 0.0207332 0.00166189 0.000746004 0.000428675
threshold=0.35000000000000003 1.0000000180025095e-35 0.15000000000000005 0.75000000000000011 0.45000000000000007 0.25000000000000006
decision_type=2 2 2 2 2 2
left_child=1 -1 -3 4 -2 -4
right_child=3 2 5 -5 -6 -7
leaf_value=0.0035258078135253982 -0.014808259640929553 -0.0058122518611279338 0.0022064796509081741 -0.010208286918312992 -0.02939666412632401 0.0033989503901797505
leaf_weight=11.844399541616442 0.6004507300676768 3.5424628234468392 5.3771264627575857 4.5425260406918824 0.037226236512651674 6.8613643664866686
leaf_count=18 32 28 22 78 12 20
internal_value=0 0.0204006 0.0092493 -0.108794 -0.156599 0.0287502
internal_weight=0 27.6254 15.781 5.1802 0.637677 12.2385
internal_count=210 88 70 122 44 42
shrinkage=0.1


Tree=40
num_leaves=7
num_cat=0
split_feature=0 0 0 0 0 0
split_gain=0.0697854 0.00440528 0.0197305 0.00149402 0.000689751 0.000398646
threshold=0.35000000000000003 1.0000000180025095e-35 0.15000000000000005 0.75000000000000011 0.45000000000000007 0.25000000000000006
decision_type=2 2 2 2 2 2
left_child=1 -1 -3 4 -2 -4
right_child=3 2 5 -5 -6 -7
leaf_value=0.0034543086038697568 -0.014384530171693138 -0.0056738117254913015 0.0021601326437704622 -0.010024226398537542 -0.02849031836782738 0.0033104346095815685
leaf_weight=11.842853315174581 0.59875218861270596 3.5387361091561607 5.3749906849116069 4.5364011509809643 0.03679583891062066 6.8551819026470184
leaf_count=18 32 28 22 78 12 20
internal_value=0 0.019968 0.00902168 -0.106604 -0.152012 0.0280489
internal_weight=0 27.6118 15.7689 5.17195 0.635548 12.2302
internal_count=210 88 70 122 44 42
shrinkage=0.1


Tree=41
num_leaves=7
num_cat=0
split_feature=0 0 0 0 0 0
split_gain=0.066943 0.00424283 0.0187914 0.0013436 0.0006389 0.000371474
threshold=0.35000000000000003 1.0000000180025095e-35 0.15000000000000005 0.75000000000000011 0.45000000000000007 0.25000000000000006
decision_type=2 2 2 2 2 2
left_child=1 -1 -3 4 -2 -4
right_child=3 2 5 -5 -6 -7
leaf_value=0.0033855892694487719 -0.013979423960246987 -0.0055406256301364382 0.0021152568800342033 -0.0098467283368620425 -0.027626811138291071 0.003225993644951942
leaf_weight=11.841324761509897 0.59713612194172938 3.5351580805145195 5.3729643598198873 4.5304926561657339 0.03639382281107828 6.8492007069289684
leaf_count=18 32 28 22 78 12 20
internal_value=0 0.019553 0.0088046 -0.104499 -0.147634 0.027377
internal_weight=0 27.5986 15.7573 5.16402 0.63353 12.2222
internal_count=210 88 70 122 44 42
shrinkage=0.1


Tree=42
num_leaves=7
num_cat=0
split_feature=0 0 0 0 0 0
split_gain=0.064271 0.00408739 0.0179137 0.00120867 0.000592812 0.000346471
threshold=0.35000000000000003 1.0000000180025095e-35 0.15000000000000005 0.75000000000000011 0.45000000000000007 0.25000000000000006
decision_type=2 2 2 2 2 2
left_child=1 -1 -3 4 -2 -4
right_child=3 2 5 -5 -6 -7
leaf_value=0.0033192613176796872 -0.01359204579960986 -0.0054126365142194693 0.0020724889192078343 -0.0096755971618478383 -0.02680349184211513 0.0031455023710080876
leaf_weight=11.839812889695169 0.59559897577855636 3.5317219546996048 5.3710239902138692 4.5247940197587013 0.03601769867236726 6.843423705548048
leaf_count=18 32 28 22 78 12 20
internal_value=0 0.019155 0.00859985 -0.102476 -0.143454 0.0267367
internal_weight=0 27.586 15.7462 5.15641 0.631617 12.2144
internal_count=210 88 70 122 44 42
shrinkage=0.1


Tree=43
num_leaves=7
num_cat=0
split_feature=0 0 0 0 0 0
split_gain=0.0617522 0.00394202 0.0170874 0.00108761 0.000550942 0.000324161
threshold=0.35000000000000003 1.0000000180025095e-35 0.15000000000000005 0.75000000000000011 0.45000000000000007 0.25000000000000006
decision_type=2 2 2 2 2 2
left_child=1 -1 -3 4 -2 -4
right_child=3 2 5 -5 -6 -7
leaf_value=0.0032557299606394891 -0.013221246133196876 -0.005289205805260982 0.0020302742705630215 -0.0095101685165242672 -0.026017701965513076 0.0030684519405025476
leaf_weight=11.838313706219198 0.5941363280871873 3.5284073655493549 5.3691806346178037 4.5192870253231376 0.035665181116200984 6.8378271162509918
leaf_count=18 32 28 22 78 12 20
internal_value=0 0.0187723 0.00840142 -0.100527 -0.139459 0.0261182
internal_weight=0 27.5737 15.7354 5.14909 0.629802 12.207
internal_count=210 88 70 122 44 42
shrinkage=0.1


Tree=44
num_leaves=7
num_cat=0
split_feature=0 0 0 0 0 0
split_gain=0.0593776 0.00380329 0.016314 0.000978693 0.000512894 0.000303552
threshold=0.35000000000000003 1.0000000180025095e-35 0.15000000000000005 0.75000000000000011 0.45000000000000007 0.25000000000000006
decision_type=2 2 2 2 2 2
left_child=1 -1 -3 4 -2 -4
right_child=3 2 5 -5 -6 -7
leaf_value=0.0031944079059636533 -0.012865828986400742 -0.0051706634319172665 0.0019899121231599765 -0.0093503989462427901 -0.025267719808388035 0.0029948139960367451
leaf_weight=11.836835727095606 0.59274151606950809 3.5252229869365683 5.3674109857529384 4.5139688639901578 0.035334447515197098 6.8324027433991432
leaf_count=18 32 28 22 78 12 20
internal_value=0 0.0184046 0.00821283 -0.0986501 -0.135635 0.025527
internal_weight=0 27.5619 15.725 5.14204 0.628076 12.1998
internal_count=210 88 70 122 44 42
shrinkage=0.1


Tree=45
num_leaves=7
num_cat=0
split_feature=0 0 0 0 0 0
split_gain=0.0571345 0.003672 0.0155871 0.000880718 0.000478235 0.000284891
threshold=0.35000000000000003 1.0000000180025095e-35 0.15000000000000005 0.75000000000000011 0.45000000000000007 0.25000000000000006
decision_type=2 2 2 2 2 2
left_child=1 -1 -3 4 -2 -4
right_child=3 2 5 -5 -6 -7
leaf_value=0.0031353581538942823 -0.012525010094254769 -0.0050565299246053616 0.0019505963843128569 -0.0091958305845259557 -0.024551340895539196 0.0029243710156255289
leaf_weight=11.835373632609846 0.59141215984709461 3.5221547693945459 5.3657187111675722 4.5088239454198629 0.035023657168494537 6.8271397091448307
leaf_count=18 32 28 22 78 12 20
internal_value=0 0.0180505 0.00803153 -0.0968397 -0.131974 0.0249584
internal_weight=0 27.5504 15.715 5.13526 0.626436 12.1929
internal_count=210 88 70 122 44 42
shrinkage=0.1


Tree=46
num_leaves=7
num_cat=0
split_feature=0 0 0 0 0 0
split_gain=0.0550157 0.00354553 0.0149006 0.000792659 0.000446582 0.000268029
threshold=0.35000000000000003 1.0000000180025095e-35 0.15000000000000005 0.75000000000000011 0.45000000000000007 0.25000000000000006
decision_type=2 2 2 2 2 2
left_child=1 -1 -3 4 -2 -4
right_child=3 2 5 -5 -6 -7
leaf_value=0.003078111021627427 -0.012198465749955943 -0.0049457537101546276 0.0019124127923068745 -0.0090463419799129401 -0.023866777782985557 0.0028571664785037656
leaf_weight=11.833929173648359 0.59014548477716644 3.5191951291635624 5.3640941791236383 4.5038454819004983 0.034731232444755733 6.8220207653939724
leaf_count=18 32 28 22 78 12 20
internal_value=0 0.0177097 0.00786036 -0.0950941 -0.12847 0.024413
internal_weight=0 27.5392 15.7053 5.12872 0.624877 12.1861
internal_count=210 88 70 122 44 42
shrinkage=0.1


Tree=47
num_leaves=7
num_cat=0
split_feature=0 0 0 0 0 0
split_gain=0.0530116 0.00342684 0.0142564 0.000713258 0.000417629 0.00025224
threshold=0.35000000000000003 1.0000000180025095e-35 0.15000000000000005 0.75000000000000011 0.45000000000000007 0.25000000000000006
decision_type=2 2 2 2 2 2
left_child=1 -1 -3 4 -2 -4
right_child=3 2 5 -5 -6 -7
leaf_value=0.0030231668424845208 -0.011884932637412797 -0.0048395441489934047 0.0018756648836461107 -0.0089017036391778447 -0.023211840925212873 0.0027923923439747258
leaf_weight=11.83250003308058 0.5889374854741608 3.5163426585495463 5.3625299483537656 4.4990298734046519 0.034455662680556998 6.8170559331774712
leaf_count=18 32 28 22 78 12 20
internal_value=0 0.0173814 0.00769417 -0.0934095 -0.12511 0.0238877
internal_weight=0 27.5284 15.6959 5.12242 0.623393 12.1796
internal_count=210 88 70 122 44 42
shrinkage=0.1


Tree=48
num_leaves=7
num_cat=0
split_feature=0 0 0 0 0 0
split_gain=0.0511106 0.00331262 0.0136484 0.00064157 0.000391193 0.000237927
threshold=0.35000000000000003 1.0000000180025095e-35 0.15000000000000005 0.75000000000000011 0.45000000000000007 0.25000000000000006
decision_type=2 2 2 2 2 2
left_child=1 -1 -3 4 -2 -4
right_child=3 2 5 -5 -6 -7
leaf_value=0.0029698137315312982 -0.011583224987412681 -0.004736775300752883 0.0018399335736078656 -0.0087613948326279081 -0.02258563876585374 0.0027304796809474187
leaf_weight=11.831090465188028 0.58778135024476696 3.5135903004556885 5.3610271252691728 4.494360018055886 0.034195864049252123 6.8122168108820915
leaf_count=18 32 28 22 78 12 20
internal_value=0 0.0170644 0.00753592 -0.0917797 -0.121881 0.0233829
internal_weight=0 27.5179 15.6868 5.11634 0.621977 12.1732
internal_count=210 88 70 122 44 42
shrinkage=0.1


Tree=49
num_leaves=7
num_cat=0
split_feature=0 0 0 0 0 0
split_gain=0.0493102 0.00320322 0.0130736 0.000576817 0.000366927 0.000224406
threshold=0.35000000000000003 1.0000000180025095e-35 0.15000000000000005 0.75000000000000011 0.45000000000000007 0.25000000000000006
decision_type=2 2 2 2 2 2
left_child=1 -1 -3 4 -2 -4
right_child=3 2 5 -5 -6 -7
leaf_value=0.0029181722591376754 -0.011293200000622443 -0.0046371681280809023 0.0018057141294584968 -0.0086256124816457263 -0.021985797109424249 0.0026707832108625543
leaf_weight=11.829695075750353 0.58667684509418805 3.5109305582009247 5.3595766648650152 4.4898377801291645 0.033950380806345493 6.8075042143464088
leaf_count=18 32 28 22 78 12 20
internal_value=0 0.0167588 0.00738516 -0.090206 -0.118781 0.0228972
internal_weight=0 27.5077 15.678 5.11047 0.620627 12.1671
internal_count=210 88 70 122 44 42
shrinkage=0.1


Tree=50
num_leaves=7
num_cat=0
split_feature=0 0 0 0 0 0
split_gain=0.0475995 0.00309862 0.0125329 0.000518445 0.000344643 0.000212412
threshold=0.35000000000000003 1.0000000180025095e-35 0.15000000000000005 0.75000000000000011 0.45000000000000007 0.25000000000000006
decision_type=2 2 2 2 2 2
left_child=1 -1 -3 4 -2 -4
right_child=3 2 5 -5 -6 -7
leaf_value=0.0028681261178021833 -0.011014237526658656 -0.0045413817797365919 0.0017721408189749219 -0.0084937253249088903 -0.021411237671125138 0.0026139615687312068
leaf_weight=11.828323483467104 0.58562061365228046 3.5083686797879627 5.3581784237176162 4.4854464447125793 0.033718249294906855 6.8029136266559362
leaf_count=18 32 28 22 78 12 20
internal_value=0 0.0164632 0.0072403 -0.088682 -0.115803 0.0224306
internal_weight=0 27.4978 15.6695 5.10479 0.619339 12.1611
internal_count=210 88 70 122 44 42
shrinkage=0.1


Tree=51
num_leaves=7
num_cat=0
split_feature=0 0 0 0 0 0
split_gain=0.0459775 0.00299892 0.0120202 0.000465551 0.000324135 0.000200898
threshold=0.35000000000000003 1.0000000180025095e-35 0.15000000000000005 0.75000000000000011 0.45000000000000007 0.25000000000000006
decision_type=2 2 2 2 2 2
left_child=1 -1 -3 4 -2 -4
right_child=3 2 5 -5 -6 -7
leaf_value=0.0028197704051713297 -0.010745526147191601 -0.0044483986203297902 0.0017400011452023815 -0.0083661007739067109 -0.02086015282627629 0.0025588644597829458
leaf_weight=11.826963014900686 0.58460987603757431 3.5058843782171598 5.3568258676677925 4.4811954915057868 0.033498424163553864 6.7984418943524361
leaf_count=18 32 28 22 78 12 20
internal_value=0 0.0161782 0.0071014 -0.0872097 -0.112937 0.0219799
internal_weight=0 27.4881 15.6612 5.0993 0.618108 12.1553
internal_count=210 88 70 122 44 42
shrinkage=0.1


Tree=52
num_leaves=7
num_cat=0
split_feature=0 0 0 0 0 0
split_gain=0.0444338 0.00290399 0.0115355 0.000417747 0.000305262 0.000190405
threshold=0.35000000000000003 1.0000000180025095e-35 0.15000000000000005 0.75000000000000011 0.45000000000000007 0.25000000000000006
decision_type=2 2 2 2 2 2
left_child=1 -1 -3 4 -2 -4
right_child=3 2 5 -5 -6 -7
leaf_value=0.0027729712329976311 -0.010486521594372647 -0.0043586196669447956 0.0017085795180420864 -0.0082420862166649143 -0.020331715273349312 0.0025059381531791838
leaf_weight=11.82562079280615 0.58364146505482395 3.5034830188378683 5.355520021170376 4.4770652814768255 0.033290142251644284 6.7940762173384428
leaf_count=18 32 28 22 78 12 20
internal_value=0 0.0159024 0.00696701 -0.0857825 -0.110178 0.0215446
internal_weight=0 27.4787 15.6531 5.094 0.616932 12.1496
internal_count=210 88 70 122 44 42
shrinkage=0.1


Tree=53
num_leaves=7
num_cat=0
split_feature=0 0 0 0 0 0
split_gain=0.042966 0.00281219 0.0110762 0.000374575 0.000287843 0.000180726
threshold=0.35000000000000003 1.0000000180025095e-35 0.15000000000000005 0.75000000000000011 0.45000000000000007 0.25000000000000006
decision_type=2 2 2 2 2 2
left_child=1 -1 -3 4 -2 -4
right_child=3 2 5 -5 -6 -7
leaf_value=0.0027274242188914406 -0.010237119569608466 -0.0042714690810731646 0.0016781895725444123 -0.0081217389747797117 -0.019824656471829464 0.0024551759905550728
leaf_weight=11.824298590421678 0.5827152410056432 3.5011603715829542 5.3542558494955284 4.4730552001856267 0.033092543832026422 6.7898152116686106
leaf_count=18 32 28 22 78 12 20
internal_value=0 0.0156357 0.0068395 -0.0844007 -0.107523 0.0211261
internal_weight=0 27.4695 15.6452 5.08886 0.615808 12.1441
internal_count=210 88 70 122 44 42
shrinkage=0.1


Tree=54
num_leaves=7
num_cat=0
split_feature=0 0 0 0 0 0
split_gain=0.0415665 0.00272461 0.0106423 0.000335476 0.000271756 0.00017191
threshold=0.35000000000000003 1.0000000180025095e-35 0.15000000000000005 0.75000000000000011 0.45000000000000007 0.25000000000000006
decision_type=2 2 2 2 2 2
left_child=1 -1 -3 4 -2 -4
right_child=3 2 5 -5 -6 -7
leaf_value=0.002683276214485047 -0.0099962453536227569 -0.0041874638998103944 0.0016484987690014268 -0.0080046856302280651 -0.019337515774772607 0.0024064494823894046
leaf_weight=11.822995856404306 0.58182571479119261 3.4989150660112491 5.3530312292277795 4.4691559446509928 0.032904797961236909 6.7856524530798197
leaf_count=18 32 28 22 78 12 20
internal_value=0 0.0153772 0.006716 -0.0830596 -0.104963 0.020722
internal_weight=0 27.4606 15.6376 5.08389 0.614731 12.1387
internal_count=210 88 70 122 44 42
shrinkage=0.1


Tree=55
num_leaves=7
num_cat=0
split_feature=0 0 0 0 0 0
split_gain=0.0402338 0.00264064 0.0102279 0.000300103 0.00025686 0.000163357
threshold=0.35000000000000003 1.0000000180025095e-35 0.15000000000000005 0.75000000000000011 0.45000000000000007 0.25000000000000006
decision_type=2 2 2 2 2 2
left_child=1 -1 -3 4 -2 -4
right_child=3 2 5 -5 -6 -7
leaf_value=0.0026404469866160192 -0.009763898406445223 -0.004105359974631918 0.0016199620540144231 -0.0078910411373937124 -0.01886931711902895 0.0023589604165298521
leaf_weight=11.821701824665071 0.58097401517443259 3.4967304198071352 5.3518433067947608 4.4653698683250695 0.032726303688832559 6.7815855089575052
leaf_count=18 32 28 22 78 12 20
internal_value=0 0.015127 0.00659746 -0.0817601 -0.102495 0.02033
internal_weight=0 27.4519 15.6302 5.07907 0.6137 12.1334
internal_count=210 88 70 122 44 42
shrinkage=0.1


Tree=56
num_leaves=7
num_cat=0
split_feature=0 0 0 0 0 0
split_gain=0.0389629 0.00256024 0.00983746 0.000268164 0.000243066 0.000155881
threshold=0.35000000000000003 1.0000000180025095e-35 0.15000000000000005 0.75000000000000011 0.45000000000000007 0.25000000000000006
decision_type=2 2 2 2 2 2
left_child=1 -1 -3 4 -2 -4
right_child=3 2 5 -5 -6 -7
leaf_value=0.0025988840392768865 -0.0095397785359106497 -0.0040264552289278541 0.0015918053616901424 -0.0077805278876505388 -0.018419498787848133 0.0023138316483571168
leaf_weight=11.820432327687742 0.58015745459124346 3.4946228363551191 5.3506904207169992 4.4616863129194826 0.03255651838844642 6.7776128463447094
leaf_count=18 32 28 22 78 12 20
internal_value=0 0.0148847 0.00648315 -0.0804992 -0.100116 0.0199529
internal_weight=0 27.4434 15.6229 5.0744 0.612714 12.1283
internal_count=210 88 70 122 44 42
shrinkage=0.1


Tree=57
num_leaves=7
num_cat=0
split_feature=0 0 0 0 0 0
split_gain=0.0377484 0.00248283 0.00946585 0.000239219 0.000230286 0.000148357
threshold=0.35000000000000003 1.0000000180025095e-35 0.15000000000000005 0.75000000000000011 0.45000000000000007 0.25000000000000006
decision_type=2 2 2 2 2 2
left_child=1 -1 -3 4 -2 -4
right_child=3 2 5 -5 -6 -7
leaf_value=0.0025584196239421524 -0.009322909006558789 -0.0039497310632071831 0.0015651602675635619 -0.0076729178193393173 -0.017986753929191874 0.0022696774363390819
leaf_weight=11.819179691374304 0.57937321078497817 3.4925793940201393 5.3495676275342685 4.4581008448731154 0.032394767476944253 6.7737239375710487
leaf_count=18 32 28 22 78 12 20
internal_value=0 0.0146494 0.00637323 -0.0792738 -0.0978168 0.019588
internal_weight=0 27.4351 15.6159 5.06987 0.611768 12.1233
internal_count=210 88 70 122 44 42
shrinkage=0.1


Tree=58
num_leaves=7
num_cat=0
split_feature=0 0 0 0 0 0
split_gain=0.0365905 0.00240847 0.00911228 0.000212958 0.000218411 0.000141862
threshold=0.35000000000000003 1.0000000180025095e-35 0.15000000000000005 0.75000000000000011 0.45000000000000007 0.25000000000000006
decision_type=2 2 2 2 2 2
left_child=1 -1 -3 4 -2 -4
right_child=3 2 5 -5 -6 -7
leaf_value=0.0025191214560029178 -0.0091131640680330289 -0.0038751632719117844 0.0015385791571907058 -0.0075684625371377733 -0.017570059976008936 0.0022276256707495163
leaf_weight=11.817943975329401 0.5786185315810134 3.4905913034453979 5.3484794422984105 4.4546177620068192 0.03224051087454427 6.7699184995144606
leaf_count=18 32 28 22 78 12 20
internal_value=0 0.0144216 0.00626773 -0.0780857 -0.0955951 0.0192351
internal_weight=0 27.4269 15.609 5.06548 0.610859 12.1184
internal_count=210 88 70 122 44 42
shrinkage=0.1


Tree=59
num_leaves=7
num_cat=0
split_feature=0 0 0 0 0 0
split_gain=0.0354815 0.00233645 0.00877592 0.000189356 0.000207363 0.000135277
threshold=0.35000000000000003 1.0000000180025095e-35 0.15000000000000005 0.75000000000000011 0.45000000000000007 0.25000000000000006
decision_type=2 2 2 2 2 2
left_child=1 -1 -3 4 -2 -4
right_child=3 2 5 -5 -6 -7
leaf_value=0.002480728852317194 -0.0089107182089718726 -0.0038026992017142092 0.0015135127828206016 -0.0074664783533513026 -0.017169079470357933 0.0021864970784003872
leaf_weight=11.81672126054764 0.57789581152610381 3.4886667300015679 5.3474171534180623 4.4512194462586194 0.032093408444779925 6.7661939226090908
leaf_count=18 32 28 22 78 12 20
internal_value=0 0.0142001 0.0061666 -0.0769291 -0.0934522 0.0188942
internal_weight=0 27.419 15.6023 5.06121 0.609989 12.1136
internal_count=210 88 70 122 44 42
shrinkage=0.1


Tree=60
num_leaves=7
num_cat=0
split_feature=0 0 0 0 0 0
split_gain=0.0344232 0.00226747 0.00845767 0.000167944 0.000197084 0.000129635
threshold=0.35000000000000003 1.0000000180025095e-35 0.15000000000000005 0.75000000000000011 0.45000000000000007 0.25000000000000006
decision_type=2 2 2 2 2 2
left_child=1 -1 -3 4 -2 -4
right_child=3 2 5 -5 -6 -7
leaf_value=0.0024434766295709331 -0.0087147297630895994 -0.003732804587701258 0.0014885616411971557 -0.0073674605686173183 -0.016782811072407013 0.0021474761015473375
leaf_weight=11.815526373684408 0.57720088120549817 3.486801417078822 5.3463818375021201 4.4479147640522569 0.031952907171216793 6.7625514548271894
leaf_count=18 32 28 22 78 12 20
internal_value=0 0.0139856 0.00606915 -0.0758072 -0.0913794 0.0185655
internal_weight=0 27.4113 15.5957 5.05707 0.609154 12.1089
internal_count=210 88 70 122 44 42
shrinkage=0.1


Tree=61
num_leaves=7
num_cat=0
split_feature=0 0 0 0 0 0
split_gain=0.0334079 0.0022013 0.00815224 0.000148644 0.000187491 0.000123975
threshold=0.35000000000000003 1.0000000180025095e-35 0.15000000000000005 0.75000000000000011 0.45000000000000007 0.25000000000000006
decision_type=2 2 2 2 2 2
left_child=1 -1 -3 4 -2 -4
right_child=3 2 5 -5 -6 -7
leaf_value=0.0024072087258308161 -0.0085249730949674089 -0.0036643886601696535 0.0014645869566281557 -0.0072707135403658404 -0.016410206183041412 0.0021090654805092012
leaf_weight=11.814339607954027 0.57653271546587248 3.4849836672656229 5.3453771620988828 4.4446900179609656 0.031818577030207962 6.7589775305241346
leaf_count=18 32 28 22 78 12 20
internal_value=0 0.0137767 0.00597431 -0.0747137 -0.0893739 0.0182446
internal_weight=0 27.4037 15.5893 5.05304 0.608351 12.1044
internal_count=210 88 70 122 44 42
shrinkage=0.1


Tree=62
num_leaves=7
num_cat=0
split_feature=0 0 0 0 0 0
split_gain=0.0324373 0.00213761 0.00786218 0.000131152 0.000178549 0.000118935
threshold=0.35000000000000003 1.0000000180025095e-35 0.15000000000000005 0.75000000000000011 0.45000000000000007 0.25000000000000006
decision_type=2 2 2 2 2 2
left_child=1 -1 -3 4 -2 -4
right_child=3 2 5 -5 -6 -7
leaf_value=0.0023719229166788728 -0.0083410304847285448 -0.003598124233519013 0.0014409872034344855 -0.0071766736869062183 -0.016050930918013854 0.0020723326883464606
leaf_weight=11.81316949427128 0.57588870555627991 3.4832184026017776 5.3443946521729213 4.4415516585577279 0.031690103467553854 6.7554816994816065
leaf_count=18 32 28 22 78 12 20
internal_value=0 0.013574 0.00588314 -0.0736517 -0.0874316 0.0179347
internal_weight=0 27.3963 15.5831 5.04913 0.607579 12.0999
internal_count=210 88 70 122 44 42
shrinkage=0.1


Tree=63
num_leaves=7
num_cat=0
split_feature=0 0 0 0 0 0
split_gain=0.0315072 0.00207672 0.00758522 0.000115439 0.000170179 0.000114142
threshold=0.35000000000000003 1.0000000180025095e-35 0.15000000000000005 0.75000000000000011 0.45000000000000007 0.25000000000000006
decision_type=2 2 2 2 2 2
left_child=1 -1 -3 4 -2 -4
right_child=3 2 5 -5 -6 -7
leaf_value=0.0023376550340855301 -0.0081631809187351356 -0.0035336791671412766 0.0014180120394184127 -0.007084956764416896 -0.015704306253025713 0.0020366077928602815
leaf_weight=11.812018238008024 0.57527156500145693 3.4815023439005008 5.3434385843574983 4.4384909449145198 0.031567132828058675 6.7520535010844469
leaf_count=18 32 28 22 78 12 20
internal_value=0 0.013377 0.00579434 -0.0726183 -0.0855546 0.0176333
internal_weight=0 27.389 15.577 5.04533 0.606839 12.0955
internal_count=210 88 70 122 44 42
shrinkage=0.1


Tree=64
num_leaves=7
num_cat=0
split_feature=0 0 0 0 0 0
split_gain=0.0306129 0.00201657 0.00732247 0.000109554 0.000101231 0.000162375
threshold=0.35000000000000003 1.0000000180025095e-35 0.15000000000000005 0.25000000000000006 0.75000000000000011 0.45000000000000007
decision_type=2 2 2 2 2 2
left_child=1 -1 -3 -4 5 -2
right_child=4 2 3 -5 -6 -7
leaf_value=0.002303838931479204 -0.0079901919485269712 -0.0034711869685170836 0.0013961309869096503 0.0020022617562060279 -0.0069952714147928398 -0.015369639705660094
leaf_weight=11.810882620513441 0.5746740511385714 3.4798395233228794 5.3424980826675874 6.7486921865493059 4.4354990383144468 0.031449271380552091
leaf_count=18 32 28 22 20 78 12
internal_value=0 0.0131849 0.0057108 0.0173444 -0.0716092 -0.0837308
internal_weight=0 27.3819 15.571 12.0912 5.04162 0.606123
internal_count=210 88 70 42 122 44
shrinkage=0.1


Tree=65
num_leaves=7
num_cat=0
split_feature=0 0 0 0 0 0
split_gain=0.0297572 0.00195983 0.00707032 0.0001051 8.84833e-05 0.000155065
threshold=0.35000000000000003 1.0000000180025095e-35 0.15000000000000005 0.25000000000000006 0.75000000000000011 0.45000000000000007
decision_type=2 2 2 2 2 2
left_child=1 -1 -3 -4 5 -2
right_child=4 2 3 -5 -6 -7
leaf_value=0.0022712208499431402 -0.0078229580612317242 -0.0034102115595544555 0.001374761683175662 0.0019685349694459455 -0.0069080210027739342 -0.015046868484416885
leaf_weight=11.809763193130495 0.57410173281095822 3.4782169433310619 5.3415834475308639 6.7453970164060593 4.4325864466372877 0.031336479456513189
leaf_count=18 32 28 22 20 78 12
internal_value=0 0.0129984 0.00562826 0.0170613 -0.0706291 -0.0819686
internal_weight=0 27.375 15.5652 12.087 5.03802 0.605438
internal_count=210 88 70 42 122 44
shrinkage=0.1


Tree=66
num_leaves=7
num_cat=0
split_feature=0 0 0 0 0 0
split_gain=0.0289354 0.00190554 0.00682908 0.000100892 7.69851e-05 0.000148196
threshold=0.35000000000000003 1.0000000180025095e-35 0.15000000000000005 0.25000000000000006 0.75000000000000011 0.45000000000000007
decision_type=2 2 2 2 2 2
left_child=1 -1 -3 -4 5 -2
right_child=4 2 3 -5 -6 -7
leaf_value=0.0022395029121041773 -0.0076604052225853871 -0.00335084594504074 0.0013538598833273859 0.0019357159002373866 -0.006822864143991015 -0.014734286034299694
leaf_weight=11.808659516274931 0.57354952220339228 3.4766374789178363 5.3406936638057214 6.7421631030738354 4.4297430348815396 0.031228039297275245
leaf_count=18 32 28 22 20 78 12
internal_value=0 0.0128168 0.0055476 0.0167853 -0.0696735 -0.0802567
internal_weight=0 27.3682 15.5595 12.0829 5.03452 0.604778
internal_count=210 88 70 42 122 44
shrinkage=0.1


Tree=67
num_leaves=7
num_cat=0
split_feature=0 0 0 0 0 0
split_gain=0.0281459 0.00185196 0.00659975 9.71371e-05 6.66675e-05 0.000141774
threshold=0.35000000000000003 1.0000000180025095e-35 0.15000000000000005 0.25000000000000006 0.75000000000000011 0.45000000000000007
decision_type=2 2 2 2 2 2
left_child=1 -1 -3 -4 5 -2
right_child=4 2 3 -5 -6 -7
leaf_value=0.0022082432996879931 -0.0075025788000008149 -0.0032931806281258553 0.0013334864487665125 0.0019044968651272386 -0.0067397322504411661 -0.014432623715083038
leaf_weight=11.807574249804022 0.57301580149214615 3.4751034025102845 5.3398190643638355 6.7389894556254148 4.4269660814898089 0.031124077606364157
leaf_count=18 32 28 22 20 78 12
internal_value=0 0.01264 0.00547182 0.0165206 -0.0687421 -0.078596
internal_weight=0 27.3615 15.5539 12.0788 5.03111 0.60414
internal_count=210 88 70 42 122 44
shrinkage=0.1


Tree=68
num_leaves=7
num_cat=0
split_feature=0 0 0 0 0 0
split_gain=0.0273867 0.00180129 0.00637952 9.35029e-05 5.74752e-05 0.00013572
threshold=0.35000000000000003 1.0000000180025095e-35 0.15000000000000005 0.25000000000000006 0.75000000000000011 0.45000000000000007
decision_type=2 2 2 2 2 2
left_child=1 -1 -3 -4 5 -2
right_child=4 2 3 -5 -6 -7
leaf_value=0.0021779908831548091 -0.0073496709228513223 -0.0032369553925330878 0.0013135050943198035 0.0018738142568404594 -0.0066584561568953623 -0.014140644144093314
leaf_weight=11.806501470506193 0.5725039083044966 3.4736068821512154 5.3389662075787765 6.7358769960701466 4.424251198885031 0.031024168914882463
leaf_count=18 32 28 22 20 78 12
internal_value=0 0.0124676 0.00539644 0.0162607 -0.0678333 -0.0769876
internal_weight=0 27.355 15.5485 12.0748 5.02778 0.603528
internal_count=210 88 70 42 122 44
shrinkage=0.1


Tree=69
num_leaves=7
num_cat=0
split_feature=0 0 0 0 0 0
split_gain=0.0266579 0.00175162 0.00616946 8.98969e-05 4.92335e-05 0.000130047
threshold=0.35000000000000003 1.0000000180025095e-35 0.15000000000000005 0.25000000000000006 0.75000000000000011 0.45000000000000007
decision_type=2 2 2 2 2 2
left_child=1 -1 -3 -4 5 -2
right_child=4 2 3 -5 -6 -7
leaf_value=0.002148284149740224 -0.0072010220805980192 -0.0031821974260841665 0.0012945628408292634 0.00184404060737457 -0.0065792420623978585 -0.01385846367835631
leaf_weight=11.805440671741964 0.57200902805197884 3.4721477371640495 5.3381266016513091 6.7328248526901007 4.4216048162197694 0.030928236359613948
leaf_count=18 32 28 22 20 78 12
internal_value=0 0.0122999 0.00532525 0.0160105 -0.0669483 -0.0754252
internal_weight=0 27.3485 15.5431 12.071 5.02454 0.602937
internal_count=210 88 70 42 122 44
shrinkage=0.1


Tree=70
num_leaves=7
num_cat=0
split_feature=0 0 0 0 0 0
split_gain=0.0259558 0.00170389 0.00596811 8.69487e-05 4.19074e-05 0.000124706
threshold=0.35000000000000003 1.0000000180025095e-35 0.15000000000000005 0.25000000000000006 0.75000000000000011 0.45000000000000007
decision_type=2 2 2 2 2 2
left_child=1 -1 -3 -4 5 -2
right_child=4 2 3 -5 -6 -7
leaf_value=0.0021193069494300581 -0.0070566182788977779 -0.0031288320433780596 0.0012752054249880081 0.0018156741385561008 -0.0065017032936451257 -0.013585305178783619
leaf_weight=11.804402723908426 0.57153206132352252 3.47072844300419 5.337310813367365 6.7298252899199724 4.4190127227921039 0.030835938785457984
leaf_count=18 32 28 22 20 78 12
internal_value=0 0.0121362 0.00525556 0.0157662 -0.0660836 -0.0739083
internal_weight=0 27.3423 15.5379 12.0671 5.02138 0.602368
internal_count=210 88 70 42 122 44
shrinkage=0.1


Tree=71
num_leaves=7
num_cat=0
split_feature=0 0 0 0 0 0
split_gain=0.0252797 0.00165799 0.00577503 8.3849e-05 3.53929e-05 0.000119678
threshold=0.35000000000000003 1.0000000180025095e-35 0.15000000000000005 0.25000000000000006 0.75000000000000011 0.45000000000000007
decision_type=2 2 2 2 2 2
left_child=1 -1 -3 -4 5 -2
right_child=4 2 3 -5 -6 -7
leaf_value=0.0020910446252350341 -0.0069161366490653846 -0.0030767845775998221 0.0012568074542374859 0.0017876283914367735 -0.0064258917601094064 -0.013320732393656274
leaf_weight=11.803373344242575 0.571071368874981 3.4693422541022292 5.3365094382315856 6.7268769629299641 4.4164789583301172 0.030747104945476167
leaf_count=18 32 28 22 20 78 12
internal_value=0 0.0119765 0.00518756 0.0155281 -0.0652393 -0.0724335
internal_weight=0 27.3361 15.5327 12.0634 5.0183 0.601818
internal_count=210 88 70 42 122 44
shrinkage=0.1


Tree=72
num_leaves=7
num_cat=0
split_feature=0 0 0 0 0 0
split_gain=0.0246292 0.00161299 0.00559101 8.07024e-05 2.96179e-05 0.000114935
threshold=0.35000000000000003 1.0000000180025095e-35 0.15000000000000005 0.25000000000000006 0.75000000000000011 0.45000000000000007
decision_type=2 2 2 2 2 2
left_child=1 -1 -3 -4 5 -2
right_child=4 2 3 -5 -6 -7
leaf_value=0.0020632620783416467 -0.0067795047409539844 -0.0030262018220200701 0.0012394793856445243 0.0017603162988999441 -0.0063518740854927608 -0.01306434962385355
leaf_weight=11.8023634031415 0.57062648457940568 3.4679969311691812 5.3357199039310199 6.7239813394844532 4.4140029203845188 0.030661509197670966
leaf_count=18 32 28 22 20 78 12
internal_value=0 0.0118208 0.0051231 0.0152988 -0.0644157 -0.0709999
internal_weight=0 27.3301 15.5277 12.0597 5.01529 0.601288
internal_count=210 88 70 42 122 44
shrinkage=0.1


Tree=73
num_leaves=7
num_cat=0
split_feature=0 0 0 0 0 0
split_gain=0.024003 0.0015703 0.00541367 7.81677e-05 2.45374e-05 0.000110463
threshold=0.35000000000000003 1.0000000180025095e-35 0.15000000000000005 0.25000000000000006 0.75000000000000011 0.45000000000000007
decision_type=2 2 2 2 2 2
left_child=1 -1 -3 -4 5 -2
right_child=4 2 3 -5 -6 -7
leaf_value=0.0020363379092367189 -0.006646729589984475 -0.0029767306272151105 0.0012215181327562474 0.001734179017713887 -0.0062795344281707938 -0.01281607058734905
leaf_weight=11.801365315914156 0.5701976630371054 3.4666753746569148 5.3349508512765151 6.7211427986621857 4.4115836285054684 0.030579130747355521
leaf_count=18 32 28 22 20 78 12
internal_value=0 0.011669 0.00505905 0.0150732 -0.0636118 -0.0696074
internal_weight=0 27.3241 15.5228 12.0561 5.01236 0.600777
internal_count=210 88 70 42 122 44
shrinkage=0.1


Tree=74
num_leaves=7
num_cat=0
split_feature=0 0 0 0 0 0
split_gain=0.0233991 0.00152895 0.00524358 7.54072e-05 2.00975e-05 0.000106224
threshold=0.35000000000000003 1.0000000180025095e-35 0.15000000000000005 0.25000000000000006 0.75000000000000011 0.45000000000000007
decision_type=2 2 2 2 2 2
left_child=1 -1 -3 -4 5 -2
right_child=4 2 3 -5 -6 -7
leaf_value=0.0020099807202417059 -0.0065176975862623297 -0.00292845621845211 0.0012046578201008245 0.001708251242941801 -0.006208716693681119 -0.012575111414502439
leaf_weight=11.800379805266859 0.56978474499191989 3.4653895432129493 5.3341953288763744 6.718349264934659 4.4092137244297192 0.030499632557621226
leaf_count=18 32 28 22 20 78 12
internal_value=0 0.0115208 0.00499697 0.0148537 -0.0628262 -0.0682547
internal_weight=0 27.3183 15.5179 12.0525 5.0095 0.600284
internal_count=210 88 70 42 122 44
shrinkage=0.1


Tree=75
num_leaves=7
num_cat=0
split_feature=0 0 0 0 0 0
split_gain=0.0228169 0.00148829 0.00508019 7.27895e-05 1.62204e-05 0.000102236
threshold=0.35000000000000003 1.0000000180025095e-35 0.15000000000000005 0.25000000000000006 0.75000000000000011 0.45000000000000007
decision_type=2 2 2 2 2 2
left_child=1 -1 -3 -4 5 -2
right_child=4 2 3 -5 -6 -7
leaf_value=0.0019840212693695708 -0.006391973779615462 -0.0028811386610343198 0.0011883293086637171 0.0016831685315530462 -0.0061394704878739888 -0.012341799835963212
leaf_weight=11.799412824213507 0.56938467168947582 3.4641344738192847 5.3334546256810409 6.7155982796102762 4.4068962145829573 0.030423044547205791
leaf_count=18 32 28 22 20 78 12
internal_value=0 0.0113761 0.00493821 0.0146413 -0.0620587 -0.0669376
internal_weight=0 27.3126 15.5132 12.0491 5.0067 0.599808
internal_count=210 88 70 42 122 44
shrinkage=0.1


Tree=76
num_leaves=7
num_cat=0
split_feature=0 0 0 0 0 0
split_gain=0.0222559 0.00144947 0.00492406 7.04538e-05 1.28684e-05 9.84494e-05
threshold=0.35000000000000003 1.0000000180025095e-35 0.15000000000000005 0.25000000000000006 0.75000000000000011 0.45000000000000007
decision_type=2 2 2 2 2 2
left_child=1 -1 -3 -4 5 -2
right_child=4 2 3 -5 -6 -7
leaf_value=0.001958785292109837 -0.0062696727741864472 -0.0028352876424732687 0.0011720681563818763 0.0016589651084462202 -0.0060717833834385455 -0.012115119850644672
leaf_weight=11.798455722630026 0.5689985475037237 3.462909164838492 5.3327259160578233 6.7129047960042953 4.4046292783459648 0.030349068823852576
leaf_count=18 32 28 22 20 78 12
internal_value=0 0.0112349 0.00488018 0.0144341 -0.0613094 -0.0656567
internal_weight=0 27.307 15.5085 12.0456 5.00398 0.599348
internal_count=210 88 70 42 122 44
shrinkage=0.1


Tree=77
num_leaves=7
num_cat=0
split_feature=0 0 0 0 0 0
split_gain=0.0217135 0.00141235 0.00477421 6.82231e-05 1.00012e-05 9.48731e-05
threshold=0.35000000000000003 1.0000000180025095e-35 0.15000000000000005 0.25000000000000006 0.75000000000000011 0.45000000000000007
decision_type=2 2 2 2 2 2
left_child=1 -1 -3 -4 5 -2
right_child=4 2 3 -5 -6 -7
leaf_value=0.001934196328406766 -0.0061505056935624997 -0.0027906783814373908 0.0011560958032235482 0.001635282339844893 -0.0060053799934893549 -0.011895310961157896
leaf_weight=11.797514081001284 0.56862598209408943 3.4617131217382839 5.3320136088877899 6.7102549765259027 4.4024059573421255 0.030277704761829227
leaf_count=18 32 28 22 20 78 12
internal_value=0 0.0110967 0.0048226 0.0142311 -0.0605754 -0.0644094
internal_weight=0 27.3015 15.504 12.0423 5.00131 0.598904
internal_count=210 88 70 42 122 44
shrinkage=0.1


Tree=78
num_leaves=7
num_cat=0
split_feature=0 0 0 0 0 0
split_gain=0.0211905 0.00137629 0.00462987 6.60133e-05 7.56494e-06 9.14936e-05
threshold=0.35000000000000003 1.0000000180025095e-35 0.15000000000000005 0.25000000000000006 0.75000000000000011 0.45000000000000007
decision_type=2 2 2 2 2 2
left_child=1 -1 -3 -4 5 -2
right_child=4 2 3 -5 -6 -7
leaf_value=0.0019101129496949473 -0.0060343356833898881 -0.0027469403532588339 0.0011406744361643348 0.0016120942938177764 -0.0059404733989491428 -0.011682087124403955
leaf_weight=11.796585261821749 0.56826510053360735 3.4605431356467298 5.3313146755099279 6.7076461315155029 4.4002327229827642 0.030208832089556381
leaf_count=18 32 28 22 20 78 12
internal_value=0 0.0109618 0.00476709 0.0140333 -0.0598584 -0.0631941
internal_weight=0 27.2961 15.4995 12.039 4.99871 0.598474
internal_count=210 88 70 42 122 44
shrinkage=0.1


Tree=79
num_leaves=7
num_cat=0
split_feature=0 0 0 0 0 0
split_gain=0.0206847 0.00134027 0.00449085 6.38812e-05 5.5458e-06 8.82657e-05
threshold=0.35000000000000003 1.0000000180025095e-35 0.15000000000000005 0.25000000000000006 0.75000000000000011 0.45000000000000007
decision_type=2 2 2 2 2 2
left_child=1 -1 -3 -4 5 -2
right_child=4 2 3 -5 -6 -7
leaf_value=0.0018861835715607836 -0.0059214648779521914 -0.0027038835361127061 0.0011258692199145584 0.0015896700479378402 -0.0058767821591160221 -0.011474608100237427
leaf_weight=11.795670598745348 0.5679174191900519 3.4594006673432878 5.3306243866682035 6.7050747387111187 4.3980982261709869 0.030142107847495936
leaf_count=18 32 28 22 20 78 12
internal_value=0 0.0108298 0.00471544 0.0138425 -0.0591563 -0.0620134
internal_weight=0 27.2908 15.4951 12.0357 4.99616 0.59806
internal_count=210 88 70 42 122 44
shrinkage=0.1


Tree=80
num_leaves=7
num_cat=0
split_feature=0 0 0 0 0 0
split_gain=0.0201968 0.00130663 0.00435734 6.18599e-05 3.87801e-06 8.52183e-05
threshold=0.35000000000000003 1.0000000180025095e-35 0.15000000000000005 0.25000000000000006 0.75000000000000011 0.45000000000000007
decision_type=2 2 2 2 2 2
left_child=1 -1 -3 -4 5 -2
right_child=4 2 3 -5 -6 -7
leaf_value=0.0018631482805280743 -0.005811159717910107 -0.0026621336195072286 0.0011111358418171347 0.0015675940452232384 -0.0058145501622978019 -0.011273224533287227
leaf_weight=11.794768437743189 0.56758057663682748 3.4582847012206903 5.3299508299678546 6.7025532219558954 4.3960114800138399 0.030077687799348496
leaf_count=18 32 28 22 20 78 12
internal_value=0 0.010701 0.00466262 0.013654 -0.0584704 -0.0608604
internal_weight=0 27.2856 15.4908 12.0325 4.99367 0.597658
internal_count=210 88 70 42 122 44
shrinkage=0.1


Tree=81
num_leaves=7
num_cat=0
split_feature=0 0 0 0 0 0
split_gain=0.0197251 0.00127359 0.00422956 5.98371e-05 2.55305e-06 8.23174e-05
threshold=0.35000000000000003 1.0000000180025095e-35 0.15000000000000005 0.25000000000000006 0.75000000000000011 0.45000000000000007
decision_type=2 2 2 2 2 2
left_child=1 -1 -3 -4 5 -2
right_child=4 2 3 -5 -6 -7
leaf_value=0.0018404495314304178 -0.0057038318889316006 -0.0026214612301047316 0.0010971066247058767 0.001546092089173109 -0.0057535275885401953 -0.011077493574428332
leaf_weight=11.793876372277738 0.56725554884178464 3.4571954156272104 5.3292843326926214 6.7000750210136175 4.3939654075074941 0.030015372874913737
leaf_count=18 32 28 22 20 78 12
internal_value=0 0.0105749 0.00461227 0.0134718 -0.057799 -0.0597388
internal_weight=0 27.2804 15.4866 12.0294 4.99124 0.597271
internal_count=210 88 70 42 122 44
shrinkage=0.1


Tree=82
num_leaves=7
num_cat=0
split_feature=0 0 0 0 0 0
split_gain=0.0192688 0.00124148 0.0041055 5.80503e-05 1.53019e-06 7.95632e-05
threshold=0.35000000000000003 1.0000000180025095e-35 0.15000000000000005 0.25000000000000006 0.75000000000000011 0.45000000000000007
decision_type=2 2 2 2 2 2
left_child=1 -1 -3 -4 5 -2
right_child=4 2 3 -5 -6 -7
leaf_value=0.0018181797723630826 -0.0055989913386854809 -0.0025812871180086543 0.0010829889210272527 0.0015252706221876131 -0.0056937287004371227 -0.010887113938906907
leaf_weight=11.792997203767301 0.56694010103819792 3.4561222642660132 5.3286328427493554 6.6976318918168545 4.391960387933068 0.029955036574392576
leaf_count=18 32 28 22 20 78 12
internal_value=0 0.0104516 0.00456345 0.013293 -0.0571415 -0.0586437
internal_weight=0 27.2754 15.4824 12.0263 4.98886 0.596895
internal_count=210 88 70 42 122 44
shrinkage=0.1


Tree=83
num_leaves=7
num_cat=0
split_feature=0 0 0 0 0 0
split_gain=0.018827 0.00121072 0.00398661 5.63661e-05 1.49724e-06 7.62447e-05
threshold=0.35000000000000003 1.0000000180025095e-35 0.15000000000000005 0.25000000000000006 0.45000000000000007 0.75000000000000011
decision_type=2 2 2 2 2 2
left_child=1 -1 -3 -4 -2 -6
right_child=4 2 3 -5 5 -7
leaf_value=0.0017964559864664842 -0.0054966604723017945 -0.0025423007897216153 0.001069094118568051 0.0015049619621574056 -0.010702232147374162 -0.0056350437123774922
leaf_weight=11.792131416499616 0.5666348960949098 3.4550780397839835 5.3279939368367177 6.695229010656476 0.02989670330134675 4.3899915845831856
leaf_count=18 32 28 22 20 12 78
internal_value=0 0.0103307 0.00451493 0.0131181 -0.056497 -0.0566932
internal_weight=0 27.2704 15.4783 12.0232 4.98652 4.41989
internal_count=210 88 70 42 122 90
shrinkage=0.1


Tree=84
num_leaves=7
num_cat=0
split_feature=0 0 0 0 0 0
split_gain=0.0184009 0.00118034 0.00387231 5.47885e-05 2.30453e-06 7.24656e-05
threshold=0.35000000000000003 1.0000000180025095e-35 0.15000000000000005 0.25000000000000006 0.45000000000000007 0.75000000000000011
decision_type=2 2 2 2 2 2
left_child=1 -1 -3 -4 -2 -6
right_child=4 2 3 -5 5 -7
leaf_value=0.0017750260678272647 -0.005396883118573708 -0.0025040688542425447 0.0010556334345377192 0.001485406105967703 -0.010522411061503817 -0.0055777467918369768
leaf_weight=11.79128358513117 0.56633950001560052 3.4540561782196155 5.3273631054908019 6.692862544208765 0.029840183196938489 4.3880676893750206
leaf_count=18 32 28 22 20 12 78
internal_value=0 0.0102129 0.00446946 0.0129493 -0.055868 -0.0561114
internal_weight=0 27.2656 15.4743 12.0202 4.98425 4.41791
internal_count=210 88 70 42 122 90
shrinkage=0.1


Tree=85
num_leaves=7
num_cat=0
split_feature=0 0 0 0 0 0
split_gain=0.0179868 0.00115091 0.00376173 5.30996e-05 3.24036e-06 6.88997e-05
threshold=0.35000000000000003 1.0000000180025095e-35 0.15000000000000005 0.25000000000000006 0.45000000000000007 0.75000000000000011
decision_type=2 2 2 2 2 2
left_child=1 -1 -3 -4 -2 -6
right_child=4 2 3 -5 5 -7
leaf_value=0.0017539836565417825 -0.0052996809958705624 -0.0024665470789414787 0.0010427612352993979 0.0014659045122579926 -0.010347145335888772 -0.0055212614578674839
leaf_weight=11.790439568459989 0.56605473009403695 3.4530542585998765 5.3267403393983823 6.6905321665108204 0.029785351231112037 4.3861713988007978
leaf_count=18 32 28 22 20 12 78
internal_value=0 0.010097 0.00442465 0.0127834 -0.0552494 -0.0555381
internal_weight=0 27.2608 15.4703 12.0173 4.98201 4.41596
internal_count=210 88 70 42 122 90
shrinkage=0.1


Tree=86
num_leaves=7
num_cat=0
split_feature=0 0 0 0 0 0
split_gain=0.017587 0.00112315 0.00365616 5.15686e-05 4.3067e-06 6.55298e-05
threshold=0.35000000000000003 1.0000000180025095e-35 0.15000000000000005 0.25000000000000006 0.45000000000000007 0.75000000000000011
decision_type=2 2 2 2 2 2
left_child=1 -1 -3 -4 -2 -6
right_child=4 2 3 -5 5 -7
leaf_value=0.0017336389639351643 -0.005204749875006299 -0.0024303825464402763 0.0010299273421221459 0.0014469709322843904 -0.010176635664260393 -0.005466067531758434
leaf_weight=11.789613522589208 0.56577915203524654 3.4520772830583146 5.3261317294090968 6.688244828954339 0.029732231050729641 4.3843190068146214
leaf_count=18 32 28 22 20 12 78
internal_value=0 0.00998394 0.00437939 0.0126209 -0.054645 -0.054978
internal_weight=0 27.2561 15.4665 12.0144 4.97983 4.41405
internal_count=210 88 70 42 122 90
shrinkage=0.1


Tree=87
num_leaves=7
num_cat=0
split_feature=0 0 0 0 0 0
split_gain=0.0171996 0.00109554 0.00355355 5.00182e-05 5.49471e-06 6.23424e-05
threshold=0.35000000000000003 1.0000000180025095e-35 0.15000000000000005 0.25000000000000006 0.45000000000000007 0.75000000000000011
decision_type=2 2 2 2 2 2
left_child=1 -1 -3 -4 -2 -6
right_child=4 2 3 -5 5 -7
leaf_value=0.0017134622520940512 -0.0051117776665418144 -0.0023945012331302029 0.0010176306193338746 0.001428400584117615 -0.010010474335927805 -0.0054119280168744783
leaf_weight=11.78879312425852 0.56551111943554033 3.4511168398894361 5.3255293164402229 6.6859909780323505 0.029680675972485804 4.3824991091387346
leaf_count=18 32 28 22 20 12 78
internal_value=0 0.00987311 0.0043369 0.0124628 -0.0540525 -0.0544286
internal_weight=0 27.2514 15.4626 12.0115 4.97769 4.41218
internal_count=210 88 70 42 122 90
shrinkage=0.1


Tree=88
num_leaves=7
num_cat=0
split_feature=0 0 0 0 0 0
split_gain=0.016824 0.00106883 0.00345519 4.84845e-05 6.77785e-06 5.93316e-05
threshold=0.35000000000000003 1.0000000180025095e-35 0.15000000000000005 0.25000000000000006 0.45000000000000007 0.75000000000000011
decision_type=2 2 2 2 2 2
left_child=1 -1 -3 -4 -2 -6
right_child=4 2 3 -5 5 -7
leaf_value=0.0016936911805086074 -0.0050211197494924717 -0.0023596384452530088 0.0010057564758833497 0.0014102220899882144 -0.0098486493907711942 -0.0053587543040235766
leaf_weight=11.787984915077688 0.56525194289861147 3.4501798362471154 5.3249369077384454 6.6837708968669176 0.029630668388563097 4.3807116786483675
leaf_count=18 32 28 22 20 12 78
internal_value=0 0.0097645 0.00429527 0.0123087 -0.0534714 -0.0538892
internal_weight=0 27.2469 15.4589 12.0087 4.97559 4.41034
internal_count=210 88 70 42 122 90
shrinkage=0.1


Tree=89
num_leaves=7
num_cat=0
split_feature=0 0 0 0 0 0
split_gain=0.01646 0.00104316 0.0033591 4.72192e-05 8.13573e-06 5.64916e-05
threshold=0.35000000000000003 1.0000000180025095e-35 0.15000000000000005 0.25000000000000006 0.45000000000000007 0.75000000000000011
decision_type=2 2 2 2 2 2
left_child=1 -1 -3 -4 -2 -6
right_child=4 2 3 -5 5 -7
leaf_value=0.0016743858933666398 -0.0049329076108638251 -0.0023250837359315726 0.000993445144319355 0.0013926390265210727 -0.0096912248897349489 -0.0053065351360345875
leaf_weight=11.787190131843092 0.56500260293250804 3.4492549495771518 5.3243596609681827 6.6815810147672892 0.029582198170828519 4.3789570622611791
leaf_count=18 32 28 22 20 12 78
internal_value=0 0.00965811 0.00425403 0.0121561 -0.0529017 -0.0533596
internal_weight=0 27.2424 15.4552 12.0059 4.97354 4.40854
internal_count=210 88 70 42 122 90
shrinkage=0.1


Tree=90
num_leaves=7
num_cat=0
split_feature=0 0 0 0 0 0
split_gain=0.0161071 0.00101797 0.0032675 4.57212e-05 9.58629e-06 5.38069e-05
threshold=0.35000000000000003 1.0000000180025095e-35 0.15000000000000005 0.25000000000000006 0.45000000000000007 0.75000000000000011
decision_type=2 2 2 2 2 2
left_child=1 -1 -3 -4 -2 -6
right_child=4 2 3 -5 5 -7
leaf_value=0.0016553408052373533 -0.004846416226295466 -0.0022916413473303469 0.0009822710600070042 0.0013751219991334895 -0.0095379331611247786 -0.0052553139627996926
leaf_weight=11.786405526101591 0.56475996290100638 3.4483540593646458 5.3237856756895763 6.6794261503964663 0.029535189256421176 4.3772350228391588
leaf_count=18 32 28 22 20 12 78
internal_value=0 0.00955378 0.00421448 0.0120088 -0.0523431 -0.0528402
internal_weight=0 27.238 15.4516 12.0032 4.97153 4.40677
internal_count=210 88 70 42 122 90
shrinkage=0.1


Tree=91
num_leaves=7
num_cat=0
split_feature=0 0 0 0 0 0
split_gain=0.0157649 0.000994283 0.00317932 4.44718e-05 1.11075e-05 5.12581e-05
threshold=0.35000000000000003 1.0000000180025095e-35 0.15000000000000005 0.25000000000000006 0.45000000000000007 0.75000000000000011
decision_type=2 2 2 2 2 2
left_child=1 -1 -3 -4 -2 -6
right_child=4 2 3 -5 5 -7
leaf_value=0.0016369232806818395 -0.0047618976321574412 -0.0022591988305985132 0.00097070205565873082 0.0013581868102268942 -0.0093882095856865425 -0.0052050333996489012
leaf_weight=11.785629495978357 0.56452507799258356 3.4474711325019589 5.3232227768748981 6.677312258630991 0.029489472988643569 4.3755445344140753
leaf_count=18 32 28 22 20 12 78
internal_value=0 0.00945153 0.00417386 0.0118631 -0.0517952 -0.0523304
internal_weight=0 27.2336 15.448 12.0005 4.96956 4.40503
internal_count=210 88 70 42 122 90
shrinkage=0.1


Tree=92
num_leaves=7
num_cat=0
split_feature=0 0 0 0 0 0
split_gain=0.015433 0.000970592 0.00309341 4.32779e-05 1.26963e-05 4.88507e-05
threshold=0.35000000000000003 1.0000000180025095e-35 0.15000000000000005 0.25000000000000006 0.45000000000000007 0.75000000000000011
decision_type=2 2 2 2 2 2
left_child=1 -1 -3 -4 -2 -6
right_child=4 2 3 -5 5 -7
leaf_value=0.0016186113744239752 -0.0046792270896163944 -0.0022269060777403479 0.00095945163996135241 0.0013417373447621775 -0.0092425311733274271 -0.0051557095604249422
leaf_weight=11.78486590832472 0.5642970158951347 3.4466027379967263 5.322669552639125 6.6752220559865236 0.029445121908793115 4.3738850310910493
leaf_count=18 32 28 22 20 12 78
internal_value=0 0.00935134 0.00413609 0.0117214 -0.0512581 -0.0518304
internal_weight=0 27.2294 15.4445 11.9979 4.96763 4.40333
internal_count=210 88 70 42 122 90
shrinkage=0.1


Tree=93
num_leaves=7
num_cat=0
split_feature=0 0 0 0 0 0
split_gain=0.0151113 0.000947775 0.00301027 4.21559e-05 1.43382e-05 4.65628e-05
threshold=0.35000000000000003 1.0000000180025095e-35 0.15000000000000005 0.25000000000000006 0.45000000000000007 0.75000000000000011
decision_type=2 2 2 2 2 2
left_child=1 -1 -3 -4 -2 -6
right_child=4 2 3 -5 5 -7
leaf_value=0.0016007109565806912 -0.0045984785329351669 -0.0021952434084916367 0.00094830432424134663 0.0013256383268373253 -0.0091001954492411566 -0.0051073101945543278
leaf_weight=11.784113593399526 0.56407697044778515 3.4457507943734518 5.3221269827336055 6.6731632780283689 0.029401944266282839 4.3722552990075201
leaf_count=18 32 28 22 20 12 78
internal_value=0 0.00925317 0.00409878 0.0115822 -0.0507315 -0.0513398
internal_weight=0 27.2252 15.441 11.9953 4.96573 4.40166
internal_count=210 88 70 42 122 90
shrinkage=0.1


Tree=94
num_leaves=7
num_cat=0
split_feature=0 0 0 0 0 0
split_gain=0.0147987 0.000925456 0.00293058 4.09942e-05 1.60123e-05 4.43984e-05
threshold=0.35000000000000003 1.0000000180025095e-35 0.15000000000000005 0.25000000000000006 0.45000000000000007 0.75000000000000011
decision_type=2 2 2 2 2 2
left_child=1 -1 -3 -4 -2 -6
right_child=4 2 3 -5 5 -7
leaf_value=0.001583075455298677 -0.0045197081412080451 -0.0021644569103397302 0.00093770778033203106 0.0013098422368547347 -0.008961431254019844 -0.0050596811904296303
leaf_weight=11.783371679484846 0.56386413733707641 3.444919536355882 5.321588655933736 6.6711333226412535 0.02935998533212103 4.3706516399979591
leaf_count=18 32 28 22 20 12 78
internal_value=0 0.00915683 0.0040627 0.0114471 -0.0502142 -0.0508572
internal_weight=0 27.221 15.4376 11.9927 4.96388 4.40001
internal_count=210 88 70 42 122 90
shrinkage=0.1


Tree=95
num_leaves=7
num_cat=0
split_feature=0 0 0 0 0 0
split_gain=0.0144954 0.000903568 0.00285329 3.98544e-05 1.77482e-05 4.23481e-05
threshold=0.35000000000000003 1.0000000180025095e-35 0.15000000000000005 0.25000000000000006 0.45000000000000007 0.75000000000000011
decision_type=2 2 2 2 2 2
left_child=1 -1 -3 -4 -2 -6
right_child=4 2 3 -5 5 -7
leaf_value=0.0015656855827341492 -0.0044423874737874432 -0.0021341043990005235 0.00092740584246156109 0.0012943649018639456 -0.0088262076414298632 -0.0050129783009412281
leaf_weight=11.782638527452947 0.56365659408038382 3.4441013736650339 5.3210571203380805 6.6691339965909719 0.029319246357772388 4.3690786503721029
leaf_count=18 32 28 22 20 12 78
internal_value=0 0.00906234 0.00402804 0.0113151 -0.0497069 -0.050384
internal_weight=0 27.2169 15.4343 11.9902 4.96205 4.3984
internal_count=210 88 70 42 122 90
shrinkage=0.1


Tree=96
num_leaves=7
num_cat=0
split_feature=0 0 0 0 0 0
split_gain=0.0142003 0.000883142 0.00277846 3.88799e-05 1.95064e-05 4.04036e-05
threshold=0.35000000000000003 1.0000000180025095e-35 0.15000000000000005 0.25000000000000006 0.45000000000000007 0.75000000000000011
decision_type=2 2 2 2 2 2
left_child=1 -1 -3 -4 -2 -6
right_child=4 2 3 -5 5 -7
leaf_value=0.0015489005916145505 -0.0043668602654219034 -0.0021045538367100557 0.0009167243897167818 0.0012792030059862753 -0.0086941455916099246 -0.0049669846801070529
leaf_weight=11.781914293766024 0.56345668679568817 3.4432966448366633 5.3205390814691764 6.6671653855592012 0.029279607195348837 4.367529611219652
leaf_count=18 32 28 22 20 12 78
internal_value=0 0.00896947 0.00399165 0.0111832 -0.0492081 -0.049918
internal_weight=0 27.2129 15.431 11.9877 4.96027 4.39681
internal_count=210 88 70 42 122 90
shrinkage=0.1


Tree=97
num_leaves=7
num_cat=0
split_feature=0 0 0 0 0 0
split_gain=0.013914 0.000862584 0.00270619 3.78126e-05 2.12857e-05 3.85503e-05
threshold=0.35000000000000003 1.0000000180025095e-35 0.15000000000000005 0.25000000000000006 0.45000000000000007 0.75000000000000011
decision_type=2 2 2 2 2 2
left_child=1 -1 -3 -4 -2 -6
right_child=4 2 3 -5 5 -7
leaf_value=0.0015321667771761418 -0.0042931344188031238 -0.0020754104488217399 0.00090681724223324375 0.0012643186773149762 -0.0085649063389427842 -0.0049218355602150682
leaf_weight=11.781200826168062 0.56326348171569307 3.4425107291899613 5.3200253490358573 6.6652225833386183 0.029240928364742905 4.3660079259425402
leaf_count=18 32 28 22 20 12 78
internal_value=0 0.00887847 0.00395821 0.0110563 -0.048719 -0.0494607
internal_weight=0 27.209 15.4278 11.9852 4.95851 4.39525
internal_count=210 88 70 42 122 90
shrinkage=0.1


Tree=98
num_leaves=7
num_cat=0
split_feature=0 0 0 0 0 0
split_gain=0.0136362 0.000842617 0.0026363 3.69402e-05 2.31149e-05 3.67956e-05
threshold=0.35000000000000003 1.0000000180025095e-35 0.15000000000000005 0.25000000000000006 0.45000000000000007 0.75000000000000011
decision_type=2 2 2 2 2 2
left_child=1 -1 -3 -4 -2 -6
right_child=4 2 3 -5 5 -7
leaf_value=0.0015157428351692539 -0.004220693447804685 -0.0020468369614955145 0.00089669811274821942 0.0012500831459871294 -0.0084390246918220699 -0.0048775510324693223
leaf_weight=11.780498370528223 0.56307476095389475 3.4417361351661375 5.3195187468081695 6.6633101683109999 0.029203359241364413 4.3645147975767031
leaf_count=18 32 28 22 20 12 78
internal_value=0 0.00878926 0.00392557 0.0109321 -0.0482392 -0.0490122
internal_weight=0 27.2051 15.4246 11.9828 4.95679 4.39372
internal_count=210 88 70 42 122 90
shrinkage=0.1


Tree=99
num_leaves=7
num_cat=0
split_feature=0 0 0 0 0 0
split_gain=0.0133654 0.000823776 0.00256896 3.58497e-05 2.49335e-05 3.51286e-05
threshold=0.35000000000000003 1.0000000180025095e-35 0.15000000000000005 0.25000000000000006 0.45000000000000007 0.75000000000000011
decision_type=2 2 2 2 2 2
left_child=1 -1 -3 -4 -2 -6
right_child=4 2 3 -5 5 -7
leaf_value=0.0014997960698374369 -0.0041500679224563165 -0.002019136384881018 0.00088728970383579518 0.0012354503772106029 -0.0083158868174018352 -0.0048338537180473368
leaf_weight=11.779803164303305 0.56289374514017154 3.4409799901768556 5.3190180789679271 6.6614246089011431 0.029166763561079168 4.3630428914912045
leaf_count=18 32 28 22 20 12 78
internal_value=0 0.0087014 0.0038917 0.0108088 -0.0477667 -0.0485698
internal_weight=0 27.2012 15.4214 11.9804 4.9551 4.39221
internal_count=210 88 70 42 122 90
shrinkage=0.1


end of trees

feature importances:
geographical=600

parameters:
[boosting: gbdt]
[objective: lambdarank]
[metric: ndcg]
[tree_learner: serial]
[device_type: cpu]
[data: ]
[valid: ]
[num_iterations: 100]
[learning_rate: 0.1]
[num_leaves: 16]
[num_threads: -1]
[max_depth: -1]
[min_data_in_leaf: 5]
[min_sum_hessian_in_leaf: 0.001]
[bagging_fraction: 1]
[pos_bagging_fraction: 1]
[neg_bagging_fraction: 1]
[bagging_freq: 0]
[bagging_seed: 3]
[feature_fraction: 1]
[feature_fraction_bynode: 1]
[feature_fraction_seed: 2]
[early_stopping_round: 0]
[first_metric_only: 0]
[max_delta_step: 0]
[lambda_l1: 0]
[lambda_l2: 0]
[min_gain_to_split: 0]
[drop_rate: 0.1]
[max_drop: 50]
[skip_drop: 0.5]
[xgboost_dart_mode: 0]
[uniform_drop: 0]
[drop_seed: 4]
[top_rate: 0.2]
[other_rate: 0.1]
[min_data_per_group: 100]
[max_cat_threshold: 32]
[cat_l2: 10]
[cat_smooth: 10]
[max_cat_to_onehot: 4]
[top_k: 20]
[monotone_constraints: ]
[feature_contri: ]
[forcedsplits_filename: ]
[forcedbins_filename: ]
[refit_decay_rate: 0.9]
[cegb_tradeoff: 1]
[cegb_penalty_split: 0]
[cegb_penalty_feature_lazy: ]
[cegb_penalty_feature_coupled: ]
[verbosity: -1]
[max_bin: 255]
[max_bin_by_feature: ]
[min_data_in_bin: 3]
[bin_construct_sample_cnt: 200000]
[histogram_pool_size: -1]
[data_random_seed: 1]
[output_model: LightGBM_model.txt]
[snapshot_freq: -1]
[input_model: ]
[output_result: LightGBM_predict_result.txt]
[initscore_filename: ]
[valid_data_initscores: ]
[pre_partition: 0]
[enable_bundle: 1]
[max_conflict_rate: 0]
[is_enable_sparse: 1]
[sparse_threshold: 0.8]
[use_missing: 1]
[zero_as_missing: 0]
[two_round: 0]
[save_binary: 0]
[header: 0]
[label_column: ]
[weight_column: ]
[group_column: ]
[ignore_column: ]
[categorical_feature: ]
[predict_raw_score: 0]
[predict_leaf_index: 0]
[predict_contrib: 0]
[num_iteration_predict: -1]
[pred_early_stop: 0]
[pred_early_stop_freq: 10]
[pred_early_stop_margin: 10]
[convert_model_language: ]
[convert_model: gbdt_prediction.cpp]
[num_class: 1]
[is_unbalance: 0]
[scale_pos_weight: 1]
[sigmoid: 1]
[boost_from_average: 1]
[reg_sqrt: 0]
[alpha: 0.9]
[fair_c: 1]
[poisson_max_delta_step: 0.7]
[tweedie_variance_power: 1.5]
[max_position: 20]
[lambdamart_norm: 1]
[label_gain: ]
[metric_freq: 1]
[is_provide_training_metric: 0]
[eval_at: 1]
[multi_error_top_k: 1]
[num_machines: 1]
[local_listen_port: 12400]
[time_out: 120]
[machine_list_filename: ]
[machines: ]
[gpu_platform_id: -1]
[gpu_device_id: -1]
[gpu_use_dp: 0]

end of parameters

pandas_categorical:null
