tree
version=v3
num_class=1
num_tree_per_iteration=1
label_index=0
max_feature_idx=0
objective=lambdarank
feature_names=word_overlap
feature_infos=[9.4781973583706424e-05:0.072113819101770907]
tree_sizes=1781 1783 1784 1789 1794 1801 1797 1807 1806 1808 1804 1809 1814 1810 1806 1811 1817 1821 1811 1811 1819 1823 1825 1818 1814 1823 1821 1826 1828 1830 1828 1831 1829 1833 1826 1840 1831 1829 1835 1836 1843 1843 1847 1841 1843 1831 1845 1837 1843 1841 1847 1845 1843 1838 1837 1847 1853 1837 1848 1847 1847 1843 1849 1840 1838 1848 1847 1861 1853 1852 1846 1850 1853 1857 1839 1853 1857 1849 1853 1846 1843 1845 1854 1869 1863 1863 1864 1858 1865 1856 1858 1868 1862 1863 1863 1885 1865 1868 1877 1858

Tree=0
num_leaves=16
num_cat=0
split_feature=0 0 0 0 0 0 0 0 0 0 0 0 0 0 0
split_gain=8.61059 3.7001 1.44306 1.53553 0.94142 1.04687 1.99178 1.85349 0.74316 1.529 0.171956 0.122871 0.12884 0.110961 0.140046
threshold=0.0094507608490938186 0.0036305583950912456 0.0034139475987942222 0.0032123904825280586 0.0027390048446439721 0.0010394289129215773 0.00040819260646470299 0.00022128672069112812 0.0022947574831414402 0.0024586477391523223 0.00033208591016369889 0.029669815641127726 0.012461600045750023 0.0045249144143414627 0.0057135858088470373
decision_type=2 2 2 2 2 2 2 2 2 2 2 2 2 2 2
left_child=1 2 3 4 5 6 7 -1 -7 -10 -9 12 -2 -3 -15
right_child=11 13 -4 -5 -6 8 -8 10 9 -11 -12 -13 -14 14 -16
leaf_value=0.074213424153156154 0.13260192558202405 -0.18740684237103603 0.13425339213897258 -0.19749881768609279 0.067508580381115207 -0.12195967617632944 0.11259419465315774 -0.091269960289587893 0.099720331427637976 -0.14119383842080499 -0.17184247801936472 0.14923106061195704 0.084477983473871657 -0.10811938575785417 -0.1615494673904555
leaf_weight=0.66971664875745629 1.356558863073589 0.61286604031920477 0.61508864909410477 0.48322965949773777 1.1952959029003976 1.511093467473984 1.1551873311400411 0.46225532330572577 0.56457843910902716 0.49390323832631111 0.62033157516270876 1.5591034684330223 0.94307676702737797 0.85459634289145503 1.1516538020223377
leaf_count=8 12 16 8 8 12 32 16 12 8 8 12 14 8 12 24
internal_value=0 -0.473752 -0.127293 -0.253638 -0.128974 -0.304449 0.106552 -0.565469 -0.769499 -0.126938 -1.37439 1.27559 1.12866 -1.50166 -1.3879
internal_weight=0 10.3898 7.77068 7.15559 6.67236 5.47707 2.90749 1.7523 2.56958 1.05848 1.08259 3.85874 2.29964 2.61912 2.00625
internal_count=210 176 124 116 108 96 48 32 48 16 24 34 20 52 36
shrinkage=0.1


Tree=1
num_leaves=16
num_cat=0
split_feature=0 0 0 0 0 0 0 0 0 0 0 0 0 0 0
split_gain=6.5802 6.77153 1.373 1.02567 1.25651 0.705116 1.90025 1.60377 1.69172 0.823375 0.548208 0.456179 1.88909 0.35973 0.271171
threshold=0.0094507608490938186 0.003486351886164325 0.034700692463974864 0.00057152661599419276 0.00022128672069112812 0.0023979150879703676 0.0025691267063415527 0.0021377646103648952 0.0010394289129215773 0.0017774253011659119 0.0045249144143414627 0.011470598474560776 0.016412443178414997 0.00040819260646470299 0.0032783312239091883
decision_type=2 2 2 2 2 2 2 2 2 2 2 2 2 2 2
left_child=1 3 11 4 -1 7 -7 8 -5 -10 -3 -2 -13 -6 -8
right_child=2 10 -4 5 13 6 14 -9 9 -11 -12 12 -14 -15 -16
leaf_value=0.020203604777409366 0.094808877343479009 -0.17581346774793932 0.0097333786316207514 0.038700725502706562 -0.1223981380914488 -0.16696202204038105 -0.021605077580892942 0.10588736212495656 -0.14206614228735845 -0.0034045005002564105 -0.10579946595034243 -0.035906095074746951 0.08032441439543575 -0.054471683987014533 0.022650684540314516
leaf_weight=2.4165983945131364 3.8576870039105433 2.4551470447331658 6.6572001576423636 3.6747379302978498 0.96810004301369168 0.74718869850039471 2.5085507854819298 1.9569300096482036 0.97303664777427878 0.76485316827893246 2.0539314560592175 1.8344214409589765 5.8822148889303207 4.0051257014274597 3.0899567920714617
leaf_count=8 8 20 10 8 24 8 20 8 20 8 36 8 8 8 8
internal_value=0 -0.326834 0.459182 -0.0891756 -0.389503 0.0726416 -0.171707 0.283042 0.00254131 -0.810405 -1.43921 0.667306 0.526938 -0.676944 0.0282079
internal_weight=0 25.6142 18.2315 21.1051 7.38982 13.7153 6.3457 7.36956 5.41263 1.73789 4.50908 11.5743 7.71664 4.97323 5.59851
internal_count=210 176 34 120 40 80 36 44 36 28 56 24 16 32 28
shrinkage=0.1


Tree=2
num_leaves=16
num_cat=0
split_feature=0 0 0 0 0 0 0 0 0 0 0 0 0 0 0
split_gain=5.95192 2.26314 1.97641 1.32477 2.00463 1.06968 1.28386 0.847113 0.57362 0.536513 0.355967 0.323265 0.275843 0.271898 0.246091
threshold=0.0094507608490938186 0.003486351886164325 0.041395876521643983 0.0022947574831414402 0.0010394289129215773 0.0024586477391523223 0.0032783312239091883 0.00057152661599419276 0.00022128672069112812 0.0029133719470074175 0.029669815641127726 0.00040819260646470299 0.0045249144143414627 0.0053610269236206596 0.011470598474560776
decision_type=2 2 2 2 2 2 2 2 2 2 2 2 2 2 2
left_child=1 3 10 4 7 -5 9 8 -1 -7 14 -10 -3 -14 -2
right_child=2 12 -4 5 -6 6 -8 -9 11 -11 -12 -13 13 -15 -16
leaf_value=-0.015927680260270072 0.028482014787370575 -0.15568705127521026 0.1217931126730611 0.060385600238439398 -0.1256548610175092 -0.017596291494588006 0.047164822531033511 0.014879021562441206 -0.11915185300793728 -0.10133798007772801 0.05201095845094085 -0.048559248291826736 -0.041772019267860762 -0.11580730102148773 -0.0094647485551488109
leaf_weight=2.9721927642822319 6.1507976949214953 0.95674565434455805 2.8629388436675063 2.8595628496259442 2.2779152896255246 1.6475585363805296 1.9544752184301613 3.8605733066797256 1.1719737201929095 1.4283176138997076 4.7908838093280783 1.4528674408793447 0.73699875175952945 1.5173170007765291 2.3665738999843597
leaf_count=8 8 20 6 8 32 12 8 8 24 12 8 8 8 28 12
internal_value=0 -0.328707 0.464191 -0.20137 -0.414402 0.115496 -0.162118 -0.211567 -0.460124 -0.564827 0.302043 -0.800784 -1.10697 -0.916031 0.179384
internal_weight=0 22.8365 16.1712 19.6254 11.7355 7.88991 5.03035 9.45761 5.59703 3.07588 13.3083 2.62484 3.21106 2.25432 8.51737
internal_count=210 176 34 120 80 40 32 48 40 24 28 32 56 36 20
shrinkage=0.1


Tree=3
num_leaves=16
num_cat=0
split_feature=0 0 0 0 0 0 0 0 0 0 0 0 0 0 0
split_gain=3.87441 6.81144 4.79576 2.36895 0.441286 0.359045 0.357882 0.826829 0.673061 0.93827 0.926978 0.404515 0.322358 0.286572 0.272667
threshold=0.0092596468266261649 0.0099013501579142058 0.016412443178414997 0.003486351886164325 0.0032783312239091883 0.034700692463974864 0.0023979150879703676 0.0025691267063415527 0.0021377646103648952 0.0010394289129215773 0.00057152661599419276 0.0017774253011659119 0.00022128672069112812 0.0029133719470074175 0.00040819260646470299
decision_type=2 2 2 2 2 2 2 2 2 2 2 2 2 2 2
left_child=3 -2 -3 4 6 -4 8 -8 9 10 12 -11 -1 -9 -14
right_child=1 2 5 -5 -6 -7 7 13 -10 11 -12 -13 14 -15 -16
leaf_value=-0.014327794042625209 0.16445307708416226 -0.13390293633213232 0.05183101608087122 -0.11408881441088417 0.033238516174268866 0.013595204343891783 -0.15191607490945352 0.0088708569082635736 0.031246236397863184 -0.12885682400723925 0.031420541254108231 -0.036000557062065369 -0.10189730097899914 -0.057397977354468499 -0.03236815127090667
leaf_weight=2.8946732655167668 3.3419924583286038 2.1087055169045916 4.8070038184523565 2.7721771933138362 1.7281086016446341 5.0212071910500526 0.63550574146211092 1.2871864177286627 2.7696660459041587 1.0591239109635342 3.2989568710327148 0.84222304821014382 1.0537067595869305 1.3235251810401676 1.2136793509125707
leaf_count=8 8 12 8 52 8 10 8 8 8 20 8 8 24 12 8
internal_value=0 0.382655 0.0293664 -0.280027 -0.148225 0.322964 -0.198935 -0.496248 -0.12544 -0.242483 -0.0998387 -0.877251 -0.364445 -0.247248 -0.6468
internal_weight=0 15.2789 11.9369 20.8785 18.1064 9.82821 16.3782 3.24622 13.132 10.3624 8.46102 1.90135 5.16206 2.61071 2.26739
internal_count=210 38 30 172 120 18 112 28 84 76 48 28 40 20 32
shrinkage=0.1


Tree=4
num_leaves=16
num_cat=0
split_feature=0 0 0 0 0 0 0 0 0 0 0 0 0 0 0
split_gain=4.48487 1.98049 0.653939 1.11121 0.974227 0.677502 0.619715 0.578476 0.232976 0.158539 0.182339 0.174813 0.146919 0.129017 0.128511
threshold=0.0094507608490938186 0.003486351886164325 0.0022947574831414402 0.0010394289129215773 0.0024586477391523223 0.00057152661599419276 0.034700692463974864 0.0030745927766122729 0.00022128672069112812 0.0045249144143414627 0.0057135858088470373 0.0086968362086252311 0.00040819260646470299 0.0017774253011659119 0.011470598474560776
decision_type=2 2 2 2 2 2 2 2 2 2 2 2 2 2 2
left_child=1 2 3 5 -4 8 14 -6 -1 -3 -11 -12 -10 -5 -2
right_child=6 9 4 13 7 -7 -8 -9 12 10 11 -13 -14 -15 -16
leaf_value=-0.01826985959644277 0.083582579728507911 -0.13658378455137452 0.062632959757982762 -0.11816916665764393 -0.058307789483396523 0.021629812992040462 0.019575175951167343 0.011750613984221007 -0.088798263846633863 -0.052244647805698208 -0.13809697330541867 -0.062379121702115452 -0.036584317233722644 -0.070213887852781057 0.056581153141657341
leaf_weight=2.9300119876861626 2.9336291998624784 0.8998664971441025 2.2727749664336434 1.0667776074260467 1.979748426005244 3.2824490368366241 4.3033105656504631 2.9124540165066719 1.0329682230949404 0.90405796468257915 0.83843638002872445 0.47917540930211538 1.1266742721199987 1.1833177991211412 4.415961354970932
leaf_count=8 8 20 8 20 16 8 10 16 24 12 16 8 8 12 16
internal_value=0 -0.277061 -0.148131 -0.305607 0.0853303 -0.13793 0.497128 -0.166002 -0.366381 -1.01173 -0.868303 -1.10561 -0.615585 -0.929496 0.673589
internal_weight=0 20.9087 17.7872 10.6222 7.16498 8.3721 11.6529 4.8922 5.08965 3.12154 2.22167 1.31761 2.15964 2.2501 7.34959
internal_count=210 176 120 80 40 48 34 32 40 56 36 24 32 32 24
shrinkage=0.1


Tree=5
num_leaves=16
num_cat=0
split_feature=0 0 0 0 0 0 0 0 0 0 0 0 0 0 0
split_gain=3.65272 1.65414 0.34921 0.793804 0.480393 0.366865 0.28073 0.267991 0.152975 0.124575 0.214428 0.117169 0.108319 0.108934 0.121939
threshold=0.0094507608490938186 0.003486351886164325 0.0022947574831414402 0.0010394289129215773 0.00057152661599419276 0.0024586477391523223 0.034700692463974864 0.0032783312239091883 0.0017774253011659119 0.00022128672069112812 0.00040819260646470299 0.0027390048446439721 0.0045249144143414627 0.0057135858088470373 0.0086968362086252311
decision_type=2 2 2 2 2 2 2 2 2 2 2 2 2 2 2
left_child=1 2 3 4 9 -4 -2 11 -5 -1 -11 -7 -3 -14 -15
right_child=6 12 5 8 -6 7 -8 -9 -10 10 -12 -13 13 14 -16
leaf_value=-0.017864665769273196 0.057084310993990778 -0.12803723953937124 0.037814880077152335 -0.11183927191840393 0.018670569471323398 -0.069614504643553288 0.024575872025198509 0.017559882021058383 -0.056296665930141959 -0.08614930914821628 -0.021413451991757912 -0.020741030953737201 -0.057955679127212029 -0.12801688797129657 -0.061990755463530625
leaf_weight=2.8998972922563642 7.165008991956709 0.77812973596155588 2.1410592906177035 0.93461671285331149 3.1465384960174561 0.64862506464123759 4.221563559025526 1.7697106432169674 1.0562981218099592 0.91514026001095805 1.1605667173862455 2.0125241745263338 0.89626845158636603 0.76798452530056205 0.43994801677763457
leaf_count=8 24 20 8 20 8 8 10 8 12 24 8 16 12 16 8
internal_value=0 -0.262048 -0.141203 -0.257826 -0.119117 0.0382602 0.450318 -0.125979 -0.823706 -0.312517 -0.499543 -0.326534 -0.961587 -0.843701 -1.03969
internal_weight=0 19.5673 16.685 10.1131 8.12214 6.57192 11.3866 4.43086 1.99091 4.9756 2.07571 2.66115 2.88233 2.1042 1.20793
internal_count=210 176 120 80 48 40 34 32 32 40 32 24 56 36 24
shrinkage=0.1


Tree=6
num_leaves=16
num_cat=0
split_feature=0 0 0 0 0 0 0 0 0 0 0 0 0 0 0
split_gain=3.10019 1.23965 0.244145 0.664208 0.538752 0.297166 0.186958 0.177237 0.17007 0.202402 0.376917 0.129066 0.333194 0.0848798 0.0817834
threshold=0.0094507608490938186 0.003486351886164325 0.0022947574831414402 0.0010394289129215773 0.0024586477391523223 0.00057152661599419276 0.0032783312239091883 0.0029133719470074175 0.034700692463974864 0.016412443178414997 0.011470598474560776 0.0020096510130461283 0.0016195329249224816 0.0045249144143414627 0.0053610269236206596
decision_type=2 2 2 2 2 2 2 2 2 2 2 2 2 2 2
left_child=1 2 3 5 -4 -1 7 -6 9 10 -2 12 -5 -3 -15
right_child=8 13 4 11 6 -7 -8 -9 -10 -11 -12 -13 -14 14 -16
leaf_value=-0.027466334006176343 0.052302075092257566 -0.11978931203767616 0.043186106233792911 -0.10662540663945977 -0.014728348537470792 0.012054210118101809 0.0060367296612302036 -0.06890879085850582 0.02538249378584468 0.068662261992508522 -0.022912037083545712 -0.11884792814454162 -0.0012746289327029063 -0.049391478986513165 -0.092780473914945039
leaf_weight=4.8991689989343374 2.8695832788944231 0.66131066810339634 2.0295993331819764 0.6959033990278829 1.4683781079947951 3.1106775552034378 1.6950210966169832 1.0253792032599447 4.1584282107651234 3.3596016988158226 0.86773686110973347 0.56825995072722413 0.52796877361834049 0.6508919559419154 1.3061883011832831
leaf_count=40 8 20 8 16 12 8 8 12 10 8 8 8 8 8 28
internal_value=0 -0.250249 -0.145988 -0.244314 0.00900307 -0.121183 -0.195885 -0.370062 0.41441 0.508504 0.348387 -0.794643 -0.611779 -0.888161 -0.7835
internal_weight=0 18.6387 16.0204 9.80198 6.21838 8.00985 4.18878 2.49376 11.2554 7.09692 3.73732 1.79213 1.22387 2.61839 1.95708
internal_count=210 176 120 80 40 48 32 24 34 24 16 32 24 56 36
shrinkage=0.1


Tree=7
num_leaves=16
num_cat=0
split_feature=0 0 0 0 0 0 0 0 0 0 0 0 0 0 0
split_gain=2.78328 0.99227 0.490991 0.219125 0.48258 0.655473 0.461814 0.357283 0.203192 0.170154 0.148913 0.142894 0.249221 0.0778325 0.136164
threshold=0.0094507608490938186 0.003486351886164325 0.041395876521643983 0.0022947574831414402 0.00088350347698647733 0.00040819260646470299 0.0024586477391523223 0.00033208591016369889 0.0020096510130461283 0.0032783312239091883 0.0029133719470074175 0.0016195329249224816 0.0012204174449384987 0.0045249144143414627 0.0057135858088470373
decision_type=2 2 2 2 2 2 2 2 2 2 2 2 2 2 2
left_child=1 3 -2 4 5 7 -5 -1 11 10 -8 12 -6 -3 -15
right_child=2 13 -4 6 8 -7 9 -9 -10 -11 -12 -13 -14 14 -16
leaf_value=-0.021350343173408472 0.028232352862340535 -0.11330253035785783 0.077841495822942391 0.04100217079571291 -0.041478057680675362 0.033309366316020522 -0.015218285133884677 -0.11320656231739229 -0.11218987751759762 0.0062064090875645211 -0.066418941807716597 0.0023740549816631037 -0.13616136785045768 -0.042657103418366184 -0.096353965377895853
leaf_weight=3.2514238636940775 7.8973448909819108 0.60723279975354616 2.6693704873323441 1.9220222607254973 2.0750884367153062 2.441116027534008 1.4129157215356829 0.48684753943234671 0.50635687448084332 1.628804808482528 0.94996197335422017 0.54958816431462754 0.3209991306066512 0.85842618532478787 1.0497229741886256
leaf_count=20 28 20 6 8 12 12 12 12 8 8 12 8 8 12 24
internal_value=0 -0.238503 0.407646 -0.144215 -0.237247 -0.0699443 0.00730251 -0.333131 -0.536732 -0.18661 -0.358028 -0.436143 -0.541626 -0.821203 -0.721972
internal_weight=0 18.0605 10.5667 15.5451 9.63142 6.17939 5.9137 3.73827 3.45203 3.99168 2.36288 2.94568 2.39609 2.51538 1.90815
internal_count=210 176 34 120 80 44 40 32 36 32 24 28 20 56 36
shrinkage=0.1


Tree=8
num_leaves=16
num_cat=0
split_feature=0 0 0 0 0 0 0 0 0 0 0 0 0 0 0
split_gain=2.17392 0.857977 0.322336 0.161616 0.795369 0.64899 0.337708 0.339525 0.284495 0.238761 0.111258 0.267169 0.099649 0.183992 0.0755575
threshold=0.0094507608490938186 0.003486351886164325 0.034700692463974864 0.0023979150879703676 0.0025691267063415527 0.0021377646103648952 0.0010394289129215773 0.00040819260646470299 0.00033208591016369889 0.0017774253011659119 0.016412443178414997 0.011470598474560776 0.0032783312239091883 0.0029133719470074175 0.0045249144143414627
decision_type=2 2 2 2 2 2 2 2 2 2 2 2 2 2 2
left_child=1 3 10 5 -5 6 7 8 -1 -8 11 -2 13 -6 -3
right_child=2 14 -4 4 12 -7 9 -9 -10 -11 -12 -13 -14 -15 -16
leaf_value=-0.019140007326980332 0.051715071018845316 -0.11081735001253284 0.013086243593026618 -0.14082312763431745 -0.00082556901833910092 0.048197239315762398 -0.10654091736513616 0.013274170976993663 -0.099309033550018411 -0.022319879133994899 0.062721451039390475 -0.01508086280452961 0.0049856010948632224 -0.060000405380435023 -0.068408617459348189
leaf_weight=3.2495437329635064 2.6725731119513498 0.54988362733274643 3.9526631012558937 0.55745701491832633 1.1677120588719847 1.8037527613341815 0.66276760958135117 3.4809145256876945 0.51245770044624805 0.68398923426866531 3.1648381538689137 0.77171116322278965 1.7096094358712437 0.95530647132545699 1.7801831308752296
leaf_count=20 8 20 10 8 8 8 20 16 12 8 8 8 8 12 36
internal_value=0 -0.220178 0.356761 -0.131286 -0.292163 -0.0633326 -0.177842 -0.0923409 -0.300606 -0.637668 0.491862 0.367491 -0.129831 -0.274528 -0.784169
internal_weight=0 17.1136 10.5618 14.7835 4.39008 10.3934 8.58967 7.24292 3.762 1.34676 6.60912 3.44428 3.83263 2.12302 2.33007
internal_count=210 176 34 120 36 84 76 48 32 28 24 16 28 20 56
shrinkage=0.1


Tree=9
num_leaves=16
num_cat=0
split_feature=0 0 0 0 0 0 0 0 0 0 0 0 0 0 0
split_gain=1.97689 0.664109 0.298402 0.132214 1.16283 0.342223 0.340573 0.201378 0.621733 0.346026 0.308178 0.172973 0.088114 0.21933 0.0872855
threshold=0.0094507608490938186 0.003486351886164325 0.041395876521643983 0.00050676892211202931 0.00038205361778671098 0.00033208591016369889 0.00088350347698647733 0.0023979150879703676 0.0025691267063415527 0.0021377646103648952 0.0010882142126313302 0.0017774253011659119 0.0048915492789307095 0.0041562167850123432 0.0080342926500988534
decision_type=2 2 2 2 2 2 2 2 2 2 2 2 2 2 2
left_child=1 3 -2 4 5 -1 -5 9 -9 10 -8 -12 13 -3 -14
right_child=2 12 -4 6 -6 -7 7 8 -10 -11 11 -13 14 -15 -16
leaf_value=-0.017419239124660691 0.025046245195887853 -0.10064092718166101 0.064829609678462782 -0.061438830538880551 0.093106964489827776 -0.13074416837533107 0.015772361163759695 -0.13485938176006054 -0.013007064574913902 0.038598965463560564 -0.10352507171029289 -0.024517305130721364 -0.10836411794679168 -0.0025288021317926459 -0.054831568524108948
leaf_weight=3.2693160101771421 7.5257714688777906 0.42663216264918391 2.5155971143394709 1.6434986740350712 1.0498323347419498 0.29012337792664755 1.1386923175305113 0.4731568656861781 3.6403727391734719 1.7043566051870587 0.47921487130224683 0.65701483190059662 0.82819722965359666 0.4890265092253685 0.4817576995119453
leaf_count=20 28 16 6 8 8 8 8 8 28 8 16 8 20 8 12
internal_value=0 -0.212162 0.350129 -0.133311 0.00621739 -0.266561 -0.199365 -0.115081 -0.270231 0.0453029 -0.209937 -0.578395 -0.720411 -0.482421 -0.886766
internal_weight=0 16.5712 10.0414 14.3456 4.60927 3.55944 9.73631 8.09281 4.11353 3.97928 2.27492 1.13623 2.22561 0.915659 1.30995
internal_count=210 176 34 120 36 28 84 76 36 40 32 24 56 24 32
shrinkage=0.1


Tree=10
num_leaves=16
num_cat=0
split_feature=0 0 0 0 0 0 0 0 0 0 0 0 0 0 0
split_gain=1.53904 0.577859 0.310013 0.163247 0.281992 0.568094 0.261468 0.15944 0.152895 0.133599 0.328471 0.128325 0.0697888 0.191725 0.0706374
threshold=0.0094507608490938186 0.003486351886164325 0.034700692463974864 0.00057152661599419276 0.0010394289129215773 0.0022947574831414402 0.0024586477391523223 0.00022128672069112812 0.00040819260646470299 0.016412443178414997 0.011470598474560776 0.0027390048446439721 0.0048915492789307095 0.0041562167850123432 0.0086968362086252311
decision_type=2 2 2 2 2 2 2 2 2 2 2 2 2 2 2
left_child=1 3 9 7 -5 -6 -7 -1 -9 10 -2 -8 13 -3 -14
right_child=2 12 -4 4 5 6 11 8 -10 -11 -12 -13 14 -15 -16
leaf_value=-0.01338919214063068 0.046481472323583968 -0.1006429970282198 0.0075613230893741834 0.021867031948285268 -0.071583818548589653 0.032443935931942149 -0.062182350135603998 -0.088966424440787575 -0.027568927154971137 0.058553138384476247 -0.028056243560623469 -0.0081251847998162676 -0.10158771797634765 -0.0065627907954645993 -0.044439913499630654
leaf_weight=2.8609355390071931 2.648468084633349 0.3919718018732955 3.8092023432254791 2.8114585280418378 1.4394259550608692 1.6393918618559835 0.50693369470536731 0.67600838840007771 1.0139534026384351 3.0892303623259068 0.76111897081136692 3.283860269933939 0.81451597250997987 0.48417949536815286 0.29448961652815342
leaf_count=8 8 16 10 8 32 8 8 24 8 8 8 24 24 8 8
internal_value=0 -0.192042 0.302131 -0.121542 -0.0481118 -0.157295 -0.00923721 -0.27775 -0.521288 0.434902 0.298425 -0.153541 -0.69747 -0.486523 -0.864125
internal_weight=0 16.2171 10.308 14.232 9.68107 6.86961 5.43019 4.5509 1.68996 6.49882 3.40959 3.79079 1.98516 0.876151 1.10901
internal_count=210 176 34 120 80 72 40 40 32 24 16 32 56 24 32
shrinkage=0.1


Tree=11
num_leaves=16
num_cat=0
split_feature=0 0 0 0 0 0 0 0 0 0 0 0 0 0 0
split_gain=1.42116 0.523392 0.272979 0.129579 0.45307 0.399896 0.210983 0.177864 0.143797 0.140408 0.0754406 0.134031 0.0595138 0.0963849 0.0855341
threshold=0.0094507608490938186 0.003486351886164325 0.041395876521643983 0.00040819260646470299 0.00088350347698647733 0.0022947574831414402 0.00022128672069112812 0.0024586477391523223 0.0020096510130461283 0.0032783312239091883 0.029669815641127726 0.011470598474560776 0.0045249144143414627 0.0057135858088470373 0.0086968362086252311
decision_type=2 2 2 2 2 2 2 2 2 2 2 2 2 2 2
left_child=1 3 10 6 -5 8 -1 -7 -6 -9 11 -2 -3 -14 -15
right_child=2 12 -4 4 5 7 -8 9 -10 -11 -12 -13 13 14 -16
leaf_value=-0.016952860614129844 0.025580475562639007 -0.10052754250238438 0.059130366670129844 0.033028896622699359 -0.037549089855131598 0.027736572615564128 -0.081141040458418467 -0.029232868389055217 -0.099629392810095349 0.0096072518429929435 0.032949125426328801 -0.011204112527968374 -0.03194818138669251 -0.10975203396796207 -0.039486358894593759
leaf_weight=2.9100300148129494 2.6891997307538968 0.4290167517028739 2.4579605422914028 2.3094871789216986 2.4650715966708945 1.5468465089797971 0.62143173720687617 2.1596404733136296 0.43966317828744639 1.6356770284473898 2.8975478261709213 1.5681639872491357 0.71450787317007758 0.4627509242855013 0.27690970618277788
leaf_count=8 8 20 6 12 28 8 24 24 8 8 8 12 12 16 8
internal_value=0 -0.182852 0.303794 -0.116665 -0.0611939 -0.170826 -0.282481 -0.00844958 -0.469456 -0.124938 0.205024 0.120312 -0.677986 -0.581427 -0.834464
internal_weight=0 15.971 9.61287 14.0878 10.5564 8.2469 3.53146 5.34216 2.90473 3.79532 7.15491 4.25736 1.88319 1.45417 0.739661
internal_count=210 176 34 120 88 76 32 40 36 32 28 20 56 36 24
shrinkage=0.1


Tree=12
num_leaves=16
num_cat=0
split_feature=0 0 0 0 0 0 0 0 0 0 0 0 0 0 0
split_gain=1.25416 0.416813 0.227731 0.184424 0.384037 0.367515 0.260068 0.166325 0.123676 0.105872 0.103629 0.0624287 0.0981163 0.0869797 0.0528438
threshold=0.0094507608490938186 0.003486351886164325 0.034700692463974864 0.00057152661599419276 0.0010394289129215773 0.0022947574831414402 0.00022128672069112812 0.016412443178414997 0.0024586477391523223 0.0030745927766122729 0.011470598474560776 0.0045249144143414627 0.0057135858088470373 0.0080342926500988534 0.0020096510130461283
decision_type=2 2 2 2 2 2 2 2 2 2 2 2 2 2 2
left_child=1 3 7 6 -5 14 -1 10 -7 -10 -2 -3 -13 -14 -6
right_child=2 11 -4 4 5 8 -8 -9 9 -11 -12 12 13 -15 -16
leaf_value=-0.0094738609204776461 0.033274330930111645 -0.097346629239063856 0.0081272975073496071 0.034845038180829006 -0.049008973371597458 0.019918073217335987 -0.058392592322083658 0.05710770777757488 -0.034658967761215763 0.00039871669920525985 -0.010342925255463008 -0.027118880388420537 -0.11885144444569617 -0.047572580522618507 -0.092491024508922409
leaf_weight=2.8407497480511692 2.6023565456271158 0.41247027809731562 3.717501001432538 2.0120033621788007 0.92098399391397789 1.6050797794014213 1.7601270903833208 2.8616878092288971 1.4241303298622372 2.1800874173641205 0.68890661001205433 0.71444349782541372 0.31392880761995912 0.37653642380610103 0.40126989502459759
leaf_count=8 8 20 10 8 24 8 32 8 16 16 8 12 12 12 8
internal_value=0 -0.182534 0.276688 -0.120471 -0.0335476 -0.15122 -0.281884 0.394755 -0.0317117 -0.134536 0.241446 -0.63141 -0.530985 -0.799804 -0.622047
internal_weight=0 14.9618 9.87045 13.1444 8.54355 6.53155 4.60088 6.15295 5.2093 3.60422 3.29126 1.81738 1.40491 0.690465 1.32225
internal_count=210 176 34 120 80 72 40 24 40 32 16 56 36 24 32
shrinkage=0.1


Tree=13
num_leaves=16
num_cat=0
split_feature=0 0 0 0 0 0 0 0 0 0 0 0 0 0 0
split_gain=1.48934 0.751699 1.68981 0.477447 0.414075 0.118905 0.426367 0.239717 0.209126 0.103654 0.374915 0.13706 0.0762606 0.109291 0.0745708
threshold=0.029669815641127726 0.0099013501579142058 0.0092596468266261649 0.012461600045750023 0.003486351886164325 0.0023979150879703676 0.0025691267063415527 0.00040819260646470299 0.00033208591016369889 0.0021377646103648952 0.0010394289129215773 0.0017774253011659119 0.0029133719470074175 0.0032783312239091883 0.00057152661599419276
decision_type=2 2 2 2 2 2 2 2 2 2 2 2 2 2 2
left_child=1 2 4 -3 5 7 -7 8 -1 10 14 -12 -8 -14 -9
right_child=-2 3 -4 -5 -6 6 12 9 -10 -11 11 -13 13 -15 -16
leaf_value=-0.018165392869042615 0.047442956621883324 -0.11561013981345221 0.075147613844370464 -0.025640802073698284 -0.066620690180590122 -0.12488420398500005 0.0078535745973214773 -0.0039442671227671085 -0.099336548647748837 0.029606949491821067 -0.085221352827357127 -0.015427305074333729 -0.05270925823437015 -0.0082773358856727871 0.029748749928930403
leaf_weight=3.1646793223917578 5.1935447771102181 1.0571020916104308 2.2489756625145665 1.3344242572784424 1.5661361883394409 0.39865717850625454 0.98762072995305084 1.0144345164299011 0.35278032766655082 1.4934715228155253 0.56071416987106171 0.56477119028568268 0.89661829080432653 1.4470263570547104 1.8637044578790665
leaf_count=20 14 8 8 8 52 8 8 8 12 8 20 8 12 8 8
internal_value=0 -0.130017 -0.0543309 -0.65409 -0.180967 -0.121337 -0.2715 -0.0592048 -0.263064 0.0712396 -0.0126287 -0.501985 -0.15454 -0.252758 0.178732
internal_weight=0 18.9511 16.5596 2.39153 14.3106 12.7445 3.72992 9.01456 3.51746 5.4971 4.00362 1.12549 3.33127 2.34364 2.87814
internal_count=210 196 180 16 172 120 36 84 32 52 44 28 28 20 16
shrinkage=0.1


Tree=14
num_leaves=16
num_cat=0
split_feature=0 0 0 0 0 0 0 0 0 0 0 0 0 0 0
split_gain=1.15823 0.353965 0.363206 1.09842 0.749812 0.410624 0.254911 0.199448 0.140018 0.296062 0.135809 0.0608104 0.092955 0.0537717 0.0473568
threshold=0.0094507608490938186 0.0023979150879703676 0.0034139475987942222 0.0032123904825280586 0.0036305583950912456 0.0025691267063415527 0.034700692463974864 0.0021377646103648952 0.0010394289129215773 0.00057152661599419276 0.0017774253011659119 0.0048915492789307095 0.0041562167850123432 0.016412443178414997 0.0012204174449384987
decision_type=2 2 2 2 2 2 2 2 2 2 2 2 2 2 2
left_child=1 7 3 5 -4 -3 13 8 9 -1 14 12 -6 -2 -10
right_child=6 2 4 -5 11 -7 -8 -9 10 -11 -12 -13 -14 -15 -16
leaf_value=-0.020297001749539498 0.031723250892000232 -0.12661778010657926 0.050169488523760547 -0.1734928511468804 -0.094887718311080158 -0.0061927866443786065 0.0069700673133116092 0.028458890029518426 -0.050304778481712546 0.027791217241446134 -0.011838516027983933 -0.073444630141714956 -0.0082051459253466436 0.051412506456333253 -0.11100777099642585
leaf_weight=4.4685264015570301 2.9058353416621667 0.34145982190966551 1.1205569952726366 0.6849192976951598 0.1726984435226766 1.6579817011952398 3.6013132128864527 1.437166580930352 0.24176089325919725 1.7943966686725614 0.57250236347317696 0.93021952919662021 0.43612926010973752 2.6538257990032434 0.27436930267140269
leaf_count=40 16 8 8 8 12 16 10 8 8 8 8 32 8 8 12
internal_value=0 -0.17953 -0.382484 -0.641982 -0.120572 -0.267587 0.276962 -0.0561236 -0.12273 -0.065192 -0.453748 -0.573635 -0.327933 0.411216 -0.825738
internal_weight=0 14.1327 5.34397 2.68436 2.6596 1.99944 9.16097 8.78872 7.35156 6.26292 1.08863 1.53905 0.608828 5.55966 0.51613
internal_count=210 176 92 32 60 24 34 84 76 48 28 52 20 24 20
shrinkage=0.1


Tree=15
num_leaves=16
num_cat=0
split_feature=0 0 0 0 0 0 0 0 0 0 0 0 0 0 0
split_gain=0.901547 0.30324 0.226639 0.210371 0.137388 0.981724 0.180494 0.691098 0.184361 0.128017 0.199659 0.10471 0.116987 0.0713352 0.0696379
threshold=0.0094507608490938186 0.0048915492789307095 0.034700692463974864 0.016412443178414997 0.0034139475987942222 0.0032123904825280586 0.0027390048446439721 0.0023979150879703676 0.00057152661599419276 0.0010394289129215773 0.0017774253011659119 0.0036305583950912456 0.0041562167850123432 0.0012204174449384987 0.00022128672069112812
decision_type=2 2 2 2 2 2 2 2 2 2 2 2 2 2 2
left_child=1 4 3 -2 5 6 7 8 14 -10 13 -6 -13 -11 -1
right_child=2 -3 -4 -5 11 -7 -8 -9 9 10 -12 12 -14 -15 -16
leaf_value=-0.012321467690653461 0.017912769379718127 -0.072558932791686251 0.0043278955068718804 0.056440794956600565 0.033227607521535016 -0.15616048692234386 0.02244603493217941 -0.10826706033368715 0.028056246237440546 -0.027096375629622579 0.0073384448521176329 -0.089720582532794066 0.0068697464473536241 -0.1040080101851594 -0.038919363239668284
leaf_weight=2.8155176639556814 2.9175819121301156 0.8917723011691131 3.5203796718269587 2.7558323033154011 1.0724264103919274 0.48056962154805738 1.4732191720977432 0.73504390660673469 1.7887670323252676 0.24609248992055663 1.8758912226185203 0.16684165876358736 0.50472718686796725 0.23646919499151409 1.5134991682134566
leaf_count=8 16 32 10 8 8 8 12 12 8 8 16 12 8 12 32
internal_value=0 -0.161613 0.242598 0.366276 -0.122653 -0.163425 -0.100538 -0.152517 -0.0718555 0.0788222 -0.0741875 0.138374 -0.171267 -0.647853 -0.216206
internal_weight=0 13.8008 9.19379 5.67341 12.9091 11.1651 10.6845 9.21128 8.47624 4.14722 2.35845 1.744 0.671569 0.482562 4.32902
internal_count=210 176 34 24 144 116 108 96 84 44 36 28 20 20 40
shrinkage=0.1


Tree=16
num_leaves=16
num_cat=0
split_feature=0 0 0 0 0 0 0 0 0 0 0 0 0 0 0
split_gain=1.96208 0.558966 0.382755 0.27368 0.237376 0.104913 0.174676 0.164971 0.252783 0.0687005 0.131052 0.0511255 0.0455722 0.124704 0.0971314
threshold=0.029669815641127726 0.0099013501579142058 0.0092596468266261649 0.003486351886164325 0.012461600045750023 0.00040819260646470299 0.00033208591016369889 0.0023979150879703676 0.0025691267063415527 0.0045249144143414627 0.0057135858088470373 0.0030745927766122729 0.0021377646103648952 0.0010394289129215773 0.0017774253011659119
decision_type=2 2 2 2 2 2 2 2 2 2 2 2 2 2 2
left_child=1 2 3 5 -3 6 -1 12 -9 -5 -11 -10 13 -7 -15
right_child=-2 4 -4 9 -6 7 -8 8 11 10 -12 -13 -14 14 -16
leaf_value=-0.01864588040439975 0.055430433545053129 -0.10599377417210205 0.028106825690530576 -0.09632078664503628 -0.035117409629382958 0.011794174631258942 -0.096510745858824118 -0.1156335938067052 -0.030934935688957412 -0.017627392683622772 -0.090764240435504295 -0.0038931720047751094 0.02156975550181112 -0.063723806952688714 -0.0028103428735529474
leaf_weight=3.1336114495061405 4.9687905944883815 0.85531283915042766 2.3021131828427306 0.35002880869433184 1.055869737640023 2.6980118192732321 0.31727474695071567 0.26910608354955945 1.1421585814096036 0.65156097523868062 0.39264981681481009 1.802510585170239 1.3788385801017282 0.45276493811979862 0.62058627605438232
leaf_count=20 14 8 8 20 8 16 12 8 12 12 20 16 8 20 8
internal_value=0 -0.158085 -0.0952117 -0.160791 -0.668368 -0.111344 -0.258048 -0.0508152 -0.228603 -0.579807 -0.451287 -0.14382 0.0601259 0.00324778 -0.285051
internal_weight=0 17.4224 15.5112 13.2091 1.91118 11.8149 3.45089 8.36398 3.21378 1.39424 1.04421 2.94467 5.1502 3.77136 1.07335
internal_count=210 196 180 172 16 120 32 88 36 52 32 28 52 44 28
shrinkage=0.1


Tree=17
num_leaves=16
num_cat=0
split_feature=0 0 0 0 0 0 0 0 0 0 0 0 0 0 0
split_gain=0.818545 0.298244 0.196152 0.0862084 0.0777453 0.269515 0.551844 0.230809 0.16134 0.0826081 0.067883 0.0607441 0.0346669 0.0700525 0.0424041
threshold=0.0094507608490938186 0.012461600045750023 0.0048915492789307095 0.029669815641127726 0.0023979150879703676 0.0034139475987942222 0.0032123904825280586 0.0025691267063415527 0.00057152661599419276 0.0036305583950912456 0.0041562167850123432 0.0086968362086252311 0.00022128672069112812 0.00040819260646470299 0.00033208591016369889
decision_type=2 2 2 2 2 2 2 2 2 2 2 2 2 2 2
left_child=2 -2 4 -3 8 6 7 -6 12 -7 -11 -4 -1 14 -14
right_child=1 3 11 -5 5 9 -8 -9 -10 10 -12 -13 13 -15 -16
leaf_value=-0.014770600542120149 0.055405316951304566 -0.020206230035035869 -0.084436590914721318 0.016653363585316324 -0.11428164489214242 0.023871279330199537 -0.15248881431176953 -0.010368213341178288 0.0064147288244448281 -0.082767976646747801 -0.0042929138604052451 -0.023901661470240167 -0.032603479693647693 -0.017048737193426255 -0.089403883997007716
leaf_weight=2.8582270480692369 2.1654205918312055 0.70584080554544915 0.5201115123927601 6.2800870463252068 0.24584171874448824 1.0205046124756334 0.40586264058947552 1.6375719946809111 4.1945240397471935 0.14321427734103043 0.4785972919780761 0.24331001238897443 0.24725963617674984 0.91491435095667861 0.2805760083720088
leaf_count=8 12 8 24 14 8 8 8 16 44 12 8 8 12 8 12
internal_value=0 0.2298 -0.159431 0.129292 -0.129206 -0.245475 -0.467237 -0.23932 -0.075399 0.0636456 -0.223671 -0.651435 -0.211491 -0.337856 -0.627963
internal_weight=0 9.15135 13.1905 6.98593 12.4271 3.93159 2.28928 1.88341 8.4955 1.64232 0.621812 0.763422 4.30098 1.44275 0.527836
internal_count=210 34 176 22 144 60 32 24 84 28 20 32 40 32 24
shrinkage=0.1


Tree=18
num_leaves=16
num_cat=0
split_feature=0 0 0 0 0 0 0 0 0 0 0 0 0 0 0
split_gain=0.842843 0.21252 0.359324 0.189255 0.117532 0.0777406 0.0731587 0.558768 0.0609073 0.240849 0.103936 0.0680402 0.0682879 0.157792 0.038233
threshold=0.029669815641127726 0.0099013501579142058 0.0092596468266261649 0.0048915492789307095 0.012461600045750023 0.041395876521643983 0.0034139475987942222 0.0032123904825280586 0.0022947574831414402 0.0020096510130461283 0.0024586477391523223 0.00057152661599419276 0.0010394289129215773 0.0016195329249224816 0.0036305583950912456
decision_type=2 2 2 2 2 2 2 2 2 2 2 2 2 2 2
left_child=1 2 3 6 -3 -2 7 8 9 11 -10 -1 -13 -14 -8
right_child=5 4 -4 -5 -6 -7 14 -9 10 -11 -12 12 13 -15 -16
leaf_value=-0.019047898228223087 0.046272020148930421 -0.079527676674364917 0.031772612341614846 -0.072167451018169113 -0.020245218504171245 0.022563968643996693 0.020489493942920902 -0.1411140725373364 0.022781745613226888 -0.092164750012655769 -0.014503826915819334 0.012988705888621933 -0.07239350893619094 0.012410195503299198 -0.010987524072327497
leaf_weight=4.2437754583079368 2.5836952961981288 0.66538341343402752 1.9598335218615834 0.53948336490430016 0.67237312160432339 2.9764823988080025 0.98468601517379173 0.33834755793213922 1.298720689956099 0.3878893838264047 1.7618588660843668 1.7421711981296542 0.35968078952282656 0.5626039020717144 0.63454349269159138
leaf_count=40 8 8 8 28 8 6 8 8 8 8 20 8 16 8 20
internal_value=0 -0.115603 -0.0811318 -0.141946 -0.497316 0.335806 -0.116549 -0.14654 -0.105226 -0.154894 0.0131786 -0.111842 0.0134062 -0.206623 0.0815428
internal_weight=0 16.1514 14.8136 12.8538 1.33776 5.56018 12.3143 10.695 10.3567 7.29612 3.06058 6.90823 2.66446 0.922285 1.61923
internal_count=210 196 180 172 16 14 144 116 108 80 28 72 32 24 28
shrinkage=0.1


Tree=19
num_leaves=16
num_cat=0
split_feature=0 0 0 0 0 0 0 0 0 0 0 0 0 0 0
split_gain=1.15209 0.183686 0.0762834 0.160853 0.153865 0.164697 0.0870814 0.384537 0.109488 0.108631 0.0779684 0.061372 0.429413 0.107215 0.0343393
threshold=0.029669815641127726 0.041395876521643983 0.0023979150879703676 0.0025691267063415527 0.0017774253011659119 0.0012204174449384987 0.0034139475987942222 0.0032123904825280586 0.0036305583950912456 0.0045249144143414627 0.0099013501579142058 0.00050676892211202931 0.00038205361778671098 0.00033208591016369889 0.0092596468266261649
decision_type=2 2 2 2 2 2 2 2 2 2 2 2 2 2 2
left_child=2 -2 4 -4 5 11 7 -5 -8 -10 14 12 13 -1 -11
right_child=1 -3 3 6 -6 -7 8 -9 9 10 -12 -13 -14 -15 -16
leaf_value=-0.01482076208581571 0.05866075483965514 0.022196709486778779 -0.10306202030650169 -0.017651715548042669 0.017037938678528951 -0.10278013152069128 0.018863705234639601 -0.14109889199042217 -0.092045658352115298 -0.022270529169171039 -0.03644239569218008 -0.024742079132967054 0.069821702345358269 -0.098310590467045184 0.00051911522466412997
leaf_weight=3.075058081885806 2.5999533608555785 2.9478153502568603 0.2304935697466125 1.6749442557338623 2.0228185288142413 0.2050809038337319 0.96324104256927967 0.29709187592379738 0.19118545704986889 0.95912408758886203 1.2174902968108652 2.2730517541058362 0.65437885746359803 0.16190968686714757 2.1283735055476427
leaf_count=20 8 6 8 16 16 12 8 8 16 32 16 20 8 8 8
internal_value=0 0.392855 -0.135757 -0.207899 -0.0698925 -0.146198 -0.182382 -0.362493 -0.117322 -0.18287 -0.150113 -0.116868 -0.0406088 -0.189968 -0.0656044
internal_weight=0 5.54777 16.0542 7.66194 8.3923 6.36948 7.43145 1.97204 5.45941 4.49617 4.30499 6.1644 3.89135 3.23697 3.0875
internal_count=210 14 196 112 84 68 104 24 80 72 56 56 36 28 40
shrinkage=0.1


Tree=20
num_leaves=16
num_cat=0
split_feature=0 0 0 0 0 0 0 0 0 0 0 0 0 0 0
split_gain=0.639553 0.566473 0.23879 0.324061 0.466354 0.0766373 0.0757646 0.159897 0.127956 0.113982 0.0574366 0.0786573 0.0594753 0.0397696 0.0318658
threshold=0.0094507608490938186 0.012461600045750023 0.0048915492789307095 0.0034139475987942222 0.0032123904825280586 0.041395876521643983 0.0023979150879703676 0.0017774253011659119 0.0025691267063415527 0.0012204174449384987 0.00057152661599419276 0.00033208591016369889 0.00040819260646470299 0.0010394289129215773 0.029669815641127726
decision_type=2 2 2 2 2 2 2 2 2 2 2 2 2 2 2
left_child=2 -2 3 4 6 14 7 9 -8 10 11 -1 -13 -12 -3
right_child=1 5 -4 -5 -6 -7 8 -9 -10 -11 13 12 -14 -15 -16
leaf_value=-0.013821045625306921 0.071077315115734729 -0.02316735575506626 -0.068753395796194092 0.029507584604564298 -0.14314048819949152 0.019949116217365115 -0.10268510013230402 0.015324956030190441 -0.022290087318274646 -0.096642498105432753 0.0034717104825483509 -0.087792622592440153 -0.032153180040815001 -0.042775426989684673 0.002370622317024351
leaf_weight=3.0502522918395645 1.7972307652235011 0.57615297287702594 0.75301017670426595 1.7183739111060283 0.28671554522588927 2.9662146717309952 0.22560239909216839 1.9487418862991031 1.6164116999134419 0.17668697610497464 1.799410365521908 0.25294895423576214 0.79889529570937157 0.2073725415393709 3.2151938751339912
leaf_count=20 12 8 32 28 8 6 8 16 16 12 8 12 8 8 8
internal_value=0 0.211799 -0.141175 -0.107121 -0.173813 0.0790928 -0.138029 -0.0970164 -0.321365 -0.174607 -0.151706 -0.219526 -0.455334 -0.0130728 -0.0151026
internal_weight=0 8.55479 12.8344 12.0814 10.363 6.75756 10.0763 8.23431 1.84201 6.28557 6.10888 4.1021 1.05184 2.00678 3.79135
internal_count=210 34 176 144 116 22 108 84 24 68 56 40 20 16 16
shrinkage=0.1


Tree=21
num_leaves=16
num_cat=0
split_feature=0 0 0 0 0 0 0 0 0 0 0 0 0 0 0
split_gain=0.77903 0.0909477 0.0863553 0.0923416 0.153008 0.0968716 0.186507 0.132295 0.128842 0.0777701 0.10503 0.0660653 0.0387716 0.0592045 0.0363866
threshold=0.029669815641127726 0.041395876521643983 0.0099013501579142058 0.0092596468266261649 0.003486351886164325 0.0030745927766122729 0.0023979150879703676 0.0017774253011659119 0.0010394289129215773 0.0045249144143414627 0.0057135858088470373 0.00057152661599419276 0.00022128672069112812 0.00030930555748964121 0.0025691267063415527
decision_type=2 2 2 2 2 2 2 2 2 2 2 2 2 2 2
left_child=2 -2 3 4 5 6 7 8 11 -6 -11 12 -1 -14 -8
right_child=1 -3 -4 -5 9 -7 14 -9 -10 10 -12 -13 13 -15 -16
leaf_value=-0.010600232454212818 0.046234461683674899 0.020361815542262653 -0.035469116177732664 0.011848883838191101 -0.087122786654243292 0.014834181543722397 -0.08919937271525441 0.016229264626444015 -0.070520117606704499 -0.0085696202826995495 -0.080384867740319221 0.0061920026155600485 -0.10002511417012641 -0.024876156031204681 -0.04091240792325318
leaf_weight=2.7644021697342378 2.5473937951028338 2.9115236233919859 1.3752666357904662 1.8125323704443879 0.3266793513903401 1.5300374052021641 0.18192900251597063 1.9200639193877576 0.37662240373902006 0.66338707134127617 0.29385656712111086 1.7296572253108022 0.11559869511984278 1.1259734425693748 1.0973492318298665
leaf_count=8 8 6 16 8 20 16 8 16 20 12 20 8 8 24 12
internal_value=0 0.324352 -0.115625 -0.0920369 -0.123506 -0.0848493 -0.123166 -0.0666858 -0.138616 -0.449932 -0.306156 -0.101412 -0.171933 -0.31873 -0.477794
internal_weight=0 5.45892 15.3134 13.9381 12.1256 10.8416 9.3116 8.03232 6.11225 1.28392 0.957244 5.73563 4.00597 1.24157 1.27928
internal_count=210 14 196 180 172 120 104 84 68 52 32 48 40 32 20
shrinkage=0.1


Tree=22
num_leaves=16
num_cat=0
split_feature=0 0 0 0 0 0 0 0 0 0 0 0 0 0 0
split_gain=0.402061 0.165891 0.118786 0.116521 0.247183 0.0757845 0.0940716 0.0677128 0.0629596 0.0442204 0.0331772 0.094234 0.0304244 0.0452167 0.0297386
threshold=0.0094507608490938186 0.034700692463974864 0.003486351886164325 0.0022947574831414402 0.0020096510130461283 0.0024586477391523223 0.0030745927766122729 0.0045249144143414627 0.011470598474560776 0.00057152661599419276 0.0010394289129215773 0.0016195329249224816 0.0053610269236206596 0.0086968362086252311 0.0012204174449384987
decision_type=2 2 2 2 2 2 2 2 2 2 2 2 2 2 2
left_child=2 8 3 4 9 -5 -7 -4 -2 -1 -11 14 -9 -14 -12
right_child=1 -3 7 5 -6 6 -8 12 -10 10 11 -13 13 -15 -16
leaf_value=-0.017896019562911387 0.045217839615287664 -0.00054704336702648634 -0.081240437331916951 0.027668873034803223 -0.094085650999706297 -0.025955205271779393 0.012549061220140174 -0.011745715487857307 0.020772421103435884 0.0070664923008426084 -0.038562755066337918 0.0095626392531248001 -0.068786260933791504 -0.0096963437359853591 -0.104606964378123
leaf_weight=3.9792126663960534 1.4642187971621732 3.4843718763440847 0.30059627327136595 1.1227242969907822 0.38293809490278352 1.0827918839640918 1.5326340193860231 0.57441234239377059 3.7567402245476842 1.6795136928558352 0.19023101264610875 0.47680472210049624 0.31967956642620265 0.21768328198231759 0.10626439133193344
leaf_count=40 8 10 20 8 8 16 16 8 16 8 8 8 20 8 8
internal_value=0 0.163508 -0.118958 -0.0825079 -0.160331 0.0593704 -0.0339179 -0.391312 0.276281 -0.113862 -0.00825193 -0.17965 -0.277459 -0.448492 -0.622331
internal_weight=0 8.70533 11.9655 10.5531 6.81496 3.73815 2.61543 1.41237 5.22096 6.43203 2.45281 0.7733 1.11178 0.537363 0.296495
internal_count=210 34 176 120 80 40 32 56 24 72 32 24 36 28 16
shrinkage=0.1


Tree=23
num_leaves=16
num_cat=0
split_feature=0 0 0 0 0 0 0 0 0 0 0 0 0 0 0
split_gain=1.04665 0.164227 0.103712 0.104822 0.178318 0.0601582 0.0591345 0.0507792 0.0456197 0.0367477 0.0379509 0.0701491 0.0314038 0.029743 0.0453943
threshold=0.029669815641127726 0.041395876521643983 0.003486351886164325 0.0022947574831414402 0.0020096510130461283 0.0024586477391523223 0.0045249144143414627 0.0030745927766122729 0.0099013501579142058 0.00057152661599419276 0.0010394289129215773 0.0016195329249224816 0.0012204174449384987 0.00022128672069112812 0.00040819260646470299
decision_type=2 2 2 2 2 2 2 2 2 2 2 2 2 2 2
left_child=2 -2 3 4 9 -5 -4 -7 -8 13 -11 12 -12 -1 -15
right_child=1 -3 6 5 -6 7 8 -9 -10 10 11 -13 -14 14 -16
leaf_value=-0.012158769398400753 0.056010500328292294 0.021197550027068905 -0.070332950627693638 0.02513300595334313 -0.085484332098046276 -0.019917728105737366 -0.016257559194543754 0.0087905756344024352 -0.038538738314415656 0.0064832537478991901 -0.035501384883848013 0.003217336463550536 -0.10484824974423308 -0.056883500247443625 -0.016079175264524806
leaf_weight=2.789961636066439 2.55027812719345 2.8913957118056715 0.28741283365525205 1.0862686103209855 0.3468303780537097 1.0438696511555465 2.8472126710694283 1.5036092824302612 1.3568204240873454 1.6389253139495852 0.19085871125571416 0.4734737565740943 0.099266414297744646 0.43233734741806962 0.7380945235490799
leaf_count=8 8 6 20 8 8 16 40 16 16 8 8 8 8 24 8
internal_value=0 0.375129 -0.137603 -0.0825053 -0.156588 0.0542891 -0.264488 -0.029731 -0.234486 -0.118528 -0.0209561 -0.205086 -0.592284 -0.177718 -0.311516
internal_weight=0 5.44167 14.8349 10.3435 6.70975 3.63375 4.49145 2.54748 4.20403 6.36292 2.40252 0.763599 0.290125 3.96039 1.17043
internal_count=210 14 196 120 80 40 76 32 56 72 32 24 16 40 32
shrinkage=0.1


Tree=24
num_leaves=16
num_cat=0
split_feature=0 0 0 0 0 0 0 0 0 0 0 0 0 0 0
split_gain=0.297462 1.15592 0.290778 0.157169 0.130126 0.389512 0.126157 0.0803524 0.0720874 0.128775 0.0613783 0.0354483 0.0341861 0.0434678 0.0311045
threshold=0.0092596468266261649 0.0099013501579142058 0.029669815641127726 0.0048915492789307095 0.0034139475987942222 0.0032123904825280586 0.0036305583950912456 0.041395876521643983 0.0022947574831414402 0.0020096510130461283 0.0029133719470074175 0.00057152661599419276 0.0010394289129215773 0.0016195329249224816 0.0041562167850123432
decision_type=2 2 2 2 2 2 2 2 2 2 2 2 2 2 2
left_child=3 -2 -3 4 5 8 -6 -4 9 11 -10 -1 -13 -14 -8
right_child=1 2 7 -5 6 -7 14 -9 10 -11 -12 12 13 -15 -16
leaf_value=-0.017611166439183847 0.10458973502636049 -0.042625024532888633 -0.002240165369262553 -0.069526925122707792 0.040487600118487177 -0.13723935734825418 -0.063594586446777304 0.020598116160584809 0.013548864569622439 -0.076695629547693475 -0.022594530061416745 0.0061741883238432384 -0.05124399289840819 -0.0013872175201366528 -0.0062057411297430009
leaf_weight=3.9412376536056364 1.2107318192720393 1.355274482630193 3.2697061784565449 0.43521222868003034 0.97987566236406642 0.24490043520927507 0.11466786358505487 2.9130175821483135 1.9400881147012115 0.32152632065117348 0.6199981125537305 1.59918899089098 0.27609787590336043 0.47696688491851086 0.53544428641907871
leaf_count=40 8 16 8 28 8 8 12 6 20 8 8 8 16 8 8
internal_value=0 0.138922 -0.00675327 -0.105823 -0.0826069 -0.127748 0.17827 0.0852019 -0.0945257 -0.149668 0.0479571 -0.118132 -0.0209855 -0.196663 -0.163281
internal_weight=0 8.74873 7.538 11.4852 11.05 9.42 1.62999 6.18272 9.1751 6.61502 2.56009 6.29349 2.35225 0.753065 0.650112
internal_count=210 38 30 172 144 116 28 14 108 80 28 72 32 24 20
shrinkage=0.1


Tree=25
num_leaves=16
num_cat=0
split_feature=0 0 0 0 0 0 0 0 0 0 0 0 0 0 0
split_gain=0.397664 0.0592777 0.122833 0.288843 0.104368 0.137569 0.059373 0.055086 0.0856764 0.0852229 0.0508216 0.0460196 0.242757 0.0580894 0.0392005
threshold=0.029669815641127726 0.0099013501579142058 0.0034139475987942222 0.0032123904825280586 0.0036305583950912456 0.0092596468266261649 0.0048915492789307095 0.0022947574831414402 0.0020096510130461283 0.0024586477391523223 0.0027390048446439721 0.00050676892211202931 0.00038205361778671098 0.00033208591016369889 0.0016195329249224816
decision_type=2 2 2 2 2 2 2 2 2 2 2 2 2 2 2
left_child=1 2 3 7 -4 6 -6 8 11 -9 -11 12 13 -1 -13
right_child=-2 -3 4 -5 5 -7 -8 9 -10 10 -12 14 -14 -15 -16
leaf_value=-0.013008627046698177 0.023172010661405836 -0.029078159326843503 0.037463239370221418 -0.13184259964363587 -0.009699938628281243 0.018158499855695034 -0.058828086963753981 0.024668861181096367 -0.066557734812358479 -0.047697632197231096 -0.0031066542608473493 -0.028321216569620507 0.056582199053200846 -0.080396128259775088 0.0030930660885580686
leaf_weight=2.9863485714886346 5.3654881576076141 1.3094163574278344 0.9567243736237282 0.19912173552438692 0.60716563020832837 1.4736447385512292 0.4135462604463101 1.0257747285068037 0.3064081473276018 0.32490094797685726 1.1982355858199296 2.1427927801851188 0.54248703503981222 0.13364447141066182 0.4876189250499009
leaf_count=20 14 16 8 8 20 8 28 8 8 8 12 28 8 8 8
internal_value=0 -0.0881278 -0.0673941 -0.126921 0.093836 -0.013865 -0.296044 -0.100987 -0.149212 0.0238737 -0.126184 -0.12407 -0.0515981 -0.158952 -0.224977
internal_weight=0 14.1078 12.7984 9.34733 3.45108 2.49436 1.02071 9.14821 6.5993 2.54891 1.52314 6.29289 3.66248 3.11999 2.63041
internal_count=210 196 180 116 64 56 48 108 80 28 20 72 36 28 36
shrinkage=0.1


Tree=26
num_leaves=16
num_cat=0
split_feature=0 0 0 0 0 0 0 0 0 0 0 0 0 0 0
split_gain=0.422117 0.379235 0.0621768 0.0381946 0.0966614 0.166764 0.0609543 0.0620826 0.0463673 0.0344037 0.0368062 0.0827481 0.0262391 0.270009 0.0421376
threshold=0.011470598474560776 0.034700692463974864 0.016412443178414997 0.00057152661599419276 0.0023979150879703676 0.0027390048446439721 0.00033208591016369889 0.00040819260646470299 0.00029723335608637251 0.0021377646103648952 0.0010394289129215773 0.0017774253011659119 0.0034139475987942222 0.0032123904825280586 0.0036305583950912456
decision_type=2 2 2 2 2 2 2 2 2 2 2 2 2 2 2
left_child=3 2 -2 6 9 -6 8 -8 -1 10 -5 -12 13 -7 -14
right_child=1 -3 -4 4 5 12 7 -9 -10 -11 11 -13 14 -15 -16
leaf_value=-0.014700467878296956 0.022410337158370652 -0.0019078927739038601 0.055229881020644724 0.0092465589715647264 -0.075072973196934054 -0.0044743113834732305 -0.087953832254288516 -0.026707941780725275 0.043131554252282552 0.021435181483752314 -0.057103267206712799 0.0051543321545137813 0.01367244029730573 -0.13462914178353411 -0.0117074034398192
leaf_weight=2.850482276640836 0.77808543108403616 3.4153460087254643 2.2363956551998854 1.5403205826878537 0.42951878067105997 1.1936009188648311 0.21841034642420695 0.6832888200879097 0.1457230292726307 1.0244572244118897 0.32114793395157887 0.63683036714792252 0.86066249385476146 0.18395278532989312 2.7266124276211485
leaf_count=12 8 10 8 8 12 12 12 8 8 8 20 8 8 8 60
internal_value=0 0.209083 0.467586 -0.104906 -0.068811 -0.152948 -0.187479 -0.41543 -0.118878 0.0600267 -0.0032562 -0.157166 -0.101232 -0.218546 -0.0561825
internal_weight=0 6.42983 3.01448 12.815 8.9171 5.39435 3.8979 0.901699 2.99621 3.52276 2.4983 0.957978 4.96483 1.37755 3.58727
internal_count=210 26 16 184 144 100 40 20 20 44 36 28 88 20 68
shrinkage=0.1


Tree=27
num_leaves=16
num_cat=0
split_feature=0 0 0 0 0 0 0 0 0 0 0 0 0 0 0
split_gain=0.276462 0.241861 0.163898 0.116106 0.0995403 0.0564107 0.0424058 0.0249557 0.0489678 0.0206324 0.0836092 0.0470702 0.0709615 0.0169745 0.0557778
threshold=0.0094507608490938186 0.012461600045750023 0.003486351886164325 0.00057152661599419276 0.029669815641127726 0.00370164691634388 0.041395876521643983 0.00033208591016369889 0.00040819260646470299 0.0022947574831414402 0.0020096510130461283 0.0029133719470074175 0.0032783312239091883 0.0010394289129215773 0.0016195329249224816
decision_type=2 2 2 2 2 2 2 2 2 2 2 2 2 2 2
left_child=2 -2 3 7 -3 -4 -6 -1 -9 10 13 -11 -13 -5 -15
right_child=1 4 5 9 6 -7 -8 8 -10 11 -12 12 -14 14 -16
leaf_value=-0.014787487135218417 0.049125170958324922 -0.030638103431626741 -0.097329185041912028 0.0090642394460935753 0.0017229782118741883 -0.034991997101178347 0.018534967287351847 -0.078541662135220847 -0.021411096449308636 0.019100890788368366 -0.053283633464479722 -0.028914859028786995 0.014827436726547225 -0.046942961663859806 0.010409496844127801
leaf_weight=3.0154779206495754 1.5743773970752934 0.68202383443713177 0.16464512632228334 1.5157148987054831 3.1733972653746605 1.2270484970649702 2.8457572963088751 0.19231516821309916 0.68230877444148064 1.8318456159904601 0.29904503235593427 0.67251206678338327 0.82684677210636437 0.25847635383252043 0.49301701877266169
leaf_count=20 12 8 8 8 8 48 6 12 8 20 8 12 8 16 8
internal_value=0 0.138552 -0.102564 -0.0569067 0.0556884 -0.423668 0.0967141 -0.191011 -0.339732 0.0315514 -0.0358382 0.0834662 -0.0479243 0.0297159 -0.093169
internal_weight=0 8.27556 11.1793 9.78756 6.70118 1.39169 6.01915 3.8901 0.874624 5.89746 2.56625 3.3312 1.49936 2.26721 0.751493
internal_count=210 34 176 120 22 56 14 40 20 80 40 40 20 32 24
shrinkage=0.1


Tree=28
num_leaves=16
num_cat=0
split_feature=0 0 0 0 0 0 0 0 0 0 0 0 0 0 0
split_gain=0.669745 0.0656318 0.0459956 0.0358845 0.0808045 0.10352 0.0269537 0.117306 0.0370713 0.0202433 0.0983171 0.0188933 0.0188418 0.0909201 0.0142026
threshold=0.029669815641127726 0.041395876521643983 0.0099013501579142058 0.00057152661599419276 0.0023979150879703676 0.0027390048446439721 0.003486351886164325 0.0045249144143414627 0.0030745927766122729 0.0092596468266261649 0.0057135858088470373 0.012461600045750023 0.0017774253011659119 0.0012204174449384987 0.00033208591016369889
decision_type=2 2 2 2 2 2 2 2 2 2 2 2 2 2 2
left_child=2 -2 3 14 12 -6 8 -8 -7 10 -9 -4 13 -5 -1
right_child=1 -3 11 4 5 6 7 9 -10 -11 -12 -13 -14 -15 -16
leaf_value=-0.014880829570954374 0.041954132230839089 0.019675993908637751 -0.046917679325200065 0.0043188069618908444 -0.064450411347680689 -0.020560491685077252 -0.08167742397902171 -0.0012376553337589762 0.0080819095547350773 -0.003981052256673388 -0.077484833198790057 -0.019610244150794608 0.013131417151635372 -0.085113102948801075 -0.02936563452295516
leaf_weight=3.0280742861796202 2.4809573888778678 2.831725291442126 0.47201772220432647 1.6907603603322043 0.38366523524746288 0.68486119760200415 0.25369418930495191 0.58951712423004221 1.3282880040351299 1.6721405726857483 0.23714421584736561 0.54694842360913765 1.6264099250547586 0.12187161634210486 0.87182412017136801
leaf_count=20 8 6 8 16 12 8 20 12 16 8 20 8 16 12 20
internal_value=0 0.300796 -0.11831 -0.101641 -0.0655187 -0.144788 -0.104558 -0.168875 -0.0166206 -0.103096 -0.231107 -0.322599 0.0531726 -0.0169411 -0.181189
internal_weight=0 5.31268 13.5072 12.4883 8.58835 5.14931 4.76565 2.7525 2.01315 2.4988 0.826661 1.01897 3.43904 1.81263 3.8999
internal_count=210 14 196 180 140 96 84 60 24 40 32 16 44 28 40
shrinkage=0.1


Tree=29
num_leaves=16
num_cat=0
split_feature=0 0 0 0 0 0 0 0 0 0 0 0 0 0 0
split_gain=0.30947 0.242467 0.0746139 0.0639792 0.0973008 0.0520017 0.0231709 0.0326185 0.0228342 0.0808056 0.0277241 0.071544 0.0209665 0.0276084 0.0172013
threshold=0.0094507608490938186 0.012461600045750023 0.041395876521643983 0.003486351886164325 0.00057152661599419276 0.0045249144143414627 0.00033208591016369889 0.00040819260646470299 0.0023979150879703676 0.0025691267063415527 0.0017774253011659119 0.0010394289129215773 0.0029133719470074175 0.0032783312239091883 0.029669815641127726
decision_type=2 2 2 2 2 2 2 2 2 2 2 2 2 2 2
left_child=3 -2 14 4 6 -5 -1 -8 10 -10 11 -6 -11 -14 -3
right_child=1 2 -4 5 8 -7 7 -9 9 12 -12 -13 13 -15 -16
leaf_value=-0.016110341028685336 0.051961579981016498 -0.018422335198068147 0.018974206381654948 -0.075542615556163539 0.0052588226163971085 -0.022642553967523911 -0.073444707823368413 -0.025167209013138639 -0.084396403948389001 0.010151342649148944 0.014457655974540646 -0.049830168239273123 -0.025547699560497867 0.0026044791536545282 0.00038366603540500885
leaf_weight=3.0264255150686972 1.4460493512451629 0.57388166058808598 2.8457166468724608 0.22749798092991011 1.4803477078676226 1.0144572684075681 0.17250029440037895 0.74167656898498524 0.12938083685003254 0.7746272534132006 1.6748942267149685 0.2803990211104973 0.64514996833167948 0.75720725976862013 3.1896157935261726
leaf_count=20 12 8 6 20 8 36 12 8 8 8 16 20 12 8 8
internal_value=0 0.148705 0.0675522 -0.109648 -0.0822403 -0.323326 -0.203248 -0.342769 0.000804357 -0.076162 0.0524723 -0.035141 -0.0305306 -0.103468 -0.0248399
internal_weight=0 8.05526 6.60921 10.9246 9.68261 1.24196 3.9406 0.914177 5.74201 2.30637 3.43564 1.76075 2.17698 1.40236 3.7635
internal_count=210 34 22 176 120 56 40 20 80 36 44 28 28 20 16
shrinkage=0.1


Tree=30
num_leaves=16
num_cat=0
split_feature=0 0 0 0 0 0 0 0 0 0 0 0 0 0 0
split_gain=0.546775 0.522494 0.0704341 0.0936597 0.0640023 0.0692895 0.0499166 0.0383416 0.0673343 0.0321673 0.0314099 0.025766 0.0232825 0.0162654 0.0157793
threshold=0.011470598474560776 0.034700692463974864 0.003486351886164325 0.00057152661599419276 0.0023979150879703676 0.0030745927766122729 0.0045249144143414627 0.0017774253011659119 0.0012204174449384987 0.00033208591016369889 0.0025691267063415527 0.00040819260646470299 0.016412443178414997 0.0038655866004841583 0.0010394289129215773
decision_type=2 2 2 2 2 2 2 2 2 2 2 2 2 2 2
left_child=2 12 3 9 7 10 13 8 14 -1 -6 -11 -2 -4 -5
right_child=1 -3 6 4 5 -7 -8 -9 -10 11 -12 -13 -14 -15 -16
leaf_value=-0.014651914784121388 0.037539771666014653 -0.0016113878960080784 -0.055179342847267138 0.0067493036264352508 -0.080522077641579579 0.00328543317218145 -0.022205242008498924 0.019428174599604844 -0.078128370578307391 -0.071286491507032965 -0.025486287719988721 -0.028159462023783451 0.061725320274253662 -0.11663795859234921 -0.026228575104939242
leaf_weight=2.9965194403193913 0.48521348834037725 3.3815551968291402 0.1482544118771324 1.4406438097357752 0.11662279535084984 1.2427091426216064 2.5694943814305589 1.7172601565252987 0.10806116461753834 0.16742928815074254 0.9358105764258654 0.8026297502219677 2.2152616437524557 0.060691082035191357 0.16134022781625379
leaf_count=20 8 10 12 8 8 16 44 16 12 12 12 8 8 8 8
internal_value=0 0.245812 -0.119915 -0.0796652 0.00219136 -0.127043 -0.260275 0.088735 -0.017257 -0.197757 -0.315849 -0.356031 0.573797 -0.730308 0.0342801
internal_weight=0 6.08203 12.4675 9.68903 5.72245 2.29514 2.77844 3.42731 1.71005 3.96658 1.05243 0.970059 2.70048 0.208945 1.60198
internal_count=210 26 184 120 80 36 64 44 28 40 20 20 16 20 16
shrinkage=0.1


Tree=31
num_leaves=16
num_cat=0
split_feature=0 0 0 0 0 0 0 0 0 0 0 0 0 0 0
split_gain=0.235889 0.813662 0.202017 0.0716173 0.0631084 0.0509931 0.0729284 0.0775482 0.0846376 0.0587809 0.0970106 0.150404 0.0433254 0.038791 0.0365965
threshold=0.0092596468266261649 0.0099013501579142058 0.029669815641127726 0.0048915492789307095 0.041395876521643983 0.00040819260646470299 0.00088350347698647733 0.0022947574831414402 0.0020096510130461283 0.0029133719470074175 0.0034139475987942222 0.0032123904825280586 0.0016195329249224816 0.0036305583950912456 0.00033208591016369889
decision_type=2 2 2 2 2 2 2 2 2 2 2 2 2 2 2
left_child=3 -2 -3 5 -4 14 -7 8 12 -9 11 -11 -8 -12 -1
right_child=1 2 4 -5 -6 6 7 9 -10 10 13 -13 -14 -15 -16
leaf_value=-0.016341342581533552 0.0924823770591085 -0.042763821712752483 -0.0027509312223341497 -0.054318244187105708 0.017827363208925858 0.016901706809355831 -0.029087864865845636 0.013445490609784906 -0.075589073029561873 -0.017672264955626512 0.01873330083499267 -0.12878097949243955 0.005420456311330521 -0.015847456383691543 -0.065351333465322375
leaf_weight=3.0193562658969317 1.1078042024746517 0.9458282822743056 3.1538624577224255 0.34997103956993747 2.8253165185451508 1.3966520875692365 0.98077368107624319 1.6889931184705349 0.2845982378348707 0.58948804088868245 0.78425185754895199 0.15357137634418905 0.57838373724371195 0.55320614605443552 0.16045671747997392
leaf_count=20 8 16 8 28 6 12 20 20 8 8 8 8 8 20 12
internal_value=0 0.129092 0.00179733 -0.0983871 0.0697284 -0.0831104 -0.0354652 -0.086343 -0.254405 -0.00414007 -0.116653 -0.406356 -0.162867 0.0442983 -0.188144
internal_weight=0 8.03281 6.92501 10.5397 5.97918 10.1897 7.00992 5.61327 1.84376 3.76951 2.08052 0.743059 1.55916 1.33746 3.17981
internal_count=210 38 30 172 14 144 112 100 36 64 44 16 28 28 32
shrinkage=0.1


Tree=32
num_leaves=16
num_cat=0
split_feature=0 0 0 0 0 0 0 0 0 0 0 0 0 0 0
split_gain=0.396231 0.0297899 0.0472308 0.030426 0.0243665 0.0324979 0.0706506 0.0427993 0.01989 0.0149843 0.0125017 0.0108875 0.0760243 0.0120459 0.0105857
threshold=0.029669815641127726 0.00040819260646470299 0.0023979150879703676 0.011470598474560776 0.0025691267063415527 0.003486351886164325 0.0045249144143414627 0.0030745927766122729 0.041395876521643983 0.00033208591016369889 0.0038655866004841583 0.0017774253011659119 0.0010394289129215773 0.0012204174449384987 0.00057152661599419276
decision_type=2 2 2 2 2 2 2 2 2 2 2 2 2 2 2
left_child=1 9 11 4 -4 7 10 -6 -2 -1 -7 12 14 -14 -3
right_child=8 2 3 -5 5 6 -8 -9 -10 -11 -12 -13 13 -15 -16
leaf_value=-0.016372946916352358 0.029900742382373141 -0.005997440195943113 -0.060855754809307785 0.0058424150678055859 -0.022098314674559263 -0.063083166195052429 -0.017283500991143591 0.0067453455366959097 0.017489659369182488 -0.047991407842462946 -0.11796986191058044 0.0078600532080061441 -0.036169854499916269 -0.079777822405582233 0.0092226903843140549
leaf_weight=3.0196758268866719 2.4115002900362006 0.70494436472654287 0.11642324342392374 0.7627408280968665 0.88722705841064475 0.14130681357346508 2.3358647092245519 1.224367525661364 2.779675860889256 0.15771179529838253 0.058753338409587741 1.6420311857946215 0.1662038592621683 0.10235440963879228 1.2990272119641302
leaf_count=20 8 8 8 12 12 12 44 16 6 12 8 16 8 12 8
internal_value=0 -0.095669 -0.067482 -0.127008 -0.156697 -0.145378 -0.221683 -0.0537387 0.232551 -0.179424 -0.792022 0.0165585 -0.0282703 -0.5279 0.0386865
internal_weight=0 12.6186 9.44124 5.52668 4.76394 4.64752 2.53592 2.11159 5.19118 3.17739 0.20006 3.91456 2.27253 0.268558 2.00397
internal_count=210 196 164 112 100 92 64 28 14 32 20 52 36 20 16
shrinkage=0.1


Tree=33
num_leaves=16
num_cat=0
split_feature=0 0 0 0 0 0 0 0 0 0 0 0 0 0 0
split_gain=0.207249 0.221117 0.17454 0.0665346 0.0523229 0.35454 0.0693648 0.0325267 0.0320532 0.0676479 0.13176 0.0352416 0.0234527 0.0227829 0.0160465
threshold=0.0092596468266261649 0.0099013501579142058 0.029669815641127726 0.0048915492789307095 0.00038205361778671098 0.00050676892211202931 0.0017774253011659119 0.0012204174449384987 0.0029133719470074175 0.0034139475987942222 0.0032123904825280586 0.0022947574831414402 0.00033208591016369889 0.00088350347698647733 0.0036305583950912456
decision_type=2 2 2 2 2 2 2 2 2 2 2 2 2 2 2
left_child=3 -2 -3 4 12 -6 7 13 11 10 -10 -8 -1 -7 -11
right_child=1 2 -4 -5 5 6 8 -9 9 14 -12 -13 -14 -15 -16
leaf_value=-0.017269684824569326 0.0523585260528057 -0.035287228173489581 0.011528728877247325 -0.053560375646386917 0.077963850696158424 -0.034218014284536816 -0.011624280759193599 -0.082305349863824512 -0.016182753531577991 0.011208245979480079 -0.12613161829417738 0.013332127637393802 -0.072362428589990382 -0.011169961038190172 -0.011923609426410174
leaf_weight=3.0396410801913594 1.164098314475267 0.92090691067278363 5.8881625300273299 0.33058949653059322 0.50065444456413377 0.86505114659666993 0.86421114439144764 0.097025975584983715 0.57604572409763921 0.73088538832962491 0.13442937121726573 1.6388961137272415 0.079284228617325314 0.85061241232324381 0.50855040224269032
leaf_count=20 8 16 14 28 8 8 12 12 8 8 8 20 8 12 20
internal_value=0 0.120827 0.0519701 -0.0943015 -0.0795432 -0.030149 -0.0948542 -0.259765 -0.0277238 -0.12385 -0.369862 0.0471579 -0.186702 -0.22791 0.0171706
internal_weight=0 7.97317 6.80907 10.2159 9.88529 6.76636 6.26571 1.81269 4.45302 1.94991 0.710475 2.50311 3.11893 1.71566 1.23944
internal_count=210 38 30 172 144 116 108 32 76 44 16 32 28 20 28
shrinkage=0.1


Tree=34
num_leaves=16
num_cat=0
split_feature=0 0 0 0 0 0 0 0 0 0 0 0 0 0 0
split_gain=0.430127 0.0484487 0.0921069 0.0386501 0.0290729 0.0166035 0.11271 0.042821 0.027439 0.0288569 0.0192376 0.0132274 0.0553259 0.0200313 0.0100588
threshold=0.029669815641127726 0.00057152661599419276 0.0029133719470074175 0.011470598474560776 0.041395876521643983 0.0034139475987942222 0.0032123904825280586 0.0048915492789307095 0.0080342926500988534 0.0057135858088470373 0.0094507608490938186 0.0010394289129215773 0.0017774253011659119 0.0022947574831414402 0.0012204174449384987
decision_type=2 2 2 2 2 2 2 2 2 2 2 2 2 2 2
left_child=1 -1 11 5 -2 6 -4 -7 9 -9 -10 -3 14 -14 -13
right_child=4 2 3 -5 -6 7 -8 8 10 -11 -12 12 13 -15 -16
leaf_value=-0.01955008017819989 0.032196293746898232 0.013151546754639138 -0.015683021130941634 0.005238879785879837 0.017181275360357712 -0.001922858076471589 -0.12375521980945317 -0.026010001724940241 0.0028746313328953102 -0.096455587616924812 -0.026257208174673891 -0.029469459073443002 -0.0069131032959443735 0.012150291097409451 -0.072099339662787323
leaf_weight=3.7979408733081099 2.4145093671977511 1.3429990708827952 0.57432223786599967 0.73503271210938692 2.7677554339170456 1.2022343021817508 0.11599152884446084 0.12780009268317361 0.27059893001569424 0.10669548495206982 1.3966993540525434 0.15451842709444497 0.84538738639093969 1.5839364896528421 0.086243404599372284
leaf_count=40 8 8 8 12 6 28 8 8 12 12 8 8 12 20 12
internal_value=0 -0.10153 -0.0597507 -0.157491 0.24177 -0.198149 -0.338421 -0.166953 -0.260338 -0.580627 -0.215292 0.0505643 0.00984752 0.0551637 -0.447399
internal_weight=0 12.3404 8.54246 4.52937 5.18226 3.79434 0.690314 3.10403 1.90179 0.234496 1.6673 4.01308 2.67009 2.42932 0.240762
internal_count=210 196 156 96 14 84 16 68 40 20 20 60 52 32 20
shrinkage=0.1


Tree=35
num_leaves=16
num_cat=0
split_feature=0 0 0 0 0 0 0 0 0 0 0 0 0 0 0
split_gain=0.196065 0.460145 0.112895 0.0637091 0.0613462 0.0459787 0.0451066 0.0449833 0.0287328 0.0213894 0.120517 0.0330874 0.0350999 0.0230247 0.020109
threshold=0.0092596468266261649 0.0099013501579142058 0.029669815641127726 0.00040819260646470299 0.003486351886164325 0.0045249144143414627 0.0057135858088470373 0.041395876521643983 0.00033208591016369889 0.0020096510130461283 0.0022947574831414402 0.0016195329249224816 0.00088350347698647733 0.0029133719470074175 0.0080342926500988534
decision_type=2 2 2 2 2 2 2 2 2 2 2 2 2 2 2
left_child=3 -2 -3 8 9 -6 -7 -4 -1 11 -11 12 -5 -12 -8
right_child=1 2 7 4 5 6 14 -9 -10 10 13 -13 -14 -15 -16
leaf_value=-0.018954073246361933 0.073527887952619178 -0.030771620319796973 -0.00088367432565507125 0.011498440903062025 -0.072999656111761665 -0.0021473194476405179 -0.092234263901251778 0.016581559625126203 -0.065440602664014066 -0.07042419397892842 0.0082574260135743292 0.026710487369905014 -0.014343833145315772 -0.0098012252679846642 -0.02456259378464707
leaf_weight=3.0470832774881296 1.0469530285336066 0.89538908656686533 3.1366343274712563 1.2251864932477481 0.18293893750524137 0.52926580293569714 0.093764058721717433 2.7832398926839232 0.13902733311988402 0.2641972110141072 1.5767421720083805 0.61572207324206818 0.92044172121677525 1.2785277905641121 0.082589392375666662
leaf_count=20 8 16 8 12 20 12 12 6 12 8 20 8 20 20 8
internal_value=0 0.118041 0.0232216 -0.0932214 -0.0383399 -0.283244 -0.167418 0.0732764 -0.209825 -0.00133633 -0.0580778 0.0627639 0.004125 0.00171155 -0.605424
internal_weight=0 7.86222 6.81526 9.95549 6.76938 0.888558 0.705619 5.91987 3.18611 5.88082 3.11947 2.76135 2.14563 2.85527 0.176353
internal_count=210 38 30 172 140 52 32 14 32 88 48 40 32 40 20
shrinkage=0.1


Tree=36
num_leaves=16
num_cat=0
split_feature=0 0 0 0 0 0 0 0 0 0 0 0 0 0 0
split_gain=0.50171 0.102459 0.196181 0.312626 0.0837974 0.0555218 0.027357 0.0239474 0.0226196 0.0132482 0.103039 0.0210742 0.0365456 0.0159754 0.0458086
threshold=0.00040819260646470299 0.029669815641127726 0.0020096510130461283 0.0016195329249224816 0.0022947574831414402 0.0029133719470074175 0.011470598474560776 0.0010394289129215773 0.00057152661599419276 0.0034139475987942222 0.0032123904825280586 0.0036305583950912456 0.0045249144143414627 0.0057135858088470373 0.0080342926500988534
decision_type=2 2 2 2 2 2 2 2 2 2 2 2 2 2 2
left_child=-1 2 3 7 -4 -6 9 8 -2 10 -7 -11 -13 -14 -15
right_child=1 -3 4 -5 5 6 -8 -9 -10 11 -12 12 13 14 -16
leaf_value=-0.034188945116286652 -0.010760609145531761 0.01961134208431033 -0.065354354736675654 0.072884912302454835 0.010139193595900004 -0.011925822492126772 0.0057144921730126266 -0.031631211536624605 0.012762258616210116 0.003100585140945872 -0.12329557803298213 -0.080561037829382898 0.00054141713279173441 -0.091880330861097731 -0.015769103294385311
leaf_weight=3.4471105353441116 0.60182241722941299 5.149427060969173 0.24884900916367761 0.8806157107464968 1.5418494394980369 0.55530562927015159 0.71625966858118761 0.19466157694114361 1.2745372578501699 0.64423873135820064 0.097688189707696452 0.088174721866380756 0.50982333847787276 0.083560688421130083 1.4736834423383696
leaf_count=32 8 14 8 8 20 8 12 16 8 8 8 16 12 12 20
internal_value=0 0.0838185 0.0189269 0.229758 -0.0854953 -0.0607416 -0.120708 0.0175402 0.0521755 -0.157606 -0.285868 -0.127689 -0.175125 -0.14823 -0.198532
internal_weight=0 14.0605 8.91107 2.95164 5.95943 5.71058 4.16873 2.07102 1.87636 3.45247 0.652994 2.79948 2.15524 2.06707 1.55724
internal_count=210 178 164 40 124 116 96 32 16 84 16 68 60 44 32
shrinkage=0.1


Tree=37
num_leaves=16
num_cat=0
split_feature=0 0 0 0 0 0 0 0 0 0 0 0 0 0 0
split_gain=0.758769 0.164029 0.13726 0.146421 0.0265754 0.0366023 0.0339034 0.019084 0.018962 0.0600654 0.13477 0.0346846 0.0245592 0.0177612 0.0159157
threshold=0.029669815641127726 0.041395876521643983 0.0094507608490938186 0.011470598474560776 0.00057152661599419276 0.0010394289129215773 0.0017774253011659119 0.0012204174449384987 0.0029133719470074175 0.0034139475987942222 0.0032123904825280586 0.0022947574831414402 0.0036305583950912456 0.0045249144143414627 0.0038655866004841583
decision_type=2 2 2 2 2 2 2 2 2 2 2 2 2 2 2
left_child=2 -2 4 -4 -1 -6 7 -7 11 10 -10 -8 -11 14 -14
right_child=1 -3 3 -5 5 6 8 -9 9 12 -12 -13 13 -15 -16
leaf_value=-0.015050213623421797 0.05109380817348768 0.015411985800745801 -0.052109787696843685 0.0026190156502872578 0.010819638747030083 -0.023455713842259862 -0.016067305190275175 -0.081723253527435744 -0.017830142049642176 0.011699875055191912 -0.13642414552177556 0.0085508564603414151 -0.016274637919807357 -0.008767714694780852 -0.10476132596966588
leaf_weight=3.7565666206646728 2.4309772066771975 2.7409120430238545 1.6027292422950261 0.7033847989514469 1.2600833922624586 0.15424098132643838 0.89305884717032336 0.088440987863577902 0.57120299641974304 0.6994757968932388 0.11513709148857744 1.5934175197035072 0.043669708538800478 0.90095209667924803 0.038027427275665104
leaf_count=40 8 6 8 12 8 8 12 12 8 8 8 20 8 36 8
internal_value=0 0.321837 -0.134014 -0.35417 -0.0838173 -0.0444153 -0.0821395 -0.446902 -0.0639062 -0.12794 -0.377249 -0.00291161 -0.026217 -0.128162 -0.574624
internal_weight=0 5.17189 12.4204 2.30611 10.1143 6.35771 5.09762 0.242682 4.85494 2.36847 0.68634 2.48648 1.68213 0.982649 0.0816971
internal_count=210 14 196 20 176 136 128 20 108 76 16 32 60 52 16
shrinkage=0.1


Tree=38
num_leaves=16
num_cat=0
split_feature=0 0 0 0 0 0 0 0 0 0 0 0 0 0 0
split_gain=0.184662 0.517744 0.113141 0.0258613 0.0194662 0.236443 0.0508406 0.0190469 0.0425741 0.0314411 0.0550991 0.0511929 0.0184439 0.0152482 0.0351455
threshold=0.0094507608490938186 0.012461600045750023 0.041395876521643983 0.029669815641127726 0.00050676892211202931 0.00038205361778671098 0.00088350347698647733 0.003486351886164325 0.0045249144143414627 0.0030745927766122729 0.0023979150879703676 0.0025691267063415527 0.00033208591016369889 0.0057135858088470373 0.0080342926500988534
decision_type=2 2 2 2 2 2 2 2 2 2 2 2 2 2 2
left_child=4 -2 3 -3 5 12 -6 9 -9 10 -8 -12 -1 -10 -15
right_child=1 2 -4 -5 6 -7 7 8 13 -11 11 -13 -14 14 -16
leaf_value=-0.011934984970773792 0.072758602037733169 -0.032840951113366101 0.015768870489320096 -0.0077610884550113534 -0.035005647416240626 0.063450703169583025 -0.0028824939574799901 -0.068225329415568969 -0.0015711794791617229 0.0085588131416385934 -0.095432068292850017 -0.022730603069488212 -0.065075144222655174 -0.088049462058926928 -0.011767779436825535
leaf_weight=2.9562114109285202 1.1758920410647977 0.47244399040937457 2.7821002965793014 3.169085793197155 0.84671217016875733 0.465508488472551 2.5317745517240842 0.16100535163423024 0.52965630160178989 1.1252766565885393 0.10909353708848346 0.8633881537243725 0.066789901582524069 0.077185991918668151 0.27771177742397413
leaf_count=20 12 8 6 8 8 8 40 20 12 16 8 12 8 12 12
internal_value=0 0.117528 0.00585263 -0.110149 -0.0892238 -0.0289289 -0.121475 -0.0873716 -0.209276 -0.05984 -0.10654 -0.308863 -0.131091 -0.123185 -0.283581
internal_weight=0 7.59952 6.42363 3.64153 10.0103 3.48851 6.5218 5.67509 1.04556 4.62953 3.50426 0.972482 3.023 0.884554 0.354898
internal_count=210 34 22 16 176 36 140 132 56 76 60 20 28 36 24
shrinkage=0.1


Tree=39
num_leaves=16
num_cat=0
split_feature=0 0 0 0 0 0 0 0 0 0 0 0 0 0 0
split_gain=0.145047 0.141779 0.044894 0.0436494 0.0422555 0.100786 0.0353175 0.0306414 0.0740122 0.0300845 0.0231341 0.0206175 0.0157731 0.0200459 0.012399
threshold=0.0094507608490938186 0.034700692463974864 0.00057152661599419276 0.0029133719470074175 0.0034139475987942222 0.0032123904825280586 0.00033208591016369889 0.0022947574831414402 0.0020096510130461283 0.0010394289129215773 0.00040819260646470299 0.0048915492789307095 0.0016195329249224816 0.0012204174449384987 0.0086968362086252311
decision_type=2 2 2 2 2 2 2 2 2 2 2 2 2 2 2
left_child=2 -2 6 7 5 -5 -1 8 9 -4 -8 -6 13 -11 -13
right_child=1 -3 3 4 11 -7 10 -9 -10 12 -12 14 -14 -15 -16
leaf_value=-0.011772161812479556 0.022534662433834469 -0.0050539193071353107 0.01178814803741007 -0.018797125471238307 0.0021639522175290861 -0.12870543201131865 -0.073223895677078252 0.014728599760570119 -0.057280228179743847 -0.018575892469276586 -0.027769505951744818 -0.037166101974369335 -0.004857090907924631 -0.091998415214775711 -0.0049653989337275634
leaf_weight=2.9451273512095235 4.2458893512375644 3.3187422417104244 1.3198063746094715 0.56644519860856268 1.1554231903282923 0.097845583921298385 0.13725280272774387 1.5229380500968543 0.23049071850255121 0.14762615028303103 0.60784062184393406 0.26180352957453568 0.66177784185856581 0.049704840173944831 0.2201201559510082
leaf_count=20 24 10 8 8 28 8 12 20 8 8 8 24 8 8 8
internal_value=0 0.10431 -0.0795096 -0.0277621 -0.137136 -0.349859 -0.166928 0.0362554 -0.0339248 0.0230789 -0.361426 -0.0508317 -0.122562 -0.3707 -0.224583
internal_weight=0 7.56463 9.9242 6.23398 2.30164 0.664291 3.69022 3.93234 2.40941 2.17892 0.745093 1.63735 0.859109 0.197331 0.481924
internal_count=210 34 176 136 76 16 40 60 40 32 20 60 24 16 32
shrinkage=0.1


Tree=40
num_leaves=16
num_cat=0
split_feature=0 0 0 0 0 0 0 0 0 0 0 0 0 0 0
split_gain=0.133471 0.120442 0.0284292 0.0295309 0.0451716 0.0874737 0.0198704 0.0306279 0.0145801 0.0566176 0.019536 0.0137281 0.0439949 0.0111027 0.0179605
threshold=0.0094507608490938186 0.034700692463974864 0.00057152661599419276 0.0029133719470074175 0.0034139475987942222 0.0032123904825280586 0.0057135858088470373 0.0080342926500988534 0.0022947574831414402 0.0020096510130461283 0.0010394289129215773 0.00022128672069112812 0.00030930555748964121 0.00035675154792058324 0.00040819260646470299
decision_type=2 2 2 2 2 2 2 2 2 2 2 2 2 2 2
left_child=2 -2 11 8 5 -5 -6 -8 9 10 -4 -1 -13 -14 -15
right_child=1 -3 3 4 6 -7 7 -9 -10 -11 -12 12 13 14 -16
leaf_value=-0.011215138585190279 0.021221968569406752 -0.0042655777032907117 0.0095261215635147525 -0.020486042710819989 0.0021051555629866422 -0.12853269100160936 -0.084736398334977842 -0.010092624883914183 0.0094834087984287177 -0.051047251094791149 -0.010037920717680865 -0.10390965728808138 0.011435172257888105 -0.060437683729571867 -0.016732165067555156
leaf_weight=2.7907998748123668 4.2189711062237611 3.3075872519984841 1.3072377890348446 0.56977148097939823 1.2846856703981755 0.086275871144607663 0.068583698302972951 0.27694257546681911 1.5068307237233964 0.223073000088334 0.8373487862991168 0.066251714364625403 0.10349775408394636 0.11165415192954242 0.59553489647805691
leaf_count=8 24 10 8 8 36 8 12 12 20 8 24 8 8 8 8
internal_value=0 0.100213 -0.0767423 -0.0352449 -0.125374 -0.346951 -0.0362048 -0.249087 0.0179386 -0.0309994 0.0188739 -0.146446 -0.255587 -0.191556 -0.236326
internal_weight=0 7.52656 9.82849 6.16075 2.28626 0.656047 1.63021 0.345526 3.87449 2.36766 2.14459 3.66774 0.876939 0.810687 0.707189
internal_count=210 34 176 136 76 16 60 24 60 40 32 40 32 24 16
shrinkage=0.1


Tree=41
num_leaves=16
num_cat=0
split_feature=0 0 0 0 0 0 0 0 0 0 0 0 0 0 0
split_gain=0.122922 0.104415 0.0147752 0.0790845 0.0400489 0.0362793 0.0341534 0.018187 0.0106934 0.0747734 0.00554286 0.0315696 0.0137322 0.00508527 0.00429287
threshold=0.0094507608490938186 0.034700692463974864 0.0030745927766122729 0.0023979150879703676 0.0025691267063415527 0.00057152661599419276 0.0048915492789307095 0.0086968362086252311 0.0041562167850123432 0.003486351886164325 0.0010394289129215773 0.0017774253011659119 0.0012204174449384987 0.0057135858088470373 0.00370164691634388
decision_type=2 2 2 2 2 2 2 2 2 2 2 2 2 2 2
left_child=2 -2 3 5 -5 -1 8 13 9 -4 -7 12 -12 -8 -11
right_child=1 -3 6 4 -6 10 7 -9 -10 14 11 -13 -14 -15 -16
leaf_value=-0.012325848211132319 0.020097151421549754 -0.0036816555534952542 0.010503978494502644 -0.095741484640302035 -0.029284292530846724 0.0074296880257868174 -0.028641478593876869 -0.0034220673644993899 0.019407843174927261 -0.07843868826713063 -0.019110113917240809 0.0040511736209407926 -0.071555819079048261 -0.057724612564883294 -0.037161972765355954
leaf_weight=3.6416193959303218 4.1972649595700195 3.2973755057901144 1.0680481619201603 0.1014283716212957 0.85563047311734397 1.2941510230302813 0.1205533177126198 0.22133192350156605 0.46969863574486215 0.10236489493399847 0.15904058888554562 1.5160155376652253 0.07276813400676474 0.11993507388979197 0.033423163811676204
leaf_count=40 24 10 16 8 12 8 8 8 8 8 8 16 12 16 8
internal_value=0 0.0963532 -0.0738678 -0.0944199 -0.363274 -0.0559213 -0.000329173 -0.241077 0.0661065 0.0161759 0.0246896 -0.0120414 -0.355736 -0.431457 -0.682787
internal_weight=0 7.49464 9.77601 7.64065 0.957059 6.68359 2.13536 0.46182 1.67353 1.20384 3.04198 1.74782 0.231809 0.240488 0.135788
internal_count=210 34 176 104 20 84 72 32 40 32 44 36 20 24 16
shrinkage=0.1


Tree=42
num_leaves=16
num_cat=0
split_feature=0 0 0 0 0 0 0 0 0 0 0 0 0 0 0
split_gain=0.127207 0.098152 0.0134171 0.0376608 0.0277997 0.0199584 0.177797 0.0269955 0.0360286 0.0243492 0.0156755 0.0115875 0.00891666 0.00833723 0.0217709
threshold=0.0094507608490938186 0.034700692463974864 0.003486351886164325 0.0045249144143414627 0.0030745927766122729 0.00050676892211202931 0.00038205361778671098 0.0022947574831414402 0.0024586477391523223 0.0020096510130461283 0.0027390048446439721 0.00033208591016369889 0.00029723335608637251 0.0057135858088470373 0.0080342926500988534
decision_type=2 2 2 2 2 2 2 2 2 2 2 2 2 2 2
left_child=2 -2 4 -4 5 6 11 9 -9 -7 -10 12 -1 -5 -15
right_child=1 -3 3 13 -6 7 -8 8 10 -11 -12 -13 -14 14 -16
leaf_value=-0.011657253429616689 0.019987295060588096 -0.003105753604066331 -0.065874202012910554 -0.0030064567377658729 0.0087761830701454987 -0.016543904498724154 0.056757821794900631 0.013086983878513725 -0.040474343523706713 -0.05198569605455914 -0.0092496691486847107 -0.055754378479859493 0.018632461944773606 -0.077195493220622399 -0.011088723042225863
leaf_weight=2.8156428476795585 4.1760582444258025 3.2908900426700711 0.14353972434764617 0.54568927048239857 1.0747147004585711 2.3301786956726578 0.43789677601307614 0.75105357426218655 0.21098017296753824 0.21143326570745544 0.67568102548830211 0.057992106652818502 0.10066233540419478 0.060778814426157617 0.27623978641349822
leaf_count=12 24 10 20 12 16 36 8 8 8 8 8 8 8 12 12
internal_value=0 0.0980955 -0.0755714 -0.18369 -0.0627681 -0.0840782 -0.0273323 -0.130408 -0.0302866 -0.194923 -0.166796 -0.114919 -0.106117 -0.106441 -0.230106
internal_weight=0 7.46695 9.69248 1.02625 8.66624 7.59152 3.41219 4.17933 1.63771 2.54161 0.886661 2.9743 2.91631 0.882708 0.337019
internal_count=210 34 176 56 120 104 36 68 24 44 16 28 20 36 24
shrinkage=0.1


Tree=43
num_leaves=16
num_cat=0
split_feature=0 0 0 0 0 0 0 0 0 0 0 0 0 0 0
split_gain=0.121812 0.0893069 0.0328108 0.0463581 0.0315993 0.030548 0.0304738 0.0830013 0.0191495 0.0479984 0.0177168 0.0279434 0.01441 0.0104846 0.0052272
threshold=0.0094507608490938186 0.034700692463974864 0.00057152661599419276 0.0029133719470074175 0.00033208591016369889 0.00040819260646470299 0.0034139475987942222 0.0032123904825280586 0.0022947574831414402 0.0020096510130461283 0.0036305583950912456 0.0045249144143414627 0.0010882142126313302 0.00029723335608637251 0.0014127325142832394
decision_type=2 2 2 2 2 2 2 2 2 2 2 2 2 2 2
left_child=2 -2 4 8 13 -6 7 -5 9 12 -8 -12 -4 -1 -14
right_child=1 -3 3 6 5 -7 10 -9 -10 -11 11 -13 14 -15 -16
leaf_value=-0.011561036715406196 0.019349455860369961 -0.0027222903282146911 0.0089160940910466661 -0.01903283914058344 -0.077345948519271845 -0.023942986700938775 0.0057867465898384547 -0.12760870576897285 0.012784178558444759 -0.047479885521448911 -0.079225947799193536 -0.011027352049210948 -0.028090448928971584 0.020478407571608133 -0.0048244889573517491
leaf_weight=2.812847105786207 4.1577915996313086 3.2789052473381162 1.3509595384821307 0.55273688340093963 0.13246317405719299 0.55977082252502441 0.64957560040056683 0.080684982007369413 1.4689950894098727 0.20933724846690879 0.064362114819232374 0.90298496795003291 0.11358810786623497 0.10598539153579611 0.64441024733241647
leaf_count=12 24 10 12 8 12 8 8 8 20 8 16 36 8 8 12
internal_value=0 0.0961783 -0.0741291 -0.029031 -0.149532 -0.34162 -0.142707 -0.328632 0.0385135 -0.0180897 -0.0698719 -0.155649 0.0272437 -0.103977 -0.0831096
internal_weight=0 7.4367 9.6487 6.03763 3.61107 0.692234 2.25034 0.633422 3.78729 2.3183 1.61692 0.967347 2.10896 2.91883 0.757998
internal_count=210 34 176 136 40 20 76 16 60 40 60 52 32 20 20
shrinkage=0.1


Tree=44
num_leaves=16
num_cat=0
split_feature=0 0 0 0 0 0 0 0 0 0 0 0 0 0 0
split_gain=0.115087 0.0798083 0.0115394 0.0199431 0.0241568 0.0213231 0.0406856 0.0634257 0.00885964 0.0286024 0.008656 0.00720346 0.0342095 0.0157196 0.00534771
threshold=0.0094507608490938186 0.034700692463974864 0.00057152661599419276 0.003486351886164325 0.0045249144143414627 0.0030745927766122729 0.0023979150879703676 0.0025691267063415527 0.00033208591016369889 0.00029723335608637251 0.00040819260646470299 0.0010394289129215773 0.0017774253011659119 0.0012204174449384987 0.0038655866004841583
decision_type=2 2 2 2 2 2 2 2 2 2 2 2 2 2 2
left_child=2 -2 8 5 14 6 11 -8 9 -1 -10 -4 13 -13 -5
right_child=1 -3 3 4 -6 -7 7 -9 10 -11 -12 12 -14 -15 -16
leaf_value=-0.011415837287510253 0.018541627694438751 -0.0023374647397531373 0.0059713935277020853 -0.046656133678314331 -0.011186671162661558 0.010773803437258599 -0.10021075113656373 -0.014727941217410652 -0.045923843450981966 0.038025147505860737 -0.0166862983801137 -0.023441623261862572 0.0015012864940503962 -0.082001615031302544 -0.096894918743128791
leaf_weight=2.8077491112053421 4.1511922013014546 3.2750910362228751 1.2754482254385955 0.11240844486746916 0.87662890893989243 1.0422532177763058 0.09735162905417373 0.800627660471946 0.12413054809439916 0.12209980527404685 0.54957547038793564 0.15513472235761572 1.4797277032630516 0.065065244503784925 0.026109359401743856
leaf_count=12 24 10 8 12 36 16 8 12 12 8 8 8 16 12 8
internal_value=0 0.0933367 -0.0727 -0.045582 -0.173186 -0.0192298 -0.0533946 -0.239953 -0.117331 -0.0935541 -0.220733 0.00290933 -0.0397109 -0.407451 -0.561257
internal_weight=0 7.42628 9.53431 5.93076 1.01515 4.91561 3.87336 0.897979 3.60355 2.92985 0.673706 2.97538 1.69993 0.2202 0.138518
internal_count=210 34 176 136 56 80 64 20 40 20 20 44 36 20 20
shrinkage=0.1


Tree=45
num_leaves=16
num_cat=0
split_feature=0 0 0 0 0 0 0 0 0 0 0 0 0 0 0
split_gain=0.11267 0.0724102 0.0167203 0.164959 0.0604871 0.0599963 0.0459803 0.0392413 0.0227031 0.0573789 0.0205557 0.0155299 0.00709242 0.00570334 0.0122159
threshold=0.0094507608490938186 0.034700692463974864 0.00050676892211202931 0.00030930555748964121 0.0022947574831414402 0.0029133719470074175 0.00022128672069112812 0.0020096510130461283 0.0034139475987942222 0.0032123904825280586 0.0048915492789307095 0.0086968362086252311 0.016412443178414997 0.0016195329249224816 0.0012204174449384987
decision_type=2 2 2 2 2 2 2 2 2 2 2 2 2 2 2
left_child=2 12 3 6 7 -6 -1 13 9 -7 -10 -12 -2 14 -4
right_child=1 -3 4 -5 5 8 -8 -9 10 -11 11 -13 -14 -15 -16
leaf_value=-0.0097727248452813276 0.01217353806409663 -0.0018734320955086136 -0.020177795524661899 0.04673256560790609 0.013922455555773884 -0.018370816018034402 -0.09952646404084961 -0.062208046286149177 0.001086069844462271 -0.11848102000128682 -0.042620701564985687 -0.0052013069833197166 0.020963323732754488 -0.010001300444496366 -0.081767179663532724
leaf_weight=2.762377709150317 1.375781079288571 3.2712652562186122 1.6332779123913503 0.58474580827169109 1.420407956466079 0.5444201503414664 0.058282008743844815 0.22463504038751117 1.1199563794943967 0.063981067854911089 0.22706306565669357 0.21681708516553044 2.7587914131581783 0.59707450727000821 0.032852188334800192
leaf_count=8 16 10 20 20 20 8 8 8 28 8 24 8 8 8 8
internal_value=0 0.0924312 -0.072163 -0.0160624 -0.103583 -0.0205848 -0.116273 -0.223438 -0.125083 -0.288987 -0.0613169 -0.243429 0.180385 -0.183871 -0.213922
internal_weight=0 7.40584 9.48589 3.40541 6.08049 3.59265 2.82066 2.48784 2.17224 0.608401 1.56384 0.44388 4.13457 2.2632 1.66613
internal_count=210 34 176 36 140 96 16 44 76 16 60 32 24 36 28
shrinkage=0.1


Tree=46
num_leaves=16
num_cat=0
split_feature=0 0 0 0 0 0 0 0 0 0 0 0 0 0 0
split_gain=0.0972805 0.057661 0.0471033 0.227742 0.104718 0.0410647 0.0289049 0.0398788 0.0138355 0.0139566 0.0182212 0.0308715 0.0480901 0.00820425 0.00715135
threshold=0.00057152661599419276 0.041395876521643983 0.0099013501579142058 0.0092596468266261649 0.029669815641127726 0.0057135858088470373 0.00033208591016369889 0.00040819260646470299 0.0010394289129215773 0.0022947574831414402 0.0029133719470074175 0.0034139475987942222 0.0032123904825280586 0.0020096510130461283 0.012461600045750023
decision_type=2 2 2 2 2 2 2 2 2 2 2 2 2 2 2
left_child=6 2 3 5 14 8 -1 -8 -2 13 -11 12 -12 -10 -4
right_child=1 -3 4 -5 -6 -7 7 -9 9 10 11 -13 -14 -15 -16
leaf_value=-0.01028224448555615 0.0084960789169277514 0.016957652449587732 -0.050348024895511517 0.05107471222804516 0.00034492070535894489 -0.055949867914229116 -0.080964663167646111 -0.020870048381760306 -0.0091675792069111882 0.0084071917843098962 -0.016427481259586978 0.0021972635608070346 -0.11469609800644415 -0.031882515779378805 -0.031500073561288769
leaf_weight=2.9047775543294878 1.2921837642788867 2.7167991884052745 0.37039233744144473 0.9482744517736138 3.0309109874069691 0.13714969818829548 0.13909744669217605 0.53571967966854572 0.75703918459475972 1.3976120359729978 0.53815113799646486 1.2461554882756898 0.054877870599739247 0.20128405594732607 0.44097781740128994
leaf_count=20 8 6 8 8 8 20 12 8 24 20 8 36 8 8 8
internal_value=0 0.0398347 0.00599099 0.0574093 -0.0819668 -0.0190228 -0.146134 -0.332571 -0.00551416 -0.0333823 -0.00199772 -0.0674028 -0.255211 -0.139386 -0.401042
internal_weight=0 13.1318 10.415 6.57273 3.84228 5.62445 3.57959 0.674817 5.4873 4.19512 3.2368 1.83918 0.593029 0.958323 0.81137
internal_count=210 170 164 140 24 132 40 20 112 104 72 52 16 32 16
shrinkage=0.1


Tree=47
num_leaves=16
num_cat=0
split_feature=0 0 0 0 0 0 0 0 0 0 0 0 0 0 0
split_gain=0.420195 0.414153 0.17635 0.0283491 0.0170693 0.0320701 0.109647 0.0184199 0.0394103 0.0377123 0.00922421 0.00836284 0.0230624 0.00563932 0.00462799
threshold=0.011470598474560776 0.034700692463974864 0.0094507608490938186 0.016412443178414997 0.00057152661599419276 0.0023979150879703676 0.0025691267063415527 0.0030745927766122729 0.003486351886164325 0.0045249144143414627 0.0021377646103648952 0.0010394289129215773 0.0017774253011659119 0.0012204174449384987 0.00022128672069112812
decision_type=2 2 2 2 2 2 2 2 2 2 2 2 2 2 2
left_child=2 3 4 -2 14 10 -7 -8 -9 -10 11 -6 13 -13 -1
right_child=1 -3 -4 -5 5 6 7 8 9 -11 -12 12 -14 -15 -16
leaf_value=-0.010650965585797348 0.028378094011824419 -0.0017219476675385016 -0.047534292982823571 0.057439519183013356 0.0055587352613570154 -0.11236615972928875 -0.020498334007807078 0.011721662379822846 -0.066578935033981559 -0.0088791071000953927 0.013375058702641416 -0.026843000618089804 0.0017262115862596208 -0.064921129222584445 -0.019325895987603467
leaf_weight=2.7700348198413871 0.40070576313883011 3.21914026979357 1.2219246579334129 2.0679482417181134 1.2758802771568305 0.10338014550507102 0.78055092133581661 0.99381590541452147 0.13027712411712855 0.86796026793308545 0.73121868527960021 0.15055810078047205 0.68046976253390312 0.052440164843574166 0.79047258605714865
leaf_count=8 8 10 8 8 8 8 12 16 20 36 8 8 8 12 32
internal_value=0 0.219083 -0.118125 0.527223 -0.0713266 -0.0377116 -0.112475 -0.0747717 -0.0237506 -0.164093 0.0366748 0.00380212 -0.0709847 -0.366797 -0.125769
internal_weight=0 5.68779 10.549 2.46865 9.32706 5.76655 2.87598 2.7726 1.99205 0.998237 2.89057 2.15935 0.883468 0.202998 3.56051
internal_count=210 26 184 16 176 136 92 84 72 56 44 36 28 20 40
shrinkage=0.1


Tree=48
num_leaves=16
num_cat=0
split_feature=0 0 0 0 0 0 0 0 0 0 0 0 0 0 0
split_gain=0.0921707 0.488288 0.13309 0.0629863 0.023936 0.0178271 0.0103163 0.0304916 0.0215194 0.0236123 0.0422871 0.0100037 0.00581386 0.00765954 0.00293245
threshold=0.0092596468266261649 0.0099013501579142058 0.029669815641127726 0.041395876521643983 0.0048915492789307095 0.00057152661599419276 0.0010394289129215773 0.0022947574831414402 0.0029133719470074175 0.0034139475987942222 0.0032123904825280586 0.0017774253011659119 0.0036305583950912456 0.0041562167850123432 0.0012204174449384987
decision_type=2 2 2 2 2 2 2 2 2 2 2 2 2 2 2
left_child=4 -2 -3 -4 5 -1 -7 11 -9 10 -10 14 -11 -14 -8
right_child=1 2 3 -5 -6 6 7 8 9 12 -12 -13 13 -15 -16
leaf_value=-0.011377840650577661 0.079226546245593388 -0.039423838581245277 -0.0056360363366505899 0.015382174002817739 -0.037844297120581717 0.0056837856299899233 -0.033192126918973594 0.0094949655513532436 -0.015523454673932638 0.0074528101832586728 -0.11260657616805113 -0.01494732879235044 -0.052260248566190437 -0.0036089849062175463 -0.061241206818792443
leaf_weight=3.5549106149701402 0.85775637812912353 0.79320281324908126 3.0204263851046562 2.7006038306280971 0.24109017231967375 1.2590797320008276 0.15655987069476385 1.3676052727969366 0.53124395420309145 0.63303552661091067 0.04900508385617286 0.7449284653412177 0.034954857605043799 0.43599312732112594 0.048919451015535742
leaf_count=40 8 16 8 6 28 8 8 20 8 8 8 12 12 8 12
internal_value=0 0.0830222 -0.0103668 0.0428558 -0.0675739 -0.0590729 -0.02211 -0.0469465 0.00176281 -0.0739054 -0.237226 -0.203356 0.0119354 -0.0722 -0.398699
internal_weight=0 7.37199 6.51423 5.72103 9.05733 8.81624 5.26133 4.00225 3.05184 1.68423 0.580249 0.950408 1.10398 0.470948 0.205479
internal_count=210 38 30 14 172 144 104 96 64 44 16 32 28 20 20
shrinkage=0.1


Tree=49
num_leaves=16
num_cat=0
split_feature=0 0 0 0 0 0 0 0 0 0 0 0 0 0 0
split_gain=0.853526 0.793687 0.633389 0.113473 0.0952064 0.0338103 0.0266956 0.0232968 0.0240432 0.0170942 0.041918 0.0204024 0.0273183 0.0272494 0.00942641
threshold=0.011470598474560776 0.034700692463974864 0.0094507608490938186 0.0086968362086252311 0.016412443178414997 0.00040819260646470299 0.00088350347698647733 0.0017774253011659119 0.0057135858088470373 0.0023979150879703676 0.0025691267063415527 0.0030745927766122729 0.003486351886164325 0.0045249144143414627 0.00033208591016369889
decision_type=2 2 2 2 2 2 2 2 2 2 2 2 2 2 2
left_child=2 4 3 5 -2 14 -7 -8 9 -9 -11 -12 -13 -14 -1
right_child=1 -3 -4 -5 -6 6 7 8 -10 10 11 12 13 -15 -16
leaf_value=-0.016438408019539403 0.029378182272568755 -0.0014407994539477802 -0.078529706953819584 0.051779371346100493 0.082948780848130566 0.0092058544218036904 -0.022762407578168241 0.0056759174169282471 -0.052447027067047181 -0.082544986517268368 -0.019490553903983993 0.01080117552788484 -0.058430095448855447 -0.0058262472261182141 -0.045534148628331786
leaf_weight=2.9923609723336999 0.3955700378864998 3.174043589271605 1.4273280510678876 0.31718157965224314 2.0563244726508856 1.1271621640771625 0.86424830072792225 1.355459307087586 0.10241200137534168 0.073768408154137766 0.76521637674886755 0.98446783691178974 0.1209656348801218 0.52961880550719798 0.11565282766241568
leaf_count=20 8 10 8 8 8 12 24 16 16 8 12 16 20 12 12
internal_value=0 0.315712 -0.164829 -0.0700967 0.743061 -0.0907435 -0.0464227 -0.0789676 -0.0462924 -0.0335045 -0.0829576 -0.0601383 0.00293377 -0.156071 -0.175211
internal_weight=0 5.62594 10.7758 9.34851 2.45189 9.03133 5.92332 4.79616 3.93191 3.8295 2.47404 2.40027 1.63505 0.650584 3.10801
internal_count=210 26 184 176 16 168 136 124 100 84 68 60 48 32 32
shrinkage=0.1


Tree=50
num_leaves=16
num_cat=0
split_feature=0 0 0 0 0 0 0 0 0 0 0 0 0 0 0
split_gain=0.0804031 0.298816 0.0931345 0.0407736 0.0174594 0.0301528 0.0167512 0.0189785 0.0166479 0.0150417 0.0128271 0.0262438 0.00485074 0.0138852 0.00319602
threshold=0.0094507608490938186 0.012461600045750023 0.041395876521643983 0.029669815641127726 0.00057152661599419276 0.003486351886164325 0.0030745927766122729 0.0010394289129215773 0.0045249144143414627 0.0017774253011659119 0.0023979150879703676 0.0025691267063415527 0.0057135858088470373 0.0080342926500988534 0.0038655866004841583
decision_type=2 2 2 2 2 2 2 2 2 2 2 2 2 2 2
left_child=4 -2 3 -3 -1 6 7 -6 14 -9 -11 -12 -10 -14 -7
right_child=1 2 -4 -5 5 8 -8 9 12 10 11 -13 13 -15 -16
leaf_value=-0.011660863777661529 0.059102659381101812 -0.039908674791611309 0.013705668137681804 -0.007047879151218738 0.0079575149431307876 -0.046010300491554995 0.012097491513813757 -0.033831874679642396 -0.0075661960212340925 0.00063743276472615681 -0.075833367360280485 -0.0098369943375330275 -0.072097011463722216 -0.014866385263882682 -0.08907553018930886
leaf_weight=3.5561836312990653 0.98527712095528741 0.43239490129053626 2.676785996183753 2.97923344373703 1.1744982376694681 0.096941204858012289 1.0110631611896677 0.19957519063609688 0.52858003706205636 1.4016373632475736 0.06549448100849975 0.75304440199397504 0.048983559448970482 0.31509342297795229 0.020958473905920982
leaf_count=40 12 8 6 8 8 12 16 20 12 16 8 12 12 12 8
internal_value=0 0.0801082 -0.00257283 -0.112127 -0.0617812 -0.0270624 0.00726227 -0.0247251 -0.183487 -0.0753504 -0.0517117 -0.151176 -0.136841 -0.225663 -0.536658
internal_weight=0 7.07369 6.08841 3.41163 9.17205 5.61587 4.60531 3.59425 1.01056 2.41975 2.22018 0.818539 0.892657 0.364077 0.1179
internal_count=210 34 22 16 176 136 80 64 56 56 36 20 36 24 20
shrinkage=0.1


Tree=51
num_leaves=16
num_cat=0
split_feature=0 0 0 0 0 0 0 0 0 0 0 0 0 0 0
split_gain=0.0845881 0.179688 0.0638348 0.0152351 0.0197733 0.0240833 0.0382058 0.0143584 0.0128343 0.011158 0.0372885 0.00742384 0.00982894 0.00590582 0.00654385
threshold=0.0094507608490938186 0.012461600045750023 0.041395876521643983 0.00057152661599419276 0.0029133719470074175 0.0022947574831414402 0.0020096510130461283 0.029669815641127726 0.0010394289129215773 0.0034139475987942222 0.0032123904825280586 0.0036305583950912456 0.0045249144143414627 0.0016195329249224816 0.0012204174449384987
decision_type=2 2 2 2 2 2 2 2 2 2 2 2 2 2 2
left_child=3 -2 7 -1 5 6 8 -3 -5 10 -6 -11 -13 14 -10
right_child=1 2 -4 4 9 -7 -8 -9 13 11 -12 12 -14 -15 -16
leaf_value=-0.011493699942810853 0.048181888468662414 -0.024534302311620598 0.013420427067118249 0.0055991957230033911 -0.015275142386949291 0.012042532962181465 -0.048501894182332264 -0.0048154667815742359 -0.019084189980343665 0.0021792068487983115 -0.11106812473827006 -0.058115840541597102 -0.0096752580047958087 -0.0063950964796178266 -0.073182994190009287
leaf_weight=3.534594584489243 0.97097077500075013 0.42182572558522258 2.6637390572577715 1.1772198453545577 0.52217952697537873 1.3410765337757764 0.18496715405490241 2.9638518914580345 0.14017912058625359 0.61730155441910006 0.044064830522984266 0.043962199648376561 0.88774003583239391 0.58847722178325057 0.02660252904752269
leaf_count=40 12 8 6 8 8 20 8 8 8 8 8 16 36 8 8
internal_value=0 0.0824886 0.0183935 -0.0635791 -0.0310106 0.0155695 -0.0508405 -0.0727226 -0.00928311 -0.107171 -0.227297 -0.0632586 -0.119609 -0.111027 -0.277132
internal_weight=0 7.02039 6.04942 9.10837 5.57377 3.45852 2.11745 3.38568 1.93248 2.11525 0.566244 1.549 0.931702 0.755259 0.166782
internal_count=210 34 22 176 136 60 40 16 32 76 16 60 52 24 16
shrinkage=0.1


Tree=52
num_leaves=16
num_cat=0
split_feature=0 0 0 0 0 0 0 0 0 0 0 0 0 0 0
split_gain=0.117905 0.0670705 0.0280429 0.0122279 0.0120074 0.138424 0.0201427 0.00635215 0.0302288 0.0247552 0.0184788 0.0147147 0.0118674 0.00741893 0.00574619
threshold=0.0094507608490938186 0.034700692463974864 0.016412443178414997 0.011470598474560776 0.00050676892211202931 0.00038205361778671098 0.00088350347698647733 0.0030745927766122729 0.0023979150879703676 0.003486351886164325 0.0045249144143414627 0.0025691267063415527 0.0017774253011659119 0.0012204174449384987 0.00030930555748964121
decision_type=2 2 2 2 2 2 2 2 2 2 2 2 2 2 2
left_child=4 2 3 -2 5 14 -6 8 12 -9 -11 -10 13 -8 -1
right_child=1 -3 -4 -5 6 -7 7 9 11 10 -12 -13 -14 -15 -16
leaf_value=-0.011293731657501218 0.023564357805301445 -0.0012831552890788757 0.012713517188968911 0.04456988207632244 -0.025870375757742359 0.052256500420606602 -0.012065855670963875 0.0078006783594214467 -0.074217597452212888 -0.052257573669739758 -0.0097600700178590068 -0.023311251588303099 0.0010027625071447885 -0.055089775841012156 0.010188180785040571
leaf_weight=2.8078404075931784 0.78553053922951155 3.1245991447940469 2.7376922704279423 0.42819414706900721 0.73056736588478066 0.40154120093211521 0.760675485478715 0.96037647820776306 0.061211308697238447 0.11584979479084724 0.87586762895807613 0.78459543315693725 1.3580205346224827 0.042308604635763913 0.13029676408041255
leaf_count=16 8 10 8 8 8 8 12 16 8 20 36 12 16 12 12
internal_value=0 0.0966525 0.183227 0.30975 -0.0757452 -0.0281475 -0.103685 -0.0808465 -0.109684 -0.0364274 -0.147245 -0.269954 -0.0469559 -0.143328 -0.103411
internal_weight=0 7.07602 3.95142 1.21372 9.02915 3.33968 5.68947 4.95891 3.00681 1.95209 0.991717 0.845807 2.161 0.802984 2.93814
internal_count=210 34 24 16 176 36 140 132 60 72 56 20 40 24 28
shrinkage=0.1


Tree=53
num_leaves=16
num_cat=0
split_feature=0 0 0 0 0 0 0 0 0 0 0 0 0 0 0
split_gain=0.0706771 0.033075 0.0245352 0.132 0.0894932 0.0290112 0.0291505 0.0393277 0.0145055 0.0120615 0.0108872 0.0129992 0.0328039 0.00992191 0.00454173
threshold=0.00057152661599419276 0.041395876521643983 0.0099013501579142058 0.0092596468266261649 0.029669815641127726 0.0029133719470074175 0.0022947574831414402 0.0010394289129215773 0.00033208591016369889 0.0020096510130461283 0.0048915492789307095 0.0034139475987942222 0.0032123904825280586 0.00040819260646470299 0.00029723335608637251
decision_type=2 2 2 2 2 2 2 2 2 2 2 2 2 2 2
left_child=8 2 3 5 -4 6 7 -2 14 -9 11 12 -7 -10 -1
right_child=1 -3 4 -5 -6 10 -8 9 13 -11 -12 -13 -14 -15 -16
leaf_value=-0.010396835364941579 0.0087580038947531937 0.013426137630379895 -0.035156084814533278 0.040126930336061802 0.0025653764507415798 -0.014318900510781869 0.015900345793269342 -0.013154054674230187 -0.055087191192133705 -0.042183584940214319 -0.032174187505401873 -0.0020718974888942129 -0.10943896571929579 -0.020888987495514596 0.010848783639929164
leaf_weight=2.7838699119165558 1.1958413571119297 2.6520196162164202 0.80162163591012381 0.89914205623790611 2.9197750054299831 0.51699835015460838 1.296938488143496 0.73092458114842862 0.10208170989062626 0.17797696241177621 0.22382274642586697 1.0477129827777387 0.038990376458968967 0.5022245068103075 0.10439276543911535
leaf_count=12 8 6 16 8 8 8 20 24 12 8 28 28 8 8 8
internal_value=0 0.0351353 0.0084458 0.0473381 -0.0556016 -0.013519 0.0410756 -0.0315912 -0.125768 -0.188385 -0.115139 -0.0863045 -0.209895 -0.266659 -0.0962894
internal_weight=0 12.5018 9.84974 6.12835 3.7214 5.22921 3.40168 2.10474 3.49257 0.908902 1.82752 1.6037 0.555989 0.604306 2.88826
internal_count=210 170 164 140 24 132 60 40 40 32 72 44 16 20 20
shrinkage=0.1


Tree=54
num_leaves=16
num_cat=0
split_feature=0 0 0 0 0 0 0 0 0 0 0 0 0 0 0
split_gain=0.675269 0.593978 0.567124 0.0422723 0.0150132 0.0286049 0.00818107 0.0133436 0.00709711 0.0101175 0.0281385 0.00690705 0.0246047 0.00388524 0.00574971
threshold=0.011470598474560776 0.034700692463974864 0.0094507608490938186 0.016412443178414997 0.00057152661599419276 0.0029133719470074175 0.00033208591016369889 0.00040819260646470299 0.0048915492789307095 0.0034139475987942222 0.0032123904825280586 0.0022947574831414402 0.0020096510130461283 0.0010394289129215773 0.0016195329249224816
decision_type=2 2 2 2 2 2 2 2 2 2 2 2 2 2 2
left_child=2 3 4 -2 6 11 -1 -8 9 10 -7 12 13 -6 -15
right_child=1 -3 -4 -5 5 8 7 -9 -10 -11 -12 -13 -14 14 -16
